281 128
8522:MIDWAY -0.22201732 -0.2594685 -0.29010436 0.68521947 0.76488477 -0.52210957 0.5025133 -0.116219625 -0.94369733 0.36729768 0.49994817 -0.6917799 -0.8308304 0.7797459 0.8175707 0.86278874 -0.5459672 0.11182127 -0.44437006 -0.44280228 0.7520951 0.39275095 0.15512958 -0.4356862 -0.55952054 0.15830241 -0.17939466 -0.32530162 -0.72315097 0.4076158 -0.16911438 0.06120783 0.7983866 0.3207467 -0.09376598 -0.4368255 0.6291043 0.32772288 -0.20027508 0.17446119 0.13400976 -0.09297943 -0.02010525 0.23235603 0.18091382 -0.19517897 0.098369904 -0.0640929 -0.23009121 -0.13048984 -0.39254224 0.22184172 0.2761604 -0.47769564 -0.014494673 -0.63543713 0.2782359 -0.39100656 -0.6638611 0.62562174 -0.29654902 0.2414461 0.51443744 -0.29528695 -0.02107623 0.03396429 -0.6398969 0.07337163 -0.19687298 -0.19889697 -0.21736726 -0.16065219 -0.6630499 -0.26777303 -0.015801722 -0.448045 0.40145913 0.110775545 0.5730773 -0.14803368 -0.16099972 0.541838 0.32828587 0.35642058 -0.046717227 -0.0036340507 0.32294667 -0.102834545 0.18202348 -0.40388554 -1.2130971 0.71403253 0.15985708 -0.39091548 0.38706762 -0.2958781 0.5475989 -0.48932815 -0.09003413 0.024721175 -0.45597985 0.2107412 -0.22957861 -0.03004122 -0.38603216 0.20220801 -0.46396354 0.38128138 0.00033946094 -0.8056949 0.3517851 -0.36819544 0.25880775 -0.0606358 0.5179603 0.5306353 0.3452134 -0.18970571 -0.48249727 0.024120495 0.0334995 -0.11168218 -0.13884103 -0.13197139 -0.24067624 0.06276651 0.26211864 0.3219345
9330:SIMMONS -0.21008 -0.4335283 -0.7495693 0.67109025 1.0095788 -0.59154624 0.19129466 -0.17625141 -0.8918982 0.7732928 0.20257773 -0.90444434 -0.63857317 0.51969695 0.48067924 0.41541675 -0.90807897 0.11761211 -0.59294844 0.6264503 0.60053366 -0.017610006 -0.52677757 -0.08625617 -0.6377302 -0.44282183 -0.41968936 -0.3563631 -0.52432746 0.09941645 0.10494119 0.6794722 0.23527195 0.12729084 -0.1443279 -0.009457657 0.33293077 -0.010698749 0.04142918 -0.15176441 -0.07135718 -0.95372653 0.2544704 -0.13472064 -0.16900116 -0.25786677 -0.245008 -0.016655799 -0.3944563 0.18289948 0.20802264 -0.03476087 -0.40069905 -0.14495593 0.24898748 -0.3886665 0.17414245 -0.63735485 -0.7718397 0.19052003 -0.52813953 -0.5104081 0.09386297 -0.38666695 -0.00862297 0.0976845 -0.16273277 0.09468147 -0.09143105 0.07328009 -0.23125279 0.029939096 -0.39070615 0.21958376 0.20436546 0.14732303 -0.12791589 -0.25839585 0.29705387 -0.20747119 -0.0044280603 -0.07975974 -0.054170076 0.39396766 0.03505347 0.533077 0.06816134 -0.085630216 -0.04268973 -0.37478918 -0.6888904 0.20494531 0.38440526 -0.15691555 0.26834774 0.4763288 0.3087864 -0.5910205 -0.27801135 -0.11471639 -0.3867333 0.28298333 0.3553804 -0.19809285 -0.52440786 0.57376283 -0.44340932 0.64835215 0.33273044 -0.056615822 0.5100358 0.10030623 0.12589288 -0.16709775 0.16861983 -0.3807354 -0.14850995 -0.044423264 -0.36337766 0.31508225 -0.2515529 -0.20674486 0.2363246 0.16404767 -0.50945085 0.6486044 0.13274412 0.27614707
8398:CHISHOLM_CREEK -0.028504025 -0.067497455 0.0060089813 0.20505947 1.1435851 -0.667501 0.6903705 0.038747385 -0.5691641 0.58458614 0.6166866 -0.6497525 -0.3224338 0.09560776 0.051489964 0.44616902 -0.09930266 0.29672006 -0.62953496 0.06493959 0.5060342 0.3612722 -0.30858967 -0.22252011 -0.30331475 -0.29457456 -0.5798716 -0.26078463 -0.013144735 0.23352386 0.04949631 0.4274576 0.33508918 -0.4452275 -0.57111496 0.25067592 0.6554766 -0.2681314 -0.16004865 0.1312889 -0.061884105 -0.39896694 0.5931899 -0.7663979 0.04126715 0.22795714 -0.4420009 0.21709257 -0.6824139 0.69877774 0.32510382 -0.05200921 -0.61370784 0.10657379 0.40165108 -0.35131425 1.3078718 -0.51796687 -0.16170363 0.47095513 -0.6488198 -0.17895217 -0.3955334 -0.19755305 0.14154439 0.05879397 -0.04144336 0.24151102 0.0022189077 -0.2609031 -0.23767449 -0.4020239 -0.51388484 -0.43143475 0.16688968 -0.7267177 0.4203325 -0.03845804 0.1798765 -0.33456403 0.34383082 0.20409976 0.072533704 0.395548 -0.06349179 0.56301945 -0.027630603 -0.4134663 0.10201796 -0.23351595 -0.8266151 0.417825 -0.10152557 -0.24640872 -0.039899416 0.2518549 0.62153655 -0.6149667 -0.35186607 0.28438517 -0.3320411 0.5092687 -0.08168443 -0.22149494 -0.3801507 0.5461114 -0.52845573 0.5710147 -0.008718184 -0.37901822 0.5542137 -0.37348667 -0.085814916 -0.593762 0.683034 0.17367005 0.11210097 -0.07915818 -0.08191054 0.25373587 -0.25311086 -0.6928042 -0.19262701 0.03718434 -0.24491444 0.096937776 -0.14576304 -0.13213211
8621:DRAPER_LAKE -0.03285435 -0.06819214 -0.08605232 0.6529955 0.54759055 -0.4930229 0.6826086 -0.16239487 -0.7851022 0.43060115 0.36445078 -0.50077426 -0.49903223 0.1261392 0.46994317 0.51025283 -0.03249222 0.054904316 -0.29687703 0.118144475 0.049676184 0.11249325 0.086019084 -0.12538101 -0.36938992 0.23385634 -0.34219468 -0.004905382 0.085851975 0.031383418 0.17363998 0.31879365 0.51386124 -0.019971725 -0.44379854 -0.11776474 0.768341 -0.072556034 0.07303384 0.011684313 -0.570198 -0.2671918 0.040801503 0.0010825045 0.5722265 0.16021632 -0.47120228 -0.6410836 -0.06504277 -0.0054092444 0.15671587 0.023537397 0.103282966 -0.39989838 0.038151424 -0.3644374 0.590605 -0.5939914 -0.6834046 0.11672521 -0.5937472 -0.2751868 0.20330714 0.114221476 -0.13615327 0.1520408 -0.031212604 0.13782525 0.28872636 0.16205339 -0.3960163 0.028131856 -0.6611964 -0.22180712 -0.092077516 0.4292401 -0.20035097 0.078411944 0.03595113 -0.12405558 -0.064160585 0.28224334 0.15869752 -0.13788854 0.08461119 0.06525812 0.03650201 -0.48981392 0.0060986998 -0.23088163 -0.45045325 0.743117 0.3617606 -0.68760234 0.15665367 0.29228076 0.17627901 -0.3071455 -0.3121713 0.15872309 -0.5079138 -0.052429587 0.15385127 -0.24477829 -0.3432347 0.45239282 -0.2403945 0.4988543 0.31030297 -0.62029034 0.9065005 -0.3277952 0.18681292 -0.36720806 0.9620322 0.36665612 0.19803154 -0.27552998 -0.43393135 0.286717 -0.7054665 -0.29371282 0.15987957 0.092596315 -0.5968203 0.15874346 0.07651511 0.44920805
8245:COUNCIL 0.03404194 0.0028820918 -0.51004237 0.29386142 0.79835284 -0.07220307 0.6416684 -0.14328067 -0.51947224 0.68020624 0.002690359 -0.74648994 -0.51798654 0.064665906 0.34849676 0.3285458 -0.51825947 0.061867293 -0.47941208 -0.16716094 0.23428088 -0.022209167 -0.6217646 0.2645269 -0.34112093 -0.27538243 0.023188917 -0.46826538 -0.43058807 -0.003449996 -0.251652 -0.05040814 0.53496045 0.1746785 -0.61879957 -0.4801089 0.15601774 -0.091488354 -0.2773895 0.0061102067 -0.36153337 -0.726052 0.29715428 0.21908855 -0.00069626817 -0.46957973 -0.06765602 0.0050856695 -0.6396629 -0.12238861 0.35796985 -0.34107757 -0.19782452 -0.19034605 0.128484 -0.35091844 0.34862188 -0.5844632 -0.85368985 0.32126048 -0.56824213 -0.29323956 0.0044941558 -0.29146305 -0.024316464 -0.09751167 -0.3847711 0.2803914 -0.38140887 -0.08111081 0.11485158 -0.1394216 -0.42159006 -0.11272319 0.22381397 0.15097494 -0.058688477 0.017649362 0.5560097 -0.47802275 0.07354571 0.051224757 0.26261315 0.16178827 0.12520827 0.25760198 0.22285342 -0.13446516 0.1912981 -0.31279653 -1.3108042 0.7874908 0.3213036 -0.6305105 0.7442257 0.27516562 0.33241746 -0.59636545 -0.010554161 -0.057991397 -0.46302602 0.26296127 0.18927942 -0.5353121 -0.1562207 0.6234732 -0.7559599 0.30452144 0.21781905 -0.44363043 0.85972697 0.061693475 0.101465344 -0.5303386 0.19983487 0.112867154 0.40497717 -0.005937683 -0.16873702 -0.32142732 -0.10759894 -0.17930022 -0.08829743 0.09219629 -0.24215497 -0.15019065 -0.039165013 0.0002876599
8352:QUAIL_CREEK -0.07231262 -0.2728583 -0.5824145 0.6760636 0.4507734 -0.24595284 0.5642141 0.02239407 -0.40207914 0.44208103 0.42281994 -0.3355701 -0.08362156 0.61934215 0.85505337 1.0047953 -0.5019089 0.009812744 -0.55534214 -0.39706168 0.61691314 0.107837 -0.17304662 -0.43462104 -0.689699 -0.12642471 -0.7068978 -0.49253103 -0.378241 0.2567451 -0.15144674 -0.11675915 0.6718947 0.6203711 -0.21884055 -0.6387259 0.9290515 0.024010183 -0.05127808 0.036718395 0.21866708 -0.6616111 0.47837177 0.5370164 -0.034562614 -0.6711943 0.12996571 -0.07444985 -0.28496513 -0.38289365 -0.0413585 -0.16125476 0.4606789 -0.19004664 0.27531606 -0.39777824 -0.0016761383 -0.16428535 -0.9009717 0.6049636 -0.5327504 0.3242553 0.42479318 -0.11479786 -0.054069623 0.3174788 -0.3783335 -0.10561836 -0.058711704 0.07632417 0.25848922 -0.031004332 -0.6105332 -0.43259877 0.14107661 0.19165187 -0.03729637 0.26757815 0.51397586 0.19016346 -0.30050546 0.08217147 -0.11291899 -0.15204771 0.38526776 0.04363672 0.26152956 0.64493114 0.18990411 0.004534406 -0.8203839 0.365838 0.32034245 -0.3651486 0.28168508 -0.10070872 0.053149782 -0.07612901 -0.011007952 -0.23438738 -0.30409905 0.065945536 -0.4995055 -0.05387941 -0.32950547 -0.21868984 -0.049043026 0.55943197 0.22967614 -0.3111326 0.37082756 -0.03464047 0.31541616 0.38848093 0.21914878 0.438738 0.09416702 -0.29829496 -0.14725691 -0.019530717 -0.2633376 -0.22527224 0.08120603 0.02686575 -0.16348642 0.13480908 -0.10992524 0.11510969
9125:CARNALL -0.020119881 -0.05007566 -0.5066198 0.52863604 0.6210896 0.17819184 0.60944194 -0.2748437 -0.22670561 0.6469393 0.508292 -0.7249905 -0.10594944 -0.16166987 0.43856117 0.5586535 -0.7374274 0.01210867 -0.7314767 0.41065153 0.5719501 0.03354908 -0.06214615 0.0114693465 -0.48857918 -0.09312284 -0.4764503 -0.417681 -0.29230452 0.25192574 0.17050743 0.2725909 0.054720532 -0.079638995 -0.114031196 -0.31822485 0.24771981 -0.18672696 -0.6986639 -0.19997022 -0.25832006 -0.66705817 0.4441023 0.4193505 0.3032563 -0.46420828 0.1533553 -0.502346 -0.2544349 -0.1539437 0.66704094 -0.053795762 -0.1547477 0.010025423 0.2222683 -0.40803665 0.33326033 -0.39503026 -0.3319044 0.007306983 -0.17097537 -0.6633947 0.17278649 -0.61381334 -0.22857629 0.07654558 -0.4581438 -0.26649636 0.06561508 0.20579086 -0.18765792 0.052677374 -0.4076612 0.098443635 -0.28487134 0.08407854 0.3074809 0.10442785 0.07218229 0.11838372 0.07366422 0.50243706 -0.21933252 0.34026414 -0.10289285 -0.15179037 0.19748354 -0.1284078 0.29312122 -0.25509435 -1.1689032 0.58139855 0.08302496 -0.24574533 0.5379087 -0.07582192 0.5332378 -0.616861 0.00024924352 0.08159745 -0.35480273 0.54231614 0.016382836 -0.2340715 -0.1921126 0.8257537 -0.37024486 0.1737204 -0.12269724 -1.0990661 0.21136446 0.25504377 0.10662057 -0.33829033 0.31370538 0.23902191 0.49360377 -0.22067282 -0.26728025 0.2564895 -0.08306823 -0.047064617 -0.14403893 -0.09250495 -0.6430678 -0.5029209 0.30859956 0.228158
8312:BELLE_ISLE_STA -0.2501403 -0.43300468 -0.7673795 0.65070283 0.93322575 -0.47795573 0.51754516 -0.27312586 -0.73078275 0.4269561 0.35601756 -0.43545654 -0.65380347 0.81713957 0.54442835 0.8647542 -0.7426925 0.19774821 -0.97830874 -0.23369211 0.94336134 0.3922061 -0.26047498 -0.27994165 -0.8092623 0.33639926 -0.6370703 -0.19568065 -0.37491673 0.2800689 -0.10372564 0.31790572 0.65761626 0.030662801 -0.21638949 -0.1525874 1.0649776 -0.34894505 -0.029093906 0.032639854 0.13508928 -0.4712397 0.26895815 0.10195885 0.24386846 -0.13620101 0.06913376 0.16087338 -0.58458656 0.61124045 0.22890942 -0.3611622 -0.4263392 -0.10465409 -0.06280671 -0.7691108 0.94720316 -0.34266767 -0.58846235 0.27969903 -0.7435468 0.13423559 0.634205 -0.27417204 -0.0680992 0.31505743 -0.10888219 -0.22518681 0.24916859 0.058135085 -0.06532815 -0.20305742 -0.32112938 -0.12842113 0.16127403 0.036496084 -0.35568953 0.2853331 0.56218016 0.11452512 0.2039221 0.15186155 0.5835449 0.009902734 0.41278479 0.2016972 0.083693795 0.32994467 0.24051955 -0.08412165 -0.48960063 0.08682128 0.10082405 -0.1627886 -0.0129836695 0.2512367 0.3390311 -0.4074578 -0.1749845 0.04430261 -0.07076692 0.2825284 -0.3359854 -0.28585657 -0.48442817 0.18714806 -0.27316302 0.4921233 0.29791486 -0.02048989 0.45392075 -0.4593823 -0.21519814 -0.0052876296 0.12745775 0.04298178 -0.10934934 -0.20740452 0.31843 0.2733867 -0.26668414 -0.5159625 -0.30559066 0.32786956 -0.054160386 0.08350886 -0.042339887 0.06703993
8434:DEEP_FORK -0.12745412 -0.5350911 -0.31504217 0.4091865 0.884693 -0.6503078 0.6014944 -0.325945 -1.2075789 0.720783 0.9780597 -0.64167315 -0.7540465 0.18518838 0.6799992 1.0113467 -0.7340788 0.09585954 -0.66467726 -0.11369823 0.60391396 0.64463985 -0.19859894 -0.13918051 -0.36902875 0.25813806 -0.78390557 0.15669373 -0.05252163 0.16786681 -0.21631914 0.3562563 0.994381 -0.16745126 -0.639469 -0.12153704 0.88378453 0.02399019 0.116959326 0.34655982 -0.31213927 -0.65687984 0.4197402 -0.39990819 0.34112903 0.003977329 -0.2605023 -0.01945191 -0.31873646 0.28223795 -0.014683414 -0.1841323 -0.20925568 -0.2290724 0.23919007 -0.124807276 0.44768697 -0.24289542 -0.53560597 0.6073248 -0.54056257 0.14173225 -0.14901195 -0.45470685 -0.34051117 0.33764008 -0.38976797 0.30665785 0.21614605 0.001805606 0.083662294 -0.40975153 -1.2119397 -0.43826085 0.16457611 -0.1638051 -0.4960412 0.17810687 0.32674214 -0.40824226 0.1520328 0.31717622 0.4278476 -0.20335868 0.5201809 -0.20489731 -0.27759156 -0.038947348 -0.32615602 -0.09954573 -1.2843454 0.7941221 -0.25284448 -0.35401416 0.51309747 -0.23833662 0.4388158 -0.26110783 -0.15191476 -0.20057002 -0.22300668 0.014484068 0.26496804 -0.49601468 -0.2401146 0.4350496 -0.2871715 -0.37077874 0.46658653 -0.38493022 0.7296493 -0.22781868 0.054041468 -0.5164977 1.0001556 -0.09767262 0.055628214 -0.1755949 -0.3642451 0.13987142 -0.5863153 -0.3936488 -0.17179835 0.34236827 -0.4770705 0.007041139 0.038885597 0.4519666
8708:CEDAR_LANE -0.040852968 -0.32442486 -0.5647116 0.32234538 0.7767013 -0.19247565 0.5852888 -0.22302149 -0.75318074 0.74806166 0.5858045 -0.6313979 -0.6469156 0.046963356 0.31486773 0.39406675 -0.37280804 0.04017264 -0.5214551 0.0719698 0.33880848 0.25591904 -0.16331168 -0.21762584 -0.24114527 0.1810544 -0.45849013 0.03626891 0.16731575 -0.06951609 -0.19205871 0.29616827 0.44057742 0.011448922 -0.50746167 0.19011414 0.7782597 -0.13732196 0.032515727 -0.0128134135 -0.27646357 -0.4074557 0.05595395 -0.43173206 0.23340462 0.07114274 -0.7703868 -0.012879203 -0.26493785 0.29844043 0.009935139 -0.01265751 -0.3089329 -0.08267539 -0.21459228 -0.2715704 0.5694665 -0.18405563 -0.3550629 0.10283631 -0.5400956 -0.25187004 0.097104646 0.030227339 -0.2797922 0.45109016 -0.009802171 0.38417718 0.03803514 0.027813904 -0.10337773 -0.37716246 -0.8362448 -0.2447162 0.058382206 0.0463369 -0.3466386 0.14197432 0.21233286 -0.0011916226 -0.10911514 0.32627115 0.2632768 -0.1998686 0.33781785 0.25620645 -0.23877664 -0.18579286 -0.214915 -0.13978513 -0.9211499 0.7374223 0.14797637 -0.37636802 0.2992287 0.28319815 -0.062332742 -0.46981192 -0.13023622 -0.00641865 -0.2910511 0.25518543 0.09990131 -0.47514448 -0.26575822 0.26465708 -0.15179585 0.3150209 0.47890025 -0.16968066 0.8037874 -0.18784343 0.214862 -0.28412294 0.5284798 0.20064758 0.09635726 -0.2115761 0.21693411 0.335296 -0.8093078 -0.5200394 0.009747286 0.07080729 -0.43950132 0.25671348 -0.304961 0.31211787
9117:BARLING 0.08073031 -0.25161147 -0.6271652 0.5874915 0.7871789 -0.55959904 0.07712434 -0.19182284 -0.6499854 0.45596334 -0.16055089 -0.65882444 -0.41606188 -0.099806845 0.44282183 0.52611923 -0.89980346 -0.100110546 -0.375722 0.14719203 0.5318418 0.26597175 -0.5625806 -0.027100537 -0.5303562 -0.27285796 -0.39914364 -0.37328318 -0.31835353 0.093563266 -0.23098429 -0.049293026 0.34095174 0.29028484 -0.336653 0.019511227 0.66097885 0.24650595 0.4947936 0.066003114 0.15392193 -0.82756656 0.5255697 0.014882852 0.06572928 -0.18731582 -0.36604303 -0.05653292 -0.06515338 -0.04522969 0.058088742 0.10729254 0.067403056 -0.5934045 0.06710721 -0.5182452 0.59994924 -0.40528423 -0.46251562 0.21867688 -0.77639014 -0.23000593 0.089801595 0.1342306 -0.0065913517 0.05107905 -0.28010416 0.13779369 -0.03000323 -0.14471136 -0.07419332 -0.11388031 -0.78061986 -0.22740257 0.1600705 0.24033943 -0.06673517 -0.043198682 0.53578275 -0.41671062 -0.30342495 0.10651296 -0.25768232 0.13113387 0.028457332 0.23262247 0.224913 -0.2535868 -0.15420285 -0.55985487 -0.92639756 0.5396123 -0.03332378 0.20375979 0.17645073 -0.39803427 0.33389506 -0.45381826 0.106867 -0.24876362 -0.52892303 0.22620538 0.22128804 -0.0060208132 -0.06360377 0.49405798 -0.5931652 0.11024615 -0.04933245 -0.483455 0.31667387 0.080747776 0.021479705 -0.60162574 0.54458195 0.15287717 0.5765378 -0.07765631 -0.16258354 0.09573916 -0.14736718 0.2573852 0.022729596 -0.16278252 -0.29146805 0.2253374 0.20209533 0.10629014
9215:CHARLESTON -0.08614343 -0.20280379 -0.6275161 0.8785834 0.58525354 -0.44823772 0.36130664 -0.06389806 -0.59452134 0.844122 0.30283564 -0.89543927 -0.45524246 0.3307877 0.76194334 0.45178568 -0.4705352 -0.114150226 -0.5844149 0.3009855 0.34322563 0.040148135 0.081773825 0.099131346 -0.21686517 0.3058227 -0.054186713 -0.07489791 -0.11685045 0.13363238 -0.00054995215 0.29899767 0.36192065 0.34623656 0.0075362218 -0.21775371 0.41838485 0.12849008 -0.3501074 0.12419124 0.056901228 -0.43681088 0.16981333 0.124564394 0.45996764 -0.30551997 -0.14560308 0.04471686 -0.10360319 0.31134292 -0.044464417 0.028239502 -0.16126603 -0.2895589 -0.07540204 -0.24380712 -0.007287732 -0.37775704 -0.41670614 0.12640555 -0.13492304 -0.24818723 0.20430666 -0.38242894 -0.27850235 0.03145267 0.19488807 0.023148542 0.014557304 -0.053245325 -0.2559242 -0.29521316 -0.43329516 -0.119460575 -0.22009644 0.034707524 -0.047927774 0.13002513 0.33572793 0.105588615 -0.13201402 0.42119727 0.31750968 0.0028308523 -0.14628525 0.15734744 0.13664256 -0.38063315 0.12668517 -0.10488844 -0.78452253 0.54116195 0.27417603 -0.4909841 0.45783448 0.24555664 0.1537432 -0.6343464 -0.15503143 -0.024525352 -0.7497349 0.38657302 0.142041 -0.060831647 -0.19588766 0.5348986 0.1607172 0.5777007 -0.031642903 -0.6165892 0.6749491 0.056886032 0.11577138 -0.14509583 0.49357802 -0.011317665 0.2511429 0.025639765 0.0070166024 0.47690257 -0.3695858 -0.18680415 -0.060680524 0.014793844 -0.38553724 0.022422766 0.2972598 0.07830457
5410:GLASSES -0.00601152 -0.17541808 -0.5303866 0.6747639 0.47957203 -0.4821784 0.21394308 -0.17245087 -0.5138943 0.55654 0.1534065 -0.2720265 -0.30222595 0.27626646 1.2019564 1.1803511 -0.18878974 -0.13841082 -0.63262624 -0.23085068 0.2610282 0.6210883 -0.27572322 0.08186374 -0.16802202 -0.00022963237 0.023644896 -0.34377533 -0.20204112 0.18447247 -0.20725971 -0.30094752 0.9625318 0.18048671 -0.39898112 -0.27205947 0.881539 -0.34388074 0.07999285 0.25511304 0.17068002 -0.917588 0.75997627 -0.3058899 0.2412578 -0.09923464 -0.614153 0.08688995 -0.28543386 -0.024759414 -0.22366495 -0.055038113 -0.012331603 -0.40276313 0.008830062 -0.35155523 0.10039104 -0.5058623 -0.4815098 0.78256917 -0.48713693 0.17726946 -0.27112412 0.10808421 -0.0808066 0.07938647 -0.28574666 0.20117894 -0.4290673 -0.32535082 0.00015073943 -0.015737742 -0.83026147 -0.6129485 0.49041253 0.12828326 0.065884985 0.030880682 0.180336 -0.059114262 0.11085207 0.31847748 -0.010739566 -0.10946759 0.43116063 -0.19298296 0.13552463 0.3528426 0.20660019 0.15032457 -0.9365914 0.51067656 0.060709454 -0.41145605 0.26731807 0.2025528 -0.16878295 -0.010507902 -0.07640771 -0.09798714 -0.4308773 -0.013585417 -0.104860745 -0.25670782 0.10066236 0.17133293 0.024142975 0.3546315 -0.12793712 -0.09591144 0.483971 0.01884318 0.16728197 -0.2587108 0.62126106 0.24264807 0.56460196 -0.1513151 0.22404784 0.1611061 -0.7068936 -0.5297008 -0.02944629 -0.08900704 -0.116164856 0.27481988 -0.42398506 0.10674528
5309:POOLEVILLE -0.26960576 -0.41889048 -0.9636379 0.87483686 1.0291154 -0.57821053 0.2188842 -0.29124388 -0.6136892 0.7090323 -0.07930029 -0.58830565 -0.46806026 0.6825005 0.58433694 0.36853132 0.0052246023 0.122628495 -0.2596736 0.05894225 0.5409394 0.09350548 -0.1487484 0.18569209 -0.66961306 -0.16214801 -0.1015256 -0.5814928 -0.76634544 -0.18773732 -0.0951457 0.018665688 0.22802542 0.031544592 0.08889537 -0.20309696 0.28530052 -0.33166835 0.18075322 -0.12386976 -0.16289312 -0.54509455 0.07362539 0.116949834 -0.1333689 -0.082475066 -0.2408871 0.00983206 -0.49598724 0.49772203 0.07900757 -0.23431534 -0.11918555 -0.47500688 -0.34039804 -0.8119455 0.250252 -0.7888125 -0.36192948 0.28963464 -0.36014348 0.15038231 0.36919165 -0.067071125 -0.038192853 0.09181003 -0.36595774 -0.13888346 -0.15278083 -0.10253805 -0.2711361 0.17407268 -0.4981233 -0.11078831 0.31525865 0.049600642 0.1437146 0.13096775 0.60056365 0.100095965 0.047335736 0.37883267 0.398193 0.33810547 0.013642992 0.6286856 0.45017296 -0.29632106 0.2633022 -0.094180726 -0.96656376 0.035640955 0.6397571 -0.50806576 0.11824234 0.53087723 0.35495043 -0.76628596 -0.381016 0.060516074 -0.32810712 0.3329856 -0.16865376 -0.1259589 -0.3631432 0.4307217 -0.20882036 0.9354845 0.090309136 -0.08618574 0.5949994 -0.034927886 -0.16333471 -0.03974797 0.46408293 -0.24508284 0.09950353 -0.22526158 0.34058022 0.60065985 -0.3239012 -0.20649704 -0.04614166 0.16857904 -0.1382121 0.43796682 0.097596586 0.28800532
5508:BROWN_OG_AND_E -0.08656826 -0.20339388 -0.42839453 0.4140756 0.6898344 -0.50757706 0.70687044 -0.08204122 -0.1864495 0.25568545 -0.12274245 -0.12299518 -0.39665848 0.6142728 0.6516163 0.837865 -0.12597968 -0.061367642 -0.8016251 -0.17972115 0.6862767 0.33913347 -0.1721477 -0.3449073 -0.7062284 0.18161878 -0.117319405 -0.64721787 -0.72402835 0.1143799 0.004636653 -0.000759679 0.40848687 0.03304536 -0.4069184 -0.22477448 0.6823686 -0.18891947 0.106948756 -0.17828597 -0.305671 -0.23549163 0.005084477 0.31546125 0.31995422 -0.14329079 -0.23942271 -0.41651905 -0.27936107 0.24856511 -0.004907894 0.09525156 0.04278296 -0.58711493 -0.22438478 -0.6742181 0.40309817 -0.49530417 -0.4181931 0.022857426 -0.4911388 0.056739207 0.55353683 0.061364077 0.08304196 0.09578052 -0.6152302 -0.17574605 -0.112804316 -0.4082097 -0.21459027 0.19025853 -0.64427096 -0.08619515 0.36146045 0.12620948 0.35871056 0.2595339 0.6501609 0.116495244 0.26546702 0.28314897 0.39990944 0.31548893 -0.123164885 0.40343803 0.40512553 -0.2059858 0.42601132 -0.25999865 -0.896145 -0.22393452 0.27228796 -0.4635851 0.17930165 0.3687278 -0.023554642 -0.51317656 -0.13146603 -0.13196939 -0.35999718 0.5589011 -0.30703795 0.098874904 -0.11209449 0.18051963 -0.4333015 0.4977456 -0.07116493 -0.32060605 0.57653147 -0.15880537 -0.059233733 -0.29428613 0.7254047 0.3126761 0.61740476 -0.07064446 0.32273516 0.14893484 -0.5819252 -0.30848822 -0.19685571 -0.04044281 0.13151698 0.020106241 0.36987275 0.07829154
5816:PARK_LANE -0.2021364 -0.3711686 -0.29087844 0.09092508 0.46679118 -0.53056765 0.38218576 -0.23443468 -0.6848282 0.4191917 0.57957333 -0.1106389 -0.3054386 0.28368074 0.7149663 1.0345243 0.06409177 -0.24548398 -0.50630945 0.12275606 0.65724325 0.29679784 -0.01555617 0.027790522 -0.6853749 0.43269512 -0.11077742 -0.38270208 -0.18900356 -0.17516403 -0.046193685 -0.08277998 0.386569 -0.26132703 -0.61413443 -0.37738764 0.9074983 -0.30423775 0.34601825 -0.25707093 -0.13482364 -0.3289952 0.25664508 0.3433722 0.25893515 -0.15853131 -0.084879085 -0.7061418 -0.73174614 0.36839283 0.1824555 -0.017502721 0.03320406 -0.58236444 -0.9043785 -0.76589376 -0.23522376 -1.1825163 -0.6677719 0.23359953 -0.22373122 -0.7919205 0.5565323 0.20093378 -0.3563077 0.21342948 -0.35716024 0.22395392 0.25021282 0.06923429 -0.056230363 -0.15534681 -0.7893742 -0.1320172 0.12918893 0.022011455 -0.5454372 0.64006174 0.4510792 -0.3741624 -0.25667968 0.614727 0.1716301 -0.55567616 0.17472722 -0.1343116 0.21400107 -0.39249998 -0.09023582 -0.25988814 -0.5473933 0.26010954 0.16965526 -0.7913115 0.16751328 -0.087391466 0.1952139 -0.4568943 0.19236794 0.3665455 -0.006886824 0.028166473 0.25762066 0.055473484 -0.10613474 0.27917337 -0.2553813 -0.061329003 0.2995046 -0.80007106 0.86884874 -0.07402196 -0.13501848 -0.3754341 0.6678911 0.34769422 0.03583887 -0.10748931 0.4765724 0.40610725 -0.9635073 -0.34113505 -0.50770473 0.13349399 -0.31343675 -0.5040025 0.5803178 0.13409778
4106:HEMLOCK -0.2763777 -0.524329 -0.6365356 0.34917128 0.82213306 -0.61939466 -0.0244483 -0.02643774 -0.6465507 0.18180099 0.53939503 -0.67247176 -0.33934912 0.6063022 0.73366684 0.20765305 -0.12234752 0.5411626 -0.0025448166 -0.46456257 1.123589 0.1811734 -0.07214018 0.64819545 -0.34579396 -0.62349784 -0.33147544 -0.8211102 -0.7168105 0.41611588 -0.065301746 -0.03368761 0.5792377 0.041057587 -0.1253389 -0.6316772 0.3937811 -0.39350584 0.21132046 0.0909435 0.39884734 -0.61145765 0.44861424 0.15272224 -0.27697033 -0.35788798 0.19350538 0.23293494 -0.6879083 0.13537237 -0.012656049 -0.18131338 -0.1613031 -0.22238648 0.23024215 -0.5982964 0.03765005 -0.57946527 -0.47127205 0.9423738 -0.46219584 0.071728 -0.105606996 -0.42046458 -0.1635814 0.29773748 -0.6417916 -0.19470775 -0.009444073 -0.015259867 -0.051367603 -0.051271155 -0.34666735 -0.4539093 0.059751373 -0.16830276 0.08247617 -0.053967647 0.5084224 -0.23383573 0.16231714 0.6735735 0.04280952 -0.14671576 0.34838238 -0.4700837 0.26046687 0.36224982 0.090552926 0.12108538 -0.91461664 0.48394474 0.05967444 -0.33258075 0.111051805 -0.14163288 0.83322805 -0.52573043 -0.14065029 -0.028371599 -0.22833744 0.3465799 -0.21217461 -0.35645396 -0.6147366 0.151996 -0.46756306 0.20747845 0.21691814 -0.44614556 0.47950742 -0.22281681 0.112877585 -0.19836664 0.5552817 0.39586937 0.10604466 -0.44475567 -0.09176827 0.10095194 -0.5779298 -0.089595005 0.09487258 0.36822686 -0.041106436 0.43099043 -0.06486446 0.29035407
5806:VALLEY_VIEW 0.06900217 -0.19046809 -0.18549348 1.050284 0.7488987 -0.7344248 0.5786576 -0.14286001 -0.8950275 0.3828209 0.31043482 -0.43122318 -0.25463924 0.47463378 0.8089298 0.754667 -0.10453755 0.0657902 -1.1233374 -0.06382206 0.7614686 0.5640846 -0.23732637 0.16092867 -0.2683758 0.07566732 -0.052033827 -0.30662644 -0.2791151 -0.060204048 0.0059580468 -0.25429508 0.8253636 0.011520856 -0.44079074 -0.40168175 0.4753444 -0.14148632 -0.07715044 0.07515334 -0.0024348851 -0.51363426 0.54183865 0.15034841 0.07571532 -0.22908463 0.026173793 -0.13333167 -0.31227967 0.066027276 0.37102577 -0.14150308 0.12572569 -0.44227347 -0.078480475 -0.36595085 0.1478275 -0.5464113 -0.5213887 0.33648917 -0.22277863 -0.034413543 0.05770124 0.089457735 -0.19706126 -0.2184214 -0.117299244 0.17726709 -0.18583725 -0.16355398 -0.27954844 -0.00081619766 -0.7360716 -0.36144984 0.17038958 -0.28452694 0.14012714 0.023830041 0.41113055 -0.23665966 0.14465395 0.54605985 0.22998805 -0.18754537 -0.117798895 -0.13232085 0.4939097 -0.46963805 0.125135 0.22922215 -0.3507484 0.20805682 0.39658424 -0.49996233 0.16351064 0.20165749 0.8086271 -0.46932587 -0.20504782 0.081627764 -0.4949551 0.34984058 0.054339305 -0.11446648 -0.22588398 0.6515101 -0.34656084 0.55399317 -0.42865023 -0.3580755 0.9529631 -0.1458916 -0.12256294 -0.33115175 0.31667703 0.24749309 0.2669746 0.100174166 0.084224164 0.10886526 -0.57881135 -0.22067608 0.09124217 -0.058668382 -0.3401556 0.050459333 0.39652833 -0.01970125
4135:SO_4TH_ST -0.10221421 -0.48097467 -0.37733978 0.2526679 0.51747334 -0.45670307 -0.3247124 -0.049589906 -0.6250192 -0.27807352 0.5622363 -0.222274 -0.35913375 0.5629529 0.60309863 0.13495032 -0.029626876 0.60846233 -0.031649902 -0.5097215 1.1014367 0.14380488 -0.05973645 0.6389668 -0.33237013 -0.46688426 -0.32600117 -0.65302426 -0.62189716 0.34208265 0.06721379 0.28569984 0.6251427 -0.03463964 -0.00071412185 -0.52627486 0.294139 -0.3663954 0.24884567 -0.0016890086 0.30079266 -1.0844449 0.803797 0.054973613 -0.1893878 -0.4789034 -0.016685465 0.3602864 -0.5750059 0.008115824 -0.21066545 -0.54318863 -0.0024950395 -0.21053207 0.287878 -0.40103874 -0.117272146 -0.13791795 -0.31347832 1.1063935 -0.23669785 0.20927592 -0.49447906 -0.32100558 -0.06879011 0.37234566 -0.74617195 -0.1472309 0.2697143 0.015795223 0.041530833 -0.06359678 -0.5559392 -0.32390258 0.13887204 -0.5228884 0.03873465 -0.03289894 0.59049726 -0.04862227 0.068126045 0.5647386 0.12460851 -0.17834812 0.2657629 -0.042677633 0.2129922 -0.12013687 -0.08145408 -0.024819268 -0.8989399 0.32152304 0.23100278 -0.683223 0.25889015 0.22522718 0.6050099 -0.028411893 0.21709621 0.030887594 -0.027539048 -0.041655917 0.028928936 -0.3129822 -0.68969035 0.1782923 -0.60005355 0.17869408 0.10679498 -0.47357565 0.2836984 -0.27694413 0.069782354 -0.2256578 0.4901031 0.18894735 0.13431323 -0.32132283 -0.06229253 0.18018526 -0.22629297 -0.24219164 0.039371863 0.251285 -0.2584886 0.46707913 0.19382957 0.1360224
3514:HEAVENER -0.18639322 -0.23603994 -0.7936998 0.6749456 1.0514548 -0.7886533 0.35218576 -0.3854106 -0.8258225 0.8935287 -0.08507662 -0.8146094 -0.87401205 0.33760276 1.0921427 0.8491458 -0.6617611 0.0804541 -0.3068923 0.009151174 0.34821212 -0.08884065 -0.4053498 0.4811477 -0.4617785 -0.12818116 0.13479115 -0.5905188 -0.4007242 0.15771395 -0.14381228 -0.07552583 0.3465847 0.23459885 -0.43280175 -0.5110772 0.044923596 -0.15519136 -0.12788978 -0.023944335 -0.15971291 -0.8859204 0.34138545 0.20655724 0.14069363 -0.2837025 -0.0712645 -0.030040028 -0.6022611 -0.026749471 -0.027279332 0.09672205 -0.32685432 -0.46087584 0.115138255 -0.34809566 -0.02326166 -0.64265335 -0.80452937 0.20648041 -0.5215672 -0.31370392 0.21114835 -0.29345688 0.051654276 -0.049587917 -0.37598872 -0.07581145 -0.0182093 -0.016917003 0.045376357 0.11093037 -0.3317955 -0.029360276 0.3000375 0.59921217 -0.09107735 -0.026654527 0.52322435 -0.31132978 0.1308347 0.13892452 0.35675475 -0.0024521565 0.3067796 -0.14809144 0.11324085 -0.056865923 0.13327476 -0.4940457 -0.8457546 0.62432545 0.039229784 -0.5031319 0.5118931 0.21187955 0.30702 -0.21881829 0.002091651 -0.14694418 -0.34772933 0.24984518 0.28327644 -0.37540713 -0.25675696 0.34799895 -0.57839805 0.66624004 0.33275932 -0.20948619 0.70791346 -0.038212303 0.020251526 -0.28975186 0.44261047 -0.07706794 0.2706941 -0.08975723 -0.3652322 0.012253604 -0.36532775 -0.11646116 0.13526265 0.061562084 -0.13966492 0.4202138 0.11985647 0.07671546
8921:JENSEN_RD -0.17053822 -0.26619464 -0.039627086 0.4872497 0.8639106 -0.77697045 0.5386887 -0.35288212 -0.1693433 0.553532 0.81524277 -0.418611 -0.25579312 -0.022374175 0.53468484 0.8311429 -0.2942476 0.4364686 -0.40183923 0.27256992 0.8928782 0.56139314 -0.052583016 0.3820075 -0.24483249 -0.50729614 -0.20446366 -0.32823542 -0.11265986 -0.081326924 0.28660893 0.21786141 0.36866504 0.18450026 -0.7379887 -0.23898026 0.599744 -0.1589122 0.061658774 0.023481274 -0.012457439 -0.71526295 0.6566731 0.03812367 0.28616285 -0.4458159 -0.3269244 -0.10136581 -0.9876961 0.68514174 0.11343321 -0.13818642 -0.40785405 -0.6527078 -0.062757365 -0.45364985 0.1109007 -0.91039497 -0.4218217 0.51412416 -0.34965068 -0.103327565 -0.16866377 0.17430542 0.15675072 0.20851867 -0.25406763 0.054940704 0.15935542 -0.4185572 -0.1598068 0.19011752 -0.3468348 -0.67586875 0.2702579 0.24571975 0.19890103 0.0935157 0.39315546 0.18235432 0.35074008 0.30261412 -0.14022669 -0.19064179 0.31590047 0.11181369 -0.0041961526 -0.015327097 0.21858336 0.2973521 -0.91763383 0.20313115 0.40485203 -1.0780617 0.08230088 0.656547 0.109192535 -0.6046513 0.37848267 0.085217685 -0.4287421 0.3349761 0.031508807 -0.26744097 -0.5847346 0.029499322 -0.039483115 -0.08557927 -0.2229401 -0.4617594 0.8277514 0.07709973 -0.27228394 -0.64117146 0.801959 0.19938189 0.27614236 -0.3710677 -0.06743401 0.052983746 -1.0886272 -0.46261257 -0.004330112 0.5700222 -0.21448742 0.23761304 0.37698853 0.030396823
8822:WATERLOO -0.28866678 -0.28942564 -0.48756248 0.39882168 0.9832629 -0.38759616 0.44802347 -0.22049187 -0.41553536 0.6279422 0.5539668 -0.6028484 -0.37324104 0.13450463 0.5189676 0.60669136 -0.7000215 0.19432944 -0.7336642 0.09666043 0.8993631 0.27126628 -0.13871448 0.04667488 -0.14367297 -0.24714716 -0.43318477 -0.20847744 -0.15384577 -0.1634456 -0.32148713 0.15560006 0.51717985 0.11874574 -0.5882181 -0.07601067 0.5572685 -0.28421578 -0.086159706 -0.060976323 0.17998439 -0.8236878 0.69122297 -0.075515255 -0.13858181 -0.55583906 -0.06199142 0.12206616 -0.7449163 0.36054978 0.58343196 -0.26273054 -0.6413185 -0.23803963 -0.27139473 -0.22709826 0.40338928 -0.2957194 -0.2693908 0.2553042 -0.3280192 -0.3016493 0.15734248 -0.2130579 -0.08599834 0.31828335 0.19706024 0.34549707 -0.08440751 -0.09622526 -0.008207686 -0.19692536 -0.77102786 -0.45668834 0.31392974 -0.22735892 -0.6264096 0.26554915 0.47005397 -0.008315032 0.16775042 0.29411715 -0.14984457 -0.2551686 0.43905237 0.07590136 -0.02292951 0.13614343 -0.1291937 0.10287165 -0.87966526 0.32290563 -0.04029576 -0.41797996 0.16750167 0.1665997 -0.14083774 -0.48432404 -0.090823576 0.016883383 -0.22473185 0.26578787 0.07893395 -0.33444127 -0.30851373 0.1709218 0.041649085 0.11127426 0.31631172 -0.37997586 0.7448255 0.05439472 -0.2889643 -0.45514464 0.22941343 -0.18489449 -0.06439514 -0.07807732 0.5644812 0.32650515 -0.798952 -0.68310493 -0.028160462 0.3714866 -0.28225482 -0.07066139 -0.0050818366 0.04005732
4606:CEDAR_AVE -0.27514377 -0.52077323 -0.38292134 0.4403246 0.6785497 -0.5323651 -0.071256004 0.03783597 -0.6795872 0.2213928 0.48999155 -0.5740776 -0.18449637 0.60096043 0.6588727 0.17503668 -0.046444416 0.511492 -0.22024663 -0.39648178 1.145863 0.2946853 -0.27133816 0.66697973 -0.39896858 -0.3934724 -0.17319162 -0.78113174 -0.56882185 0.43101913 -0.056103773 -0.039079547 0.74944353 0.11265057 -0.20801303 -0.5866192 0.5999766 -0.33293396 0.120216146 0.04513538 0.37695503 -0.9284196 0.6349857 0.19148357 -0.2342147 -0.44311196 0.035780475 0.24477847 -0.6456745 0.08662087 -0.017218597 -0.28741065 -0.038104918 -0.15209533 0.37211102 -0.49263442 0.050715618 -0.5288997 -0.42154542 0.8908115 -0.292975 0.06618151 -0.16583103 -0.45755076 -0.12357349 0.26068458 -0.5313951 -0.1423797 -0.03735979 0.09033357 -0.12248521 -0.13667916 -0.41483992 -0.3436033 0.03746185 -0.061605986 0.11670274 -0.023559697 0.40575412 -0.13513903 0.027061146 0.70946634 -3.4087127e-05 -0.09889422 0.2622129 -0.25774416 0.3254763 0.04848937 0.24921158 0.14181313 -0.99131984 0.5197357 0.21145509 -0.5372112 0.26672342 0.13824381 0.66844815 -0.6224482 -0.08906153 -0.086958945 -0.26767233 0.27702215 -0.12756275 -0.54014677 -0.57173383 0.3202755 -0.492334 0.40311104 0.13591743 -0.4767505 0.46880573 -0.15690087 0.003601703 -0.3979229 0.61711466 0.40905654 0.20103079 -0.5289382 -0.015910953 0.1474673 -0.5401744 -0.14693141 0.12710486 0.32675764 -0.20990068 0.5641662 0.10982765 0.29219425
3209:BIXBY -0.05916332 -0.3430021 -0.8107111 0.76889265 1.1092991 -0.6241197 0.819345 -0.21538842 -0.58704346 0.7551385 0.18708386 -0.5356409 -0.36517853 0.38218865 0.5208076 0.66508764 -0.14050871 -0.07989857 -0.96505165 -0.29175538 0.59511817 0.34250274 -0.71039706 -0.010191528 -0.46493107 -0.21530762 -0.22773957 -0.23262651 0.1563744 -0.08806519 0.0072927675 -0.2663398 -0.076161206 -0.06890404 0.180777 -0.10390438 0.09646727 -0.4252684 0.2732095 -0.08552411 -0.36151996 -0.12095817 0.030171687 0.03383586 -0.30652913 0.0431739 -0.05743235 -0.06536844 -0.62956405 0.17043845 0.30220363 -0.6266822 0.07255683 -0.17223357 -0.036255494 -0.43690395 0.2448101 0.13583943 0.17124327 0.52729744 -0.043488286 0.3207883 -0.3927942 0.23594426 -0.07508817 0.37682438 -0.6470548 -0.084939726 0.23209114 -0.078153215 -0.17575862 -0.18902884 0.034529574 -0.2636942 0.19861531 -0.34680665 0.38215292 -0.11091955 0.014717365 -0.04306329 0.027677964 0.49444315 0.19565593 -0.20752479 0.31085247 -0.36265513 0.07489886 -0.053421464 0.12332469 0.15619203 -0.7170734 0.34144816 0.08038414 0.15204433 -0.24061921 -0.28711265 0.82617193 -0.31185693 -0.1624364 0.11776367 0.1346476 -0.12931642 -0.34408978 -0.8241723 -0.23822767 0.102605574 -0.5609367 0.015641281 0.07353583 -0.26027933 0.57717097 -0.12851857 0.15807483 -0.13479054 0.17448843 0.1943794 0.34835538 -0.40417838 0.22810969 -0.030833451 -0.43899328 -0.14390466 -0.1466608 -0.0068314066 0.16994265 0.11699777 0.2849916 0.32875687
4353:OTTER -0.35321653 -0.39864475 -0.31965533 0.54484314 0.6974197 -0.63659596 0.07524774 -0.072116286 -0.58665013 0.28310695 0.37171793 -0.6187206 -0.35790431 0.47323993 0.7087587 0.35633704 -0.029541008 0.5377473 0.22915356 -0.539648 1.0229222 0.30118948 -0.07875074 0.62260467 -0.14754559 -0.5674837 -0.18720843 -0.6340193 -0.7294727 0.56178033 -0.005633727 -0.1841165 0.51513135 0.09715762 -0.06552472 -0.6300425 0.43448225 -0.25581923 0.051452424 0.16228847 0.4496419 -0.52967 0.4212649 0.18109341 -0.2534898 -0.35411397 0.40780488 0.20592852 -0.63541824 0.10130557 -0.10840114 -0.033574972 -0.1283677 -0.12799335 0.23203157 -0.62012464 0.057180956 -0.6297611 -0.45032817 0.737715 -0.32772636 0.046068422 0.110911086 -0.39604047 -0.14519131 0.09703997 -0.47492224 -0.21249561 -0.07466565 -0.0030806903 -0.08696199 -0.074734524 -0.10463328 -0.39796826 0.052654367 -0.07396189 0.21180683 -0.044776678 0.44200552 -0.23428038 0.17327349 0.5948615 0.011432046 0.001797957 0.24042779 -0.46314377 0.24033743 0.33077544 0.19934893 0.048862584 -0.7470677 0.371929 0.035355564 -0.3406164 0.0075076036 -0.17767014 0.74805194 -0.5504138 -0.15997301 -0.08920432 -0.32802308 0.36550763 -0.17726435 -0.38047203 -0.5750383 0.14421639 -0.3190364 0.22245313 0.19195531 -0.39514428 0.46814904 -0.22351526 0.10206085 -0.25112316 0.42438126 0.48507836 0.18506241 -0.5031166 -0.12227417 -0.040037412 -0.41622537 -0.032926884 0.12008166 0.29520577 -0.06029422 0.21801203 -0.1618209 0.19200861
7706:BRISTOW -0.094574325 -0.40574965 -0.6961845 0.79235345 1.0995013 -0.5787449 0.6952161 -0.20894177 -0.62325376 0.50698316 0.32602414 -0.42464334 -0.22093916 0.2884369 0.60920686 0.6058495 0.02801387 -0.12789135 -0.727151 -0.36975858 0.66043943 0.34480774 -0.6922466 0.019829853 -0.54054075 -0.15377972 -0.29179102 -0.526561 0.085692294 -0.0117552 -0.01044441 -0.26816905 -0.03839331 0.015651692 0.12568457 -0.102786995 0.18678139 -0.4361527 0.27406272 0.100745186 -0.43436906 -0.102607496 0.09843038 0.053576842 -0.35655218 0.05382884 -0.14148003 -0.08033957 -0.46037456 0.19811864 0.37878358 -0.54828864 0.10424775 -0.3004995 0.059546445 -0.26639676 0.20508854 0.029209515 0.14516705 0.5716912 -0.07506417 0.44213694 -0.38959512 0.15189762 -0.19616581 0.45197254 -0.6842345 -0.030397901 0.18756041 -0.10023527 -0.18337545 -0.30121633 -0.07543788 -0.36325264 0.15479355 -0.22792917 0.30170104 -0.13665685 0.07236781 -0.21467498 -0.21759161 0.61972666 0.17297882 -0.18792565 0.30832857 -0.3539357 0.17554368 -0.049977545 0.12302201 0.10920422 -1.0967815 0.499727 0.18135959 0.05888996 -0.16096956 -0.20525658 0.9193205 -0.6466455 -0.2359051 0.009536289 -0.013519766 -0.10169768 -0.37664896 -0.872489 -0.34165305 0.030784784 -0.65501 -0.17788401 0.116855636 -0.4245531 0.6700626 -0.13085611 0.11759735 -0.25822008 0.2125484 0.2940102 0.29992634 -0.57849604 0.27427047 0.17474216 -0.7133592 -0.2741632 -0.12246373 0.048558064 0.16855943 0.36393663 0.23698121 0.4835889
3214:LONE_STAR -0.15748964 -0.28514627 -0.9000491 0.713865 1.1900359 -0.61759794 0.8687093 -0.18785314 -0.6211245 0.8416806 0.2554338 -0.60938317 -0.37959647 0.5097245 0.5704167 0.5453026 -0.24975154 -0.031409398 -0.92551297 -0.1190256 0.62374216 0.22383107 -0.41969234 0.02238057 -0.4865513 -0.16044289 -0.3932374 -0.3263699 -0.042003114 -0.009174483 -0.00825673 -0.06960495 -0.18272659 -0.19381523 0.20269765 -0.15612511 0.16660073 -0.5352869 0.2753052 -0.03729345 -0.3900382 -0.22971682 0.1581763 0.059461884 -0.445766 -0.028031383 -0.11459731 -0.04196126 -0.581065 0.25342277 0.104756355 -0.37049627 -0.06553815 -0.166316 0.019401519 -0.5380861 0.319827 -0.19737865 -0.13195062 0.5590561 -0.35730967 0.23927943 -0.21181853 0.03371548 -0.17905831 0.3719412 -0.7022573 -0.11489822 0.21431148 0.11717547 -0.14094259 -0.35106203 -0.24989648 -0.4672156 0.29332194 -0.36921698 0.27764663 -0.023772426 0.38260126 -0.1062666 0.13922146 0.4200432 0.28426662 0.06823877 0.34596053 0.04475256 0.13769938 0.05930633 0.24832974 0.11045942 -0.8043691 0.58302677 0.22520743 -0.14204003 0.03409188 -0.1298695 0.8260168 -0.43191937 -0.31403887 0.17647862 -0.15308872 0.10613689 -0.2072478 -0.7844747 -0.31422174 0.13412476 -0.6394866 0.111614466 0.36009455 -0.47502372 0.6839716 -0.20566155 0.15648223 -0.12776758 0.3152595 0.261084 0.309746 -0.37112248 0.13416883 0.014796588 -0.44837523 -0.22653513 -0.13035859 0.1412431 -0.06139509 0.084217966 0.20437863 0.3775936
5619:RUSH_CREEK -0.27235067 -0.005462015 -0.48953938 0.5390739 0.7371408 -0.083649084 0.7187856 -0.14909346 -0.23949069 0.3200799 0.097970895 -0.20101838 -0.23914558 0.3801215 0.75421154 0.40415767 0.1264025 -0.12786257 -0.4272788 -0.22581588 0.045171466 0.41673803 -0.67286056 0.46335584 -0.1906699 0.23970479 0.030721702 -0.2722328 -0.101170585 0.11031339 0.077591725 -0.1956915 1.2448415 0.5850174 -0.49786416 -0.29350102 0.9214685 -0.6107658 0.49152556 -0.19626263 0.0026212987 -1.0788838 0.62955207 0.2197371 -0.056453936 -0.35411188 -0.3385987 0.23507904 -0.86274385 0.10306502 0.33377624 -0.711621 -0.4560273 -0.26931962 -0.14067021 -0.4571306 0.44564748 -0.2990317 -0.11918419 0.29576063 -0.3848206 0.3677274 0.1014605 -0.37726656 0.1616688 0.47645605 -0.59767 -0.23085529 -0.037796553 -0.0072367867 -0.11761486 0.2826989 -0.7104148 -0.27464357 0.30685353 0.27553633 0.124712855 -0.11910758 0.44219267 -0.026936233 0.28939965 0.5518112 0.4403405 -0.1419707 0.501237 -0.7434132 0.3675158 0.63305837 0.6213984 0.2520213 -0.6872137 0.29054698 0.15947571 -0.8984893 0.4327038 0.45038185 1.134302 -0.02774515 0.3644037 0.3276136 0.30111176 0.4388633 -0.14718798 -0.7943293 -0.8700197 0.4875075 -1.0320101 0.28101736 -0.10904862 -0.78819233 0.46024716 -0.28499317 -0.024568642 -0.3848467 0.63541716 0.5953008 0.11565744 -0.016823312 -0.26254168 -0.10509216 0.6305882 0.2824983 0.11123069 0.08837012 0.16984248 -0.62129956 0.24478622 -0.25336096
4112:CHESTNUT -0.29114434 -0.47352386 -0.55393773 0.5445566 0.8723749 -0.6450869 0.062709555 -0.07393988 -0.68322617 0.2937579 0.41725487 -0.7514839 -0.54226536 0.568057 0.8765479 0.42237547 -0.13232553 0.4279652 0.010073505 -0.4366657 0.97444075 0.36817992 -0.16230273 0.46817142 -0.16602053 -0.4239515 -0.21767172 -0.6001048 -0.68188584 0.5071817 0.078172386 -0.10771171 0.36090395 0.1378888 -0.09161401 -0.3610969 0.5340482 -0.24505869 0.12767738 0.17381078 0.21821488 -0.46907252 0.50718665 0.103325345 -0.19594212 -0.27458382 0.32846487 0.122204304 -0.56115514 0.07466351 -0.05595754 0.054277025 -0.25020593 -0.18631804 0.19580159 -0.6467273 0.07131441 -0.71867514 -0.5619595 0.5069019 -0.39326572 -0.0019698564 0.19615188 -0.41829428 -0.18592928 0.16291255 -0.4717401 -0.20801131 -0.11617732 -0.00161032 -0.02726155 -0.16560133 -0.097015455 -0.3439609 0.081674 0.064992614 0.09832126 -0.10762283 0.5345581 -0.3441921 0.1751865 0.5626908 0.16461957 -0.009968669 0.22582471 -0.12493945 0.37989727 0.29556397 0.27968606 -0.10325413 -1.0595697 0.46367115 0.20468827 -0.67294663 0.22400293 0.06054916 0.94638306 -0.47927114 -0.097688526 -0.14786671 -0.23524618 0.3365528 -0.1315378 -0.39843857 -0.65705717 0.015545143 -0.37941772 0.23683941 0.39977852 -0.420995 0.3439038 -0.2211644 0.17237636 -0.23669523 0.452249 0.6396212 0.23735753 -0.5873643 -0.040642112 0.004318514 -0.4624004 -0.15236096 0.1395986 0.341462 -0.18350053 0.22068803 -0.28707576 0.15146834
7312:JUMPER_CREEK -0.0530913 -0.18864487 -0.49089888 0.38155273 0.61016846 -0.19887209 0.4152581 -0.16854535 -0.28390327 0.4875588 0.17785883 -0.23917644 -0.124599576 0.2989638 0.39641497 0.34813187 -0.20687598 0.04989418 -0.40623888 0.12243981 0.4785572 0.11857675 -0.36177447 0.15324314 -0.43070412 -0.027733246 -0.04889267 -0.483237 -0.1453773 0.088775255 0.09160237 0.000685476 0.4292876 -0.09056014 -0.1803874 -0.30560914 0.528182 -0.49583295 0.1780136 -0.20142962 0.035742145 -0.51591825 0.31811345 -0.03387475 -0.07827315 -0.123587795 -0.13277368 0.008819909 -0.4310875 0.17235067 0.30204818 -0.24200849 -0.20720056 0.042929273 0.04257775 -0.19782217 0.33269235 -0.4657794 -0.17715472 0.34701595 -0.16219318 -0.076743156 0.0142708905 -0.14364387 -0.2401179 0.338571 -0.311542 -0.28038478 0.18209901 0.15141368 0.18253735 0.1613618 -0.035636466 -0.247635 -0.07713474 -0.175765 0.0137207415 -0.018130673 0.6390909 -0.08954198 0.27865085 0.35601 0.0910675 -0.02577964 0.67663705 -0.19968785 0.27752262 0.37142324 0.16662893 -0.08448089 -0.94594246 0.511879 0.17260452 -0.44562623 0.2910967 0.18264806 0.9165512 -0.1798019 -0.06692647 0.1767066 0.04802831 0.56570596 -0.088931166 -0.5019384 -0.7465803 0.42081812 -0.57276815 0.61571753 0.20199472 -0.6389516 0.57764834 -0.15253705 0.051110193 -0.25404027 0.96787536 0.32181355 -0.021548826 -0.38499504 -0.2632513 0.09561849 -0.32329687 0.0212684 0.20529093 0.25812334 0.009590165 0.45710316 0.12465578 0.0931352
7306:FIXICO -0.16065149 -0.23846225 -0.48414353 0.40715745 0.6373593 -0.2801834 0.32621586 -0.1035112 -0.3360103 0.50526386 0.22544836 -0.35604343 -0.18493256 0.33269525 0.42597735 0.32100853 -0.20711052 0.10567442 -0.42687795 -0.0070868353 0.5694947 0.1699414 -0.38895673 0.19356802 -0.37216675 -0.12919421 -0.1838453 -0.482759 -0.17564885 0.12580618 0.05062011 0.027361026 0.40617234 -0.0014271121 -0.13474752 -0.3788379 0.51196754 -0.51912594 0.21411103 -0.20140453 0.026245521 -0.6180771 0.40709403 -0.0045599514 -0.13807414 -0.2457343 -0.047567386 0.05502121 -0.4686235 0.18121317 0.17588584 -0.2805001 -0.26069215 0.11430983 0.15911536 -0.22139968 0.21461228 -0.4445651 -0.14383653 0.5241545 -0.12922585 -0.064835615 -0.016106362 -0.20712036 -0.22423841 0.36213985 -0.4699836 -0.30983406 0.1761236 0.16075498 0.11867067 0.18488729 -0.124294996 -0.26248458 0.036318503 -0.10928463 0.15724953 -0.06071131 0.5781165 -0.04689897 0.17704378 0.37470788 0.049725402 -0.10999978 0.5179212 -0.31945196 0.21519083 0.34178117 0.15420374 0.007512845 -0.9098257 0.42012683 0.14318691 -0.402983 0.23652339 0.0703442 1.0013672 -0.082082026 -0.066478305 0.17309533 0.052092034 0.5335382 -0.04341673 -0.50476956 -0.77841187 0.400159 -0.6074034 0.5665094 0.1512892 -0.56587887 0.5039254 -0.16824089 0.11821536 -0.26533338 0.9040376 0.36165887 0.08023885 -0.44073227 -0.26579592 0.08576399 -0.2902718 0.028873872 0.22468974 0.3101289 -0.006266412 0.40283823 0.04223862 0.12437193
4109:WAUKOMIS -0.2850407 -0.43655223 -0.41460565 0.24348873 0.42189392 -0.5186075 -0.056979667 0.09172477 -0.50176 0.010038616 0.5905294 -0.49278146 -0.21800412 0.66058314 0.6697377 0.284681 0.0047839903 0.42182517 -0.0056902803 -0.37256554 1.0930355 0.26925066 -0.2871598 0.62685907 -0.3606787 -0.514666 -0.24956262 -0.7613977 -0.50597787 0.27992845 -0.14272529 -0.09198117 0.53711784 0.08275601 -0.13901009 -0.6085833 0.52750945 -0.17757781 0.14862022 0.12578139 0.38782966 -0.5596925 0.378541 0.14745909 -0.30448267 -0.23150247 0.14697607 0.22041474 -0.49529052 0.12678333 0.015708094 -0.07730191 0.012048308 -0.11006508 0.22869696 -0.5217864 0.019185739 -0.4259714 -0.33547762 0.8037601 -0.44572467 0.03942958 -0.18051986 -0.38680258 -0.150241 0.15964659 -0.57356465 -0.20294404 -0.17474161 -0.0773151 -0.08812181 0.005284836 -0.2536324 -0.38665223 0.005357192 -0.22755486 0.23129065 -0.1100865 0.42862016 -0.24963199 0.06446253 0.25512323 -0.061562024 -0.021661377 0.20414266 -0.2880983 0.11266322 0.27371868 0.10673384 0.1773233 -0.80086243 0.36516514 0.22221713 -0.3133733 0.11296549 -0.16548772 0.861361 -0.5221668 -0.13022722 0.07360664 -0.15760595 0.27383244 -0.2378034 -0.45078838 -0.6542011 0.22414128 -0.56149143 0.26033223 0.22641857 -0.57399845 0.6607349 -0.18335809 0.03776589 -0.25022572 0.81880474 0.47450423 0.14695472 -0.42391306 -0.22726764 0.08516674 -0.68386304 -0.30110094 0.021922043 0.3719016 -0.26283088 0.2829967 -0.011215288 0.2940748
3205:SAPULPA -0.03202599 -0.27698964 -0.79850113 0.716522 1.1125822 -0.48578462 0.8796612 -0.21279635 -0.5138002 0.7720394 0.21813129 -0.7264005 -0.3002173 0.5080812 0.63545126 0.45992365 -0.1180409 -0.01871064 -0.86228156 -0.1469778 0.60905415 0.13786045 -0.50893867 0.2314667 -0.53006333 -0.13995422 -0.4112419 -0.49359635 0.04474831 -0.049780097 -0.08823103 -0.20632966 0.14736854 -0.10079687 0.110313535 -0.28550252 0.33474854 -0.5389176 0.31147477 -0.059068363 -0.37737486 -0.40426648 0.11634774 0.14742379 -0.46918458 -0.11157973 -0.2828635 -0.033827294 -0.65186423 0.24001493 0.17522652 -0.52501434 0.034031942 -0.055797257 0.036548205 -0.5530303 0.29375446 -0.16808446 -0.042393446 0.66129667 -0.42335984 0.28289783 -0.2743101 0.11511639 -0.09781358 0.35032627 -0.6574278 -0.08194895 0.1905128 0.09332043 -0.259437 -0.19521415 -0.3719412 -0.42273337 0.22877637 -0.1965328 0.37031803 -0.012370488 0.27549088 -0.060195882 0.15137161 0.39918625 0.21343915 0.06721313 0.33753186 -0.08650551 0.113574065 0.15182811 0.3071719 0.24312814 -0.80472404 0.5363713 0.26311186 -0.075709745 -0.10685666 -0.2578659 0.7491995 -0.44046935 -0.3050853 0.1591591 -0.050376665 0.13558842 -0.15851068 -0.6310836 -0.35397798 0.2620774 -0.63663405 0.1748507 0.31363896 -0.44504812 0.67014104 -0.20363782 0.07229452 -0.15612276 0.29038888 0.3560943 0.2649293 -0.41953805 0.033356275 -0.11922495 -0.49861634 -0.28031203 -0.12956122 0.17709054 -0.08141248 0.17132473 0.14503273 0.4405621
3220:KELLYVILLE -0.16047896 -0.3303327 -1.0287187 0.83793974 1.2889161 -0.77608854 0.97168976 -0.050611697 -0.723161 0.834326 0.35265586 -0.7614779 -0.24534199 0.62235993 0.7133932 0.53179055 -0.13495323 -0.10735053 -1.0721548 -0.1656624 0.6856929 0.14120148 -0.6890977 0.08937365 -0.45602646 -0.17442839 -0.41093835 -0.452432 0.12423629 -0.04205986 -0.13365649 -0.32630566 -0.033070207 -0.07535721 -0.014780727 -0.29919457 0.1731892 -0.5067667 0.40697053 -0.036115788 -0.3304391 -0.24765493 0.23950149 0.15919097 -0.42267185 -0.093853004 -0.32814878 -0.030077925 -0.57230246 0.31311938 0.22412744 -0.57891876 0.050239503 -0.06313376 0.13263778 -0.44140333 0.30272585 -0.011521332 0.08811173 0.7128313 -0.21918447 0.35994938 -0.2926215 0.17737754 -0.23751937 0.2833901 -0.46055645 -0.053336672 0.12727877 0.08990092 -0.12214269 -0.2397981 0.10903134 -0.2975075 0.12785317 -0.30066437 0.35719457 -0.0941611 0.14607322 -0.17935063 0.05332106 0.3699287 0.2592622 0.032910284 0.2821689 -0.19249904 0.07592843 0.13342686 0.15498906 0.24486278 -0.73301136 0.4111198 0.1942788 0.09467406 -0.10072075 -0.3221079 0.65807694 -0.25565794 -0.27186084 0.14102527 -0.025839306 0.09639414 -0.1858389 -0.5032373 -0.22028509 0.007930594 -0.56337637 -0.18991396 0.15715255 -0.4167337 0.5398943 -0.18465652 0.12744366 -0.14260393 0.3388496 0.37770125 0.38974676 -0.45109504 0.17823215 -0.034810774 -0.3918009 -0.037425887 -0.14237146 0.10158017 0.15958951 0.09792668 0.09300611 0.28610307
4119:GLENWOOD -0.13843465 -0.33501896 -0.5038133 0.34318167 0.7054645 -0.40831926 0.017176697 -0.13875023 -0.44772667 -0.43307596 0.7814856 -0.29415533 -0.63131964 0.41008452 0.63037807 0.047209557 0.24546057 0.61056226 0.085497685 -0.7010669 1.0191469 0.4295169 -0.37377894 0.5129066 -0.4371465 -0.4771563 -0.3572546 -0.77219 -0.63803625 0.26421952 0.12365414 0.1520054 0.40922743 0.16393061 0.07283683 -0.13887288 0.42363918 -0.041021038 0.40988445 0.38898772 0.2681667 -0.5886481 0.60400623 -0.057637505 -0.24165769 -0.34905094 0.47439352 0.22398913 -0.7618388 -0.028302785 0.22944978 -0.39839408 -0.31534532 -0.107125774 0.11866542 -0.51931643 -0.2856081 -0.53054786 -0.38938448 0.4908115 -0.2508735 0.07610454 -0.4821993 -0.39034027 -0.20768294 0.16318558 -0.36433402 -0.08136682 -0.18550599 -0.17233177 0.23833004 -0.08026319 0.17721967 -0.36198854 0.18701379 0.036031067 0.087627545 -0.20334075 0.67233896 -0.30157968 0.28497955 0.03228146 0.27202085 0.069476664 0.05908405 0.02796507 -0.007129799 0.18820822 0.040303696 -0.38995916 -0.23018909 0.21453284 0.17142585 -0.72556365 0.30785587 0.21409607 1.0664183 -0.4430279 0.06315039 -0.23733242 -0.10071087 -0.15798393 -0.37757102 -0.7159611 -0.82666373 0.08852646 -0.59298074 0.34133413 0.27966794 -0.5095969 0.41901928 -0.09439225 0.27386305 -0.14085591 0.9234088 0.6722497 0.28918853 -0.5697991 0.11556279 0.34357044 -0.5239293 -0.32473218 -0.043257862 0.32326725 -0.50506413 0.09610159 -0.16839 0.18963979
8519:NE_10TH_ST -0.6562037 -0.1524929 -0.22492449 0.36511385 0.65514266 -0.72048765 0.39327374 -0.2115434 -0.29159456 0.43441498 0.44799653 -0.4031059 -0.74884015 0.4997469 0.5853039 0.51529497 -0.5799776 -0.1406525 -0.39185226 -0.4869887 0.6269885 0.11852074 0.030333165 -0.2645355 -0.18558624 0.029158851 -0.194448 0.21708038 -0.22106665 0.097560465 -0.15775976 0.1690548 0.5449059 0.48829558 -0.13290416 -0.2185506 0.54115385 0.01241087 0.021760702 -0.012288382 0.06590027 -0.3167499 0.094338395 0.16007534 -0.2069094 -0.28351048 -0.017025284 0.037383713 -0.8238797 0.12774137 -0.21707979 -0.07572998 -0.35789222 -0.5269651 -0.23512241 -0.6385394 0.114864826 -0.22528347 -0.29705667 1.0018997 -0.07180796 0.2343314 0.39323798 -0.17045724 -0.067694895 0.27993745 -0.55962056 0.06358033 -0.26890805 -0.22815274 -0.2057622 0.13619168 -0.3773775 -0.45455977 0.26923913 -0.7175386 0.22314443 0.12802292 0.5413626 0.107353956 0.09312878 0.4512011 0.5674668 0.5799422 0.3019225 0.009986958 0.26343542 0.39774072 0.02433645 -0.34047857 -1.3769569 0.48728856 0.073672324 -0.19542384 0.2344049 -0.32226226 0.3960279 -0.90572596 -0.34475508 0.30453017 -0.4323511 0.17785469 -0.17028484 -0.14196856 -0.35345617 0.11800594 -0.29936492 0.2863573 0.24297245 -0.49655613 0.6938478 -0.3204761 0.32604265 -0.12867038 0.8271102 0.3743028 0.19025186 -0.2949236 -0.28213948 0.336323 -0.30132785 -0.49664786 -0.1639025 0.07509114 -0.18779218 0.18011163 0.5587658 0.4373172
3210:HICKORY_HILL -0.1452402 -0.24490564 -0.7904764 0.7568581 1.1521146 -0.5313587 0.7424418 -0.22833343 -0.62169653 0.84366816 0.22492646 -0.6041362 -0.3459502 0.60316926 0.62327164 0.6059666 -0.2753262 -0.049306694 -0.99459493 -0.27946386 0.68726325 0.14228348 -0.47247973 0.029623551 -0.5741278 -0.17555869 -0.2254287 -0.17484231 0.005565861 0.04958007 -0.05114123 -0.2157802 0.14294346 -0.0085335 -0.068258904 -0.28532138 0.27797225 -0.4324552 0.15951772 -0.17635505 -0.23426998 -0.2992601 0.101968825 0.11792583 -0.18268368 -0.12769806 -0.07575396 -0.022068828 -0.6315801 0.1360385 0.14381918 -0.50180626 -0.035223898 -0.21411651 -0.028547069 -0.43223846 0.42190433 -0.28999066 -0.2800886 0.71542734 -0.09602252 0.19612812 -0.12267238 0.1252061 0.016460188 0.33697715 -0.60047644 -0.18507873 0.23729967 0.006417126 -0.14077985 -0.097365655 -0.014734985 -0.21950172 0.21848631 -0.2675085 0.30425164 0.007998165 0.14721185 0.065579124 0.15688078 0.38285622 0.2745419 -0.07538631 0.3321095 -0.11750092 0.19049588 0.08284783 0.22169007 -0.060050692 -0.7162761 0.3366988 0.09311667 0.04987062 0.038086686 -0.16497955 0.773074 -0.26420096 -0.25051215 0.23980743 0.19533472 -0.075940706 -0.3849312 -0.9800318 -0.4505094 0.110478625 -0.68036807 -0.038746484 0.24807747 -0.44714895 0.82031626 -0.32679725 0.12530467 -0.047492597 0.34263137 0.09379938 0.18633956 -0.05101437 0.085071616 0.04819477 -0.3430914 -0.24362569 -0.13283104 0.02808064 0.022093136 0.18144435 0.24533531 0.3446789
7505:WEWOKA -0.09697934 -0.20288116 -0.4733577 0.3767004 0.5378788 -0.27784058 0.23805383 -0.13166337 -0.31052747 0.43358052 0.20343165 -0.29431862 -0.14894046 0.37061 0.46081713 0.35759142 -0.055254593 0.017194625 -0.22518034 0.1747703 0.4217953 0.1340545 -0.29884043 0.3355418 -0.32943556 -0.066506155 -0.058895864 -0.460248 -0.20992978 0.19463956 0.10554034 0.022003843 0.49989077 -0.1344369 -0.1790437 -0.3220364 0.63212603 -0.5368127 0.2597299 -0.1952561 0.021008538 -0.59506625 0.38843158 -0.11401075 -0.13043645 -0.1479915 -0.10357779 0.10558412 -0.4571374 0.17329441 0.18324445 -0.26643765 -0.18448001 0.08745283 0.17170867 -0.2691192 0.25285822 -0.48659587 -0.11369964 0.41211691 -0.0863667 -0.014943975 -0.11135901 -0.27768677 -0.23840192 0.30931228 -0.37773013 -0.26058364 0.10353996 0.1568586 0.15763421 0.14540312 -0.2330908 -0.27844778 -0.0067266827 -0.18050762 0.095129564 -0.05517362 0.68447053 -0.10192572 0.15040505 0.37271973 0.06407832 -0.13066468 0.4548547 -0.21882907 0.23557869 0.24760756 0.11195893 -0.04697817 -0.9504736 0.41367897 0.16583177 -0.44758177 0.255007 0.121280424 0.8823564 -0.19641225 -0.045040164 0.12641412 -0.034537338 0.5366382 -0.017701749 -0.4628613 -0.75168616 0.42871833 -0.56278265 0.53908336 0.16609925 -0.62978 0.51297385 -0.20361243 0.09368141 -0.2766352 0.881559 0.3393306 0.09782714 -0.4213153 -0.24201813 0.1344866 -0.25040737 -0.07284896 0.094850935 0.3151741 -0.13912265 0.29347798 -0.017120373 0.12660013
3216:BEELINE -0.043440536 -0.50130516 -0.43025106 1.0238887 0.83540475 -0.38694128 0.31661424 -0.6427194 -0.2961344 0.36560157 0.160405 -0.38955852 -0.49742654 0.017420167 0.5912995 0.6235334 -0.3153753 0.13966331 -0.6888989 -0.1396726 0.6526256 0.43433508 -0.6254502 0.2130128 -0.69334584 -0.108289 -0.21571381 -0.5593063 -0.033067025 0.02433586 0.09277518 -0.08037406 0.3262038 0.16116016 -0.019124804 -0.050045326 0.4980954 -0.34116718 0.19764169 -0.10506877 -0.00020717332 -0.38118696 -0.12953281 0.0135644255 0.23571292 -0.040466446 -0.13012603 0.045099184 -0.84427977 0.19804412 0.4242027 -0.4890906 -0.011268996 -0.45094672 -0.13582604 -0.4829627 0.3939451 -0.19938329 -0.20240775 0.29490098 -0.3822199 0.07054979 -0.17060745 -0.026548065 0.056535736 0.37272036 -0.7130741 0.028949328 0.030280111 -0.29640016 -0.33218172 -0.15040624 -0.6460906 -0.3791993 0.17076653 -0.29838282 0.27635685 -0.05171967 0.26055825 -0.045496054 -0.00057946215 0.51443255 0.14552774 -0.17212537 0.31332976 -0.22088958 0.020775773 -0.15822983 0.24624445 0.1582315 -0.80741966 0.7332406 0.10620543 -0.060019873 -0.07010151 -0.06802026 0.8454575 -0.35068735 -0.22544627 0.33341604 0.31270415 -0.29217166 -0.4516146 -1.2413772 -0.038428504 0.122554936 -0.76163626 -0.30980942 0.5511493 -0.44032633 0.6516946 -0.06990398 0.07064963 -0.25049847 0.020479515 0.2798067 0.26439753 -0.52224135 0.33378607 -0.2100939 -0.45415834 -0.14523812 -0.19133553 0.07385921 0.013480225 0.11657863 0.4508389 0.527115
3110:RIVERSIDE -0.42768782 -0.03386647 -0.4124671 -0.23231179 0.5350553 -0.14930725 0.38597366 0.2984707 -0.7307718 0.63881415 0.5422613 -0.31808805 -0.40862656 0.7336983 0.2711319 0.14109708 -0.05318655 0.1525907 0.10709875 -0.09735267 0.28018382 0.065208085 0.40916538 -0.2536062 0.002431645 0.09221693 -0.28565595 0.029031904 -0.4284953 -0.070067436 -0.11860999 0.39437756 0.4551887 -0.10343238 -0.3621635 -0.32124522 0.4636321 -0.26785773 -0.31716213 0.15176082 -0.45359778 -0.5421204 0.5325264 -0.035953388 -0.29145226 -0.2984617 -0.10920173 -0.3318756 -0.5303862 -0.058780186 -0.1008694 -0.23045649 -0.36389852 -0.06872941 -0.007305953 -0.5053847 0.4348541 -0.52011883 -0.38154155 0.52259874 -0.1055725 -0.043265942 0.25237456 -0.24518846 0.0027624764 0.372493 -0.68259144 -0.113727644 0.3631887 0.39931622 0.19542418 -0.28898785 0.1920801 -0.05145475 0.2919508 0.28754202 -0.2615372 0.12231169 0.4466827 -0.17046846 -0.25102538 0.3276091 -0.32494777 -0.3164985 0.02017353 -0.44146127 0.05720486 0.061164096 -0.44170186 -0.07297361 -1.1372728 0.005903072 0.2090735 -0.1544846 -0.18811506 -0.45506287 0.44463566 -0.1809484 -0.02426426 0.2521779 0.1349252 -0.031798076 -0.18577054 -0.70857835 -0.8718399 0.03760373 -0.31064674 0.16372462 0.51560825 -0.628003 0.42756057 -0.30493593 0.21867879 0.055557024 0.71756345 0.1075438 -0.09644174 -0.31718686 -0.21499929 0.27120245 0.03730402 -0.33132672 -0.06639137 0.27894595 -0.2902158 0.055477392 -0.8418194 0.038547542
4107:CLEVELAND_AVE -0.24331479 -0.35868424 -0.41199863 0.43871757 0.7105995 -0.5487133 0.12044017 -0.18735862 -0.5204812 0.18070368 0.51591974 -0.5255505 -0.42643324 0.5000227 0.7424893 0.2952868 0.04652147 0.5286665 0.07865952 -0.48456943 1.0112348 0.25608942 -0.16956398 0.62266594 -0.3314859 -0.49939564 -0.21183348 -0.7278786 -0.5882926 0.39292228 -0.0046761315 -0.04800244 0.6285876 0.13969822 -0.16931011 -0.5168881 0.5383402 -0.19162619 0.24955888 0.23495317 0.37542114 -0.7196643 0.5653611 0.13202532 -0.30180973 -0.38683507 0.27230543 0.26371357 -0.8229745 0.052932408 0.005410288 -0.2312403 -0.18068698 -0.13903601 0.25958702 -0.5437256 -0.079485655 -0.6095815 -0.42950535 0.78255945 -0.3002149 0.04161323 -0.20914145 -0.45553035 -0.15819196 0.19830008 -0.43347865 -0.16473211 -0.16350411 -0.048249602 0.072793916 -0.055535823 -0.028928366 -0.34519073 0.07019929 -0.03958077 0.073504545 -0.08678547 0.4935493 -0.19817257 0.16549772 0.3750311 0.15093298 0.022198796 0.21155551 -0.1569835 0.17168741 0.24741484 0.120402254 -0.12711805 -0.5863232 0.35943204 0.13735312 -0.5032548 0.2864524 0.03418591 0.94480836 -0.5455436 -0.033140834 -0.092272826 -0.1842147 0.14750935 -0.29415607 -0.5528015 -0.74201584 0.07606516 -0.47653595 0.29026142 0.24683307 -0.5545503 0.47979409 -0.18631722 0.13070998 -0.18117742 0.65146285 0.5386397 0.15829074 -0.5383094 0.009179424 0.13891396 -0.53214395 -0.18405488 0.061651733 0.37900442 -0.2375724 0.37062538 -0.057032425 0.24057479
3218:BEGGS -0.15725292 -0.31299332 -0.91320163 0.8279989 1.1875174 -0.68422157 0.9663477 -0.06669072 -0.6695867 0.8237354 0.29242218 -0.74427867 -0.3333882 0.52350605 0.7272854 0.4718321 -0.08975176 -0.019158281 -0.92533296 -0.14159471 0.72784257 0.18439892 -0.63308394 0.121684976 -0.48124132 -0.25372672 -0.4046525 -0.5559746 0.029957766 0.012017056 -0.15903607 -0.25971138 0.060124863 0.013306755 0.038734883 -0.32064852 0.1791692 -0.54456437 0.42902684 -0.06849459 -0.3800475 -0.3743746 0.30408722 0.22569358 -0.4984483 -0.15493281 -0.29244825 -0.014157535 -0.68078965 0.29922962 0.18589872 -0.6015532 0.0035411632 -0.0762226 0.08226854 -0.49414778 0.21848977 -0.08128777 0.08260439 0.8371524 -0.2673095 0.3916212 -0.3841356 0.19196907 -0.2364109 0.35780907 -0.60543835 0.018476507 0.1162364 0.124436244 -0.15097943 -0.20198645 0.015556954 -0.38153479 0.12341384 -0.30518037 0.29357588 -0.12576069 0.18677795 -0.15970728 0.079260625 0.46132788 0.19156446 0.037104484 0.30984613 -0.13044757 0.16814794 0.12591417 0.11342994 0.30093586 -0.8268147 0.503443 0.23221101 -0.045109052 -0.12935387 -0.23682097 0.5121325 -0.3534317 -0.23376013 0.09648377 -0.10742184 0.030279754 -0.08940159 -0.47378397 -0.21301785 0.10695225 -0.5025442 -0.13113484 0.05192807 -0.33826387 0.48908457 -0.03820501 0.1453857 -0.19084688 0.2880311 0.39497846 0.4005559 -0.49709085 0.24358839 0.0029034137 -0.41872266 -0.02306273 -0.020349413 0.032263994 0.04612543 0.14335072 0.2437882 0.32884687
4105:ENID -0.21208745 -0.40583298 -0.41920906 0.5393076 0.88358665 -0.58658874 0.43768165 -0.22185917 -0.50883394 0.23690599 0.5978885 -0.4462183 -0.6663277 0.28778145 0.65974694 0.48759606 0.18432553 0.51169 -0.017747251 -0.7529024 1.2316109 0.40060958 -0.31614414 0.5939698 -0.38831934 -0.3767727 -0.16169332 -0.85437477 -0.69318753 0.49294296 -0.133987 -0.13425611 0.6017839 0.29596007 0.027425542 -0.20809305 0.770709 -0.08795682 0.21826911 0.2177137 0.39114898 -0.7114664 0.5549114 0.014502287 -0.13616197 -0.2554331 0.35296938 0.11361581 -0.5693593 -0.03703643 -0.031168267 -0.2751776 -0.42941612 -0.10964671 0.20006329 -0.6857521 -0.14303574 -0.65612674 -0.4380229 0.44399703 -0.30265793 0.0513338 -0.08514527 -0.39497086 -0.072044834 0.24063729 -0.0321052 -0.13651632 0.065808795 -0.20324883 -0.017685708 -0.09643398 0.12732452 -0.5119712 0.103596285 -0.03916642 0.15011527 0.27999738 0.6868702 -0.38326067 -0.020567177 0.24766526 0.21330166 0.08897202 0.13558479 -0.38700306 0.053980384 -0.048481353 0.19335383 -0.10759502 -0.85313654 0.6801747 0.25659758 -0.5975439 -0.045108356 0.16115591 0.7989875 -0.48804536 0.16003034 -0.10016991 -0.015322766 0.0017472797 -0.3538797 -0.99172556 -0.5808553 0.24991101 -0.53697217 0.33324686 0.25745663 -0.4070974 0.36013702 0.034620754 0.08301939 -0.31306726 0.7628966 0.3702559 0.34769017 -0.5102242 0.078361854 0.39049911 -0.499305 -0.34329632 -0.054411776 0.17330448 -0.26174638 -0.04029412 0.060206722 0.19547261
3312:CHECOTAH -0.15639412 -0.0575624 -0.47877875 0.06669769 0.50525594 -0.41978526 0.24367824 0.21388277 -0.6861576 0.5114429 0.6422366 -0.22498812 -0.34027708 0.5802526 0.3870661 0.44704875 -0.36537763 0.14240827 -0.27806917 -0.00885184 0.30409884 0.2890607 0.05359962 -0.31730366 -0.4225192 0.1568582 -0.3163269 -0.3199919 -0.61909056 0.043286145 -0.23182166 0.40124983 0.70111424 0.015852356 -0.59198505 -0.32248244 0.61940384 -0.19956921 -0.06721999 0.030228099 -0.28060517 -0.495418 0.5541897 -0.23007151 0.049118977 -0.17237927 -0.38567623 -0.23901568 -0.5911416 0.18401825 0.16833603 -0.40653202 -0.2599937 -0.26868176 0.084627174 -0.5271463 0.77224404 -0.3798658 -0.49610764 0.715444 -0.28196362 -0.040122874 0.22930278 -0.23675177 -0.03575486 0.45409575 -0.6146999 -0.13346945 0.26446283 0.28421825 0.28873998 -0.13572225 -0.10914271 -0.089031756 0.20045517 -0.02134381 -0.066884026 0.09927594 0.6310065 -0.24724482 -0.15955962 0.30879605 -0.41107255 -0.38321468 0.19519174 -0.48690584 0.016725233 0.112686284 -0.6429194 -0.059881423 -1.4202263 -0.08768251 0.18011226 -0.18567257 -0.11355071 -0.3701875 0.42577595 0.23741652 0.06738035 0.35878608 0.37389868 -0.1257518 -0.23260017 -0.5740373 -0.8666841 0.04493343 -0.19811158 0.1034254 0.257815 -0.60858274 0.5360166 -0.31199524 0.27665228 -0.029662661 1.0580077 0.034198828 0.00090581767 -0.29492065 -0.32911542 0.44902122 -0.04905319 -0.35159883 0.0037590533 0.25854 -0.24468549 0.062966116 -0.73087424 -0.14137599
3114:TENNYSON -0.30657837 -0.12828016 -0.5855602 0.33192334 0.7257686 -0.3924603 0.5304843 0.061811388 -0.69366294 0.70824486 0.35200223 -0.65328175 -0.43169266 0.5927158 0.513552 0.48072946 -0.3187684 0.16514859 -0.20021336 0.10769607 0.5304535 0.036251936 0.18996446 -0.08154049 -0.34730256 0.109625295 -0.33441335 -0.16268198 -0.4917056 0.041405074 -0.18474156 0.295838 0.62263215 0.041118845 -0.4500913 -0.39819476 0.66367894 -0.3286616 -0.08839154 0.06489291 -0.30290183 -0.69503736 0.47982717 0.108119324 -0.13633114 -0.3114796 -0.24648675 -0.16262637 -0.56767297 0.074942425 0.026821882 -0.25669444 -0.2650779 -0.046063315 0.058688737 -0.55250835 0.5251532 -0.6000412 -0.51697516 0.5850154 -0.24198598 -0.0794681 0.25516707 -0.20263098 -0.11209562 0.27499878 -0.5296176 -0.0017753735 0.027495742 0.18683363 0.038028646 -0.23408663 -0.298036 -0.22373407 0.25141433 0.10727041 -0.15946478 0.14347342 0.55689675 -0.18496595 -0.12476556 0.24712737 -0.1478894 -0.04414978 0.10322309 -0.062328134 0.17724106 0.09050403 -0.2917424 -0.049380194 -1.2084365 0.18019553 0.25814712 -0.2540437 0.051996436 -0.40486595 0.512021 -0.21700493 -0.16331883 0.36546984 -0.05110015 0.14241832 -0.15074912 -0.8445488 -1.0605056 0.19400647 -0.45348686 0.38880125 0.52240014 -0.9400092 0.658187 -0.31980398 0.22766368 -0.04005141 0.94830495 0.28423995 0.010501782 -0.46967012 -0.31472918 0.26642776 -0.03236218 -0.2196063 -0.05512117 0.37370548 -0.3392019 0.00855101 -0.93049103 0.12133747
3213:BOWDEN 0.28954354 -0.07026145 -0.72030216 0.64151275 0.79098773 -0.31698194 0.5441903 -0.103833094 -0.7919144 0.87092996 0.38977277 -0.45580834 -0.3752454 0.39135498 0.6575643 0.5121147 0.03233826 -0.5146917 -0.83080816 0.052040827 0.31165957 0.5728789 -0.6404538 0.0918332 -0.3571944 -0.19615154 -0.48606312 -0.6084539 -0.22921765 -0.30256087 -0.10066572 -0.079683565 0.2800933 -0.045146044 0.08210213 -0.40429136 0.58843875 -0.7613305 0.63841337 -0.04855181 -0.5287081 -0.55241185 0.2755353 -0.38978767 -0.5259668 0.075645715 -0.5592345 -0.2080758 -0.6823908 0.25036225 -0.070751026 -0.7868233 -0.14647564 -0.070291325 -0.18839946 -0.86217606 0.39703432 -0.28228584 0.08037549 0.86405885 -0.5281978 0.2862137 -0.124857195 0.2589674 -0.32744947 0.65972126 -1.1180315 -0.11633135 0.5097217 0.5267539 -0.051343407 -0.19797565 0.14337079 -0.4221235 0.21810843 -0.3783423 0.26653376 -0.2629924 0.38650095 -0.034155287 0.25132233 0.5309946 0.4103643 0.22030939 0.39399427 0.032759435 0.25246853 0.15275683 0.07269104 0.050526734 -0.6947164 0.26838565 0.11002666 -0.42720613 0.018516501 0.143537 0.7145498 0.09179276 0.018683959 0.049589343 -0.041307718 0.11750046 0.24417682 0.052136317 -0.3168619 -0.0043144664 -0.13068011 -0.08007983 -0.1322279 0.060798936 0.19378914 0.16444735 0.3244148 -0.2497736 0.43832943 0.1584168 0.38069257 -0.5508318 -0.14997353 -0.11286361 -0.2518062 -0.111997 0.06654508 0.009855653 0.013742089 -0.037427817 -0.26599917 0.21920751
7407:REMINGTON -0.28666663 -0.29180887 -0.35322887 0.33619174 0.41691074 -0.4133734 0.14271651 -0.22470024 -0.23443289 0.36348167 0.26774117 0.23146436 -0.07171445 0.5073658 0.24887253 0.4107115 -0.22364102 0.053013183 -0.2417199 0.115676545 0.42336175 0.038954236 -0.11921306 0.057028264 -0.33899647 -0.037985064 -0.124891564 -0.10697481 0.08542981 0.16298978 0.18046278 0.07044212 0.6167467 -0.06443825 -0.081311576 -0.36663505 0.82230294 -0.6741773 0.2440485 -0.1905093 0.08767905 -0.56449646 0.41666836 -0.23893793 -0.08899734 -0.01073866 -0.122652754 0.21539846 -0.4581858 0.3659785 0.22431394 -0.15920489 -0.4178245 0.14446022 0.27715752 -0.24247406 0.36727032 -0.43394926 -0.11116201 0.5016688 -0.09767686 0.0422213 -0.0032915531 -0.24945273 -0.3573484 0.5144868 -0.18684885 -0.34333894 0.17883597 0.21077466 0.13147733 0.22440538 -0.23167957 -0.41877586 -0.014626924 -0.25765938 -0.10539468 0.00045917608 0.8648293 0.0067220824 0.37827134 0.3311299 0.38968846 0.037392385 0.90414244 -0.07204106 0.19545686 0.38453287 0.15497157 -0.14897545 -1.2245048 0.6706421 0.15262567 -0.49642396 0.43510097 0.3876002 1.1079084 -0.19360802 -0.31111306 0.22011188 0.0392325 0.6207087 -0.13048068 -0.56028426 -0.86471725 0.390774 -0.5114502 0.9467277 0.21511097 -0.4784593 0.7135788 -0.3251572 0.074337065 -0.2661659 1.3838923 0.4212339 0.02122718 -0.5778526 -0.44749925 0.280464 -0.5105601 -0.084092654 0.2745302 0.36977372 0.008242929 0.83977145 0.2802269 0.27876708
7605:DRUMRIGHT -0.48230016 -0.5792176 -0.9162118 0.91787857 1.3092042 -0.89949566 0.88891476 -0.12852076 -0.45647693 0.5346828 0.33475977 -0.64241266 -0.2942154 0.5814958 0.6468294 0.6780443 -0.39799932 0.4344227 -0.75087345 -0.17289196 0.9297197 -0.01600905 -0.47846273 0.08502797 -0.70431477 -0.114320405 -0.15471563 -0.2977495 0.053181794 0.32465154 -0.013841907 -0.14983879 -0.018958619 -0.060407266 -0.19547923 -0.24444227 0.20628607 -0.36306712 0.06830873 -0.04138235 0.005746446 -0.36111218 0.30511183 0.46962935 -0.03776089 -0.29057178 0.056083925 0.1657072 -0.53166544 0.30205658 0.48269707 -0.3295695 0.069410466 -0.30550697 0.24859875 -0.21896693 0.37064248 -0.1442403 -0.35513276 0.5329114 -0.11318162 0.18114239 -0.26488551 -0.08762461 -0.05244858 0.12017363 -0.17210831 -0.0185952 -0.14671545 -0.35280147 -0.14082651 -0.17085643 -0.19081673 -0.2917096 0.11272189 -0.19053575 0.22452757 0.040734172 0.13749133 -0.1892262 -0.12775233 0.2986857 -0.099585354 -0.34059533 0.27795938 -0.2698771 0.027527273 -0.038431212 0.13971253 0.21608117 -1.029859 0.5803722 0.2851278 0.17017801 -0.077247724 -0.34172794 0.6009737 -0.71050906 -0.35495722 0.2095096 -0.05221203 -0.010764901 -0.59055775 -1.17248 -0.4130244 0.25762728 -0.8386314 0.16473128 0.48646656 -0.8634204 0.9839926 -0.39783666 0.007016338 -0.15021986 0.30700216 0.45205802 0.24247368 -0.51349765 0.37095815 0.20439515 -0.50448227 -0.015105879 -0.24274012 0.17458388 0.07559398 0.1347535 0.3218732 0.38485223
3321:ROSS_LAKE -0.24616773 -0.060543355 -0.3610275 0.042459007 0.4812447 -0.23144469 0.3016189 0.0844144 -0.58266866 0.6178733 0.41444233 -0.4089358 -0.5432767 0.51710725 0.4156509 0.3963281 -0.3523729 0.11022133 -0.17571001 0.11315511 0.3507756 0.17131223 0.21905755 -0.08878097 -0.37269285 0.16880153 -0.34418708 -0.18388195 -0.62596244 -0.020080958 -0.17414497 0.4124636 0.5839409 -0.13314359 -0.3740194 -0.4704576 0.5850371 -0.4754506 -0.14334057 0.06408256 -0.43187302 -0.5871183 0.42261901 -0.073923275 -0.181918 -0.19158675 -0.22292168 -0.23931716 -0.56547636 0.06766608 0.017183395 -0.29940498 -0.32061997 -0.12160306 -0.084090225 -0.579325 0.5877944 -0.44573498 -0.39800778 0.4001218 -0.2916821 -0.15793955 0.3064147 -0.19320388 -0.08813489 0.34245908 -0.5943423 -0.060829308 0.17365982 0.27875847 0.1205171 -0.17947134 -0.2853842 -0.2488509 0.23732404 0.06768169 -0.17710635 0.12722957 0.57188344 -0.16483669 -0.082736045 0.23719557 -0.23838162 -0.19758469 0.121817015 -0.41342744 0.029474936 0.08239907 -0.5164877 0.09366701 -1.2001573 0.03991529 0.20081802 -0.11414574 -0.18796688 -0.6462593 0.60460335 0.20686549 -0.06870163 0.5182183 0.36423746 -0.13004303 -0.20939955 -1.0296254 -0.963253 0.061656017 -0.36331046 0.11734172 0.7803492 -0.878841 0.5055681 -0.28605652 0.25546074 -0.05890496 0.89426625 0.20699246 -0.0163574 -0.44021183 -0.3490741 0.18486851 0.004021462 -0.36084738 -0.11799176 0.47739205 -0.46090418 -0.019498073 -0.9592237 0.11420411
3128:HANCOCK -0.21395713 0.01718012 -0.41496176 0.01599063 0.501873 -0.27512887 0.33270514 0.11478375 -0.61407787 0.55797696 0.2788491 -0.5358336 -0.7217153 0.6978068 0.367578 0.44973046 -0.29726163 0.21575466 -0.11332206 0.050882418 0.44000882 0.24880226 0.27170295 0.0786211 -0.22995152 0.038032718 -0.41701472 -0.0010275157 -0.91827077 -0.07417165 -0.29721183 0.46474358 0.57562023 -0.09977328 -0.28226528 -0.4855702 0.69550216 -0.3400318 -0.12792607 0.087679125 -0.44332448 -0.9214341 0.5369997 -0.025797177 -0.3022766 -0.34258428 -0.1140666 -0.28963265 -0.5709698 0.083679505 -0.19606632 -0.20286374 -0.32980907 -0.15731443 -0.17403743 -0.822622 0.5157933 -0.61540693 -0.7078309 0.48253003 -0.4764393 -0.2361466 0.36682025 -0.2208684 -0.10390026 0.20333344 -0.7312487 -0.10056148 0.142775 0.25034764 0.050685182 -0.19686943 -0.24609895 -0.23908153 0.39962322 0.054949015 0.020061849 0.12921031 0.65227824 -0.081476025 0.03734285 0.28993058 -0.21645431 -0.06538422 0.14881927 -0.18182643 0.14418231 0.1867431 -0.105243735 -0.019942218 -1.198701 0.2018918 0.26189178 -0.3950115 0.1058536 -0.39913708 0.7208136 -0.008283963 -0.042438995 0.4106397 0.17915498 -0.043355916 -0.21477698 -0.95442116 -1.1205128 0.044022225 -0.44351953 0.36078328 0.66989046 -0.7502812 0.66368645 -0.34351876 0.23902851 -0.12148886 0.811875 0.17652363 0.09988247 -0.4224251 -0.4720291 0.04147649 -0.06606584 -0.30294642 -0.16332354 0.33230114 -0.3909543 -0.16240901 -0.75305694 0.17652182
8662:SE_15TH_ST -0.33930662 -0.31784108 -0.45234802 0.47062287 0.78649753 -0.83055484 0.25706837 -0.39135155 -0.5863418 0.23208423 0.4787716 -0.63822734 -0.8498531 0.41886804 0.5158422 0.45668024 -0.50634754 0.14531893 -0.17802568 -0.15080704 0.19740245 0.049126074 0.0831101 -0.22445145 -0.13492718 -0.06803131 -0.3222958 0.2782838 -0.32212996 0.07507037 -0.27319604 0.2045572 0.5872826 0.28059644 -0.053029336 -0.27038282 0.4491765 0.17209065 0.013321392 0.14311004 0.18108776 -0.3355537 0.09760291 -0.018930297 -0.020975739 -0.15320933 -0.09177879 0.25966352 -0.60163826 0.33980876 -0.42217186 -0.07902839 -0.12296481 -0.25473955 0.026690781 -0.5499206 0.21922004 -0.18222035 -0.4904444 0.76223105 -0.24471512 0.25794813 -0.15058948 -0.08259414 -0.02615069 0.29962373 -0.6852605 0.16286862 -0.2886866 -0.3619907 -0.030358646 -0.04767727 -0.11649621 -0.48492488 0.3520978 -0.68101734 0.421083 0.20047177 0.5796398 -0.08683964 0.13091469 0.34330177 0.6024899 0.5257246 0.43806154 0.39558828 0.23135999 0.4535003 0.15276103 -0.29533088 -1.2495027 0.51142275 0.20783192 -0.36118552 0.16035196 -0.09775514 0.8776975 -0.80549335 -0.18469743 0.09567799 -0.43520698 0.23822035 -0.35669634 -0.14566475 -0.75498486 0.03809454 -0.49918237 0.40763608 0.12501398 -0.4534106 0.6574723 -0.3011176 0.36130658 0.09668608 1.0351222 0.380576 0.2604177 -0.46806583 -0.35837704 0.2788276 -0.36227086 -0.33399943 -0.1069121 0.14777064 0.0636324 0.50392574 0.43339047 0.44602874
3326:JAMESVILLE -0.26200977 0.0032696873 -0.39879248 0.016632063 0.43963775 -0.18954593 0.40366834 0.14729051 -0.5389737 0.568466 0.30102366 -0.38158008 -0.52012694 0.5043619 0.27012098 0.3222895 -0.18335883 0.10498083 0.04649208 0.062234815 0.25356075 0.056801796 0.36609492 -0.10891508 -0.08280307 0.11520227 -0.31147635 0.17288534 -0.6059838 -0.15152627 -0.29048654 0.4175176 0.5733316 -0.057862453 -0.3655061 -0.4213924 0.59210515 -0.43787965 -0.17210314 0.03297445 -0.53432786 -0.67806107 0.4848379 -0.016111348 -0.22638348 -0.25074935 -0.17536601 -0.27963245 -0.54687077 -0.006170808 0.016428934 -0.30812582 -0.2865805 -0.009628224 -0.11506571 -0.57349753 0.50563574 -0.35823756 -0.35241765 0.4119223 -0.31405556 -0.110527076 0.31065333 -0.098063745 -0.10156802 0.30235747 -0.68145263 -0.060853753 0.21779868 0.35334978 0.07667765 -0.22014597 -0.17174363 -0.17456336 0.3243725 0.11322276 -0.15079162 0.13342486 0.48226058 -0.100750364 -0.11982539 0.1660931 -0.2899502 -0.15305363 0.066914275 -0.28294718 0.07894117 0.03340405 -0.44782752 0.017828846 -1.2591107 0.059548166 0.2279311 -0.12392284 -0.13060589 -0.6387622 0.46365175 0.08090339 -0.095535584 0.45045274 0.17816058 -0.102480404 -0.18082128 -1.0075924 -1.0099456 0.09700532 -0.41206253 0.21702273 0.6466563 -0.7955516 0.630079 -0.27938417 0.25468573 -0.080465525 0.8276346 0.15939221 0.1308213 -0.4986311 -0.4054032 0.16895653 0.01369339 -0.31512427 -0.22214343 0.45252055 -0.4317065 -0.2445336 -1.0999521 0.17590816
8617:SUNNYLANE -0.58259785 -0.38029698 -0.062986456 0.4442289 0.73689985 -0.5747774 0.4325662 -0.34861255 -0.36884257 0.46639118 0.3789739 -0.34490886 -0.62980133 0.56439376 0.73588485 0.5948714 -0.4930556 -0.10139371 -0.62208545 -0.48022807 0.6146361 0.53025347 0.4221903 -0.5362756 -0.39970466 0.3272982 -0.35962227 0.15452576 -0.20363458 0.33688617 0.14902964 0.19023317 0.7106284 0.5466545 0.029795602 -0.4944303 0.51190495 0.06841695 0.18800738 0.045712255 -0.034199897 0.18849832 0.03155122 0.2937576 -0.13517869 -0.5273447 0.091346644 -0.02887944 -0.57086325 0.019332645 -0.23092288 -0.019248433 -0.22059613 -0.44571716 -0.34267098 -0.4062276 0.17188169 -0.21204267 -0.45780876 1.0427275 -0.37725282 0.41032517 0.2718205 -0.5034884 -0.08281799 0.6182547 -0.971885 -0.28150088 -0.053156745 -0.07309816 -0.08464027 -0.17462601 -0.5694957 -0.51546067 -0.072649546 -0.6921757 0.23031494 -0.10793522 0.6380011 0.079543106 0.1490864 0.8863572 0.64774513 0.67322576 0.11905956 -0.03466918 0.35302913 0.27479118 0.16044699 -0.12571768 -1.4557997 0.7950726 0.18652807 -0.23940347 0.4448827 -0.47489455 0.62625647 -0.6922959 -0.30621037 0.46686348 -0.33658257 0.20694461 -0.4433349 -0.19331583 -0.70739126 0.032781996 -0.1872578 -0.035779636 0.0034279465 -0.777027 0.37450275 -0.4562784 0.27703297 0.16747658 1.399419 0.8647704 0.18890665 -0.7076925 -0.4651033 0.22191726 -0.35879463 -0.061640956 0.019562319 0.4200628 -0.00015900764 0.5154021 0.86315846 0.60144234
7430:INGLEWOOD -0.13560313 -0.01783809 -0.32208636 0.25248218 0.2945074 -0.23076938 0.2955125 -0.12341008 -0.058557697 0.33767003 0.15196553 0.29950297 0.046512254 0.4363779 0.10069355 0.21424665 0.051766876 -0.07426833 -0.11836008 0.19857238 0.1479784 -0.044205204 -0.130046 0.040175695 -0.30108196 -0.011693115 -0.06814467 -0.09911723 0.22084494 0.092096426 0.19140314 0.021549657 0.52080846 -0.06699414 -0.06844965 -0.25346673 0.66978735 -0.69002753 0.22594523 -0.17203495 -0.012149316 -0.44021356 0.336266 -0.26494217 -0.22889204 0.11761183 -0.15595087 0.14376287 -0.4074499 0.33232558 0.26886395 -0.21792836 -0.38616773 0.08908245 0.23721936 -0.20631391 0.4383975 -0.44797012 -0.10695823 0.44016078 -0.017496763 0.17765489 0.055321977 -0.21468619 -0.3679177 0.39589718 -0.16524033 -0.35536975 0.19137567 0.22436352 0.13234167 0.23553483 -0.3370528 -0.44979176 0.046413343 -0.2985714 -0.0010048003 -0.03875802 0.9706532 -0.026043901 0.34323394 0.40096486 0.32363412 0.070747554 0.88432527 -0.05326086 0.27536285 0.45832056 0.21151665 -0.13330954 -1.21289 0.50277793 0.19042675 -0.45380026 0.4064357 0.4136554 1.2935797 -0.3028254 -0.24674723 0.2365923 0.0065888204 0.732849 -0.11356071 -0.52146846 -0.90661776 0.52957845 -0.5061124 1.0921723 0.06159072 -0.5289389 0.74955124 -0.23288779 0.122503355 -0.3395523 1.5756918 0.42639598 0.15952525 -0.6650275 -0.43509814 0.38467824 -0.40435418 -0.07972794 0.28667066 0.31348583 -0.06756114 0.7861079 0.28749722 0.29029012
5305:HEALDTON -0.108187824 -0.19122086 -0.9684645 1.0074556 0.73795825 -0.7774367 -0.14857775 -0.035104897 -0.61877424 0.94971895 -0.3224987 -0.38271186 -0.24010655 0.71304035 0.5845147 0.29741383 0.12667772 -0.12027002 -0.2942608 0.5100455 0.24142177 -0.06419458 -0.03599407 0.18028325 -0.7098625 -0.0030612817 -0.15886736 -0.3982644 -0.41502747 -0.36463585 -0.14972354 0.022282293 0.26615924 -0.045017384 -0.07567794 -0.015580919 0.54969645 -0.4631253 0.49980128 -0.34515202 -0.29280293 -0.7946312 0.23151216 -0.023173263 -0.46327826 0.08686175 -0.72344166 0.15587692 -0.48484626 0.46778494 0.11959389 -0.35362378 0.09844736 -0.45397335 -0.3478161 -0.9305667 0.4222717 -0.9609163 -0.40786833 0.16891243 -0.39734542 0.18797024 0.1942537 0.25399575 -0.18700123 0.0092056785 -0.22154681 -0.17035353 -0.14721769 -0.025466276 -0.27081284 0.13250567 -0.58386934 -0.25328493 0.3227643 0.1445714 0.042192385 -0.12609711 0.48979566 -0.022009216 -0.22733998 0.47668952 0.1406073 0.3843191 0.11256145 0.68138134 0.6799925 -0.07302203 -0.011709714 0.061278045 -0.6958243 -0.11993837 0.8912573 -0.031126054 -0.12743808 0.26201537 0.48270372 -0.6378449 -0.54952276 0.3217358 -0.22914916 0.08404842 -0.09560441 -0.3045385 -0.4452239 0.6234744 -0.1339056 1.2670811 0.002559984 0.021889428 0.47129086 -0.15669565 -0.12721117 0.41798964 0.37140018 -0.12657963 -0.21586251 -0.15197292 0.357352 0.77739346 -0.29011554 -0.22054406 0.037075322 -0.06185253 -0.16534726 0.7922993 -0.25398842 0.185721
4123:KREMLIN_TAP -0.13025846 -0.46029738 -0.44459727 0.1802428 0.73025835 -0.35900047 -0.07495675 -0.0146182915 -0.45789805 -0.11954158 0.47364014 -0.26263812 -0.48036397 0.17800653 0.28213677 0.09495808 0.16423963 0.5695186 0.24599563 -0.69259703 0.8873312 0.06326975 0.05522314 0.5482741 -0.3110877 -0.5076239 -0.11420632 -0.7713109 -0.5733719 0.2848695 -0.04663003 0.0676284 0.7122512 0.13170458 0.11015219 -0.5144792 0.42662925 -0.42828643 0.16081128 0.06428847 0.48294982 -0.8839609 0.62411785 -0.058625404 -0.02746105 -0.42271942 0.06915168 0.294588 -0.4831735 0.022859154 -0.12853543 -0.36489055 -0.36237794 -0.20650317 0.1271396 -0.50206786 -0.07158339 -0.4784241 -0.3980535 0.7057997 -0.2614444 0.1355471 -0.22807015 -0.37674493 -0.01903505 0.36095753 -0.46382207 -0.16224842 0.34562847 -0.17730412 0.056626465 0.04874023 -0.24619894 -0.49512875 0.13296819 -0.56716853 0.09377259 0.118558474 0.65829724 -0.14363621 0.07344781 0.40206355 0.2186214 -0.13889395 0.2369115 -0.34926826 0.11855474 0.03516255 -0.041848026 -0.01145528 -0.59029704 0.48623645 0.06352255 -0.45975465 0.010491993 0.1962536 0.75692993 -0.07681944 0.3381564 -0.10984788 0.043119807 -0.12167882 -0.23262103 -0.57451904 -0.5293077 0.27126822 -0.61179626 0.10770589 0.0683287 -0.34747982 0.22716738 -0.11177775 0.1784399 -0.20563461 0.42077276 0.14479297 0.21994004 -0.41617566 -0.06574928 0.18979958 -0.35181507 -0.093594186 0.03423141 0.3286119 -0.052875847 0.2738759 0.14693803 0.17755398
5605:PAULS_VALLEY 0.00042591305 0.092318274 -0.52453345 0.6092416 0.66807723 -0.09429295 0.7157291 0.05773508 -0.008485613 0.37174428 -0.021533862 -0.5095885 -0.14755672 0.24354868 0.88359123 0.30221626 0.13938144 -0.21655308 -0.62863165 -0.14896624 0.1533207 0.27966842 -0.6096566 0.59413344 -0.3205247 0.43367627 0.10950711 -0.59192973 -0.19052926 0.08932923 0.08486228 -0.13295458 0.9705612 0.35775167 -0.66288096 -0.35115114 0.71225697 -0.51782835 0.46619734 -0.05477571 -0.21780753 -1.0352863 0.4361706 0.27174294 -0.09244465 -0.39848942 -0.45902783 -0.027632363 -0.69131076 0.00085994834 0.17029926 -0.5847587 -0.2938546 -0.44579846 -0.10465467 -0.49220732 0.33782268 -0.29936364 -0.1345673 0.19247289 -0.29105562 0.28272974 0.04631686 -0.16977485 0.159151 0.38445088 -0.58256215 -0.1292637 -0.055566657 0.019375466 -0.16240112 0.17637916 -0.88237727 -0.28235644 0.36228383 0.38228816 0.17204924 -0.04762373 0.3651507 -0.13239633 0.12371593 0.7096665 0.20297879 -0.15733963 0.14019799 -0.49893358 0.41363457 0.29479453 0.35514632 0.1963464 -0.85611033 0.25361493 0.35610047 -0.9337533 0.28842723 0.29674283 0.6989207 -0.1656355 0.2874598 0.34301147 0.006473624 0.45744783 -0.20655622 -0.91528255 -0.81685 0.59004337 -1.0231209 0.22826609 0.25653917 -1.1006403 0.5846409 -0.283333 0.10112373 -0.41695607 0.76272196 0.46702713 0.13824748 -0.19520761 -0.23190984 0.04915479 0.42977703 0.17339821 0.09659422 0.1735601 -0.014874046 -0.5722392 0.16914567 -0.07187653
3111:FIVE_TRIBES -0.258275 -0.18802705 -0.5629145 0.14185882 0.8384453 -0.42763793 0.4694695 0.19670247 -0.94413507 0.8318842 0.6662557 -0.52194095 -0.5889019 0.93350756 0.6215364 0.5536352 -0.09308548 0.13483459 0.020775044 -0.111897014 0.25595757 0.29951826 0.17186293 -0.34524706 -0.13761017 0.154532 -0.36083955 -0.12280348 -0.61547494 -0.21487707 -0.24111083 0.45687604 0.7556554 0.12491243 -0.47823328 -0.3126361 0.6119461 0.027369758 -0.20090598 0.087411925 -0.3881892 -0.6989733 0.52505267 -0.2203989 -0.14437822 -0.30122367 -0.38974786 -0.22825092 -0.60556394 0.11020443 -0.039093595 -0.36101893 -0.32999533 -0.27118447 -0.04828637 -0.4396868 0.60062426 -0.4320906 -0.42590773 0.6841811 -0.09611915 -0.029790672 0.18982789 -0.24030602 -8.10136e-05 0.43160138 -0.6592301 -0.10717936 0.18228088 0.20845383 0.24567668 -0.03495702 -0.24080426 -0.08162103 0.2250767 0.16962117 -0.08529519 0.047061596 0.62744004 -0.19872065 -0.20873065 0.46791273 -0.24383412 -0.23568931 0.22271256 -0.2920624 0.13329852 0.026288224 -0.3527409 -0.14844203 -1.4550554 0.039723523 0.36482522 -0.45762923 0.16214734 0.052152336 0.37424076 -0.020805247 0.11852464 0.2226805 0.35750803 -0.08220701 -0.13037327 -0.29415387 -0.6926049 0.0127217015 -0.17606537 0.09020844 0.25774878 -0.4040247 0.33460575 -0.2545847 0.16957468 -0.07184271 0.98713034 0.019227147 -0.02490527 -0.21375479 -0.31384754 0.34263882 -0.06672042 -0.47421333 0.0014529189 0.15087749 -0.233415 0.2607587 -0.4828845 0.04942306
8536:WASHINGTON_PAR -0.0030867849 -0.2991964 -0.34611318 0.4098651 0.68661344 -0.25023046 0.6212447 0.008065711 -0.55066013 0.3868353 0.47411126 -0.09102404 -0.102997676 0.66987336 0.16307928 1.0352148 -0.6232264 0.079270445 -0.41194874 -0.270604 1.027332 0.1735212 -0.32862124 -0.1413916 -1.03459 -0.07732909 -0.47760513 -0.34916502 -0.36964038 0.37765747 0.16568735 0.2729974 0.50216514 -0.2011934 -0.25861114 -0.32970446 0.8623143 -0.29214478 -0.27260435 0.38313997 -0.4582713 -0.20434348 -0.03615153 0.023310618 0.11672033 -0.05394141 0.23858562 0.1682357 -0.37797824 0.12571254 0.5069661 -0.70767444 -0.17562398 -0.022372155 0.5142047 -0.838472 1.112887 -0.4221544 -0.7553453 0.5005769 -0.5426825 0.40910766 0.5314838 -0.26177928 -0.023450738 0.24322833 -0.20936449 -0.19555084 0.18228288 0.10992829 0.07067011 0.057366062 -0.34564617 -0.09308953 0.21037777 0.3178759 -0.17316099 0.04297858 0.38699958 0.24948083 0.24123365 -0.30539146 0.37431955 -0.111491784 0.4822884 0.045928016 -0.06923388 0.33505645 0.23189783 0.011288598 -0.87905145 0.34131876 0.050037522 -0.30468726 0.21113244 0.25963256 0.26151842 -0.14305273 -0.056934644 -0.4145622 -0.14839405 0.15494883 -0.23124725 -0.294893 -0.3828184 0.053833526 -0.33543223 0.6621506 0.49369454 0.13396257 0.38692844 -0.21453547 -0.028501539 -0.0884329 -0.1797461 0.087361455 -0.0025291492 -0.27087206 -0.39964086 -0.24399059 0.06766502 -0.043047506 -0.061589267 0.4270375 -0.13926357 -0.13394807 -0.17273973 0.14805129
5107:TOWER_HEIGHTS 0.43318388 0.025952011 -0.16271508 0.5364042 0.17453378 -0.052005652 0.4053939 0.30006275 0.29809806 -0.013218784 -0.31576443 -0.59692943 0.03406486 0.011139332 0.8264195 0.030000415 0.54482514 -0.20068276 -0.26324075 -0.31198987 0.283564 0.36864334 -0.33004957 0.62248224 0.008709727 0.28568274 0.27930424 -0.7133477 -0.36219928 -0.06590998 0.1729055 -0.20818222 0.60996246 0.1066259 -0.38851917 -0.2130112 0.6434057 -0.71477515 0.6035109 -0.1796884 -0.3642742 -0.84663457 0.35218278 0.14141266 -0.091321915 -0.13857014 -0.67892855 -0.43541282 -0.4767626 -0.43879974 0.018058408 -0.26676103 0.44269684 -0.740869 -0.12268615 -0.4443156 -0.009376532 -0.5677046 -0.27557307 0.25424078 -0.13310094 0.19932051 0.06454846 0.27340224 0.2531166 0.16823332 -0.50591606 -0.21098037 0.28618285 -0.06829612 -0.24316879 0.37977758 -0.3690176 -0.16348976 0.011165305 0.42622936 0.5984604 -0.13000293 0.1434713 -0.061304435 -0.24852966 0.6154128 -0.30500993 -0.51486313 -0.13874733 -0.2630212 0.7199557 0.28488603 0.24941023 0.48270208 -0.31733587 -0.3177027 0.637895 -0.6076907 -0.39714655 0.10318015 0.5023938 -0.40076283 0.17440592 0.48473287 -0.10614057 0.47619244 -0.28897357 -0.40293226 -0.662065 0.24237299 -0.72423065 0.23944102 -0.2934157 -0.90679574 0.37976417 -0.2864573 0.0014555699 0.11057633 0.8802473 0.889197 -0.00957292 -0.13922317 0.139259 0.2476555 -0.38019553 -0.3597943 0.10204938 -0.09393921 0.10557076 0.027980974 -0.45592555 -0.120479874
5125:LONE_GROVE 0.215447 -0.17957827 -0.40509716 0.7039435 0.59730256 -0.33323213 0.47042507 0.1634781 -0.24144158 0.4005696 -0.043287974 -0.6834433 -0.26177624 0.4385663 0.8879591 0.37506676 0.22282714 -0.026654571 -0.5465927 -0.22372308 0.738872 0.5109553 -0.41725746 0.43914735 -0.48338032 0.18142591 0.11961167 -0.8438016 -0.47678992 -0.0064853188 0.16610952 -0.0005827237 0.70742166 -0.002541354 -0.39850795 -0.25517017 0.70100546 -0.5006938 0.40945542 -0.19437411 -0.2729498 -0.86585826 0.47742838 -0.00233314 0.0145122055 -0.18614116 -0.6016131 -0.28592613 -0.5597731 -0.081242435 0.019551294 -0.0880084 0.22846405 -0.5338258 -0.08083052 -0.50604117 0.19328293 -0.69889003 -0.43516704 0.5779417 -0.2579541 0.16069146 0.19248146 -0.025807096 0.1874782 0.2881796 -0.56046814 -0.23379582 0.25024483 -0.021889595 -0.14942215 0.24224968 -0.40330684 -0.18889414 -0.123295195 -0.061635815 0.46868083 -0.13085052 0.50364363 -0.1310981 -0.20917454 0.6710092 -0.2603016 -0.21951425 -0.080486126 -0.35118333 0.5877466 0.15132006 0.09649991 0.13674721 -0.75378877 -0.07058443 0.55801773 -0.6211142 -0.021616006 0.09232561 0.8095773 -0.4956339 0.02141422 0.37194586 -0.03729638 0.47142926 -0.24010564 -0.43156406 -0.76630163 0.3754338 -0.7542041 0.49169415 -0.21156757 -0.8431158 0.5991383 -0.31078172 0.09974517 0.038397405 0.9540405 0.6765883 0.050956577 -0.35762027 -0.05640113 0.24467596 -0.4766053 -0.25102273 0.19424188 0.006068244 -0.020485964 0.3699226 -0.07960663 0.01950474
5111:DRIPPING_SPRINGS 0.3952265 -0.0065711928 -0.3094637 0.7205226 0.33983552 -0.34643537 0.32668924 0.18071002 0.010256919 0.33642682 -0.19937512 -0.6270904 -0.14266536 0.13855328 0.95499367 0.40300703 0.10959051 -0.1252611 -0.5075761 -0.08637975 0.37944424 0.42319137 -0.23208919 0.42352194 -0.15209252 0.2814836 0.13095807 -0.6242887 -0.36742908 0.052270234 0.08981947 -0.050151154 0.57202595 0.021923421 -0.4800864 -0.14131516 0.6977662 -0.56206745 0.59293103 -0.16121505 -0.30091304 -0.8126386 0.4588413 0.029108891 -0.049791645 -0.12628475 -0.8020427 -0.28630286 -0.5820861 -0.36095497 0.021816116 -0.18148337 0.3145159 -0.65373695 -0.121287785 -0.43598032 0.22634338 -0.7169187 -0.392185 0.3436237 -0.221569 0.093638875 0.062141467 0.17835481 0.24555786 0.11213261 -0.6002075 -0.10578332 0.22899972 -0.037707068 -0.18476436 0.39399344 -0.537967 -0.24617575 0.1135187 0.17472528 0.55986977 -0.11141206 0.28115532 -0.13519624 -0.16955727 0.6827656 -0.29557005 -0.35163036 -0.028155105 -0.24143355 0.6750519 0.2979531 0.21434243 0.35284296 -0.47413695 -0.21828814 0.57850313 -0.61588615 -0.19385807 0.0068121464 0.55784917 -0.37156075 0.21421254 0.47968227 -0.14777061 0.45351958 -0.099172726 -0.47367826 -0.8541305 0.33366874 -0.8495826 0.36676556 -0.38231537 -0.973637 0.4634873 -0.3712185 0.07745637 0.06058862 0.82388747 0.7528843 0.002662176 -0.11202885 0.0798588 0.210469 -0.40199625 -0.35899878 0.14477475 -0.08133711 0.087606974 0.25701624 -0.53229755 -0.22414127
5108:WOLF_CREEK 0.37778252 -0.032024458 -0.29881132 0.57421714 0.42963272 -0.12386793 0.4568873 0.20550372 0.21125473 0.10261931 -0.18686163 -0.67326593 -0.060366273 0.0752639 0.86500984 0.1652694 0.4943556 -0.25187474 -0.34151167 -0.22992475 0.26962185 0.4063817 -0.40350446 0.6760773 -0.10124464 0.2776522 0.33966678 -0.71594226 -0.3018548 -0.019009054 0.23114827 -0.12828004 0.5315342 0.054358236 -0.44888207 -0.13963753 0.6820882 -0.6459437 0.5680587 -0.12961227 -0.21122852 -0.86561894 0.3168958 0.054955658 -0.11208762 -0.1507514 -0.6961914 -0.27201974 -0.519524 -0.3450609 0.15617654 -0.2213585 0.17723343 -0.64646494 -0.043756865 -0.4702488 0.20181584 -0.5832702 -0.28536373 0.16548723 -0.23497763 0.123169884 0.06452354 -0.011128135 0.26489493 0.19742663 -0.49104598 -0.25853547 0.24817312 -0.06754983 -0.21951567 0.4156471 -0.61936814 -0.15957116 0.02247579 0.37713727 0.53362685 -0.1969276 0.2830428 -0.077638164 -0.20332626 0.5965855 -0.49120033 -0.5215524 -0.25750443 -0.3384014 0.6471429 0.26135078 0.28466538 0.42423442 -0.11580122 -0.5170838 0.6091215 -0.67906064 -0.41153947 0.25391382 0.43524638 -0.35410693 0.23483732 0.42895746 -0.07644483 0.5785628 -0.19262972 -0.5102757 -0.6586884 0.35058144 -0.8830591 0.27135706 -0.25726187 -0.9618102 0.31274897 -0.31690592 -0.069774464 0.016504563 0.8314919 0.8339428 -0.099558465 -0.1359172 0.10347157 0.3396007 -0.3656172 -0.4844182 0.14559491 -0.043828815 -0.08390188 0.014741042 -0.39559847 -0.1723691
8220:MAY_AVE 0.16671088 -0.20420341 -0.36329085 0.38395843 0.57683086 -0.46003923 0.63588256 0.23982349 -0.7485695 0.5275493 0.76128244 -0.120892346 -0.021194072 0.84034765 0.3077409 1.0502127 -0.06493026 0.37124982 -0.50908154 -0.24640353 0.719358 0.51527447 -0.07636251 -0.29505733 -0.7479018 -0.121793635 -0.8365317 -0.38785926 -0.42485964 0.15030737 -0.10562239 0.24083589 0.78594774 -0.18854655 -0.44322795 -0.20779517 0.8940433 -0.14805534 0.02518384 0.30903393 -0.22019361 -0.4312115 0.39221764 -0.26449472 -0.0043106847 0.11695673 -0.41647536 0.058820393 -0.4383539 0.66057456 0.13453713 -0.4608911 -0.070103765 -0.13263218 0.19491176 -0.6358115 1.0616038 -0.47662175 -0.8724384 0.73367035 -0.96448207 0.32352954 0.15464854 -0.06409354 -0.12840238 0.1741461 -0.08214356 0.13747956 0.035526097 0.05440509 0.13969332 -0.29191172 -0.5022384 -0.5254193 0.2457915 -0.15928172 -0.06714103 0.09882955 0.30894244 0.04102957 0.12240119 -0.1335816 0.10145862 -0.0015705071 0.25778377 0.42471644 -0.015739674 0.10056437 0.0521564 0.1451844 -0.8253575 0.31252715 0.25854263 -0.3345017 0.027120702 0.14014754 0.21642904 -0.2621147 -0.16405392 -0.0442157 -0.17058145 -0.04383294 -0.3470115 -0.21489172 -0.30756858 0.11728615 -0.07338882 0.5337811 0.074153304 0.03603839 0.4744086 -0.13921392 -0.042962663 -0.06700105 0.023253253 -0.013149346 0.09340228 -0.21465665 -0.013969334 -0.11480525 -0.091148175 -0.46929297 -0.28967217 0.013784097 -0.25578487 -0.04529716 -0.257721 0.022692868
8361:WESTERN_AVE -0.083715335 -0.10984764 -0.41471255 0.62335294 0.6598862 -0.27333063 0.6089401 0.21865413 -0.5188371 0.38484657 0.57270455 -0.1332509 -0.01684627 0.81567407 0.23275793 0.9917478 -0.2804715 0.58120686 -0.25035986 -0.44293517 0.41717812 0.016686048 0.0047601284 -0.4971676 -0.82663524 -0.15682194 -0.9082661 -0.2537051 -0.24417691 0.38618115 0.23906928 0.2717957 0.29589033 -0.099099144 -0.1869376 -0.048963666 0.5690047 0.034079544 -0.33168352 -0.038480442 -0.4800071 0.016276974 0.053040273 -0.12071923 0.27139482 0.23716956 0.10385428 -0.046022896 -0.71140707 0.4666691 -0.0721273 -0.3895333 -0.008193498 -0.053446874 0.43757463 -0.89281416 0.8902822 -0.3199451 -0.60693955 0.48597515 -0.3694366 0.46420702 0.2059216 -0.25963455 0.13792376 0.22019973 -0.49702835 -0.39064372 0.19044788 0.17653525 0.13857237 -0.2770585 -0.075204685 -0.16975531 0.08531131 -0.04238788 0.44112775 0.115556374 0.34081703 0.20425613 0.07811284 -0.09541853 0.28842416 0.3561538 0.3005304 0.21031429 -0.34858188 0.22752647 0.26983956 -0.36042556 -0.8106515 0.493681 0.056569297 -0.061630134 0.3348843 0.2755481 0.6787605 -0.27261257 -0.20158012 -0.27582052 -0.10249081 0.31579876 -0.5895813 -0.42422515 -0.7679939 0.09706657 -0.36817795 0.4860784 0.6394457 -0.16570997 0.12805967 -0.43689588 0.33677852 -0.052652642 0.40210116 0.37697503 0.3203603 -0.69224125 -0.80349076 -0.014380241 0.10954822 -0.32818294 -0.22954768 0.32419893 -0.50068986 0.054145046 -0.06743217 0.32693654
8221:MERIDIAN -0.28938767 0.1221838 -0.21593088 -0.10506711 0.50022304 -0.5546434 0.5379403 0.10750789 -0.8247132 0.83535117 0.4932988 -0.10719449 -0.47686946 0.63579136 0.51699954 0.6674101 -0.55430365 -0.12516795 -0.4982952 -0.37358183 0.13941163 0.0035040362 0.3550296 -0.32836643 -0.46982065 0.27789325 -0.65039426 -0.27650723 -0.35906884 0.3559185 -0.14175384 0.11560419 0.7583066 -0.1375726 -0.14869723 -0.27673006 0.9721164 -0.74772394 0.09634044 0.34382164 -0.10366186 -0.5965639 0.4745527 -0.38547042 -0.3988097 0.13510899 -0.38653842 0.39478195 -0.64571583 -0.09600864 0.11335469 -0.10210504 -0.3872282 -0.11694915 0.15072834 -0.3169043 0.91440964 0.1332499 -0.16439487 0.6588279 -0.9810308 0.39881027 -0.09204601 -0.22375171 -0.22299376 0.16401356 0.024150996 -0.0160841 0.21174951 0.16463718 0.086563595 -0.24419236 -0.18574527 -0.8236645 0.41511142 -0.33292508 -0.412631 -0.014304774 0.36271742 -0.28011295 0.24193367 0.28374392 0.3741592 0.0862606 0.75397104 -0.2500703 0.12645815 0.19355312 -0.38678205 -0.18474667 -0.8757678 1.0620233 -0.04012067 0.13865098 0.06932223 -0.50453645 0.21208821 0.18577987 -0.39912435 0.41752616 -0.1651172 -0.34182468 -0.19637297 -0.88157123 -0.24067038 -0.047514584 -0.32766846 0.25047353 0.91996056 -0.6645472 0.47014228 -0.7090566 0.1099595 -0.21307313 0.52065474 0.28649086 -0.008195835 -0.09939897 -0.040903434 0.007508925 -0.34859955 -0.65369856 -0.30938384 0.118145965 -0.13091972 0.35072348 -0.71377635 0.0806593
8474:STONEWALL -0.23782836 -0.10090292 -0.53930783 0.1768546 0.6449867 -0.3421113 0.66283995 0.104011655 -0.043979093 0.23938078 0.43619162 -0.3501378 -0.2534087 0.8096226 -0.20262028 0.23513494 -0.20456876 0.32315594 -0.50960267 -0.05271027 0.9815506 0.031099688 -0.30707464 -0.061813366 -0.85013807 -0.5614271 -0.6439674 -0.46566546 -0.6148462 0.1789304 0.11580252 0.21588156 -0.27436697 0.26502052 0.004327337 -0.47962764 0.551238 -0.48707926 -0.19779278 -0.30276555 0.19034396 -0.3806573 0.2683533 0.64495087 -0.281547 -0.54143757 0.026102364 0.20858906 -1.1741797 0.68859774 0.4764825 -0.5567493 -0.34430733 -0.026186062 0.18173477 -1.0055295 1.0407668 -0.5794592 -0.4919342 0.5469876 -0.9332083 0.40452087 0.6615845 -0.32890958 0.043998156 0.20793726 -0.52835554 -0.28420088 0.3050093 0.0108330995 -0.1330359 -0.020003928 0.31215173 -0.45030752 0.08488893 -0.020759178 0.5456414 0.21458125 0.58627385 0.64005715 0.13533337 0.30833426 0.27492306 0.24241306 0.41954282 0.3519036 0.4693617 0.36824143 0.55607086 0.22923084 -1.526311 0.14239244 0.7247598 -0.4433809 -0.029360322 0.032386307 0.7675289 -0.64533037 0.39467663 0.45125076 0.08267567 0.31440163 -0.5592626 -0.80142236 -0.8816672 -0.24243864 -0.4967369 0.47102454 0.10662567 -0.42909086 0.28356326 -0.22096767 0.15470457 0.15178959 -0.036607288 0.38190722 0.15165345 -0.43663985 0.010446082 -0.13074741 -0.16603488 -0.40452576 -0.46043438 0.35727566 -0.0097695235 0.094601184 0.43940952 0.13192222
5105:ARDMORE 0.35464713 -0.04377597 -0.30975127 0.59823424 0.48206586 -0.33077276 0.46704403 0.077924 0.019098762 0.34875205 0.11328193 -0.7681097 -0.11949263 0.086844094 0.9352029 0.44258964 0.106386505 -0.2310567 -0.55656064 -0.06337959 0.4783556 0.43786392 -0.33997208 0.54569924 -0.16321339 0.26499593 0.16133444 -0.6339138 -0.27056152 0.1241703 0.19757794 -0.029366141 0.6748574 0.016947152 -0.4991838 -0.3206795 0.8435406 -0.47168422 0.39201385 -0.046259493 -0.07825555 -0.83268845 0.50256616 0.08012823 -0.010263152 -0.20359722 -0.4987272 -0.22483908 -0.62885773 -0.2936039 0.050349187 -0.15819778 0.23818345 -0.5269914 0.07109309 -0.4429869 0.16547096 -0.7391927 -0.40729803 0.570395 -0.17250437 0.0023452486 -0.052216437 0.05276918 0.13288784 0.11815937 -0.62486655 -0.08787134 0.23150527 -0.1043177 -0.14666072 0.2860087 -0.44960713 -0.26598978 0.08122154 0.10052088 0.57328707 -0.029665468 0.30555403 -0.21986207 -0.24720345 0.6449748 -0.2965625 -0.4139157 -0.037181996 -0.19951865 0.5651246 0.19861007 0.14475289 0.26805764 -0.5624599 -0.02054581 0.5124544 -0.6864904 -0.1327648 -0.043393895 0.5297278 -0.4631295 0.20770057 0.4326078 -0.19433446 0.44633123 -0.15314281 -0.31422976 -0.6927902 0.25419614 -0.6980633 0.2911773 -0.36697322 -0.915921 0.4557087 -0.2781933 0.018932637 0.058990125 0.8580494 0.7767938 -0.050648265 -0.13732108 0.13295536 0.24240267 -0.47043476 -0.46890777 0.030216018 -0.05656086 -0.07871349 0.120779924 -0.34983382 -0.104600385
