3109:HONOR_HEIGHTS,0.4294651,0.28605756,0.10005159,0.23270595,-0.07404101,-0.067283906,-0.38628945,0.49776876,-0.1530239,0.24417749,-0.16216032,0.12191704,0.1961553,-0.14563592,-0.19907558,-0.18406767,-0.0824978,0.16428366,-0.21391083,-0.045183968,-0.12041871,0.15676647,-0.15921661,-0.18509114,0.027594943,-0.011883891,-0.17953363,-0.00034957466,-0.15418561,-0.07456019,-0.3030763,0.29045647,-0.25542304,-0.19394371,-0.1798384,-0.7423452,-0.1712522,-0.21713454,-0.20654202,-0.0657901,0.4107566,0.004484434,-0.3166225,0.64111257,-0.3359715,-0.19518216,0.47109014,-0.05218257,0.1068474,0.0437053,0.21399258,0.3651725,0.33545777,0.0036241564,0.23629636,0.19562602,0.40516445,0.38354447,0.03343501,0.48992315,0.06105545,0.19391938,0.24218981,0.081246905,-0.18360525,-0.2525782,-0.0062270523,-0.22041848,0.083080195,0.39965972,-0.0293736,0.23364724,-0.153326,-0.22451018,-0.6227981,-0.77239287,0.35958496,-0.59114,0.15340377,0.014548506,0.36633477,0.5168076,-0.18447801,0.103468046,0.15634273,0.24385639,0.16589288,0.2842109,-0.10518365,0.069636226,0.014869686,-0.056473427,-0.048933048,0.11401729,-0.37067172,0.027797427,0.18750884,0.1505927,-0.05988512,-0.06337726,0.22510982,0.10149242,-0.021508858,0.006785288,0.33202454,0.02122013,0.31365305,0.1264124,0.37532648,0.07579088,-0.08286478,0.03512205,-0.2707644,0.2780881,-0.17008314,0.4163224,-0.20462357,-0.17275928,0.015596995,0.08675239,-0.22426474,0.2828713,0.19275977,-0.262336,0.116096795,0.2096805,-0.25149295,-0.09014018
3110:RIVERSIDE,0.24725327,0.43496987,0.34606388,0.0041972273,0.0961611,-0.023205956,-0.3815487,0.34287792,-0.21556157,0.24868712,-0.17812192,0.38256156,0.16019748,-0.059791658,-0.33364284,0.04090429,-0.0892146,0.26120627,-0.25176913,-0.21635535,-0.21912158,0.16426554,0.039160103,-0.25261328,0.113522984,-0.05440952,-0.22180054,-0.090124846,0.018697932,-0.16961543,0.044777352,0.32953444,-0.3050464,-0.4545313,-0.012083405,-0.5330441,0.02541516,-0.156006,-0.042847168,-0.06876849,0.44494575,0.031628124,-0.47223234,0.7623823,-0.39486778,0.01590486,0.46373388,-0.10766481,-0.01591865,-0.16169804,0.13317166,0.4253643,0.11826947,0.102059595,0.3426285,-0.014935334,0.53052014,0.31293932,-0.027045567,0.28945646,0.093548335,0.31793505,0.2311963,0.34535527,-0.051718622,-0.27984354,-0.06574105,0.008400886,0.07975048,0.34534585,-0.24278972,0.357684,-0.22879188,-0.004599575,-0.39081812,-0.5599128,0.12363602,-0.28241354,0.036577888,0.18791464,0.23568383,0.35386464,0.029108062,0.27197185,0.3749576,0.062772065,0.27256924,0.25458705,-0.23534535,0.13884234,-0.31040472,0.06583478,-0.027993308,0.041605458,-0.36373538,0.09661856,0.10247862,0.17105469,-0.11080747,0.10841742,0.28052527,-0.049327694,-0.094391234,-0.1317147,0.2754893,-0.007845261,0.3377389,0.2684073,0.31097558,0.14208105,0.038314614,-0.27900755,-0.27912286,0.026461523,-0.042001873,0.46517047,-0.059157893,-0.24703602,0.1141746,0.4030189,-0.26360837,0.4560691,0.087435015,-0.3514859,0.015478678,0.16387387,-0.43213993,0.122044
3111:FIVE_TRIBES,0.32992727,0.20609191,0.15860398,0.12511635,0.09195737,0.2294086,-0.34240472,0.29490694,-0.1673178,0.35322344,-0.1594293,0.21813326,0.21601337,-0.24319473,-0.17099953,0.11320613,0.014833945,0.10873408,-0.15939747,-0.16810071,-0.21705288,0.20379926,-0.12859353,-0.17913894,0.2629065,0.035616457,-0.19314338,-0.11810541,0.008637729,-0.15736474,-0.14837131,0.38900352,-0.06472912,-0.059258845,-0.220719,-0.61149156,-0.0028107262,-0.12305809,-0.15551506,-0.017136376,0.4018828,0.07132167,-0.4388932,0.5641556,-0.5697158,-0.27473524,0.40897182,-0.08327951,-0.13305806,-0.02682525,0.25373113,0.4256434,0.17045543,-0.17029555,0.27530652,0.22905958,0.54672015,0.43186018,0.13992101,0.0670983,0.047413822,0.38331795,0.28901368,0.19015396,-0.11687019,-0.13970527,0.16725418,-0.17264041,0.13621834,0.28365135,-0.015317086,0.39539814,-0.3042879,-0.12144303,-0.5513254,-0.5243202,0.34081444,-0.3049094,0.01861248,0.1571168,0.34574974,0.17632934,0.07454353,0.2094336,0.15497942,0.3182358,0.091771424,0.38563752,-0.10229026,0.16303796,-0.11438625,-0.07100858,-0.06218007,0.015792698,-0.32188457,-0.029105367,0.4235258,-0.00041165593,-0.09153958,0.10205055,0.22692741,0.00018639598,-0.15860891,0.13157661,0.34395924,0.16382287,0.23185635,0.12334174,0.12430053,0.3003907,-0.10505781,0.1459732,-0.3987466,0.0750639,0.0120660765,0.36950392,0.04185883,-0.16578546,0.050511274,0.32327002,-0.36816397,0.31793106,0.118754216,-0.31174314,0.103648536,0.2659915,-0.23771226,-0.05100466
3114:TENNYSON,0.12379476,0.27308849,0.08718965,0.11405816,-0.078200996,-0.13609213,-0.39458525,0.25748533,-0.11968783,0.24259312,0.00408686,0.3189043,0.011847598,-0.15808308,-0.20892276,-0.10674333,0.06648775,0.2752842,0.022063207,0.072813764,-0.17536199,0.21956767,-0.11005225,-0.2733274,-0.14868891,-0.07695863,-0.16871795,0.10055548,-0.16294351,-0.09740256,0.021725236,0.26205075,-0.22191495,-0.09219421,0.006455256,-0.60918856,-0.15498342,-0.19623464,-0.1653634,-0.005896484,0.35892716,0.06960178,-0.47158235,0.6374131,-0.22168054,-0.05405528,0.37735152,-0.09657971,0.06953219,-0.0061424556,0.28143668,0.48124078,0.26826483,0.15345143,0.22387846,0.25160822,0.3241476,0.39157766,-0.052698873,0.41172478,0.13097958,0.29493013,0.3222533,0.096824326,-0.088982955,-0.33521947,-0.069355346,-0.094081186,0.22156061,0.41185522,-0.15593788,0.34434682,-0.05675187,-0.18677768,-0.57558453,-0.6787609,0.31217894,-0.37979767,0.16166064,-0.033043906,0.43451273,0.42610964,-0.08203813,0.27068397,0.12683061,0.29710492,0.17024522,0.32020772,-0.27331066,0.16900426,-0.20486687,0.1030648,-0.11287828,0.1271652,-0.36604044,0.032878034,0.36557734,-0.020759473,-0.055397887,0.09732126,0.090278134,-0.14813475,-0.19212696,0.15262124,0.21014494,-0.013576951,0.25323907,0.09670956,0.25701228,-0.021303682,0.06010166,-0.14843026,-0.31426623,0.25881845,-0.17030428,0.50248855,-0.09541609,-0.53641635,0.16391882,0.29422426,-0.3015103,0.41464904,0.33494663,-0.4796207,0.088656545,0.09331291,-0.23220927,-0.1851985
3117:THREE_RIVERS,0.22495571,0.19061032,0.2931937,-0.05386452,0.09465465,0.005664849,-0.48288292,0.22055341,-0.2228633,0.19401923,-0.008153897,-0.005487839,-0.06814532,-0.0721779,0.038599323,-0.121293314,0.07497115,0.0524088,-0.06632502,0.035127323,0.020258078,0.13136318,-0.038522463,-0.034797247,0.01921145,0.02169427,-0.21989131,0.02813705,-0.04002668,0.02037771,-0.102544814,0.22746606,-0.026979927,-0.19699436,-0.018577887,-0.27081168,-0.048758596,-0.17294231,-0.099951245,-0.057459433,0.44913614,-0.07726064,-0.25750032,0.3441107,-0.2656926,-0.057445537,0.21667543,-0.13799985,-0.02221537,0.024392003,0.23798586,0.3969159,0.19173405,0.01723863,0.07711097,0.043681186,0.33572367,0.10839052,0.056611884,0.16094565,0.09652519,0.18599506,-0.008006437,0.093265496,-0.15390371,0.06631731,-0.001622375,0.051292412,-0.055168327,0.16080879,0.12608662,0.30401772,-0.20656724,-0.21177863,-0.36242783,-0.33520818,0.3191615,-0.30785328,0.12913781,0.10276763,0.3581693,0.21889599,0.1623815,0.20385464,0.0023237444,-0.01841512,0.18067904,0.14292786,-0.20222872,0.29143834,-0.1595334,-0.132073,-0.044393346,0.1081207,-0.33319524,-0.023562027,0.0046291817,0.036642153,0.04488204,-0.02133749,0.13232957,-0.04710724,-0.15204985,-0.04176029,0.09091775,-0.059434973,0.04287505,0.19229388,-0.0049416316,0.131176,-0.039459284,-0.006782508,-0.18617843,0.09139873,-0.16531527,0.11166549,0.066986464,-0.08796506,-0.015117209,0.27677882,-0.12542744,0.11108697,0.102398,-0.018013472,0.028453493,-0.064298265,-0.20420325,-0.02147186
3128:HANCOCK,0.4558847,0.39501506,0.12692897,0.0737109,-0.024507085,-0.11944273,-0.32598302,0.22782177,-0.0643133,0.35892442,-0.13812377,0.2884455,0.11204243,-0.17120634,-0.20659593,-0.20930889,-0.105172254,0.35227507,-0.1803241,-0.13979112,-0.1748507,0.22830135,-0.17653677,-0.2147699,0.09175515,0.07703273,-0.090479076,0.12971209,0.06883678,-0.17593339,-0.22192353,0.35568383,-0.28565016,-0.12897088,-0.2554447,-0.8404519,-0.24791794,-0.13137792,-0.053332165,0.028318465,0.43286067,0.038294103,-0.42863664,0.58479035,-0.49972597,-0.16208312,0.3186134,-0.15721384,0.03133965,-0.041721184,0.2611147,0.4836346,0.37676105,0.111065954,0.43939146,0.2649109,0.52196777,0.4841073,0.07084853,0.24713235,0.04963052,0.35590097,0.25575006,0.07645541,-0.020360066,-0.30051568,0.008894884,-0.1644983,-0.018251535,0.43345043,0.05214779,0.4071195,-0.16271518,-0.041337766,-0.4939933,-0.5259398,0.29227456,-0.506571,0.06438136,0.25266147,0.39211997,0.39609766,-0.26499754,0.081506446,0.18177804,0.3136842,0.39991012,0.08722636,-0.29659402,0.1657589,-0.15086263,-0.09681149,-0.19254752,0.13528591,-0.2786189,0.080035895,0.25988558,0.1410042,-0.14713025,0.21969074,0.012582735,-0.02348666,-0.07128244,0.13943614,0.37996435,0.1094915,0.43370792,-0.043289542,0.18806432,0.099162854,0.042268515,0.11845587,-0.2223435,0.23092796,-0.07257887,0.44500554,-0.14422442,-0.31617188,0.052590225,0.33752146,-0.16002268,0.6378077,0.2049065,-0.44747153,-0.049708337,0.099135704,-0.19781671,-0.16984947
3136:EUCLID,0.29370093,-0.008059704,0.051043246,0.10347079,0.084756516,0.000102196616,-0.45229033,0.29465166,-0.08696426,0.027165541,0.0070966156,-0.037682354,-0.2679832,-0.13186662,-0.2614208,-0.5879353,0.062473573,0.4684675,-0.45265898,-0.094559014,-0.11420787,0.16137661,0.3070291,-0.09969208,0.39677632,0.26624367,0.027428944,-0.26231322,0.023999372,-0.09281284,-0.10076251,0.5692068,-0.3862294,0.075291075,-0.4060784,-0.72893643,-0.023146415,-0.09528853,-0.22221339,-0.36404014,0.5095659,-0.052491844,-0.18612659,0.39428386,-0.32362115,-0.22082874,0.26279333,-0.36175627,0.0147098005,-0.316538,0.2329382,0.36698648,-0.36452407,-0.011043755,-0.19326101,0.47133514,0.23152806,0.25487396,0.27645645,0.10287795,0.4414815,0.037803542,-0.05925316,0.10627731,-0.30444574,-0.11739415,0.017655304,0.053089056,-0.2450354,0.3912103,-0.1445508,0.23881899,-0.12765288,-0.10649776,-0.5049171,-0.71301055,0.2894605,-0.4349223,0.303678,0.2228696,0.2503915,0.5459853,0.10510816,0.17281768,0.13194603,0.7152898,0.0023233118,0.34090418,-0.34544986,0.26927596,-0.17891784,-0.006208968,0.06778497,0.016680595,-0.5325641,0.049429543,0.34952453,0.32334843,-0.15081905,0.27490607,0.22610089,-0.047009297,0.13414308,0.1557161,0.19282916,0.26255605,0.053089797,0.28692135,-0.037036,0.12334513,0.1078142,-0.038578067,-0.25156376,0.27963698,-0.2790943,0.23946962,0.05484904,-0.51794326,-0.006642908,0.42183018,-0.32108188,0.5494734,0.54228926,-0.52367586,0.119873494,-0.021467889,-0.28811073,-0.29341596
3137:AGENCY,0.27888682,0.22880167,0.28650534,0.05631637,0.09836886,-0.0024580264,-0.26107422,0.25851557,-0.15859787,0.23483145,-0.01162264,-0.108471125,0.11530809,-0.14963661,0.08936968,-0.16890833,-0.004228799,0.24929841,-0.14765787,0.21399772,-0.021856183,0.06348031,-0.26552778,-0.1270867,0.052496817,-0.0964074,-0.113086745,0.059456777,0.019092549,0.0575884,-0.07397985,0.17177032,-0.28590527,-0.20059341,-0.22071284,-0.6527674,-0.1285601,-0.2026513,-0.0021974314,-0.10897122,0.43825698,-0.036165886,-0.47776267,0.57944053,-0.29951566,-0.15656148,0.24384145,-0.27098697,0.16628233,-0.13183802,0.19244911,0.32170218,0.3509368,-0.06811223,0.18617693,0.21253109,0.31448042,0.37538016,0.003624321,0.38346413,0.004038809,0.17560162,0.22127122,0.15585427,-0.13135171,-0.21942282,0.080816105,-0.08774937,0.084985934,0.30156526,0.055124063,0.2890897,-0.15490255,-0.073333465,-0.5687486,-0.76277703,0.25957757,-0.24984139,0.10254345,0.19393381,0.19294071,0.41852498,-0.17165387,0.26528898,0.074587815,0.26527053,0.07348422,0.14454716,-0.28527543,0.18389487,-0.17430525,-0.057257798,-0.05023546,0.08945505,-0.26600114,-0.051138666,0.1332394,0.06201671,-0.066760086,0.16779557,-0.018140336,-0.11653827,-0.10275475,0.041554224,0.25418276,0.21710631,0.40425152,0.15480876,0.50530064,-0.01527197,-0.020862091,0.10371748,-0.24397556,0.36489367,-0.09877927,0.3877218,-0.15615702,-0.1837452,0.014407899,0.2920336,-0.39120722,0.6100886,0.012917931,-0.44007978,-0.030237975,0.36681026,-0.19328104,-0.22121003
3205:SAPULPA,-0.7900994,0.45137015,0.28834957,-0.9313484,0.3171966,-0.052431334,0.06779938,0.3813036,-0.13935895,0.65639204,0.21910957,-0.6990004,-0.49257198,-0.34807408,0.04267903,0.04245457,0.6321197,-0.15920286,0.08037712,0.56624204,-0.19515872,-0.116292894,0.124305055,-0.4595179,-0.52173394,0.04682725,0.19667287,0.3078131,-0.5651835,0.51046354,0.02738876,-0.48807818,0.00790279,-0.60596484,0.047110777,-0.3332711,0.18382229,-0.4197748,-0.38891122,-0.2767228,0.58892375,0.43253165,-0.13538618,-0.38764235,-0.06590864,0.099763416,-0.19970156,-0.42250687,-0.7556267,-0.52409303,0.5851857,0.68754566,-0.17262708,0.0559292,-0.41331923,-0.4348868,0.57006884,0.30081567,0.30310944,0.5231759,-0.32889512,-0.19414258,0.44518384,-0.31063363,-0.41891438,0.46821412,0.14206783,-0.5729253,-0.10399699,0.2475075,-0.08952679,-0.0046387003,-0.39641488,0.3660909,-0.050277937,-0.004515307,-0.49265215,-0.6360937,-0.50787115,-0.5015853,-0.26216388,0.04581473,0.3819425,-0.18408528,-0.03759309,-0.47848234,0.009732781,0.7441407,-0.4695682,-0.10327931,-0.32519755,-0.39657444,0.068855226,-0.37795904,-0.48724186,-0.06974918,-0.27554902,0.37041607,-0.23436369,0.28044996,0.48612007,0.051244654,-0.37418193,-0.10784158,0.5083394,-0.041646548,-0.21970993,-0.08377505,-0.12589104,0.06948397,0.15958413,-0.047914036,-0.23925753,0.16671358,-0.3160435,0.41904953,0.20558698,0.12192119,-0.055506125,0.21054773,-0.20170166,-0.31995732,0.26356342,0.38865966,0.3167275,-0.07724678,0.46727863,0.19881786
3207:HILL_TOP,-0.24267958,0.6204608,-0.06299399,-0.63001865,0.22567147,-0.12301351,0.12667991,0.41017205,-0.007487779,0.34672907,-0.12250027,-0.46822208,-0.16794649,-0.16833639,-0.15827961,0.11558779,0.07717565,-0.059311595,0.44413006,0.39584693,-0.16133085,-0.08389395,-0.05468424,-0.3589296,-0.49798635,-0.03351145,0.04824179,0.03011749,-0.3689514,0.2057696,-0.08665401,-0.45637324,0.21587497,-0.48917595,0.13948831,-0.35151705,-0.06400931,-0.37572256,-0.25869533,-0.05243233,-0.004476981,0.22725473,0.11780848,0.02546532,0.041345082,0.16724172,0.07993173,-0.12294746,-0.43510294,-0.44375873,0.4459062,0.29432887,0.13734125,0.1450974,0.12494139,-0.45042986,0.3287662,0.30490723,0.35221392,-0.07291803,-0.0044469587,-0.14574726,0.23136127,-0.08066269,-0.1359748,0.54007894,-0.06772864,-0.24876371,-0.19022322,0.13238317,0.24710755,-0.12010343,0.01233383,-0.13070591,0.09071446,-0.17640555,-0.08752744,-0.5311798,-0.20399687,-0.26408705,0.09409108,-0.21078122,-0.07837877,-0.36417863,0.1561125,-0.25641912,0.09709445,0.43765363,-0.16769928,0.15599681,-0.31552994,-0.38492906,-0.13672937,-0.3705945,-0.18042527,0.28957754,0.19864705,0.07598732,-0.13732791,-0.06697361,0.5518888,0.04706114,-0.09013896,-0.1760906,0.17894979,-0.01852312,0.022935268,-0.15078251,0.027744047,0.098682165,-0.18137185,0.10099105,0.081045024,0.23332573,0.05789001,0.4477493,0.15135388,0.09759003,-0.29516563,0.37323484,-0.07572739,-0.23396894,-0.03705713,0.13959765,-0.15390149,-0.35352582,0.21808293,0.06654773
3208:TIBBENS_ROAD,-0.41465312,0.5164274,0.4112122,-0.6653984,0.1446141,0.3186831,0.05194189,0.22760883,-0.03997027,0.48023468,0.17766753,-0.4976385,-0.34798023,-0.3436473,-0.19423193,-0.12688294,0.29825994,0.047156848,0.35093668,0.44268575,-0.15977935,-0.04436478,-0.05270386,-0.5417493,-0.3384164,0.043860845,0.2965894,0.15082389,-0.47855166,0.1958841,-0.04267373,-0.45364115,0.10980581,-0.39881527,0.09543,-0.20901176,0.014295798,-0.3881796,-0.1453312,-0.13222563,0.326342,0.2823011,0.09707556,-0.39350882,-0.015505636,0.10739783,-0.39507848,-0.29847014,-0.7090044,-0.39650616,0.54713595,0.4411754,0.023787122,0.40950403,-0.053117286,-0.23524755,0.30485275,0.24146087,0.27372488,0.17882188,-0.19317707,-0.20859171,0.41692978,-0.08017653,-0.048366092,0.41492513,-0.051109046,-0.33140305,-0.1510578,-0.034150016,0.07285744,-0.14100727,-0.16718157,0.10163008,0.027174283,-0.01958308,-0.35906592,-0.59751844,-0.20734781,-0.40819547,0.021333711,0.23815021,0.08958991,-0.14681736,-0.11994171,-0.5586463,0.17104697,0.62422603,-0.21981601,0.1467185,-0.27939677,-0.16522564,0.022516532,-0.35330227,-0.36746794,-0.051312108,-0.08952218,0.43578425,-0.18051194,-0.0627465,0.2943515,0.037173964,-0.3536915,-0.11517605,0.4168051,0.044610362,-0.07496621,-0.26059923,-0.030904515,-0.094331406,0.025456779,-0.036499817,0.107348986,0.27559936,-0.26253238,0.16361667,0.11793421,0.07309549,0.2311326,0.106794894,-0.024526715,-0.1996844,0.2844227,0.2497172,0.033747602,-0.29130647,0.2772027,0.108632706
3209:BIXBY,-0.050749354,0.17724338,0.06892285,-0.29436433,0.35523045,-0.09589189,-0.38540718,0.21376586,-0.14005731,0.19365296,-0.1965724,0.12196287,-0.34913066,-0.057004962,-0.056225903,-0.3011283,0.3284462,0.008376139,-0.106179856,0.22897154,-0.023210322,-0.14469661,0.067552134,0.10190995,-0.254241,-0.054085504,-0.17628674,0.06763757,-0.15457238,0.07617141,-0.12911491,0.0787703,0.08065234,-0.17844822,-0.0016989569,-0.18825021,0.117463015,-0.21814604,-0.13232592,-0.0053267987,0.2892538,-0.09226363,-0.2555944,0.19216603,-0.27699667,0.0018988936,0.14240533,-0.2013286,-0.19276972,-0.039166704,0.05582632,0.34112284,0.17243335,0.061028887,-0.05577824,0.03480473,0.08539468,0.13526222,0.046186488,0.17714676,-0.049135406,0.10944789,0.0750208,0.12567605,0.020082787,0.19176683,0.07380536,0.016453186,-0.045365423,0.13434708,0.10698272,0.044062503,-0.14637507,-0.13455735,-0.16186222,-0.09332528,0.13346094,-0.32173762,0.15560421,0.17935933,0.27981052,0.02011014,0.15676902,0.13180192,0.02593477,0.11405567,0.034192022,0.23397072,-0.17140011,0.13351193,-0.136833,-0.23528633,-0.19100085,-0.005097859,0.02746428,0.01927617,0.21906163,-0.062485244,-0.024191955,0.0037326452,-0.08492183,-0.070887536,-0.21328086,-0.011317156,0.16350883,-0.012602926,0.129924,-0.03407907,-0.19481736,0.21185929,0.19794193,0.019266613,0.017592443,-0.07832198,0.10886228,0.00017539007,-0.056140006,0.005170485,0.098237805,0.40212902,-0.1749928,-0.1629948,0.36063448,0.056080643,-0.01726446,-0.0067891087,-0.2533677,0.1624918
3210:HICKORY_HILL,-0.678438,0.46423987,0.26260453,-0.9598775,0.2797689,-0.10803392,0.07160064,0.5286898,-0.24620692,0.7883839,0.13958004,-0.85095096,-0.45925847,-0.50857973,0.07284163,0.15440603,0.6342318,-0.12887593,0.20386994,0.57288736,-0.12694342,-0.10060728,0.20018063,-0.46915597,-0.5710805,-0.07406997,0.24236843,0.14146213,-0.4176374,0.5413072,-0.07780095,-0.38022128,0.062248405,-0.58347696,-0.09846074,-0.1950248,0.2188811,-0.44171083,-0.26823726,-0.41238856,0.513973,0.41511068,-0.015406767,-0.2718699,-0.119963735,0.08001963,-0.23364581,-0.40840718,-0.94309133,-0.5861315,0.7864143,0.53800744,-0.29919437,0.035793025,-0.42258886,-0.5715253,0.4854268,0.3958295,0.37179804,0.4022059,-0.26140758,-0.064485714,0.4627029,-0.32517087,-0.44728324,0.52459484,0.103772804,-0.3881866,-0.2886116,0.29227704,-0.02596632,0.13219814,-0.40630054,0.33303922,-0.07706117,-0.02647612,-0.3956081,-0.69428843,-0.33756977,-0.5211697,-0.19211832,0.041082554,0.33946934,-0.07408394,0.06726303,-0.3842951,0.21517408,0.9033337,-0.30547306,-0.09015436,-0.45782644,-0.39759374,0.06216643,-0.39378777,-0.46017325,-0.034776762,-0.348959,0.36548212,-0.045997176,0.33106634,0.5224241,0.054022,-0.38708752,-0.13978416,0.6244404,-0.044104967,-0.23877972,0.20061071,-0.03834839,0.04331264,-0.11100603,0.04869221,-0.36409616,0.34137866,-0.24319564,0.43721512,0.38780347,0.13855965,-0.16026421,0.14831878,-0.26646525,-0.30259663,0.22673449,0.30942735,0.3427652,-0.1958317,0.49168625,0.2300618
3213:BOWDEN,-0.58560944,0.3363864,0.32374415,-0.68272585,0.4344545,-0.21480581,0.015710082,0.41579512,-0.05293594,0.518725,0.08336493,-0.7344215,-0.33425754,-0.48249942,-0.02538945,0.16904612,0.7194168,-0.1654056,0.20345554,0.43705875,-0.43744177,-0.012938987,-0.038049255,-0.6988013,-0.57547766,-0.03970973,0.25253305,0.38146323,-0.41775513,0.6267162,-0.11882924,-0.16083315,-0.03672898,-0.74270695,0.059710138,-0.14901088,0.1471523,-0.36049923,-0.49994367,-0.3482807,0.70088136,0.27244595,0.07216145,-0.25611663,-0.116377816,0.012862925,-0.28061044,-0.5326667,-0.750075,-0.4891281,0.6883221,0.6576915,0.14501114,-0.13592733,-0.2621476,-0.46383652,0.5709187,0.3921914,0.32421347,0.40018523,-0.22571664,-0.09841706,0.59159315,-0.24385363,-0.3867857,0.7072556,0.1902755,-0.61798894,-0.14600343,0.5731082,0.13163547,0.06230121,-0.5936948,0.35750183,0.12037344,-0.15579467,-0.4637873,-0.5845716,-0.48257604,-0.53549916,-0.32147744,0.10409216,0.34095314,-0.18505733,0.020437825,-0.50544226,0.051775355,1.044434,-0.47443005,0.019201439,-0.3048488,-0.5701837,0.16397557,-0.4596358,-0.6610885,-0.033126887,-0.45042548,0.13664,0.04217408,0.20629807,0.47902972,0.17793399,-0.434956,-0.10947062,0.61864495,0.045346748,-0.13465695,-0.09562149,-0.13335553,0.17737126,0.04147649,0.13226041,-0.08107439,0.17871368,-0.35948718,0.51351994,0.20862895,0.24874887,0.12751463,0.3590367,-0.076773554,-0.19850938,0.34121647,0.430509,0.24062541,-0.07430417,0.43358243,0.4966184
3214:LONE_STAR,-0.61297965,0.46603078,0.12542598,-0.9283972,0.3796878,-0.18170337,-0.08939931,0.40139654,-0.25263163,0.65423894,0.080376066,-0.7187974,-0.48145995,-0.39552927,-0.012788842,0.05163497,0.6508311,-0.1895431,0.31803566,0.39700544,-0.23434912,-0.20449208,0.09147927,-0.56611407,-0.42588288,0.07523808,0.16823208,0.20240209,-0.32543072,0.48815447,0.031876944,-0.3188249,0.06786777,-0.6643231,0.13384025,-0.3143863,0.2429591,-0.35947156,-0.40617886,-0.0962234,0.6075485,0.5515605,0.12575251,-0.30678988,0.0042531337,0.040338174,-0.28784293,-0.15535031,-0.9399174,-0.41791138,0.85629225,0.47720554,-0.14544617,0.11780943,-0.48358247,-0.48896706,0.52030593,0.5077281,0.40697536,0.44765422,-0.17745574,-0.056437816,0.5990659,-0.3761416,-0.3521837,0.58190864,0.06552369,-0.46089795,-0.17361099,0.4032965,0.07836375,0.008314014,-0.44458157,0.22381769,-0.01917244,-0.06365566,-0.5661881,-0.68278503,-0.45880815,-0.63166934,-0.18833607,0.25136334,0.31929937,-0.15283148,-0.031184066,-0.24917804,0.029676074,0.7768851,-0.36689988,-0.17624483,-0.34916762,-0.24915425,0.06666443,-0.3662586,-0.46629715,0.05744767,-0.23640962,0.31313208,-0.044467133,0.1473662,0.40042174,0.080364205,-0.4221274,-0.02837539,0.6176466,-0.027402434,-0.29555815,-0.04869349,-0.048645392,-0.037642777,-0.01539477,0.06216039,-0.32556143,0.24038763,-0.28513098,0.45889646,0.42374977,0.079664044,0.17832749,0.29197168,-0.24936122,-0.45652762,0.39074782,0.43859124,0.28357157,-0.28149086,0.2853757,0.39202222
3216:BEELINE,-0.06647784,0.3343458,0.24162641,-0.13627392,0.13408901,-0.020095363,-0.12355077,0.14489244,-0.25471115,0.11668644,0.07792623,-0.21220182,-0.18121417,-0.11740714,-0.103746176,-0.08424012,0.095870405,-0.12433661,0.25237843,0.2557148,-0.15436743,-0.008882897,-0.041866604,-0.33731094,-0.29824454,0.07181713,0.017192025,0.07572841,-0.31425068,-0.014062415,-0.28940907,0.064840764,-0.01850759,-0.15036413,0.12023781,-0.18445008,-0.019283852,-0.25832313,-0.21669957,-0.050776023,0.21032201,0.1508216,-0.04265645,0.08160992,0.006623472,0.16760309,0.04542521,-0.18839839,-0.22675115,0.015685854,0.35398048,0.2871409,0.13689363,0.20587842,0.0349932,-0.27621487,0.2680186,0.066872455,-0.050682615,0.103860304,0.04854821,-0.12999721,0.10583987,-0.053369716,0.038249616,0.29021508,-0.092029266,-0.008509216,0.071470894,0.046054326,0.25814697,-0.095502295,-0.0714282,-0.26630962,-0.105157934,-0.063510545,0.015286179,-0.48427865,-0.037915934,0.0652328,0.20030856,0.3343688,0.15321074,-0.003766984,-0.038995184,-0.30156302,0.04148094,0.37110075,-0.17465426,0.27052033,-0.14396818,-0.292426,-0.026925812,0.026349943,-0.14465798,0.04377217,0.13190581,0.15331265,-0.05429428,-0.19347346,0.045709852,0.1172764,-0.15196234,0.07976707,0.06848352,-0.029194511,-0.021048525,-0.18845922,-0.014378125,0.06917831,-0.022053,-0.07940624,-0.05218854,0.2016129,0.004229549,0.04749285,0.12115672,-0.00091631984,0.05910914,0.25078374,-0.06872638,-0.0859462,0.16092943,0.14525613,0.051779088,-0.28355455,-0.021685785,0.034748178
3218:BEGGS,-0.7349391,0.4595753,0.37539655,-0.63731414,0.35175374,0.188303,-0.32883438,0.43942305,-0.065647565,0.8164685,-0.14099133,-0.3887164,-0.39819616,-0.37267187,-0.09499724,-0.12576948,0.64769405,0.03957865,-0.031795777,0.35754806,-0.18235391,0.14448759,-0.048560135,-0.2984464,-0.37795755,-0.11882739,0.16321339,0.015342351,-0.50828516,0.5342884,-0.14391848,-0.39852312,-0.3112853,-0.5970298,-0.12647413,-0.64011806,0.031394705,-0.69525105,-0.4294761,-0.48920918,0.8913222,0.25625294,-0.42805535,0.17926721,-0.32494774,0.1593278,-0.08284583,-0.39819837,-1.1908044,-0.48556274,0.87539905,0.7771851,-0.15944064,-0.051725194,-0.4427162,-0.40450573,0.73672134,0.5127481,0.41251394,0.5600946,-0.78736204,-0.19296195,0.77027184,-0.17422004,-0.5829465,0.12285849,-0.10997549,-0.28211367,-0.33604038,0.5380531,-0.29920405,0.27645916,-0.6767528,0.853065,-0.41012585,-0.47258678,-0.7418101,-0.5934432,-0.49182484,-0.40522963,0.022689397,0.16227302,0.58509946,0.012578748,-0.033168092,-0.013742333,0.29614744,0.90893537,-0.26685885,-0.24240278,-0.35763615,-0.28865302,-0.10704277,-0.36699528,-0.6493085,-0.12403888,-0.3372549,0.51168996,-0.152106,0.41778317,0.39259318,0.12136824,-0.44928864,0.3658005,0.53887856,0.15502794,-0.127136,-0.20208417,-0.20735656,-0.13056901,0.26180315,0.026734298,-0.48364604,0.2738809,-0.6593319,0.45000738,0.36153805,-0.12125055,0.041605175,0.12192172,-0.21209969,-0.41478863,0.48645514,0.29346278,0.31844002,-0.38812366,0.40224227,0.26490033
3220:KELLYVILLE,-0.6126272,0.41835663,0.41143313,-0.7184886,0.43603018,0.13073017,0.003792548,0.15857777,0.009187075,0.6381671,0.15692264,-0.5163883,-0.4383579,-0.37167177,-0.014135443,0.09946421,0.5747932,-0.11469268,0.27319282,0.3132169,-0.13177758,-0.03956807,0.07716665,-0.48762187,-0.5223848,-0.022464529,0.21236932,0.116021864,-0.50487435,0.5824839,-0.04537093,-0.40773544,0.07004374,-0.57462597,0.041258838,-0.41711244,0.15091385,-0.3984169,-0.46410775,-0.42946646,0.52745646,0.27574688,-0.021761365,-0.25138435,-0.009628171,0.21026634,-0.31271842,-0.30494344,-1.0051199,-0.5869979,0.56292856,0.5343482,-0.072726585,-0.022955704,-0.41482684,-0.43834218,0.48724523,0.23707455,0.3395858,0.1843284,-0.39074865,-0.08727336,0.5434735,-0.111682765,-0.45902655,0.5482957,0.051095266,-0.44004145,-0.18605207,0.31607538,0.020379916,0.008938108,-0.47953695,0.32938018,-0.11966719,-0.0591959,-0.45319957,-0.53891206,-0.35838315,-0.68710816,-0.051449444,0.016837962,0.4310904,0.030429956,-0.08675963,-0.2812717,0.016901053,0.8658712,-0.2858701,0.060991637,-0.5073123,-0.30876362,0.090067655,-0.54236287,-0.54905015,-0.13604309,-0.3721537,0.36988002,0.06222448,0.17419526,0.39343116,0.049947158,-0.47815338,-0.17364226,0.45175934,0.05883094,-0.1937926,-0.030688094,-0.14914972,0.2066875,0.08761588,0.05150143,-0.14898488,0.10687585,-0.30168426,0.31641495,0.31923184,0.0298554,-0.074527845,0.14888847,-0.15658419,-0.2672015,0.35774386,0.41244984,0.09928828,-0.28070953,0.40387377,0.2909589
3312:CHECOTAH,0.15772611,-0.06894901,0.07467953,-0.10467555,-0.027970575,-0.1059871,-0.40613016,0.022398366,-0.16407086,0.10260462,-0.098534755,0.04178239,-0.09209832,-0.044592295,-0.107806034,-0.06836139,0.34704453,-0.18977001,-0.12131329,0.14127815,0.04101617,0.08679865,0.079130426,0.034796614,-0.17147173,0.03581222,-0.44309202,-0.024561891,-0.3167493,0.076258555,-0.38711116,0.19723973,0.19247352,-0.1352443,0.13610128,-0.18897404,0.030425826,-0.1954515,-0.17543301,0.1403017,0.22707523,0.02025776,-0.09350288,0.0008198318,-0.25394827,-0.051347468,0.31621975,0.06642159,-0.31852153,0.07109551,0.08740225,0.016533976,0.12447795,0.13116425,-0.2624538,-0.30175444,0.36932912,0.14691436,0.049662028,0.18613349,-0.04672649,-0.23050089,0.102645926,-0.037090786,-0.18405142,0.13460244,-0.0189149,-0.22908415,-0.10854118,0.0240294,0.2259575,0.025323737,-0.22027308,-0.12637228,-0.15114363,-0.17002556,0.09306175,-0.46467775,-0.14701773,0.13667342,0.15070948,-0.08203502,0.11429806,0.27732298,-0.038344476,-0.21923351,0.050878424,0.13921401,-0.19757096,0.09207467,-0.16633844,-0.034055293,-0.16773067,0.24538492,0.08007559,0.0413203,0.17336091,-0.018544031,-0.05801012,-0.19357249,0.07524706,0.27066642,0.015020112,0.4706859,0.41749468,0.035094813,0.20455477,-0.16121408,-0.099427834,0.13562472,-0.1349062,0.1228431,-0.2230611,0.012953026,-0.038026612,0.23740171,0.088485286,-0.10959044,-0.02719183,0.18525419,-0.020354196,0.21049725,0.17608741,0.11892117,0.000780905,-0.06318558,-0.16219382,0.051587492
3313:ILLINOIS_RIVER,-0.08279572,0.53684914,0.21492004,-0.17367198,0.09482252,-0.2744161,-0.18521184,0.48156065,-0.35383603,0.66551715,-0.33914796,-0.1628539,-0.053999692,-0.08491486,-0.043009207,-0.11107025,0.21470393,0.5106622,-0.30349198,0.33229885,-0.43386966,0.054150656,0.026142377,-0.07186586,-0.16253841,-0.038653124,0.017510913,0.31711313,-0.4782789,0.17331542,0.033160415,0.085829265,-0.709106,-0.48961952,-0.4077735,-1.2504482,-0.19869034,-0.5508503,-0.37677503,-0.3312833,0.90317315,-0.008567169,-0.83472246,0.77858156,-0.39825496,-0.032262556,0.043185934,-0.22032085,-0.20045216,-0.35098398,0.5819012,0.4829119,0.2718521,0.22189997,0.09018982,-0.24953212,0.74347395,0.56180173,0.15418562,0.97292864,-0.6229491,-0.19268689,0.44779247,0.11271926,-0.33872953,-0.45831963,-0.22137585,-0.5040891,-0.02997867,0.9318351,-0.44221517,0.25251088,-0.020718038,0.52711535,-0.79531384,-1.0295441,-0.29595128,-0.63645244,-0.3822206,-0.016676664,0.20383304,0.42649034,0.064964,0.021819873,0.17204656,0.28981638,0.5907851,0.45629746,-0.30434403,-0.2689298,-0.58462477,-0.15453522,-0.38395065,0.01700702,-0.86478406,0.11109104,0.10410079,0.25467527,-0.5777748,0.30420062,0.33550206,0.2108982,-0.13350548,0.73720896,0.746016,0.19588403,0.50272495,-0.59524167,0.42162043,-0.36422673,0.37625536,-0.06451909,-0.8341755,0.36243707,-0.31797582,0.90715164,0.02526717,-0.6025564,-0.0035373035,0.32976386,-0.34733537,0.2851181,0.50019157,-0.22205997,0.23729838,-0.23036107,-0.16566226,0.035673965
3314:PORUM,0.21763869,0.35546154,0.24038547,0.024162285,0.23061952,0.039490417,-0.52808607,0.34262994,-0.5323095,0.61518675,-0.26304623,0.015714182,0.05830247,-0.4626021,-0.04490243,-0.05950379,0.34005573,0.43742108,-0.43604854,0.29837173,-0.38542688,0.17058022,0.060936388,-0.07817404,0.16946118,0.2258863,-0.015324894,-0.123259746,-0.29001495,0.21836327,-0.2878154,0.3141063,-0.6587103,-0.61473364,-0.5624105,-0.8457029,0.12458222,-0.46248433,-0.4907874,-0.58537924,0.66514426,0.1695015,-0.8759484,0.73848486,-0.4894802,0.1324067,0.56821656,-0.81721693,-0.06579243,-0.36303228,0.539699,0.45918748,0.029572155,-0.059968017,-0.033032455,-0.23661147,0.8481943,0.8260306,0.47445485,0.73312587,-0.4302284,0.14822495,0.6870498,0.14912283,-0.33326808,-0.43946794,0.06951297,-0.3926982,0.093338385,0.7721099,-0.44883457,0.14795482,-0.43873528,0.38721254,-0.6204624,-0.9702754,-0.5205944,-0.56532025,-0.36799923,-0.21460378,0.22134097,0.48016635,-0.08100721,0.020371493,0.20462069,0.41611767,0.18496217,0.3022232,-0.18143035,-0.26320907,-0.58301985,-0.14606287,-0.43985945,-0.13475902,-0.93470633,-0.014815189,0.19942906,0.4769155,-0.6785579,0.44882965,0.166575,0.38721412,-0.36565062,0.8793336,0.8694441,0.13434833,0.4858522,-0.36250442,0.36782512,-0.23157284,0.29067197,0.005410035,-1.0012647,0.2676677,-0.31314605,0.86215407,0.13065165,-0.5864286,0.13244818,0.7469522,-0.50472075,0.14707509,0.58009005,-0.08608773,0.6395596,-0.20023887,-0.06829891,0.30863637
3316:WARNER,-0.018973064,0.653285,0.10276885,0.042124886,0.10000834,-0.3364817,-0.6123013,0.71972054,-0.15154783,0.7347993,-0.58861244,0.29666632,0.13862339,-0.1951886,-0.3042626,-0.28220388,0.046341915,0.663872,-0.39062575,0.28280708,-0.26634988,0.19046079,0.107085,-0.026206184,-0.23827717,0.066203274,-0.025538232,0.22716582,-0.27596998,0.1398777,-0.014147488,0.2028836,-0.55002654,-0.2801865,-0.33641702,-1.0839516,-0.24459441,-0.29306495,-0.542603,-0.14645575,0.6623622,-0.07351776,-0.61740464,0.6447562,-0.22510397,0.04727499,0.51293665,-0.5121063,-0.24258496,-0.50897634,0.387686,0.47081122,0.37798432,0.3469853,0.043617684,-0.025649488,0.71855843,0.39498848,0.16343243,0.7815784,-0.5066129,-0.060184427,0.42416954,-0.26735818,-0.5745332,-0.15680225,-0.08173965,-0.5066335,0.22181676,0.79227465,-0.17605911,0.2925904,-0.387959,0.35182253,-0.75600445,-0.8916145,-0.5620211,-0.52600414,-0.42304868,-0.19040081,0.05905122,0.8366257,0.097710036,-0.07983079,0.17950432,0.3763042,0.29166248,0.66872156,-0.16317447,-0.360078,-0.3926284,-0.1658327,-0.27745113,0.14019257,-0.5316524,-0.0052229613,0.06750152,0.4944647,-0.32599184,0.19491863,0.30783027,0.2834078,-0.18882756,0.3344053,0.75447375,0.32535014,0.11943887,-0.45205727,0.34027132,-0.14731006,0.25402153,0.2579105,-0.5952017,0.5555299,-0.43672475,0.7263556,-0.05086803,-0.35775438,0.1834279,0.5177589,-0.5363413,-0.03991465,0.72268784,-0.4030458,0.33786815,-0.37116307,-0.02077225,0.25314158
3321:ROSS_LAKE,0.2317493,0.39183444,0.19973099,0.2014354,0.08031338,-0.2352056,-0.6507729,0.39778084,-0.15801199,0.7395859,-0.36719716,0.057587724,-0.012696091,-0.12583287,-0.14761452,-0.3018906,0.31842345,0.5500467,-0.44052777,0.06731039,-0.26743308,0.29976922,0.12276389,0.07417001,-0.09461795,0.192918,0.086731195,0.06758456,-0.30655554,0.33107418,-0.2830802,0.43285564,-0.52407175,-0.35409465,-0.3881967,-1.1104057,-0.043784622,-0.33465204,-0.5255155,-0.23472218,0.62889946,0.109772645,-0.54991704,0.53683054,-0.41574717,-0.079608746,0.09896194,-0.44551155,-0.22083959,-0.31024155,0.3775901,0.50067264,0.1534448,0.1711032,0.13028605,-0.1975316,0.6011162,0.58606404,0.29420605,0.7486633,-0.52496356,-0.024156474,0.5865539,-0.053848,-0.44790095,-0.11032968,-0.004343187,-0.43275544,-0.06163889,0.7083252,-0.3073935,0.3564545,-0.2724373,0.4140882,-0.6546771,-0.9168843,-0.3153433,-0.5597323,-0.3497775,-0.02536915,0.109063014,0.47012803,0.19092925,0.2576761,0.006910824,0.43949077,0.32575035,0.5837897,-0.25993976,-0.18732879,-0.5390278,-0.053535353,-0.1449046,-0.022266285,-0.61938405,0.064066656,-0.038394924,0.4935755,-0.34111494,0.6378595,0.45777634,0.40582278,-0.2846122,0.81145275,1.0680866,0.38825288,0.57947963,-0.36538905,0.4475723,-0.10055449,0.11548742,0.21245353,-0.85079426,0.47874206,-0.6277827,1.0815777,0.07310176,-0.5750477,-0.029698104,0.42855325,-0.4613399,0.4546353,0.67881674,-0.38189867,0.32974026,-0.0768275,0.019032322,0.3159789
3325:WELLS,0.3555499,-0.13787015,0.062223617,0.019051902,-0.037585728,-0.04905548,-0.4388967,0.06676701,-0.07059112,-0.0003869913,-0.27996254,0.2378353,0.056909837,-0.003048457,-0.39779878,-0.33825272,0.3363105,0.028145663,-0.37685543,0.02865393,0.1001135,0.029728508,-0.0800759,0.11108279,-0.053125598,0.07478111,-0.20525545,-0.21369721,-0.24574053,0.043805417,-0.6545941,0.29311687,0.02730172,-0.11268794,-0.053745948,-0.38500506,-0.035517737,-0.08634349,-0.43192196,0.27459326,0.32807344,0.19359083,-0.077696964,-0.00063042354,-0.24756353,-0.036949497,0.24078241,-0.07577546,-0.2934128,0.09098083,0.20416851,0.16041064,0.2811,0.30825236,-0.102264404,-0.17109947,0.4472418,0.4753601,0.21991979,0.28843668,-0.09348786,-0.38280898,0.23220517,-0.111826755,-0.033018976,-0.02874354,0.10915861,-0.5777845,-0.18392937,0.32079604,-0.01661821,-0.02099233,-0.2749211,-0.3047136,-0.19014788,-0.29904932,-0.0105737075,-0.47354347,-0.1228541,0.18509099,0.14747442,0.2761807,-0.052698225,0.18526953,0.04884281,-0.11753386,0.015518115,0.15877481,-0.002853356,-0.0016950037,-0.20494924,-0.119208455,-0.37849072,0.37669793,0.05163041,0.18552035,0.26307678,0.18808544,-0.023951273,-0.1099251,0.21402651,0.47708842,-0.112364285,0.61436635,0.76927805,0.14050424,0.48688704,-0.19857265,0.33162194,-0.18658103,-0.34442806,0.30984578,-0.2477725,0.16708665,-0.076705866,0.5373109,-0.14924867,-0.39280105,0.14475821,0.45976937,-0.12337339,0.38171214,0.2624757,0.09697799,-0.012822038,0.38659132,0.008191161,0.06931377
3326:JAMESVILLE,0.2044409,0.15079193,0.22952974,-0.23059122,0.14039604,0.09512323,-0.08639828,0.102479,-0.22521152,0.16394909,-0.15674578,-0.06554287,-0.25991094,0.0022922487,-0.078365035,-0.234532,0.37755316,-0.04425009,-0.07833461,0.14112887,-0.06743382,-0.051688258,0.07567131,0.026943775,-0.033820994,0.004815425,-0.07093948,0.023353092,-0.24047229,-0.022521034,-0.16560481,0.06777155,0.009987888,-0.0836683,0.010305597,-0.24228443,-0.003516374,-0.22486481,-0.106310174,0.056137417,0.40959325,-0.10421069,-0.2645637,0.06559707,-0.2534684,0.028299468,0.10182637,-0.06500231,-0.19039759,-0.010758879,0.25145075,0.22811861,0.15462148,0.25668472,0.05938181,-0.07035188,0.25076255,0.021801902,-0.06822343,0.22915693,-0.07803825,-0.047048442,-0.005243503,0.071229555,-0.03324418,0.013422232,-0.04282454,-0.08201198,-0.0880674,0.09705377,0.026439039,0.081649505,-0.17389825,-0.07309217,-0.18393753,-0.06100327,0.0762204,-0.4565017,-0.027120823,0.1740433,0.18279387,0.08930759,0.15871155,0.14854768,-0.036027413,-0.048734307,0.08690815,0.09573787,-0.13980381,0.15644515,-0.123416215,-0.18804918,-0.18990007,0.12201371,-0.14006554,0.15014213,0.071182095,0.09601468,-0.057145316,-0.18846704,-0.023317045,0.13136512,-0.05397096,0.08599924,0.2208939,-0.07744463,0.02142579,-0.030146513,-0.1055853,0.06345449,-0.029292494,-0.064548716,-0.14766224,0.08630152,-0.025131548,0.12907608,-0.070681974,-0.11131239,0.04166316,0.2045842,-0.07137706,-0.06640114,0.15741278,0.117210254,0.03647939,-0.13443957,-0.072694145,-0.050047453
3327:VIAN,0.20763144,0.4179056,0.0019020974,0.1492461,0.11452786,-0.0615595,-0.71064436,0.5437811,-0.23302017,0.7995977,-0.57148695,-0.2626001,-0.105819866,-0.2614325,0.026598247,-0.10193966,-0.043677688,0.51524764,-0.3984925,0.12175787,-0.4229593,0.19985612,-0.118825935,0.0013370787,-0.034240406,0.047272325,-0.12005194,0.23296593,-0.3591135,0.35662526,-0.21135345,0.32111654,-0.52529424,-0.6020428,-0.3150992,-1.2216337,-0.14545776,-0.30912927,-0.5899738,0.11430873,0.7804552,0.2693722,-0.6122945,0.7826799,-0.4546552,-0.18080929,0.13637038,-0.3276247,-0.20418482,-0.36463276,0.5945201,0.53871304,0.20431055,-0.055545356,0.17736769,-0.07285972,0.8883291,1.0110749,0.39685178,0.7926778,-0.6323873,-0.18272841,0.60044193,-0.059824947,-0.422802,-0.08759818,-0.11373261,-0.5768741,0.0031811595,0.8981519,-0.32940397,0.36306185,-0.07185051,0.2127563,-0.7467979,-1.2388414,-0.34505162,-0.41649622,-0.41798967,0.016928297,0.011212758,0.27863264,0.044158455,0.08395991,0.0682532,0.48056906,0.49004957,0.91593224,-0.41434017,-0.06798625,-0.38010728,-0.31713238,-0.3608401,0.06622305,-0.7541309,-0.0026442262,0.13566476,0.24785817,-0.30650985,0.50530916,0.5405938,0.22041082,-0.24892499,1.1688884,0.90815425,0.4047645,0.63451123,-0.58665097,0.6461043,-0.18161817,-0.04061256,0.2086515,-0.652417,0.5143641,-0.49605402,0.9438675,-0.092263125,-0.51254225,-0.0061753113,0.4231543,-0.37465504,0.37544936,0.60519505,-0.36947322,0.5835201,0.15563396,-0.13037413,0.23372343
3332:EUFAULA_SPA,0.3206634,0.011787713,0.028243914,0.054553438,-0.12046108,-0.048115402,-0.36876264,0.10908313,-0.2005248,0.37400538,-0.18064763,0.26021728,0.17781658,-0.06754281,-0.36458755,0.0065159462,0.15306985,0.1119766,-0.36170378,0.07336247,-0.20288771,0.16311523,0.21023627,0.041410305,0.024264812,0.13242893,-0.24323533,-0.14109288,-0.06278089,-0.0107092345,-0.36802205,0.4297839,-0.023647655,-0.2663565,-0.09737445,-0.3334435,0.26660118,0.019303737,-0.32815602,0.17966554,0.25894785,0.22589134,-0.19514482,0.1423889,-0.24661846,-0.079354264,0.14215559,-0.06984727,-0.030914377,0.028266592,0.27101752,0.16540818,0.087832846,0.21273872,-0.09430846,-0.105384625,0.36373237,0.56345785,0.14264329,0.20906128,-0.09430708,-0.22776769,0.27000955,-0.010092385,-0.15220067,-0.07176653,-0.038805135,-0.30386537,-0.15334551,0.28115326,-0.033272166,-0.017453864,-0.25024194,-0.2084005,-0.23317432,-0.27804142,-0.05966621,-0.3637563,0.06294675,0.13363187,0.25118637,0.2059365,-0.15120597,0.25676036,0.10196141,-0.04129054,-0.0077951145,0.20589434,-0.078635424,0.007791011,-0.023800138,0.06148557,-0.11099572,0.011277477,-0.13898626,0.20070072,0.17740873,0.24486189,-0.15333892,0.16862965,0.37707362,0.2625479,-0.18671463,0.41161102,0.6676449,0.23202297,0.37941974,-0.07790746,0.24130659,-0.14338778,-0.13509242,0.055781424,-0.28739804,0.15637623,-0.049810562,0.5346133,-0.15046805,-0.2835911,0.09207526,0.31292325,-0.24735709,0.22436053,0.21659337,-0.04486844,0.108865835,0.1988288,0.02393924,0.23403151
3505:POTEAU,-0.38020024,0.48475853,-0.023203366,-0.41105708,0.25136167,-0.09684735,0.2309204,0.46291536,0.26079878,0.52435046,-0.08704517,-0.3600226,0.416219,-0.58060324,0.185608,-0.6258824,0.12884207,-0.06718769,-0.10644687,-0.20102298,0.5508866,-0.086675115,-0.32876006,0.34108955,-0.4720777,0.22417666,-0.15086435,-0.23986268,-0.058681924,0.22304812,-0.25000605,-0.032775562,-0.16847183,-0.69216096,-0.25339633,-0.47558907,-0.10242483,-0.6540874,-0.1056943,-0.92609286,0.45205718,-0.049104076,0.067167,-0.27717775,-0.4100402,0.69329053,-0.54050547,0.044252682,-0.5829374,-0.39780217,0.43829793,0.18571182,0.28423294,0.3306763,-0.04044891,-0.4593379,0.7368019,-0.041233104,0.015020563,0.15392843,-0.39743635,0.035783045,0.65900826,-0.21605211,-0.7170107,-0.28502107,-0.0338497,-0.26027194,0.07699918,0.39736935,-0.40079668,0.5743939,-0.6845231,0.556865,0.06446337,-0.25779337,-0.5849554,-0.32528213,-0.47659364,-0.19281569,0.3545185,0.4046316,-0.20950316,-0.24457633,0.7302846,0.72626173,0.4559007,0.62144357,-0.5321037,-0.29041532,-0.13253456,0.15382917,0.1486305,-0.051175393,-0.51317245,0.028943881,0.180879,-0.060498435,-0.28559977,0.5600483,0.09171348,-0.18954815,0.020803707,0.35454538,0.93742734,0.15760463,0.09312099,-0.65170556,0.23574169,-0.17409219,0.5868719,0.48365888,-0.53603476,0.24547565,-0.8694797,0.9769299,0.30868226,-0.17193566,0.1599348,0.29566127,0.06682948,-0.35393134,1.6657476,-0.9107053,1.0316646,-0.86137366,-0.19797911,1.0254705
3506:CAVANAL_MTN,-0.26808578,0.4865648,-0.037924647,-0.33511713,0.08113196,-0.0786532,0.16428004,0.34540427,0.19940391,0.64015853,-0.21165144,-0.5580156,0.1746125,-0.7007532,0.13176076,-0.5212835,0.03791482,0.2100037,-0.06993318,-0.13522786,0.7260962,0.014329426,-0.1657712,0.19152956,-0.3043743,0.15109618,-0.09920158,-0.08524559,0.07987372,0.3583757,-0.18682088,0.048530906,-0.15876542,-0.422378,-0.24854381,-0.38954037,-0.0803399,-0.49642438,-0.16705494,-0.8902987,0.39901385,-0.11370329,-0.04093896,-0.19562228,-0.38323665,0.6076604,-0.34861088,-0.024861183,-0.6043673,-0.6848353,0.37766978,0.23469956,0.32575879,0.16914989,0.042305775,-0.3925955,0.5398502,0.037888043,0.20900482,0.18488804,-0.31404394,0.19829628,0.8172422,-0.4084022,-0.7023821,-0.33779237,0.06508625,-0.26063412,-0.09844826,0.1461332,-0.45259032,0.61786264,-0.51278305,0.4651093,0.06757364,-0.17312206,-0.60375535,-0.22281581,-0.5130983,-0.26758233,0.22777055,0.34678507,-0.056159385,-0.21860002,0.60274434,0.59966016,0.47053406,0.5105582,-0.63749826,-0.40039325,-0.28235975,0.10441642,0.073674366,0.052654654,-0.5755555,-0.2997853,0.2205138,0.039549112,-0.37684023,0.59914744,-0.059199188,-0.260141,0.0024849586,0.24087751,0.7610272,0.22517961,0.21635392,-0.52857524,0.18060628,-0.05405144,0.5073174,0.38241708,-0.4944118,0.1930895,-0.9090992,0.9145436,0.24194798,-0.01693029,0.072766215,0.15194629,0.36079445,-0.25168732,1.4594256,-0.8800261,0.97593474,-0.73220605,-0.22810212,0.8682694
3507:HOWE,0.096865654,0.24323528,-0.06127088,-0.27584565,0.11019757,-0.0006456692,0.2786763,0.23686998,-0.14428982,0.12959668,-0.11226486,-0.53042626,-0.34210166,-0.1789145,0.012976828,0.14490739,-0.02614515,-0.021690013,0.021956839,0.037774697,0.25693306,-0.0102263745,-0.090487935,0.03475979,-0.19645177,0.20459783,-0.15660223,0.122034945,-0.1522472,0.21960986,-0.101760186,-0.1218106,0.13432442,-0.020099936,-0.040030546,-0.20987687,-0.15543063,-0.4085879,-0.074592054,-0.43273592,0.26301488,-0.10017367,-0.086437054,0.4364007,-0.38845247,0.2628965,0.060803708,-0.18133447,-0.2441365,-0.23963672,0.16848992,0.24906056,0.114751555,-0.0312716,-0.17970264,-0.24919653,0.38052288,0.116658054,-0.06453924,0.3374743,-0.43972388,0.083848044,0.17430982,-0.18978322,-0.38438773,-0.15745017,-0.25031444,-0.11975078,-0.024689713,0.1408821,-0.092928395,0.21158038,-0.06284093,0.30253184,-0.15293753,-0.26821157,-0.22053969,-0.39839995,-0.3186399,-0.1555862,0.13434525,0.13088076,0.15296799,0.023633478,0.03432237,0.24581218,0.40037876,0.35618162,-0.33548677,-0.2366141,-0.26717523,0.17141287,0.027252264,0.15144229,-0.19888957,-0.17531541,0.24130799,-0.07541789,-0.09583407,0.10715589,-0.022992058,-0.05939036,0.040223226,0.26767206,0.34878814,-0.05067876,0.018520743,-0.31914315,-0.081606515,0.05187106,0.18280575,0.05499472,-0.475396,-0.035974495,0.022592327,0.36480257,0.16372147,-0.015217871,0.082365155,0.22763614,0.08533324,-0.2679618,0.55696136,-0.20144163,0.29264596,-0.50934184,0.02097624,0.23768848
3508:SPIRO_COAL,-0.24339835,0.55383027,0.013465348,-0.4150137,0.34778166,-0.036825966,0.097558394,0.39563885,0.0011001049,0.5547871,-0.25347352,-0.5037241,0.10495147,-0.32289785,0.08991771,-0.42421797,0.22297327,0.15998325,0.016629715,-0.12441575,0.50194836,-0.25396758,-0.15256079,0.18055654,-0.404032,-0.06125165,-0.07021995,0.03442019,-0.10238354,0.1907245,-0.18090816,0.08286105,-0.12387912,-0.57601297,-0.2451285,-0.5891433,-0.008365459,-0.5046365,-0.13071641,-0.7701583,0.48625842,-0.204495,-0.23369597,0.06363766,-0.5462617,0.3293093,-0.3671611,-0.18689649,-0.46472907,-0.35262346,0.50189567,0.3829887,0.38588205,0.24880195,0.0019284878,-0.27884597,0.6595706,-0.12529592,0.1774896,0.32261926,-0.37427345,0.22223544,0.8157749,-0.23881657,-0.6751047,-0.19803381,-0.13039067,-0.27663118,0.03929657,0.43004218,-0.15820666,0.6217949,-0.34156394,0.5499422,-0.13139988,-0.3217357,-0.49602515,-0.5264927,-0.46290854,-0.12574244,0.23634194,0.2712508,0.215524,-0.1271734,0.38727167,0.43643868,0.51784265,0.6881094,-0.3830049,-0.1896129,-0.26551002,-0.06879404,-0.17122953,0.19051252,-0.46412235,-0.2723799,0.055672124,-0.156135,-0.38701278,0.5169296,0.04469147,0.09735282,-0.120400056,0.4005591,0.782959,0.11059912,0.20186788,-0.60315317,-0.21557622,0.06920311,0.27204108,0.28407466,-0.8007209,0.2767444,-0.83564156,0.7448869,0.25946546,-0.102901764,0.18198685,0.39610174,-0.048940964,-0.39137042,1.0607308,-0.46177208,0.82214475,-0.76873815,-0.15410067,0.81826705
3509:PANAMA,0.09805545,0.2335993,0.15120585,-0.213871,0.17474237,0.057821915,-0.13826698,0.1967895,-0.166163,0.15434802,6.507881e-05,-0.03243306,-0.1192243,-0.029626539,-0.089361705,-0.20070767,0.348881,-0.06392825,-0.13738692,0.10363371,-0.07033866,0.13194114,-0.0029504516,-0.10499047,-0.03749791,-0.0015213509,-0.11597291,-0.02931506,-0.30285826,0.04504841,-0.15611503,0.102596834,0.05590784,-0.22902012,0.042418454,-0.30189693,-0.0044747717,-0.28074586,-0.09350178,-0.19559671,0.40840766,-0.04457078,-0.14254561,0.11290814,-0.20803808,0.047869977,0.14251286,-0.13191892,-0.19499774,0.08585208,0.23666582,0.18430932,0.19967112,0.17169106,0.029474396,-0.103055686,0.24244726,0.033469874,-0.0209659,0.12360017,-0.07008199,-0.06983353,0.120142356,0.12050178,-0.03452617,-0.05253694,-0.1273647,0.007571722,-0.08371826,0.13673101,0.13171428,0.124316946,-0.18264426,-0.047587637,-0.36834654,-0.10896079,0.06031143,-0.45986322,0.10666628,0.06635621,0.19607969,0.085588515,0.14520732,0.045331474,0.029223837,-0.111981004,0.011041658,0.10617911,-0.098296225,0.26200697,-0.08897965,-0.12035829,-0.050307654,0.067680284,-0.034016572,0.14901052,0.1122564,-0.037012532,-0.03498693,-0.09948908,0.060218543,0.049141027,-0.09717014,0.08011885,0.121155605,-0.11917386,0.022516377,0.025391595,-0.31043154,0.06282394,0.05041752,0.019921578,-0.13219933,0.13197698,0.0052863015,0.07990633,0.010569021,-0.089457005,0.07935516,0.22904626,-0.09047125,-0.092917144,0.1853529,0.15392965,-0.027578136,-0.028876124,-0.030445294,0.017225372
3514:HEAVENER,-0.10397741,0.533442,-0.021870092,-0.18787658,0.19668539,-0.057965245,0.04434849,0.33488813,-0.008257955,0.5397839,-0.34668517,-0.3685641,0.07902905,-0.7593157,0.17667927,-0.53299475,0.18102552,0.41454968,-0.3015721,0.27244747,0.50313693,0.0982514,0.04839593,0.3211856,-0.20272721,0.12602992,0.19765323,0.11360086,-0.24451438,0.48636734,-0.30633864,0.1451691,-0.5513489,-0.46492332,-0.30240735,-0.5588688,0.07310284,-0.74739885,-0.31992567,-0.9367435,0.75735366,-0.0940611,-0.3992626,0.20071171,-0.45978826,0.7820421,-0.08890112,-0.44217402,-0.8708733,-0.63040245,0.77804315,0.34724882,0.24388033,0.32432887,-0.03421169,-0.4560454,0.68643373,0.24906327,0.2483965,0.3546339,-0.7427581,0.032874435,0.805715,-0.30555895,-0.62617713,-0.36412328,-0.020998469,-0.30080807,0.021080544,0.45169875,-0.17830876,0.51310027,-0.5352703,0.52444726,-0.46483853,-0.5177485,-0.5183631,-0.5327077,-0.5613096,-0.11929048,0.18716094,0.41320127,0.2813772,-0.15861183,0.25640854,0.28126472,0.54325736,0.57399374,-0.51520437,-0.24279669,-0.27344403,0.05100053,-0.11327702,0.047989648,-0.45209262,-0.4201415,0.29902655,-0.21974514,-0.5681312,0.32100457,0.22543347,-0.02351069,-0.023906136,0.5873975,0.973822,0.20449024,0.21746461,-0.9266381,-0.10714525,-0.07494601,0.6611764,0.49100304,-0.4988013,0.19641712,-0.641758,0.9236898,0.4081124,-0.17259297,0.08852992,0.4186386,0.19147065,-0.28908855,1.2540954,-0.5829183,1.0066905,-0.7895962,-0.26908824,0.83917093
3516:TARBY,-0.41058952,0.4827738,0.045922156,-0.3950918,0.28602675,-0.18995452,0.25788495,0.33409727,0.3455721,0.5753804,-0.17592423,-0.3211099,0.41047412,-0.67718166,0.15121421,-0.63878995,0.09726785,0.12987162,-0.24443805,-0.13161226,0.5298094,-0.090210564,-0.15981391,0.239417,-0.08512461,0.06186982,-0.1453658,-0.14461283,0.0019492967,0.4130579,-0.22580288,-0.23380087,-0.26321048,-0.66222906,-0.41892666,-0.60840356,-0.23677838,-0.6329951,0.013896858,-0.7912488,0.4600744,0.006814329,0.053570203,-0.3496128,-0.39138034,0.6539726,-0.49053422,-0.13739504,-0.5850817,-0.82910097,0.42180666,0.09031253,0.28595152,0.27634585,0.09780834,-0.3580007,0.7743238,0.17095432,0.23280793,0.33487818,-0.18835393,0.108108826,0.6390399,-0.26321605,-0.6392665,-0.3693754,0.114729136,-0.38534036,0.055481836,0.37335354,-0.4378565,0.40603784,-0.6635792,0.2826026,-0.10935412,-0.32932362,-0.4869508,-0.2050138,-0.4388433,-0.37430188,0.1028583,0.49851638,-0.17440958,-0.093296394,0.572649,0.65727454,0.38863653,0.43369913,-0.683094,-0.3094641,-0.22594862,0.24199097,0.13026592,-0.15213832,-0.48360863,-0.15634479,0.34765458,0.018360171,-0.33461124,0.54699993,0.12551771,-0.19014114,0.11385846,0.17955768,0.90126437,0.28696752,0.06384894,-0.71885663,0.12616615,-0.09573984,0.5555149,0.59175617,-0.31602123,0.21276684,-0.57439935,0.87147003,0.16182956,-0.067627996,0.059289113,0.089129,0.15343513,-0.15623355,1.3486392,-0.85512847,0.954429,-0.573512,-0.26415536,0.78044504
3607:ROLAND_ROAD,-0.22394322,0.46430334,0.017690368,-0.4439603,0.17868166,0.011470567,-0.039692547,0.3254288,-0.03239908,0.3706856,-0.30620897,-0.52886534,-0.08436775,-0.54248,0.1309,-0.5740687,0.36347985,0.11379861,-0.17092106,0.18466032,0.18344858,0.13769172,-0.13322371,0.15758203,-0.46711552,-0.048289362,-0.08630774,-0.055054553,-0.31728247,0.6306321,-0.2520782,-0.14247294,-0.35038602,-0.40379736,-0.22323833,-0.73259485,0.0030826572,-0.5381381,-0.0016842909,-0.72077405,0.59542453,0.17464025,-0.14785495,-0.03774532,-0.45285353,0.15870287,-0.0221598,-0.3213549,-0.4376913,-0.22032824,0.41330087,0.3439055,0.3363851,0.42141974,0.18958513,-0.52165097,0.64183086,0.27623537,0.06892162,0.47947413,-0.4360662,0.054043688,0.51187193,-0.24519,-0.71865016,-0.22032133,0.077868775,-0.29204956,-0.07996976,0.37560597,-0.2478729,0.51807284,-0.6126061,0.37786567,-0.3975359,-0.32353947,-0.35595447,-0.4144388,-0.502118,-0.23070042,0.3358958,0.14717798,0.025720822,-0.14776798,0.45443067,0.3892849,0.5935251,0.3319388,-0.30880436,-0.07749673,-0.28203794,0.13135718,-0.26702568,-0.1669692,-0.5087962,-0.051278993,0.05400657,0.078887135,-0.57364285,0.4106014,0.26011282,-0.073478796,-0.1877968,0.49308175,0.85344785,0.27654576,0.13295332,-0.62657875,0.034098614,-0.1402928,0.3266289,0.3030371,-0.7132805,0.20863634,-0.4299764,0.9831435,0.2728424,-0.28571874,0.21654385,0.23559788,-0.0538681,-0.48338312,1.3134063,-0.7311169,0.9878122,-0.7580568,-0.25689358,0.65788776
3608:MULDROW,0.10591868,0.17563048,0.24063282,-0.22907783,0.17084266,-0.074675344,-0.15145788,0.14905222,-0.22554761,0.19286117,-0.0679818,-0.012485376,-0.14441171,-0.049949173,-0.15518232,-0.23692074,0.24539907,0.004372356,-0.089944825,0.06049701,-0.026779154,-0.0096156895,0.010434328,-0.13233703,-0.07350945,-0.035119027,-0.22738236,0.012991456,-0.24691848,0.050918244,-0.24883163,0.025379913,0.04971428,-0.1732082,0.0024769097,-0.23593803,0.08002488,-0.21772042,-0.05963254,-0.044410728,0.27150255,-0.014187918,-0.3059288,0.13064283,-0.33670926,0.06536389,0.1561522,-0.19657205,-0.20744273,-0.052429702,0.2454871,0.21417665,0.2020973,0.11267816,0.07294883,-0.15105957,0.18102776,0.05334269,-0.032047283,0.14013846,0.07376207,-0.03306823,0.08110176,0.05472999,-0.0777543,-0.086389706,-0.10241317,0.0035422584,-0.07499061,0.04847169,0.08229471,0.07877894,-0.22407898,-0.17912078,-0.23956351,-0.06816973,0.029342895,-0.35439825,0.017945074,0.079530604,0.17879884,0.054876693,0.19558921,0.21066253,-0.02536533,-0.039363377,-0.00043903792,0.17757165,-0.17893268,0.17526725,-0.117607474,-0.17278132,-0.153271,0.12286313,-0.008921923,-0.017539892,0.08487907,-0.046054553,0.028173523,-0.06734114,0.00014551972,0.009180633,-0.06874766,0.073713735,0.15429772,-0.0290852,0.12081659,-0.033038724,-0.14280137,0.11614433,-0.039768055,-0.037216604,-0.1547134,0.060309645,-0.116202086,0.17045721,0.019388324,-0.22646366,-0.011985059,0.1755245,-0.052176844,-0.083089806,0.14808641,0.19639604,-0.020100385,-0.1681768,-0.064389125,0.042352036
4105:ENID,0.11465152,0.19989255,0.33419752,-0.2570613,0.12702662,0.13213593,-0.26209956,0.0061846864,-0.10399208,-0.010082564,-0.044011034,0.064174525,-0.23413122,-0.14165752,-0.24790204,-0.28067946,0.27063683,-0.048714083,-0.21816275,0.32912293,0.010599141,0.016707953,0.111644834,-0.25391537,0.17324892,0.22801743,0.16241793,-0.0215305,-0.09542697,0.122769415,-0.09411479,0.022869518,0.11548725,-0.32728332,-0.047271375,-0.1837936,0.022851983,-0.32340395,-0.40866685,-0.19348107,0.28325537,-0.06753817,-0.17061372,0.29463968,-0.19125234,0.31221598,-0.006557064,-0.41140997,-0.57809734,-0.37352115,0.26828262,0.3107796,0.36538,0.019943869,0.023817904,-0.0072246683,0.34175238,0.2585895,0.08032317,0.0110942405,-0.12501164,-0.09053313,0.29407382,-0.040961944,-0.010641863,-0.24593504,-0.19712107,-0.07683046,-0.23600739,0.18283282,0.18119092,-0.0064825034,-0.15181774,-0.018157251,-0.34069952,-0.24930832,-0.10759334,-0.29485485,0.019453011,0.25745466,0.027099151,0.31464106,-0.18327697,-0.12934649,0.14974226,-0.16610001,-0.032534935,0.09297946,-0.43390968,0.39180344,-0.14609818,0.07862443,-0.087606736,-0.13964549,0.24512549,0.25127324,0.4171902,0.15462647,-0.37528154,0.11187408,0.23283918,-0.029695125,-0.109300494,0.05603439,0.291394,-0.17658179,0.33280048,-0.2316089,-0.3754923,0.21034287,-0.061960127,0.24470787,0.055489775,0.16773643,-0.07529183,0.20857167,-0.05375482,-0.15837319,0.121139325,0.524564,0.13680404,-0.007994185,0.0894797,0.10932252,0.24601185,-0.41257176,-0.45820013,0.099452496
4106:HEMLOCK,-0.040719192,0.22221106,0.3163847,-0.2635666,0.19235836,0.028340222,-0.25075787,-0.0976007,-0.12761438,-0.083709635,-0.08738542,0.21882218,-0.2596411,-0.10611338,-0.2676474,-0.24613912,0.13892211,-0.121671535,-0.07489865,0.25491288,0.028806988,0.026625773,0.09807406,-0.1672175,0.16300559,0.124181546,0.11702395,0.100578114,-0.3664152,0.079500966,-0.1368506,-0.33649075,0.13707301,-0.16978389,-0.039113812,-0.28593308,-0.086056404,-0.36021557,-0.243124,-0.14045824,0.3938309,-0.05397005,-0.3441484,0.10170085,-0.1378359,0.21374129,0.04972784,-0.44366133,-0.57001466,-0.38665947,0.23057671,0.32620314,0.32498604,0.1627422,0.18729302,-0.060506992,0.36784098,0.25770456,0.02993451,0.13118494,-0.34565797,0.05415245,0.33853865,0.10827741,-0.039060958,-0.35943776,-0.33140102,-0.19725178,-0.10096019,0.40202466,0.3913429,-0.07105177,-0.20803906,-0.060597744,-0.4091527,-0.17834131,-0.114823796,-0.20734692,-0.03840023,0.27333936,0.062419612,0.309932,-0.24145032,-0.1910237,0.32209748,-0.09161586,0.0062440597,0.25357476,-0.49706167,0.57104087,-0.13518581,-0.17087106,-0.24647461,-0.0404145,0.18857053,0.08788151,0.31094855,0.09806831,-0.13413896,-0.052105453,0.2515453,-0.062452823,-0.016985064,0.059084773,0.28767785,-0.36271966,0.31130823,-0.2963273,-0.34719577,0.20795138,-0.0491886,0.33288583,0.10368625,0.15281586,-0.24287124,0.18705678,-0.104867905,-0.26772088,0.009761452,0.5316105,0.06687671,-0.25518075,-0.030719027,0.27189824,0.22889042,-0.36144477,-0.26169553,-0.023730807
4107:CLEVELAND_AVE,0.089619935,0.15204291,0.3335312,-0.15333568,0.08669919,0.0057860264,-0.2955532,-0.06532015,0.04056786,-0.032969903,-0.17750506,0.15817267,-0.26342952,-0.19531536,-0.14403722,-0.2627532,0.22494097,0.028822575,-0.18230417,0.3047815,0.022538418,0.053146083,0.08356198,-0.22516459,0.14399876,0.19255845,0.010320651,-0.10872686,-0.22241627,0.17739254,-0.19825645,-0.09831839,0.02996396,-0.2309288,-0.078518495,-0.19128305,0.10265974,-0.358614,-0.35487482,-0.19385162,0.41048154,-0.091686964,-0.35341063,0.32102033,-0.27416658,0.36090964,0.09173188,-0.50556636,-0.41414016,-0.23359357,0.2461221,0.11828493,0.31025326,0.075529754,0.015008663,0.08650433,0.26069674,0.27712992,-0.049903918,-0.027192418,-0.10897174,0.0625859,0.21593052,-0.04240258,-0.19951455,-0.2502754,-0.2611289,-0.16593097,-0.21237515,0.20072904,0.15794249,0.008019928,-0.2140854,-0.028834652,-0.35472733,-0.3432961,-0.09608733,-0.34651238,-0.00775941,0.14073855,0.08177185,0.28131047,-0.1387472,-0.05387336,0.124321185,-0.01617575,0.0062447595,0.24655907,-0.3565807,0.51394194,-0.22590312,-0.13443588,-0.19868127,-0.102761984,0.11511875,0.1765168,0.36036584,0.010857642,-0.25291106,-0.0016934546,0.1824579,0.011811951,-0.025220782,0.04352501,0.29334846,-0.19454353,0.24607544,-0.22824304,-0.34208372,0.18154582,0.040365808,0.31341532,0.0828246,0.090102874,-0.22842216,0.15593182,-0.23100854,-0.2582212,0.034476586,0.33898127,0.18048258,-0.23058514,0.034729924,0.218784,0.19782928,-0.4096044,-0.42956677,-0.07300051
4109:WAUKOMIS,0.106743716,0.1594594,0.29436064,-0.16519149,0.0010556871,0.060692146,-0.28022376,-0.096480735,-0.12922648,-0.041548707,0.024143474,0.11287993,-0.16740575,-0.10237129,-0.27221972,-0.21556601,0.2029615,-0.08346824,-0.113780856,0.1417994,0.11387412,0.09348021,0.041473676,-0.063400134,-0.0058048423,0.23113105,-0.14805254,0.078511,-0.26691815,0.18697529,-0.18634768,0.085993394,0.12582307,-0.23808122,0.05570825,-0.22749676,0.05974658,-0.21396214,-0.122784615,-0.11088303,0.31219745,-0.07558015,-0.21806926,0.091348924,-0.1894994,0.01907211,0.067794904,-0.27458635,-0.079244025,-0.06209671,0.29327324,0.17728774,0.22466727,0.078456596,0.025875652,-0.15688956,0.33704063,0.13156755,-0.08183107,0.12306554,-0.004459869,0.030009449,0.21090534,-0.07870746,-0.16907808,-0.15594672,-0.27970672,-0.050507076,-0.045277756,0.07245211,0.22913767,0.027308326,-0.21652493,-0.15231676,-0.27534062,-0.13174069,0.013957792,-0.26673272,0.06443905,0.1132132,0.111786984,0.20009251,0.040598758,-0.037661888,0.06222689,0.10739777,0.00084464194,0.084788546,-0.3643017,0.349589,-0.11126954,-0.17656623,-0.10768609,0.04795436,0.015641883,0.15218814,0.015234295,-0.0753818,-0.04180718,-0.10836824,0.22194123,0.030441068,-0.1637725,0.21089157,0.13721012,-0.17622682,0.1252963,-0.10721299,-0.31573662,0.12446866,-0.06352113,0.02822669,-0.03302361,0.11331975,-0.27194142,0.048533965,0.1814519,-0.12136808,-0.04908538,0.24604821,0.20406397,-0.12969649,0.01946066,0.049527466,0.21572044,-0.30490956,-0.12664333,-0.01924012
4112:CHESTNUT,0.04937705,0.20518968,0.3098266,-0.347085,0.32312092,0.040783655,-0.2865022,0.067479365,-0.16580456,-0.026311511,-0.0710819,0.18926725,-0.26002014,-0.18854102,-0.2459384,-0.35399878,0.26154843,0.025631728,-0.2426063,0.34173504,0.06458611,-0.0051483805,0.15340713,-0.10992021,0.29336956,0.191208,0.054637223,0.027714316,-0.21540968,0.24620187,-0.20457722,-0.22222304,0.18372531,-0.3773543,-0.08450545,-0.18571348,0.08520434,-0.3183347,-0.22990341,-0.03202117,0.24393918,-0.099192634,-0.2797745,0.1777854,-0.25030562,0.29205674,0.050932996,-0.41531947,-0.5861353,-0.36055905,0.19132069,0.17471117,0.4248352,0.17979726,0.13641778,0.11623827,0.2724981,0.39618084,0.13656333,0.019296365,-0.19662224,0.115021706,0.16486672,0.042419862,-0.09509626,-0.29262596,-0.2994821,-0.1403641,-0.32212833,0.3395685,0.28378266,-0.14982365,-0.37485576,0.0014308895,-0.27690828,-0.33768904,-0.19029796,-0.28955242,0.045393705,0.19435976,0.17377894,0.20556366,-0.18823534,-0.0159292,0.16204467,0.026055783,0.18706837,0.19461243,-0.4034412,0.5137664,-0.14185193,-0.052776936,-0.26857346,-0.0036088745,0.17875735,0.11393029,0.42835185,0.17212678,-0.24197848,0.23444094,0.20446,-0.0038226384,-0.13383609,0.19089274,0.3294109,-0.13245934,0.22799926,-0.32712567,-0.50116265,0.19250311,-0.10200503,0.267233,0.22563201,-0.06250611,-0.16474095,0.18667908,-0.14158893,-0.1475745,0.1151714,0.49789774,0.09829836,-0.32454023,-0.05279839,0.40340328,0.25569394,-0.38918218,-0.35247797,0.02244499
4119:GLENWOOD,0.035053,0.13745782,0.18416558,-0.27797446,0.049796607,0.015894672,-0.22392483,-0.11598676,-0.04874151,0.015961172,0.014330299,0.13262141,-0.20075023,-0.10340333,-0.20237757,-0.23096237,0.0071699563,0.10875882,-0.10032381,0.18827797,0.07295353,-0.14157127,0.23576188,-0.27465484,0.27002475,0.114911035,0.09266528,0.024373151,-0.11138995,0.13256544,-0.12229197,-0.11405518,0.008566996,-0.3270951,-0.029343298,-0.25741574,-0.03857398,-0.32602432,-0.3055793,-0.1339152,0.47544694,-0.08982765,-0.43658775,0.21127623,-0.24422778,0.21885346,0.0057223304,-0.43370932,-0.33332866,-0.20142645,0.35599953,0.19027434,0.27479234,0.26304302,0.015873104,0.07844049,0.3243618,0.27097458,0.13698147,0.12958878,-0.17993258,0.04877854,0.2586425,0.08574295,-0.36064938,-0.21803592,-0.33437076,-0.01687742,-0.17439087,0.38073558,0.4011555,0.07029303,-0.16725232,-0.037766635,-0.30875465,-0.3770031,-0.15020642,-0.5032182,0.041682728,0.049851716,0.14451878,0.32690924,-0.3676458,-0.096460626,0.18842219,-0.013532274,0.09292466,0.20616598,-0.39833683,0.4555257,-0.18565626,0.01879925,-0.30394527,-0.16726318,0.20318943,0.32200095,0.31344903,0.12577507,-0.17895064,-0.11420933,0.28019953,0.26030874,0.112943515,0.14325243,0.45892522,-0.14186127,0.2788923,-0.2230682,-0.42603487,0.3389183,0.10198682,0.5169705,0.26174837,0.0106603615,-0.22246683,0.16420321,-0.13643451,-0.07789835,0.052353427,0.3374842,0.41570038,-0.15561749,-0.018665211,0.34215602,0.23365043,-0.3586763,-0.29283166,-0.20155492
4123:KREMLIN_TAP,0.104367234,0.033844907,0.1627732,-0.2305553,0.008996177,0.047720607,-0.10459009,0.19570468,-0.1364272,0.104982905,-0.10859034,-0.015843006,-0.09335269,-0.06361405,-0.14987211,-0.13177945,0.27104095,-0.06592118,-0.093926795,0.24137315,-0.056808446,0.06177686,0.015384199,-0.18857232,-0.1528917,-0.0058672386,-0.1466245,-0.010941108,-0.32111698,-0.02971872,-0.31464967,0.1973342,-0.055231765,-0.2630267,-0.062022485,-0.17319095,0.101007946,-0.18936856,-0.04173298,-0.16617632,0.36521974,-0.012422528,-0.16828568,0.15708004,-0.2975832,0.19667831,0.21012603,-0.21859518,-0.1436336,0.014528402,0.2741869,0.3506085,0.25774464,0.16480413,-0.07849845,-0.13087852,0.2870303,0.09821799,-0.09522057,0.10834185,-0.031753782,-0.059278432,0.08210543,0.0436336,0.006217217,-0.10316336,-0.10472917,-0.051212773,-0.06360916,0.01748539,0.02534211,0.1395051,-0.23763302,-0.024404557,-0.2134932,-0.051891614,0.09032982,-0.4260028,0.160777,0.04837594,0.06274772,0.017154474,0.20433934,0.029979149,-0.042281818,-0.050105304,-0.011313092,0.11218537,-0.11814865,0.34692243,-0.1365995,-0.13689014,-0.075786136,0.073385544,-0.1689626,0.1399169,0.12719998,-0.009942099,-0.0557621,-0.026205348,0.006209192,0.018367806,-0.16567281,0.09991912,0.07144197,-0.13129473,0.01149964,0.0077654934,-0.21593347,0.15635283,-0.05911067,-0.052474223,-0.052704804,0.084929146,-0.06389823,0.0658055,0.0638315,-0.1497431,0.004959595,0.16007066,-0.10554274,-0.067433424,0.15961272,0.24385422,0.028338453,-0.17908375,-0.12218908,0.030052269
4135:SO_4TH_ST,0.10146473,0.10545104,0.25930887,-0.28071314,-0.05806433,0.14404498,-0.26713133,-0.15313967,0.08532726,-0.014373732,0.056754407,0.23974898,-0.22655018,-0.29368708,-0.25933635,-0.3185092,0.10299509,0.136006,-0.13612622,0.13855298,0.16309921,0.0566417,0.13562945,-0.19019413,0.37554243,0.26567644,0.022854928,-0.103055686,-0.103835136,0.16529126,-0.26263347,-0.082996815,0.19028494,-0.30521047,-0.03939798,-0.07280562,0.19938,-0.23779598,-0.34372547,-0.1323405,0.37197438,-0.09780134,-0.26434913,0.18175295,-0.16599776,0.39588258,0.11759843,-0.5569459,-0.32043257,-0.26451397,0.40320572,0.24915262,0.26662743,0.2426437,-0.030552633,0.007188176,0.3503493,0.2973686,-0.0030635425,-0.07122493,-0.2555574,0.14846034,0.32700297,-0.08930196,-0.12187047,-0.30066767,-0.23473834,-0.091819316,-0.20901029,0.21965724,0.18844226,0.057932515,-0.344448,0.023698535,-0.4416163,-0.18457466,-0.11672265,-0.3862028,-0.013781909,0.11895541,0.18800132,0.20246674,-0.224476,0.007143635,0.11947277,0.00015338566,0.09808282,0.123326,-0.27816987,0.499903,-0.30381793,-0.08455815,-0.2617359,0.0489416,-0.116184495,0.11550203,0.21489374,0.114898466,-0.25006032,0.056206428,0.18584093,-0.020863583,0.052022178,0.21190189,0.13597332,-0.18497713,0.20082392,-0.15692692,-0.41749024,0.18376489,0.008592133,0.27329174,0.14148003,0.12648024,-0.17522867,0.09733074,-0.10521807,-0.26284078,-0.2051685,0.27762443,0.07313149,-0.111960396,0.20724101,0.17329623,0.27184632,-0.40483,-0.28546378,-0.009280248
4151:VANCE_AFB,0.10047072,0.013569784,0.3108155,-0.20663576,0.028670028,-0.042307995,-0.34316975,-0.21637058,-0.059448775,-0.085023746,0.092691556,0.13922776,-0.366217,-0.18247516,-0.20971392,-0.2720365,0.048626598,-0.010230978,-0.13684559,0.10811716,0.14537746,0.09378341,0.117293045,-0.05804987,0.31010455,0.21625587,0.05554922,0.009549364,-0.12953602,0.12165313,-0.2272039,-0.048027772,0.1345303,-0.2400455,-0.058015965,-0.22921161,0.27332407,-0.2663584,-0.29188755,-0.1531938,0.4549291,-0.07509416,-0.17403898,0.19063173,-0.2002536,0.3062541,0.015366075,-0.3892892,-0.4024914,-0.26876026,0.44408134,0.10427838,0.18040612,0.13791206,0.08194381,-0.03236463,0.4094119,0.294192,-0.10180366,0.01971303,-0.23469101,-0.02572469,0.23634432,-0.15590598,-0.15500602,-0.16266017,-0.2010043,-0.11994036,-0.1152643,0.29268265,0.32224387,0.040363554,-0.35745224,-0.16056474,-0.37784183,-0.2344028,-0.26047796,-0.32010466,-0.09620924,0.2242316,0.022689065,0.2540387,-0.093884826,-0.038693946,0.050771058,-0.12976313,0.1231436,0.22733124,-0.3816618,0.47215903,-0.23579253,-0.16247733,-0.23145291,-0.016650548,0.06620083,0.16261214,0.15763435,-0.030845283,-0.23119485,0.053900667,0.26598132,-0.048585583,-0.07279731,0.14032227,0.16575325,-0.10332267,0.21762946,-0.28326255,-0.32330513,0.098657325,-0.06871346,0.35271344,0.11334867,0.13552298,-0.16755146,0.11067065,-0.1280465,-0.12078126,-0.04506578,0.33395997,0.15460469,-0.28031164,0.074826434,0.19789894,0.26068804,-0.2287972,-0.2927326,-0.022680877
4153:IMO,0.100411765,0.06084034,0.32998696,-0.24059527,0.020848295,0.002277595,-0.19224128,-0.0060845898,-0.12849739,-0.07654627,-0.024152204,0.108649656,-0.24011686,-0.21249992,-0.15846552,-0.23267788,0.1373584,-0.033943746,-0.05717997,0.1949438,-0.030418094,0.10290786,0.019152246,-0.19790183,0.04010561,0.2518915,-0.16834408,0.06947744,-0.18746735,0.054592684,-0.20298536,0.052443177,0.059333716,-0.25760424,0.057146788,-0.099149436,-0.046731148,-0.098901555,-0.07879925,-0.070590116,0.40290037,-0.073022634,-0.25081804,0.17121218,-0.12230867,0.101637006,0.17430012,-0.32283857,-0.112219214,-0.113541245,0.24466719,0.09659628,0.32485786,0.13173382,0.021843914,-0.24533813,0.3493654,0.11276567,-0.035463095,0.15504399,-0.121889085,-0.029357396,0.25327682,0.058165643,-0.039356798,-0.12130417,-0.20035349,-0.009926965,-0.12601274,0.10375031,0.13374634,0.0027165816,-0.14229481,-0.080691144,-0.24777283,-0.16318631,0.10701505,-0.3288374,0.1734138,0.17153235,0.045051254,0.14065672,0.10174641,-0.0771847,0.09606519,0.008929535,-0.063391365,0.18900055,-0.43155554,0.43568093,-0.12473797,-0.12710787,-0.0014954454,-0.05355751,-0.06253449,0.24745591,0.10853373,0.049524643,-0.11348161,-0.05193858,0.23389703,-0.07037911,-0.039856166,0.19886942,0.09081857,-0.23183666,0.1507928,-0.23278284,-0.33691704,0.22603138,0.020758148,0.17357796,0.08494554,0.06222021,-0.22225955,0.056498498,0.043444455,-0.1321463,-0.163058,0.21254785,-0.031148737,-0.12214001,0.12908506,0.12863955,0.14123201,-0.25605935,-0.10315594,0.03675457
4157:NE_ENID,0.009160389,0.29954576,0.30944058,-0.27788118,0.1788997,0.06030473,-0.21106419,0.018183434,-0.11775944,-0.12353626,-0.09056203,0.12559018,-0.07744667,-0.27815032,-0.20142375,-0.24221112,0.20408574,-0.0613518,-0.09962504,0.11162245,0.1515553,0.043874566,-0.12607302,-0.18341912,0.22878802,0.199564,-0.029015994,0.060100026,-0.24562722,0.19783458,-0.23002335,-0.28226998,0.058904767,-0.27474335,-0.10159261,-0.27645603,0.08342346,-0.33878815,-0.31521922,-0.040240467,0.32937202,-0.101538636,-0.42519897,0.14121094,-0.14008874,0.44990188,0.031065674,-0.63708204,-0.6164729,-0.34565958,0.14919013,0.2924546,0.6031288,0.08333898,0.09448686,-0.03108368,0.35840872,0.24120723,0.0381492,0.02415895,-0.15787202,0.013340667,0.2638433,0.09531359,-0.098480985,-0.38301653,-0.3935288,-0.18763027,-0.22126924,0.22897108,0.27879113,-0.20740773,-0.25847772,-0.021116842,-0.40806302,-0.14222303,-0.20964096,-0.19785593,-0.095983975,0.28544825,6.588776e-06,0.28688273,-0.19571643,-0.035346214,0.31091872,-0.014232464,0.15991694,0.23457216,-0.26938388,0.486042,-0.31458062,-0.26001596,-0.32337573,0.04164613,0.07911523,0.11030965,0.34071222,-0.007347961,-0.27637616,-0.032329887,0.0744776,-0.03750203,-0.11858789,0.25807345,0.24125266,-0.22651556,0.47698668,-0.32918742,-0.44159558,0.2164453,-0.09233616,0.3625209,0.1651438,0.085087046,-0.2697783,0.07981168,-0.11202626,-0.23286271,-0.07119617,0.55707866,0.03222285,-0.37346333,-0.05336848,0.32453686,0.13903418,-0.38808623,-0.35126716,-0.18194443
4158:FAIRMONT,0.0051501575,0.38312528,0.66452897,0.21097338,0.018517055,0.18100223,-0.44551632,0.03157449,0.070860915,0.011337713,0.12842853,-0.036928955,0.077753805,-0.34263647,-0.30733305,-0.62892157,0.06400795,-0.044327855,-0.11874837,0.039134458,0.08720129,0.27291802,0.045576245,-0.18458043,0.071883,0.22932963,-0.02741515,0.7142383,-0.29074255,0.14610322,0.14294861,-0.04336066,0.54601353,-0.35240796,-0.20640713,-0.13167183,0.335364,-0.3838167,-0.33711606,0.0781108,0.29534996,-0.002178143,-0.32372358,-0.023995131,-0.39388257,0.18972845,-0.052536976,-0.050090373,-0.3285058,-0.28470892,0.05838536,0.3754346,0.3846114,0.2656738,0.30325946,-0.15623406,0.2001261,0.5211833,0.096444644,0.30292782,-0.36657494,-0.2795063,0.11562508,-0.10904363,0.16051087,-0.057122495,-0.33575085,-0.58971196,-0.4666179,0.33889592,0.3643847,-0.003015581,-0.20712246,0.1938804,-0.30337965,-0.6850491,-0.07305359,-0.17357107,0.09581327,0.3544276,0.27407888,0.18163039,0.35809112,0.029118625,0.0018943158,0.016315635,-0.20111535,-0.03488755,-0.4020404,0.48188475,-0.2606653,0.027141105,-0.055182345,0.18912673,0.14462443,-0.08115786,-0.037853222,0.42891952,-0.50179887,-0.19891237,0.29660657,-0.46127135,0.25163168,0.11787277,0.001089414,-0.24195541,0.22121246,-0.21422268,0.011546294,0.1957302,0.4330926,0.49042863,0.16036218,-0.36278576,-0.19847995,0.27598,-0.14013763,-0.12483891,-0.11907164,0.03083057,0.26869828,-0.5325046,0.23314351,0.30585748,0.013471556,-0.15623614,-0.123841606,-0.33940578
4210:MEDFORD,-0.14956604,0.19431163,0.1258822,-0.5752578,0.77118665,0.07267644,-0.47885448,0.35392666,-0.30289713,0.15011585,-0.3944001,0.30469167,-0.82284224,-0.08991232,-0.115962714,-0.31476808,0.4248436,0.06790502,-0.28679213,0.27119273,-0.13051233,-0.3153546,0.07507679,0.006961715,-0.36119995,-0.34081122,-0.0869342,-0.089495234,-0.27074957,0.22264603,-0.15741074,-0.13384607,0.21997774,-0.38962814,0.076428205,-0.049287044,0.23540406,-0.21404389,-0.16309199,-0.091961205,0.36130953,0.06533743,-0.40259612,0.52254677,-0.3244009,-0.029258471,0.28930813,-0.30672422,-0.5958301,-0.08646518,-0.062370464,0.61288404,0.18705621,-0.110151075,0.018184563,0.1970204,-0.033708245,0.6718269,0.121704556,0.16155966,-0.3190102,0.24117784,0.21126634,0.17523263,0.24545376,-0.038691655,0.06552526,0.106767125,-0.28822854,0.31921107,0.19640861,0.11848621,-0.22230497,0.011628405,-0.19054186,0.016176319,-0.06298884,-0.44385278,0.09684092,0.4316773,0.26125228,-0.09053326,0.039253354,-0.035676315,0.054403566,0.16929807,0.06395919,0.54728705,-0.1444304,0.028068738,0.038976926,-0.47540137,-0.5960875,-0.09577467,0.11322869,0.06545556,0.28490543,0.07377528,-0.065469764,0.1040282,-0.16525367,-0.031066319,-0.46165487,-0.043794207,0.26023284,-0.2200326,0.16595821,-0.12617981,0.061715916,0.38346508,0.16204458,0.059128545,-0.040861458,0.046225525,0.15209362,-0.23694569,-0.671807,0.039558094,0.5805397,0.495821,-0.07859348,-0.31336996,0.6583597,0.19341676,-0.14657053,0.3313398,-0.2890359,0.14014865
4219:BUNCH_CREEK,-0.25881344,0.73367715,0.48968378,-0.09839296,0.5621346,-0.23484632,-0.60564524,0.04307196,-0.053488616,0.26773503,-0.06087253,-0.101776116,-0.080187716,-0.50963074,-0.036341738,-0.078034304,0.23110068,0.1694007,0.3936437,0.15035914,0.19503707,-0.049656533,0.0404022,-0.4250464,0.3341248,-0.032332607,0.26809868,0.51497185,-0.6406001,-0.38292572,0.30832282,-0.7415509,0.31318656,-0.4738874,-0.41861376,0.026100617,0.22779815,-0.25453368,-0.048824187,0.6944313,0.72956324,-0.301943,-0.45143583,-0.009549801,-0.3682046,0.37823057,0.2893256,-0.810558,-0.19840644,0.08819735,-0.035156745,0.053296115,-0.0028608674,0.054884378,0.51224965,-0.25914362,0.22012523,0.3531779,0.01650591,-0.30081707,0.22453341,0.16166066,0.3517984,-0.014743487,0.36280885,-0.7622407,-0.36608955,-0.09383476,-0.0966703,0.281442,0.32164887,0.5599922,-0.35914522,0.46557197,-0.25595847,-0.29323366,-0.43205124,-0.40296063,0.05031518,0.05132907,0.5892538,0.2633874,-0.019817654,0.13506603,0.41129464,0.22088595,0.04271104,-0.015060551,-0.08854556,-0.46345055,-0.08509577,0.22247894,-0.298336,0.3544047,-0.15013586,0.07873946,0.6153394,0.16914134,-0.55277383,0.1485558,-0.03843557,0.059174404,0.19185217,0.29369396,0.3269604,-0.07083216,0.18890427,-0.6007575,-0.23367286,0.19229789,-0.004092626,0.24627653,0.14922364,0.13280293,0.06865119,-0.0018990693,-0.041124642,-0.3376461,-0.19476205,-0.015697291,0.039214905,0.40785483,0.036581144,0.04007318,-0.24509862,-0.118678555,-0.45964962,-0.12809376
4220:CLYDE,0.026121993,0.13992037,0.19469927,-0.031497028,0.41567463,-0.25301003,-0.42153618,0.24984327,-0.20109734,0.5203341,0.1268296,-0.26846898,-0.35357544,-0.25107798,-0.055879973,-0.4774918,-0.098799974,0.46092013,-0.3077262,0.94556284,-0.2719213,-0.017476967,0.7687272,0.09130896,0.30546817,-0.23612049,0.57580066,0.20690203,-0.36895055,0.6115706,0.38088524,-0.3958171,0.4309072,-0.72862905,-0.16644333,-0.42279807,0.67249465,-0.47034994,-0.80751795,-0.56721264,0.514331,-0.21478173,-0.24066964,0.5474554,-0.2758914,0.33750644,-0.26972568,-0.35127205,-0.7356032,-0.38105714,0.51990795,-0.35900784,-0.11946945,0.26171663,0.21359754,-0.1772358,0.32204834,0.53395414,0.22604848,-0.035455216,-0.283887,0.014900882,0.27244097,-0.006338871,-0.99248254,-0.044812255,-0.06067418,-0.23935898,-0.71086186,0.7976746,0.4548933,0.33440036,-0.3872254,0.6009409,-0.23958375,-1.0644087,-0.5629539,-0.4532112,-0.19673416,-0.32151935,0.24911493,0.05490909,-0.672269,-0.34483716,0.096837044,0.34362727,0.15299399,0.31653532,-0.58783865,0.16002809,0.14149383,0.41088945,-0.3754475,-0.419632,0.24594605,-0.022008028,0.2519365,0.22582604,-0.15343934,0.35848656,0.5454243,0.42186278,0.35843945,0.055076428,0.18623714,-0.05137389,0.23846246,-0.316525,-0.37753725,0.17984983,0.03082177,0.8116105,-0.018781574,0.0050970945,-0.03677499,0.6566582,0.109711275,-0.26547766,-0.05301039,-0.14769164,0.33085287,-0.029799266,-0.1874547,0.13384649,0.4532424,-1.0816231,-0.040892947,0.14438275
4230:THREE_SANDS,0.11525797,0.22989406,0.35858518,-0.009701696,0.05476626,0.02827274,-0.4965695,-0.16293804,-0.16059555,0.30084196,-0.26589233,0.31453848,-0.5205455,-0.27404317,-0.15467313,-0.18379812,0.095314935,-0.01574922,-0.21869542,0.5030136,0.18906167,0.18812513,0.28453818,0.021325173,0.03509843,0.20435828,0.31328318,-0.002818352,-0.1886494,-0.03903605,-0.067841746,0.024591232,0.40862647,-0.59772813,0.29152957,-0.12998405,0.31009156,-0.2941972,-0.7943939,-0.22163132,0.3004735,-0.1300963,-0.6336797,0.5705332,-0.08983767,0.4743523,-0.016583102,-0.49287477,-0.61000365,-0.55379057,0.20578301,0.3536877,0.33386257,-0.0603363,-0.2239812,-0.1344752,0.1763665,0.46329886,-0.0905653,0.1133212,-0.4858057,0.1024319,0.41901612,-0.21803086,-0.09537679,-0.26797685,-0.17528458,-0.5166097,-0.29547703,0.5645739,0.019807205,0.19038473,-0.10987041,0.31510162,-0.51494443,-0.5402544,-0.548033,-0.33950907,-0.32872877,0.38317472,-0.14153825,0.106069826,-0.18637761,-0.15602912,0.12792708,-0.12436622,-0.12270455,0.29561877,-0.22523245,0.26082802,-0.2569493,-0.09392321,-0.42654365,-0.24397555,-0.19110517,-0.05764843,0.05825371,0.26526442,-0.429625,0.31144977,0.14107642,-0.06366006,-0.33708778,0.15173306,0.18581611,-0.1594052,0.34235412,-0.31103566,-0.28881255,0.20725766,0.01476175,0.30380264,-0.10159066,0.16585559,-0.38643217,0.1073686,-0.38920954,0.012449173,0.07256426,0.3101117,0.030334244,-0.25350398,0.23003633,0.04630451,0.2343457,-0.2749785,-0.22140501,-0.04511253
4239:OTOE,-0.6080858,0.35880753,0.2737354,-0.68934053,0.16877908,-0.029384356,-0.2200222,0.14741081,-0.14321227,0.7769131,0.047007132,-0.39968708,-0.3998389,-0.22913557,0.12500286,-0.024357932,0.8460949,-0.15687375,0.11170703,0.24893485,-0.04648737,0.118137375,-0.0050493856,-0.23518021,-0.18866368,0.005309158,0.19522117,-0.08018329,-0.4182277,0.50218046,-0.06296237,-0.34128886,-0.11846663,-0.47446063,-0.037621673,-0.4371981,0.22131309,-0.444461,-0.34482643,-0.3655475,0.6258938,0.22827323,-0.26512042,-0.119137384,-0.21276401,0.0057268324,-0.12428434,-0.26528412,-0.88963133,-0.30743372,0.5202048,0.53293,-0.36708966,-0.11374542,-0.6864193,-0.46529207,0.49092466,0.36763078,0.39110276,0.25735176,-0.29800615,-0.07850539,0.60759056,-0.30756065,-0.58248997,0.2854787,-0.017542765,-0.3273344,-0.09974345,0.23302598,-0.099177994,0.25118235,-0.48342067,0.41915673,-0.19121434,-0.19779213,-0.4304115,-0.437981,-0.38245055,-0.35139364,0.014668973,0.019798547,0.44258434,0.0343746,-0.0721334,-0.23163171,0.03740614,0.5294434,-0.12276432,-0.14900754,-0.2568345,-0.16390966,0.11916315,-0.25433895,-0.41876838,-0.020149514,-0.3561711,0.46644574,-0.09866858,0.34583077,0.34339964,0.08312144,-0.31675318,-0.02522082,0.46854717,0.09097658,-0.20432138,0.023367427,-0.17933176,0.0064462954,0.068405606,0.040887285,-0.19794832,0.1821845,-0.38802063,0.34490672,0.25349897,0.14664905,-0.10618736,0.0036628146,-0.25487766,-0.11071861,0.066320285,0.19637893,0.11955737,0.20976405,0.39785048,0.12058917
4240:DEER_CREEK,0.04219265,0.3657528,0.35097894,0.1572453,0.06350768,0.02913698,-0.49744043,-0.009437169,-0.13399094,0.21548404,-0.5472759,-0.06043846,-0.20567656,-0.38862273,-0.012677604,-0.1204341,0.20508352,-0.15103446,0.04526858,0.30510947,0.14989752,0.24393295,0.10747717,-0.30250382,0.24940686,-0.084430486,0.20965979,0.19698733,-0.48644617,-0.2057187,0.22058782,-0.42880887,0.03328079,-0.18174674,-0.17773218,0.074961856,0.49466887,-0.35081825,-0.31231102,0.2161603,0.5370954,-0.23149057,-0.48464864,-0.038639724,-0.24682805,0.59876096,0.010543787,-0.3557718,-0.30111593,-0.081443444,0.11697729,-0.07477433,0.32006055,0.07959014,0.21197827,-0.2080454,0.37684304,0.21778522,0.02637046,-0.0440866,-0.14995344,-0.13168362,0.20916672,0.13560203,-0.3596631,-0.45159185,-0.28023788,-0.4315586,-0.44773775,0.39063677,0.19523567,0.17263278,-0.25656393,0.20195532,-0.10747027,-0.33209297,-0.11859495,-0.07751356,0.08576675,0.04594979,0.38883907,0.22340883,-0.12244625,0.41790417,0.18213229,0.066023834,-0.061509892,0.16878022,-0.24355495,0.38502973,-0.26521465,-0.10777955,-0.3040152,0.12980437,0.07470331,-0.038365338,0.32735407,-0.19942664,-0.12658273,-0.026595032,0.058691,0.2543685,-0.010297131,0.095245466,0.2032859,0.007994287,0.10467263,-0.12162492,-0.13407214,0.12748656,-0.123103015,0.022076251,-0.09789505,0.07283641,-0.35258898,0.36013633,0.008540876,-0.38250914,0.023393732,0.015886402,0.0003890176,-0.12848917,-0.010357386,0.43446937,0.035948664,-0.22196509,-0.22433598,-0.11128547
4256:SINCL_BLKWELL,0.049962685,0.37959775,0.25274915,-0.07851704,0.16421527,0.035492938,-0.3855983,-0.057639122,-0.100210376,0.18978827,-0.3641641,0.018095125,-0.3569449,-0.22940518,-0.039101534,-0.13655284,0.06641852,-0.14392804,-0.0065873726,0.33622572,0.060544707,0.13009335,0.15401392,-0.2931781,0.22521204,0.0268653,0.27018404,0.19056265,-0.24281651,-0.02503348,0.19648202,-0.3363846,0.084931955,-0.11059258,-0.04210113,-0.024901062,0.3478342,-0.23725158,-0.43545017,0.14477234,0.47318345,-0.19903307,-0.4114045,0.18356179,-0.04202634,0.4915606,-0.062249146,-0.50584733,-0.45246926,-0.15924813,0.012263405,0.0010369774,0.34505293,-0.04994875,0.06830647,-0.20158675,0.3250873,0.3122019,-0.0137133775,-0.115020975,-0.21720442,-0.04224537,0.28967732,-0.05784306,-0.22035277,-0.33147126,-0.27082056,-0.3065938,-0.43120697,0.3230163,0.07358427,0.1148596,-0.2612994,0.28446826,-0.18733813,-0.33720723,-0.32084143,-0.230766,-0.03989293,0.14299111,0.2463524,0.21834916,-0.16913895,0.112902746,0.16468346,0.0006765542,0.0022370375,0.23915201,-0.30734855,0.13432807,-0.15918048,0.001205435,-0.39334896,-0.032102644,0.027854437,0.10261426,0.35345805,0.015747866,-0.33046937,0.111619964,0.10004478,0.12150953,-0.16720973,0.12377949,0.3141828,0.029617144,0.33780766,-0.27122208,-0.1619666,0.17149264,-0.0367595,0.2710519,-0.019038012,0.22080776,-0.12235036,0.33405125,-0.1973614,-0.25126606,0.019397866,0.23543872,0.035259776,-0.06577823,0.08963663,0.14623226,0.083540216,-0.27768835,-0.2168423,-0.07326916
4261:WHITE_EAGLE,-0.42015165,0.8053432,0.26396343,-0.37976474,0.2238097,-0.51235676,-0.3915377,-0.11840292,-0.4144317,0.058912285,-0.66329694,0.15750103,-0.16951615,-0.12438445,-0.2493289,-0.19436361,0.3417599,-0.4133653,-0.16036461,-0.0086064115,0.47981703,-0.11642681,-0.6669689,-0.22157328,0.27343765,0.33633497,-0.12207488,0.1811617,-0.3819396,0.113985844,-0.38565284,-0.33241493,-0.18900385,-0.12717085,0.05301871,-0.830264,-0.08446316,-0.4435579,-0.32333425,0.13921699,0.6815922,0.09538487,-0.6871405,0.15838155,-0.101262756,0.22626676,-0.26776725,-0.7659223,-0.887616,-0.34694684,-0.30250493,0.69636065,0.75775933,-0.2802301,-0.39332798,-0.15270045,0.42736626,0.39999327,0.037379086,0.100969516,-0.36683652,0.10650475,0.38950247,-0.26622966,-0.15867363,-0.6797432,-0.5000238,-0.8063214,-0.056829706,0.44171536,-0.21889192,-0.36910686,-0.2710754,0.25411355,-0.23211807,-0.60962147,-0.76896185,0.01830636,-0.6339344,0.54449564,-0.26436815,0.33171853,0.11937685,0.12785809,0.24872634,0.34769985,0.16611293,0.69232833,-0.07866987,-0.012252026,-0.5693741,-0.2319381,-0.50808877,-0.3002594,-0.3792955,0.111610174,-0.050646424,0.13394374,-0.79365003,0.9275655,0.03433121,-0.4382021,-0.5540775,0.61478907,0.8360085,-0.18975356,0.76648074,-0.5963538,-0.30879718,0.33761615,0.031165604,0.3966164,-0.63672966,0.62465984,-0.77555686,0.42258558,0.32901004,-0.08587797,0.11311038,0.7141178,-0.28944817,-0.48406947,-0.050126296,0.13834019,-0.067939214,-0.120170616,-0.11898245,-0.6158493
4353:OTTER,0.09101061,0.26748484,0.31485498,-0.058316324,0.048574172,-0.10562188,-0.36127445,0.2200614,-0.15283176,0.20870739,-0.21792449,-0.20651707,-0.18300752,-0.25311863,-0.06701644,-0.23601629,0.30614027,-0.102110885,0.04721189,0.07984087,-0.04293102,0.1267063,-0.008312862,-0.1392034,-0.07253118,-0.058234803,-0.10137204,0.16099449,-0.25226647,-0.14344211,0.09374268,-0.098727845,0.11834217,-0.13323574,0.0012016472,-0.0336025,0.34920046,-0.2935901,-0.19469923,0.04740316,0.41089392,-0.13118637,-0.20854296,-0.0016377956,-0.15482491,0.20097825,0.14428021,-0.23287943,-0.05357753,0.0924333,0.13702533,0.085552685,0.22099979,0.083408184,0.14999032,-0.13465501,0.3032483,0.10106874,0.0066589215,0.2098481,0.011901345,-0.08007302,0.1003313,0.10039515,-0.054010525,-0.18286794,-0.12558718,-0.14455158,-0.18184848,0.08009304,0.17471282,0.17568685,-0.2389363,0.055174146,-0.10706278,-0.26185426,0.027212221,-0.32374716,0.21904697,0.10494964,0.36178696,0.20002364,0.30443355,0.2546138,0.01983552,0.07653609,-0.012357081,0.03935597,-0.14647844,0.14939961,-0.08651518,-0.16095917,-0.16529076,0.117337085,-0.0016485223,0.08355547,0.31687623,-0.13597001,-0.10969131,-0.017994273,-0.027896384,0.06284473,-0.07457745,0.075984165,0.29491487,-0.05799153,0.23097903,-0.08111989,-0.21192622,0.096067876,0.06694372,0.032712873,-0.110952236,0.016320199,-0.03526156,0.17029956,-0.015741024,-0.12715758,0.0010162689,0.100240834,-0.010314842,-0.102558225,0.0755676,0.18915775,-0.08146198,-0.18194808,-0.052397877,-0.09636649
4354:BRONCO_ROAD,0.047843147,0.525871,0.27556106,-0.15390016,0.13006051,-0.16173,-0.5455994,0.021300573,-0.28041968,0.3963963,-0.28271893,0.09277602,-0.41403618,-0.40828174,-0.20517635,-0.23949338,0.14124463,-0.04556461,-0.032344323,0.2987174,0.1374148,0.10618159,0.29653898,-0.14833605,0.1902227,0.04081377,0.25103825,0.2052507,-0.26626757,-0.17516619,0.33521354,-0.26602885,0.1005306,-0.5725895,0.09692903,-0.022209922,0.2709021,-0.30161628,-0.53543305,0.06918898,0.57186204,-0.28065825,-0.53414893,0.33266327,-0.075474665,0.38086906,-0.08993667,-0.7153143,-0.5221677,-0.40383956,0.0023858848,0.19002786,0.24268138,0.036487635,-0.013803238,-0.1970799,0.1589392,0.35535827,-0.054286215,0.019927833,-0.22568849,0.2280505,0.39387107,0.013819921,-0.1112645,-0.43523115,-0.22907065,-0.382533,-0.13168222,0.53323776,0.11782422,0.29606396,-0.026526934,0.48249933,-0.49657667,-0.6246444,-0.59103096,-0.31906325,-0.25337598,0.30786622,-0.027392805,0.3050936,-0.3145405,-0.124258645,0.21992216,0.13310632,-0.09886154,0.38974297,-0.33951044,0.014945342,-0.14981511,0.11656623,-0.3288726,-0.09378434,-0.29598796,0.1854821,0.22146042,0.42499468,-0.6964899,0.50376457,0.17535196,-0.029073818,-0.34831017,0.28604063,0.3553555,-0.22563125,0.4636945,-0.4496705,-0.3632113,0.23546857,0.0018226488,0.50834364,-0.20009781,0.22236644,-0.23942,0.21826617,-0.08516358,-0.19015414,-0.02988551,0.2469973,-0.09972672,-0.14462037,0.015756663,-0.010287956,0.15591758,-0.36715072,-0.18239686,-0.2362705
4414:HENNESSEY,-0.058824178,0.5930374,0.42977092,-0.20947127,0.4580479,-0.0655195,-0.47878966,0.54021436,-0.35645097,0.6705862,-0.062065516,-0.5485372,-0.23479372,-0.5284694,0.059113473,-0.40615577,0.32333535,0.334467,-0.17760745,0.79428875,-0.25037163,0.06143317,0.18533462,0.07380082,0.029815393,-0.12304045,0.54901963,0.5411085,-0.6476472,0.59512806,0.3736908,-0.327351,0.11072772,-0.7143018,-0.36117625,-0.67409045,0.37580532,-0.5682574,-0.64885646,-0.44451088,0.5972826,-0.26255104,-0.5758928,0.5205533,-0.6361458,0.1723688,-0.1270844,-0.5232053,-0.9627235,-0.5866894,0.27864632,0.20308052,0.34257472,-0.064280234,0.30716747,-0.40583405,0.56576085,0.65197337,0.2958626,0.2716464,-0.5463759,-0.21590066,0.60681474,-0.1987186,-0.3950378,-0.22647756,-0.38205016,-0.44907972,-0.58215,0.77214074,0.116320916,0.3371171,-0.19917876,0.804433,-0.5531078,-1.0901216,-0.7602374,-0.463955,-0.26180238,0.24357116,0.19198309,0.2656222,-0.09916797,-0.14184977,0.19583824,0.27447784,0.044387057,0.43606955,-0.49165878,-0.044115636,-0.15276884,0.27999976,-0.32624105,-0.18992713,-0.0071243197,0.09286978,0.25698784,0.53411734,-0.79093736,0.46603307,0.4758489,0.12344605,-0.076787904,0.64049727,0.49575135,-0.13915153,0.47670567,-0.7630724,-0.36938933,0.06494811,0.20979458,0.6250446,-0.25164086,0.18696047,-0.30124334,0.6455285,0.20696421,-0.40093815,0.13304824,0.3546841,0.011548152,-0.34029594,0.38623822,0.1001317,0.5348292,-0.9097124,-0.33607203,0.35974208
4461:TURKEY_CREEK,-0.082057595,0.5348093,0.24736942,-0.281515,0.48467475,-0.12825789,-0.6926294,0.21996284,-0.39158905,0.5161578,-0.6482461,-0.09291539,-0.74905485,-0.42652428,-0.17710051,-0.075550295,0.062412124,0.1667424,-0.06972584,0.70224273,-0.05217972,-0.055621196,0.17559452,-0.16876745,0.16114753,-0.14309454,0.3755395,0.16780463,-0.54180366,0.16615708,0.0058472,-0.26846617,-0.1846035,-0.58845276,-0.060715564,-0.62154335,0.22332127,-0.53177017,-0.7058577,-0.32056862,0.8407315,-0.25327775,-1.0067946,0.82340986,-0.4020123,0.48885033,-0.0229659,-0.9433527,-1.0203859,-0.51672775,0.29551944,0.6330763,0.43903223,-0.32739133,-0.19989301,-0.18098722,0.51324683,0.7069944,0.27844858,0.43548143,-0.7661981,0.2106199,0.7793333,-0.030434556,-0.39055744,-0.41849983,-0.35804808,-0.40884468,-0.41765836,0.8066585,-0.024261747,0.32127345,-0.17827329,0.6259088,-0.54595816,-0.9627171,-0.82617444,-0.569873,-0.4206599,0.304648,0.05840091,0.11144336,-0.13394699,-0.096118696,0.22317047,0.26326355,0.27528736,0.8851276,-0.39256868,0.059995387,-0.47527355,-0.07111099,-0.6427718,-0.467774,-0.31147394,-0.031969536,0.2693612,0.13871354,-0.5740352,0.50243425,0.25794053,0.1694123,-0.5875461,0.59433794,0.8305556,-0.11910558,0.6381116,-0.75720876,-0.40126294,0.37081707,0.104426995,0.33117887,-0.54107565,0.41723377,-0.49869815,0.5418679,-0.05565161,-0.3071321,0.42071512,0.7174406,-0.09386544,-0.26255316,0.40145263,0.1303798,0.4167934,-0.4560767,-0.41232705,0.18323615
4518:MENO_TAP,-0.07848101,0.23318756,0.41435188,-0.2674809,0.11457994,-0.14580762,-0.36085683,-0.053369284,-0.13596515,-0.15522602,-0.08729985,0.19303863,-0.2996568,-0.15464818,-0.256677,-0.33588552,0.31001225,0.08785617,-0.27136594,0.16004106,0.19474241,-0.10720686,-0.06112355,-0.07437078,0.19663551,0.15710476,-0.0060269227,0.027965065,-0.2739832,0.1867264,-0.2554341,-0.15664616,0.12811932,-0.21781828,-0.031754106,-0.354301,0.07819864,-0.25657627,-0.20796818,0.018361561,0.32453218,-0.008458426,-0.34257117,0.13757873,-0.18755656,0.21353136,0.091068394,-0.49786332,-0.49015957,-0.287628,0.10941923,0.24902515,0.24192026,0.13174196,0.024889177,-0.035350192,0.24015655,0.35677198,0.049124464,0.085176386,-0.112468414,-0.015115042,0.23209114,-0.098361045,-0.010194954,-0.26323396,-0.2922186,-0.2265129,-0.2765341,0.19398513,0.23715357,-0.17755745,-0.3465817,-0.14934352,-0.22706081,-0.3755852,-0.21849267,-0.28170958,-0.09950924,0.27231812,0.112054594,0.32014292,-0.08256739,-0.083885916,0.17395031,0.07390478,0.016842756,0.17317413,-0.383805,0.32795635,-0.17090842,-0.15019178,-0.31810656,-0.038383443,0.13867733,0.20038621,0.35164618,0.023672307,-0.2752885,0.10593658,0.121810876,-0.07809333,-0.052591845,0.2920297,0.37476078,-0.103212215,0.463841,-0.40019324,-0.40280414,0.11405629,-0.018218413,0.3307552,0.11438618,0.13696799,-0.23780836,0.10618423,-0.14383662,-0.1114786,0.16637719,0.534071,0.12447784,-0.35585272,-0.009251398,0.15905051,0.18678997,-0.29948723,-0.34055752,-0.14684021
4528:SALINE,-0.040437445,0.40218598,0.24784291,-0.2622961,0.19685136,-0.25239688,-0.34615716,0.08884607,-0.2625044,0.54663664,-0.1938129,-0.34464067,-0.32155007,-0.22923358,-0.09096325,-0.30031335,0.31333444,0.057522923,-0.20909834,0.47495145,-0.15451622,0.10507847,0.09609177,-0.00085222675,-0.07210273,-0.07034598,0.043876085,0.15895148,-0.4143769,0.34954584,-0.12516803,-0.050710183,-0.20085248,-0.50012374,-0.17994925,-0.5319924,0.2766394,-0.52005744,-0.50119036,-0.39957032,0.7038493,-0.17147405,-0.5274861,0.3232003,-0.4174378,-0.016889399,0.03854235,-0.55980825,-0.55565804,-0.22338505,0.40703812,0.52509695,0.31877524,0.031088997,-0.14652473,-0.22594206,0.57155114,0.3125138,0.290773,0.45896277,-0.46705228,-0.05076916,0.5124186,-0.00859774,-0.5000479,-0.008285067,-0.1779247,-0.22348823,-0.17187269,0.4892598,0.040804885,0.19950694,-0.22103462,0.48183054,-0.45209572,-0.51728797,-0.39744028,-0.5742336,-0.3342262,0.2470261,0.058431875,-0.07297851,0.07195559,0.015128281,-0.032266963,0.032250907,0.27227047,0.46517438,-0.15167089,-0.10237752,-0.32634765,-0.29641184,-0.3289842,-0.1428206,-0.4693992,-0.062326893,-0.065969065,0.16645165,-0.360066,0.31391284,0.24626444,0.19129352,-0.2229485,0.62563926,0.54757285,0.16230966,0.35957733,-0.4749715,-0.20217568,0.009824044,0.079841584,0.22239771,-0.37717953,0.296431,-0.557368,0.38574573,0.07584522,-0.09895702,-0.14982943,0.31333044,-0.20613955,-0.114342265,0.25639173,0.100813664,0.33417043,-0.4215387,-0.094221786,0.235759
4606:CEDAR_AVE,0.030263957,0.6176543,0.3187794,-0.37175834,0.27853382,-0.16294955,-0.479248,0.2365608,-0.4773394,0.8538372,-0.2726759,-0.18304057,-0.29603603,-0.39824748,-0.14920186,-0.3145966,0.23985393,0.3202476,-0.1640798,0.58762604,-0.102688305,0.09112482,0.24244896,-0.09498752,-0.0018060294,-0.020814521,0.3149078,0.19358583,-0.63495404,0.40709472,0.27165446,-0.25875515,-0.16365394,-0.64596355,-0.28366172,-0.80781966,0.29895812,-0.81135976,-0.9985982,-0.41481903,0.9022399,0.014705187,-0.90335953,0.7523315,-0.5520977,0.19293603,0.009934415,-0.98740953,-1.0100309,-0.680028,0.49198225,0.56212616,0.3756073,0.14526096,0.04198515,-0.2910217,0.6360046,0.68120354,0.41406772,0.4946207,-0.72614425,0.10070233,0.5552168,-0.05767019,-0.3734078,-0.3442226,-0.4910095,-0.61935323,-0.29870978,0.8552459,-0.123438306,0.30782312,-0.22639109,0.95346117,-0.63598514,-0.9618348,-0.98589915,-0.53900266,-0.72210073,0.17755723,-0.0012924565,0.23640746,0.032126397,-0.21345438,0.19736946,0.35706097,0.14410011,0.88856244,-0.42880118,0.054595653,-0.62329763,0.0057755793,-0.52050537,-0.10845143,-0.5111787,0.08133113,0.1913914,0.4146152,-0.81784964,0.76736253,0.3673707,0.09589552,-0.43998313,0.7664489,0.7063728,-0.09444577,0.37724113,-0.86092526,-0.32744595,-0.07842429,0.17463061,0.48366,-0.7248772,0.5762781,-0.5966796,0.87644607,0.3192984,-0.5029837,-0.056817226,0.5174087,-0.49228624,-0.5140059,0.3282545,0.09053207,0.6871298,-1.0690937,-0.14821057,0.24322373
4608:WOODWARD_DISTR,-0.025325848,0.63808435,0.31561962,-0.1944187,0.3072876,-0.092157684,-0.5130482,0.39895108,-0.40722007,0.83129036,-0.37418124,-0.23469979,-0.39985824,-0.49726033,-0.18604697,-0.3674225,0.19970754,0.37300378,-0.3107481,0.54935956,-0.1242789,-0.030074745,0.18767628,-0.017251477,-0.12738034,-0.10583761,0.2895755,0.1738366,-0.5515861,0.51188993,0.043625344,-0.091635294,-0.06004766,-0.62579733,-0.28859183,-0.8055355,0.2876336,-0.817228,-0.93689644,-0.41076443,0.7604774,-0.07739128,-0.7977572,0.8351936,-0.54466367,0.26582712,0.10079018,-0.7286764,-0.9958746,-0.72216654,0.4993981,0.7326744,0.4732735,0.044981018,-0.087217696,-0.15271936,0.7354165,0.6671823,0.47947553,0.5343281,-0.82577735,0.12891336,0.50555325,-0.04424387,-0.40513474,-0.24945821,-0.4606056,-0.52360666,-0.48528948,0.7389309,-0.08393811,0.29189652,-0.15916684,0.7871313,-0.565185,-0.8569458,-0.83556026,-0.6654008,-0.64817065,0.30710635,0.011013865,0.073445514,0.17611015,-0.12577467,0.14133595,0.29823786,0.30238333,0.89835304,-0.20134534,-0.047566473,-0.66935223,-0.16275047,-0.55789286,-0.15594141,-0.70358133,0.008311375,0.018342782,0.43463,-0.8370505,0.46672326,0.3437344,0.15610307,-0.35603032,1.0724887,0.7629645,0.056287,0.58780986,-0.66994643,-0.3501448,0.16877475,0.25807387,0.42904955,-0.9003294,0.49615562,-0.70286167,0.879391,0.39624104,-0.37359095,0.07464045,0.5790536,-0.58341,-0.56480336,0.63105404,0.11420262,0.68787616,-0.8155857,-0.04634911,0.3180352
4611:DEWEY,-0.05225172,0.43868077,0.3071469,-0.44905153,0.24073857,-0.19195229,-0.41322565,0.3627524,-0.37674084,0.5014474,-0.40552235,-0.12538634,-0.32094917,-0.36534837,-0.17750081,-0.25133657,0.2550085,0.13913853,-0.16473883,0.44233662,-0.037503,0.007812495,0.121103294,-0.08231203,-0.036917016,-0.09430704,0.26346532,0.1589478,-0.3997078,0.32368335,-0.034842152,-0.30776337,-0.042706147,-0.63372236,-0.08787771,-0.6154009,0.25555953,-0.5493934,-0.7111841,-0.42431086,0.8197647,-0.15191461,-0.7912533,0.53678733,-0.43918484,0.3112361,-0.08210601,-0.7587968,-0.8809496,-0.4447396,0.37731698,0.5308214,0.46821374,0.026696056,0.009808943,-0.24192768,0.49842632,0.6609811,0.20946336,0.36096054,-0.65863234,0.055952717,0.5414706,-0.1151653,-0.45239562,-0.22954968,-0.3553829,-0.49964386,-0.40093434,0.7043256,-0.05324639,0.1764782,-0.21996096,0.54133767,-0.61414117,-0.6517648,-0.64416575,-0.48645115,-0.3659066,0.3008297,0.16128837,0.2518773,-0.15591961,-0.04825427,0.29465875,0.13115731,0.22590682,0.66542375,-0.22047828,0.22334903,-0.36188748,-0.15351433,-0.507313,-0.16780922,-0.33500034,0.10660187,0.027836466,0.2752583,-0.5762556,0.4631122,0.2738869,0.16928169,-0.30375797,0.637053,0.75841725,-0.26176003,0.46230596,-0.6268599,-0.35422525,0.07054855,0.037252996,0.30026203,-0.51644254,0.45965877,-0.4166465,0.5934321,0.009858652,-0.33930364,0.051501967,0.4780718,-0.2764797,-0.37859368,0.24827717,0.13467894,0.44392475,-0.5143383,-0.22633657,0.08217486
4616:NEWMAN_AVE,-0.16237995,0.3829559,0.36515203,-0.41581875,0.46122366,-0.21436521,-0.29478297,0.23722291,-0.241578,0.41376945,-0.24710056,-0.012641815,-0.36294025,-0.2637909,-0.13897708,-0.23572953,0.23487888,0.12473771,-0.11949301,0.4118455,0.035136856,-0.1604856,0.18358487,-0.07994447,-0.09035714,-0.15067434,0.267708,0.066040754,-0.5263347,0.27193576,-0.0818589,-0.33067203,-0.03608901,-0.54107183,-0.090283915,-0.6890976,0.14772432,-0.6662488,-0.48380256,-0.45885557,0.78423923,-0.07512968,-0.6754087,0.5271185,-0.5265337,0.18914959,0.11086027,-0.63048565,-0.86024404,-0.41828302,0.31581032,0.6308421,0.16803233,0.068350606,0.06421358,-0.1364691,0.4954015,0.75337005,0.27636734,0.3397987,-0.46962065,0.12658003,0.42124522,-0.17196412,-0.41692933,-0.29700005,-0.42557544,-0.32298562,-0.2805938,0.76358473,0.04457631,0.21022058,-0.1485549,0.61792237,-0.52123743,-0.6592166,-0.5340981,-0.5512795,-0.51674336,0.26154497,0.2050783,0.20437707,-0.13446552,-0.08465401,0.23034209,0.21988764,0.30378923,0.7038447,-0.13041963,0.13101453,-0.47710618,-0.11215276,-0.6117629,-0.16893995,-0.43243045,-0.09216066,0.116911925,0.432301,-0.507983,0.52561074,0.5087271,0.27048585,-0.24096373,0.72543204,0.76804787,-0.12688757,0.30750898,-0.584626,-0.19714163,-0.026701635,0.09472432,0.4010245,-0.5908828,0.24156031,-0.47965044,0.59539497,0.256862,-0.47412035,0.046554986,0.478318,-0.35661748,-0.27782083,0.38526726,-0.037900295,0.43181905,-0.5867258,-0.18933439,0.29933947
4705:ALVA,-0.010437035,0.42162398,0.30049977,-0.12799942,0.26531464,-0.085214786,-0.36812484,0.43776953,-0.16371965,0.4633444,-0.41571286,-0.050497524,-0.19926775,-0.26633647,-0.18300505,-0.25757614,0.30753347,0.15849331,-0.24640386,0.48873982,-0.18360978,0.0905447,0.087878704,-0.109207615,0.01896382,-0.1456117,0.21150622,-0.017930223,-0.4529624,0.098874964,-0.028676577,-0.115083344,-0.18312134,-0.43583262,-0.19250897,-0.6094156,0.1369651,-0.6325905,-0.4815971,-0.43253332,0.61784375,-0.112204395,-0.49454182,0.4272481,-0.3698815,0.09948612,0.06409361,-0.56906563,-0.58112204,-0.35963047,0.47159508,0.50322646,0.31980038,0.02567996,0.025152704,-0.1422376,0.57991713,0.44351724,0.22296871,0.3736527,-0.4924323,-0.040828604,0.44852236,-0.052960865,-0.37032983,-0.16017833,-0.13497521,-0.21496338,-0.1122901,0.4879469,-0.13873193,0.33175358,-0.310169,0.52504355,-0.5326772,-0.60130495,-0.39693466,-0.5650493,-0.38283625,0.12694797,0.09271802,0.1080919,0.12362181,-0.044971276,0.07213092,0.11534807,0.23095348,0.61612934,-0.1193391,-0.048133638,-0.17238629,-0.2021672,-0.26015612,-0.1337834,-0.43249726,-0.14346722,0.10404324,0.257209,-0.44963124,0.3790384,0.22620462,0.19925728,-0.22158043,0.55539185,0.6442244,0.07810141,0.2124184,-0.50473064,-0.21669145,-0.031993657,0.12705128,0.23690829,-0.49780875,0.38662675,-0.53197163,0.4345443,0.19833413,-0.1983875,0.1095636,0.37149158,-0.37726286,-0.30179635,0.31208238,0.11497729,0.38278455,-0.69115335,-0.06418922,0.23142853
