281 128
8522:MIDWAY -0.16127011 -0.0037515878 -0.010444678 -0.14841501 -0.17167005 0.287165 -0.15671313 -0.20225097 0.20504123 -0.13964535 0.009884447 -0.012045744 0.15922606 -0.055273443 0.047065265 0.09471266 0.16069764 0.16526888 0.32006055 -0.25182974 0.043404344 0.015421069 -0.045914866 -0.18198702 -0.3011272 -0.0889035 -0.24404013 -0.07978617 0.25817326 -0.16467266 0.25135052 -0.123617575 -0.16993241 -0.20429538 0.16620547 0.12802514 -0.12037936 0.042647768 0.03550554 0.23233645 0.14507724 -0.029746234 0.0854893 -0.15795189 0.06966198 0.06603694 0.12731567 -0.13018905 -0.1626833 -0.24184452 0.05693858 0.13736777 -0.12808423 -0.115538284 0.12257776 0.058550622 0.075206876 0.07266841 -0.27619252 -0.22829519 0.09087114 -0.042583067 -0.024568226 -0.07081573 0.21900532 -0.038374595 -0.06931954 -0.1042559 -0.22599404 -0.11742763 -0.291913 -0.24807762 -0.35854477 0.046549752 -0.07041672 -0.09390307 0.10426584 0.16861105 0.047859 -0.14014688 0.13988495 0.055898283 -0.18280496 0.06977895 0.15523767 0.32700896 -0.21363707 -0.0697371 0.1108801 -0.13462591 -0.0908579 -0.03586461 -0.19058666 0.0666628 0.08091838 -0.06729699 -0.013550248 0.09419581 -0.20743811 0.24628653 -0.0729758 -0.34949824 0.10504123 -0.044640195 -0.003509369 -0.22943948 -0.18636236 -0.15268658 0.17319503 -0.09917614 0.12950762 0.024515582 0.059471514 0.29482558 0.08843486 0.03617391 -0.051257245 -0.064469755 -0.089579724 -0.23480378 -0.06677057 -0.010046933 0.022119755 0.29723653 -0.09016917 0.11911077 0.015165977 -0.110081986
8621:DRAPER_LAKE -0.119659245 -0.3004223 0.06508255 -0.19805141 -0.16996485 0.23554866 -0.23754856 -0.009018107 0.2871464 -0.017522106 0.08244644 0.0283762 0.03706327 0.08286694 0.061211728 0.048164118 0.3265773 0.17307915 0.2799833 -0.14285387 0.076751605 0.179772 -0.14314695 0.0029688713 -0.27176195 -0.08523223 -0.22773044 -0.1223069 0.37526953 -0.1544003 0.09050915 0.021599848 -0.19984004 -0.053451367 0.26498064 0.041991275 -0.002222269 0.060824983 0.068161875 0.24130479 0.14793219 0.18561639 -0.07611411 -0.23746657 -0.0074182902 0.15620968 0.19719498 -0.12100705 0.084588684 -0.20476265 0.065349504 0.13355516 0.12368345 -0.09870407 0.5039085 0.11139257 0.06439734 -0.10621622 -0.05839702 -0.33720443 0.104041345 -0.17517151 -0.074903496 0.11641156 0.15351994 -0.05564277 0.065512374 -0.049436573 0.015891539 -0.3000474 -0.19450139 -0.243414 -0.16699205 -0.11886551 -0.15992773 -0.06306532 0.043210045 0.14489014 0.021569857 -0.062460635 0.13685 0.13222799 -0.2848853 -0.0068416065 0.03214921 0.27113053 -0.17928703 -0.036912356 0.030778218 0.099863835 0.098740354 0.04737538 -0.19893828 0.052705947 0.07231939 -0.0073538697 0.33655322 0.16021465 -0.48636946 0.23082718 -0.11086243 -0.3495468 0.121768326 0.041172445 0.03960673 -0.12512954 -0.16795203 -0.2534705 0.116388254 -0.20951831 0.13458416 0.037501596 0.08006443 0.11351873 0.055156082 -0.014012031 -0.10807991 -0.17949133 -0.16580768 -0.2349855 -0.107149646 -0.08885675 0.058178723 0.19027083 -0.19127184 0.035362843 0.04454028 -0.15709645
8519:NE_10TH_ST -0.11241105 -0.20805976 0.0016046253 -0.24964556 -0.28098613 0.14805973 -0.19917877 -0.17995161 0.06604126 -0.056347154 -0.11994579 0.099504 -0.009835182 -0.08032285 -0.06862553 0.029234177 0.0958462 0.24729018 0.19890778 -0.30182594 0.048118487 0.10972879 -0.14141583 -0.05169249 0.0075191758 -0.14230253 -0.109203205 0.0076294057 0.27950186 -0.042281255 0.008523111 -0.11480961 -0.15474088 -0.18856251 0.09846774 0.16201323 -0.042891115 0.047575634 -0.06514453 0.027056018 0.0030290994 0.057667516 0.11856296 -0.2986229 -0.04910717 0.008254406 0.18044232 -0.017786296 -0.20364757 -0.1837737 0.042657856 0.0030611586 -0.14891401 -0.011806513 0.18204403 -0.01813584 -0.14009255 -0.07330341 0.056491185 -0.1594936 0.2013714 -0.119284004 -0.0056938506 -0.030216029 0.22762464 0.023494137 -0.030514676 0.043461427 -0.07839349 0.023802143 -0.19328082 -0.1798529 -0.30564564 0.06707014 -0.12951069 -0.12823644 -0.025602564 0.14608353 0.041865014 -0.09947095 0.097739525 0.09047303 0.032902844 -0.05618962 0.17924681 0.15037276 -0.1759147 -0.07010403 0.046189036 -0.027301472 -0.09246946 0.10291378 0.039449837 -0.030687457 0.057008177 0.0010478145 -0.03321974 -0.06642185 -0.16319183 0.08764457 0.17072019 -0.082363136 0.18982841 -0.06326928 0.02608127 -0.1292875 -0.16350095 -0.12903096 0.07495928 -0.104432546 0.14193024 0.030399514 0.08072334 0.31047565 0.23504345 -0.013499685 -0.17616846 -0.10481143 -0.11866011 -0.091147736 -0.108862564 0.08084104 0.023079941 0.3236438 -0.021609722 -0.012192444 0.001531442 -0.23218407
8245:COUNCIL -0.002389836 -0.09495995 0.07617144 -0.25064355 -0.20807333 0.29981646 -0.153356 -0.16346069 0.08581705 -0.084470235 0.049775593 0.001885737 0.17236863 -0.06121534 0.0018697721 0.11099586 0.23403844 0.28514576 0.35635325 -0.22482939 0.1498884 -0.09311188 -0.08467918 -0.049973484 -0.24906996 -0.10414818 -0.1983868 0.081352666 0.23214754 -0.101034634 0.1824106 -0.031089205 -0.24212769 -0.13687132 0.26756337 0.19579165 -0.2010525 0.075410895 0.025052914 0.24019744 -0.044409417 0.026535263 0.10621944 -0.25276905 0.026813675 -0.09393683 0.10767646 -0.08953591 -0.20327573 -0.111336276 0.12141321 0.03040599 -0.02866414 -0.11092881 0.09053059 0.09330584 0.06056473 0.09530004 -0.17758977 -0.28259203 0.12500112 -0.120849565 0.06829733 -0.009938834 0.1878454 -0.066836916 -0.019801827 0.009655566 -0.17065284 -0.072547615 -0.1448882 -0.12831454 -0.23833396 0.054720983 0.01400508 -0.13448311 0.21151212 0.2681866 0.05309266 -0.158678 0.1083655 0.10800008 -0.16238187 -0.120183825 0.19197427 0.29504782 -0.20162226 -0.07628681 0.090166815 -0.055004023 -0.039870128 0.018602574 -0.025180092 0.026384925 0.10467665 -0.051596105 -0.033128504 0.108198814 -0.3160044 0.22236064 0.05778916 -0.3391101 0.02448316 -0.04532302 -0.008009903 -0.1520653 -0.12932149 -0.1235608 0.09980716 -0.0287757 0.08972876 0.0005742699 0.14575772 0.2920307 0.19642068 0.008682335 -0.024969358 -0.03854225 -0.11044864 -0.27747002 0.0068067503 -0.061465353 0.18237215 0.3048777 -0.09289409 -0.039111286 -0.011473781 -0.14530115
8312:BELLE_ISLE_STA -0.16784061 -0.0029570493 0.020996783 -0.20167643 -0.190804 0.2748481 -0.20577356 -0.1573995 0.22575451 -0.031916894 0.07940223 0.05962721 0.08168126 -0.023679323 0.014634942 0.13036866 0.18597232 0.29552588 0.3855192 -0.21381468 0.1528947 -0.027051758 -0.13841996 -0.08989035 -0.16275913 -0.08578685 -0.13369198 -0.081580706 0.18359774 -0.12197603 0.13549317 -0.117869526 -0.1881273 -0.21328858 0.23713286 0.19765463 -0.22946487 0.042932555 0.047997877 0.20513906 0.09567277 0.045318417 -0.0034329456 -0.22796772 0.03385258 0.01758146 0.25543535 -0.12537816 -0.059149414 -0.09439335 0.117430285 0.07702406 -0.11474276 -0.041906875 0.08643973 0.12253385 0.114348695 -0.04231797 -0.057452694 -0.07112742 0.08119848 -0.16664219 0.057082333 -0.057376016 0.23767748 -0.05002269 -0.0778264 -0.017632777 -0.12585416 -0.09574023 -0.13401783 -0.21402436 -0.35396332 0.083896466 -0.12899971 -0.07360264 0.14570363 0.15857168 0.011832759 -0.05232309 0.17933509 0.14467807 -0.24218333 0.05462314 0.108459935 0.286972 -0.13942982 -0.165092 0.11130115 -0.14010724 -0.056000914 0.017146003 -0.10445703 0.11078477 0.016301049 -0.08137293 0.07920857 0.12959859 -0.43478754 0.21291354 0.08309013 -0.23949504 0.19759259 -0.1980986 0.062443767 -0.25949812 -0.15725617 -0.21812248 0.13270298 -0.11837374 0.16819982 -0.01088409 0.029718969 0.21362144 0.17392619 0.0007027421 -0.078077175 -0.08930575 -0.14839035 -0.14574157 0.013200049 0.04698147 0.09089132 0.31309733 0.04236149 0.059065767 -0.0057199546 -0.20138778
8434:DEEP_FORK -0.14544334 -0.07429289 -0.0044365744 -0.1987447 -0.24051872 0.37081137 -0.16631334 -0.17966795 0.14536904 -0.005469572 0.029660732 0.059897646 0.22892068 -0.1485015 0.075898014 0.07934114 0.25113946 0.2371559 0.35800865 -0.26039904 0.062069487 -0.0739465 0.0063723833 -0.12718284 -0.36872697 -0.036475804 -0.08401123 -0.00033082507 0.19384174 -0.10447226 0.11162355 -0.1394711 -0.0931816 -0.20697631 0.10161508 0.04750102 -0.21659829 -0.0274203 -0.06888469 0.20174651 0.06946857 -0.095657684 0.09120525 -0.21210006 0.091263555 -0.015414101 0.24461338 -0.09755598 -0.10554737 -0.1250243 0.06589131 0.026434826 -0.21822843 -0.07761446 0.12451111 0.08488591 0.05021476 0.035506546 -0.15633868 -0.18275179 0.11599954 -0.2272995 0.02203061 -0.091404244 0.2846267 0.03487809 -0.10881661 0.014125978 -0.16294196 0.00034402666 -0.243718 -0.101853244 -0.35318735 -0.016713439 -0.06866622 -0.010927847 0.11205862 0.20354529 0.0085127065 -0.13785537 0.1513773 0.05060712 -0.068800785 0.03597549 0.2646756 0.27384257 -0.16280353 -0.17259349 0.0759263 -0.008944382 -0.10836156 0.03825424 -0.093483105 0.026662033 0.011908965 -0.032145526 -0.012267818 0.017099276 -0.31799638 0.1238017 -0.0046632723 -0.2467728 0.06571637 0.004754847 0.043052133 -0.18875815 -0.09300182 -0.2635282 0.21431072 -0.1428175 0.070187934 0.06399044 0.12731019 0.28178248 0.22010224 0.00923118 -0.13194743 -0.06661289 -0.09172188 -0.2561903 0.0265292 -0.00025064143 0.14769337 0.30706367 -0.11015418 0.14413571 0.019060442 -0.14103419
8398:CHISHOLM_CREEK -0.12622188 -0.11976002 -0.09121263 -0.19980219 -0.18014775 0.35868818 -0.1394147 -0.263396 0.12387473 -0.05049689 -0.076027006 0.04998505 0.14646868 -0.1221889 0.08659139 0.1690928 0.071317606 0.21491265 0.31422424 -0.2344 0.1020429 -0.06260367 -0.11112651 -0.05577081 -0.25142866 -0.038463373 -0.10680735 0.026287084 0.14118199 -0.1695253 0.04154115 -0.14309286 -0.2838924 -0.18952164 0.159466 0.12451751 -0.100316726 0.14926012 0.09431313 0.19570096 0.078684315 -0.05444495 0.118268475 -0.19694646 -0.02575076 -0.040191244 0.24771163 -0.1097629 -0.19683689 -0.124317095 0.080820486 0.05118682 -0.051152553 -0.13575119 0.025232391 0.15513067 0.20350845 -0.005907324 -0.10939943 -0.18878107 0.11403515 -0.065543845 0.07057215 -0.06726708 0.3074982 -0.020871239 -0.070722945 -0.0694504 -0.09001964 -0.08132345 -0.2475341 -0.19974506 -0.27412122 0.06668802 -0.06654227 -0.045728125 0.06391682 0.08424264 0.065140195 -0.0151225105 0.20618343 0.08083036 -0.15843827 0.06035801 0.17281854 0.25666636 -0.1343782 -0.12600401 0.12560251 -0.11844889 -0.12621452 0.13411564 -0.025971051 0.09699669 0.06933138 -0.1190674 0.008955992 0.1373825 -0.32708794 0.22774047 0.09935568 -0.2320815 0.12313599 0.011417711 0.08594935 -0.19560765 -0.11185153 -0.21900876 0.11780168 -0.08748988 0.16337317 0.0018395493 0.03174183 0.2801678 0.12831092 0.07775095 -0.13114332 -0.09732543 -0.07149235 -0.1514046 0.03912708 -0.063786626 0.09438468 0.328067 -0.09791371 0.054831263 0.15031062 -0.20696431
5309:POOLEVILLE -0.23647113 0.060696315 -0.053512964 -0.26027092 -0.1776584 0.2523375 -0.10368154 -0.27205646 0.117755435 0.014978264 -0.1810643 0.068538964 -0.12570876 -0.00077518506 0.0029670356 -0.117870726 -0.072512895 0.15890439 -0.017390642 -0.1956588 -0.16241536 0.14036208 -0.0557752 -0.089908384 0.14727587 -0.008377304 -0.17100444 0.02225623 0.054436248 -0.0027498207 0.41203204 -0.08212332 -0.2175891 -0.034245946 0.03050791 0.09252934 -0.1265332 0.08406524 -0.07339285 -0.015478162 -0.0980566 0.20794706 -0.12196163 -0.13471404 0.025834009 0.07209239 0.24715601 -0.046992768 -0.062215522 0.01023572 0.06500121 0.03568951 -0.19293343 0.03569911 0.11717848 0.15036735 -0.19658107 -0.13694827 0.09698148 0.020390017 0.37019682 0.0754963 -0.22227114 0.08534961 0.14805107 0.012014322 -0.04885902 -0.03793994 0.06877847 -0.121608384 -0.11850486 -0.3478113 -0.22214238 0.13693318 0.107123755 0.05002147 -0.0085112555 0.29277074 -0.2046421 -0.42065087 0.056517012 0.09321262 0.09591852 -0.10504103 0.16276598 0.12978403 -0.14091179 -0.15575437 0.017804032 0.16704416 -0.15384865 0.2820849 0.16665071 0.07293952 0.02095448 0.055707753 -0.14848813 -0.116781175 -0.057369146 0.015182895 0.030935716 -0.026772913 0.099385016 -0.024842635 -0.094718926 -0.106786534 -0.12087988 -0.03864863 0.10448002 0.12595896 0.1246176 0.021851882 0.1628341 0.2859989 0.28477323 -0.008336408 -0.14840735 -0.034839243 0.005648711 -0.14636609 -0.14474455 0.22076231 0.06432259 0.037806682 -0.113072425 0.09136241 0.0041616815 -0.4462857
8352:QUAIL_CREEK -0.08708136 -0.032845773 0.07075352 -0.2255639 -0.21036084 0.33713692 -0.16789515 -0.15225795 0.11868282 -0.05547709 0.054974828 -0.05515443 0.009742341 -0.19936576 0.05457505 0.0865279 0.07930488 0.13296789 0.41806665 -0.19454208 0.08353422 0.023230491 -0.15224421 -0.13185452 -0.27437544 -0.055821728 -0.08493255 -0.1276318 0.26877278 -0.14855966 0.06238899 -0.048261788 -0.12563902 -0.23901476 0.1470737 0.10782891 -0.30029118 0.033806503 -0.19597508 0.21938324 0.030829882 -0.027390374 0.0829699 -0.26590088 0.012850365 0.020881508 0.1713478 -0.028819704 -0.046670094 -0.21287528 0.13564369 -0.011986573 -0.049048156 -0.10252917 0.101297386 0.015430069 0.07982397 0.045323227 -0.12445302 -0.13823755 0.14008234 -0.08840099 -0.07010676 -0.0451434 0.2694544 0.0077608875 -0.10901231 -0.12127429 -0.24690408 -0.024422606 -0.2529243 -0.1568378 -0.3649885 0.056723267 -0.008584679 -0.23498972 0.051319037 0.15264718 0.07711101 -0.124956675 0.17447977 0.07228607 -0.23701082 0.01967893 0.15636061 0.11364143 -0.16884509 -0.063890606 0.11496756 -0.07415554 -0.19186133 -0.064689904 -0.18698247 0.07913981 -0.0414997 0.063016 0.03212817 0.14818312 -0.3384895 0.17437556 0.14212337 -0.22678474 0.0306447 -0.028567718 -0.012816724 -0.15297978 -0.22672093 -0.10951037 0.1248996 -0.20639606 0.17124248 -0.021483699 0.19352598 0.3521311 0.20125867 0.037469897 -0.10794281 -0.12418922 -0.14445384 -0.18420605 -0.07342655 0.021062668 0.03564463 0.2751343 -0.12044296 0.10023986 -0.0023011595 -0.10636721
9330:SIMMONS -0.31240642 -0.036901217 -0.081406 -0.28188822 -0.15989025 0.10422625 -0.027944593 -0.070217766 0.019761933 0.09619677 -0.105098456 0.054408614 0.1563791 0.017305827 -0.020437958 -0.18155749 0.21696022 0.24771588 0.047076024 -0.24470353 0.048472233 0.09742444 0.012321053 -0.109491535 0.113400705 0.11062268 -0.13531388 -0.14151584 0.25592306 -0.040962704 0.2745271 -3.59556e-06 -0.21300387 -0.09242269 0.14867629 -0.046805214 -0.14540657 0.1633029 -0.053632732 0.07531193 -0.19004948 0.3513965 0.04713396 -0.19172639 0.046281613 0.08316214 0.4323182 0.11806849 -0.12183942 -0.06316203 -0.12898527 -0.18248118 -0.32098392 0.10469327 0.019956566 0.028903253 -0.22059038 -0.17934018 0.16379097 0.032277353 0.32782415 -0.026166417 0.03974958 0.28754976 -0.008425259 0.13672373 0.21594635 -0.18388776 -0.09950094 -0.17441073 -0.19244088 -0.34167552 -0.25276068 0.02899242 0.025364311 -0.012151379 -0.2793819 0.10578434 0.03315317 0.026050063 0.13915871 0.09975205 -0.020168584 -0.08756818 0.172033 0.1085167 0.016486473 0.12356417 0.13732144 0.093973085 -0.19902892 0.12675036 0.24920583 -0.042867627 0.08768052 0.08116892 -0.061995897 -0.16500118 -0.18030818 -0.106169336 0.059081376 0.09217772 -0.0768887 0.040427253 -0.09145233 -0.19534028 -0.32797006 0.00043077298 -0.099632844 0.028295767 0.23346159 -0.13364045 0.13654818 0.26231936 0.13738215 0.01555101 -0.17322078 -0.08357515 -0.15226148 0.13788311 -0.021217344 0.18812597 0.038044605 0.10945686 -0.2718638 0.05300789 -0.048471924 -0.4692604
9215:CHARLESTON -0.27102748 0.06943559 -0.13151552 -0.22518998 -0.1728206 0.13157426 0.006574963 -0.12226759 0.019368656 -0.050127406 -0.11296723 -0.016923057 -0.15172957 0.040212628 0.046459064 -0.08914336 -0.046495236 0.16641545 -0.077354476 -0.35716262 0.03981951 0.08286985 -0.2775835 -0.06912135 0.038217135 -0.07717974 -0.08057513 -0.051427525 0.08553524 -0.004768148 0.0709087 -0.21873431 -0.31050187 -0.24513297 -0.010563505 0.088469036 -0.040012356 0.07254038 0.015692454 -0.11590956 -0.241736 0.22092669 0.052636392 -0.115178406 -0.025788074 0.02983639 0.18739024 -0.15963788 -0.21326837 -0.003802795 -0.024860222 0.09987536 -0.12875989 0.05575433 0.1408945 0.21443929 -0.19002725 -0.024059664 -0.08624915 -0.08726675 0.43454492 0.027017465 -0.21925023 0.13066173 0.09966887 0.077695586 0.087312 -0.068820156 -0.09064454 0.051291957 -0.15410656 -0.11111234 -0.11393112 0.03610589 0.10234224 0.13874446 -0.010621827 0.19483356 -0.03222442 -0.19052552 0.13369238 0.17204203 -0.06336248 -0.03619625 0.094263025 0.048951153 0.043029793 0.05664207 0.07218748 0.20098321 -0.16685185 0.19320036 0.16111639 0.10359823 0.025454072 0.010527534 0.0999565 -0.11470491 -0.07814689 0.04479616 0.19930148 -0.061292037 0.045012787 -0.02329402 0.14983818 -0.32112828 0.03564455 -0.09281833 0.16273595 0.20278957 0.24553888 0.035082992 0.13210668 0.33501258 0.43038046 0.040049136 -0.2619341 0.024854174 -0.058360502 -0.00068531284 -0.05209562 0.36393878 0.11468057 0.0030536111 -0.0043271165 0.06044615 0.110789 -0.33888507
8308:LONE_OAK -0.14634933 -0.1440738 -0.027846495 -0.23307057 -0.2538625 0.17467286 -0.11101086 -0.2592836 0.07684162 -0.06363276 -0.04152047 -0.003743398 0.111381665 0.11576665 0.107239395 0.054304376 0.07438868 0.19210531 0.18626727 -0.28934875 0.10871396 0.06802997 -0.06606748 -0.04531743 -0.054023143 -0.14727268 -0.098389916 0.038379263 0.2850436 -0.020828504 0.22063461 -0.07196781 -0.24753627 -0.25212187 0.045246504 0.112561144 -0.012632509 -0.011813476 0.04818941 0.07924744 0.029389413 0.13411686 0.1288491 -0.19458102 0.048941545 0.19808923 0.22376557 -0.116278924 -0.17265293 -0.10534061 0.1038189 -0.016735015 -0.11502305 0.02643414 0.14359146 0.018998114 -0.059 0.03350328 -0.03876445 -0.086333945 0.19946164 -0.04264503 -0.05831874 0.021317612 0.18055226 -0.04578829 -0.10599704 -0.041998204 -0.06100425 0.039338168 -0.11898828 -0.2137802 -0.32887727 0.0901771 -0.06941303 0.019165702 0.11558948 0.12802342 0.040022627 -0.0834546 -0.0011999056 0.07764946 0.021055458 0.01188162 0.1845433 0.22819678 -0.18548097 -0.038390324 0.057598047 -0.009166924 -0.15365729 0.051660232 0.066256724 -0.033686765 -0.063293666 0.039803658 -0.038829386 -0.101604946 -0.16909486 0.017642438 0.046489723 -0.28317472 0.14669108 -0.13360411 0.07476351 -0.2073035 -0.16974513 -0.08061648 0.15582232 -0.009331164 0.12959093 0.055405244 0.12857167 0.34076533 0.24980342 -0.07175293 -0.15729007 -0.10776231 -0.093547076 -0.08781444 -0.006539995 0.11428239 0.062327683 0.1512271 0.038325623 0.00073389616 -0.05188928 -0.1949729
5508:BROWN_OG_AND_E -0.10942324 -0.12885669 -0.09356027 -0.2878738 -0.32083973 0.2662556 -0.13408764 -0.17341788 0.3401904 -0.047672972 -0.11899242 0.098736644 0.031043258 -0.12452594 -0.021109672 -0.15091242 -0.03163407 0.23833074 0.040131457 -0.4726679 0.010024937 0.28949472 -0.11265374 -0.05543464 -0.20016886 0.08219968 0.04824032 -0.14079458 0.34571218 0.021222662 0.13121581 -0.06968141 -0.25181606 0.045502137 -0.25711173 -0.047984913 -0.37532687 0.088062234 -0.005703118 -0.06698229 -0.016614513 0.12024649 -0.21259 -0.07221852 -0.021999458 -0.05533085 0.3555953 0.055344578 -0.24455102 0.003425702 0.11994477 -0.119666964 -0.17850304 0.28376853 0.06398788 -0.028448507 -0.12107044 -0.08180542 -0.077026285 0.083762914 0.41366744 -0.16337861 -0.27824318 0.344931 0.15012527 0.11007867 -0.084749416 -0.07362116 -0.10870691 -0.05189761 0.00067239034 -0.10201248 -0.2169036 -0.027564924 0.084418446 -0.0045414097 -0.008119175 0.19446552 0.1472267 -0.31180817 -0.133885 0.11167476 0.051294707 -0.06211718 -0.055518705 0.12919074 -0.03431867 0.18408123 0.16369945 0.1594234 -0.07125191 0.27220285 0.04750906 -0.12501802 0.2106248 -0.05795548 -0.2573885 -0.28659925 -0.047228843 -0.010195267 0.06935077 -0.120355025 0.02564763 -0.08924987 -0.058303382 -0.21799344 -0.1998365 -0.072151445 -0.017246066 0.2157889 0.10706443 0.13863708 0.21307111 0.35871497 0.18668501 -0.2108659 0.06707491 0.029241724 0.084282994 -0.16830046 -0.051857308 0.28939995 0.049570177 0.071394354 -0.020344893 0.1469962 -0.09472378 -0.10871869
8158:SARA -0.056903318 -0.057894833 -0.019744452 -0.23495741 -0.22660463 0.15167835 -0.15180591 -0.107137844 0.11232764 -0.019122034 -0.04831629 -0.00848886 0.064829975 0.076662675 0.061955 -0.008737067 0.090225 0.31005943 0.24815543 -0.27860662 0.156941 0.09116669 -0.14255056 -0.11309003 0.016812578 -0.12977384 -0.07515136 -0.0049525155 0.17241393 -0.029589824 0.16096331 -0.15197152 -0.21649054 -0.24502584 0.05247996 0.11689562 -0.16911921 0.17902364 0.036461614 0.06995738 0.08147867 0.108374335 0.06913647 -0.300548 -0.026377965 0.03652022 0.20296092 -0.07872724 -0.20523061 -0.13802032 0.045798853 0.014875199 -0.16933157 0.014564893 0.16251977 0.11974452 -0.180437 -0.09514264 -0.09559897 -0.03869558 0.14425848 -0.006283244 -0.006330527 -0.020645192 0.19743215 -0.017913299 0.008096038 -0.042320274 -0.14151281 -0.065858275 -0.16186856 -0.18707317 -0.36551097 0.09554265 -0.16672136 -0.18384331 -0.015861752 0.14848167 0.11063582 -0.14625315 0.03509088 0.04686215 -0.10591476 0.0014431245 0.08077854 0.27004275 -0.033672087 -0.1301118 0.036225468 -0.102490544 -0.08045168 0.03555151 -0.09505801 -0.07435175 -0.015630057 0.0022857743 -0.08887306 0.004399008 -0.19625974 0.08869145 0.020475514 -0.112686895 0.13061938 -0.12226518 -0.025422597 -0.18496542 -0.032024063 -0.004104026 0.0817846 -0.10246037 0.20507105 -0.08614232 -0.039209913 0.25509453 0.23638074 0.06397605 -0.18165061 -0.12153536 -0.18393283 -0.04134491 -0.016697096 0.09152791 0.146684 0.22386418 0.0235191 0.008253491 -0.0083800405 -0.21170215
8921:JENSEN_RD -0.15468228 -0.06717179 -0.11038126 -0.24065264 -0.22639266 0.31777412 -0.20719303 -0.2964186 0.105679475 -0.07101017 0.08297399 0.08625385 0.16194783 -0.06450238 0.05032874 0.092871115 0.14470477 0.21637069 0.3327673 -0.24217626 0.14492163 0.011576655 -0.16770251 -0.04150675 -0.22621353 -0.06368052 -0.15012425 -0.13345127 0.21796508 -0.050699215 0.034338426 -0.08309043 -0.23618686 -0.18407062 0.17253327 0.20421645 -0.12120255 0.06013335 -0.10110308 0.16684426 0.05868069 -0.015908524 0.07535561 -0.17138484 -0.0012179972 0.05774903 0.27993965 -0.009874597 -0.11913655 -0.20636448 0.092088506 0.044802405 -0.1209734 -0.061594512 0.09531327 0.13443604 0.047504995 -0.048926994 -0.10585001 -0.1303197 0.1320576 -0.11744925 -0.034274403 -0.02290388 0.19266471 -0.04473622 -0.074258804 -0.01813945 -0.3009756 -0.019691799 -0.19219479 -0.17638302 -0.31395108 -0.0053616366 -0.114488184 -0.055410005 0.08348906 0.16505896 0.11191473 -0.1318822 0.13510701 0.12499719 -0.21438748 0.075994685 0.18157141 0.2885834 -0.16231936 -0.058508012 0.019611543 -0.05832496 -0.002490386 0.10196578 -0.03816519 0.11748031 0.09845521 -0.07993446 0.07901103 0.11598242 -0.3712361 0.22847047 0.06692636 -0.22074856 0.0423483 -0.11431758 -0.014897493 -0.15134276 -0.15372397 -0.14889686 0.088909686 -0.13089003 0.14378214 0.013734358 0.055773545 0.22209275 0.13659884 0.0009901999 -0.05046997 -0.01393527 -0.12635784 -0.2112958 0.094365 -0.051428366 0.13952264 0.33018556 -0.09378112 0.05347799 -0.077194646 -0.29709208
8506:PARK_PLACE -0.15820293 -0.11613568 -0.0141391335 -0.30137828 -0.16770776 0.23666644 -0.144474 -0.122616194 0.091005675 -0.08670893 -0.06538045 0.052924205 0.098283336 -0.054288216 0.038188487 -0.031397298 0.10858545 0.20916398 0.17858785 -0.21581627 0.080560416 0.11795074 -0.12214526 -0.12291644 -0.032265525 -0.09800292 -0.10238538 -0.10254825 0.20943415 -0.08442164 0.16701178 -0.15595971 -0.23639157 -0.19868158 0.0724844 0.119652756 -0.087502316 0.15007725 -0.080890365 0.1309801 0.06349863 0.11199231 0.08059276 -0.22004099 -0.002699298 0.046729125 0.24623471 -0.12210335 -0.2537252 -0.12602603 0.013506367 0.10138452 -0.08366834 -0.044971325 0.18426718 0.062816605 -0.097123384 -0.098308586 -0.028989693 -0.057166588 0.20209728 -0.0368849 -0.0600746 -0.019514123 0.076616205 0.0114238 -0.06559564 -0.12426823 -0.16636352 0.031314805 -0.15461305 -0.11026681 -0.31292474 0.05710893 -0.14053008 -0.09703885 -0.0013018337 0.18413734 0.029717648 -0.09956399 0.04069322 -0.024655633 0.004123232 -0.0669017 0.18263987 0.2480877 -0.14902586 -0.056386683 -0.043449927 0.041869517 -0.19749928 0.08690081 -0.038009085 -0.081679806 -0.015972698 -0.02540102 -0.0819547 -0.09890256 -0.22638588 0.07378209 0.033755463 -0.122128494 0.060857143 -0.09122974 0.05251366 -0.09411772 -0.055797745 -0.06649753 0.06997205 -0.05292691 0.17390072 -0.06786838 0.11678916 0.31286448 0.33710498 -0.036769163 -0.07373954 -0.05466347 -0.18139105 -0.11536362 -0.09628867 0.13727582 0.12652954 0.20471449 -0.04266545 0.008880823 -0.12317445 -0.20876713
8151:PENNSYLVANIA -0.15005334 -0.09979773 -0.0061037266 -0.21963288 -0.276777 0.19219993 -0.14438318 -0.14484724 0.124097444 -0.09850086 -0.13818395 -0.046842918 0.01081364 -0.038816206 0.0015522921 -0.02619715 0.034820415 0.26510525 0.17509924 -0.30856836 -0.01977591 0.12651615 -0.10737353 -0.03223584 0.06845991 -0.09075035 -0.06431925 0.014161863 0.21779428 -0.0031165755 0.20094049 -0.1233765 -0.27237335 -0.21266186 0.09813504 -0.011748131 -0.041414563 0.07239863 -0.067888916 0.22107308 0.052648455 0.13817781 0.09000196 -0.25557658 0.022967365 0.06849486 0.25946084 -0.18293586 -0.17891562 -0.15322699 0.03592376 0.0058821877 -0.060923874 -0.032478612 0.14307536 0.07788409 -0.044594396 -0.035973676 -0.07070057 -0.14690988 0.14975445 -0.03385954 -0.025356332 0.027651416 0.108578146 0.052337196 -0.01858305 -0.063310206 -0.18835188 -0.09693858 -0.10389207 -0.19556235 -0.31638587 0.06410042 -0.079338975 -0.06113195 0.041068688 0.20002994 0.025829569 -0.06102711 0.14544366 0.060832165 -0.047548085 -0.058676053 0.16404462 0.11113897 -0.08156128 -0.03552479 0.094324015 -0.00517056 -0.1574959 0.02265059 -0.031813234 0.006011107 0.08943496 0.02139415 -0.1513595 -0.021259243 -0.25528064 0.108612545 0.08286509 -0.1427178 0.1391831 -0.016106734 -0.0377244 -0.13955943 -0.13346586 -0.064180695 0.16580145 -0.049439497 0.21647055 -0.002184681 -0.004418146 0.2713288 0.24775663 -0.03353369 -0.12674859 -0.1113095 -0.092278734 -0.12793005 0.0066107954 0.09017055 0.13282862 0.27682945 -0.019789184 0.043538727 -0.09838582 -0.1805162
8685:TINKER_FIELD_4 -0.12959091 0.0058762594 -0.038933605 -0.19502953 -0.21062861 0.21820174 -0.11424752 -0.14003177 0.14743038 -0.15082555 -0.073770724 0.04177198 0.058786973 -0.040527005 0.050391454 -0.025520759 0.08154822 0.23736416 0.21233168 -0.2292872 -0.0054691 0.10617281 -0.117553756 -0.124524236 0.01688967 -0.01586832 -0.16747408 -0.055866208 0.27046746 0.03148785 0.16792399 -0.15275693 -0.21244973 -0.25705045 0.13031988 0.118207924 -0.13131666 0.124988616 -0.00513583 0.10235222 0.060555328 0.012063606 0.13594039 -0.14673293 -0.041955832 0.15414038 0.2270916 -0.042907517 -0.19910736 -0.051835872 0.053189892 0.01754779 -0.13944401 0.02257987 0.18342026 0.058661096 -0.0664514 0.0095856385 -0.028296558 -0.16456829 0.21356018 -0.09936107 0.038663767 -0.05938038 0.14968772 -0.03105763 -0.032316852 -0.048379604 -0.18269967 -0.014258735 -0.16748099 -0.101681754 -0.26007116 0.07974393 -0.0912998 -0.0313541 0.038739115 0.1941231 -0.00805144 -0.08413732 0.1053659 0.0944814 -0.12113063 -0.02569251 0.21241829 0.15403154 -0.13913964 -0.04183064 0.086510435 0.064908095 -0.16353022 0.06766584 0.06914286 -0.018097661 0.020869406 -0.08743917 -0.11896593 -0.06865552 -0.16684192 0.05093497 0.016052058 -0.1439052 0.18493965 -0.13236304 0.044326365 -0.15736564 -0.024423901 -0.07382026 0.14533295 -0.02510771 0.06968219 -0.10125494 0.043941326 0.30705532 0.35703665 0.015986828 -0.14547981 -0.22131096 -0.13101645 -0.22278447 -0.051086847 0.09187266 0.045357436 0.22440211 0.029339975 0.029628983 -0.018582711 -0.20821032
8321:PIEDMONT -0.17614368 -0.11008555 -0.018330786 -0.25937676 -0.23019911 0.27069032 -0.18029398 -0.148884 0.13866429 -0.12266769 -0.096389875 0.05286372 0.021355676 -0.083938375 0.098563366 -0.008038711 0.042686235 0.23251948 0.20139259 -0.21466938 0.013253693 0.105575435 -0.060636938 -0.13945407 -0.030883726 -0.06897258 -0.13755885 -0.124243654 0.2276992 0.0057527376 0.18252164 -0.11681812 -0.20864484 -0.21909082 0.08760888 0.14223939 -0.058049567 0.0598727 0.021815429 -0.016400902 0.07824327 0.08504041 0.112933725 -0.22936611 0.058091782 -0.00039692508 0.26702616 -0.046541743 -0.18197793 -0.1539693 0.03244204 -0.020169321 -0.122428946 -0.010471026 0.17030579 0.024737127 -0.11177222 0.0077106734 -0.06686497 -0.15172812 0.16661774 0.0055892393 -0.0023687535 -0.006700322 0.13277791 0.016500829 -0.092368536 0.030378195 -0.12735303 -0.04820909 -0.101475224 -0.24866879 -0.25213712 0.08911588 -0.15885635 -0.0009028245 0.035467856 0.059827644 0.04961259 -0.15365991 0.0949836 0.0035841314 -0.02679497 -0.011498285 0.22079271 0.22123174 -0.16119725 -0.047682602 0.09381567 -0.06810007 -0.1353328 0.052768614 0.037554186 -0.030664649 0.04493687 -0.121059306 -0.021076297 -0.11814171 -0.1781412 0.15088673 0.07051897 -0.09931701 0.09456099 -0.104218915 0.014272821 -0.11979865 -0.10777504 -0.10508862 0.059170514 -0.037722763 0.20781653 0.018750135 0.028400846 0.31441638 0.21949647 -0.0053623733 -0.15377331 -0.14430182 -0.15527578 -0.16203305 -0.027493577 0.09919175 0.06536949 0.23725137 -0.04661177 0.015081265 -0.003734277 -0.21503116
4109:WAUKOMIS -0.21636365 0.0276031 0.11322213 -0.3209859 -0.15165581 0.16472617 -0.090781786 -0.18083459 0.26744834 0.03398268 -0.1407314 -0.033270452 -0.0068658697 -0.02728112 -0.11970082 -0.08070276 -0.23537536 0.15834057 0.026672527 -0.32623518 0.065488 0.32226676 -0.1771802 0.09124091 0.056435686 -0.047771875 -0.26841128 0.045869417 0.2392432 0.07794305 0.15957704 -0.07001566 -0.06900078 0.04191396 0.04506906 0.06076964 -0.071316205 0.22922991 -0.09372157 -0.209669 0.1151835 0.23710155 -0.21140055 -0.11098627 -0.015686907 0.065303996 0.36150494 -0.17115828 -0.23181905 -0.019947253 -0.100749284 0.049261298 -0.22263685 -0.09354382 0.07102513 0.102459826 -0.11543243 -0.025114844 -0.045515846 -0.019322898 0.36803892 -0.09207485 0.0038329198 0.28826267 0.04393266 0.04416578 0.05527729 -0.20260361 -0.013400402 -0.0914957 -0.3784449 -0.13847336 -0.28468364 0.13225222 -0.076911375 0.1188011 0.025246952 0.18681353 0.037638433 -0.28312632 -0.017492667 0.042485777 0.056237802 -0.06805613 0.21344437 0.21932523 -0.07624177 0.05245919 0.042054817 0.12530027 -0.17012979 0.2738066 -0.009203331 -0.020200502 0.14640997 0.13264866 -0.1209354 -0.12366649 -0.17042081 -0.005505947 0.13231474 -0.10877319 0.018561434 0.016708275 0.007394457 -0.26305142 -0.1365038 -0.09857286 0.013634672 0.03680629 0.09310872 -0.017376058 0.037157554 0.11893834 0.18212683 -0.13583307 -0.10468579 -0.06810133 -0.17095885 -0.032390047 0.09311385 0.2814242 0.010011247 0.14375597 -0.013622543 0.055721298 0.03344039 -0.36020645
8692:AIR_DEPOT -0.14048356 -0.1166225 -0.028408278 -0.3158988 -0.17629993 0.112852745 -0.08867942 -0.1448227 0.042380106 -0.071302034 -0.080777355 0.028249312 0.06355586 0.056878343 0.033167094 0.036934104 0.07576018 0.2424098 0.22934532 -0.32134986 0.07921277 0.09266419 -0.1035572 -0.08326655 -0.026436985 -0.030774917 -0.079157576 -0.030292945 0.24087283 -0.011713303 0.09039381 -0.12949707 -0.2583043 -0.25836796 0.071122915 0.1497954 -0.057562266 -0.01349607 0.007869797 0.10920878 0.0223221 0.035459567 0.09791749 -0.25093037 0.04286088 0.089969315 0.19518675 -0.058890477 -0.17184964 -0.13526957 0.024630852 0.027341725 -0.15814058 0.08408834 0.13762929 0.07674907 -0.053355873 -0.09162659 -0.10370383 -0.18120025 0.25168955 -0.10972378 -0.056376442 0.017082268 0.19883189 -0.007586005 -0.07464379 0.022673437 -0.06585391 0.0045129494 -0.18153901 -0.21037374 -0.23777375 0.08089829 -0.1387401 0.005202175 -0.019937605 0.09116696 0.0933015 -0.08563384 0.028822612 0.031496696 -0.021050148 0.01821795 0.15368694 0.19296336 -0.18460983 -0.123033434 0.08404451 0.023301596 -0.07418233 0.1032875 -0.0057685934 0.028933652 -0.023570362 -0.021691676 0.0032362936 -0.10700711 -0.16760574 0.14156206 0.07881091 -0.16369173 0.11988721 -0.022369094 0.029184127 -0.18375814 -0.13583137 -0.062040597 0.12662067 0.0010340246 0.2008977 -0.059802964 0.023184814 0.3291488 0.2321461 -0.06453763 -0.16554439 -0.058624838 -0.064296104 -0.15615705 -0.02943205 0.08405255 0.12644337 0.25094607 -0.06807417 0.0032501407 -0.03803067 -0.21470298
4353:OTTER -0.21759334 -0.2241217 0.10197853 -0.079814725 -0.20638494 0.16082574 -0.16391708 -0.030655783 0.2299361 0.023419177 -0.14260013 0.07653162 0.07977961 0.12256859 0.012053368 -0.06659465 0.09200854 0.24670875 0.03652952 -0.3071997 0.014794697 0.35013765 -0.14826973 -0.07064891 0.11202017 -0.025867825 -0.14516042 -0.1414078 0.24489577 -0.14726658 0.1303797 -0.12008334 -0.32229713 -0.10933975 0.095928594 0.10990324 -0.1814576 0.19404839 -0.014414132 0.07165145 -0.021733776 0.11736638 -0.08551115 -0.14174339 -0.04836537 -0.0716745 0.34543508 -0.12747936 -0.052621536 0.095801026 0.17470318 0.15434296 -0.07888507 0.074073866 0.14443138 0.0168459 -0.2608742 -0.16374421 -0.008047618 0.06512813 0.2451485 0.03123619 -0.11809619 0.094128534 -0.08383 -0.006978504 -0.12363768 -0.16671674 -0.16579959 -0.019017527 -0.31804818 -0.083100535 -0.24015751 0.1103263 0.019110493 0.27632457 0.046423174 0.20877832 0.13863805 -0.09190767 0.0480439 0.18650888 0.06961048 -0.07147354 0.25352722 0.23975006 -0.17437603 -0.17460193 0.09029533 0.046967328 -0.36677697 0.25764966 0.30966637 -0.0682971 0.15558076 -0.0886927 0.027951268 -0.28254876 -0.08561184 -0.053568643 0.07128711 0.022395175 -0.0053142244 0.13993104 0.11163838 0.0068482943 -0.025172379 0.025753599 0.15073116 0.114369795 0.15967353 0.17472422 0.41844988 0.13989118 0.2634697 0.09713445 -0.075652696 -0.08757619 -0.03682272 -0.1120368 -0.0074190646 0.29676944 -0.09031392 -0.05934405 -0.060404655 0.2326132 -0.30754247 -0.091408916
5816:PARK_LANE -0.38676038 -0.4758518 -0.09126482 -0.72508466 -0.11714481 0.23046793 0.3010991 -1.1633786 0.60578495 0.21752961 -0.48487473 0.16131966 -0.3975924 -0.15787938 -0.2917751 0.00183993 0.33143103 0.09172577 0.2882781 0.5430981 0.41874787 -0.07049863 0.3906476 0.1510554 -0.4518149 0.6448561 -0.3764691 -0.23933895 0.08117569 -0.77172685 -0.10799594 0.06294288 0.31016552 -0.17954122 0.08012367 0.5040263 -0.7977607 -0.47495335 -0.55054176 0.14789426 -0.044951644 -0.09798045 -0.7592376 -0.12917557 -0.21595584 -0.13577732 -0.106368884 -0.697985 -0.64406574 -0.25232166 0.29921657 -0.5573764 0.13553743 0.6676149 -0.16379726 0.16409162 0.23435915 0.15283768 -1.0554647 -0.1544583 0.29803205 0.243938 -0.95208675 0.37152094 1.0417825 0.15458378 0.28849018 -0.123959705 -0.2346455 -0.77115697 -1.0925266 -0.3145958 0.49294063 0.8362173 1.1580882 -0.462612 -0.004780777 -0.11606158 0.29325572 -0.256449 0.56971455 0.32575017 -0.08605346 -1.3818285 0.6010327 0.2656658 -1.0454111 -0.6318691 0.07982477 0.22255266 -0.05424154 0.5253674 -0.45394865 -0.118762374 1.0497165 0.23171817 0.5316424 0.14487486 -0.44761103 0.13082351 -0.29940575 -0.55066127 0.14702746 -0.68461335 0.43419412 -0.18566962 -0.13619348 -0.3321998 0.5376462 -0.29523727 0.25327012 -0.55102855 0.5648476 -0.02599836 -0.092313044 0.7070861 -0.65552443 -0.8904809 -0.6119212 0.3162572 0.15744556 -0.068116404 -0.32630605 -0.24444571 -0.70393485 -1.2439419 0.41289315 0.4480166
9125:CARNALL -0.21404874 0.15495807 -0.2746134 0.13508604 -0.007455482 -0.11371608 0.027974265 0.056591623 -0.06898022 0.10269238 -0.16779515 -0.18627216 0.12157453 -0.18219985 0.16724381 -0.039452475 -0.13769843 -0.11573001 -0.24636838 -0.11157367 -0.030914089 0.029314367 -0.2965146 -0.25929567 0.11709799 0.09335158 -0.1572839 -0.14023854 -0.011999424 0.22985597 0.10873445 -0.13697074 -0.37463078 -0.4108964 -0.11279842 -0.014895527 -0.049392745 -0.35125524 0.084669165 -0.14655437 -0.20847532 0.13430633 0.027975863 0.06495292 -0.027979461 0.12455511 0.12342507 -0.31188878 -0.24239679 0.22024998 -0.07099355 -0.13143715 -0.28691545 0.06349704 0.4360574 0.18535265 -0.2988687 -0.0041426597 -0.3702684 -0.095769815 0.695229 -0.06909155 -0.39301118 0.42046154 0.004670473 0.14501686 0.18699001 -0.36871377 -0.27944127 -0.011380417 0.015676798 0.1264105 -0.30867547 0.2339148 0.27399457 0.22334364 -0.07536439 0.33021915 0.11798644 -0.12676981 -0.11672502 0.29276273 -0.15598495 -0.09681491 -0.02695616 0.20558046 0.07733963 0.28113618 -0.0946217 0.03455332 -0.42570248 0.45946112 -0.008032247 0.17896649 0.1878274 -0.054757275 0.001414067 -0.023024613 -0.26722324 0.12477438 0.064564325 -0.3489494 0.38609198 -0.20026818 0.56653106 -0.107520916 0.08009852 -0.35130566 0.28598547 0.18407609 0.22581486 -0.051166415 0.30084333 0.6432945 0.4049575 0.2849438 -0.091105424 -0.058812693 -0.22195755 0.00547272 0.22545904 0.46166003 0.07031498 0.24272479 0.057559412 -0.25549152 0.12529364 -0.3912709
5806:VALLEY_VIEW -0.22154671 -0.12683208 -0.57738847 0.13560484 -0.3330489 0.45474687 -0.016461786 -0.7508476 0.7133821 -0.13189484 0.10453523 0.13724379 -0.0088005345 -0.12212483 0.3491002 -0.16623668 0.40726417 0.55065453 0.010127664 -0.48884952 0.5681731 -0.10312306 -0.74089754 -0.04523484 -0.41559756 0.33381423 -0.3690666 -0.038881447 0.08221194 0.101584956 0.4072014 0.28959587 -0.6702938 -0.61379266 0.059665237 0.2554591 -0.55552375 -0.21614967 -0.17716588 1.0418565 -0.12291155 0.063140035 -0.17113638 -0.4733536 -0.47595394 -0.21544112 0.2974852 -0.57313645 -0.4464038 -0.37360972 -0.17113131 -0.43275395 0.07024428 0.5131782 0.05463695 0.30539337 -0.15578115 0.11403313 -0.4766839 -0.13456513 0.39339653 -0.05002235 -0.5931252 0.06131067 0.3020914 0.04237501 0.6424747 -0.79988873 -0.4694224 -0.55626696 -0.54438144 -0.13921487 -0.5110978 0.6818769 0.54260385 0.40860265 -0.27691212 0.711761 0.28261107 -0.5966866 -0.2799767 -0.04292973 -0.7382171 -0.42797613 0.107116595 0.45094565 -0.15550464 -0.22016329 0.038898338 -0.6171634 -0.895745 0.52851206 -0.31814235 0.4019433 0.6662743 -0.11204623 0.13589022 -0.022344798 -0.9544687 0.63060695 0.06675777 -1.0673656 0.52958256 -0.6502327 0.7422812 -0.6067753 -0.6880016 -0.9927072 -0.0144531 -0.044115603 0.5080327 -0.12179277 1.0411204 0.294426 0.29790455 0.9418572 -0.6466477 -0.39510798 -0.71603394 -0.1349445 0.28483623 0.080454364 -0.113116294 0.56028545 -0.51644295 -0.3085766 0.8861438 -1.2337557
3209:BIXBY -0.37575182 -0.08043848 -0.06430673 -0.198716 -0.29633218 0.16662377 -0.12819883 -0.08258065 0.24119575 -0.13301143 -0.2821517 0.02395925 -0.056120254 -0.042988785 -0.07015017 -0.23935437 0.16342486 0.106107235 -0.05281012 -0.3162392 0.007201043 0.22613011 -0.2501241 -0.2501634 0.043083493 0.12737745 -0.20342824 -0.10879535 0.1992492 -0.099328466 0.2335816 -0.09701933 -0.1790413 0.030268358 0.22364244 0.05666663 -0.16168135 0.3141198 0.11223446 0.053641897 -0.13531725 0.057390083 0.036517594 -0.10086501 0.11113085 0.039881404 0.2802314 0.012194463 -0.001966495 0.0125963865 0.10919565 -0.19241555 -0.24072999 0.08455268 -0.012428527 0.092260554 -0.13015395 -0.033254944 -0.0772883 -0.21667743 0.25803623 0.00054457696 -0.08741247 0.066250004 0.21886356 -0.11204072 -0.084172584 0.0365961 -0.064246446 -0.09434009 -0.03343812 -0.22316833 -0.2108406 0.1566954 -0.07344978 0.09523954 -0.009614409 0.23510617 0.020329725 -0.13134672 0.08938585 0.23502518 0.23794492 0.015718311 0.015160574 -0.024642296 0.039079383 0.03469198 0.054423306 0.17250314 -0.11820513 0.13303769 0.22728536 -0.102690645 -0.0064494293 -0.07981098 0.02512526 -0.27385342 -0.18601178 0.07256027 0.034250718 -0.08903296 -0.10519579 -0.060471963 0.009637229 -0.27724206 -0.10123377 -0.1115605 0.04096937 0.012190157 0.3274932 -0.2781137 0.18288985 0.22607608 0.49673805 -0.1322978 -0.27348825 0.008135275 0.045958046 -0.12782657 -0.025023984 0.354734 -0.05505232 0.006919947 -0.03623019 -0.054436088 -0.043786444 -0.25691387
3514:HEAVENER -0.06688243 -0.329735 -0.70681334 0.21001218 -0.43109545 0.100433655 -0.031376474 -0.49711168 0.62653446 -0.056814786 -0.19952586 0.03580106 0.047504056 -0.41904083 -0.028957834 -0.2864575 0.27459124 0.33718437 0.038175914 -0.13071127 0.7190196 0.15731524 -0.7659788 -0.29729846 -0.5390673 0.3330435 -0.3108474 -0.5649899 0.28402078 -0.27910691 -0.029075868 0.25134265 -0.38128626 -0.73039293 0.22287981 0.26343405 -0.68225574 -0.6726679 -0.81430215 0.26224118 0.04978384 0.45789558 -0.32676852 -0.3863432 -0.16364191 -0.25892615 0.57661027 -0.8072394 -0.9302961 0.024785874 -0.20012523 -0.8212709 0.041494835 0.35634553 0.09923683 -0.15156524 -0.229643 0.13905348 -1.0962528 -0.3663068 0.5747622 0.123618856 -0.34686977 0.15123321 1.0221592 0.15741423 0.53119236 -0.41789153 -0.7333037 -0.88166034 -0.59768397 -0.32405123 -0.45717674 0.6980251 1.0868143 0.12437132 -0.2593726 0.32124 0.1825281 -0.49396974 -0.44391707 0.12083219 -0.15158913 -0.8389529 0.29311106 0.10933514 -0.4754067 0.26221246 0.07701726 -0.29226547 -0.48587173 0.6308761 -0.44592178 0.02211996 0.9305536 -0.01567489 -0.18307771 -0.34981522 -0.34871784 -0.031946484 -0.0069606067 -0.57633495 0.3298316 -0.590869 0.5831601 -0.29390827 -0.28083393 -0.93246806 0.14958143 -0.39569217 0.20532429 -0.026691662 0.86108994 0.5651366 0.19990982 0.66529036 -0.636463 -0.4449334 -0.13523306 0.012120603 0.11310561 -0.1794975 0.1858842 0.23716347 -0.4776543 -0.084431514 0.2034089 -0.16208471
7312:JUMPER_CREEK -0.20165013 -0.0854345 -0.09431934 -0.33177295 -0.15867625 0.365903 0.026309429 -0.05782286 0.09116343 0.22850348 -0.123493455 -0.050716706 0.24070069 0.026530098 -0.08652249 -0.23253378 0.07476468 0.3586497 0.1191138 -0.50521475 0.052338514 0.14530307 -0.27406785 0.13801938 0.11248236 0.03890116 -0.11651852 -0.030661615 0.115743436 0.11571681 0.29166645 -0.071022324 -0.18598762 -0.14528027 0.046954226 -0.091556124 -0.27661043 0.17550248 -0.07267805 0.021922726 -0.15500224 0.29541442 -0.08057846 -0.23272732 -0.04961763 0.058764156 0.2477059 -0.026522184 -0.036902796 0.22202541 -0.15299967 -0.1412962 -0.28483614 -0.056934334 -0.06302904 0.05251556 -0.17375842 0.045521062 -0.04458636 -0.038023483 0.5048916 0.04723656 -0.05470208 0.07980371 0.12892352 -0.057608392 0.08626311 -0.030068165 0.07763463 -0.053814594 -0.092717014 -0.19841968 -0.1300138 -0.008311832 0.04001505 -0.07592173 -0.06486494 0.2600677 0.024871016 -0.26356938 -0.14776105 -0.03687403 0.0035223116 0.16422117 0.091065936 0.3669319 0.03612699 0.05214993 0.0015634234 0.18950142 -0.0058637727 -0.0058896895 -0.00601767 0.21764229 0.11658789 -0.08444734 0.21889189 -0.20683007 0.027707832 -0.1758636 0.10569693 0.1252211 -0.046727847 0.103645734 0.11933808 -0.29751968 -0.12613238 -0.3487428 0.047399737 0.10032254 0.20277616 -0.005909732 -0.087697804 0.028352303 0.09544483 0.058157563 -0.13260907 -0.09025056 -0.004176594 -0.0259051 0.053445674 0.36033788 0.12553176 -0.07032603 -0.070554286 0.046227552 -0.15181534 -0.19731687
9117:BARLING -0.3673859 0.12140584 -0.49142644 0.1090303 0.19494462 0.44765523 -0.17384516 -0.050580334 -0.06497634 0.33659363 -0.5422823 -0.25722754 0.13934289 -0.053473342 0.031598 -0.21804547 -0.23776785 -0.15364812 -0.2124927 -0.47259358 0.09438157 -0.14658661 -0.2212416 -0.23289143 0.030106496 0.5943543 -0.17311141 0.05865476 -0.101054445 -0.018246816 0.20303413 -0.19383392 0.10725775 -0.3170095 -0.11957129 -0.038347304 0.018178256 -0.1540159 -0.2103854 -0.085109726 -0.2482723 0.08994498 -0.108209744 -0.1864526 -0.27766466 -0.083500795 0.07212386 -0.2758043 0.12930664 0.35239795 -0.10454565 -0.3304637 0.1777763 0.29857194 0.22310399 -0.030997075 -0.1192136 0.18569005 -0.4968513 -0.10175715 0.6477376 0.034367055 -0.18846758 0.56887037 0.23693651 0.12796776 0.13956119 -0.2672986 -0.0767735 -0.24494523 0.19124532 0.11431476 -0.25428823 0.35251006 0.7052868 -0.46046963 -0.09011782 0.34033585 0.010479784 -0.34263018 -0.17789944 -0.1333067 -0.15964589 -0.06650226 -0.15616202 0.27248994 0.040346082 0.48374125 0.072083995 -0.1984909 -0.40853095 0.3905646 -0.24231872 0.27009937 0.22586362 -0.24008569 0.06545729 0.13666789 -0.037810665 -0.051841203 0.48009285 -0.30081567 0.71249753 -0.1202888 0.5006691 0.25601688 0.049847547 -0.4189968 0.5205241 0.13125382 0.47503385 0.054621175 0.555998 0.48088965 0.3951344 0.7923658 -0.3567855 -0.26961988 -0.39862585 0.16784465 0.5755813 0.64319855 -0.08314813 0.410884 -0.031944156 -0.36249924 0.09791148 0.005113832
8662:SE_15TH_ST -0.12684977 -0.14607437 -0.0060810954 -0.17240894 -0.17283319 0.28096205 -0.29259008 -0.1986184 0.15945132 -0.043698095 -0.045788966 0.10777607 0.16967413 -0.18672384 -0.035950433 0.16208796 0.22331548 0.12346192 0.32039973 -0.24261642 0.1364727 -0.020284237 -0.18350132 -0.107900254 -0.275467 -0.07972257 -0.077741906 -0.11478227 0.27525902 -0.12396878 0.027546775 -0.04471629 -0.15099955 -0.19357935 0.2454589 0.28139982 -0.12274265 0.017025517 0.027125949 0.2087211 0.053842865 -0.02555187 0.05713846 -0.2698673 0.0019365911 -0.090783395 0.21456017 0.024637504 -0.14069864 -0.18452123 0.08122399 0.046713762 -0.14404179 -0.11334583 0.072925575 0.005935421 0.05705969 0.034960177 -0.0979085 -0.26057008 0.12146756 -0.19135672 0.14296925 0.07350084 0.19425878 0.035740744 -0.053642467 -0.04318248 -0.056247056 -0.12021255 -0.20042746 -0.20335974 -0.2983403 0.048838727 -0.031860415 -0.07636161 -0.004727385 0.20284337 0.09165721 -0.08792551 0.17788859 0.13929658 -0.113142125 -0.050684933 0.12729228 0.19624606 -0.31698328 -0.19972539 0.096802376 -0.033382714 -0.07435784 0.07410723 -0.055315815 0.06838785 -0.0016105347 -0.09238321 -0.03636091 0.069027856 -0.4574294 0.17313403 0.10560203 -0.15521847 0.18725865 -0.006007616 -0.01959839 -0.08858733 -0.2814298 -0.12272748 0.0308598 -0.13243939 0.13715956 -0.09423951 0.12425586 0.09847481 0.19691 0.0103904335 -0.12440455 -0.153438 -0.10570538 -0.24796765 0.041320346 -0.037285615 0.105768636 0.43998432 -0.108280845 0.0579886 -0.043320507 -0.2623155
8717:TURNER -0.16638976 -0.2678028 0.030436678 -0.15639696 -0.08601251 0.25876397 -0.21943508 0.0797207 0.22994152 -0.05684725 0.17602688 0.06260215 -0.035056435 0.0647217 -0.0069242762 0.07315105 0.29772618 0.11822943 0.22944273 -0.10366664 0.060154382 0.25881848 -0.1497748 -0.029800288 -0.21304667 -0.071916156 -0.27247682 -0.04371569 0.3422197 -0.18068714 0.052419405 -0.11734538 -0.17463645 -0.10061618 0.16945711 0.10709357 -0.044545043 0.10538202 -0.055866048 0.29011703 0.0784282 0.17397949 -0.02077969 -0.20209996 -0.031411607 0.1713861 0.24882466 -0.22416963 -0.07299217 -0.14275676 0.03724143 0.21243046 0.04732927 -0.037131295 0.4762856 0.20739405 0.102427974 -0.08712453 -0.19652666 -0.27869582 0.10641963 -0.1665615 0.090533115 0.16285004 0.039204855 -0.000117064126 0.0025606756 -0.061987977 -0.0771149 -0.3132072 -0.25330904 -0.21383832 -0.23898803 -0.08001487 -0.2038308 -0.0151331285 0.03533182 0.12295379 0.04810188 0.06580881 0.09328627 0.03971172 -0.14856336 -0.0159612 0.18804859 0.19877768 -0.108061634 -0.03771625 0.1194406 0.052981045 0.045542832 0.090342976 -0.21358192 0.12382063 0.021419764 -0.017681532 0.3001991 0.2459247 -0.38778892 0.19981852 -0.10303862 -0.23039953 0.090123534 0.04175087 -0.13275279 -0.24006175 -0.10890662 -0.37723646 0.1401277 -0.2696026 0.19554874 0.059588496 0.17663811 0.22725572 0.03135926 -0.094540834 -0.20659521 -0.22197145 -0.09974724 -0.13028769 -0.09750077 -0.13378851 0.055218518 0.26141512 -0.22814025 0.018630499 0.07076207 -0.111617416
4606:CEDAR_AVE -0.15215039 -0.2294955 -0.16998674 -0.3718413 -0.7488106 0.2797354 -0.19713418 -0.5201842 0.71421957 -0.119748816 -0.066900395 -0.07225032 0.08246965 -0.32775527 0.12093017 0.21916929 0.01935685 0.45359528 0.34555542 -0.24168134 0.23732798 0.25501972 -0.36826783 -0.023919445 -0.16691135 -0.056945123 -0.38832027 -0.338633 0.4656092 -0.08277304 0.25358242 0.11051203 -0.57022 -0.41586512 0.18885897 0.3903611 -0.5386764 0.023244165 -0.16676192 0.42913646 0.26185954 0.26087403 -0.40893823 -0.4084437 0.10942958 -0.10188279 0.49282345 -0.775438 -0.63606524 -0.25096118 0.31132317 -0.48169544 -0.1727167 0.037932426 0.24482025 0.19342215 -0.29399005 -0.077725485 -0.8426471 -0.5020979 0.79250246 -0.37500095 -0.5324263 0.5293725 0.7548903 0.21800588 0.04543513 -0.6407345 -0.678156 -0.89102703 -1.2734394 -0.63822585 -0.66841066 0.81947756 0.54505265 0.26906097 -0.048820924 0.7128599 0.23645695 -0.48221236 0.20996064 0.31097338 -0.2946134 -0.5670622 0.74660724 0.7203954 -0.7813117 -0.4250624 -0.021219937 -0.12747392 -0.8407683 0.6455633 -0.24411076 0.30476004 0.6947283 -0.013673101 0.2972609 -0.2491869 -1.0892968 0.22297451 -0.25799206 -0.9899576 0.13958454 -0.55205756 0.6487283 -0.38651055 -0.44581133 -1.1723682 0.4625937 -0.5664981 0.4798929 0.011954186 0.73323786 0.58444136 0.86052054 0.5418659 -0.8058462 -0.53542405 -0.3855215 -0.26541492 0.25951523 0.18002379 -0.17278011 0.76758575 -0.27060452 -0.5010063 0.20063142 -0.6628298
8617:SUNNYLANE -0.10078758 -0.11456245 -0.0037400671 -0.26607472 -0.2337734 0.3633369 -0.11236972 -0.22066368 0.11839274 -0.042586487 -0.0010740802 -0.011687005 0.044525642 -0.061328728 0.036918856 0.09546148 0.1640936 0.30438802 0.38192526 -0.19358924 0.07829101 -0.009775239 -0.10748004 -0.09874945 -0.24464633 -0.11126781 -0.109863326 -0.03386766 0.2368702 -0.16837944 0.15655392 -0.12729973 -0.19793102 -0.18240072 0.19318797 0.13685837 -0.20531988 0.032340813 -0.06197249 0.24815337 -0.014041341 0.00947233 0.19472672 -0.2921854 0.039817672 -0.016198425 0.1991108 -0.13212802 -0.17563653 -0.177706 0.029156378 0.03937212 -0.07743243 -0.1429578 0.11550391 0.11258709 0.09895727 0.0027852769 -0.06301421 -0.19627614 0.09169664 -0.09094034 -0.00025963856 -0.10332578 0.28382447 -0.016631251 -0.13402343 -0.06459967 -0.16806614 -0.020132437 -0.24014954 -0.2122471 -0.3037129 0.05998631 -0.060621813 -0.087604046 0.028736468 0.17910437 0.047797058 -0.14903651 0.22409125 0.17724276 -0.14527453 0.043817643 0.10564491 0.20572054 -0.13184585 -0.022593457 0.07936668 -0.102745965 0.03847864 0.024774503 -0.06835721 0.0021529908 0.04879773 -0.026924614 -0.015613795 0.020023182 -0.3152776 0.18770432 0.04014654 -0.2560505 0.004968376 -0.04837867 0.11142597 -0.2183658 -0.20514569 -0.19080652 0.11336011 -0.1520569 0.19152862 0.047244664 0.16439779 0.3288184 0.116301686 0.06376654 -0.13716632 -0.027245617 -0.19663621 -0.20082286 -0.021517092 -0.03860681 0.12595764 0.37990937 -0.09732917 0.005922359 0.016632006 -0.16652057
3216:BEELINE -0.018913237 -0.15239581 0.18745968 -0.32827494 -0.14013115 0.09443293 -0.016610842 -0.18179137 0.12549578 -0.27547398 -0.22278298 -0.009867161 0.04909035 -0.10176668 -0.10129174 -0.16110295 0.012414811 0.06397737 0.15441528 -0.4272595 0.17246623 0.1866756 -0.1465043 -0.02966973 0.0051070424 0.042711534 -0.083908096 -0.28477123 0.25601047 -0.22128353 0.20253427 -0.0009526012 -0.10130641 -0.06618963 -0.03969178 0.13333051 -0.061830435 0.16159688 0.120523065 0.11587143 0.14726393 0.12552874 0.08970565 -0.27163914 0.2683749 0.14630039 0.11489064 0.05295366 -0.19023016 0.063748226 -0.07661024 0.029596424 -0.19212733 0.14034787 0.16036502 -0.060691122 -0.39023972 0.002100505 -0.1296017 -0.10249724 0.23472162 -0.037302196 -0.17299265 0.28771698 0.010037303 0.026854938 0.2066381 0.044336643 0.0054185945 0.0041419347 -0.054076508 -0.3470046 -0.05489625 -0.039455198 0.13338998 -0.024147002 -0.043761022 0.10789772 -0.049493466 -0.12526827 -0.10713839 -0.17307428 0.011345617 -0.11509738 0.1565962 -0.024002114 -0.24228682 -0.20533319 0.16897607 0.20787212 -0.11784459 0.19950828 0.20496005 -0.02522756 0.17351153 0.07039648 -0.22888772 -0.22306669 -0.31540945 0.16640739 0.20409647 0.10191079 0.062480547 0.1765624 0.009109314 -0.14219487 -0.22693443 0.014157231 -0.07148468 -0.061423294 0.16820657 -0.027349869 0.15318227 0.22364844 0.26162806 0.005604952 -0.29020697 -0.25134057 -0.19549668 0.047252808 -0.029302476 0.34831667 0.06214744 0.17757949 0.00521763 0.15905645 0.106282584 -0.18453439
8708:CEDAR_LANE -0.1828965 -0.3788959 -0.1479152 -0.2727144 -0.09975269 0.22828978 -0.3515754 -0.18994929 0.47357666 0.036765832 -0.09949743 -0.16253684 -0.18913974 0.23885664 -0.06565021 0.00056604744 0.52056324 0.19988823 0.019798584 -0.27396992 0.3309841 -0.01564789 -0.35266986 -0.3903437 -0.7260502 0.14443319 -0.6760144 0.054567404 0.2725111 -0.6874657 -0.044671003 -0.21295327 -0.24326931 -0.1707979 -0.038363732 0.092355624 0.32458976 -0.15113956 -0.27536586 0.4083507 0.08865501 0.24819556 -0.06309647 -0.33949584 -0.26874197 0.22291408 0.23304236 -0.17156157 0.19269547 -0.40254903 -0.099829584 0.17774965 0.5411335 0.09544955 0.84932464 0.19492127 0.17486638 -0.0019212099 -0.33471227 -0.40797716 -0.12240165 -0.31576777 0.15852232 0.11996568 0.47572953 -0.028046738 0.043292236 -0.1543848 -0.22488749 -0.90195996 -0.305946 -0.5414197 -0.48327592 0.14376713 0.05569006 -0.21264362 0.20610826 0.3723854 -0.08242942 -0.06803492 0.35827646 0.041103307 -0.36211646 -0.1318353 0.13441241 0.18386129 -0.34805778 0.03589236 0.07308755 -0.08316111 -0.17389826 0.19857492 -0.3288975 0.21844663 0.009528614 0.003708445 0.35753927 0.5295297 -0.45222765 0.19727243 0.114336304 -0.46881455 0.3793335 0.08243763 -0.0058194445 -0.018614816 -0.43387118 -0.37409803 0.22208397 -0.42879325 0.1127318 -0.20269129 0.32156354 0.094056115 0.07650038 0.32429352 -0.34741884 -0.60686904 -0.16180281 -0.20955588 0.025373727 -0.18281443 0.32807362 0.31418028 -0.021209415 -0.050670404 -0.008966041 0.012466886
9111:MASSARD -0.3417933 -0.06773485 -0.21036023 0.0042488943 -0.01362276 0.16383122 -0.088641055 -0.022034738 -0.079376094 0.1322105 -0.13956892 -1.9637253e-05 0.023342405 0.0065820445 0.007004575 -0.15868886 -0.17977445 -0.11622822 -0.099225014 -0.18157585 -0.15880662 0.2058028 -0.19464175 -0.023416314 0.091258846 -0.038729914 -0.08298003 -0.15048712 0.17271861 0.066692665 0.13215509 -0.21039705 -0.22944883 -0.28079543 -0.08607936 0.17501508 -0.014814147 0.0450461 -0.0377679 0.021788819 -0.20862551 0.121556476 0.09838023 -0.10587961 0.0061251456 0.14452568 0.33590007 -0.2141432 -0.16710633 0.16952433 0.07860014 -0.007168861 -0.20716503 -0.072157465 0.22154622 0.15740584 -0.28614783 0.13157012 -0.069857016 -0.12129997 0.48187932 -0.002289052 -0.46720815 0.36425188 0.17082863 0.009341337 0.09648829 -0.16626836 -0.07115991 0.032943014 0.03765814 0.108037226 -0.2381952 -0.011370427 0.09504463 0.0143156955 -0.056105834 0.21575312 0.029751943 -0.23296282 0.032515317 -0.03278676 -0.013550147 0.076109625 0.058920417 0.24159446 0.023011904 0.008894464 0.111736916 0.19479288 -0.2641315 0.32036322 0.027849227 -0.050323278 0.06902777 -0.0041691335 0.07842171 -0.086406216 -0.23110992 0.021707656 0.07508598 -0.09570823 0.11466935 0.093266316 0.31637025 0.041752268 0.08027998 -0.29278877 0.049760193 0.22532402 0.26624638 -0.14613982 0.10659983 0.3517636 0.41447002 0.10046164 -0.35719693 -0.05871828 -0.17933449 0.036633585 0.13308634 0.4294234 -0.0012440558 0.09396779 0.19662446 0.030325018 -0.11768414 -0.26346815
8469:MEMORIAL -0.015936173 -0.077459425 0.046940494 -0.16361387 -0.19782346 0.32013392 -0.11427946 -0.29750392 0.038300797 -0.02818682 -0.017425604 0.058103085 0.16398412 -0.09566446 0.055019476 0.12115603 0.19220044 0.24243166 0.22449322 -0.09658001 0.24237289 0.05076096 -0.08203997 -0.24774131 -0.18394242 -0.067101635 -0.081287794 -0.03386331 0.099974155 -0.14223342 0.18927152 -0.17549668 -0.11689408 -0.23378178 0.24662131 0.1976455 -0.2412939 0.09732112 -0.1050195 0.12774085 0.018908195 0.13635652 0.057588957 -0.16863668 0.09421897 -0.080454506 0.14994015 -0.08975914 -0.13329373 -0.1793371 0.16328368 0.023302263 -0.110595234 -0.19240044 0.06549903 0.14372122 0.16447307 0.027890405 -0.13309535 -0.13349074 0.15923563 -0.0843529 -0.068773344 -0.09878647 0.19483317 0.0059012487 -0.16185214 -0.09913869 -0.10137368 -0.05522145 -0.22935234 -0.22389545 -0.36108363 0.15838163 -0.08106445 -0.10867884 0.15188086 0.108514994 0.12198712 -0.11057793 0.1861765 0.108518764 -0.13620257 -0.037471343 0.047630683 0.19433685 -0.2147803 -0.12476025 0.05697216 -0.11605939 -0.039719615 0.061214697 0.025756095 0.011619888 -0.020241955 0.023142548 0.1039072 0.088957556 -0.39509356 0.22414911 0.023023369 -0.31743622 0.13594621 -0.0562252 -0.014212323 -0.22843172 -0.18031512 -0.1254611 0.13654464 -0.103032544 0.20080182 0.01581785 0.13898142 0.37063846 0.11782358 0.002155325 -0.057139512 -0.15174246 -0.19585349 -0.18333016 -0.010045719 -0.16628508 0.09834459 0.27786252 -0.07620106 0.01627826 -0.008571213 -0.13750194
5111:DRIPPING_SPRINGS -0.2924005 -0.07785385 -0.0034788998 -0.31009084 -0.11054393 0.16148092 -0.046901904 -0.17549722 0.037511863 -0.014487023 -0.23401262 0.09599769 -0.067892954 0.07887391 -0.10779284 -0.12772742 -0.008696317 0.18992878 0.06285793 -0.21638024 0.029838882 0.22888394 -0.21047133 -0.05742794 0.10606989 -0.0065180706 -0.13346852 -0.07539089 0.13136339 0.05513809 0.25539756 -0.11069335 -0.23456849 -0.112586945 0.021477468 0.05099553 -0.20858516 0.13682474 0.054701664 -0.038035914 -0.1231834 0.20581983 -0.057377547 -0.09374155 -0.0062397043 0.1485991 0.15587625 -0.06492185 -0.19156525 -0.07174402 0.09743109 0.15204398 -0.30053702 -0.020567521 0.0001541952 0.15733953 -0.18609364 -0.1278632 0.076423265 -0.08524183 0.4771399 0.069492295 -0.08829642 0.135277 0.20449746 0.03631763 0.0038108379 0.013693835 0.05034439 -0.22296174 -0.048273284 -0.2667969 -0.23989643 0.036562786 -0.062973954 0.033259653 0.025039429 0.2724577 0.003920285 -0.4009384 0.02890525 0.13612184 0.16358571 -0.16929466 0.13194275 0.11313101 -0.14697722 -0.14670016 0.12590285 0.05125786 -0.18136565 0.26403254 0.12017825 -0.06749671 -0.06813237 0.11776136 -0.06864436 -0.15086626 -0.10248944 0.070470594 -0.00016532435 -0.025830088 -0.034235775 0.023974214 -0.14522964 -0.094368346 -0.17205766 -0.042180452 0.23079853 0.10216942 0.1577235 0.051689982 0.21191935 0.2797995 0.20937565 -0.06731835 -0.14657968 -0.17593141 -0.19465852 -0.06769461 -0.029006524 0.20298529 0.061214563 -0.11225931 -0.26378372 -0.061069608 -0.02122716 -0.3949774
8248:SW_5TH_ST -0.09207005 -0.11610458 0.06096006 -0.14730246 -0.061667435 0.33486366 -0.11863563 -0.1250297 0.0067351903 -0.15658341 0.12896742 0.0005951344 0.08061563 -0.06789829 0.043248024 0.042925134 0.21692033 0.1435672 0.3806294 -0.22672594 0.14268136 -0.018939642 -0.14550996 -0.09109979 -0.23056568 -0.119596146 -0.11502963 -0.07282095 0.24638301 -0.12909389 0.09675285 -0.12422857 -0.21007672 -0.24344349 0.19864726 0.21358615 -0.17818886 0.043035544 -0.015079372 0.22690453 0.011125451 0.07524531 0.11252928 -0.25875676 0.07488491 0.036732454 0.20439266 -0.13302016 -0.16624391 -0.1912689 0.10255931 0.058899544 -0.069678016 -0.18602905 0.097151935 0.12124088 0.0993925 0.045867335 -0.124060966 -0.18609253 0.11549406 -0.073327646 0.059066586 0.015844053 0.18035264 -0.056485623 -0.13335611 -0.12617588 -0.19598195 -0.124118574 -0.22882129 -0.2652693 -0.3213783 0.09956632 -0.046703137 -0.10638794 0.07808022 0.119607426 0.05483703 -0.06944319 0.15750577 0.07582767 -0.23369658 -0.034468833 0.05596218 0.26095146 -0.13913754 -0.08560267 0.11410376 -0.08972942 -0.1151307 0.07103806 -0.08983437 0.061227243 0.0696518 -0.08274291 0.04664174 0.159585 -0.3242789 0.25207373 0.05195057 -0.28252193 0.06452465 -0.05096577 -0.023697684 -0.15849076 -0.18255049 -0.13577025 0.115847506 -0.1507662 0.22195253 0.049846247 0.19105953 0.3077658 0.14965591 0.06201 -0.07010464 -0.078075595 -0.15128693 -0.17789577 -0.061258174 -0.01397697 0.10039907 0.38531107 -0.119397774 0.0004412598 0.07183218 -0.15886731
8542:RENO -0.0028989315 -0.15199861 0.06285134 -0.2712081 -0.15892227 0.2787712 -0.15253353 -0.24506429 0.20119523 0.009772424 0.09863745 0.04973192 0.18837294 -0.15104209 -0.006809045 0.11063712 0.2227065 0.26471412 0.45934087 -0.29393306 0.14614366 -0.107349016 -0.13599639 -0.06283775 -0.22493735 -0.07542936 -0.11151881 -0.1228009 0.37427098 -0.046491794 0.038136825 -0.054052413 -0.04563505 -0.21341899 0.14485157 0.16757962 -0.079060026 0.07032044 -0.049507484 0.21368532 0.092004195 -0.097966164 0.18843777 -0.24393584 0.042715 -0.066979006 0.14270331 0.07278232 -0.08398128 -0.21207999 0.0705765 -0.08700086 -0.005290468 -0.14253399 0.009704461 0.074891716 0.062900275 -0.031506002 -0.17914104 -0.25549278 0.016090723 -0.14201197 0.04640119 0.08231677 0.26032436 -0.053850945 -0.05759382 0.026600244 -0.058765654 -0.0054643378 -0.21887992 -0.23749995 -0.32374555 0.08278845 -0.0012149065 -0.15897842 0.0321649 0.19265 0.07123399 -0.060372066 0.158479 0.06325531 -0.084878996 0.030163208 0.13415456 0.2478345 -0.19801009 -0.20392643 0.12818855 -0.07281524 -0.18687336 0.13002829 -0.065003864 0.16190031 0.102405824 -0.031923935 0.03266566 0.1489974 -0.33925253 0.22764601 0.17269677 -0.17292719 0.14014858 0.08774121 0.062074292 -0.14506203 -0.17475176 -0.09599958 0.16660817 -0.17900549 0.21225332 -0.027164038 0.18039571 0.20721391 0.13194811 0.04019103 -0.13613516 -0.05144477 -0.10731441 -0.14746314 0.046917055 -0.04814815 0.117015116 0.4472732 -0.12884124 0.014997928 0.010390298 -0.2523066
8336:TENNESSEE -0.14467524 -0.1378064 0.038860753 -0.2438965 -0.19297133 0.346411 -0.18132064 -0.17652403 0.021025816 -0.12365359 0.1562424 0.10116733 0.14348006 -0.066685826 0.033479344 0.07974431 0.15021862 0.24564262 0.42395476 -0.19998945 0.07233007 -0.050528258 0.00049394346 -0.051687635 -0.20462741 -0.051811032 -0.055908978 0.020265436 0.22129805 -0.075603835 0.09088248 -0.11563815 -0.25652075 -0.23208609 0.16835657 0.17900945 -0.15873575 0.063536994 -0.020132883 0.1180476 -0.08713651 0.05190378 0.06943584 -0.2409355 0.038042855 0.0048713856 0.18329948 -0.10033575 -0.12620522 -0.21576199 0.11133552 -0.09360218 -0.036720105 -0.0754573 0.093541645 -0.018190514 0.11611584 0.16948874 -0.110262915 -0.22524099 0.18249999 -0.01075953 0.04991784 0.032701265 0.26059943 0.011169367 -0.09459779 -0.0048773 -0.113928504 -0.05675235 -0.27817568 -0.17656846 -0.3099686 -0.048691228 -0.03467396 -0.039327435 0.077465765 0.12643194 -0.01706415 -0.15264909 0.15376286 0.14712256 -0.120884016 0.019829098 0.25297576 0.2923788 -0.22485964 -0.025690995 0.1589464 -0.010133013 -0.052748926 0.052597255 -0.10113876 0.13993056 0.099648684 -0.08383744 -0.0017680553 0.023293493 -0.31653792 0.23327707 -0.00097129587 -0.3322071 0.10975993 0.0106557645 0.007110242 -0.06718616 -0.2358423 -0.1673747 0.08134224 -0.10101366 0.14927901 0.028511327 0.084321976 0.3229207 0.13692981 -0.0010101484 -0.21902229 -0.025302455 -0.09413065 -0.23014654 0.0025842525 -0.042231597 0.1259665 0.36060277 -0.09518849 0.038045436 -0.06868511 -0.17320797
8339:TULSA_AVE -0.1066008 -0.05394891 -0.07194395 -0.22745964 -0.15132038 0.31540507 -0.16611886 -0.21162233 0.17150827 0.04165403 0.0032974323 -0.025870742 0.1105769 -0.14945877 0.053330045 0.12862143 0.13422978 0.17669532 0.41788834 -0.1525926 -0.009185506 -0.022682857 -0.11788156 -0.1185003 -0.20386398 -0.10920783 -0.19259919 0.034505256 0.3594771 -0.18456015 0.117378026 -0.075077705 -0.19095498 -0.12223685 0.2169183 0.20013416 -0.06461637 -0.033775177 -0.009167347 0.18154655 -0.13672233 -0.07905173 0.08203523 -0.25190592 0.05556069 -0.0077042845 0.16122855 -0.14335835 -0.10979538 -0.12163681 0.024152072 0.063617975 -0.093745805 -0.07145544 0.076902114 0.15827708 0.06175742 0.09382257 -0.17423335 -0.22163749 0.08605869 -0.103661664 0.04785283 -0.01920807 0.28715795 0.041433536 -0.11158327 -0.041169096 -0.17258213 -0.12761228 -0.21548398 -0.18642116 -0.22589394 -0.013815409 0.029662572 -0.074167825 0.053715985 0.08756893 -0.008799128 0.07474761 0.19263999 0.1033766 -0.1130455 0.05759059 0.26314008 0.28760722 -0.058544263 -0.12143883 0.2039631 -0.10482019 -0.08186137 0.043263502 -0.0828269 0.07209031 0.020271018 -0.10998204 0.08809648 0.029788468 -0.40155736 0.18930887 0.08787356 -0.3029593 0.07085821 0.0027429492 0.0034445892 -0.13076444 -0.2541285 -0.24784349 0.088022254 -0.14279248 0.17800212 0.11349134 0.18656078 0.23927425 0.16893877 -0.05306869 -0.10395894 -0.0407566 -0.10375944 -0.15851901 -0.0071559483 0.0071833567 0.12270228 0.33594766 -0.030756122 0.12274167 0.033127937 -0.11303452
8458:GREEN_PASTURES -0.16653803 -0.16648598 -0.041981954 -0.12825076 -0.23533791 0.333222 -0.17980394 -0.33694515 0.20378461 -0.11721078 0.03202773 0.028481951 0.1108748 -0.10286985 0.031346697 0.1279693 0.20738111 0.18774903 0.35296816 -0.2524603 0.04185046 -0.04488832 -0.05096478 -0.0818192 -0.264702 -0.05408871 -0.048022393 -0.0665201 0.1945594 -0.14791654 0.14854722 -0.11824225 -0.09056417 -0.11125375 0.19550084 0.14195122 -0.113449685 0.07984646 -0.007008359 0.1805345 0.03718763 0.02381152 0.10551004 -0.22685242 0.020437071 0.003967624 0.2729059 -0.14156112 -0.19161686 -0.11608922 0.10724492 0.061231002 -0.073900834 -0.06662632 0.018837204 0.071755655 0.090589866 0.040103354 -0.21239486 -0.2106726 0.12881663 -0.11595245 0.05804236 0.06043845 0.2517427 0.040675625 -0.08580686 -0.016470045 -0.15503503 -0.051593628 -0.1982884 -0.17762958 -0.26512456 -0.032246076 -0.07529479 -0.1353023 0.04420672 0.117545776 0.047777195 -0.011655783 0.16521858 0.09500696 -0.1678586 0.042535298 0.16797568 0.30805606 -0.21097346 -0.1735593 0.07249585 -0.06535404 -0.062188298 0.04656051 -0.18805242 0.031595014 0.08333831 -0.04778203 -0.039941344 0.08305007 -0.33566636 0.18794325 0.007318176 -0.17686635 0.0306547 0.0069403145 -0.0052953167 -0.056718104 -0.16529758 -0.14006226 0.12364981 -0.13133383 0.21107617 -0.015536068 0.06503748 0.3067307 0.21558742 0.10695375 -0.17398918 -0.054617226 -0.11808615 -0.29195365 0.036813404 -0.032070767 0.020777903 0.39994562 -0.1739816 0.11002224 -0.04062636 -0.16320401
3312:CHECOTAH -0.32784817 0.03498672 0.20416829 -0.36298597 -0.11064545 0.24512394 -0.28007224 -0.18348378 0.122958384 0.13335899 0.023449207 0.096339166 -0.24656914 -0.008055023 0.1277455 -0.26587126 0.35789186 0.09664092 0.018221056 -0.45846745 -0.0011488582 0.25836143 -0.16677773 -0.15069327 0.22371083 0.06368861 -0.19813418 -0.22911982 0.26681355 -0.080709115 0.19941619 -0.07647961 -0.20774165 -0.18717942 -0.017760273 0.06438466 -0.0256146 0.19717185 0.0044557434 0.03160761 -0.15537971 0.28279632 -0.114539 -0.14726159 0.14549242 -0.071949646 0.11967363 -0.08545269 -0.10686369 0.20050505 -0.15966868 0.23051675 -0.33013573 0.08519378 0.03717543 0.015230856 -0.07799583 0.037781272 0.060430508 0.06973097 0.23072365 -0.06120585 -0.2488878 0.2094652 0.39311707 0.020589115 0.15591337 -0.009240196 -0.27619833 -0.2680271 -0.38540104 -0.18897149 -0.3024707 0.16389579 0.010634549 0.039350603 0.32028356 0.15943143 0.19897068 -0.21462326 -0.040106565 0.17574668 0.15392122 -0.04093093 -0.07487253 -0.11092806 0.1321536 0.10206415 0.25398442 -0.04757487 -0.034410607 0.19556892 0.12570423 0.095529504 -0.04154619 0.039789364 0.07161461 -0.34052968 -0.009043673 -0.21770857 0.008225902 -0.110176615 -0.006312017 -0.2541949 0.11390459 -0.04688714 -0.116667666 0.20235913 0.23300901 0.07781214 0.2857704 0.08319199 0.2510895 0.44205627 0.056222346 -0.022371342 -0.27179837 0.3359325 -0.010723958 0.1418364 -0.016039476 0.12556095 -0.014779361 0.20137608 -0.1423511 -0.010662127 -0.19136477 -0.26971725
8536:WASHINGTON_PAR -0.1468377 -0.11568933 0.030642018 -0.16117507 -0.15684682 0.35694057 -0.20448382 -0.23576608 0.18617302 -0.06630131 0.052312914 0.08586385 0.14208002 -0.023225807 0.11224599 0.09283206 0.24602897 0.25814188 0.37367165 -0.25226405 0.14544033 -0.07587044 -0.11733895 -0.14169881 -0.27816615 -0.046987165 -0.121715985 -0.043626446 0.23769681 -0.16927463 0.15186158 -0.15678138 -0.17139001 -0.22857153 0.10620323 0.24727261 -0.2100241 0.04414862 0.011911046 0.17465243 0.14290279 0.12465227 0.10657018 -0.28066263 0.07679195 0.06229131 0.17159256 -0.1616031 -0.090697624 -0.2047139 0.14667451 -0.052883055 -0.11417088 -0.10635633 0.08404564 -0.054481078 0.12361529 0.065018 -0.1728741 -0.10827816 0.072760604 -0.12059466 0.08442574 -0.08503584 0.1668566 -0.0117508285 -0.083181635 -0.10533089 -0.105904646 -0.057437487 -0.33856058 -0.3397597 -0.30684063 0.025525665 -0.16231526 -0.072193615 0.122145705 0.1175269 0.037616313 -0.1368721 0.13380322 0.11728681 -0.17119332 0.02291205 0.14980966 0.19367707 -0.1937311 -0.06534452 0.059488732 -6.39668e-05 0.00018922475 0.031372264 -0.12894246 0.1527722 0.031846195 -0.09170835 0.0016256828 0.07128211 -0.3798515 0.18833889 0.0027354024 -0.26994652 0.10564272 -0.088006705 0.0015020692 -0.22553335 -0.18540487 -0.10711417 0.19359091 -0.14493169 0.19194506 0.041285764 0.1204157 0.2450311 0.23380558 0.045575578 -0.07225296 -0.034403425 -0.16721758 -0.24344087 -0.052832484 -0.047300093 -0.0027345547 0.4165779 -0.090566844 0.055530235 0.0027379815 -0.19977815
8322:THIRTY_EIGHTH -0.10886887 -0.034576576 0.026066048 -0.17783372 -0.08126218 0.3312353 -0.11570456 -0.2221 0.07009093 -0.047106627 0.06530108 0.0037118231 0.040261526 -0.040050495 0.07304572 0.0969574 0.22659008 0.2345957 0.35143787 -0.20186043 0.13548426 -0.034587048 -0.12188107 -0.071332954 -0.25253725 -0.0340567 -0.12673956 -0.06974673 0.19060102 -0.100924276 0.09607596 -0.15823232 -0.28138542 -0.23003317 0.2031668 0.20331785 -0.11291194 0.026538279 0.012781094 0.20008545 -0.0064878063 0.044570733 0.1334697 -0.18799855 0.026915696 -0.051274396 0.19114523 -0.11838864 -0.1301047 -0.14924611 0.051414948 0.057739176 -0.08328677 -0.05992643 0.10265812 0.09296185 0.11863346 0.030567367 -0.10527215 -0.22757852 0.13169159 -0.12711436 0.08101696 -0.09382665 0.25629398 -0.10445812 -0.11058181 -0.09725499 -0.0736918 -0.12742996 -0.23858447 -0.18097377 -0.3404578 0.029693486 -0.06230461 -0.042696446 0.107910536 0.13515632 0.013407847 -0.080721036 0.14325196 0.11725795 -0.1221788 -0.011046137 0.25472194 0.21402343 -0.2574115 -0.08793968 0.14271577 -0.13078815 -0.089549005 0.06453859 -0.044149727 -0.0071512377 0.08802131 -0.06995863 0.012170567 0.059079565 -0.37922913 0.19338283 0.041412182 -0.33092257 -0.017066916 0.00087407936 0.01340735 -0.21147276 -0.17790782 -0.13291982 0.088605724 -0.12268311 0.1891028 0.043685663 0.12151172 0.29401475 0.13308527 0.053740285 -0.18778655 -0.18376115 -0.17392309 -0.31310752 -0.021564182 -0.03591464 0.18332891 0.33747983 -0.049071196 0.0877193 -0.059682943 -0.20014887
8221:MERIDIAN -0.16346195 -0.09593559 0.0107799955 -0.18252328 -0.19862682 0.3597457 -0.20037884 -0.10441119 0.052093886 -0.06660676 -0.008372473 -0.049462643 0.07618219 -0.12692307 -0.0049879136 0.149894 0.24913785 0.261365 0.30325708 -0.2523309 0.05489947 -0.044206623 -0.11716805 -0.11922652 -0.310421 -0.08980731 -0.03766235 -0.019575793 0.24385665 -0.1597403 -0.033951186 -0.18116602 -0.14374752 -0.090372875 0.19530375 0.1364664 -0.15411767 0.0723486 0.017368887 0.23840861 0.10752231 0.024065513 0.095543586 -0.16028656 0.09665773 0.0037003628 0.22369091 0.018025344 -0.076208524 -0.17852502 0.07347031 0.1477508 0.03596209 -0.16756012 0.08180692 0.15569787 0.084407985 0.043670155 -0.06976811 -0.23426056 0.072480075 -0.16979995 -0.072494134 -0.04379355 0.19901493 0.005467758 -0.08287406 -0.05543723 -0.15627772 -0.10992537 -0.23142406 -0.21302672 -0.24409342 -0.023593904 -0.08544614 -0.004666073 0.07696148 0.24621819 0.05203306 -0.18561575 0.15119721 0.08361101 -0.2321866 -0.017645905 0.10035254 0.34481877 -0.25504217 -0.08722951 0.107925646 -0.011039471 -0.1409788 0.08820367 -0.03996697 0.14406706 0.07076776 -0.051173154 0.041293886 0.057371523 -0.34188697 0.20887244 0.09756074 -0.22854486 0.011305381 -0.11962934 0.097956836 -0.22256535 -0.18179679 -0.13313451 0.12489565 -0.15076299 0.13374783 -0.016947592 0.12780572 0.3542539 0.3481076 0.027723746 -0.06977212 -0.06739979 -0.14004797 -0.10188529 -0.0061887377 -0.01411649 0.09956607 0.3169877 0.014674758 0.12527734 0.015212391 -0.2238152
7605:DRUMRIGHT -0.21799298 -0.07556653 0.042087484 -0.35756934 -0.055949274 0.24522664 0.02348781 -0.20982471 0.32782844 -0.21927166 -0.2575259 0.12928909 -0.11364245 -0.17641434 0.13742363 -0.16335864 -0.051538948 -0.0051425444 0.077819295 -0.20160818 -0.05233041 0.2894286 -0.118826434 -0.06472391 0.26034263 -0.03601323 -0.08957064 -0.12730324 0.45755965 0.19614944 0.36368084 0.02985961 -0.2313266 -0.12916589 0.11239399 0.08801102 -0.01198138 0.0208158 -0.13202293 0.09169705 -0.21125877 0.28009403 0.075718425 -0.01797078 0.102857016 -0.1084829 0.46065268 -0.13139397 -0.15452246 0.06714963 -0.0758408 0.19988096 0.013435199 -0.0016289321 0.1448248 -0.04773439 -0.21712723 0.009964538 -0.1818899 -0.075000584 0.29217803 -0.046835013 -0.13881275 0.15024328 0.17836554 0.028317697 -0.12794554 -0.03681458 -0.09427883 -0.14180796 -0.065973036 -0.21028243 -0.16630054 0.10579929 -0.17788374 -0.010777757 -0.13308877 0.28562704 0.07001286 -0.109432034 -0.09292278 0.047540966 0.0378287 -0.13633378 0.09456236 0.23440589 -0.047192488 -0.052824195 0.16169372 0.06944247 0.054859612 0.008533125 0.14754432 -0.28975782 -0.02542238 0.33211097 0.025646921 -0.10733497 0.044919156 -0.19742057 0.22028844 -0.19622633 -0.020865021 -0.022698045 -0.0120644625 -0.211077 -0.20898466 0.005197313 0.23409733 0.08601728 0.22194713 -0.04592933 -0.004779059 0.4813376 0.14420797 0.036687247 -0.17331699 0.003496427 -0.17010331 0.18967903 -0.041587487 0.315403 -0.1762159 0.27218372 -0.24442682 -0.20114632 -0.08744723 -0.41709074
8337:EIGHTY_FOURTH -0.09260568 -0.058698952 -0.067781575 -0.050192203 -0.11670035 0.3556979 -0.11820102 -0.2656696 0.23315918 -0.08232375 -0.02852028 0.036742825 0.16026118 -0.05160649 0.09106963 0.0799867 0.12492508 0.21586193 0.41876465 -0.15326487 0.0045146765 -0.029610567 -0.122831844 -0.15901035 -0.32153738 -0.045711897 -0.09955571 -0.064942166 0.29222918 -0.20946544 0.24226628 -0.12093181 -0.1644571 -0.19011611 0.123013176 0.19767362 -0.22502075 0.038484655 0.024725942 0.21818337 0.00020264083 -0.13475785 0.14391656 -0.29813257 0.13405852 0.11267684 0.22417487 -0.12461107 -0.20224364 -0.11548084 0.120271586 0.0023087822 -0.075094886 -0.101078786 0.112630114 0.043075655 0.10073771 0.15332042 -0.112139046 -0.18987592 0.113722496 -0.17894946 -0.020500641 -0.058443487 0.21775126 -0.09945412 -0.07769044 -0.095308386 -0.17416708 -0.12149393 -0.25212818 -0.11249589 -0.27013412 0.08115371 -0.13129231 -0.15294053 0.023085287 0.14322494 0.09085587 -0.13880695 0.0730976 0.11447226 -0.12859297 -0.013734771 0.11928696 0.14807226 -0.15734632 -0.10327391 0.093998455 -0.08404323 -0.07849048 0.021447005 -0.15476458 0.15631421 0.048405666 -0.08933929 0.08312148 0.050752938 -0.30877227 0.17983288 0.088874765 -0.22774501 0.018805621 -0.021363772 -0.0069111907 -0.16679804 -0.22945336 -0.17553818 0.15552157 -0.10589185 0.07801816 0.082557805 0.094530456 0.17455664 0.19649166 0.048452426 -0.08991933 -0.12832822 -0.06548574 -0.19228652 -0.053969055 -0.11702961 0.05110975 0.338986 -0.19348152 0.082522094 -0.028026167 -0.22281979
3117:THREE_RIVERS -0.27449065 -0.0050933836 -0.061325785 -0.13259806 -0.11938012 0.2515313 -0.19705161 -0.0760561 0.24429865 -0.047698256 -0.34296 -0.1685638 0.10538702 0.01588325 -0.14685142 -0.007973513 -0.4495463 0.12129099 -0.16561672 -0.062170833 0.07290154 0.10637253 0.0062434655 0.10529072 -0.083276115 -0.01686258 -0.27736244 0.04831087 0.43067855 -0.114560805 0.18070477 0.034770526 -0.43605614 -0.031014591 -0.20947401 0.1252472 -0.15642497 0.24167956 0.12503456 0.06790548 -0.042036913 0.093009144 0.13717747 -0.3520909 -0.026003458 0.05906308 0.41121003 -0.07089599 -0.08584181 0.0047510164 0.0051531657 -0.17436455 -0.12395469 0.19095887 0.15089104 0.14418584 -0.31339496 -0.16002493 0.095287554 -0.09057843 0.47786954 0.021117387 0.0043701055 0.24997601 0.16400845 -0.096435815 -0.046397224 0.11007809 -0.10516961 -0.009992538 0.010673152 -0.31870463 -0.34558246 0.2695306 0.055261508 -0.09790444 -0.0048539825 0.12207277 -0.04775698 -0.16366686 0.10103977 -0.12771656 -0.2584678 -0.006458627 0.036210563 0.16459535 -0.10518715 0.0067541054 0.03883643 0.22777686 -0.08871994 0.082853265 0.13388176 -0.07573903 0.25208062 0.07813769 0.13473704 -0.13748242 -0.19143583 -0.17655037 0.0736758 0.2196181 0.028520277 -0.20663072 0.004618698 -0.3359828 -0.09263325 -0.117418624 0.012507038 0.101389475 0.2351512 -0.026391841 0.037946485 0.10593462 0.4209682 -0.050114688 -0.13805516 0.07010092 -0.14931758 -0.18340226 0.020497547 0.355723 0.040617604 0.028922003 -0.012791585 0.18480924 0.01174627 -0.058188666
8317:SKYLINE -0.042608164 -0.13449623 -0.0025890921 -0.30535153 -0.23524599 0.4014829 -0.14185645 -0.193961 0.16722165 -0.067816764 0.0155205615 0.053487238 0.08302958 -0.10882402 0.07397804 0.060004853 0.18876335 0.24393304 0.31038356 -0.097612135 0.027137132 -0.06901903 -0.11300245 -0.13488673 -0.1399026 -0.028644655 -0.089620896 -0.0030541983 0.24745509 -0.12392723 -0.0051099863 -0.08976869 -0.26477152 -0.21868317 0.1955087 0.17277585 -0.040087897 -0.17563142 0.040088702 0.31633785 -0.00822252 -0.08306809 0.12275078 -0.19415522 0.05840172 0.041720454 0.25961465 -0.17132191 -0.095442936 -0.105851434 0.12689099 0.028695807 -0.18065768 -0.024162205 0.11238183 0.097701676 0.19385347 0.023471132 -0.13675691 -0.13722338 0.17505305 -0.12154656 0.073229834 -0.028224884 0.20631221 0.028100975 0.020759702 -0.14963815 -0.16604443 -0.082982 -0.24308184 -0.2672456 -0.35071298 0.008937573 -0.111362964 -0.11303447 0.124369316 0.16714185 -0.04210613 -0.21717833 0.17435555 0.14514714 -0.17423512 -0.011754345 0.17297953 0.18014106 -0.20574683 -0.04477993 0.096011765 -0.083963916 -0.03833102 0.047954313 -0.03569278 0.08149694 -0.0017094908 -0.13561188 -0.030418875 0.02957888 -0.39883953 0.18096401 0.017228223 -0.20429228 0.12026034 -0.05570643 0.036533598 -0.12107163 -0.14151967 -0.09540907 0.088852964 -0.15344578 0.10566775 -0.057129502 0.21155374 0.30545402 0.19027226 0.048569508 -0.028832456 -0.093160465 -0.21083857 -0.25557497 0.008363339 -0.01081545 0.15681638 0.30481216 -0.14370419 0.101992816 0.06667413 -0.11848368
8220:MAY_AVE -0.07412285 -0.07134294 -0.027600827 -0.1824251 -0.07278456 0.38014916 -0.14774458 -0.237382 0.20196392 -0.09113951 0.042577464 -0.034981582 0.024711717 0.055030312 0.04515242 0.023065671 0.2200745 0.16198245 0.3840743 -0.22646026 0.009972597 -0.04058104 -0.16210213 -0.06844525 -0.20583916 -0.10136161 -0.16050704 -0.11716614 0.3504302 -0.13106146 0.1275667 -0.08457805 -0.17637382 -0.18876283 0.22686341 0.25883737 -0.15872878 -0.015095007 -0.018048376 0.27451155 0.053831957 -0.10810097 0.027896088 -0.22914304 0.024386277 -0.010232579 0.2106466 -0.18662845 -0.113206975 -0.16462946 0.10866088 0.1412109 -0.14108427 -0.041432597 -0.003033388 0.031397488 0.12834251 0.10416577 -0.0867197 -0.14787614 0.10891666 -0.18757801 -0.00869097 0.015048202 0.27946475 -0.020782491 -0.13229118 -0.13059384 -0.1928961 -0.040685087 -0.20510945 -0.25587285 -0.36511907 0.077703476 -0.09112012 -0.15364097 0.06541369 0.21344103 0.023256004 -0.06944636 0.12633263 0.18757239 -0.09075399 0.012310867 0.12355845 0.30497196 -0.08944662 -0.18659042 0.19605607 -0.044023417 -0.04872737 0.06097364 -0.14472975 0.04049232 -0.027246896 -0.17855884 -0.016223665 0.08437429 -0.422602 0.14671627 0.15291685 -0.25201532 0.020356568 -0.08393152 0.008945164 -0.14746939 -0.13614164 -0.0852941 0.15406701 -0.121600285 0.098166294 0.047681253 0.06200906 0.16423067 0.22041628 0.032831445 -0.12607592 -0.06587903 -0.09508577 -0.21482396 -0.10395036 -0.008869462 0.07046637 0.3983037 -0.15147416 0.028202565 0.015118829 -0.15207934
8347:WILSHIRE -0.11344356 -0.030518636 0.012384147 -0.13370264 -0.1305841 0.340404 -0.20612316 -0.22902659 0.10678629 -0.11960483 0.123778984 0.06969647 0.09996444 -0.054345492 0.021788426 0.068930835 0.18100917 0.2629826 0.34966588 -0.23075964 0.094741575 -0.005090331 -0.015563929 -0.10741771 -0.20704848 -0.14551961 -0.15303223 -0.07122449 0.17550303 -0.099954784 0.21059257 -0.09403564 -0.214972 -0.15646322 0.14663237 0.21984635 -0.17012808 0.05477383 -0.055087775 0.20885837 0.014834027 0.0900293 0.070696324 -0.3426085 0.05991311 -0.014292103 0.2536588 -0.09505204 -0.24827735 -0.17699662 0.16193219 -0.00037177606 -0.1341993 -0.20939171 0.10432554 0.14621991 0.15702789 0.021116022 -0.085841745 -0.28750747 0.10728547 -0.24927068 0.07165454 0.0032078936 0.18309651 -0.03829433 -0.13799691 -0.07881956 -0.17100284 -0.2109287 -0.22022192 -0.27716085 -0.32904238 0.07056522 -0.17515202 -0.16788025 0.100155935 0.16168243 0.060055196 -0.09699089 0.082619585 0.085770555 -0.14785042 0.12590212 0.15965255 0.2935112 -0.21685506 -0.108047 0.07228867 -0.07599186 -0.08081711 0.04152969 -0.024280772 0.01883536 0.090980254 -0.094383135 0.10565207 0.058859512 -0.26831576 0.24726021 0.17080714 -0.23578842 0.12500918 -0.08102052 0.04983372 -0.1860463 -0.12305253 -0.19692355 0.039913017 -0.06138331 0.15474026 0.122114375 0.09008597 0.2655805 0.09817979 0.15083209 -0.18671916 -0.0053886822 -0.092690185 -0.16362686 0.016533937 0.06469316 0.13903381 0.35962728 -0.13875529 0.18550617 0.049363878 -0.12716834
8361:WESTERN_AVE -0.11169215 -0.10554622 -0.04588438 -0.14465779 -0.17159621 0.33956262 -0.15532885 -0.20410134 0.10389966 -0.0079676295 0.012766692 0.0036989865 0.09390785 -0.055999894 0.038946804 0.08799018 0.15833181 0.21088807 0.42828372 -0.19318654 0.10425859 0.00078201137 -0.1423161 -0.09263568 -0.36374825 -0.06118083 -0.20283784 -0.09227454 0.19379681 -0.25007886 0.17022187 -0.14421922 -0.17067495 -0.22148713 0.10414548 0.14119504 -0.18542996 0.1451347 -0.00489032 0.20261909 -0.021236666 0.09585552 0.14730747 -0.24390931 0.04930083 0.072906025 0.12457552 -0.09330239 -0.21129833 -0.23866999 0.14445576 0.12139335 -0.032364383 -0.006942456 0.07717867 0.01801461 -0.010224936 0.11780859 -0.064757235 -0.187516 0.09371961 -0.06388816 0.05324367 -0.05603379 0.25833032 -0.08951789 -0.058235377 -0.043141916 -0.12446895 -0.070888594 -0.20368902 -0.1662977 -0.32939684 0.05288969 -0.04496577 0.06986054 0.03269631 0.10256661 0.048884504 -0.05074262 0.13071059 0.13759074 -0.26729056 -0.038861886 0.22675774 0.2490425 -0.14072111 -0.12818381 0.18955092 -0.06285586 -0.055571504 -0.020522468 -0.1345942 0.07169329 0.0045805788 -0.07735302 0.01238445 0.07401538 -0.3829541 0.17950545 -0.050215743 -0.29268226 0.036076874 -0.022533154 -0.022232756 -0.13044405 -0.25992808 -0.17407523 0.20411794 -0.16297795 0.13808475 0.008768773 0.117252864 0.30843347 0.15964039 -0.08343074 -0.1696461 -0.0464113 -0.07054833 -0.21073464 -0.13127767 0.02514992 0.09372357 0.30661878 -0.07029314 0.03148209 0.036200788 -0.2415072
4106:HEMLOCK -0.32107767 -0.09500709 0.115626864 -0.29804823 -0.31670266 -0.10716644 0.005622427 -0.1993801 0.40915507 0.0122938715 -0.13503547 0.003521621 -0.151594 -0.2018478 -0.2791014 0.019016173 -0.25530583 0.27482626 0.19300364 -0.43693477 0.19360891 0.35258204 -0.18080778 0.038231153 0.055111405 -0.0506941 -0.26106596 0.04325456 0.30909407 0.24089003 0.25318998 0.021960003 -0.13639057 -0.08524259 0.062540874 0.1549701 -0.08783598 0.2987172 -0.05521622 -0.21208856 0.21278434 0.20123301 -0.20667124 -0.1473576 0.1274091 0.09990669 0.2968717 -0.31693077 -0.45200127 0.09692699 -0.034999434 -0.068084 -0.4754726 -0.26733378 -0.1725262 0.007073367 -0.31433198 0.060815416 -0.2831555 0.1588969 0.34823388 -0.20945862 0.10724562 0.15749538 0.057436746 0.18527682 -0.06056504 -0.41074896 -0.20569436 -0.14057563 -0.5321048 -0.11160355 -0.266849 0.16255133 -0.08225856 0.32070476 -0.020364512 0.2551852 0.08301893 -0.26930878 0.0022266249 0.17750683 0.06922447 -0.14815107 0.36902693 0.3475186 -0.19942133 -0.161884 -0.06332174 -0.03540382 -0.6031135 0.47705585 0.07487707 0.045065995 0.14285862 0.090539806 -0.07240123 -0.3171782 -0.29880863 -0.028293697 0.11830502 -0.15492222 0.016855175 0.058672145 0.13850029 -0.22380726 -0.072513774 -0.16815534 0.010942616 -0.0785545 0.06804222 -0.06769827 0.13524082 0.0813703 0.21045528 -0.1239106 -0.16518094 -0.22074048 -0.39347997 0.085870564 0.12935789 0.14785504 -0.09473575 0.2782788 0.03587647 0.08773917 0.016199132 -0.4632991
8209:CLASSEN -0.011731006 -0.07786568 0.014859164 -0.22467183 -0.16850343 0.29796022 -0.17051394 -0.25069973 0.09067723 -0.037208643 0.02421295 -0.0071227625 0.05247564 -0.12443558 0.08350106 0.051118046 0.20091517 0.2501187 0.3521669 -0.14294522 0.08760727 -0.06132555 -0.088029295 -0.06963297 -0.22570165 -0.10665311 -0.064240925 -0.051455006 0.2639535 -0.09427201 0.09777918 -0.1874395 -0.20222017 -0.14610648 0.09681881 0.115850404 -0.21584111 -0.006440996 0.06646127 0.18368624 -0.023639835 0.11070922 0.09134295 -0.2491045 0.061010204 0.05079239 0.21862122 -0.1701623 -0.15968356 -0.09255102 0.09582997 0.08806884 -0.13080399 -0.17440467 0.0788219 0.122788906 0.067366615 0.039248735 -0.1162748 -0.12392074 0.13556352 -0.09762559 -0.00050822506 0.00636551 0.22739616 -0.06988416 -0.112522036 -0.05863233 -0.17446078 -0.11600925 -0.19708754 -0.23396173 -0.26786688 -0.04529113 -0.14660443 -0.18247677 0.04688764 0.1439219 0.035718046 -0.06401155 0.103547975 0.20315284 -0.20194355 -0.062102083 0.0291204 0.23611815 -0.12127719 -0.061789222 0.084373586 -0.03013157 0.021163858 0.08947899 -0.12530771 0.055581085 0.111447625 -0.07746766 0.016934417 0.0865203 -0.48574644 0.28006792 0.013391019 -0.20431456 0.080053456 -0.010041796 -0.028601324 -0.19737947 -0.07248111 -0.17642066 0.13748732 -0.096460246 0.05438163 0.0014403022 0.18870646 0.30605084 0.12943701 0.08962222 -0.124694005 -0.099156916 -0.1735575 -0.1674831 -0.044459566 -0.044274256 0.09729663 0.29515937 -0.10246386 0.13681123 0.16413489 -0.22052698
8474:STONEWALL -0.06800631 -0.048783675 0.074252255 -0.21728249 -0.19035378 0.35908836 -0.13194259 -0.17664495 0.15019308 0.011137519 -0.006047123 0.11169452 0.07437024 -0.07961904 0.04082883 -0.035900656 0.1884712 0.22121677 0.27669334 -0.22055025 0.042769227 -0.06574731 -0.0063683055 -0.14164232 -0.268043 -0.04763327 -0.119248055 -0.08242035 0.11224247 -0.10714009 0.14096373 -0.14088784 -0.13506944 -0.2548621 0.1989784 0.07548989 -0.18343668 0.15545987 -0.17425132 0.23744096 0.031289008 -0.06185168 0.07362897 -0.36837882 0.011719155 -0.07747491 0.24000916 -0.11228427 -0.15962264 -0.21518457 0.10234905 0.13677965 -0.12075044 -0.1004841 0.04395497 0.15441297 0.072780736 -0.031200461 -0.20588735 -0.24042808 0.20517455 -0.17247066 0.05054931 -0.017545545 0.35996777 0.11101894 -0.09633728 -0.12565756 -0.20894346 -0.038657837 -0.15438738 -0.14085393 -0.3491111 -0.066356525 -0.06396754 -0.15044774 0.060473215 0.15591393 -0.015452796 -0.07155217 0.214968 0.1161983 -0.15116845 -0.022613645 0.17678289 0.2112838 -0.07671195 -0.11046384 0.12617633 0.032030992 -0.070709504 0.08043314 -0.1263466 -0.011723714 -0.01679664 -0.117945425 -0.017907543 0.018087221 -0.36961657 0.23101151 0.12530053 -0.17679864 0.15376626 -0.054283462 -0.082447745 -0.15829961 -0.12969488 -0.2736544 0.23926151 -0.08711336 0.16501309 -0.11681958 0.10724044 0.202042 0.16043158 0.08769886 -0.14586516 -0.12847309 -0.08931735 -0.22428808 0.056460943 -0.027736148 0.10549492 0.3358488 -0.13616478 0.08546266 0.0112770265 -0.12029257
4135:SO_4TH_ST -0.20348334 0.08913871 0.186418 -0.3238974 -0.28080812 -0.015466873 -0.0010406761 -0.1539813 0.4493013 0.08959205 -0.03761016 0.023266641 -0.12946212 -0.23847976 -0.23075205 0.1686979 -0.46387687 0.1915092 0.16533199 -0.37481177 0.2582965 0.32252154 -0.23804204 0.19011523 -0.115404904 -0.06258803 -0.47415403 0.17214298 0.27068603 0.38991198 0.17869157 -0.031687934 0.06967153 -0.25158754 -0.011460957 0.21865554 -0.035262838 0.116902456 -0.19665776 -0.0472843 0.361826 0.30791357 -0.36888444 -0.070355006 0.150037 -0.04478269 0.4374573 -0.41162866 -0.395492 0.07646756 -0.19696881 0.042776644 -0.36506885 -0.2679585 -0.1962666 -0.05819671 -0.26716495 -0.001119698 0.009306631 0.18936522 0.14434327 -0.039941255 0.18796402 0.19466114 0.14323588 0.18966587 0.2722556 -0.21558559 -0.07465352 -0.24067049 -0.33221295 0.034522578 -0.27429062 0.15496646 0.03649377 0.18737406 -0.20001629 0.3482989 -0.030140487 -0.5255625 0.006242565 0.12497573 0.11755211 -0.1422895 0.31218225 0.25643516 -0.25323018 -0.076457694 -0.20649149 0.14492309 -0.4334866 0.3065426 0.07775931 -0.06535731 0.04976031 0.06237987 -0.13034792 -0.2219009 -0.32177487 -0.12081578 0.18455514 -0.21576637 0.019955324 -0.29388186 0.12101659 -0.26257634 -0.191158 -0.24868514 0.18890023 -0.20056099 0.2266439 0.044874106 0.121152386 0.115438 0.2004543 -0.1679963 -0.09191463 -0.10082404 -0.39947847 0.12473826 0.10884616 0.18639374 -0.23960494 0.20297351 0.09562427 0.20826487 0.022629548 -0.40004158
5109:ARDMORE_WEST -0.22560485 -0.04910051 -0.06957434 -0.23136254 -0.1644446 0.21958789 -0.05617979 -0.109630205 -0.001184656 0.07667879 -0.12342712 0.11331792 -0.110880464 0.13292669 -0.10541276 -0.13057238 -0.015622989 0.18280807 -0.014752202 -0.27285093 0.05282355 0.24167825 -0.15385117 -0.0782949 0.08638846 -0.023701595 -0.1616261 -0.040642776 0.13599178 0.0070345164 0.29160228 -0.18204509 -0.2028033 -0.1012188 0.016223593 -0.01954695 -0.16565546 0.18261005 0.06808293 -0.05380678 -0.12056727 0.23189065 -0.02425822 -0.048234068 -0.00998894 0.14858751 0.1391633 -0.080133855 -0.13430004 -0.015508079 0.10226063 0.06823214 -0.31710133 0.060542192 0.058986336 0.118677266 -0.13518889 -0.12589446 0.09089812 -0.052508898 0.42737806 0.051207617 -0.11579997 0.112540565 0.14692996 0.00070806127 0.031676132 -0.018166505 0.07001927 -0.1841318 -0.10966866 -0.30606216 -0.20585024 0.027123194 -0.04941142 -0.026500331 0.029532978 0.23070183 0.0030627882 -0.3753493 0.049672216 0.15865268 0.17724629 -0.11685923 0.1522018 0.11724723 -0.09407789 -0.10194582 0.092063196 0.11287793 -0.16651928 0.29965258 0.090752535 -0.039710302 0.09502464 0.07961838 -0.07070445 -0.14389846 -0.136415 0.02965676 0.055397972 -0.056659296 -0.048497405 0.092895985 -0.1489451 -0.19330405 -0.115477026 -0.12611644 0.1895901 0.105349235 0.23638509 0.09709108 0.23272912 0.28901193 0.27078167 -0.018114947 -0.14969915 -0.19966426 -0.16356993 -0.06560753 -0.098749325 0.16122101 0.05007316 -0.042172205 -0.22683266 0.016336124 -0.055717494 -0.34274444
8416:DUNJEE -0.117672734 -0.1523908 0.04612732 -0.17286558 -0.20131986 0.25265154 -0.23765731 -0.059492756 0.12006399 0.08441252 0.056163482 0.1775301 0.05977927 -0.24365602 0.046811026 0.16429289 0.20940466 0.11079343 0.38199762 -0.19615489 0.120963976 -0.09351253 -0.12836894 0.019306209 -0.25474566 -0.11482132 -0.04150939 0.020355536 0.19615455 -0.12818211 0.052247237 -0.06379446 -0.10154742 -0.23439218 0.1499249 0.12908928 -0.066420026 -0.044749573 0.06189422 0.15833335 -0.12691936 -0.013919439 0.15019193 -0.28053957 -0.0032972337 -0.060692076 0.108689666 0.025050486 -0.13960028 -0.23836333 0.011133116 -0.04818418 -0.114282325 -0.13542356 0.10060087 0.11429067 0.022832178 -0.0024927685 -0.12705949 -0.2199636 0.096791066 -0.12721106 0.04270716 0.07977399 0.241569 0.04106155 -0.12605111 -0.007864222 -0.11523874 -0.02511652 -0.22696215 -0.21630456 -0.32845882 0.082681276 -0.12970734 -0.11412213 -0.00034097594 0.24893364 0.088588975 -0.13841209 0.17681114 0.12450453 -0.12019117 -0.07249131 0.16864266 0.18344781 -0.22295606 -0.21552037 0.17582074 -0.037869364 0.013426173 0.17852111 -0.050509587 0.13402195 -0.04281295 -0.06360267 -0.020948939 0.05616275 -0.5102949 0.21664569 0.1389373 -0.232375 0.17694229 -0.017359825 0.044940047 -0.03865969 -0.27917737 -0.15229239 0.039884407 -0.16406944 0.16836324 -0.049077768 0.25055066 0.19750224 0.13825984 0.11346638 -0.15808609 -0.091297165 -0.055164054 -0.2543211 -0.057855707 -0.19193467 0.1011097 0.4569004 -0.10637954 0.006399207 0.09103918 -0.33412498
8340:SILVER_LAKE -0.06294424 -0.065303124 0.036530852 -0.11439589 -0.2141176 0.29735422 -0.2005504 -0.17746681 0.08920463 -0.10849058 0.10418453 0.09976572 0.2371283 -0.14412609 -0.0032303922 0.06403457 0.23447357 0.21270694 0.43052223 -0.25761947 0.14059393 -0.0010501764 -0.076563016 -0.063353084 -0.21122126 -0.14993355 -0.06611819 -0.07966903 0.22143464 -0.14697735 0.12635888 -0.095616505 -0.2508967 -0.18655965 0.123054646 0.16944148 -0.14105721 0.08834434 -0.017685683 0.16880876 -0.013788049 -0.021004884 0.074432395 -0.22879218 0.029035732 0.0077303164 0.18007965 -0.1438045 -0.17101811 -0.13556425 0.09132351 0.01619302 -0.13018095 -0.06467998 0.120085366 0.023791224 0.0733071 0.06235022 -0.13639653 -0.15459774 0.11213471 -0.1818043 0.024028437 -0.081624955 0.24253337 -0.06899665 -0.073401645 -0.1275469 -0.12139212 -0.080959216 -0.22551355 -0.212988 -0.30105802 0.037755515 -0.0038882694 -0.06566216 0.08615943 0.09752124 0.060159985 -0.08981262 0.09151075 0.07061725 -0.16981053 0.07314841 0.1230323 0.23211403 -0.11320177 -0.14584921 0.12437436 -0.0633468 -0.040830914 0.0797666 -0.18147035 0.0676809 0.021920368 -0.04496644 -0.055185623 0.11469294 -0.4078081 0.22975577 -0.014734918 -0.22689821 0.18231088 -0.10779301 -0.040917233 -0.15334085 -0.19191767 -0.1813134 0.1387122 -0.10569049 0.18608561 0.033043083 0.19313593 0.37719354 0.18805991 -0.009806333 -0.11883651 -0.08887541 -0.13841812 -0.14598478 0.0077495836 -0.035553467 0.11111571 0.30077192 -0.11932539 0.0705425 -0.013886749 -0.17547224
5605:PAULS_VALLEY -0.19235188 -0.020142429 0.024387993 -0.2713981 -0.20700757 0.18329114 -0.06076594 -0.25159958 0.296156 -0.071075924 -0.1720843 0.11215602 -0.029654767 -0.101237506 0.09070198 -0.09956363 0.042876106 0.052601367 0.02251924 -0.18088971 -0.02984994 0.14662212 0.06253863 -0.1426112 0.24477717 -0.041140262 -0.16547698 0.026623802 0.14958945 0.04783299 0.012055079 0.03635046 -0.27140418 0.01663453 -0.015213746 0.048274238 -0.1415885 0.16500083 -0.20376208 0.046541408 -0.0039469046 0.11222266 -0.07528868 -0.23418157 0.001033478 0.13477692 0.36415008 0.094659574 0.056521967 0.04260128 -0.09910948 -0.1312509 -0.12623924 0.124094866 0.12026126 0.15279715 -0.16446899 0.0030890724 -0.15749271 0.054692056 0.27041718 -0.048618864 -0.16863224 0.20651194 0.30223534 -0.13563924 -0.024116168 -0.008072736 -0.0110449605 0.13349964 -0.31904432 -0.132812 -0.3228784 0.2506157 0.06838844 -0.0031325095 -0.09119756 0.30135763 -0.16922022 -0.10179354 -0.052247744 0.0024340071 -0.07114415 0.031957693 0.20267789 0.2329956 -0.0403666 -0.17099072 0.03920479 0.17241317 -0.2635974 0.16093327 -0.0037223534 0.01749501 0.025543187 0.014335411 0.04199926 -0.118619345 -0.16762105 -0.11183528 0.06451919 0.0087402295 0.058961984 -0.035635263 -0.17842126 -0.07999298 -0.15915498 0.02008669 0.16606145 0.076392606 0.19701232 -0.11288208 0.009959139 0.24040088 0.28426942 -0.081923775 -0.1027621 -0.11746596 0.049513005 -0.051811405 0.01932006 0.37873796 0.13541853 -0.022671336 0.09571914 0.10977102 0.025787834 -0.321806
8471:NE_30TH_ST -0.14834225 -0.066709705 0.022365438 -0.21470079 -0.19366603 0.32404867 -0.11045828 -0.2747446 0.18198405 -0.10909216 0.005908477 0.030038903 0.09599478 -0.08148141 0.018304596 0.115976244 0.14368117 0.17882803 0.36125097 -0.20818162 0.10245972 -0.08891412 -0.1104264 -0.14168473 -0.16788742 -0.10894517 -0.1999063 -0.105384566 0.16903107 -0.08390205 0.15989825 -0.060776778 -0.18942998 -0.20942749 0.1563513 0.11147725 -0.1852017 -0.012976312 -0.027082432 0.15414698 0.12304488 0.021092711 0.11568263 -0.1959144 -0.014748348 -0.009110406 0.15909044 -0.031104205 -0.19990315 -0.1665429 0.14718531 0.08099281 -0.054479547 -0.08768067 0.0775623 0.080245554 0.053569157 0.013844957 -0.12795343 -0.23507118 0.04812592 -0.031549137 0.08270655 -0.026256576 0.20879255 0.05729872 -0.01216192 -0.09945688 -0.07950137 -0.082864076 -0.29152188 -0.13404623 -0.3140296 0.028671196 -0.043612324 -0.014526551 0.111506954 0.18735866 0.050105814 -0.06594925 0.105078734 0.06326685 -0.10856113 0.07090333 0.21249418 0.26340118 -0.17503376 -0.112254 0.12158971 -0.0930563 -0.042358268 0.026952121 -0.058220107 0.028565269 0.043365955 0.0038970783 -0.031553656 0.080641754 -0.36856657 0.31789517 0.084115565 -0.23348232 0.021521939 -0.13868657 -0.014776261 -0.18308894 -0.19287105 -0.15536928 0.18031678 -0.18508969 0.20048353 0.07129459 0.16514719 0.28544533 0.11408021 -0.036540907 -0.085016884 -0.094239585 -0.09413345 -0.2963175 -0.015623694 -0.010015696 0.11242649 0.2434495 -0.14368549 0.043396365 0.031979848 -0.14141725
8313:HAYMAKER -0.06988971 -0.0005991804 0.015776753 -0.17224911 -0.20316353 0.28531983 -0.16359873 -0.12431067 0.047035437 -0.040280886 -0.01634438 0.09611489 0.065593444 -0.060164478 0.031112326 0.083462946 0.17784372 0.24166644 0.37348732 -0.12065647 0.09889728 -0.02250806 -0.19199458 -0.051288933 -0.1854185 0.011089672 -0.1675525 -0.085969135 0.2466279 -0.061114684 0.21177296 -0.11176243 -0.1511424 -0.20145483 0.1315327 0.11877373 -0.33355337 0.15110403 0.04926782 0.17348532 0.1164873 0.058866184 0.097612984 -0.25975886 0.03731999 0.044593167 0.19360384 -0.10233953 -0.22681159 -0.1213597 0.124190785 0.08963829 -0.10773384 -0.10575453 0.0740006 0.15079261 0.0067138225 0.03567357 -0.1462028 -0.16232307 0.05887834 -0.058436822 0.042910837 -0.17087549 0.21064268 0.0072782086 -0.047655504 -0.15113135 -0.076732256 0.033213127 -0.19332859 -0.20058219 -0.37328976 0.11003888 -0.12664984 -0.19708198 0.09454212 0.1609116 0.1294777 -0.08225124 0.14099643 0.123788886 -0.1923281 -0.0151823005 0.05501762 0.23023419 -0.09215231 -0.101230964 0.12750489 -0.16989504 -0.11816488 -0.033170972 -0.22625487 -0.041263968 0.036888357 -0.10211184 0.029245894 0.10642225 -0.3725687 0.36559594 -0.09983302 -0.17664146 0.10131029 -0.012177337 0.05603582 -0.24527447 -0.17876801 -0.12210107 0.08060647 -0.15681593 0.14609163 -0.044076405 0.22233494 0.24293154 0.107902475 0.094517 -0.16494091 -0.22104396 -0.18960458 -0.23634127 -0.025325237 0.038636703 0.1226381 0.28053653 -0.17830874 0.05466424 0.18457143 -0.19494794
8493:KELLEY_AVE -0.23472366 -0.111791685 0.029032623 -0.24960783 -0.17276187 0.36191237 -0.15337186 -0.1520746 0.17842321 0.0030182858 0.105726324 0.024162866 0.07730397 -0.060064472 -0.008980009 0.05748314 0.0827281 0.22108969 0.38387397 -0.17495453 0.11369888 -0.11888183 -0.14279139 -0.13655461 -0.23082337 -0.12772389 -0.103565186 -0.045427904 0.2681944 -0.17690052 0.19772899 -0.06187695 -0.15023842 -0.27177733 0.21219721 0.13421772 -0.19786556 0.024520513 0.05627427 0.19910553 0.0197501 -0.02067009 0.07442296 -0.24140921 -0.09169792 -0.07415307 0.19602877 -0.10141003 -0.1386363 -0.2143179 0.109787345 0.033117592 -0.08730796 -0.16655372 0.02252308 0.039840046 0.06746319 0.041473214 -0.07722449 -0.18657969 0.14040275 -0.15056528 0.06410653 -0.025316376 0.23861688 0.0076488066 0.013366342 -0.07293365 -0.1525233 -0.027875334 -0.24869984 -0.19394916 -0.28987566 0.028615138 -0.05948845 -0.10218264 0.089388974 0.14325608 -0.0021791311 -0.12070815 0.19106722 0.09987864 -0.19619709 -0.009212415 0.1349673 0.30997106 -0.18811722 -0.12632799 0.18212812 -0.115035355 -0.14433569 0.107876405 -0.08298949 0.14348508 0.08595835 -0.1710811 0.011047259 0.10830291 -0.29041818 0.2503555 0.11089836 -0.31343484 0.0457869 -0.07185358 -0.03218398 -0.13425566 -0.2258138 -0.16345719 0.18674289 -0.13554724 0.11009946 0.15524346 0.20069298 0.22023702 0.14504434 -0.07456519 -0.032386173 -0.07206239 -0.1123086 -0.31795987 -0.07827753 0.023331815 0.013160083 0.32273287 -0.07682827 0.054863382 0.036960397 -0.10768315
8430:REMINGTON_PARK -0.1268351 -0.19721481 0.014244109 -0.11369321 -0.21175617 0.3837418 -0.17906189 -0.14261027 0.12944819 -0.06954845 0.06291937 0.057006713 0.14733927 -0.101384036 0.052949943 0.1405011 0.13016589 0.2719008 0.40140405 -0.18310542 0.13080382 0.035296172 -0.073137015 -0.039714664 -0.30514008 -0.106653824 -0.15691854 -0.06410995 0.2142671 0.022878537 0.012560702 -0.04727973 -0.15497068 -0.22967751 0.112682104 0.24840765 -0.16242068 0.06319795 0.068081215 0.23241799 -0.008690616 -0.08766862 0.11225515 -0.26935795 0.13669243 0.05338731 0.26650515 -0.17994215 -0.13750368 -0.2117556 0.14194863 0.101708554 -0.079325385 -0.23993544 -0.0051860246 0.10488557 -0.008617583 0.027713927 -0.19008793 -0.13256106 0.11423853 -0.11317908 0.024321308 0.006553399 0.2897387 0.011634017 -0.04690513 -0.026809542 -0.1550793 -0.1424882 -0.28209713 -0.2524247 -0.19485712 -0.06125761 -0.1511668 -0.16133572 0.045427777 0.08734009 0.04096868 -0.101977095 0.06423871 0.055874627 -0.19417503 -0.06826468 0.14045742 0.16568242 -0.080978975 -0.116766475 0.1698375 -0.067731045 -0.08275393 -0.016390866 -0.09528486 0.074026324 0.02077852 -0.07846573 0.019378614 0.10252643 -0.33934268 0.23837365 0.050225135 -0.33790216 0.070530504 -0.03374124 0.037856746 -0.2189954 -0.24984507 -0.21306798 0.26503912 -0.077457756 0.20143384 -0.13961399 0.17175883 0.2368074 0.11701958 0.1422364 -0.068503916 -0.06342328 -0.12557389 -0.14120775 -0.016955582 0.03017838 0.11857526 0.26016352 -0.051271513 0.10535143 0.06858718 -0.027593043
