281 128
8221:MERIDIAN -0.049547903 0.011950876 -0.10405619 0.14494894 0.14119716 -0.12051615 0.22279243 -0.032399267 -0.017964795 0.20176879 -0.11322048 0.04149666 -0.031961232 -0.05186416 0.19402994 0.14051726 -0.15565263 -0.04498254 -0.08909517 0.11936551 0.031308375 -0.011491742 -0.21227448 -0.20526475 -0.024706673 0.18278858 -0.091705844 -0.055619407 -0.022336088 -0.088558204 -0.020617971 -0.0124257915 0.039459307 0.16693774 0.0023105564 0.019447878 0.13974814 -0.026049437 -0.04930909 0.017206954 -0.008468797 0.092574425 0.010199418 -0.08047271 0.07580456 -0.008828477 -0.14578745 0.11676608 -0.04489232 0.111056335 0.025795134 0.042657983 0.059740584 0.02657233 -0.018390622 0.016601825 0.04201794 -0.07205224 0.026405325 0.02063298 -0.066986725 -0.082797736 0.09340841 -0.034189913 0.028246943 0.026584877 0.08671797 -0.02482096 -0.009090944 -0.05887051 0.005661304 0.011277576 -0.04597188 -0.03548707 0.034676757 -0.0264823 -0.12240308 -0.024442986 -0.036895964 0.009765356 -0.0911374 -0.13793084 -0.08161314 0.10501513 0.10303777 0.0032479127 0.13971609 -0.05147888 0.021465685 -0.054830976 0.052518453 0.017860366 0.09441842 -0.051746257 -0.01993288 0.13654245 -0.14929393 -0.14578792 -0.10927592 -0.05378378 -0.08200174 0.101071246 0.073711246 -0.11403631 0.06319877 0.11262813 0.016209386 -0.027154587 0.069315605 -0.09309806 0.06568505 -0.08664595 -0.036008224 0.07958414 -0.03160414 0.028173756 -0.057930317 -0.050897513 -0.04674899 -0.005150885 -0.06632864 -0.057647217 -0.032890413 0.0012787986 -0.06459421 0.018741393 0.01388541 -0.036945116
8336:TENNESSEE -0.049270716 -0.018223576 -0.01763378 0.11431092 0.042946663 -0.11142684 0.21796808 -0.11008757 0.04795514 0.14868966 -0.056270644 0.06667081 -0.083954185 -0.06790106 0.23391417 0.12946041 -0.089301154 -0.07241459 -0.16013877 0.092525505 -0.016850479 0.052371796 -0.1007828 -0.27418384 -0.049800094 0.14759645 0.0135614285 -0.04546987 0.014136506 -0.10794215 -0.055774506 0.022831602 0.022267029 0.055477533 -0.10592688 0.04745589 0.012096036 -0.069891 0.050927382 -0.027085455 -0.046119083 0.032683387 0.03740082 -0.0938445 0.0792995 -0.074459575 -0.20231465 0.005661787 0.0010807727 0.06206268 0.024570754 -0.046382945 0.033329148 -0.019601384 0.00095118803 -0.047646474 -0.0021151793 -0.11231225 0.015242506 0.0054658083 -0.035367426 -0.03802331 -0.009967914 0.0509077 0.13472489 0.017774679 0.106854014 0.068132155 0.0057738214 -0.08731301 -0.017693816 0.035475824 -0.04678189 -0.042281993 0.0015962699 0.0098233465 -0.07395599 -0.0560806 -0.04600038 -0.01659642 -0.051549047 -0.083815314 0.016590144 -0.01401235 0.0270665 0.11364879 0.051376242 -0.036913466 -0.043994863 -0.070788756 0.07306177 -0.00391577 0.041868508 -0.053515986 -0.086359225 0.093729444 -0.049538847 -0.12602194 -0.07231664 -0.083238244 -0.042314243 0.04080389 -0.04789308 -0.11148021 0.0729222 0.06804655 0.11089582 -0.031201772 0.12507074 -0.051951207 0.1281657 -0.09369712 -0.014373258 0.062598884 0.050774302 0.01045706 0.007624926 -0.02771879 -0.05937095 0.036686037 -0.0738722 -0.06642158 0.011371262 0.01213435 -0.09263793 -0.12741439 0.031654336 0.023524662
5506:BODLE -0.019282084 -0.028968496 -0.05991624 0.030672792 0.025606574 -0.03472693 0.17428255 -0.121280454 -0.011775607 0.1846299 -0.027838914 0.03468356 -0.08261134 -0.029312186 0.27872485 0.022816343 -0.07757725 0.026905516 -0.088201545 0.08724171 0.032886937 0.12390801 -0.18302725 -0.2186826 -0.035117645 0.12336212 -0.016200945 0.024431376 -0.049386654 -0.15959996 -0.041844133 -0.04783455 0.03755316 -0.017055823 -0.029879427 0.04897652 0.0374038 -0.121008396 0.009584177 -0.014137413 0.050281823 0.05582597 -0.0031429478 -0.03704733 0.09653483 -0.15558545 -0.14420761 0.0069043846 0.03730475 0.08553241 0.15923917 0.00049633154 -0.058662217 -0.048783198 -0.041407738 -0.03995104 -0.01100359 -0.13234635 -0.06329666 -0.019825345 -0.20887138 -0.028769696 -0.019152394 0.09247497 0.028350879 0.11041257 0.0039849454 -0.066277795 0.10222342 -0.001358618 0.063908055 -0.031459156 -0.10038164 0.005769107 0.042513765 -0.019474167 -0.06506293 -0.13747711 0.04112832 0.08205961 -0.018849151 -0.071540184 -0.012876889 0.013309087 0.06551715 0.023840364 0.23504266 -0.00974401 0.033200044 0.06786353 0.044476844 0.0481831 0.1428459 -0.012926813 0.041216996 0.17785104 -0.058233157 -0.011596721 -0.03893176 -0.110020086 -0.03787812 -0.036994565 -0.10096864 -0.09768336 0.008948072 0.062966675 0.028995527 -0.01161967 0.058648147 0.05763336 0.055936698 -0.07861402 0.051359303 0.088136494 -0.03901418 0.07287159 -0.044313844 -0.1366903 -0.020364497 0.10347194 -0.010613947 -0.056786843 0.0240309 -0.039355785 -0.042387743 -0.09039268 0.06770328 -0.082727626
8621:DRAPER_LAKE 0.0033288528 -0.067634754 0.02104545 0.16592675 0.0673135 -0.115801305 0.2285134 -0.090096764 -0.03209147 0.18077125 -0.028432343 -0.07928846 -0.036933802 0.06304555 0.26677582 0.033578362 -0.17435715 -0.08886373 -0.08066732 0.06468601 0.092006505 0.04433369 -0.23475873 -0.21359608 -0.065922335 0.16216582 -0.0074416744 0.007581939 0.007024812 -0.14435922 -0.04469152 -0.04019725 0.07623054 0.09331159 -0.00021044738 0.014699934 0.09923256 -0.04231506 -0.00052729907 0.03978571 -0.020133505 0.04196412 -0.032884877 -0.036680825 0.035961747 -0.037400987 -0.05705072 -0.028215809 0.036863346 -0.008485856 0.08374765 -0.00076704065 0.006509507 0.0029256118 -0.07563473 -0.04464306 -0.065685175 -0.09628563 -0.029918164 0.026888592 -0.10181597 0.014252951 0.049673058 0.0941426 0.07789898 0.0049401117 -0.06611652 -0.022709755 -0.071443215 -0.023641508 -0.088501155 -0.036496595 -0.06739025 -0.006496291 0.09074372 -0.07594104 -0.038665224 -0.0879347 -0.030594284 -0.02709799 0.016192032 -0.11538863 0.002495145 -0.08400277 0.13487463 0.08481647 0.1632788 -0.011291341 0.08787772 -0.01608601 0.02762472 0.05160283 0.06647671 -0.044530924 0.045584697 0.19513603 0.017809136 -0.1892137 -0.017901251 -0.14907923 -0.039448798 0.08774435 -0.101141974 -0.052746017 0.07615452 0.08810662 0.070727006 -0.011658113 -0.0027751785 -0.042754967 -0.0054922705 -0.061420918 0.0327403 0.01807625 -0.016835779 0.0018806059 -0.023783198 -0.08460302 -0.02721182 0.07805326 -0.09033039 -0.023205334 -0.0006156636 0.04992438 -0.08575556 -0.044459324 0.09512309 -0.03064514
8469:MEMORIAL -0.09718748 -0.059293494 0.09800153 0.05400992 0.13968106 -0.13181667 0.22270198 -0.124830626 0.07306646 0.12540066 -0.02455024 -0.0042267414 0.055931523 -0.06932422 0.21642858 0.13088563 -0.100012995 -0.06960013 -0.12963854 0.15111054 -0.008898119 0.105999425 -0.120003425 -0.15064353 -0.04360394 0.111972116 -0.04530068 0.005768414 -0.015449701 -0.06327442 -0.08001749 -0.00406175 0.04303037 0.033928934 -0.02342358 -0.0045974995 0.10055568 -0.04952118 0.041077398 -0.04684307 0.026787842 0.11235868 -0.040045395 -0.08631386 0.12470558 -0.10596909 -0.12836252 -0.03684178 -0.089416094 0.02357031 0.06168028 -0.016407046 0.008973469 -0.0074639264 -0.09210663 -0.13154995 -0.04521162 -0.09431935 0.07661652 0.04606287 -0.11754977 0.031580944 0.06314035 0.022455813 0.066011995 -0.0069533703 -0.031204546 -0.001520119 0.03496678 -0.13044234 -0.033155095 -0.07708643 0.0032420114 -0.011733883 0.056470938 -0.0027453934 -0.040187147 -0.09498141 0.03140356 0.14905147 -0.09805426 -0.20858039 -0.03207908 0.07477148 -0.033229977 0.052605215 0.07793656 0.07576813 -0.0007546068 0.012386729 -0.0028064337 0.026932115 0.09425477 0.10015761 -0.032108083 0.09430197 0.007801989 -0.11025841 -0.069705315 -0.096558675 -0.059149515 0.084320225 -0.064828016 -0.116499186 0.10750059 0.061828434 0.13457972 -0.11187966 0.08205482 0.026307961 0.009028123 -0.16266054 -0.07781094 0.0674422 0.02157252 0.007316932 -0.053938746 0.06340015 0.017183943 0.031288847 -0.111869715 -0.013368837 -0.017574646 -0.009629161 -0.078668185 -0.033113707 0.07677193 -0.08051277
9125:CARNALL -0.06603919 -0.08587445 0.035700433 0.027272156 0.026395466 -0.14703031 0.17484988 -0.068471774 -0.035063487 0.20518541 0.014254538 0.087799855 -0.014066647 -0.06855689 0.14699756 0.16199072 -0.26546943 -0.098325126 -0.036822606 0.13533793 -0.011384206 0.03402511 -0.25127122 -0.19445226 -0.079598784 0.13304047 -0.007747191 0.0025505936 0.051525716 -0.12657416 -0.10431392 -0.08302658 -0.0018274665 0.054273244 0.06514926 0.03488857 -0.07238849 -0.067466006 -0.02256941 -0.025055347 0.034950104 0.013264371 -0.027850995 -0.085061 0.10582102 0.002443189 -0.1402768 -0.02743287 -0.0035124177 0.009678695 0.07290333 0.020336578 0.03557879 -0.059880354 -0.045503024 -0.10434729 -0.032077517 -0.044320446 0.026766961 0.12880109 -0.18762913 -0.025841193 0.08997207 -0.00804843 -0.04684751 0.056484774 -0.01807616 0.004144835 -0.0035845113 -0.119724564 0.014059915 -0.030828143 -0.13566537 0.06484205 -0.011314392 0.03814127 -0.03233196 -0.064627066 -0.02509467 0.022324583 -0.045197282 -0.11536732 -0.042760793 0.06736994 0.019405298 0.05090737 0.19157517 -0.03348439 0.0957636 -0.050974283 0.13979146 0.062249254 0.09808352 -0.05383702 0.043956753 0.18182164 -0.041747052 -0.058685556 -0.027789064 -0.07423546 -0.08623289 0.09970016 -0.029707788 -0.1397918 0.03738215 0.007216633 0.064864494 -0.011601526 0.046019353 -0.009759036 -0.02888604 0.04457373 -0.04873627 0.061082207 -0.02646734 0.0601452 -0.086071976 -0.07580669 -0.077635 0.0031930422 -0.12445249 -0.008892946 -0.006350066 -0.035016723 -0.053351272 0.0062631164 0.09667514 -0.06455195
9330:SIMMONS -0.0029142601 -0.13406603 0.015562956 0.020137213 0.13429378 -0.04602462 0.22999476 -0.039269775 0.047810387 0.12805258 -0.08966435 0.022164863 -0.049548935 -0.07744308 0.16682681 0.15896969 -0.14309905 -0.14982405 -0.073333696 0.11696373 0.03440486 0.1144983 -0.20082697 -0.14728834 -0.13222204 0.23404951 -0.172153 -0.050747298 0.042032633 -0.098467655 -0.15543626 0.003610548 0.035240043 0.060761232 -0.013711227 0.02407597 0.057803575 -0.064083576 0.042357314 -0.009337708 0.042794395 0.06859611 0.021641873 -0.06035721 0.09156589 -0.043108013 -0.08661123 -0.013721507 0.057019874 0.010161087 0.08138633 -0.024727564 -0.04195273 -0.038294844 0.035290867 -0.1018372 0.06339215 -0.06757955 0.037042834 0.046769213 -0.08013609 -0.003256953 -0.054242395 0.11415138 0.03575781 0.07344563 0.004548945 -0.019132782 0.024805445 -0.0537174 -0.1400935 -0.019351747 -0.06721408 0.11398769 0.02979717 -0.08249961 -0.022511384 -0.080999896 -0.040852513 0.07370932 -0.10616557 -0.017722467 0.0033183272 0.017306114 -0.0037435936 0.113910064 0.0065656817 -0.07035009 0.027542947 -0.039628148 -0.032763097 0.0440697 0.173728 -0.08626695 0.013428592 0.14916483 -0.025518334 -0.1337881 -0.10530808 -0.038848557 -0.09130059 0.07179043 -0.09183165 0.005399012 0.051348284 0.10246665 0.034783494 -0.08374594 0.03884573 -0.054147884 0.03302376 -0.051700715 0.0508035 0.007955746 -0.055525377 0.07979282 -0.11550533 -0.086563155 -0.063162334 0.04810813 -0.038979467 -0.02213564 -0.073124684 0.09092129 -0.118819475 -0.027506378 -0.028642656 -0.012630814
8536:WASHINGTON_PAR 0.05891966 -0.07742307 -0.08714899 0.049078476 0.054944757 -0.106304474 0.25098082 -0.08482263 -0.029812472 0.18803543 0.01962612 -0.03133253 -0.03365633 -0.01723476 0.18091844 0.13829102 -0.051318415 -0.08697529 -0.0690209 0.047950223 -0.035661187 0.068264134 -0.14813463 -0.17844349 -0.109500915 0.0928553 0.027896326 -0.037926488 0.0045004496 -0.1092365 -0.14710619 -0.06975088 0.03208612 -0.018519172 -0.102827504 0.13848968 0.055420075 0.023166323 0.025224458 -0.02402208 -0.013190619 0.051713623 -0.017711528 -0.044470713 0.09611338 -0.08100771 -0.09571271 -0.04192871 0.07570813 -0.029768556 0.08946138 0.05477791 -0.02512251 -0.020014076 -0.03220422 -0.009968745 0.028357795 -0.086239755 -0.082664505 -0.013509846 -0.071333654 0.01813644 0.009431618 0.10279056 0.019534934 -0.00057712436 0.110923015 -0.00027872028 0.035384566 -0.03800596 0.03792111 -0.069841646 -0.12517697 -0.01706353 0.049270958 -0.036334585 -0.0032517433 -0.1300462 -0.077432856 0.04382588 -0.024079373 -0.017274845 -0.08563461 -0.016129395 0.040721253 0.10620514 0.11857734 0.0032780548 -0.013461393 -0.06725272 0.044655714 -0.044675853 0.1264954 -0.043939516 0.009207744 0.17697541 -0.09784453 -0.14193289 -0.061523624 -0.03752049 -0.06990568 0.0949145 -0.07015044 -0.051026598 0.03152541 0.15404059 0.045597065 -0.041537516 0.15028624 -0.03912805 0.012796269 -0.0130900005 0.02164443 0.08340499 0.031279538 -0.006518771 0.024210475 -0.02670966 0.0029166862 0.030227907 -0.13348894 -0.09354922 -0.031582307 0.020302001 -0.04256456 -0.015734006 0.051297396 0.019128323
4606:CEDAR_AVE -0.01926681 -0.07386219 -0.034550708 0.06659557 0.05803596 -0.14109549 0.24268107 -0.079033785 -0.1131145 0.1904125 -0.008641984 0.005118236 -0.013843532 0.04899318 0.21164228 0.057718106 -0.1798598 -0.069927245 -0.1267815 0.12210601 0.035980493 0.112440415 -0.14649928 -0.16045867 0.022733008 0.07526653 0.041795384 0.023470966 -0.01445725 -0.08186134 -0.0056203553 -0.06538258 0.024441043 0.015975757 -0.07081357 0.055890437 0.105936036 -0.05389344 0.031244459 0.010703027 -0.04838386 0.039576396 -0.052846823 -0.038535524 0.082051076 -0.088901095 -0.05237194 -0.023843467 -0.029233847 0.05284264 0.06479667 0.03163759 0.059270546 0.02374307 -0.09273319 -0.13096839 -0.07440253 -0.14519107 0.017895415 0.07789421 -0.12174803 0.07726608 -0.003437149 0.050757047 0.026174374 0.06762035 0.09709068 -0.06284203 -0.046561178 -0.10499948 -0.010993434 -0.011014008 -0.076693326 -0.06743491 0.029286712 -0.08546018 -0.072221264 -0.19152074 -0.07633533 0.045544613 -0.08539682 -0.07264564 -0.08651943 0.011418269 0.014168303 -0.022044726 0.19099678 -0.019553313 0.09894568 0.017723389 0.026228018 0.00792187 0.06872497 0.066886865 -0.04959012 0.10040525 0.017197978 -0.08731109 -0.096075684 -0.07565671 -0.1418436 0.15935934 -0.064739205 -0.054962136 0.054540496 0.051007643 0.07267532 0.0036956999 0.038781777 0.07142036 0.027436167 0.03720562 0.043481957 0.020375224 -0.06265517 0.029799748 0.0536389 -0.049630444 -0.013010464 0.067241214 -0.094603196 -0.027882906 -0.0120992195 0.07719059 -0.14546593 -0.025840497 0.12838925 -0.029731289
8822:WATERLOO -0.017165894 0.059225623 0.04867824 0.090658665 0.13924743 -0.1666046 0.21826242 -0.072195 0.0026612272 0.2183117 -0.020101823 -0.0020802547 -0.0040031043 -0.05931401 0.210375 0.1507159 -0.08690179 -0.05010088 -0.07078193 0.1413862 0.114012875 0.10364727 -0.20907995 -0.1612715 0.005268748 0.1333768 -0.026464581 -0.014302227 0.014233345 -0.12221998 -0.064865306 0.005756322 0.035437644 0.035753816 0.028083907 -0.073464386 0.047949623 -0.04986519 -0.08283128 -0.015288441 -0.02710749 0.08168565 -0.09076103 -0.03853939 0.043711577 -0.016057864 -0.12674041 -0.14162332 -0.023520049 0.007648628 0.11533961 0.07239027 -0.0007330391 -0.025254453 -0.08535801 -0.07264414 -0.072547644 -0.074517205 -0.033052474 0.07318899 -0.058571722 0.016989125 0.056760825 0.16454653 0.004863921 -0.07720719 0.011120053 0.0198217 0.04015993 -0.035472147 -0.08030711 0.006924384 -0.09732043 0.025489839 0.03054506 0.016163463 -0.12599583 -0.13075964 -0.14796692 0.027485529 -0.057012133 -0.17559615 -0.049029477 -0.027622398 0.03977515 0.058475442 -0.005217936 0.055911623 0.085362926 -0.04040615 0.045552865 0.024410358 0.05914159 -0.0022319332 -0.048384495 0.15761387 0.047359273 -0.09777599 -0.0609243 -0.11076661 -0.043747827 0.06257013 -0.05574699 -0.031438444 0.086564735 0.09164493 0.010594117 0.023952866 -0.004410249 -0.006222453 0.08301557 0.07498557 -0.05616681 0.010881208 -0.017031223 0.015298096 -0.017741745 0.01157827 0.02539847 0.03820082 -0.051948223 -0.07324178 -0.017177155 0.0731606 -0.00056666025 -0.007355547 0.05081477 -0.06323188
8650:GLENDALE -0.1027037 -0.063388415 -0.020450013 0.11542471 0.14954656 -0.1326502 0.18555817 0.026340244 0.06506661 0.19563009 -0.018561224 -0.03530987 -0.058078006 -0.111850776 0.27092052 0.16035062 -0.13074073 -0.060126577 -0.06650382 0.10520604 0.015192195 0.102804266 -0.22590962 -0.15019952 -0.060140885 0.15165672 -0.018618535 -0.052837834 -0.009550871 -0.11818526 -0.12832378 -0.0732703 0.098989055 0.05335107 -0.11676719 0.11708518 0.0076899896 -0.03352091 0.030580562 0.015970433 0.030188108 0.04649666 0.049583938 -0.037989873 0.105743006 -0.102782845 -0.095014356 0.02679201 -0.00015896512 0.09695246 0.085156485 -0.033955134 -0.07355149 -0.03639674 -0.021979738 -0.09348209 -0.030932166 -0.02537071 -0.05355829 -0.007637428 -0.13637763 0.008940841 0.086974844 0.051491108 0.053355627 -0.00657858 -0.030332746 0.04302619 -0.02492498 -0.057220455 0.014989573 -0.002044419 -0.057154033 -0.036008216 -0.049340464 0.045432247 -0.03443442 -0.11563316 -0.009653076 0.10803163 -0.024668768 -0.10517384 -0.1121457 -0.013038745 0.0049945805 0.044658683 0.07974766 -0.026419846 -0.005677888 -0.025993953 0.034122176 0.09651718 0.14287311 -0.018155774 0.013230831 0.17130372 -0.10939647 -0.112541914 -0.07164002 -0.09050195 -0.091782935 0.10359234 -0.046947528 -0.057514064 0.095228925 0.042000514 0.034701988 0.022201939 0.019094547 -0.028865417 0.030999174 -0.08678865 0.052649386 0.012014219 -0.0583988 0.106855236 -0.03668518 0.010340219 0.030229153 -0.021768829 -0.07595876 0.037970565 -0.075260095 -0.03174092 -0.034146443 -0.0140092 0.02099928 0.004104888
8707:WILKINSON -0.08736181 -0.007239446 0.060972277 0.049848918 0.124602064 -0.074212134 0.19324136 -0.035123844 -0.022955304 0.15930855 -0.010679826 -0.051461805 -0.04647932 0.029371986 0.18537936 0.1166134 -0.16358633 0.00061773596 -0.13817404 0.15247458 0.015011551 0.072567225 -0.15564896 -0.2685372 -0.02960116 0.18647191 -0.059888702 -0.0156140635 -0.065459825 -0.09771111 -0.046569116 -0.008146239 0.02612021 0.06474445 0.082824774 0.009321562 0.12490429 -0.10627053 0.0073437435 0.024564859 -0.0704177 0.03659582 0.05005287 -0.102437764 0.08029879 -0.11720391 -0.20578559 -0.009568953 -0.064815715 0.1014723 0.033765238 -0.012385622 0.06880735 -0.005282083 0.0069271238 -0.0666562 0.016110513 -0.05308088 0.048083443 0.031119125 -0.10022705 0.008185013 0.023290277 0.03641372 0.042447835 -0.0041640038 0.045320876 -0.055607617 -0.001617261 -0.056152213 0.035303287 0.047814462 -0.07630591 -0.02917927 0.07166702 -0.016685776 -0.05533437 -0.09861435 0.0029078752 0.07649024 -0.055884387 -0.12733772 -0.11990325 0.051449202 -0.00016107528 0.050506476 0.108090885 -0.022069275 0.025128027 -0.034964904 -0.032668166 -0.023464356 0.14307018 -0.005970076 -0.09570379 0.17324518 -0.0064796493 -0.07213824 -0.034337964 -0.11670987 -0.094785154 -0.0002584762 -0.0113351345 0.019266665 -0.026281392 0.08434448 0.1140613 0.013528455 0.122073375 -0.0069877296 -0.015341963 -0.09758354 0.01282753 -0.041819256 -0.009317529 -0.005804001 -0.0860965 0.021123094 0.051567644 0.04782652 -0.047926374 -0.090296835 -0.021315588 -0.062387582 -0.06151018 -0.03340222 0.04589459 -0.03481544
8245:COUNCIL -0.008583607 -0.041463252 0.007326136 -0.028728502 0.08677411 -0.05956588 0.21997637 -0.0668773 -0.022946943 0.19395454 -0.021899255 0.031143436 -0.057011615 6.624075e-05 0.28552493 0.113524415 -0.17535962 -0.05429924 -0.10069519 0.12023411 0.07573498 0.12681416 -0.14369601 -0.17040166 0.007116776 0.17306797 -0.011286599 -0.05872253 0.054763272 -0.03580143 -0.10840104 -0.046557013 0.04132739 -0.018270887 -0.093986265 -0.10416665 0.08624871 -0.022409044 -0.022524647 -0.023554156 -0.021696059 0.16287322 -0.055434987 -0.14430119 0.10150126 -0.11632382 -0.029235266 0.03966854 -0.04602293 0.04783383 0.06828356 -0.024421792 0.029958034 -0.029370328 -0.044265267 -0.04002637 -0.039374784 -0.06966804 0.0012297962 0.015398591 -0.087942064 0.044768736 -0.0100955665 0.020612203 0.09496484 0.06665773 0.0038221502 -0.043634534 0.07781678 -0.02036219 -0.0724531 -0.005987612 -0.049690753 0.026115347 -0.029292226 0.03991833 -0.04484271 -0.12098733 0.021569055 0.074788295 -0.12612446 -0.14613768 -0.024704428 0.12974767 -0.030079873 0.05929722 0.11242403 -0.007549458 -0.012386934 -0.035548836 -0.03913049 0.10456822 0.16264041 -0.06685121 -0.0029587524 0.13283487 0.014481363 -0.09689329 -0.016258636 -0.043965477 -0.11313275 0.037613332 -0.12855402 -0.09653876 0.06851103 0.11982091 0.06322949 -0.013977123 0.082694754 0.0712752 -4.2857144e-05 -0.055528987 -0.00080261915 0.15454623 -0.0993412 0.008926181 -0.041141473 -0.053909965 -0.024215963 0.0011233159 -0.09544245 0.0006340365 -0.016400905 -0.02856293 -0.08645526 0.08363974 0.02443313 0.019957904
8474:STONEWALL -0.04756493 -0.05890701 -0.02353619 0.13121694 0.1380978 -0.077965245 0.17353942 -0.16819721 -0.018469544 0.13215864 -0.008116297 -0.012516517 -0.060492832 -0.07036744 0.19594125 0.12904046 -0.057850648 -0.057857946 -0.0504268 0.14313029 -0.011539131 0.12267725 -0.104588896 -0.2339681 -0.10770703 0.16671519 -0.07575087 -0.0411309 -0.022600299 -0.04521901 -0.026742892 -0.027217433 0.0859853 0.022429807 -0.0033697293 0.018638771 0.06494731 -0.020520987 -0.021407599 0.007151487 0.052797846 0.106493294 -0.02958484 -0.093484625 0.04545742 -0.15338127 -0.10013602 0.019522432 -0.03975454 0.095924325 0.025915142 0.038999837 -0.05334706 -0.05179385 -0.085663944 -0.08073658 -0.033655066 -0.010888575 -0.021079866 0.007046043 -0.101850845 -0.09958601 -0.05654883 0.0332838 0.09409743 0.047814943 0.06286673 -0.062306408 -0.0058120284 -0.08804297 -0.02104583 -0.077165745 -0.07947772 -0.05191899 0.0072349138 -0.033943225 -0.09063036 -0.10681632 -0.038372464 0.08822324 -0.08152627 -0.04420439 -0.05367953 0.059496444 0.076516874 0.072946906 0.15522134 0.0447351 0.0029219328 -0.0032962298 0.035810016 -0.019586777 0.052499805 0.06586895 0.05296522 0.15232751 -0.059519395 -0.15507211 -0.14958294 -0.1353258 -0.15182537 0.19713871 -0.019219348 -0.098375365 0.053545922 0.1020595 -0.01872619 0.030315844 0.023542207 0.00039027486 0.01167387 -0.087939836 -0.0794541 -0.03191645 -0.018896108 0.03263435 -0.022800045 -0.004792459 -0.0763635 0.014408635 -0.17672111 -0.049107607 0.03807984 0.018194607 -0.055317145 -0.05397245 0.009887262 -0.03221709
8308:LONE_OAK -0.010432777 -0.076917835 0.01757721 0.010779912 0.09423739 -0.12864105 0.22903599 -0.11947179 0.043006167 0.1897304 -0.025756372 -0.014970488 -0.05076294 -0.06400583 0.21512386 0.05831794 -0.17674224 -0.12414888 -0.06385898 0.07774188 0.027754052 0.12511337 -0.15987907 -0.15101601 -0.0011390134 0.1569268 -0.071810886 -0.0039294786 0.08342769 -0.13992165 -0.020541018 -0.018558756 -0.008907244 0.029929124 -0.010448328 0.0813431 0.030535024 -0.037354704 -0.0668604 0.016640384 -0.0041231127 0.0064896736 0.0047217254 0.021724835 0.09603159 -0.014913055 -0.07933495 -7.870035e-05 0.013676879 0.038113773 0.055273134 0.028449047 0.0156064825 -0.025973054 0.047758903 -0.15115422 0.016102878 -0.11732356 -0.057270087 0.09092031 -0.09337733 -0.021737205 0.06611512 0.041899234 0.027456075 0.0559908 0.04043952 0.023246277 0.01793926 -0.10232479 -0.039938588 -0.013761774 -0.05528141 0.024304828 0.035816226 0.0035179725 -0.04625354 -0.07911437 0.024921874 0.08960957 -0.11071381 -0.06281004 -0.07416456 0.009777004 0.008991894 0.03937432 0.17348558 0.00019993656 0.017008783 0.027563937 0.040075574 0.1062453 0.11506551 -0.038315788 0.016487736 0.17153233 -0.023033863 -0.058656164 -0.058092043 -0.12626886 -0.074499905 0.016214073 -0.07936088 -0.11725095 0.03874318 0.14300312 0.058364857 -0.013644842 -0.00092515565 0.010489492 0.029173102 0.0008985371 0.05866513 0.06460624 -0.06380541 -0.015304345 -0.12224907 -0.062055938 0.03506794 0.107173644 -0.07201932 -0.105679475 -0.07753657 0.03630353 -0.11005805 -0.07221988 0.1182811 -0.12038663
8322:THIRTY_EIGHTH -0.06967971 0.07807192 -0.047511548 0.026033433 0.05095606 -0.1450107 0.2315458 -0.11417481 -0.041396223 0.284026 -0.04481548 -0.05386107 0.0012530035 -0.015318866 0.23081209 0.084559835 -0.13838652 -0.08954296 -0.12716836 0.14643925 -0.06903112 0.006956904 -0.1777941 -0.13401406 -0.063478045 0.17012274 -0.04710313 0.0057886643 -0.0039689294 -0.11566522 -0.06963192 -0.07903119 0.08157667 0.011007367 -0.0021632293 0.04116629 0.037760228 -0.06714692 0.03587953 0.036533292 -0.060670238 0.06944206 -0.021486718 -0.07637522 0.15886454 -0.09454401 -0.1192349 -0.059081126 -0.051332153 -0.0053402004 0.054470237 -0.01736084 0.008537878 0.03899243 -0.046877164 -0.034411214 -0.016598202 -0.08143579 0.02790371 0.03036368 -0.072271496 -0.010622631 -0.02328877 -0.040865406 0.10068689 0.024922699 0.11049124 -0.0011872192 -0.05326271 -0.0999543 0.015954275 0.002751509 -0.05093345 -0.04684088 0.04745727 0.020865683 -0.05212142 -0.07104795 0.058486827 -0.026292864 -0.07089688 -0.04468663 -0.102862954 0.1009782 -0.081755325 0.12954836 0.06630806 -0.005872048 0.05277907 -0.004118774 -0.020078447 0.0069188885 0.080919795 -0.031940535 0.009140304 0.12811391 -0.042863935 -0.10189252 -0.05327766 -0.096492544 -0.05877296 0.056620292 -0.049272217 -0.030830543 0.06425096 -0.011772795 0.05647996 -0.04764199 0.07690485 -0.052269325 0.044531494 -0.029468337 -0.0024779104 -0.009608266 -0.07095753 0.017857023 0.012085051 -0.022905767 -0.008429422 0.035487328 -0.12956798 -0.0041986494 -0.08160237 -0.034055654 -0.03825369 -0.05624411 0.110478304 -0.004116489
8519:NE_10TH_ST -0.005187454 0.010751596 -0.005739577 0.09301052 0.071158916 -0.1291689 0.23712753 -0.018778825 0.00067277404 0.14229548 0.032351203 0.070036806 0.04782781 -0.0029862411 0.19510278 0.05222074 -0.14393476 -0.1088359 -0.048183307 0.10498234 -0.00904605 0.13305932 -0.17442021 -0.14896911 -0.051987402 0.17528363 0.04435136 -0.04615902 0.016318899 -0.073172964 -0.009680001 0.040474202 0.04274054 0.0026298861 0.0027722085 0.027334634 0.040278174 -0.034351833 0.006126537 0.05329515 -0.012938206 0.11292226 -0.053792376 -0.01515112 0.062362574 -0.20157613 -0.15681617 0.044056874 -0.047058225 0.03479362 0.074069 -0.07191092 0.0051578046 0.0010666391 -0.066209935 -0.050986763 0.019777918 -0.12794551 -0.0023136688 -0.021150252 -0.12696669 -0.0023227758 -0.014424142 0.082915924 0.10048588 0.12697168 0.10168261 -0.016028862 -0.022272987 -0.031848565 0.025974093 -0.035602227 -0.03012081 -0.013734815 -0.045907702 -0.06122369 -0.101361975 -0.045424886 -0.0646136 0.1261948 -0.107396945 -0.10221539 -0.03785889 0.033877045 -0.012245438 0.014867201 0.08238151 0.0031941277 0.005536993 0.037299883 0.013457155 -0.03564253 0.078237526 -0.006097889 -0.04808506 0.13291569 -0.03318832 -0.12297278 -0.12859254 -0.12032092 -0.16498251 0.072316915 -0.12881294 -0.06863032 0.04969367 0.08236736 0.055626 0.04516759 0.05222057 -0.08671159 0.054331668 -0.06626913 -0.009313601 0.042587504 -0.106773905 -0.01792017 -0.05467493 0.0075415797 0.020315863 0.031056019 -0.056575485 0.01429326 -0.015056451 0.10354405 -0.054749418 0.010249259 0.10765814 -0.10175389
8361:WESTERN_AVE -0.070351966 -0.076805525 0.017871365 0.04581374 0.10838069 -0.09169831 0.13151988 -0.091412626 0.064618245 0.16600485 0.0033773293 0.078368254 -0.05643756 -0.04264703 0.19184855 0.078492366 -0.21707699 -0.10604981 -0.11625188 0.12300127 0.077883236 0.18960886 -0.13638206 -0.27772823 0.002558936 0.21044557 0.05610204 0.018744214 0.0177055 -0.041509535 -0.11649705 0.06924446 0.024780216 0.069555834 -0.10935271 0.015605341 0.07866217 -0.13175097 0.01524327 -0.023543471 0.004287891 0.024516985 -0.011371886 -0.02202261 0.16317962 -0.09276088 -0.11411893 -0.018101301 -0.070042714 0.08146199 0.035947487 0.030625597 0.038064048 -0.043733906 -0.0037696077 -0.045343768 -0.06198012 -0.10465774 0.08717148 0.05303084 -0.10443707 -0.016707063 -0.0060425117 0.08306876 0.0010011914 0.034848582 -0.047084965 -0.039662022 0.00247822 -0.12027962 -0.009762347 -0.03266934 -0.06323044 -0.018330649 0.04569472 0.029797219 0.0016117075 -0.076318406 -0.039123196 0.013723238 -0.12756726 -0.11848899 -0.11812701 0.026607659 0.06777794 0.022204254 0.06658208 -0.080875956 -0.027444283 -0.044315316 -0.085722834 0.0028929696 0.09280942 -0.041623235 -0.09133492 0.10897458 -0.041286357 -0.10533294 -0.016517503 -0.1523322 0.0033751973 0.026635233 -0.067151494 -0.04918392 0.023400038 0.06307607 0.08245532 -0.07826534 0.12980318 -0.029543094 0.040876124 -0.03580384 0.0057193115 0.090262465 -0.033602748 0.018880533 -0.06596105 -0.016326498 -0.073314816 0.07889834 -0.075985916 -0.043664783 -0.09181578 0.049524114 -0.110827915 0.06464117 0.09116252 -0.0050798547
8170:SANTA_FE_AVE -0.10167731 -0.07211967 -0.035788253 0.08283972 0.13615902 -0.094842196 0.12190868 -0.03060741 0.034645975 0.16546132 -0.0030233578 0.09671149 -0.061814222 -0.023048127 0.24552512 0.1656855 -0.13672154 -0.088708445 -0.09397803 0.14597201 -0.052421972 0.08466835 -0.17149949 -0.18783236 -0.072875135 0.15972996 -0.016304106 -0.122257516 0.032242503 -0.13246979 -0.030594287 -0.016548984 -0.052354775 0.026788024 -0.1050304 -0.025618458 0.05105931 -0.004215762 0.054065686 0.043955676 0.000662638 0.019728946 -0.011862698 -0.110972516 0.11057763 -0.12083676 -0.09763041 -0.059599213 -0.06812855 0.021510044 0.09716635 -0.038419742 0.0024530704 -0.0028680838 -0.022381391 0.019957898 -0.005539922 -0.089906834 0.019309528 0.0680853 -0.06627607 0.0011328893 0.014361769 -0.030975712 0.046495162 -0.040139567 -0.0056492193 0.01186393 -0.022699151 -0.068018824 -0.017610617 0.0017058544 -0.09953624 -0.06703976 -0.0056135203 0.07987668 -0.07740328 -0.07097198 -0.046529636 -0.024216449 0.033211384 -0.0460756 -0.06625849 0.006092989 -0.06837486 0.111761265 0.028628243 0.021889225 0.05452706 -0.11123752 0.03714656 -0.03982612 0.039477102 0.047893114 -0.0041627367 0.14248823 -0.052377578 -0.17491928 0.025965573 -0.07126126 -0.111069344 0.07721633 -0.10572748 -0.120388545 -0.030762298 0.08964983 0.048255954 -0.0023741915 0.12290886 -0.03850176 0.062328767 -0.14466065 0.04681594 0.10872394 0.06445379 0.08008807 -0.0611971 0.021985408 -0.041738346 0.06780822 -0.11473017 -0.016521059 -0.034226175 0.023723332 -0.0627614 0.052353207 0.031384632 -0.04188863
8158:SARA -0.09634994 0.016360998 0.0016315731 0.080003485 0.087022565 -0.062966615 0.27796996 -0.14114209 0.034478255 0.16937397 -0.061222095 -0.013947356 -0.08512781 -0.14166266 0.22576152 0.053768698 -0.23120473 -0.05747498 -0.13581733 0.046409212 -0.022037169 0.12687747 -0.15786952 -0.09192826 0.090870045 0.04979798 0.04561447 -0.06275938 -0.044991378 -0.11480844 -0.061915766 -0.038204346 0.13776456 0.071293615 -0.01608784 -0.026167622 0.13694043 -0.0548091 0.03678945 -0.028267723 -0.00086618826 -0.010162238 -0.036502443 -0.07079349 0.10100189 -0.02827359 -0.06494159 -0.0035379517 0.057938438 0.03458268 0.03611898 0.0059407884 0.050852694 0.030816656 -0.0064574596 -0.0035686393 -0.037942708 -0.14527749 0.06224807 0.046450716 -0.13694558 0.0134512475 0.005018039 0.07418446 0.06699206 0.07437469 0.063533865 -0.047829475 0.026921928 -0.052680813 -0.11365681 0.021400671 -0.09689492 -0.07965436 -0.07426178 0.01322731 -0.064776145 -0.15497944 -0.03571747 0.022875205 -0.07575221 -0.040076498 -0.08046589 0.081270054 -0.022303192 0.03495677 0.14204691 0.044873264 0.06847474 0.077311605 0.09835303 0.018006558 0.14018412 -0.12597075 -0.028301042 0.1320622 -0.08414938 -0.115158945 -0.12354396 -0.006925756 -0.08205104 0.09539886 0.003833513 -0.025125258 0.091123134 0.103920236 0.037926108 -0.05731982 0.0549945 -0.1189827 0.038393516 -0.04904106 -0.00590434 0.0037305611 -0.06281052 -0.026614552 -0.0586624 -0.06330844 -0.051681735 0.017795255 -0.018746529 -0.062845565 -0.100877255 0.11710322 -0.08509612 -0.030368032 0.09816278 -0.042017955
3114:TENNYSON -0.050521564 -0.1043312 -0.009259956 0.040920474 0.06883712 -0.0619847 0.16220759 -0.18481958 -0.056284435 0.09045817 0.0777517 0.043685146 -0.08256166 -0.09829552 0.17104995 0.09827856 -0.13737231 0.0011231062 -0.021943795 0.0692879 0.05788838 0.051597364 -0.18631311 -0.13430168 -0.1313426 0.14111033 -0.062467817 -0.08030603 0.0048025283 -0.080322966 -0.042462558 -0.02563156 0.08081677 0.057032574 -0.0395366 0.04300929 0.05137969 -0.12457736 0.012056904 0.029190127 0.021802159 0.020150658 0.039343793 -0.04582294 0.07359866 -0.09382857 -0.13180932 -0.07682289 0.012221243 0.067582816 0.08843721 0.008068823 -0.0030575758 0.000286745 -0.03935497 -0.042567022 -0.056725312 -0.09800128 0.025604393 0.026973853 -0.07635068 -0.052250963 -0.033982377 0.0071384544 0.030682765 0.021444727 -0.02605349 -0.06533063 0.05324292 -0.06703038 0.015763836 -0.045756724 -0.06746597 0.023366094 0.032128375 -0.0118209515 -0.05860812 -0.1243578 0.0058003967 0.069602616 -0.15653645 -0.14662887 -0.08173161 0.12354427 -0.04015373 0.09799147 0.15018171 -0.046628926 0.023460226 -0.020951815 0.039149236 -0.069599874 0.17891362 0.017662913 -0.049217924 0.15857233 -0.047718458 -0.219169 -0.072183006 -0.12866826 -0.11468898 0.0037352305 -0.094992556 -0.09023478 0.03283405 0.14918634 0.087753646 -0.05021059 -0.009236559 -0.030913075 0.115889415 -0.06125033 -0.003014136 0.10284602 -0.12367198 0.026411012 -0.010531188 -0.021834578 0.008682486 0.009234495 -0.076828755 -0.052639198 0.016004743 0.006858124 -0.06610047 0.024497477 0.09085437 -0.020155896
8522:MIDWAY -0.08322997 0.00020162416 0.06867966 0.009850127 0.1083499 -0.09075845 0.18145698 -0.07866741 -0.032856993 0.097243175 0.017696435 -0.020489177 -0.07642239 -0.007850901 0.21221751 0.059190508 -0.23640321 0.037224516 0.030541694 0.09510232 0.04533913 0.112452194 -0.20245443 -0.1980382 -0.07591516 0.101089016 -0.021861052 -0.13486737 -0.022252182 -0.20368254 -0.04624512 -0.067684785 0.027761942 0.08694952 -0.010775083 0.053323384 0.07382928 -0.059076633 0.00911315 -0.00418379 -0.01422574 0.017057016 0.018254792 0.024876118 0.10316842 -0.063284166 -0.13986158 -0.04790445 0.056414403 0.07621552 0.08354976 0.10498809 0.011404392 -0.00040617448 -0.07331349 -0.054633696 -0.048671044 -0.11738201 0.04291048 0.035680536 -0.110499546 -0.027920786 0.111202545 -0.031774823 0.020672705 -0.016970558 0.029598972 -0.020817615 -0.036943913 0.033315167 -0.047126975 -0.039756846 -0.0543308 -0.031542204 -0.1012579 0.034806613 -0.11597012 -0.15855195 -0.08863891 0.05377348 -0.15746658 -0.07903138 -0.10867643 -0.023241617 -0.085306995 0.13212216 0.13457847 -0.07125346 0.10528839 0.001845026 0.06677266 0.021336043 0.14350307 -0.019046674 -0.036080442 0.14632505 -0.10861507 -0.113483936 -0.04192165 -0.056540154 -0.015076321 0.05610336 -0.008503935 -0.11119155 0.13069543 0.12816323 0.08227033 0.07377561 0.00622131 -0.021873727 0.052013896 0.055566918 0.018634696 0.027423725 0.039297413 -0.030779686 -0.11002694 0.006373369 -0.037959322 0.029700236 -0.08205655 -0.041973047 -0.10248065 0.06229627 -0.0427526 -0.01853373 0.10456787 -0.053910248
8299:WESTOAKS 0.04516904 -0.10886028 0.020551963 0.049797736 0.0533817 -0.100273035 0.18690696 -0.15826534 -0.014551526 0.10785534 0.05566301 0.1514034 -0.05295699 -0.04755872 0.12310846 0.11975566 -0.10597186 -0.071859665 -0.07708092 0.14960937 -0.070548825 0.10315262 -0.18539946 -0.22070642 0.012195534 0.10847346 0.008319755 -0.074279934 0.15211707 -0.08607642 -0.02580817 -0.0291849 0.04011314 0.078463994 -0.021108415 0.026019465 0.0841393 0.05268568 0.002040442 0.0082328245 0.044745818 -0.014302031 -0.039227672 -0.082973816 0.09652837 -0.027477518 -0.16806847 -0.038933963 -0.011267357 0.11611843 0.094716914 0.0075627877 0.0086228 0.05095685 -0.05331505 0.021863287 -0.069611475 -0.072913505 0.03067678 0.06272766 -0.14156829 -0.020640697 0.059425667 0.0596015 0.04019621 0.04057909 -0.008288292 -0.05281319 0.044606484 -0.030776747 0.048343685 0.019611169 -0.101540536 -0.0029457903 -0.039008927 0.086317904 -0.01769752 -0.034965534 0.013670113 0.069855936 -0.0964228 -0.12115518 0.002316003 0.09174693 0.03815188 0.052908536 0.13567612 0.04030382 0.035514206 -0.026507702 0.08114955 -0.10325974 0.14722835 -0.01112079 -0.029596055 0.14953409 -0.031167898 -0.15566355 -0.06326526 -0.08542982 -0.050415576 0.037650686 -0.020932484 -0.08262074 0.0033176206 0.05804713 0.07378814 0.026482005 0.08462407 -0.017427754 0.07278636 -0.033449247 0.008791011 0.03623376 -0.060426835 0.048134953 0.0062939897 -0.035234734 0.005592286 0.054166436 -0.07778245 -0.09030457 -0.0093518095 0.00071691145 -0.07177492 -0.1324539 0.07802423 0.031077363
4106:HEMLOCK -0.05407465 -0.049523618 -0.026724134 0.03352226 0.08657628 -0.059490427 0.24802807 -0.12031487 -0.0487555 0.19301449 0.0717418 0.021518331 -0.060934212 0.04167858 0.2051742 0.09743017 -0.107502826 -0.06923224 -0.051147163 0.08647368 0.021931602 0.14679743 -0.110038996 -0.22433373 -0.090401284 0.19876792 -0.033960555 -0.027537186 -0.03181077 -0.09384405 -0.08049201 0.01344635 -0.06805506 -0.0057981084 -0.0601242 0.011947091 0.024280766 -0.052510854 0.008801711 -0.02278883 0.028381303 -0.014647677 -0.02327336 -0.052483853 0.03270384 -0.11384686 -0.13570753 -0.0073578143 0.053914342 0.007856214 0.15884781 0.0433862 -0.05095292 -0.011114752 -0.022050513 0.067000695 0.00559052 -0.015025785 0.03155496 -0.06365752 -0.09637151 -0.03164298 -0.020904778 0.013900982 0.056790225 0.045157935 0.046474054 -0.04360497 0.0079873325 -0.03224102 0.03650605 -0.048902795 -0.060716577 -0.0013932667 0.10020369 0.010071447 -0.13301283 -0.14261638 -0.025790427 0.047108244 -0.05009317 -0.12493709 -0.056194652 0.09962602 -0.0050074686 0.048412684 -0.0023860268 -0.024073761 0.023647321 -0.062263645 0.03851541 0.05316287 0.12410386 -0.02155474 0.0051332326 0.15031107 -0.014829177 -0.13971576 0.0039323526 -0.13729084 -0.0484742 -0.015959505 -0.035813518 0.013420154 0.032268263 0.12483913 0.05565782 0.08160645 0.035189115 -0.06784505 0.04330954 -0.0031462219 0.015964944 0.047331583 -0.033342905 0.07804812 -0.032120846 -0.050601114 0.02123958 0.0298121 -0.08478821 -0.046956256 0.0032534804 -0.013803903 -0.14019781 -0.048276853 0.04444357 0.04305704
8359:YUKON 0.060942307 -0.09074295 -0.052537404 0.043954056 0.11451396 -0.087974586 0.18753867 -0.08077699 0.06338658 0.1867426 0.06135926 0.085051775 -0.019257369 -0.038953807 0.18733793 0.1150093 -0.093692474 -0.011611113 -0.12691495 0.064156756 0.0072900294 0.17705484 -0.115768015 -0.20023137 -0.029871216 0.13868307 -0.0034886743 -0.023172554 0.077160254 -0.086406745 -0.11286041 -0.07543037 -0.017342879 0.025137084 -0.009198536 0.054307066 0.07114387 -0.04057059 0.056822963 -0.021247996 0.011852085 0.04057734 -0.075743444 -0.05682959 -0.0064056353 -4.219619e-05 -0.17840847 -0.08064035 -0.04726284 0.016430842 0.020333003 0.01744811 -0.0040900735 -0.031293333 -0.06484232 -0.058524262 -0.011165763 -0.1104451 -0.009918582 -0.016465595 -0.082290344 0.021643972 0.058539223 0.07795609 0.055209067 0.06993625 0.027093051 -0.110000394 0.00768404 -0.04813839 0.08771672 -0.07265916 -0.048981983 0.007180905 -0.07940922 0.037473124 -0.062101763 -0.05066122 -0.07108944 0.047365017 -0.026872005 0.0040842583 -0.03223394 0.061416652 -0.054812573 0.040704865 0.08675673 0.02600982 0.024267046 -0.08598138 -0.013286013 -0.006128861 0.1436712 0.0037909152 0.018252311 0.08655514 -0.024273267 -0.10855132 -0.025689056 -0.089836806 -0.054207683 0.07689503 -0.052275166 -0.007849412 0.062238466 0.013349709 -0.031406585 0.0966951 0.102598436 -0.089933775 0.060354054 -0.006753745 0.027089113 -0.051351678 -0.07866506 0.047293216 -0.029408345 -0.032530926 0.05270607 -0.015394111 -0.16006464 -0.11014397 -0.014190817 0.055936012 -0.10721434 -0.0035843512 0.15028079 -0.0080584735
7706:BRISTOW 0.06376386 0.018763125 -0.049765456 0.025115063 0.063734934 -0.07589333 0.19184817 -0.1043542 0.0001578518 0.17972663 0.06194235 0.011316499 -0.02035815 -0.050757438 0.19122551 0.10463344 -0.1580842 -0.029671075 -0.07851844 0.074598335 0.049695473 0.08165854 -0.20673953 -0.13964054 -0.009537475 0.1554288 -0.06381756 -0.1220166 0.033071723 -0.12223012 -0.07568041 0.0016825085 0.019369597 -0.033773102 -0.008805349 0.111867 0.11865626 0.0036983322 0.04786203 0.021473758 0.04139309 0.077563934 0.035451077 -0.060495418 0.058352627 -0.008243092 -0.17221168 -0.041539002 0.065094866 0.06717507 0.036265645 -0.0012229239 0.07192711 0.09813895 -0.089346215 0.00051800424 -0.015060629 -0.10504803 0.002403476 0.056976434 -0.12577312 0.016299574 -0.060244385 0.0911546 0.06937328 0.03865426 -0.046473246 -0.037625916 -0.0014616078 0.030865602 0.0368252 -0.00051443116 -0.09341353 0.023566717 -0.023414966 -0.009782031 -0.1146071 -0.10565855 0.010429703 0.027172728 -0.02120664 -0.052510154 -0.021765476 0.036389556 0.026099324 0.09443549 0.07391031 0.06951199 0.09425121 -0.0013221711 -0.056188438 0.0092081865 0.100893945 0.021479892 0.011145298 0.09643396 0.052793656 -0.15144227 -0.10118762 -0.023431422 -0.07862264 0.116222724 -0.07272594 -0.02205804 0.021555346 0.06744324 0.082051605 0.052786414 0.01410121 -0.0834534 0.08192529 -0.06420818 0.040977832 0.067279644 -0.04957037 0.043375596 -0.07946873 0.03375129 -0.03252668 0.02085764 0.0008656408 -0.124091715 -0.005134059 -0.043325663 -0.105995476 -0.045355823 0.10013092 -0.012539633
8151:PENNSYLVANIA -0.014034763 -0.067642145 0.008422475 0.12163782 0.09290414 -0.04843706 0.24008039 -0.098224714 0.0014202428 0.08986922 -0.0093249325 0.0907076 0.03934695 -0.03983772 0.14719169 0.04922692 -0.09453498 -0.005991893 -0.10914673 0.2010827 -0.046442762 0.10911688 -0.105883 -0.26650342 -0.09444639 0.11509419 -0.053529993 -0.065903895 -0.04724703 -0.10385237 -0.038304646 -0.086313985 0.062304713 -0.026304936 -0.121634044 0.054801993 0.020257512 -0.040437404 -0.002288173 0.10144282 -0.062469106 0.06030897 -0.01584154 -0.08798768 0.04430367 -0.11567654 -0.1517227 0.020664934 0.047803015 0.050190356 -0.017026667 -0.006223868 0.09797411 0.050959446 -0.043528385 -0.048550863 0.048039835 -0.09225582 0.03177216 -0.06848139 -0.15951459 -0.02881904 0.0057428037 0.07407014 0.10225661 0.094319694 0.0135647645 -0.0045335307 0.028714044 -0.06713658 -0.00414156 -0.024417078 -0.034601334 -0.023978064 -0.03883288 -0.034698337 -0.0076249945 -0.14929391 -0.033838917 0.026631445 -0.10220914 -0.15775841 -0.07261185 0.099281415 -0.021669853 0.09624743 0.028803667 0.0021899282 -0.005385462 -0.016311606 -0.025004614 -0.010754405 0.107654326 0.04317479 0.0067189913 0.1505693 -0.055920478 -0.12549421 -0.079648286 -0.07731288 -0.08533897 0.10536378 -0.053142805 -0.03287417 0.03281364 0.03684518 0.03873757 -0.06431794 0.08795151 -0.022777122 0.06889124 -0.024730058 0.012279111 0.06640813 -0.07006364 0.096872084 -0.073983066 -0.014229981 0.030864792 0.031507134 -0.1383518 -0.02986054 -0.095868416 -0.008375177 -0.013151096 -0.030234441 0.07106315 0.014960362
8248:SW_5TH_ST 0.03209927 -0.082681865 -0.031519752 -0.018097099 0.048376463 -0.056973085 0.21812606 -0.12415398 -0.0024391527 0.16711363 -0.0003787058 -0.03188993 -0.11413785 -0.013349668 0.12441062 0.028875023 -0.14706212 -0.08382371 -0.11482498 0.10755016 0.030179013 0.15171258 -0.123676546 -0.16967414 -0.11410765 0.15965782 -0.010275059 -0.060662158 -0.030742204 -0.18140945 -0.10882453 -0.05849428 -0.014006641 0.029960623 -0.110549875 0.058794413 0.048206966 -0.032064453 0.012238426 0.0050954046 -0.002498843 0.073666655 0.07374696 -0.06431347 0.017104667 -0.072200485 -0.1760389 -0.0031480375 -0.01639996 0.0842939 0.06448612 -0.006808234 0.046859857 0.06373367 -0.052619763 -0.04486696 0.009666139 -0.107135154 0.07033692 0.0686158 -0.061767064 -0.040390473 -0.05005822 -0.023875222 0.068539396 0.012513605 -0.06411407 -0.022553274 0.022352735 -0.02836362 0.03776897 -0.02476571 -0.03234576 -0.00043461687 -0.055775482 0.008989143 -0.06124617 -0.13753971 -0.029248731 -0.015451998 -0.043137807 -0.008679578 -0.032130644 0.015452765 -0.019282265 0.087737694 0.12790196 -0.03959557 0.035080764 0.06956212 0.081476286 -0.008453951 0.12853914 -0.07414674 -0.00083419046 0.17910355 -0.0025779142 -0.15458485 -0.070398316 -0.12688433 -0.067833394 0.084072754 -0.12760422 -0.0030502027 0.035109967 0.06059235 -0.01218066 -0.043420136 0.031253833 -0.039807968 0.076666564 -0.012953657 0.06874163 0.0754606 -0.039406847 0.04240385 -0.105959676 0.019212158 -0.03928302 -0.0043083928 -0.079842664 -0.061163634 -0.08655906 0.024113769 -0.091214 -0.092056714 0.021009693 0.005840496
5111:DRIPPING_SPRINGS -0.07974132 0.03128651 0.038994525 0.002723456 0.10652275 -0.12965322 0.11898436 0.008701917 0.024045775 0.14965065 -0.08173129 -0.020522723 -0.071151264 -0.07350511 0.26090717 0.15856053 -0.1498326 -0.11744529 -0.10915663 0.20448759 0.037465967 0.044479307 -0.111083195 -0.18128526 -0.012062922 0.0822034 -0.07719598 0.06582228 0.00025858646 -0.07014641 -0.14361507 -0.01957628 -0.0014270697 -0.018502276 -0.037573453 0.021048954 0.072986245 -0.07919805 -0.058674075 0.0068653915 0.057859045 0.013661349 -0.020637507 -0.05581447 0.06043388 0.007842034 -0.11255373 0.01632195 -0.022261487 0.01140291 0.06641828 -0.022699067 0.052335154 0.027019028 -0.045155264 -0.058850765 -0.023313753 -0.040581655 -0.0061430708 0.025501994 -0.14040506 0.027795164 0.026692264 0.01946267 0.105325714 0.022893338 0.092553295 0.008981694 -0.011907557 -0.13838477 0.04127093 0.03293077 -0.037428364 0.073640555 -0.00942455 -0.07467419 -0.08256441 -0.1611206 -0.015432639 0.092777 -0.04158653 -0.18570507 -0.05958604 0.10273089 -0.076711446 0.10099626 0.09376639 0.050960366 0.020680703 0.0031272091 -0.0822399 0.15746982 0.04103589 -0.03959807 -0.05100181 0.14815426 -0.019065652 -0.04587545 -0.10627074 -0.11389338 -0.13366626 0.11883588 -0.05263583 -0.07262953 0.097625524 0.11449103 0.038003664 -0.041076705 0.0058753383 -0.059132915 0.00020954935 0.010095899 -0.010671404 0.07510964 -0.056031816 0.08358774 -0.08037052 -0.098713204 0.010421905 0.08548746 -0.17199183 -0.059439253 -0.044251803 0.029318087 -0.09552253 -0.06336562 0.014899444 -0.02252561
5806:VALLEY_VIEW -0.02676563 -0.0876208 0.08755477 0.0018963097 0.05570492 -0.09998352 0.14519581 -0.17618069 0.00879577 0.22832796 0.07665656 -0.019459562 -0.014295551 -0.0050897286 0.12121538 -0.0068191146 -0.20121326 -0.031013 -0.02874324 0.062202275 -0.014556622 0.08577075 -0.14842634 -0.26668987 -0.052304666 0.2059893 -0.014232357 -0.07364445 0.037292503 -0.09536678 -0.038242146 -0.14483385 0.023792068 -0.009539477 -0.06548398 -0.05781605 -0.010242589 -0.08536472 -0.057280306 0.0089388285 -0.05075877 0.059715085 -0.012753136 0.017439514 0.09720206 -0.09998384 -0.17364246 -0.037137188 -0.002522373 0.028917369 0.14028193 0.03653953 -0.010187024 -0.075486474 -0.08249295 -0.09394938 -0.1091737 -0.073477276 0.059419118 0.095253244 -0.15552853 0.003851121 0.067479156 -0.009306518 0.01881931 0.008965049 0.04687966 0.09119339 0.04354969 0.017556468 -0.061319966 -0.093884215 -0.11148722 0.0074666035 0.020796211 -0.029541498 -0.021314045 -0.13561124 -0.0033608074 -0.0074481424 -0.05409935 0.004815219 -0.049701583 0.074800126 0.029617332 0.09495975 0.08493274 -0.036573417 0.073268555 0.018903667 0.0204147 0.023371765 0.108087294 0.073100574 0.008860139 0.13216282 -0.044670954 -0.081029825 -0.048838522 -0.064300515 -0.13468337 -0.01651454 -0.12637298 -0.052281037 0.049325813 0.1894815 0.0049885744 -0.054023135 0.088505514 0.022564458 0.114486344 -0.016340941 0.056791816 0.027845014 -0.053056426 0.01538773 -0.091389544 -0.023247335 -0.037789766 0.04316172 -0.054271974 -0.101182416 -0.02425926 -0.004182708 -0.030637272 -0.05277212 0.071302764 0.007857952
5605:PAULS_VALLEY -0.04566069 -0.064386025 -0.004452055 -0.005628334 0.04837439 -0.124418415 0.19802001 -0.12028404 0.023855077 0.2073398 0.008198749 -0.049990553 -0.058049224 -0.027178241 0.18098833 0.047546484 -0.07109332 -0.057736535 -0.051048562 0.07197265 0.050155655 0.09398508 -0.15442921 -0.21358384 -0.036850575 0.09725698 -0.04729702 -0.061651237 -0.014567727 -0.07838325 -0.00047402372 -0.007829414 0.02909361 -0.011267001 -0.055739276 0.012070737 0.05710571 0.0129011925 0.015357997 0.020209465 -0.10118345 -0.012206147 -0.058095705 -0.0802595 0.023448821 -0.08936199 -0.2211838 -0.021958001 0.061218202 0.10046879 0.0688722 0.015777657 -0.034909677 0.04097076 -0.04351712 -0.096407026 -0.10674807 -0.09170664 -0.0336227 0.090464175 -0.10892256 -0.039711002 0.004426183 0.072793104 0.059422582 -0.01648859 0.037455305 0.011422996 -0.036406506 -0.072530575 0.043288555 -0.02261377 -0.07992 0.025599236 -0.010802164 -0.0107519785 -0.039770305 -0.07280888 -0.009774617 0.016365971 -0.12651233 -0.015735982 -0.054594763 0.09481934 -0.0708397 0.05208849 0.02886369 0.07945099 0.075192004 0.007947798 -0.0039318847 0.041627217 0.11553294 0.013687262 -0.04885811 0.1181644 0.0219951 -0.08045447 -0.13853504 -0.08565683 -0.09841973 0.08015945 -0.14986318 0.03170924 0.0660109 0.19033484 -0.0076300316 0.034930993 0.053839352 -0.07813783 0.05959218 -0.0546502 0.02078476 0.018944282 -0.09189536 0.07365411 0.053603534 -0.08608584 0.027985666 0.03501645 -0.114334516 -0.06802039 -0.024085823 0.019938318 -0.036414456 -0.097036116 0.029101297 -0.019853925
9138:ARKOMA -0.022159828 -0.075838484 0.00774209 0.056357477 0.03988405 -0.11533068 0.1961697 -0.07075271 -0.04132722 0.20584053 -0.05078311 0.072703905 -0.07463258 -0.06385479 0.22515768 0.16905878 -0.117065676 -0.16686751 -0.12531018 0.09948184 -0.04323198 0.1598718 -0.028972605 -0.1852749 -0.1155827 0.042153962 -0.026549269 0.042764354 -0.026898304 -0.15646712 -0.006143424 0.0060628387 -0.011766093 0.010359451 -0.023277229 0.049777832 0.10847827 0.008905263 -0.030150667 -0.00932442 -0.029000822 -0.024802864 0.055889476 -0.072259 0.1141289 -0.06663785 -0.15206255 -0.09114566 -0.009351916 -0.009101152 0.023556273 0.022483153 -0.007207535 -0.008052381 -0.10433506 -0.061669275 -0.010240697 -0.06445841 0.004520375 0.07436608 -0.09360099 0.0010332044 0.033402197 0.11845875 0.0019348803 0.1214807 -0.04541259 0.02498699 -0.02513605 -0.03902992 0.0014433179 -0.080348015 -0.042499714 -0.044126805 0.0023318375 0.0074934047 -0.059850078 -0.20773928 -0.064647175 0.10080343 -0.08410043 -0.07254306 -0.022145886 0.08725978 -0.033279717 0.078726605 0.01928628 -0.035356596 -0.008277614 -0.023033077 0.025805848 0.0029086848 0.030667441 0.057814576 -0.019427255 0.10580143 0.019114684 -0.1410093 -0.12262294 -0.06451644 -0.09275528 0.012352968 -0.12600909 -0.055449847 0.1044977 0.09938856 0.063508354 -0.06391911 0.11959073 -0.024889207 0.05153563 -0.011330439 0.0071437336 0.040631227 -0.018197028 0.029394768 -0.07696119 -0.03540768 -0.055256747 0.018171597 -0.12889925 -0.02456907 -0.02066528 -0.03670376 -0.10645045 -0.09071696 0.08105126 -0.04574001
8340:SILVER_LAKE -0.035032514 -0.0705551 -0.041479718 -0.024102865 0.059632078 -0.08802873 0.20695701 -0.052055955 -0.01646709 0.15562662 0.07799177 0.027235871 -0.0030755135 -0.031693924 0.21861194 0.071862236 -0.11086528 -0.068323895 -0.099946305 0.121893495 -0.015575228 0.10870282 -0.16405544 -0.15427235 -0.02686165 0.18430528 -0.05877817 -0.05239717 0.05369593 -0.0745623 -0.14008589 -0.060379546 0.05946879 0.007162736 -0.09792253 0.042521417 0.004031871 -0.0145269185 -0.008393979 0.013597677 -0.0142276455 0.03064701 -0.03882042 -0.12526512 0.07171365 -0.09415384 -0.18616126 -0.0224106 0.07808519 0.05210564 0.07546595 0.027136425 -0.035403073 0.0236557 -0.07676682 0.0005407316 -0.038225792 -0.1501891 0.026006447 0.017202744 -0.14788477 0.013991602 -0.017915435 0.07493716 0.09712831 0.03833097 0.09323937 0.0025482744 0.035134565 -0.038330894 0.05098862 -0.07992325 -0.010733799 -0.034985404 -0.079313815 -0.021471232 -0.027378699 -0.09994607 0.0009546488 -0.023625469 -0.108265586 -0.07553965 -0.009702464 0.07216414 -0.054394294 0.07257354 0.081538506 -0.011665807 0.0439299 -0.064469256 0.04423315 -0.049400214 0.037584573 -0.022000115 0.08499747 0.08677045 -0.097693644 -0.06984459 -0.0069825226 -0.09113437 -0.042174615 0.0642777 -0.12286932 -0.015099106 0.02426333 0.045340996 0.042866036 -0.015013201 0.07661005 -0.09639001 0.026641928 -0.04556907 0.018808404 0.13192709 0.04265935 0.12582253 -0.023468452 -0.045041226 -0.0134539325 -0.06318495 -0.07687331 -0.03592157 -0.050385326 0.11114748 -0.054823603 -0.022247769 0.064810365 -0.071647905
8352:QUAIL_CREEK -0.01717042 -0.057143655 -0.00705567 0.026505398 0.12404183 -0.09131533 0.1409002 -0.058535136 -0.05800436 0.17022607 0.0080171935 -0.026115086 -0.050851017 -0.109342195 0.1426014 0.08864899 -0.14487627 -0.10350628 -0.12182439 0.15936099 -0.017914433 0.082033746 -0.18979077 -0.21659297 -0.011727727 0.050297033 -0.027018113 -0.049129795 -0.0026676217 -0.024969883 -0.0071699545 -0.08331956 0.03827941 0.062242538 -0.089960955 0.032746773 0.0569739 -0.10748875 -0.014516111 -0.0010750823 0.0963777 0.005931826 -0.09358733 -0.06265805 0.14288501 -0.073368184 -0.105413 -0.040241197 -0.045582686 0.024650184 0.09248392 -0.0007705531 0.008373673 0.0012700335 -0.016637992 -0.045848053 -0.04664896 -0.08997768 0.030986434 -0.003817631 -0.04622192 -0.08704974 0.032824136 0.03061397 0.048118774 0.0051890286 0.123646304 0.025481056 0.03893449 -0.05756819 0.044869523 -0.02117878 -0.119585656 0.07424437 0.046106026 0.06195255 0.005067738 -0.10612507 -0.037872884 0.008104779 -0.110892944 -0.00165762 -0.12667511 0.08228919 0.013950972 0.16616897 0.09472468 0.032029677 0.056684736 0.030091159 0.018083625 0.00680942 0.056408446 -0.042770095 0.031938195 0.15570056 0.022098005 -0.18324696 -0.0564531 -0.12097211 -0.013667428 0.0018666323 -0.06613293 0.057253376 0.007884004 0.084823236 0.0747519 0.011756978 0.09481397 -0.053811915 0.07121173 0.028785193 -0.025319187 0.045714993 -0.13954699 0.024645628 -0.03104777 0.031256102 -0.043575846 0.024774248 -0.15437645 -0.051543072 -0.02041309 0.07982071 -0.021639142 -0.09522896 -0.022203906 -0.0007191116
7430:INGLEWOOD -0.08530346 -0.10493938 -0.028786065 0.10449966 0.06821115 -0.076043494 0.12461073 -0.0019344346 0.030911895 0.17360069 0.12435423 -0.044143405 -0.043074947 -0.046525728 0.17936619 0.04772966 -0.15582982 -0.023067374 -0.13591504 0.12276742 -0.030314617 0.10893783 -0.06890336 -0.21088947 -0.042401895 0.11006304 -0.023626806 0.023158966 0.020859724 -0.09808105 -0.081790894 0.029165093 0.005898248 -0.023853663 -0.023260217 0.08024803 0.08071911 -0.04728256 0.015930379 -0.030056141 0.061498277 0.04747672 -0.04357761 -0.048908275 0.037184365 -0.031015676 -0.07093718 0.0040796697 0.0528941 0.020632638 0.066047296 0.010436729 0.065263875 -0.021400709 0.01822648 -0.050579052 -0.03143756 -0.12508494 0.019420212 -0.003284026 -0.0672304 0.06846906 -0.018586373 0.029707817 0.09594372 0.07265524 0.050762452 -0.010240018 0.08122215 -0.12357226 0.05395499 0.047421884 -0.06746772 -0.104827575 0.024839716 0.00079258595 -0.13124175 -0.119021825 -0.04802342 0.05392538 -0.06375518 -0.019727655 -0.13899581 0.097332396 -0.011235916 0.043972235 0.06548123 0.028225573 0.03995045 -0.038219076 0.072216615 0.017574713 0.12069062 -0.052475974 0.011036651 0.17025189 0.046986 -0.08897105 -0.016745003 -0.14060585 -0.08850363 0.1008392 -0.10749534 -0.097414464 -0.0037348045 0.16165918 0.024660988 0.052490022 0.116891615 -0.07659839 0.02807186 0.032923453 -0.042645287 0.14148033 -0.07891145 0.067551 -0.06958109 -0.044248994 0.01685822 -0.002355027 -0.15128683 -0.014123577 -0.086018056 0.04439248 -0.022038976 -0.06595505 0.069798976 0.018317146
8141:SAGE 0.0026258745 -0.021116743 0.028138906 0.025306085 0.044121448 -0.046925895 0.24822706 -0.066172406 -0.005196319 0.16731907 -0.013762136 0.022437353 0.018429153 -0.027399817 0.25353065 0.093848005 -0.19313139 -0.07501299 -0.19004674 0.016635979 -0.07557224 0.08236064 -0.097806774 -0.17105618 -0.13894281 0.16725284 -0.017374951 -0.1209417 0.07645283 -0.20861764 0.015281222 0.049874447 -0.04655758 -0.048576634 -0.006451778 0.040973432 0.035671588 -0.09362186 0.033136025 -0.017499056 -0.041887287 0.06449193 -0.028177949 0.008871618 0.055147536 -0.059017826 -0.11494617 -0.026136076 -0.012115488 0.01610173 0.07615706 -0.0019981698 0.01634115 -0.038617183 0.040932678 -0.06351368 -0.039453562 -0.07175933 -0.065993816 -0.013599663 -0.1782956 0.07731991 -0.01947376 -0.031610526 0.04543384 0.015761025 0.040855207 -0.10247043 0.030394277 -0.038614064 0.007668992 -0.031269334 -0.07030279 -0.0013925395 -0.0054593366 0.011578174 -0.088433415 -0.14530662 -0.009729671 0.027197117 -0.06169527 0.040749796 -0.028558046 0.0210769 -0.011850477 0.06988882 0.09011483 -0.01897818 0.058489256 -0.03393663 0.026165687 0.04063982 0.087823026 -0.07528378 -0.04915024 0.05906276 -0.053784642 -0.16908045 -0.020452512 -0.051269256 -0.10351661 0.029996123 -0.11306874 -0.037265226 0.021244079 0.11076519 0.033707857 0.06410625 0.032202505 -0.08908426 -0.0268217 -0.014353196 0.051639363 0.055911135 -0.019705843 0.06427829 -0.094388716 -0.072282515 -0.08333934 0.05819563 -0.12105185 -0.028524622 -0.13200599 0.08714287 -0.06356025 0.02081152 0.046459083 0.00039382777
8727:STUBBEMAN -0.103243336 -0.06658432 -0.009519677 0.013300315 0.0884776 -0.09574683 0.19848876 -0.11623346 0.031538837 0.18284078 0.02517072 -0.014202137 -0.0064990493 -0.0880084 0.2379856 0.11013128 -0.053801086 0.013100344 -0.21676135 0.13254105 -0.048577186 0.05881335 -0.11433628 -0.21955858 -0.11088184 0.1663818 -0.009618292 -0.019276839 0.006272741 -0.11860034 -0.021321718 -0.13363604 -0.022231294 0.09171912 -0.101472095 0.048474897 0.046621576 -0.10991191 0.08126501 0.06986578 0.02385439 0.051192842 -0.047594443 -0.07572418 0.062171493 -0.042891152 -0.12399451 -0.022739394 -0.010794146 0.08518767 0.058607187 -0.08992257 -0.031367857 -0.051296342 -0.022933459 -0.031943046 0.019969143 -0.12398309 -0.02466529 -0.07791504 -0.07713194 0.022349974 0.01456369 -0.045056425 0.1501326 0.12760343 -0.03651834 0.02684503 -0.050714906 -0.109984964 0.06706175 0.008263384 -0.00759617 -0.008902729 0.017389176 -0.08200364 0.01729545 -0.118637666 0.003720018 0.0820777 -0.11733159 -0.12818606 -0.049769152 0.027591337 0.036682162 0.10386914 0.11332514 0.008988292 0.1233829 -0.04317563 -0.06169824 0.0145966085 0.11912298 -0.009585766 -0.022137413 0.15637279 -0.0024237828 -0.021473542 -0.06598546 -0.089813426 -0.10289128 0.01735339 0.033782575 -0.10885349 0.026445469 0.031608023 0.055689696 0.040979773 0.009747358 -0.055746216 0.012371144 -0.0981169 0.05459218 0.06459613 0.02117366 0.010499067 -0.094177775 -0.07580416 -0.045505993 0.07140507 -0.10987732 0.037247203 -0.040338337 -0.025948955 -0.01170917 -0.10019196 0.03776277 -0.0012401342
8626:TROSPER 0.05884395 0.039565973 0.05282586 0.0075422293 0.098605044 -0.12772562 0.13319492 -0.08092193 -0.05111558 0.21384327 -0.045502488 0.0061298627 -0.02945012 -0.06864999 0.2207604 0.1513396 -0.21276078 -0.013086383 -0.059839875 0.069717765 0.067083016 0.17025964 -0.11406839 -0.19905862 -0.018362029 0.115414664 -0.10577596 -0.09094879 -0.06966673 -0.129711 -0.07724424 -0.066401646 -0.032190755 0.07941093 -0.11137657 0.07227911 0.080447465 -0.16591822 -0.024016729 0.01519188 -0.04499602 0.044682693 -0.02109873 -0.10764413 0.051906295 -0.042461608 -0.10075337 -0.034308687 -0.02532468 0.0064719217 0.10349461 0.049015347 -0.021528944 0.042604845 -0.07399388 -0.029914005 0.057323672 -0.030253682 -0.04651854 0.028352484 -0.21057701 -0.021158323 -0.13650496 0.019899847 0.096789196 0.008888702 0.043400437 0.009344145 -0.016009388 -0.056431565 -0.020831874 -0.020287884 -0.03885449 0.008062626 0.06490234 0.028884726 -0.011293444 -0.054080736 -0.011789029 0.07218713 0.005709687 -0.095125824 -0.025873043 0.066714995 0.02923301 0.09295135 0.07871074 -0.0045721764 -0.074993275 -0.1012028 0.060158692 0.013073024 0.067941315 0.024482409 0.006687935 0.19027719 -0.07487285 -0.093987964 0.042825744 0.0043826443 -0.10467332 0.0034194663 -0.065689355 -0.09213066 0.069719896 0.0999205 0.021111378 -0.0016201851 0.11492865 -0.07257561 0.04711121 0.012934589 0.023134163 0.083377756 0.007903802 -0.030632062 -0.0927518 -0.045116376 0.01725856 0.013624662 -0.12144442 -0.021030635 -0.093764454 0.005747429 -0.086422354 -0.008180851 0.10669784 0.06864639
8905:EL_RENO 0.0013130445 0.044877715 -0.0027468572 0.03653897 0.02659271 -0.052957386 0.18930596 -0.086765826 -0.035252094 0.18097042 0.19449285 0.020905599 0.0020849789 0.025652098 0.1985387 0.07682691 -0.1787509 -0.033810474 -0.14541462 0.13437991 0.05374765 0.047588598 -0.15824743 -0.17083684 -0.04106488 0.17252155 0.0081587965 -0.017548338 0.053808056 -0.090969786 -0.035921276 -0.11741164 0.00850205 0.026678579 0.027343012 -0.021090843 0.04212882 -0.106787644 0.014630698 0.04933275 0.012056448 -0.044052854 -0.030365016 -0.00821148 0.13518268 -0.08945474 -0.055994622 -0.07531427 -0.009054436 0.007968644 0.02536772 0.0052980804 0.007784966 -0.081237815 -0.07379411 -0.032348167 0.08688355 -0.12644173 -0.061952047 -0.005703007 -0.12771063 0.047510486 0.06344821 0.012486806 -0.010695025 -0.022186711 0.11346002 -0.020615663 0.061485913 -0.0274084 0.015450883 0.027861513 -0.08335102 0.010559698 -0.04056376 0.028325414 -0.02326074 -0.08407772 -0.026772195 0.09179214 -0.09719316 -0.07109932 -0.11064944 0.121612616 -0.055714667 0.104015276 0.08911852 -0.042566314 0.049045272 -0.028125094 -0.01649336 -0.07089666 0.1496281 -0.014925198 0.0068115266 0.20146215 -0.017585758 -0.121946186 -0.11945648 -0.14527467 -0.11454834 0.029723259 -0.027160672 -0.031347852 0.023282407 0.14408323 0.10492639 0.011789548 0.05088484 0.013774884 0.05914034 -0.030663196 -0.0029183791 0.031101944 -0.08012033 -0.0070271404 -0.1251993 -0.10284624 -0.111150175 0.057119023 -0.12665367 0.028846188 -0.10991141 0.047903854 0.07193805 -0.03238806 0.10343773 -0.0340842
8656:FOSTER -0.039500203 -0.06484225 -0.015104144 -0.0056625735 0.06473192 -0.06300024 0.17914413 -0.051249996 0.020917175 0.21556422 -0.041141037 0.07531841 -0.091181055 -0.045398384 0.19070962 0.16288175 -0.19337499 -0.01448711 -0.12031667 0.04457732 0.059728917 0.063616924 -0.17240931 -0.18099372 -0.04969265 0.14728484 0.013794803 -0.15888405 -0.012440196 -0.12255601 -0.06272868 -0.00059092004 0.023827752 -0.03355457 -0.024330955 -0.022569185 0.10838113 -0.09400622 0.07672632 -0.032003842 0.025633417 0.0057837926 -0.04013601 -0.01697896 0.02758482 -0.02181151 -0.058498826 -0.054879587 -0.027526619 0.01667372 0.11115341 -0.049519844 0.061566617 -0.051906835 -0.03420675 -0.06322977 0.022896519 -0.13827045 -0.008567463 0.009810501 -0.092775434 0.010760723 0.042381693 0.009054748 0.07151203 0.071539834 -0.07797999 0.032242183 0.006805346 -0.015145865 -0.017118016 0.014625428 -0.019103056 0.048593417 0.06834602 0.016179137 -0.10657152 -0.13999353 -0.078058235 0.040341366 -0.099522606 -0.05711664 -0.009628764 0.012144612 0.014755086 0.074908346 0.1205779 -0.00890228 0.0045109796 -0.017503716 -0.08941625 0.035793282 0.12240515 -0.010693656 0.012708898 0.11437698 -0.044988055 -0.11904514 -0.043157 0.03191236 -0.09724854 0.091786586 -0.08877743 -0.045820687 0.098568566 0.1410684 0.027784813 -0.0735616 0.07865921 -0.09208438 0.085370645 0.0054490166 0.028045895 0.113143206 -0.05733052 0.0044137733 -0.03216978 -0.09477571 0.017012399 0.0099058505 -0.14931168 -0.026190026 -0.06624682 -0.08227711 -0.055353303 -0.04669497 0.032576624 0.04541926
8312:BELLE_ISLE_STA -0.03580446 -0.038268786 -0.024016047 0.07953264 0.03372714 -0.13632964 0.23543397 -0.06525702 -0.015504512 0.22036992 0.04561293 0.010602361 -0.051726893 -0.10626072 0.09215971 0.13501701 -0.21507414 -0.056077704 -0.073635966 0.19061276 -0.06391635 0.0971677 -0.11734489 -0.14947408 -0.025032036 0.12323497 -0.049251683 0.0002999461 0.05425933 -0.14017916 -0.029726844 -0.01763266 -0.009726 -0.058113314 -0.13148718 0.05065535 0.09075128 0.0037640843 0.0369528 0.009149647 0.03683911 0.10458289 -0.053773697 -0.045088228 0.07095815 -0.035176072 -0.11819049 0.029704884 0.05093893 0.061072566 0.08746805 0.02903572 -0.06338319 0.011382525 0.022658834 -0.074189834 -0.10748566 -0.13484195 0.0037603886 0.012798963 -0.163515 -0.029423993 0.032756913 -0.013433874 -0.0067821033 0.09043959 -0.059304185 -0.03544795 0.061574418 -0.027979627 0.011900828 -0.01862105 -0.07398542 -0.01640012 0.068837196 -0.0503119 -0.06561533 -0.05986654 0.011099442 0.11971602 -0.015707597 -0.03546637 -0.10794212 0.043764442 0.024757124 0.03639872 0.12357834 -0.0057301866 0.090140104 -0.04952472 0.004339345 -0.01734568 0.13058074 -0.036242142 0.060249288 0.09660836 -0.064809985 -0.1426609 -0.11486361 -0.12086364 -0.04808992 0.07367645 -0.037043154 -0.029766476 0.089088395 0.08022303 -0.025452685 0.02855128 0.057736713 -0.066007026 0.16014464 0.041390046 -0.0027003791 0.05669513 0.01386891 0.04880104 -0.06777036 0.066763416 0.03349877 -0.01272423 -0.006420971 -0.024868576 -0.1144191 -0.018331124 -0.048621092 -0.099392414 0.10884035 -0.039013647
8115:SW_22ND_ST 0.031965375 -0.028576436 -0.017386563 0.028122583 0.07104631 -0.07718334 0.24421158 -0.13153908 0.043299157 0.15797259 -0.022312868 -0.013760021 -0.0047111046 -0.03825736 0.1853635 0.11875807 -0.10970383 -0.116607614 -0.045939494 0.046393823 0.024722638 0.14328668 -0.12734373 -0.30611742 -0.038461987 0.10233288 -0.051186714 0.019193362 -0.0026692185 -0.17341582 -0.11356746 -0.034805153 0.041150462 0.08748005 -0.00996804 0.034357578 0.03547464 -0.09970271 -0.0002838642 -0.0051904083 0.06107641 0.069446504 0.0779611 -0.05744533 0.016592618 -0.029743118 -0.108132266 -0.060203653 -0.017298833 0.070203334 0.016894003 -0.004590418 -0.036164563 0.053509995 0.021258028 -0.052815545 -0.0032941396 -0.022520276 0.02744671 0.028747221 -0.09750162 -0.0011551265 0.028022114 0.065534584 0.048912656 0.053775832 0.059398197 0.023429487 0.013129372 -0.043252204 -0.013744643 -0.020218618 -0.040566098 -0.05873838 -0.045846526 -0.0071965894 -0.05645727 -0.11077249 -0.11693673 0.10656766 -0.02921343 -0.059538394 -0.03939877 0.0328216 0.07557328 0.00676347 0.037126523 -0.07004566 0.07639115 0.0021655678 0.034029387 -0.046970177 0.032427505 -0.089346856 -0.110196665 0.20485522 -0.047921736 -0.23229015 -0.06876836 -0.12114408 -0.049564324 0.09547024 -0.15412535 0.0012746017 0.04769255 0.071776904 0.09627076 -0.028259957 0.05915169 -0.06818006 0.05921577 0.01632419 0.0031769562 -0.021209175 0.00896864 -0.09520783 -0.075270705 -0.0010543246 -0.06469529 0.0019423612 -0.105908535 -0.06176503 -0.037350025 0.06793164 -0.14397317 -0.041394714 -0.023427663 -0.055162054
9112:BELLE_AVE -0.05225437 -0.021929452 -0.022092631 0.02329092 0.060361605 -0.05068106 0.10033022 -0.11488518 -0.025347725 0.2023231 0.050003078 0.101720884 -0.014388374 -0.066289365 0.116575606 0.18508834 -0.11052238 -0.025054537 -0.11683712 0.14989458 -0.060260158 0.037188295 -0.22209905 -0.20341702 -0.011633068 0.18440573 0.026602471 -0.0056421417 0.047442447 -0.036209773 0.0004673822 -0.10324132 -0.0068746884 -0.033632286 -0.07531607 0.07394982 0.08137523 -0.077064924 -0.016872058 -0.012392233 0.006767674 0.10275239 0.04896308 -0.04315703 0.07310311 -0.031760693 -0.13368046 -0.032895546 -0.11030648 0.070624 0.11262746 -0.082054816 -0.019891037 -0.054168694 -0.078168795 -0.02272429 -0.047677852 -0.14029177 -0.10431243 -0.0047952337 -0.20599456 0.035122186 0.06876231 0.02761247 0.11979133 -0.062015086 0.077581376 -0.062052663 0.014281588 -0.09513425 0.06992252 0.03035215 -0.07333662 -0.0076320753 -0.036868375 -0.059150714 -0.12285572 -0.05093145 0.06904911 0.06724905 -0.055871338 -0.060088523 -0.050516836 0.05392206 0.0069899405 0.07032798 0.0052592917 0.013110703 0.031865846 -0.041207768 0.057625625 -0.017650561 0.15889855 0.103658035 -0.07408398 0.09185307 0.049434964 -0.07065232 -0.023462351 -0.08751997 -0.11474984 0.061781753 -0.083376266 0.036766082 0.056505296 0.098830014 -0.038934454 0.0044607995 0.11196285 -0.03248887 0.05842342 -0.073578656 -0.014833031 0.050212983 -0.066312276 -0.06999382 -0.040405866 -0.015730623 -0.02376595 0.03807324 -0.10986885 -0.078252524 -0.0053408057 0.020009635 -0.072052464 -0.069017045 0.093334876 -0.029639985
5305:HEALDTON -0.04034687 -0.0020141697 0.022974217 0.053365473 0.019969972 -0.02593912 0.18098827 -0.06973675 0.033584356 0.19676955 -0.02066259 0.010238851 -0.033962507 -0.050166786 0.286604 0.07051431 -0.16154213 -0.014430933 -0.13361707 0.14352994 0.09000342 0.19979236 -0.2737615 -0.14873216 -0.08445082 0.17277661 -0.087221235 -0.07266751 0.014902991 -0.124737896 -0.111030966 0.022543624 0.050247494 0.009367509 0.033242557 0.026209671 0.1042678 -0.056428146 0.06495572 -0.005683758 -0.010912076 0.12690261 0.024168462 0.013640651 0.07084188 -0.13543922 -0.081179745 -0.0076902565 -0.050616667 0.032028064 0.054363433 -0.024923837 -0.014978466 -0.023765612 -0.004204963 -0.06257638 0.051157653 -0.13965438 0.026133893 0.042795904 -0.20340294 -0.059993956 0.015301704 0.06770335 0.022362787 0.0045577427 0.068472646 -0.013722418 -0.041147113 -0.079091646 -0.059608225 -0.050384406 -0.08567161 0.01652721 -0.01777689 -0.0037658343 -0.024732852 -0.12834291 0.020862253 -0.01636806 -0.0656776 -0.038679443 -0.052766893 0.13962491 0.058103982 -0.0062971804 0.09184452 0.016016876 -0.010591069 0.049277354 -0.04570266 0.002927595 0.16352966 0.02011177 -0.05968292 0.11999372 -0.036327392 -0.09872304 -0.1422807 0.046567753 -0.12503403 0.04440477 0.0379119 -0.055642508 0.06893986 0.0848693 0.101337075 -0.07253219 0.033170838 0.020666007 0.012513528 -0.052916072 0.030295877 0.041027546 -0.11104428 -0.03187652 -0.021061096 0.0038467825 -0.036821727 0.047491662 -0.09919153 -0.05304739 0.05852829 -0.038556047 -0.028218461 -0.007010515 -0.06409388 0.025744002
5907:RUSSETT -0.025476 0.025286809 0.00049659767 0.028401308 0.06521375 -0.09801968 0.11660312 -0.03449732 0.0012826417 0.19346938 -0.030788431 -0.030202657 -0.11023957 -0.036081333 0.21856415 0.09740778 -0.15061867 -0.037782893 -0.056201812 0.21696274 0.09115438 0.09383257 -0.19712132 -0.18396302 -0.07915621 0.10721337 -0.01477795 0.02207439 0.026093083 -0.10736202 -0.027273864 -0.04737457 0.034019478 0.027503552 -0.048729707 0.07749836 0.06565033 -0.0014465691 -0.044295598 0.0027713883 0.03757043 0.045950536 -0.09229757 -0.04968538 0.08723077 -0.033696387 -0.12209607 -0.07700524 -0.010564836 0.04446137 0.14844887 0.09671308 0.05490135 -0.022427503 -0.07012558 -0.060375787 -0.06492006 -0.080353975 -0.020045418 0.03689756 -0.11045797 -0.031811666 0.08360389 0.005759685 0.042941846 0.03805686 0.0095212115 -0.06558672 -0.009554397 -0.027929988 -0.06618173 -0.092323184 -0.023346625 0.04641292 0.08686358 0.019625088 -0.08893081 -0.12862465 -0.0023221727 0.037088327 -0.036153942 -0.039311823 0.047248613 -0.011869083 -0.008837765 0.14228004 0.08453005 0.035674766 0.10165052 -0.125487 -0.005669589 0.004496289 0.18208818 0.0332659 -0.07432016 0.18792422 -0.054422177 -0.11159363 -0.091413245 -0.11026369 -0.09090148 0.025966771 -0.042865586 -0.11687484 0.04716098 0.09524551 -0.011702048 -0.022860909 -0.08268906 -0.020798152 0.01705067 -0.085347205 -0.025052905 0.040414363 -0.09942485 0.0070786304 -0.02406881 -0.03188258 -0.08187071 0.1073673 -0.06199269 -0.025854427 -0.014446732 -0.0140801715 -0.13258845 -0.053782735 0.07473156 -0.020136993
8337:EIGHTY_FOURTH -0.024080653 0.047478165 -0.06481085 0.08259774 0.10429398 -0.0749565 0.104117714 -0.07817711 -0.011447846 0.15912947 -0.017854048 0.028725326 -0.010316076 -0.10795557 0.1566855 0.1169601 -0.14391415 -0.06795046 -0.105913274 0.224787 0.054083522 0.11974214 -0.22533602 -0.16328487 -0.03257288 0.14768928 -0.1360595 -0.08707399 0.044320833 -0.10794381 0.0005312782 -0.0059994017 -0.01713229 0.029979784 -0.057648495 0.0024907012 0.05878935 -0.06371559 -0.011491336 0.07437749 -0.012568996 0.0155299185 -0.044525675 -0.06890706 0.10131207 -0.09049925 -0.19944014 -0.07936522 -0.12223302 0.07233649 -0.0031022055 0.015213088 0.058756698 -0.043592826 -0.024795119 -0.0041814214 -0.036726754 -0.056634378 -0.049676023 0.061703086 -0.1017271 0.011766445 -0.0013675982 -0.032272764 0.11106912 -0.00081740366 -0.014486812 0.014610622 0.13700269 0.0025716631 -0.016239708 -0.050417505 -0.14976148 0.0167887 -0.041550074 -0.0049711107 -0.014563611 -0.049552962 -0.04815375 0.08329439 -0.076991536 -0.09119559 0.016185135 0.06835381 -0.041737765 0.04569106 0.08143768 0.05150949 0.0758701 -0.04350616 -0.052623563 0.012551933 0.121287465 -0.0450911 0.0036759565 0.10585629 0.07734604 -0.104950644 -0.007431476 -0.10536623 -0.07917439 0.10734872 -0.102425225 -0.045926087 0.011314413 0.055912584 -0.02332363 -0.017913984 -0.024003567 -0.061219797 0.091421835 -0.014498526 0.009955456 0.12602836 -0.028806286 0.019294932 -0.009696046 -0.042183902 -0.037408873 0.051177345 -0.11693956 -0.06562455 0.03638283 -0.08266096 -0.048769265 -0.08527987 -0.036208767 0.053909596
8921:JENSEN_RD -0.10516736 -0.01951731 -0.027891712 0.010173317 0.10148197 -0.14552993 0.3377548 -0.091880575 -0.01977659 0.21243355 -0.013035643 0.081363015 0.0065023536 0.052192997 0.18974952 0.045245036 -0.16273232 -0.024054512 -0.14289467 0.06968996 0.08520507 0.054842554 -0.1629761 -0.23310068 -0.055267435 0.14281252 -0.049429696 -0.0766917 -0.035243932 -0.10282744 -0.12439448 -0.091926895 -0.0022132026 -0.03694685 0.0012209998 -0.012252734 -0.03905902 -0.112822995 -0.030541074 -0.044730507 -0.0035781283 0.038328893 -0.019943189 -0.07823105 0.07920922 -0.04619152 -0.10269149 0.057120953 0.0194625 0.02211344 0.07918205 0.102171585 -0.07565158 0.029612986 -0.11464154 -0.10463802 -0.0031860168 -0.1000473 0.06560302 0.021008186 -0.11019427 0.046878714 0.007100805 0.051409546 0.037292708 0.048603833 0.041329935 0.028904205 -0.0021291128 -0.07951651 -0.054016236 -0.007340702 -0.040261637 -0.071935736 0.085789256 -0.004333724 -0.10718399 -0.116640165 -0.0462738 0.05430255 -0.05710492 -0.014062603 -0.04432918 0.10294865 -0.0014534813 0.06771839 0.091934845 -0.0068411054 0.07064607 -0.07063022 0.004545952 0.025312616 0.09157199 0.017624708 0.029554036 0.13848986 -0.048641708 -0.052086946 -0.10252451 -0.12745892 -0.03426432 0.054155856 0.043843795 0.014003684 0.06743724 0.13953714 0.033230443 -0.07298911 0.031855438 0.030282266 0.08762216 -0.08125397 0.10601616 0.065835126 -0.012729329 0.018919833 -0.06141318 0.037775297 -0.07452932 0.08380605 -0.111554064 -0.016581109 0.010985543 0.10521711 -0.019860689 -0.004122863 0.017671216 -0.060345463
8339:TULSA_AVE -0.031282816 -0.058515474 -0.0041906936 -0.09188751 0.08962265 -0.100123815 0.12613711 -0.07021306 -0.059262756 0.1383562 -0.048600744 0.05152351 -0.03998114 -0.065255545 0.17445886 0.08435674 -0.15707634 -0.08563349 -0.10553692 0.1294706 0.011861639 0.04621699 -0.19668464 -0.23834078 -0.0006048602 0.13496125 -0.024213877 -0.03628018 -0.01678351 -0.18469082 -0.0648837 -0.036418654 0.009457002 0.05905244 -0.04235322 0.040972374 0.039510615 -0.1125254 0.036489833 -0.09412105 0.022702193 0.10796668 0.020182155 -0.045655433 0.030114412 -0.14611834 -0.1252803 -0.01764962 -0.022403287 0.13111752 0.12261021 -0.088748656 -0.024111375 0.0053973207 0.019222207 -0.04906525 -0.0061012395 -0.15853414 0.041932415 0.07571277 -0.10404044 -0.09695401 0.06009853 -0.05420667 0.081161894 -0.030174254 0.06092911 -0.06695421 -0.028366817 -0.029916884 0.041291527 0.014734098 -0.08249863 -0.06061288 0.006216052 -0.007111933 -0.04421728 -0.07739003 -0.07357976 0.022160111 -0.07766326 -0.008126819 -0.064730436 0.041089505 -0.0067128814 0.05514516 0.06989987 0.0063662003 0.018888513 -0.0042445366 0.06699981 0.0004429295 0.110651 -0.08219685 0.004242337 0.10858188 -0.037828892 -0.13408376 -0.045447174 -0.12156319 -0.026466168 0.018216163 -0.047503337 -0.09930284 0.11353514 0.041900545 0.088594005 -0.0058016623 0.116698004 -0.12340438 0.041927043 0.0033524986 -0.026592415 0.11616028 -0.05273533 -0.08438547 -0.078901365 -0.045554403 0.08959827 0.07850271 -0.024552718 -0.09165086 -0.010069401 0.04291573 -0.033847623 -0.04368766 0.12567195 -0.078768544
9137:PARK_VIEW -0.06932573 -0.04800554 -0.09862749 -0.003720385 0.018752407 -0.08283802 0.18361062 -0.011340354 0.055193223 0.23882274 -0.068914175 0.053857073 -0.1122799 -0.08817115 0.21925311 0.08837947 -0.094903395 0.020295314 -0.19777435 0.12917995 0.059463695 0.082017474 -0.08185854 -0.19308849 -0.06609 0.16358553 -0.04565882 -0.049570043 -0.012881801 -0.05390746 -0.029763388 -0.008283951 -0.094442606 0.09897502 -0.055706363 0.0036461472 0.019788297 -0.05009846 0.054301508 -0.07192719 0.024342112 0.068897925 -0.0094151255 -0.08181346 0.107071854 -0.06001611 -0.088342704 0.047644615 -0.058653057 0.06912098 0.1709899 0.04922097 -0.008506872 0.02801118 -0.027475439 0.012816747 0.027419945 -0.11225357 0.07356843 0.0973772 -0.11908655 -0.046882298 -0.0031921684 -0.027579099 0.11613408 -0.028050346 -0.0342476 -0.005588723 -0.09430504 -0.10876795 0.06303217 -0.034283075 -0.06333761 0.009747069 0.113835685 -0.004837764 -0.06260761 -0.14183879 -0.06523188 0.05263897 -0.014482727 -0.014549221 -0.06676898 0.02452028 -0.01728575 0.08180727 0.14867623 -0.03783914 -0.04092562 -0.06961685 0.027248131 -0.0035385736 0.105170734 -0.036931194 0.05735859 0.12765506 -0.03470952 -0.1993025 -0.10099448 -0.15751085 0.0075668404 -0.017715976 0.014186408 -0.07008316 0.04483765 0.101391666 0.13008893 -0.06521266 0.044550482 -0.12080113 0.09849211 -0.08623835 -0.0174488 0.046174586 0.0041343574 -0.023708174 -0.09119234 0.013764978 0.033623286 -0.01848848 -0.1711204 -0.0643935 -0.010740489 -0.051056463 -0.04771887 -0.048648216 0.001608326 0.07013284
8132:KENTUCKY -0.091167375 0.0047006453 0.023614224 0.06132608 0.12695104 -0.11181927 0.23017888 -0.06832017 -0.00777309 0.15597294 -0.035329115 0.027570203 -0.11656128 -0.024650408 0.21917799 0.10292254 -0.13415354 -0.030964281 -0.09248033 0.06841705 -0.054474022 0.11132399 -0.18640855 -0.21872674 -0.013604427 0.19628559 -0.010217579 -0.09112634 0.031147892 0.008369606 0.028549941 -0.049914822 -0.0009026806 0.060175404 -0.090925545 0.06286932 0.035428412 -0.065842256 -0.0013473476 -0.004153092 -0.039912388 0.060129173 -0.0010781087 -0.052737404 0.0530703 -0.15929975 -0.10028929 -0.014782495 -0.13225281 -0.011888739 0.025011787 0.016735462 0.11788381 -0.024236433 -0.06082729 -0.034815144 -0.018876038 -0.17676096 0.06851867 -0.0111752665 -0.16058023 0.0006155947 -0.005393732 0.051212095 0.07739016 0.046680663 0.06688733 0.022861889 -0.076279745 -0.08432315 0.097629845 -0.0496047 0.0080930535 -0.11166647 0.029409645 -0.036209628 -0.07255405 -0.048270673 0.026706444 0.0126130665 -0.106194004 -0.09375107 -0.06625749 0.038344733 0.024228523 0.0591975 0.112427205 0.011875056 0.021974858 -0.0026083353 0.03440182 0.020909723 0.12312932 0.01840608 -0.010929733 0.04885791 -0.015869211 -0.018742628 -0.092721514 -0.10898122 -0.08085094 0.123460755 -0.10764798 -0.027979033 -0.0021788354 0.13111416 0.048707232 0.010398445 0.034473784 0.013350706 0.050328787 -0.07590243 -0.061625645 0.03584219 -0.08030122 0.040849596 -0.028944602 -0.006535801 -0.10153452 0.03815042 -0.07333874 -0.084652305 -0.027229704 0.057424594 -0.09527433 -0.034391068 0.14317611 -0.016785556
8706:BOYD -0.002290273 0.01734878 -0.0727811 0.08544376 0.109069124 -0.06640176 0.14515711 -0.09918459 0.0363247 0.07546166 0.0060862475 -0.0035094798 0.007420197 -0.023067746 0.21474048 0.102202736 -0.17628492 -0.04220105 -0.09102024 0.14727163 0.031344414 0.0961083 -0.1873868 -0.16831091 -0.052515335 0.14498416 -0.022360293 -0.0670823 -0.031849295 -0.06848775 -0.03626263 -0.06776196 0.045202762 0.03690877 -0.06404751 0.009956151 0.07016953 -0.092546225 -0.009996927 -0.020462604 -0.012244618 0.05407122 -0.024389947 -0.1632363 0.12330436 -0.105457745 -0.13681665 -0.04713375 -0.010524592 -0.018119674 0.097405806 0.06365801 0.052920062 0.057642903 -0.055954535 -0.1097185 0.012089877 -0.06754451 0.02379371 -0.001147261 -0.081969984 -0.0017953429 -0.025154669 0.07076403 0.050848443 0.0041581136 0.03732613 -0.0586279 0.029120399 -0.08526574 -0.05338734 -0.059335418 -0.032828856 -0.017693482 0.11830182 0.016230248 -0.08917918 -0.10813911 0.075704135 -0.013492184 -0.101865776 -0.036110602 -0.008012834 0.08510118 -0.003853071 0.047354434 0.1951597 0.024395447 0.031266052 -0.042176027 -0.056030575 -0.050433837 0.08249565 0.035092015 -0.050408952 0.17528954 -0.07582658 -0.09556438 -0.03170266 -0.1454516 -0.032009624 0.11196984 -0.123975806 -0.032492362 0.10486019 0.051985826 0.05887853 -0.008053391 0.04828196 -0.032437593 -0.04455346 -0.06860932 -0.06528014 0.09119852 -0.027603282 -0.010503258 -0.09021661 -0.0068027875 -0.04243243 0.05817834 -0.096760176 -0.01869223 -0.067457244 0.02584143 -0.06803103 -0.029266246 0.1294862 0.008330565
8365:LAKESIDE -0.08534317 -0.047942918 0.0032713693 0.04435552 0.09554627 -0.08276024 0.22128604 -0.1077799 -0.0067479685 0.13107717 -0.028153108 0.051785775 -0.12840156 -0.08518362 0.20818809 0.14672522 -0.15841506 -0.1286906 -0.06862327 0.12227018 0.009875996 0.072621725 -0.14633864 -0.24922623 -0.095622264 0.086001195 -0.062029343 -0.025126223 -0.064789444 -0.143365 0.03883862 0.045460083 0.057806667 0.10177482 -0.05317156 0.04802279 -0.010215959 -0.07223103 0.06940134 0.044201963 -0.022965264 -0.01354089 -0.023064489 -0.08586393 0.09424548 -0.05865728 -0.113510564 0.049040604 -0.048834197 0.076709114 0.05461009 0.039668217 -0.018519742 -0.07679628 -0.0032787279 -0.031471975 -0.03655521 -0.110760614 0.039209057 -0.016638417 -0.07719027 -0.026985062 0.03679425 -0.078657165 0.04159016 -0.018869938 0.021069868 -0.045850348 0.028172167 -0.13188288 -0.085911214 -0.019049458 -0.014885397 -0.010990947 -0.00013211554 0.03817849 -0.06278478 -0.077481955 0.005795612 0.029060598 -0.029350674 -0.037880264 0.016574051 0.0764245 -0.041924503 0.03314651 0.10503437 -0.036201175 -0.021889554 0.018292744 0.0898853 0.026787236 0.07860748 0.047362458 -0.0040846844 0.16613477 -0.054007486 -0.15225855 -0.13531472 -0.08811445 -0.08447346 0.00051245553 -0.066640064 -0.14388616 0.09848178 0.09533109 0.04722378 -0.05388292 0.054553967 -0.03753604 0.13904563 -0.12412586 -0.023298992 0.06701433 -0.00020628459 0.028787944 0.005737687 0.05483231 -0.10836877 0.026808688 -0.1201062 -0.031379472 -0.04163567 0.0009811489 -0.11164755 -0.07430652 0.09460219 -0.0060013453
5107:TOWER_HEIGHTS -0.026557509 0.05947644 -0.019965198 0.09987928 0.02848778 -0.055361774 0.1942216 -0.08086552 0.025274642 0.20521715 0.004412104 0.009368407 -0.10594377 0.049907997 0.31216225 0.08410404 -0.16465208 -0.04179275 -0.10387527 0.1294744 0.060306918 0.01713121 -0.108900554 -0.18172029 -0.03817881 0.14134243 -0.06882073 -0.043955468 -0.002696887 -0.119691946 -0.07183461 -0.03489514 0.08392825 0.07810829 -0.0743345 0.039374504 0.082255565 -0.10453422 -0.0255002 0.056831338 0.020226639 0.07563339 0.01835098 -0.06358256 -0.0008839263 -0.13426128 -0.15556976 0.0027620285 -0.0020423322 -0.024434427 0.11880403 -0.04296693 0.01981025 -0.06929222 -0.10431761 -0.072974056 -0.03465932 -0.088089496 0.02911537 -0.085905366 -0.08292308 -0.005070314 -0.00045287106 0.051028814 0.0012954699 0.09093533 0.09074211 -0.042246684 0.06763796 -0.17985734 0.065128945 -0.03457632 -0.0580246 -0.12684083 0.03323461 0.0058613643 -0.0059180288 -0.1478431 -0.02703746 0.024160404 -0.06344294 -0.096860416 -0.13820061 0.023498878 -0.005147053 0.0978588 0.05243978 0.05397957 0.012942445 -0.00927882 0.074155815 -0.011091153 0.13133004 0.06171827 -0.02703012 0.11811403 0.039386738 -0.086131886 0.013670143 -0.06292126 -0.13089655 0.0336944 -0.022282522 -0.113486595 0.0017407602 0.103703015 0.031586606 -0.016697956 0.004864223 -0.057350762 -0.00072661194 -0.03224187 -0.019696342 0.0792305 -0.03449064 -0.011833892 -0.10475417 -0.013321656 -0.06690929 0.021743828 -0.13322236 0.012376687 -0.006330223 0.033954736 -0.012386205 0.006242993 0.17054832 -0.0429886
9418:LITTLE_SPADRA -0.07592045 -0.010924626 0.003315682 0.15726624 0.07934196 -0.1870683 0.16645542 -0.038488522 0.059338644 0.057101026 0.0022497582 0.051229164 -0.057364132 0.019529957 0.23234132 0.06500556 -0.09538697 -0.11452714 -0.08749062 0.122471936 0.049908146 0.09227087 -0.27492806 -0.15617149 -0.02972448 0.15574247 0.00057388115 -0.04727253 -0.023728974 -0.043695763 -0.06913394 -0.07213155 0.03810178 0.03841041 -0.03406036 0.16542813 0.06324808 -0.019004157 0.01838938 0.04659086 -0.011225502 0.1019118 -0.077275075 -0.024297222 0.0767337 -0.10010608 -0.04957488 0.034215372 0.032024384 -0.00043991467 0.13014293 0.061247557 -0.014393249 0.044609547 -0.06504692 -0.0007084597 -0.019695362 -0.16918197 0.09718927 0.060679097 -0.081086695 0.016877213 -0.008757788 0.03721135 0.11573843 -0.00066887634 0.011976828 -0.01847068 -0.012796103 -0.0058371043 0.06629535 -0.15135027 0.034602903 0.029114302 0.052839108 0.0025422655 -0.07836715 -0.06896305 0.01170399 0.08297761 -0.11503584 -0.04859674 -0.0075079575 0.021855343 0.027099164 0.06954333 0.062279493 0.027764767 0.055759348 0.0198618 0.098934226 -0.012057726 0.18372439 0.023982532 0.012206495 0.18168366 0.0054666284 -0.18507048 -0.08187715 -0.06503753 -0.09176286 0.04273914 -0.019482028 -0.06783103 0.09115193 0.18616296 0.023004968 -0.0345762 0.053190134 -0.005946512 0.006756677 -0.059855215 0.024032157 0.09847657 -0.007218026 -0.008056683 -0.059203215 0.0189664 -0.084987685 0.051661532 -0.11321215 -0.045560315 -0.020312762 -0.022839796 -0.10862197 -0.031025881 -0.047264338 -0.0037078946
8806:COTTONWOOD_CR -0.06661861 0.049572352 -0.0558935 0.12130275 -0.000748765 -0.049211897 0.20012538 -0.16741505 0.08832017 0.20467784 -0.035471115 0.04182709 -0.0022048138 -0.14385316 0.17122485 0.15374866 -0.088706195 -0.012780156 -0.15006196 0.14036702 -0.022729939 0.1385496 -0.05119707 -0.2426517 -0.027181137 0.13592966 -0.06048231 -0.042531904 -0.022660002 -0.14310858 -0.018112015 -0.034148026 0.03113185 -0.009155461 -0.026052158 0.11168572 0.021728707 -0.047853738 0.032482147 -0.0310506 0.07166289 0.013162857 -0.008316012 -0.0602496 0.075253144 -0.066095024 -0.15208483 -0.040927235 0.03278941 0.0012066109 0.067517675 0.04506665 -0.023756174 -0.017598057 -0.07292268 -0.025466003 0.007959227 -0.16544545 0.0050204466 0.012445554 -0.1138357 -0.036809362 -0.07984803 0.036865115 -0.020856483 0.05019107 -0.045604225 -0.090319164 0.11056933 -0.12659001 0.020508347 -0.008531845 -0.11171497 0.023765244 -0.006435753 0.02186969 0.041033827 -0.14040244 -0.0029589343 0.045408834 -0.08051482 -0.06250881 -0.039154474 0.03609437 0.028605482 0.084076785 0.09922164 0.059306435 0.057004128 -0.015800495 0.040548094 0.06091064 0.03789109 0.05079798 0.09160854 0.14340001 0.0045667393 -0.12606238 -0.075446464 -0.007164865 -0.022989009 0.035646964 -0.0462991 -0.051493663 0.015633091 0.056465566 0.07090416 0.02028212 0.03961853 -0.088912286 0.09315788 -0.014914688 0.070347995 -0.016273856 -0.05583962 -0.034989376 0.024307499 0.058741543 -0.01692078 0.018022288 -0.12423723 -0.18187833 -0.053794574 -0.086896546 -0.06029865 0.028606506 -0.04821827 -0.037829433
5410:GLASSES -0.06758392 -0.14168738 0.021767298 0.06967122 0.13295257 -0.08149214 0.22705357 -0.075278275 0.0015507276 0.17584878 0.099487156 -0.050770465 -0.054820254 0.03231939 0.21179691 0.13978693 -0.117421314 -0.050215863 -0.08941209 0.16141543 -0.022995258 0.09573922 -0.1765886 -0.057875704 0.008057296 0.16294372 -0.0130085265 -0.024615318 0.06522004 -0.081104085 -0.12593295 -0.005011538 0.09646794 0.084273055 -0.042421497 0.014756456 0.043675017 -0.057488516 0.04504018 0.09282593 0.008848558 0.03769343 -0.034434076 -0.059435513 0.059081428 -0.07634482 -0.07971469 -0.15709426 -0.0020107015 0.07118765 0.10472794 -0.0008906262 -0.004419016 -0.009665601 -0.085552424 -0.02779688 -0.085589916 -0.10454202 -0.111653216 0.029527 -0.14354229 0.09595392 -0.00940928 0.06560893 0.07476517 5.3194595e-05 -0.054846175 -0.013319243 -0.04175723 -0.07302356 0.05900196 0.12371084 -0.061778907 0.07762201 0.085149735 0.034812998 -0.0011260512 -0.12197083 -0.0027752293 0.15338679 -0.046375334 -0.055986386 -0.009684513 -0.014911694 -0.0092044575 0.06872866 0.13436542 -0.022371542 -0.049670614 -0.054290384 -0.019395849 0.07947618 0.10075442 -0.028212106 0.004768 0.20467167 -0.06189445 -0.09638139 -0.039311733 -0.119039886 -0.054042988 0.041185886 -0.10388893 -0.06854414 0.061324373 0.09545209 0.05099585 -0.07721351 0.053440966 -0.10370865 -0.052661173 -0.021043923 0.026759887 0.086788416 -0.14739887 0.060420625 -0.1456219 -0.06337716 -0.063611984 0.015134885 -0.023841888 -0.021362301 0.086516105 -0.07519896 -0.043642 -0.03451097 0.09644989 0.0240532
8542:RENO -0.006288125 -0.07235624 -0.039081436 0.020709496 0.08652081 -0.060198303 0.15159084 -0.09669429 0.0013281568 0.18553552 0.066038 -0.04567851 -0.08260807 -0.0974612 0.19784406 0.053774234 -0.12413618 -0.0697946 -0.047178578 0.14635038 0.058984015 0.13090111 -0.18368006 -0.29982802 0.04549767 0.14555156 0.044719737 -0.13005023 0.019892022 -0.103610545 -0.022184756 -0.016334627 -0.030172322 -0.020664869 -0.027932184 -0.015940543 0.039096363 -0.07030017 0.0063039577 0.02258595 0.016318072 0.065132946 -0.011410727 0.022361305 0.0797203 -0.08106549 -0.14267822 -0.00585532 -0.080863 0.077596895 0.036684174 0.08418915 -0.018964015 -0.019191192 -0.025976399 0.00836403 -0.014502138 -0.08239958 0.021440204 0.0033719265 -0.110765226 0.008723242 0.023809385 0.0605054 0.094067514 0.054820586 -0.054735653 0.023176132 0.044687673 -0.12641259 0.035554122 -0.040226586 0.011582115 -0.056284413 0.05111717 0.10010735 -0.12547809 -0.08933787 -0.06099261 0.031384032 -0.007897645 -0.051635325 -0.07284241 0.0020806866 0.019434258 0.08805885 0.07930164 0.07352373 0.021938376 -0.047314756 -0.032824982 0.04024245 0.0131702 0.04295029 -0.016587371 0.18920766 -0.02035722 -0.10196628 -0.07723046 -0.10554627 -0.07532298 -0.04032795 -0.06439938 -0.09494077 0.024089675 0.12113744 0.034122262 -0.015224417 0.007004347 -0.079149306 0.11015649 -0.10288587 0.062309504 0.13007665 -0.02789223 -0.026638433 -0.030941593 -0.005848778 0.07726314 0.032533884 -0.15406664 -0.07889268 -0.030024001 0.02163392 -0.10855872 0.028320936 0.030642353 -0.025685698
7407:REMINGTON -0.024389891 -0.020141272 0.03129474 0.047920577 0.03175016 -0.07280315 0.21264817 -0.060448986 -0.016281221 0.16918622 0.068945535 0.058050625 -0.031434648 0.019721482 0.17509928 0.0898499 -0.13793392 0.024070563 -0.19855975 0.100316204 -0.012647036 0.15386564 -0.17749421 -0.2536979 -0.041387755 0.13324144 -0.046888288 -0.031539675 -0.038390815 -0.07441747 0.052932266 -0.08144333 0.059974324 0.08920185 -0.01120263 0.08120733 0.055698786 -0.1519165 0.03149199 0.0077847173 -0.004928168 0.047101393 0.021182636 -0.03791664 0.12248829 -0.13307449 -0.13477646 -0.014700991 -0.078481674 0.084337585 0.05309029 -0.043698728 0.06907314 -0.03236442 -0.03663398 -0.024712652 0.02041507 -0.13149236 0.010957809 0.007709496 -0.16880679 -0.0004292382 0.023780655 0.03287011 0.06319711 0.05453816 0.0028782012 0.009638759 0.07063492 -0.09703684 -0.022408517 -0.121992625 -0.08410422 -0.014536423 0.02493305 -0.013403637 -0.01385949 -0.07598765 0.0042598895 0.038711138 -0.092683285 -0.038778625 -0.085527636 0.08148645 0.02529256 0.04828965 0.18423103 0.017776992 0.037666067 0.03133465 0.0256881 -0.08597008 0.039841864 0.034948066 -0.035930783 0.13209736 -0.021785095 -0.10525476 -0.029468223 -0.17239386 -0.046254765 -0.010220306 -0.043264806 -0.05556623 0.015471418 0.09700615 0.117212996 -0.05864295 0.06379211 -0.06758168 -0.023528382 -0.07428597 0.035218038 0.06031504 -0.04316246 0.013591042 -0.036990818 -0.0014969272 -0.009528334 0.015018386 -0.07644443 -0.0075456635 0.017665638 0.038002007 -0.03381437 -0.011986894 0.0014850595 -0.04785093
8620:LIGHTNING_CR 0.012823645 0.016179135 -0.030609379 0.005370772 0.14759798 -0.061793253 0.09671205 -0.082469404 -0.040370118 0.2769585 -0.016049402 -0.044671632 -0.04920864 -0.027201772 0.18315463 0.005505424 -0.18182445 -0.06606418 -0.029595653 0.10954047 0.05268575 0.14284885 -0.08085293 -0.2160035 -0.0011809063 0.13219832 -0.060361985 0.004109863 0.03309684 -0.16597517 -0.027469626 -0.07669615 -0.014759621 -0.018722782 -0.023170253 0.09298603 0.10302209 -0.04479787 -0.05888658 -0.0039836443 0.027725952 0.008580047 -0.06789204 -0.020500077 0.047705974 -0.07292281 -0.16321208 -0.041735902 -0.036170408 0.052734893 0.10765562 0.058419894 0.041223433 -0.062210582 -0.033689674 0.031931225 0.056184217 -0.15677252 -0.032242324 0.09816232 -0.18025264 0.048522983 0.058535054 -0.03488386 0.027346231 0.018699925 0.027524702 -0.05716852 0.03800405 -0.009761118 0.077822216 -0.04817589 -0.08304424 0.005249108 -0.05016027 -0.014544387 -0.118173204 -0.002561834 -0.056334127 -0.06389979 -0.041213308 -0.05534896 -0.11434526 0.016246716 0.029409 0.0897931 0.18515962 -0.039384276 0.04181547 0.031436827 0.01249292 0.052153073 0.08365685 -0.008876571 0.011183198 0.14783376 0.12727636 -0.0866862 -0.06804926 -0.084880926 -0.054082654 0.009869276 -0.07873618 -0.12890056 0.06756313 0.12130105 0.09414113 0.049690276 0.078859605 -0.04960058 0.12553298 -0.0999976 0.0066461507 -0.041822106 -0.09636059 -0.049195305 -0.021972762 -0.036374144 -0.025010396 0.02086151 -0.020450115 -0.044768482 -0.014463196 0.0019706553 -0.07354534 -0.063207716 0.10140823 -0.10022805
5105:ARDMORE -0.009550143 0.037314773 0.017658494 0.057350904 0.1566732 -0.12736149 0.1853267 -0.120332606 0.008136247 0.17418128 0.021462908 0.025817184 -0.002572834 0.0049781096 0.21393703 0.09482367 -0.23233986 -0.036082715 -0.16419977 0.16309024 0.0041437554 0.054598663 -0.17311724 -0.1501909 -0.043518525 0.09461258 0.004042001 0.049670476 -0.016295755 -0.08084269 -0.05061519 -0.08026712 -0.0010730433 0.06324141 -0.008280633 0.07861219 0.04051412 -0.11720628 0.013587847 0.07249615 0.03856479 0.07200138 -0.030591313 -0.046294592 0.061644193 -0.07542566 -0.11737539 -0.08227775 0.021251034 0.072900355 0.09576073 0.062058356 0.06426648 -0.017715903 -0.032712802 0.01053769 0.077430345 0.0145762805 0.054834772 -0.02224625 -0.07087288 0.03663772 0.036039293 0.047732744 0.03196378 0.045953207 0.016362602 0.011304545 0.06267846 -0.07320484 -0.04807209 -0.026588986 -0.09519432 -0.03724088 0.06452358 -0.04975504 0.008310582 -0.023542732 0.0035317058 0.020032711 -0.055939812 0.036329094 -0.09856319 0.010609021 -0.009162134 0.06129376 0.135739 0.033979986 0.12499931 -0.07300194 -0.029715052 0.030496815 0.074097246 -0.012469431 0.03177606 0.18649302 0.03449558 -0.006805325 -0.16459565 -0.055562995 -0.15974472 0.040215734 -0.011808842 -0.09075099 0.06763791 0.17354655 0.09613791 -0.01881564 0.087781385 -0.052823473 0.02818281 -0.15111268 0.02698715 0.02334616 -0.03486584 0.0012421341 -0.09752276 -0.007747491 -0.06281414 0.101274624 -0.17862505 -0.07823318 -0.08396541 0.034934063 -0.08099612 -0.004958422 0.06756064 -0.08397113
8209:CLASSEN -0.050020218 -0.0147238225 -0.059480198 0.093049794 0.15997761 -0.11351976 0.16236776 -0.08822753 -0.025638591 0.1038857 0.011479266 0.032515224 -0.06551522 -0.12393791 0.22167858 0.10248113 -0.13042077 -0.07336261 -0.16035925 0.12467121 -0.018678596 0.06591197 -0.20224157 -0.14067514 -0.12100499 0.18321209 0.020730695 0.027262691 0.03177102 -0.081821375 0.0013390074 -0.070356645 0.075640805 0.037250653 -0.115795985 0.046087872 0.02799523 -0.1491326 0.0153473895 -0.005076662 -0.040357538 0.107750766 -0.038510405 -0.07184533 0.09048938 -0.15534845 -0.13757467 -0.029766774 -0.017188268 0.012310139 0.04666727 0.012462405 0.025248013 0.017861461 -0.00825072 0.006284353 0.0029483263 -0.1314783 0.012371828 -0.010557733 -0.08717816 -0.015225899 -0.01801638 0.018595472 0.09089501 -0.033318907 0.073418036 -0.09809833 0.056921493 -0.17030632 0.031018954 -0.03941171 -0.00564285 -0.027916575 0.006543187 -0.08544021 -0.05651821 -0.09247847 -0.008580356 0.024848897 -0.06834176 -0.12952103 -0.054781638 0.115062356 -0.0003236545 0.03363928 0.10845994 -0.014208747 0.032010496 -0.08030368 0.0692675 -0.06765916 0.061626446 0.00035457266 -0.021002624 0.112751454 -0.041223988 -0.09982349 -0.058665097 -0.08756916 -0.05365172 0.077977955 -0.046060897 -0.036517628 0.017777009 0.038551833 0.0108708115 0.004358239 0.08795141 -0.07738415 0.041310657 -0.08964671 -0.039929252 0.096376896 4.2711086e-05 0.077155195 -0.046333343 -0.062896706 -0.05003695 0.042327564 -0.08768295 -0.040186495 -0.046306796 -0.09692197 -0.054636274 -0.011098151 0.06578036 -0.020324264
8662:SE_15TH_ST -0.05403995 -0.045763668 -0.020541346 0.108222745 0.0694253 -0.06918991 0.23240866 -0.029636309 0.05412239 0.13014981 0.050193317 0.13003053 -0.028176421 -0.07856308 0.18738377 0.0913729 -0.12897329 0.039823927 -0.1224948 0.10441074 -0.020954264 0.0765936 -0.1730579 -0.2318559 0.009015646 0.15883762 0.014923733 -0.07871752 0.0065280283 -0.07117146 -0.09837415 -0.1109653 0.015921177 0.0029656303 0.056777045 -0.009783667 0.052753877 -0.048115507 0.031558957 0.058533855 0.021395342 0.11415205 -0.026370691 -0.12125111 0.12928718 -0.1697486 -0.1259306 -0.032288127 -0.055424616 -0.0068910983 0.10724179 -0.022736475 0.028961394 -0.050667446 -0.07856279 -0.056533784 -0.04168478 -0.13876778 0.024948344 0.044409193 -0.03246621 -0.03917415 -0.0049241316 0.074336454 0.13994125 0.10022746 0.0037628964 0.0007110542 0.017820384 -0.014940693 -0.027316073 -0.06957995 0.0030310766 -0.06166354 -0.046826694 0.04970092 -0.0677834 -0.033985995 0.01613703 0.18181443 -0.055078454 -0.008168843 -0.048574787 -0.006691045 -0.036382165 0.12857315 0.15612558 -0.059343178 -0.0052841245 -0.032199718 -0.041353676 -0.11010929 0.12062244 -0.034147695 -0.0019587309 0.14584388 -0.1510988 -0.09477126 -0.091628835 -0.10754492 -0.04821422 0.082038626 -0.114089474 0.026454125 0.04467444 0.04522247 -0.008500389 -0.03555184 0.033020537 -0.029938176 0.04484772 -0.015611714 -0.015975265 0.0026270219 -0.0998948 0.05358146 -0.061848126 -0.019997371 -0.08095578 0.05298351 -0.07128752 -0.024986003 -0.038515273 0.036416598 -0.081700005 -0.025577748 0.16424473 -0.076621346
4353:OTTER -0.08456562 -0.004884352 -0.032011576 0.058674727 0.054859698 0.0020355193 0.14322524 -0.040051267 0.0017454514 0.23837677 -0.08019506 -0.034222487 -0.05774913 -0.07033287 0.11949198 0.13301449 -0.21082292 0.054289084 -0.1338749 0.21253927 0.038202077 0.15553413 -0.18990476 -0.13034816 0.017136501 0.0188108 -0.004364326 -0.031559132 -0.055801935 -0.051091623 -0.039253924 -0.032192376 0.019513959 -0.009446849 -0.008773974 0.06666857 0.08491924 -0.029434396 -0.03227303 -0.032379664 -0.02232691 0.041481953 -0.11120041 0.010901791 0.08505282 0.003977637 -0.20599763 -0.040631175 0.055923253 0.009926902 0.20448607 0.028280461 0.026064541 -0.0028409574 -0.06654685 -0.08183698 -0.0054471865 -0.10382101 -0.02348665 0.049622465 -0.12831706 -0.0602279 0.07944157 -0.0011283808 -0.0031900264 0.06904901 -0.021267489 0.03140913 0.007879176 0.02315422 0.005118621 -0.12929904 -0.09573168 -0.06827181 0.038982905 0.014227006 -0.14703664 -0.117089495 -0.021009322 -0.067141555 -0.10525349 -0.08628798 -0.034390345 0.05699128 0.046337623 0.12817885 0.14727817 0.016098283 0.0924388 0.018420791 0.017510979 0.11172871 0.11706675 0.02807908 -0.013565218 0.12505475 -0.00059711124 -0.15848985 -0.22833268 -0.032839898 -0.058207337 0.02148818 0.08642448 0.00073110254 0.040853303 0.13909386 0.02798632 -0.009022703 0.030334657 -0.0526597 0.08387911 -9.119282e-05 0.022508292 0.0045949775 -0.07809456 -0.06253553 -0.009513365 -0.031716086 0.036102246 0.043061923 -0.06467818 -0.037812572 -0.08135907 -0.030500192 -0.043301385 -0.06452135 0.06780644 -0.004028857
8222:CZECH_HALL -0.0011165051 0.025415653 -0.00915476 0.025232663 0.061120506 -0.07788623 0.18060017 -0.0506877 -0.04045842 0.14046127 0.04010437 0.054079384 0.0131809665 0.007249748 0.16161792 0.12917438 -0.22205177 -0.09476422 -0.13054506 0.048943933 0.0710996 0.1102708 -0.14353059 -0.16769257 0.025944686 0.16381536 -0.024307907 -0.14281185 -0.013154713 0.017864201 -0.07509319 -0.010388339 0.07694354 0.065962054 0.010613385 0.012292302 0.10104409 -0.043683764 0.04396013 0.033977803 0.029790014 -0.004890285 -0.066305414 -0.05158141 0.053263742 -0.0891836 -0.20595862 -0.00786449 0.026080815 0.06522879 0.12881966 0.096961945 0.037331104 -0.04809828 -0.07344464 -0.058538254 -0.005695169 -0.12014827 0.0180715 0.02900573 -0.092747524 -0.054493032 0.046080325 0.03549148 0.10004421 0.01963282 0.06564885 -0.10532602 0.09055751 0.023753589 0.00216019 -0.0781856 -0.03622616 -0.0031530415 0.0070292684 0.054270048 -0.067311555 -0.15213211 0.03648314 -0.051766507 -0.027742147 -0.03169192 -0.07622339 0.043690875 0.009511584 0.042662043 0.108812146 -0.07198553 0.023911817 -0.03581368 0.06328973 0.03604409 0.1604612 -0.033476092 -0.044810154 0.067208566 0.019444363 -0.1846194 -0.10235578 -0.03673507 -0.085032314 0.12365374 -0.033762693 0.0367305 0.018491693 0.06726204 -0.036844723 0.039187208 0.119820476 -0.043516062 0.031269945 -0.10674187 -0.01604449 0.076934874 0.037776507 -0.01741137 -0.014604525 -0.0010882973 0.020821637 -0.045526057 -0.12641819 -0.08454603 -0.06644801 0.036496937 -0.060459923 0.00734807 0.17667247 -0.022448266
