281 128
8522:MIDWAY -0.22430032 -0.5769278 0.52993196 0.31373256 0.3631832 0.25422856 -0.23017113 -0.5149208 0.13201404 0.14519791 -0.2526262 -0.096544236 -0.34725207 0.054331638 0.096027695 0.5300246 0.15164462 0.18079121 0.3967836 0.102922104 0.2602963 -0.34570584 -0.09430647 0.4666516 -1.2415903 -0.08439092 0.10651477 0.646424 -0.12532023 0.036415562 -0.25314894 -0.50212866 0.36341444 -0.33472428 0.20216177 0.19183317 -0.10392351 -0.6717422 -0.52404344 -0.0001050079 0.17912914 -0.86369073 0.10027077 0.2874042 -0.30057257 0.7211372 0.4075206 0.64012927 0.56162035 -0.83469176 -0.76708 0.16551098 0.37640837 0.28865078 0.6528418 -0.2451615 0.9138037 0.335069 0.029102312 -0.3094208 0.28337663 -0.5208075 0.64972514 0.77113503 -0.18428458 -0.22223717 -0.15361701 -0.5786945 -0.17054528 0.47024694 -0.26238996 0.047543228 -0.65270007 0.2979053 0.19607887 -0.74001926 0.28517336 0.9830162 -0.00027571234 0.32637194 -0.54812 -0.11633765 -0.05799136 0.21306162 0.418768 0.21890733 0.16215481 0.3414135 -0.040815108 0.092084765 0.2222226 -0.25784355 0.37932438 0.49243098 0.019372797 -0.069917455 0.6271503 0.5603096 -0.16520263 0.5046373 0.12489808 0.11417488 -0.19864748 -0.8358031 -0.29840013 0.22499472 -0.56358206 0.06064734 0.34042975 -0.49234322 -0.06774443 -0.41938275 -0.08844216 -0.13440847 0.21759737 0.059357423 0.25024915 0.23769444 -0.236851 -0.48085216 0.35305142 0.052392073 0.43190315 0.20942214 -0.3757498 -0.5955682 -0.025035238 -0.002001186
8245:COUNCIL 0.16141202 -0.35152107 0.14417605 -0.0154284565 0.65179586 0.6319498 -0.2724088 -0.50025195 0.045868397 -0.15736584 -0.503926 -0.14217074 -0.10389332 -0.28712183 0.48767447 0.36333057 0.52620316 0.1756063 -0.034606017 0.02667759 0.457288 -0.52909726 0.38652024 0.20693421 -0.5773921 0.6165903 -0.21481866 0.08828475 0.045636665 -0.38662386 0.098804556 -0.321032 -0.019064177 -0.24171282 -0.035600312 0.3236304 -0.10846107 -0.9959524 0.05706525 -0.49031734 0.34861517 -0.6728854 0.31553882 -0.12934566 -0.21064359 0.21425423 0.7496763 0.6174885 0.26740864 -0.9823483 -0.7081454 -0.26532865 0.19669719 0.10168191 0.66456074 0.109539874 0.70655596 0.053256247 0.18231194 -0.25783893 0.20268565 -0.6398925 -0.12693658 -0.0022093768 -0.0088195745 -0.038565967 0.05238001 -0.41495636 -0.27874783 0.059358355 -0.7992639 0.114709996 -0.6614225 -0.0057464982 -0.24491207 -0.61443365 0.5480533 0.91990364 0.033465456 0.34356123 -0.31398737 0.3615563 -0.025854927 -0.1760294 0.13017163 0.3567206 0.2750041 0.2932997 0.15310252 0.12030595 -0.47661436 0.08376067 0.57279646 0.80534977 -0.30652216 -0.058829654 -0.15443052 0.20266637 -0.3039675 0.49106744 0.15956646 0.12772048 -0.24764065 -0.51806307 -0.11479154 -0.054838 -0.7407113 0.15292023 0.6594358 -0.72429764 -0.37275222 0.048838813 0.07278665 -0.17616156 -0.050020885 -0.20942473 0.3861407 0.5007327 -0.17845277 -0.49132472 0.40909725 -0.13729116 0.6150599 0.42650905 -0.7107672 -0.32151923 -0.4997678 -0.05710878
8352:QUAIL_CREEK -0.09999394 0.06045439 0.11225728 0.6234489 -0.004436811 0.5264306 0.3838042 -0.94941276 -0.056905616 0.33328283 -0.56680566 0.49559817 -0.30563742 -0.1983773 -0.084404245 0.4476196 0.3101848 0.16861579 0.27534452 0.18622737 0.0053354246 0.01894665 0.16212828 0.5675448 -0.94577074 0.13428715 -0.1938087 0.5062708 -0.13996087 0.42182013 -0.15415183 -0.045887247 -0.0009589138 -0.40541255 -0.22849879 0.03494446 0.56772983 -0.37778684 -0.5191452 0.12343533 -0.101178184 -0.4012334 0.15991262 -0.10413303 -0.051459882 0.69388634 0.45992658 0.4210181 0.20557708 -0.2638373 -0.35152945 0.5647421 0.44407457 0.28668424 0.89765745 -0.28748706 0.20346335 0.20033662 0.13839822 0.011965013 0.038226955 -0.37823328 0.8321754 -0.061424892 -0.09986399 0.08658529 -0.72798055 -0.10915907 -0.34657067 0.04056924 0.04845196 -0.56351024 -0.3523725 -0.4224848 0.21587844 -0.98276484 0.49909765 0.7207448 0.6227239 -0.21280693 -0.08481014 -0.36889246 -0.11317523 0.29183125 0.40778056 0.6926313 0.42367476 0.32213774 0.27666062 0.24712355 -0.27813104 -0.09018433 0.54692864 0.43972912 0.12015464 0.102020234 0.30659154 -0.26274022 -0.9147285 0.64247525 0.3944306 0.6197179 0.0633864 -0.2736593 -0.22031899 0.054150786 -0.38845566 0.2661391 0.09106757 -0.7863782 -0.22842306 -0.5376459 -0.093011275 -0.541938 -0.42773843 0.03844032 0.29521587 0.27769193 -0.28339002 -0.34118393 0.35549176 -0.07765762 0.5226889 0.24433458 -0.6688308 -0.58261764 -0.7978056 0.19046533
9330:SIMMONS -0.27502057 -0.27441967 0.33748767 0.4005624 0.23991887 0.34166774 0.2611753 -0.2822068 0.16447112 -0.004438345 -0.26319045 0.33945945 -0.5763585 -0.084664494 -0.22813982 0.53989124 0.25929433 -0.107234225 0.57359445 0.22480696 0.81913567 -0.3051869 0.12304732 0.12775038 -0.19951281 0.123455696 0.09454268 0.12637973 -0.29516906 -0.35913607 0.017937725 -0.016317839 0.30824324 -0.2955468 -0.023481952 0.17234658 -0.30057847 -0.15551904 -0.37964466 0.10847506 0.44507313 -0.5932539 0.06797836 0.21107884 -0.024371821 0.5520267 0.4162156 0.112707384 0.4134628 -0.6062438 -0.23206413 -0.095603146 0.6182366 0.1044797 0.44083032 -0.33479813 0.20768914 0.3478855 -0.2893484 0.09256384 0.32075742 -0.6271381 0.6528339 0.5796285 -0.2795385 -0.07747804 -0.009571758 -0.39870715 -0.08606248 0.29163972 -0.30847642 -0.17989795 -0.86356086 -0.112621374 -0.4493257 -0.52987313 0.64398986 0.49253353 0.4845753 -0.12998515 -0.22862653 -0.19239558 -0.22506712 0.319398 0.9643057 0.091784835 0.4838928 0.48614466 0.3284859 0.25996011 -0.28675961 -0.31018662 0.44382006 0.44475043 0.34010258 -0.3237668 0.1560469 -0.25991285 -0.15399651 0.52643925 -0.023024304 0.5363217 0.20480658 -0.49366915 -0.2795194 0.41440034 -0.46316832 0.13972144 0.8423231 -0.8496854 -0.4530561 -0.22568238 -0.7008718 -0.63454163 -0.42918602 0.3331144 0.19373272 0.849251 -0.22188422 -0.96571565 0.6267209 -0.32981527 0.84879774 0.022922557 -0.4805841 -0.453322 -0.6508378 0.28500694
8621:DRAPER_LAKE 0.15716106 -0.05952972 0.2663709 0.49349475 0.3065809 0.3075219 -0.051063307 -0.6919682 0.28501394 -0.22399123 -0.70910674 -0.043826148 -0.21597007 -0.21347933 -0.008088849 0.40034744 0.17494889 0.09232356 0.37512705 0.21509501 0.46938947 -0.26300514 0.12039405 0.24627599 -0.26419723 0.46629354 0.055324387 -0.017810684 -0.3183668 -0.29523334 -0.33649617 -0.22369239 -0.046479728 -0.04595534 -0.20491046 0.32654136 0.2998389 -0.2501898 -0.2919372 -0.22912629 0.26383555 -0.63943636 0.5979574 0.19317788 0.116547786 0.46700206 0.519652 -0.10655885 0.34622842 -0.65186924 -0.74184805 -0.24105808 0.7142401 0.3671914 0.40384823 -0.4600191 0.050775535 0.08574131 -0.17562027 -0.18754381 0.42973822 -0.7090496 0.15315607 0.39241484 0.10106733 -0.35318193 -0.3973861 -0.289647 -0.40343755 -0.08732245 0.014715299 -0.03752043 -0.67794865 -0.25072315 -0.05158291 -0.20382684 0.09021762 0.44988832 0.28000736 0.37052602 -0.6590968 0.302994 0.16813344 -0.08259567 0.21218821 -0.27126485 0.33615637 0.22130378 0.30895025 0.5774846 -0.95628726 -0.21530145 0.4377377 0.6150335 0.024916947 -0.34723172 -0.02457578 -0.09944264 0.27349475 0.6016325 0.12516688 0.3064963 -0.28803462 -0.39083964 -0.2252887 0.4263175 -0.14479734 0.4428967 0.49465138 -0.16340508 -0.27008638 -0.42328644 -0.16154972 0.17064431 -0.09668854 -0.21137396 -0.04402165 0.48248023 -0.26599684 -0.5191725 0.48663414 -0.3740426 0.05213828 0.02657487 -0.31153086 -0.052141145 -0.50055355 -0.23955478
8312:BELLE_ISLE_STA -0.011503697 -0.5498504 0.484092 0.10698019 0.41858426 0.99774766 -0.32338846 0.020271465 0.32249996 -0.4290217 -0.50555134 0.06298016 -0.22484921 -0.16378532 0.19812892 0.6070767 0.5270815 -0.26582956 0.07193332 0.01556811 0.33970216 -0.24935295 0.034580022 0.1567673 -0.23130532 0.46937603 0.016999409 0.31869373 0.102254905 -0.38262016 -0.22128943 -0.27640074 0.21624568 -0.40091673 -0.020277228 0.5166462 0.55955577 -0.26550904 -0.50693023 -0.2654232 -0.07871946 -0.5766205 0.120936655 0.25292552 0.01731242 0.65215176 0.13462374 0.3253201 0.43344903 -0.71639115 -0.91293705 -0.120924115 0.85202146 0.14555454 0.6772006 -0.1560705 0.013040317 -0.034904722 -0.042674918 0.044252552 0.076875634 -0.6037293 0.13665761 0.25625962 -0.4279552 0.30352688 -0.83063036 -0.5689375 -0.41359487 0.40938178 -0.16501807 0.047244858 -0.6989883 -0.3264252 -0.12475126 -0.5323408 0.19472882 0.43836007 0.30290306 0.22350533 -0.09032022 -0.30979344 -0.11664106 0.35926592 0.2399301 0.06808931 0.6554969 0.56968117 0.49106225 0.624011 -0.15191057 -0.48076168 0.46755072 0.8172145 0.32562295 -0.30479187 0.2972683 0.6477806 -0.47952658 0.50237584 -0.024153044 0.40494892 -0.084252745 -0.5166217 0.010126113 0.11892376 -0.7244064 0.4639886 0.5524501 -0.5034315 0.029250087 0.014837771 -0.26127392 -0.43495968 0.016051292 -0.10286287 0.2948277 0.91588897 -0.4156291 -0.34437397 0.42425257 -0.43726212 0.66190654 0.20117083 -0.5577948 -0.277363 -0.64367455 -0.12848319
8398:CHISHOLM_CREEK -0.045150712 -0.73794913 0.24290356 0.164752 0.41734245 0.9204411 -0.54309434 0.18241397 0.24989565 -0.30718872 -0.4845727 -0.0037198265 -0.49897102 0.036110535 0.3492149 0.32997426 0.022857789 -0.16819589 0.0934364 0.34402755 0.50425553 -0.33042708 -0.105196536 0.37258413 -0.09442162 0.14118704 0.11667241 -0.115252405 -0.15200879 -0.6208322 -0.3448718 -0.29474008 0.020970253 -0.43798596 -0.015969269 0.38776964 0.42387798 -0.24921693 -0.111375414 -0.06796581 0.5983016 -0.6091004 0.2945118 0.03955469 -0.13090685 0.68957454 0.38724658 0.68344176 0.37661657 -0.45706698 -0.26062134 -0.28222212 0.52005255 0.17074442 0.21638772 -0.21851587 0.11766457 0.29528463 -0.36771804 0.074448474 -0.0833251 -0.9300484 0.12541068 0.27668732 -0.45055524 0.16142087 -0.5866185 -0.6958995 -0.6166655 0.94765484 -0.32193074 -0.22574514 -0.88677037 -0.16561058 -0.14693701 -0.6910701 0.21030748 0.38281736 0.6718393 0.474127 -0.5553229 -0.21642382 -0.38705224 0.2022324 0.5445819 -0.36619142 0.43438348 0.5962534 0.2745936 0.4565916 -0.5689217 -0.7372115 0.52657425 0.7644562 0.43547496 -0.47336107 0.45181283 0.44178644 0.12576306 0.53999615 0.10001689 0.57964766 -0.1413379 -0.4572901 -0.19410698 0.38622636 -0.522441 0.33610567 0.5436974 -0.6516335 -0.27561763 0.130875 -0.109753914 -0.2272975 0.30378127 0.27807018 0.29524347 0.6864233 -0.16832149 -0.22711411 0.13709532 -0.19547586 0.7072646 0.0861377 -0.28687993 -0.16854955 -0.15446292 -0.12349814
8434:DEEP_FORK -0.05641103 -0.36746976 0.23878366 0.3457772 0.5385567 0.8681766 -0.2539395 -0.4060886 0.085672274 -0.06592789 -0.5954087 0.17511909 -0.56038517 -0.15867946 0.22320537 0.21595408 0.5525361 -0.2879288 0.39018506 0.3109182 0.32985586 -0.16073008 0.06415978 0.5821597 -0.686609 0.29170012 -0.0700982 0.2971144 -0.16329858 0.022440268 -0.23125789 -0.21945918 0.06406324 -0.17023893 -0.055438396 0.48214525 0.31388175 -0.45675504 -0.6551329 -0.14159712 0.3393624 -0.7517111 0.36561802 -0.023061741 -0.09536948 1.0135559 0.43994054 0.49583435 0.7318755 -0.5506126 -0.7035273 -0.10294461 0.34683737 0.036283568 0.48142147 -0.24125464 0.43204334 -0.010628002 0.25339314 -0.084807344 0.23042043 -0.92102814 0.40352616 0.5305792 -0.33027813 0.31661496 -0.3904657 -0.44308138 -0.5317127 0.3917741 -0.40397286 -0.22564143 -0.54737204 -0.3684521 -0.13293189 -1.2303028 0.44945794 0.78563935 0.5287294 0.35702944 -0.26063457 -0.14049315 -0.066566594 0.5062038 0.71552473 0.14311275 0.45814404 0.44402856 0.24716984 0.5230711 -0.3636399 -0.19589883 0.34401616 0.9141412 0.4592491 -0.24832278 0.773795 0.15407163 -0.52083904 0.6555697 0.22048314 0.67583233 -0.23539075 -0.6918029 -0.39034683 0.4057616 -0.8138679 0.3070357 0.4799876 -0.69044966 -0.4052398 -0.083905034 -0.34193194 -0.5016096 0.008451934 0.08549942 0.32260686 0.55276674 -0.1778782 -0.3490346 0.19830789 -0.00616673 0.750214 0.118916616 -0.5730955 -0.32053977 -0.37163752 0.32654184
9125:CARNALL -0.329483 -0.1457652 0.3461611 0.2180339 0.7566421 0.37382883 -0.3585862 -0.27507824 0.13923746 -0.21460861 -1.0071149 0.3175087 -0.22374447 -0.17510214 0.119583465 0.37597117 0.19548544 0.063428044 -0.01985002 -0.15760021 0.4147291 -0.0448817 -0.020080475 0.7211174 -0.8728275 0.40266 0.22273907 0.40397546 -0.2831402 0.11315611 -0.52728146 -0.31645906 -0.103455134 -0.22341843 0.04614384 0.05890103 0.32233065 -0.4164001 -0.48468807 -0.036124986 0.05216569 -0.78144497 -0.03305221 -0.14155507 -0.5610475 0.89343053 0.59824705 0.47466224 0.3446729 -0.3117755 -0.5531391 0.24370655 0.41958508 -0.0022930482 0.25362322 0.13383661 0.18445773 0.045879066 -0.0911619 0.28095233 -0.0066381567 -0.6254845 0.231145 0.3746538 -0.018050091 -0.07243105 -0.47436702 -0.37182492 -0.46661443 0.50973153 -0.34095803 -0.23260526 -0.5713379 0.11118767 0.039296072 -0.48551905 0.31044802 0.6972119 0.10948667 -0.12153615 -0.12731484 -0.4391191 0.09897071 0.037750904 0.4047295 0.202176 0.17157559 0.23617294 0.079266064 0.15546665 -0.22832628 0.1573107 -0.027614292 0.2859606 0.2577953 -0.1372153 0.6291729 0.09034628 -0.15688172 0.6167418 0.1963915 0.14648558 0.31122383 -0.29418555 -0.2216112 0.117589384 -0.39866397 0.13281634 0.5152536 -0.3004436 -0.17290992 -0.36393565 -0.3546931 -0.34926552 -0.4467169 0.28357795 0.12166072 0.31210172 -0.12728924 -0.5149578 0.48436037 -0.072284326 0.7919136 0.39443365 -0.41541907 -0.46449003 -0.2191266 0.009820653
8708:CEDAR_LANE 0.40150103 -0.32397875 0.3423253 0.5401423 -0.16229808 0.34467083 -0.21769 -0.38791436 0.4101978 -0.22265235 -0.29406738 -0.0024582988 -0.23467572 -0.23629613 -0.013989506 0.64216125 0.29849845 0.23494944 0.5081058 0.099319786 0.47787276 -0.11804406 0.2563887 0.39070258 -0.19196516 0.31393716 0.13683231 0.14757909 -0.1648602 -0.44946885 -0.35400745 -0.37250406 -0.15728986 -0.7492413 -0.0036886667 0.5463475 0.40582976 -0.5151686 -0.37212247 0.045994565 0.22850555 -0.55522656 0.69367987 0.3012242 -0.4197207 0.49402356 0.39758056 -0.10872659 0.35703143 -0.35428286 -0.43946683 -0.23987198 0.4985372 0.34844816 -0.03376695 -0.24115855 0.13867068 -0.013947378 -0.34768423 -0.12202119 0.36271653 -0.5468226 0.05080554 0.27474365 0.052133653 -0.47761926 -0.094563134 -0.5567373 -0.36929354 0.3463062 -0.48255107 -0.033162884 -0.4380697 -0.05237623 -0.24414064 -0.43981946 0.2169842 0.4283291 0.34361073 0.43953764 -0.33723575 0.14587933 0.17422457 0.20673928 0.51082313 -0.05543927 0.57748103 0.42387423 0.4616032 0.47557753 -0.63071024 -0.4614285 0.27782896 0.41355717 0.051031064 -0.34293464 -0.08233863 0.011086375 -0.115751565 0.48978123 0.20445876 0.31638193 -0.47030464 -0.38704646 0.13630284 0.13667488 -0.24793215 0.52189046 0.4300842 -0.46926278 -0.3821727 -0.46930972 -0.0048720357 0.024108412 0.12427545 -0.3010844 0.16004078 0.7035138 -0.21009146 -0.25097898 0.19603029 -0.5993581 0.16902015 -0.10849197 -0.2025024 -0.5610371 -0.71601874 -0.045060724
9117:BARLING -0.056851678 -0.30918697 0.1598534 -0.16323319 0.41610393 0.3389861 -0.16324444 -0.1611252 -0.2529016 -0.044684038 -0.46078455 -0.025071496 -0.4674158 -0.30611715 0.005966273 0.31961527 0.5105492 -0.5214528 0.010662936 -0.2196854 0.17641607 -0.20792149 0.17092383 0.33725622 -0.2397165 0.22925572 -0.24270478 -0.24357185 -0.07864912 0.21706691 0.14683114 -0.36127633 -0.16971198 -0.6460876 0.27339482 0.61667097 0.021012185 -0.64725167 -0.641171 -0.21902424 0.20373385 -0.43436262 -0.02916186 -0.03159543 -0.024834342 0.69459736 0.67706347 0.2697008 0.31655 -0.59523106 -0.24508567 -0.3187897 0.117436014 -0.06935641 0.37523106 -0.073010296 0.3529612 -0.40102023 -0.101254866 -0.23056674 -0.17880799 -0.7178149 0.45403585 0.5103992 -0.270168 0.19138631 0.22056799 -0.67432916 -0.13536462 0.16242108 -0.90693825 -0.05531749 -0.75160515 -0.18262693 -0.45040283 -0.36393514 0.6771675 0.994869 0.25196 -0.09873828 -0.5027379 0.1204201 0.20837837 0.3579993 0.4505602 -0.048813485 0.06710517 0.014654492 0.16454726 -0.19294111 -0.20841038 0.051884554 0.24731697 0.4728659 0.0060802232 -0.2318708 0.47716227 0.15390162 -0.17509888 -0.021519087 0.20345592 0.3012849 0.11459367 -0.42688105 0.124867946 -0.26205373 -0.22438385 -0.03518744 0.59252906 -0.37997532 -0.09469011 -0.42332006 -0.2784377 -0.4428269 0.16701752 0.0034303365 0.09412466 0.5949912 -0.19949508 -0.381245 0.4475924 0.09949636 0.38711524 0.03455186 -0.40047705 -0.2063351 -0.55072564 0.3608956
9215:CHARLESTON -0.12791309 -0.17412756 0.11118156 0.22712539 0.46196455 0.7845671 -0.40536654 -0.42489815 0.19921128 -0.21073578 -0.88259107 -0.027984556 -0.19134648 -0.3333206 0.16708344 0.30900636 0.21720336 0.02245121 -0.23907043 -0.064204514 0.35732841 0.02304408 0.12733164 0.5576586 -0.40015984 0.39349106 0.020520043 0.07865173 -0.22025141 -0.17802224 -0.40935302 -0.31895193 -0.176987 0.1519657 0.15366542 0.229847 0.22003554 -0.31616738 -0.33943444 -0.05978107 0.28300098 -0.42226288 0.11437452 -0.042466138 -0.4962242 0.6020037 0.7248496 0.22478817 0.23014644 -0.53400624 -0.36255226 0.16135074 0.18928756 0.16008928 0.12370458 -0.08159823 -0.07854757 0.16948593 -0.14174013 0.24583969 -0.1043259 -0.48582467 0.39659575 0.13028449 0.029318461 -0.22189122 -0.21479592 -0.2003931 -0.31000257 0.22539668 -0.32565913 -0.26270118 -0.53929317 -0.13370018 -0.12089669 -0.4726944 0.10034852 0.59585035 0.20633243 -0.07011886 -0.018405184 -0.11763851 0.014926183 0.13426039 0.45869336 0.009471058 0.49926952 0.6141285 0.08435446 0.38728508 -0.2630227 0.13430893 -0.08623238 0.64421034 -0.021569153 -0.33106655 0.60147375 0.12671345 -0.07357763 0.3917157 0.2664221 0.15599172 0.022680657 -0.23439564 -0.41283578 0.27311072 -0.570259 0.18570355 0.36735517 -0.3678291 -0.32033363 -0.076098315 -0.05752349 -0.24294446 -0.3209895 -0.15090613 0.06685251 0.156995 0.040531192 -0.6195985 0.55604994 -0.13024162 1.0195398 0.4023651 -0.46488434 -0.16797957 -0.24736357 0.25819385
5309:POOLEVILLE -0.13485965 -0.23879673 0.6026193 0.07996789 0.49978545 0.5971083 -0.46566093 -0.48137996 0.42783922 -0.33306402 -0.8192064 -0.08432305 -0.31864265 -0.40076822 0.38808158 0.27625072 0.43957853 0.028685767 0.29272678 0.01914442 0.47537822 -0.00047731967 0.10165741 0.32935652 -0.27712604 0.4066113 0.013951675 0.48183367 -0.134222 -0.10544005 -0.42818892 -0.32901394 -0.1696738 -0.2710765 0.07730551 0.9523382 -0.04706777 -0.35892403 -0.055040214 -0.30882397 0.24900213 -0.43518838 0.23374173 -0.20241658 -0.27048233 0.58379394 0.56745297 0.11896203 0.93083805 -0.87391645 -0.87932605 -0.24285313 0.4042522 0.08690055 0.48206195 -0.05808999 0.14848782 -0.6529407 0.23867878 0.26561046 0.3651249 -0.96798974 0.20860493 0.38638842 -0.24180193 -0.20329142 0.017332766 0.21651314 -0.13430941 -0.17467302 -0.42393774 -0.14606282 -0.4908306 -0.28014803 -0.37761787 -0.55104333 0.4141607 1.0664871 0.26217082 -0.06248771 -0.12347555 0.3899173 -0.32960737 0.08102091 0.40408197 0.2910986 0.60039026 0.13121898 0.08883044 0.34060523 -0.1249607 -0.2018527 0.6440097 0.7971258 0.07526873 -0.38275063 0.7782434 -0.10129294 0.039892334 0.48106432 0.53527355 0.32039085 0.06539733 -0.692723 -0.050615937 -0.25169975 -0.13680899 0.2112292 0.98890656 -0.5880421 -0.42667785 0.15610252 0.21697025 -0.2551002 -0.0669692 0.0029453817 0.0031452277 0.49229825 -0.56350493 -0.9242079 0.6239513 0.271288 0.5683445 -0.015627472 -0.810688 -0.40522915 -0.6007382 0.15529405
5410:GLASSES 0.34736976 -0.40558723 0.22270848 0.39155155 0.17546399 0.8185238 -0.732658 -0.4443623 0.46685994 -0.019803414 -0.6291274 -0.18164451 -0.040896103 -0.16401242 0.17332223 0.15286398 0.31106815 0.45042315 0.18559843 -0.11280306 0.20268662 0.15224728 0.08374161 0.59472406 0.033692855 0.5895107 0.090117276 0.28367662 -0.058371827 -0.123256795 -0.32388112 -0.44374752 -0.25345275 -0.31267458 -0.19751613 0.39911267 0.5907962 -0.29978856 -0.20595224 -0.22514924 0.34189716 -0.6523736 0.19853295 -0.14653246 -0.24980776 0.30184165 0.54769117 0.022744702 0.4561032 -0.58538747 -0.6142265 -0.1692766 0.41229713 -0.04993849 0.17370687 -0.10775378 -0.01621945 -0.5531356 -0.16110265 -0.23083661 0.14208807 -0.63644516 -0.14135431 0.27972504 0.09948127 -0.1417056 -0.5000321 0.13388921 -0.41416758 0.1923594 -0.4050487 0.023523783 -0.48234555 -0.04170871 0.008592513 -0.6154394 0.5948075 0.7157851 0.32467777 0.4661226 -0.39177284 0.2136847 -0.05574787 -0.06595721 0.49851158 0.5038443 0.34696117 0.12788057 0.22607896 0.41701734 -0.41766113 -0.43664902 0.53463286 0.6516144 -0.0845192 -0.4508173 0.3529052 -0.2866688 -0.25511163 0.62550384 0.5477589 0.41253892 -0.37466788 -0.46241367 -0.3554169 0.22637378 -0.46132475 0.13466741 0.7138537 -0.79719263 -0.43957818 -0.22492534 -0.068019144 -0.07180189 0.11612668 -0.16588664 0.16426662 0.5021007 -0.24010958 -0.14452517 0.038048636 -0.17621677 0.75317055 0.0105818985 -0.6977408 -0.55150974 -0.17964762 0.047619667
4106:HEMLOCK -0.22253059 -0.8926531 0.21212968 0.5636073 0.23079543 0.69095355 -0.25306392 -0.18751399 0.08132639 0.10167115 -0.8060976 0.6389507 0.09054723 0.041038338 0.5697858 0.60357964 0.4648867 0.0154247815 0.85837173 0.1047479 0.44082353 0.2148517 0.15599069 0.09607958 -0.9736397 0.27761847 0.06627745 0.8894543 0.14352468 -0.051971618 -0.39777467 -0.0017193283 -0.44818115 0.20133789 0.20266974 0.6660675 0.35081646 -0.44971633 -0.42055884 -0.41894212 0.087804236 -0.61760575 0.24048184 -0.27532 -0.00870388 0.5436566 0.35918653 0.6312516 0.13780218 -0.81235474 -0.451256 0.13835384 0.5995077 0.2670915 0.7269459 -0.605543 0.9127644 0.21171184 0.21947443 -0.17142966 0.18000957 -0.82149476 0.58057815 0.10592414 -0.61162823 0.06792669 0.0546216 -0.558836 0.36525393 0.8644714 0.037070394 0.17310849 -0.36789337 0.15100496 0.21269648 -0.61897194 0.32158422 0.2992726 0.0060127284 0.27286792 -0.3452167 -0.17099184 -0.70391905 0.3092601 0.40335345 -0.06514141 0.07636564 0.45768625 0.013198239 0.413075 0.042737722 -0.09634868 0.7984526 0.83201617 0.7331897 -0.6373701 0.18917114 0.62640834 -0.12311951 0.44701114 0.21585129 0.6217425 -0.0064389925 -0.6953743 -0.41841108 -0.18190467 -0.72160876 0.2896511 -0.21829566 0.0041696113 0.1549151 0.008773751 0.16554551 -0.15362294 -0.12585926 0.13612157 0.36607385 0.24684305 -0.19335157 -0.18584551 0.22319229 -0.105479196 0.42419708 0.32016322 -0.3291196 -0.40168822 -0.3482601 0.2427318
5816:PARK_LANE 0.23060495 -0.33074325 -0.09216334 0.24188757 0.029326469 0.11758826 0.069208585 -0.37851974 0.22625847 -0.07726663 -0.3084396 0.10535137 -0.34324503 0.056614153 0.5939035 0.4353109 0.6956456 -0.04473173 0.23037238 0.013325109 0.22632138 -0.114274025 -0.12799335 0.6308787 -0.27014324 0.61091495 0.28078386 -0.02149412 0.12982464 -0.057717945 -0.18850003 -0.22412115 0.06499313 -0.17495733 -0.22335975 0.3531368 0.5199174 -0.3250139 -0.38819465 -0.17732182 0.45172444 -0.67747366 0.11433898 0.016681954 -0.48198137 0.3736621 0.5260498 0.43278196 0.2978323 -0.5173979 -0.5287426 0.021711595 0.5561014 0.061492804 0.68714654 -0.27704266 0.48322266 0.34283295 -0.17669928 0.07214359 0.2766016 -0.07600489 0.32172665 0.3249947 -0.5086358 -0.3905874 -0.063488975 -0.9996573 -0.49269682 0.37455383 -0.06458697 -0.3242338 -0.46551806 -0.12691633 0.22925378 -0.94266057 0.10098378 0.62142456 0.45523098 0.15804279 -0.6429274 -0.047105495 -0.519336 0.34316042 0.41639596 0.14086123 0.71035576 0.42695108 0.48958644 0.05241232 -0.4082862 -0.23144105 -0.012650032 0.5251985 -0.27099395 -0.22621775 0.14261843 -0.02582147 -0.24111658 0.70050657 -0.24996783 0.3792945 0.057235822 -0.7413162 0.1633259 -0.43418264 -0.84963423 0.2776519 0.68732864 -0.6777381 -0.5966879 0.16485786 0.22523202 -0.3719686 0.20828263 -0.24165364 0.3775507 0.41029635 -0.6003344 -0.60823435 0.5044589 0.053776868 -0.04405359 0.24256377 0.13804568 -0.3468479 -0.108793475 -0.17020227
4135:SO_4TH_ST -0.09316099 -0.5547763 0.48014012 0.3826523 0.23901922 0.6469463 -0.32066822 -0.11119221 0.45518643 0.027922694 -0.9178414 0.33936998 0.12305481 -0.11672522 0.29518723 0.45395023 0.58256507 -0.024112353 0.6592685 -0.22971724 0.38141868 0.16842519 0.33099377 -0.043937724 -0.21808042 0.19285776 0.09771327 0.21102487 0.06715364 0.31655827 -0.13548774 0.20239781 -0.20986676 -0.39380267 0.1239929 0.46497768 0.40911478 -0.52177954 -0.45203874 -0.009878223 0.11175024 -0.97453636 0.378758 -0.26254553 -0.09725154 0.6182022 0.38481185 0.49109444 0.10110911 -0.7443752 -0.6779542 0.042724684 0.26080984 -0.08607494 0.75769645 -0.2691993 0.8323469 0.17669168 0.35695225 -0.1209372 0.26957184 -1.1624197 0.6701394 0.09582609 -0.19518879 0.097366065 -0.1733856 -0.13548362 0.20337841 0.5337603 -0.019135851 0.2323789 -0.10897055 0.022163838 0.42012236 -0.44193783 0.2995272 0.02712242 0.010165254 0.19404945 -0.03379472 -0.18403952 -0.49669772 0.25686687 0.20444721 -0.14422691 0.023686424 0.046018083 0.016026055 0.23795132 0.04039899 -0.17545958 0.4357623 0.60534436 0.28951645 -0.48028496 -0.025969353 0.27332017 -0.114963286 0.39430848 0.0920113 0.26616704 -0.10508309 -0.74685776 -0.22930004 -0.16557023 -0.43043277 0.04588488 -0.06784654 0.029582605 -0.044900954 -0.2607068 -0.08465479 -0.32203856 -0.19472675 0.1871773 0.17652048 0.6089534 -0.34097427 -0.027697913 0.13619083 -0.027867623 0.65479946 0.25823748 -0.5462258 -0.40005893 -0.51122475 0.5753089
5508:BROWN_OG_AND_E -0.05523607 -0.34128147 0.17461462 -0.011016655 0.31409955 0.5390888 -0.24277343 -0.4148362 0.20051496 -0.06924078 -0.050718114 -0.3240844 -0.5049498 0.06847907 0.12811431 0.5305685 0.49344432 -0.20861591 0.25580502 0.033032566 0.46355483 0.071355104 -0.2957031 0.5476211 -0.015437103 0.18808028 -0.07267756 -0.07496395 -0.0076970616 -0.2053294 -0.09805222 -0.47571528 0.40149188 -0.15775578 0.13260855 0.41633052 -0.14592262 0.12124814 -0.54201734 -0.11705897 0.41594836 -0.44768614 0.20650582 0.2203715 -0.08318911 0.64025915 0.23403148 0.21925539 0.5063658 -0.34177083 -0.35581297 -0.08898512 0.39503092 0.108201504 0.048431184 -0.2702505 0.057583176 -0.058696676 0.060953822 0.077806026 0.28758246 -0.55164844 0.34367654 0.6978342 -0.5243673 -0.16606219 -0.030644692 -0.8166925 -0.4389603 0.63901985 -0.22420478 0.12728544 -0.59270686 -0.3058603 0.034039263 -0.6905225 0.26832807 0.5831519 0.45594186 0.70363635 -0.31541383 0.25611517 -0.30455318 0.2907577 0.3967073 -0.23202972 0.4156833 0.31881744 0.11536321 0.35452867 -0.14597316 -0.71459424 0.6135284 1.0128742 0.12552041 -0.42714006 0.5440552 0.56139684 -0.2869819 0.3498461 0.06912071 0.61916333 -0.35946527 -0.6943313 -0.29359588 0.2845116 -0.50593835 0.022627302 0.5588677 -0.38007092 -0.034285005 0.052389823 0.105381176 -0.2072285 0.18854557 -0.016139947 -0.017226454 0.4234266 -0.025994454 -0.08462183 0.39537033 0.17961217 0.37880734 0.11623819 -0.35794887 -0.20873713 0.16315775 0.22023793
5806:VALLEY_VIEW -0.4387383 -0.34457102 0.08488128 0.06606219 0.0268512 0.49370012 -0.5466287 -0.7796854 0.3707003 0.28496224 -0.940906 0.17408162 -0.2561343 -0.3944737 0.13804881 0.34230834 0.25252807 0.030912222 0.2706248 -0.042177115 0.2268128 -0.05914175 0.11492443 0.44087905 -0.90332067 0.16564067 0.17324692 -0.055038348 -0.3497527 -0.26818228 -0.12822503 -0.06651547 -0.44626114 -0.5003605 0.38529348 0.44231614 0.5779144 -0.010346352 -0.22229953 0.15043585 0.19184218 -0.53154856 0.26262712 -0.11982659 0.11481951 0.47096092 1.1291782 0.3249623 -0.07056106 -0.71228725 -0.30469248 -0.09471281 -0.07139874 0.20738854 0.6204136 -0.23973939 0.0419827 -0.30942184 0.24792118 0.1544525 0.07911237 -0.5115881 0.09709266 0.4437904 -0.10112506 0.23614766 -0.5097741 -0.46023113 -0.018885346 0.4726765 -0.13352422 -0.11644719 -0.59298885 -0.26840195 -0.14549097 -0.12602475 0.10415758 0.6850773 0.41475755 -0.037498813 -0.71323204 -0.26547685 0.15518408 -0.053157892 0.19241205 -0.13318062 0.47297153 0.1879361 0.027846262 0.1420972 -0.27068803 -0.46735615 0.6707209 0.8407166 0.049572006 -0.541344 0.7088968 0.117405325 -0.0831958 0.2873667 0.70987034 -0.10331208 -0.1485204 -0.18695296 0.07974461 0.47970852 -0.3660519 -0.28333226 0.44146743 -0.18609826 -0.14704525 -0.3730084 0.031143786 0.16507125 -0.038052198 -0.34482792 -0.104811616 -0.026455192 -0.2931093 -0.13409343 0.45595646 -0.0037692415 1.0342859 0.18717648 -0.6445036 -0.0790405 0.029289562 0.14714637
3514:HEAVENER 0.15515248 -0.34880778 0.3380634 0.59842646 0.12007979 0.76252604 -0.48744333 -1.0343425 0.15648463 0.37595147 -0.6900433 -0.08287199 -0.42375633 -0.3487412 0.24342687 0.4458081 0.6312467 0.012084502 0.2168156 0.30161378 0.413081 0.032154128 -0.1924839 0.90556777 -0.46433026 0.31163907 0.13279425 0.048989795 -0.13587813 0.07879674 -0.5165531 -0.014497598 -0.35752678 -0.0638451 -0.20647451 0.53880936 0.4502155 0.09583512 -0.28289568 -0.31875876 0.4269098 -0.58787596 0.21151094 -0.12369672 -0.16387461 0.59754825 0.6885783 0.32829437 0.35472226 -0.6185587 -0.23868643 0.089362636 0.3001268 0.32233033 0.017957814 -0.66777396 0.046006538 0.07290866 -0.24996309 0.012009366 0.31384048 -0.9607065 0.710036 0.53869724 -0.2912597 -0.4904514 0.05974274 -1.0195764 -0.24691187 0.39949402 0.044765815 -0.118715756 -0.6354718 -0.085174665 0.10552431 -0.7846363 0.64536214 0.6628213 0.5032026 0.18816349 -0.51022404 0.10854343 -0.67159516 0.0060707233 0.5093 -0.28449982 0.38401297 0.10465191 0.12945998 0.2878061 -0.331906 -0.36920688 0.11476677 0.6179794 0.09283941 -0.5719291 0.37703237 -0.044701263 -0.0061995764 0.5124865 0.4679338 0.59996706 -0.05995895 -0.4613746 -0.34768948 -0.06255034 -0.46899095 0.24258353 0.26217648 -0.48504958 -0.48971736 0.112257965 0.4614013 -0.19479325 -0.017202025 0.25557622 0.037400592 -0.13847406 -0.14236812 -0.23127592 0.5244065 0.29534987 0.30416816 0.47608444 -0.2933794 -0.38037986 0.07815991 0.2866188
8921:JENSEN_RD 0.2788513 -0.6174247 0.04766844 0.5451523 -0.0262473 0.44484904 -0.35045904 -0.24942838 0.8233367 -0.11540864 -0.5830548 0.5220655 -0.086184815 0.24492486 0.31727403 0.29569978 0.5683161 -0.06905864 0.7870165 0.07070705 -0.2488427 0.14682096 -0.034537498 0.19473144 -0.13376907 0.35381857 0.40720052 0.60091287 -0.31362867 -0.106111854 -0.7507606 -0.027038295 -0.49026644 -0.69371647 -0.053934358 0.6660708 0.42315766 -0.20469823 0.14873298 0.10125855 0.4650853 -0.64778215 0.6333534 -0.30643243 -0.10327165 0.20559034 0.36068362 0.22455172 0.6987793 -0.23693116 -0.03474634 -0.48196796 0.38421398 -0.2196392 0.7993001 -0.32680497 0.38583422 -0.33982643 0.14518045 -0.11615489 0.3221818 -0.6944086 0.123668045 0.25430006 -0.19791457 -0.08989973 -0.4611603 0.05791333 -0.0704023 -0.025117481 -0.41077435 -0.41480184 -0.7400517 -0.3041166 -0.26248622 -0.75104004 0.10114148 0.46196184 0.660582 -0.16306594 -0.5173594 -0.15008873 -0.5164722 0.2726648 0.010790038 -0.1173646 0.24819334 0.057608917 0.36146155 0.24312681 -0.49625635 -0.4387002 0.4912612 0.24541305 0.34061575 -0.2389091 0.511057 -0.40705028 -0.0975482 0.7448347 0.62773633 0.49904287 0.63364434 -0.45067364 0.027725454 -0.17514971 -0.46810663 0.20806165 0.9065165 -0.8366706 -0.44964468 -0.46044943 -0.028287122 -0.065303154 0.025472082 0.28528252 0.06499668 0.6086933 -0.60278094 -0.68328536 0.29030058 0.32117656 1.0147508 -0.03275453 -0.6412741 -0.1919654 -0.48983154 -0.34021622
4606:CEDAR_AVE -0.046134908 -0.68792826 0.22783633 0.4541186 0.15375692 0.7176136 -0.31285587 -0.13449784 0.084335804 0.11932783 -0.57603717 0.46093386 0.09511264 -0.035733145 0.39132622 0.41492644 0.56987005 0.026335133 0.569993 0.14845695 0.2365878 0.05543519 0.30259958 0.14647987 -0.7335257 0.34484646 0.002195871 0.6196978 0.09100378 -0.20597802 -0.21347146 0.051907126 -0.4650413 0.057665892 0.13937865 0.7442331 0.3157262 -0.46906486 -0.12738727 -0.44061092 0.12275589 -0.6732798 0.15181842 -0.30932435 0.049759556 0.39520073 0.3051784 0.60661745 0.3178365 -0.75157684 -0.5263722 0.08587714 0.44881865 0.20172931 0.78168505 -0.4701046 0.78856885 0.062000673 0.25142682 -0.18470454 0.23105036 -0.91264343 0.41070837 0.14901626 -0.5415139 0.13325769 -0.18543284 -0.5379346 0.45111492 0.7010049 -0.10052075 0.0515222 -0.49853542 -0.08506229 0.032734208 -0.6118038 0.44951713 0.38933903 0.175342 0.31172976 -0.29926473 -0.19892359 -0.6768006 0.2093766 0.21923167 -0.015094765 0.11288031 0.31858885 0.07028231 0.42995945 -0.0016814821 -0.17352618 0.73256683 0.7305992 0.62873125 -0.57856923 0.19953734 0.61796635 -0.3226488 0.6054492 0.40758246 0.6184367 -0.054816265 -0.6724259 -0.4259785 -0.23968199 -0.75142777 0.31711712 0.031534668 -0.2892092 -0.007688967 0.024480017 0.25522998 -0.24312428 -0.08024428 0.19575338 0.2932256 0.36199963 -0.33023646 -0.30474883 0.13808143 -0.098563045 0.5446737 0.4140071 -0.5027444 -0.3830697 -0.5553666 0.24430306
8822:WATERLOO 0.08103476 -0.26632187 0.20514452 0.5535523 0.5886133 0.83674073 -0.07165708 -0.27874598 0.0622225 0.24069686 -0.6954666 -0.06130011 -0.44507512 0.03781241 0.3122313 0.76998305 -2.6288562e-05 -0.29895756 -0.010212502 0.058166288 0.48878098 -0.7784692 0.10266935 0.3080207 -0.35205206 0.62484306 0.17061335 0.14310929 -0.4593092 -0.2539487 -0.5448215 -0.2679772 -0.14568028 -0.50816983 -0.10595787 0.24822251 0.14524259 -0.5639159 -0.30999207 -0.112471595 0.28287423 -0.5025717 0.18056835 0.13311045 -0.20995775 0.69376826 0.3190738 0.29477406 0.41615918 -0.379892 -0.26973483 -0.109307714 0.65690833 0.42618862 0.4517014 -0.35561875 0.41883633 0.35352254 -0.26722273 0.08562365 0.048420716 -0.52550596 0.57613605 0.35998496 -0.29287648 -0.46594167 -0.10721124 -0.47311002 -0.12110597 0.10318996 -0.26564053 -0.12354208 -0.56500006 0.13772836 -0.07508635 -0.22239597 0.37648338 0.8294706 0.23076151 0.0077323355 -0.46662992 -0.18343312 -0.24078628 0.10940309 0.25554067 -0.063721314 0.3878565 0.5623534 0.2032979 0.21082543 -0.019510603 -0.19631757 0.30525753 0.1873284 -0.119498245 -0.5031971 0.035621066 0.43648642 -0.28560773 0.5257181 0.095935024 0.44370937 0.29375866 -0.45388904 -0.2661696 -0.014928891 -0.55608106 0.40142092 0.6352817 -0.6066923 -0.13531353 -0.33155912 -0.35764292 -0.2861502 -0.15831101 0.16055524 0.21847537 0.73964447 -0.16403687 -0.6074321 0.4151802 -0.062809914 0.62385404 0.5422393 -0.5331974 -0.30592206 -0.3076352 0.15533276
4353:OTTER -0.14764126 -0.6025714 0.13596894 0.5049428 0.2169174 0.45862225 -0.13788846 -0.15230429 -0.07789071 0.054366067 -0.45231444 0.47590333 -0.004235443 -0.035865422 0.36082858 0.4979081 0.2366212 0.022319872 0.7615534 0.2142666 0.33324704 0.21222785 -0.0067121363 -0.0012754244 -0.87929404 0.11618328 0.079126954 0.96934676 0.21820797 -0.19726655 -0.33592543 -0.090130255 -0.46291602 0.39767313 0.16772494 0.5845666 0.20730782 -0.32695895 -0.3742605 -0.4722381 0.039780132 -0.34557545 0.1350786 -0.38726726 0.038639635 0.3687007 0.28107804 0.6240632 0.121347025 -0.77390546 -0.31281638 0.2778661 0.596812 0.3591404 0.5059989 -0.55934316 0.7150787 0.20958571 0.15478005 -0.1786205 0.06761337 -0.6319593 0.55764604 0.13150354 -0.57703173 0.096182324 0.0787478 -0.5146261 0.13359769 0.8499833 0.007999907 0.10986003 -0.4841641 0.22338662 0.14504375 -0.6034972 0.2293945 0.2346036 0.09200422 0.14806387 -0.28222984 -0.17987557 -0.5700172 0.28476697 0.46421126 0.032795876 0.08362564 0.6348828 0.06169349 0.3227413 0.015625507 0.042915225 0.83405036 0.69258493 0.7443936 -0.56329685 0.3115959 0.33712214 -0.09370046 0.47142538 0.36510918 0.52703947 0.05884578 -0.4513691 -0.37306675 -0.018108414 -0.61458313 0.3674237 0.022581972 -0.2033541 0.12755682 -0.01779043 0.24136959 -0.16263837 -0.20737088 0.15178156 0.4769535 0.10270062 -0.05521328 -0.26629254 0.24466965 -0.1094273 0.50715566 0.38044262 -0.39761832 -0.4437931 -0.29643676 0.11058235
3209:BIXBY -0.40388006 -0.6377195 0.4446325 0.37669 -0.10944935 0.86603564 -0.104044035 -0.79244196 0.34459847 -0.0656567 -0.692185 0.2652017 -0.41702697 -0.6781904 0.31170425 0.7085156 0.6626672 -0.46013007 0.35894123 0.27644935 0.6158422 -0.10366677 0.4599175 0.46904463 -0.5933461 0.39519697 0.06462926 0.5583428 -0.053693216 -0.3891016 -0.0067223017 -0.07207279 0.1686594 -0.5051734 0.10466956 -0.13556069 0.4711678 -0.2991728 -0.19757213 -0.46510828 0.2516068 -0.41620386 0.29142842 0.11012272 0.25628358 1.0356594 0.9774292 0.54546475 0.19431312 -0.7188628 -0.92558634 0.17175195 0.7083679 0.72536105 0.3508901 0.16170377 0.54261833 0.6912999 0.27697474 0.085211135 0.28692576 -0.78284526 0.69836795 0.13891006 -0.26768592 -0.03727894 -0.35997573 -0.77366316 -0.22724113 0.3889931 -0.19766234 -0.20271263 -0.52818584 -0.14652452 -0.12475923 -0.32722703 0.14327988 0.8143078 0.6405491 0.83109224 0.0822411 0.044786166 -0.4236304 0.3959906 0.19648033 0.112339534 0.41557539 0.5780108 -0.066035315 0.19592696 -0.6264319 -0.45189235 0.8564253 0.52428216 0.00097381574 -0.4885021 0.8595726 0.60105574 -0.48907474 0.37637475 0.01025999 0.5863687 0.23469044 -0.67083377 -0.46189252 -0.02906118 -0.040326472 0.5877168 0.3725451 -0.7102001 0.1312024 -0.52043205 0.20599201 0.20044143 -0.25496915 -0.36326116 0.6723598 0.3875111 0.1047401 -0.17763327 -0.096933104 -0.5335416 0.2616142 -0.1215835 -1.0293816 -0.58848524 -0.1726166 -0.88749343
3214:LONE_STAR 0.5764992 -0.96137404 0.019760838 0.7548419 0.20732275 0.89422363 -0.81260717 -0.14815637 0.7899904 -0.56921124 -0.077190444 0.57581085 -0.57473254 -0.9627952 0.21556106 0.94203866 0.18136433 -0.51417017 0.5112328 -0.050493326 0.0989475 0.1220537 0.10101843 0.44454658 -0.8981783 0.9133659 -0.23408327 1.2316984 -0.105195224 0.108952396 -1.1354191 -0.3982715 0.5659783 -0.6216523 0.097914375 0.8568104 -0.013727355 -0.8710056 0.007625532 -0.53902614 -0.3287892 -1.1686046 -0.045710176 -0.565388 -0.059398826 -0.058120344 0.81480813 0.49591857 0.10921382 0.03406226 -0.888463 0.005715798 0.038551196 0.36447048 0.89044523 -0.82618755 0.4334908 -0.10883126 0.36567777 0.0075476193 -0.35073975 -0.48444578 0.7536909 0.7222218 -1.0318084 0.13798168 0.4804307 -0.00028466884 -0.31674618 0.99096245 0.3586769 0.24186283 -0.073641084 -0.018487666 -0.05623687 0.05391801 -0.43133664 0.18125883 0.64846355 -0.5427454 0.26835367 -0.6034497 -0.40351456 0.5455979 0.309186 0.4183684 0.095937505 0.038559314 0.22146122 0.64054507 0.10713606 -0.1750076 0.21217687 0.19379535 0.6421195 0.50537115 0.72709984 0.555251 0.3473675 0.16614239 0.5379243 0.3739338 0.4297391 -0.35960233 -0.23775473 -0.37689734 -0.025546668 0.7551249 -0.14141804 -0.6381894 -0.34042224 0.42793748 -0.23222385 0.4573989 0.16288368 0.32076514 0.115399346 0.20900889 -0.22510497 1.336402e-06 -0.07564576 -0.25278595 0.55662256 0.59647346 0.08075473 -0.40543297 -0.53942835 -0.26166236
7706:BRISTOW -0.22971821 -0.26453373 0.099934936 -0.45640996 -0.3915554 0.19985546 -0.73536956 0.697319 0.020711102 0.2462793 -0.37258345 -0.09575323 -0.45493844 -0.20013827 0.18037798 0.22136664 0.81399244 -0.5300502 0.3630985 0.548204 -0.4988003 -0.031042464 0.03656452 0.29163107 -1.0471867 0.25542063 0.18106358 0.98641384 0.15897863 -0.10063838 0.043299336 -0.06660185 -1.4202622 -1.067028 -0.25763842 0.04682849 -0.1068313 -1.1870773 0.15900542 -0.33371812 -0.29833344 -0.17594643 0.31530124 0.16802426 0.28067142 0.28049564 0.7107338 0.8714168 0.32994533 -0.3117153 -0.10063967 -0.63460124 0.47298986 0.29165047 1.5314835 -0.5365486 0.363064 0.05126678 0.32002094 -0.024115205 0.3793938 -0.7034703 0.060635444 -0.07191469 0.095370606 0.06518837 -0.5715924 -0.31900397 -0.48727116 -0.4371173 0.2920167 -0.010287302 -0.33145922 -0.31135932 -0.12236076 -0.8899815 0.5885559 0.14546807 0.26424897 0.3831095 -0.3502788 -0.42058462 0.19604647 -0.4770919 0.8252282 -0.023010723 0.043210186 -0.088943206 0.41686824 0.7768009 0.53671086 0.2719557 0.33909693 0.6047286 0.52879107 0.19403398 0.16993964 0.79827625 0.018245727 0.1343226 0.8976502 0.9114841 -0.26729012 -0.74813086 -0.065093234 -0.4992472 -0.7414291 0.76495415 0.760075 -0.45304778 -0.3164583 -0.55386883 0.13508382 0.38872194 -0.018459141 0.4359212 0.037860017 0.08657104 -0.2607245 -0.35558712 -0.43052232 -0.028351951 0.46496308 0.038046207 -0.12369576 -0.14341407 -0.07154269 -0.2070964
4112:CHESTNUT 0.1619752 -0.3440614 0.15681289 0.51015276 0.03662879 0.51719797 -0.31537747 -0.3570645 0.011113189 -0.031491864 -0.62725466 0.43974656 -0.12287991 -0.2622098 0.3070472 0.49504086 0.45330173 0.10778466 0.5686182 0.17233932 0.34975883 -0.033762105 0.08772008 0.08560716 -0.7440866 0.23989362 -0.044097528 0.8372121 0.2693732 0.112388015 -0.19097513 -0.019754961 -0.5277963 0.2022452 0.17418556 0.41553968 0.3281315 -0.41327524 -0.10382151 -0.45596558 0.07057185 -0.41291392 0.13723417 -0.2723436 0.3421985 0.4832752 0.23526153 0.5058555 0.16880018 -0.7188882 -0.43463206 0.046342347 0.5219457 0.13514487 0.7397496 -0.50700694 0.976692 0.16987805 0.43765527 -0.2987518 0.038932707 -0.90385205 0.49373728 0.17892294 -0.5371931 0.045476034 0.048402138 -0.65269375 0.11297346 0.36358908 -0.116424605 0.09574422 -0.5898225 0.07518135 0.16302204 -0.70653635 0.42550474 0.43560085 0.0926369 0.31225228 -0.07396614 -0.21765439 -0.4947947 0.3861676 0.52234095 -0.0957866 0.025222994 0.28816867 -0.073763765 0.2510424 0.16450256 0.051404864 0.65266585 0.65397364 0.6741957 -0.6663069 0.40214968 0.5533356 -0.18508993 0.6550572 0.15303037 0.65711725 0.029070502 -0.6851953 -0.44201872 -0.2383346 -0.74035925 0.38616028 0.04210131 -0.17014669 -0.04646434 -0.09707518 0.16937707 -0.25171497 -0.0030930282 0.17322253 0.4124669 0.30019233 -0.09942177 -0.10827671 0.20250958 -0.2237962 0.41019765 0.1566992 -0.4709192 -0.49180618 -0.46026987 0.059977
5619:RUSH_CREEK -0.10366925 -0.54618365 -0.18211101 0.13275912 0.046023984 0.1832339 -0.63753015 -0.039254777 0.43146226 0.22007462 -0.45386717 0.34639758 0.0029057155 -0.30930102 0.23323828 0.26877198 0.6924766 0.07693597 0.38707605 -0.07966226 -0.04802221 0.2193088 -0.13877368 -0.08964275 -0.010361812 0.49931592 0.022934921 1.0087951 0.40261793 0.1437813 -0.22127767 0.10020775 -0.5536972 -0.18790796 0.46684813 1.0424654 0.6778696 -0.19145425 -0.030785922 -0.546665 0.16953766 -0.75164944 0.017131606 -0.16847678 0.5053638 0.31508815 0.3355835 0.2375099 0.07823808 -0.733293 -0.6844387 0.083203234 0.50726765 0.3546166 0.82755464 -0.31569237 0.7633646 -0.38819885 0.3949396 0.12617183 0.2551133 -0.57463187 -0.15338469 0.38874504 -0.4147286 0.47041932 -0.16237271 -0.9313514 0.6608289 1.2272521 -0.16013096 0.20944186 -0.63038445 -0.15196534 -0.25135645 -0.2659516 0.4840016 0.4854953 0.013689889 0.3267038 -0.71745586 -0.41338608 -0.6447848 0.53999496 0.07807145 -0.017640758 0.37765402 0.33299994 0.12021825 0.57734805 0.4154606 -0.67475903 0.8277237 0.53347516 0.6043544 -0.7334204 0.42671737 1.0606992 -0.11145733 0.96025485 0.7556599 0.32971707 -0.6706272 -1.1822813 -0.3676314 -0.026971975 -0.9737529 0.25338653 -0.24112709 -0.6841412 0.21268335 0.073876664 0.3729263 0.37050262 0.13095835 -0.500808 0.30302435 0.1125883 -0.7099094 -0.29374906 0.011666797 -0.23278095 0.580327 0.1955593 -0.34900123 -0.58676004 -0.30506492 0.1918667
7306:FIXICO 0.12432742 -0.18659961 0.14222974 -0.062300637 0.14491668 0.36369023 -0.22378296 -0.03814856 0.24927934 -0.0694143 0.15756673 0.55383277 -0.5020418 -0.6615216 0.48622942 0.66939306 0.73733217 -0.07876058 0.5387149 0.22400428 -0.28849354 -0.15783697 -0.2788048 0.31528726 -0.42369813 -0.13163884 0.19262828 1.0852476 0.37770203 -0.4305481 0.12528072 0.4804718 -0.08836544 -0.39135745 0.30404305 0.6346706 0.15293202 -0.42569557 -0.12253682 -0.33262497 -0.06079553 -0.4193542 -0.12467228 -0.48479998 0.87222666 0.40530828 0.31573448 0.75831777 0.4726439 -0.6129725 -0.31723562 0.16974406 0.7207066 0.4421079 0.6203278 -0.14984089 0.6147934 -0.25266254 0.52053475 -0.20480971 0.3733504 -0.8309943 0.05341995 0.124196425 -0.10412317 0.14383829 0.011937312 -1.4657619 0.52854145 0.73120713 -0.23783481 -0.28393936 -0.049060404 -0.45199573 -0.152523 0.32797328 0.38748685 0.59053826 0.6222759 -0.029455148 0.024071641 -0.4526406 -0.469556 0.05168523 -0.47337517 0.13865352 0.43969464 0.2553655 -0.09057074 0.40683165 0.3779467 -0.42820543 0.38108045 0.4101414 0.7357576 -0.40639445 0.61142534 1.0184056 -0.5013381 0.4895976 0.45507348 0.012383255 -0.25292975 -0.53140056 0.08068274 -0.0809685 -0.8193223 0.5861835 0.104461156 -0.61403346 -0.013076935 0.12099591 0.55044156 -0.22656882 -0.0093118 -0.37916273 0.7823708 0.42893213 -0.6710066 0.19482778 -0.5779632 -0.2840609 0.19966753 0.3909359 -0.5137863 -0.27718383 -0.1837256 -0.0666012
3205:SAPULPA -0.098160036 -0.564582 0.46890977 0.8299189 0.22178824 0.92826086 -0.2364363 -0.66935205 0.4663875 -0.70676017 -0.41528603 0.38538396 -0.07227318 -0.65678275 0.2362419 0.7602066 0.15147275 -0.11083986 0.31709233 0.18575788 -0.14145207 -0.25961283 0.26516932 0.11882576 -0.91148794 0.3683329 0.0065604956 0.90801483 -0.34997162 -0.043443684 -0.24951048 -0.7127578 -0.17372297 -0.15875629 -0.012485298 0.7769551 0.2860233 -0.05133691 0.06355829 -0.20388298 0.01723709 -1.3724142 0.23526196 0.3421007 0.20106472 0.49553946 0.3267129 0.25657985 0.43984675 -0.71687067 -0.7573816 -0.40352055 0.37757304 0.2100174 0.3951363 -0.698897 0.3272317 -0.3266986 0.122146085 -0.28078958 0.041570775 -1.031539 0.35407823 0.27338144 -0.76236314 -0.21363303 -0.4449829 -0.5514745 -0.7908988 0.46207237 -0.100865744 -0.43941453 -0.58696455 -0.09629586 0.2272729 -0.7566291 0.65125173 0.24386398 0.55590284 0.34991178 -0.06852765 0.20030752 0.13013543 0.51602596 -0.10349965 0.31737044 0.4007163 -0.02323652 0.5438886 0.5095949 -0.38677832 0.19751836 0.6981099 0.1263854 0.014159083 -0.21236587 0.5462803 0.57428247 -0.48929223 0.6911867 0.20533235 0.27494466 0.38945138 -0.70621645 -0.68518466 0.08834544 -0.21333015 0.124300435 -0.1664035 -0.91108435 -0.25350514 0.022963693 0.16797061 -0.19898851 0.16797118 -0.44487518 0.73679054 0.749652 -0.45740995 -0.8919691 0.63894063 -0.3469507 0.6567269 0.5697872 -1.1543069 -0.9545844 -0.4912112 0.213374
4109:WAUKOMIS -0.39533243 -1.091897 -0.005771447 0.59541994 0.21110447 0.62543017 -0.08740341 0.054354247 -0.298139 0.2259449 -0.44212377 0.7018861 0.19981463 0.43152693 0.5730972 0.35543987 0.17114486 0.08143748 0.54901934 0.267444 0.3345736 0.2763934 0.07056474 0.20067501 -1.012037 0.1688742 -0.0021041492 0.96813565 0.14633125 -0.23423664 -0.40137795 0.038180284 -0.30388165 0.48377153 0.20186411 0.6561111 0.3342844 -0.17505904 -0.27538693 -0.48301673 0.21152332 -0.48994374 0.100210436 -0.19103095 -0.052981686 0.3963148 0.26598534 0.59184074 0.019877393 -0.44393182 -0.2103627 0.2385687 0.51946205 0.2653018 0.39943662 -0.7075557 0.65275365 0.12101547 0.038914673 0.0029381928 0.087978825 -0.2952316 0.3918362 0.070028774 -0.49425134 -0.08059672 0.0428822 -0.39562985 0.2636083 0.7275072 0.063978866 0.05829555 -0.29652768 0.05754391 -0.06859649 -0.2878453 0.019378116 0.24464722 0.11187491 0.06395866 -0.24082218 -0.08825347 -0.5636393 0.14265747 0.18743312 -0.01589429 0.14246048 0.3523849 -0.055187467 0.293651 0.092354715 -0.12948735 0.5373036 0.35692686 0.54424363 -0.21898161 0.4708465 0.26692706 -0.1813717 0.3852863 0.3042023 0.41974336 -0.04220148 -0.32362267 -0.25125661 -0.04486177 -0.5089877 0.28417453 0.040768173 -0.24388355 0.010587791 0.039098646 0.3074474 -0.003739676 -0.18589489 0.045482337 0.2962868 0.27629486 -0.054814726 -0.52041113 0.46468636 -0.1052079 0.27811992 0.29090628 -0.38558152 -0.43365428 -0.16876408 -0.01857879
7312:JUMPER_CREEK 0.06328137 -0.30163205 0.12762497 0.24504848 -0.00024892273 0.31788465 -0.2172539 -0.07457603 0.28261068 -0.08942582 -0.1420879 0.43674788 -0.17058922 -0.24315494 0.2969109 0.5356056 0.53671056 -0.003746239 0.57245165 0.19948828 0.09969473 -0.021542367 0.047731664 0.22809137 -0.4649036 0.17247023 0.053399205 0.64063555 0.119137056 -0.24574444 -0.07934172 0.084795475 -0.26075128 -0.38471398 0.2226599 0.57249534 0.28764918 -0.4158148 -0.14440314 -0.11634793 0.025773052 -0.49576196 0.12474512 -0.17750588 0.27809015 0.42338783 0.31728983 0.4251222 0.33496472 -0.5981753 -0.32901636 0.073251866 0.4752555 0.2640671 0.60973823 -0.30092555 0.61050427 -0.04374612 0.15088148 -0.31255332 0.21108943 -0.79001206 0.15434061 0.20625731 -0.25761783 0.10039191 -0.17368574 -0.8816865 0.24658838 0.65165985 -0.18157183 -0.18535072 -0.44872928 -0.18776207 -0.02787392 -0.20460899 0.39630595 0.5441396 0.40280545 0.10502982 -0.16063043 -0.19163129 -0.41734803 0.15059486 -0.04363286 -0.055674586 0.25295514 0.26227683 0.12650326 0.37658557 -0.0036719837 -0.29293278 0.55289793 0.42869273 0.54942834 -0.41456422 0.5789695 0.7251952 -0.30696002 0.58616525 0.43131402 0.19166152 -0.24776237 -0.71720976 -0.13961276 -0.036882997 -0.5899225 0.35561475 0.052789573 -0.5474142 -0.033672072 -0.144951 0.25056764 -0.021507397 0.049113665 -0.20887627 0.5727198 0.37206918 -0.5505562 0.026711762 -0.18125863 -0.29519677 0.30388904 0.25523153 -0.3445775 -0.49254704 -0.07984259 -0.12619242
3210:HICKORY_HILL 0.11010786 -0.45410934 0.25311452 0.4672194 0.27756837 0.13388678 0.31175548 -0.6313368 0.572722 -0.03178282 -0.19872986 0.5691646 -0.33582672 -0.27336547 0.55025846 0.07589132 0.46736488 -0.36660612 0.8434179 -0.29315814 0.76101625 -0.3951222 -0.42978865 0.14547375 -0.97144103 0.632812 -0.16397613 0.38358223 0.31625202 0.15805218 -0.23565625 0.3785105 -0.54223084 -0.42642555 0.00861824 1.2702214 0.11369853 -0.9346945 -0.505888 -0.045515604 0.14883468 -0.44648162 0.31097195 0.262877 -0.116082944 0.7282315 0.36117023 0.1340546 0.4238784 -1.2265493 -0.6330095 -0.49553436 0.5794625 -0.17794828 0.89446187 -1.0414771 0.49687806 0.2583571 0.3136304 -0.096212104 0.26088545 -0.5745864 -0.15624163 0.098673284 -0.48940396 -0.30932087 -0.4606186 -0.51264083 -0.57872695 -0.042641696 -0.5269644 -0.17620425 -0.7047998 -0.04657728 -0.4642455 -1.0432976 0.17523591 0.5173524 0.14026526 -0.2652605 -0.43491012 -0.59329104 0.2324101 -0.002220574 0.05476453 -0.2750971 0.9552392 0.061404128 0.035847265 0.3113126 -0.65629774 -0.33435178 0.9763046 0.6393066 0.20652306 -0.9407885 0.033439696 -0.0120699825 -0.26153937 0.72661084 0.12348229 0.38860694 0.21581253 -0.885053 -0.080480985 0.21368398 -0.87490183 0.21221565 0.5970644 -0.64095366 -0.28748095 -0.18521619 0.06764038 -0.5360507 -0.5710572 0.3909539 0.5487555 0.75584674 -0.99449867 -0.48091108 0.79215676 -0.40043417 0.38173378 0.61107016 -0.70822746 -1.0823195 -0.06510947 0.6355825
8519:NE_10TH_ST -0.17868748 -0.36934102 0.58435756 0.34644902 0.2471298 0.08653866 -0.32813206 -0.50553274 0.31071624 0.15130992 -0.039766278 -0.056283914 -0.19587497 -8.4133106e-05 0.28745994 0.7592781 0.040009756 0.27770847 0.47487614 0.06586057 0.41376954 -0.030758012 -0.14953502 0.3377081 -1.1949618 -0.0029754674 0.16286367 0.70729923 -0.16351986 -0.064827695 -0.16357593 -0.34257227 0.13549908 -0.4931948 0.08833747 0.42099267 -0.1509478 -0.5578705 -0.30825883 -0.16765504 0.15853763 -0.77884686 0.038235553 0.25214738 -0.260437 0.6209214 0.51466656 0.33387518 0.270403 -0.8273941 -0.7373399 0.06081452 0.08486832 0.22586545 0.6074978 -0.17069782 0.75716376 0.24940118 -0.02554226 -0.52570075 0.55688787 -0.61692154 0.29134193 0.77219063 -0.14173457 -0.20730184 -0.19727167 -0.65761304 -0.19623384 0.41672423 -0.43987012 0.052641265 -0.7138811 0.042508487 0.08025766 -0.9111527 0.13225727 0.83413917 0.3469439 0.51358336 -0.2984819 0.16414592 0.02460823 0.12990667 0.0050928826 -0.04012312 0.15288506 0.36228544 0.0032454194 -0.06474826 0.14577493 -0.51284033 0.60558295 0.40702334 0.21547522 -0.16368431 0.5931014 0.514307 -0.14962304 0.61750495 0.22917685 -0.10967547 -0.47604102 -0.7776883 -0.3121886 0.27445793 -0.39056456 0.13544436 0.48927173 -0.5265855 0.019220516 -0.46874273 0.04882098 0.06428639 0.026220903 -0.016349519 0.1808567 0.35224724 -0.26208773 -0.24609442 0.32178834 -0.046525687 0.25339496 0.1461217 -0.507476 -0.82788783 0.0026113312 -0.08506773
7505:WEWOKA 0.031605262 -0.3167462 0.20261951 0.23931251 0.04262265 0.31990996 -0.24052982 -0.1471517 0.20692419 0.05690163 -0.22682253 0.36450204 -0.12799343 -0.27336073 0.18992096 0.49011555 0.47659415 -0.044504564 0.51508576 0.13866334 0.07770404 -0.029196467 0.080486804 0.094819345 -0.5609819 0.17365104 0.06173298 0.5673181 0.103935234 -0.27653396 0.013329552 0.0674055 -0.21923572 -0.34138665 0.16888559 0.6424537 0.2721915 -0.47450307 -0.18415132 -0.21702985 0.03697848 -0.648105 0.16188323 -0.13522716 0.25684917 0.34460816 0.33370984 0.40468588 0.2388276 -0.6304693 -0.3461573 0.045904122 0.4791983 0.30667374 0.58035386 -0.35170346 0.6033111 -0.06267672 0.24413939 -0.34683365 0.27738202 -0.7399881 0.15451828 0.24441051 -0.24990079 0.08532314 -0.15262863 -0.857089 0.27843097 0.6918471 -0.24446502 -0.094302356 -0.41182694 -0.17218587 -0.0049925433 -0.06582492 0.31038803 0.45016983 0.28071535 0.20251518 -0.19714162 -0.098483264 -0.4265477 0.1914125 -0.19705419 -0.075354226 0.17997953 0.25920227 0.018990342 0.27590236 0.08615483 -0.3112341 0.5127431 0.28083014 0.6241757 -0.29826993 0.5020445 0.71211106 -0.26608023 0.6321422 0.37385166 0.19975051 -0.22211443 -0.6466248 -0.15002841 -0.024704743 -0.572155 0.35058296 0.039170597 -0.49817184 -0.008077203 -0.16534223 0.20803636 -0.026762553 0.055339523 -0.1669709 0.44422933 0.29445076 -0.43614924 -0.056189746 0.01729467 -0.16574308 0.2741402 0.24590646 -0.4367545 -0.5361345 -0.17705718 -0.05919653
3220:KELLYVILLE -0.032383118 -0.41548166 0.7054176 0.5957177 0.5594344 0.18816623 -0.09871914 -0.3798278 0.44257292 -0.28345785 -0.21152192 0.5084583 -0.033311673 -0.46360424 0.28564847 0.6125583 0.3834282 -0.19749874 0.87480783 0.5186149 0.13631 -0.5207978 0.49571806 0.16934489 -1.0507246 0.6131258 0.19632106 1.340288 -0.18809065 -0.03824834 0.097280465 0.1564825 0.004694028 -0.7104923 -0.093582645 0.09129728 0.61028516 -0.20530026 -0.094011866 -0.3544768 0.47543415 -0.54928774 0.20259279 0.074979775 0.54162097 1.0414052 0.33818 0.6249186 0.50285125 -0.26158395 -0.8672224 -0.037260264 0.3459729 0.3815407 0.07114045 -0.7524254 0.99097764 -0.5085915 -0.086672224 -0.1555941 0.29634038 -1.1010684 0.46565965 -0.10448328 -0.42925486 -0.1303823 -0.9011199 -1.0955912 -0.1314849 0.51445574 -0.3829463 -0.19339976 -0.5856981 -0.4158195 -0.5135899 -1.1529394 0.026939012 0.9676475 0.25263238 0.411041 -0.3104729 0.36083743 0.193482 -0.17057513 0.34953249 0.5639928 0.4653783 0.22088385 -0.12789331 0.4884509 -0.82236135 -0.24993697 0.505452 0.265402 -0.42408186 -0.70044893 1.2448478 0.016334098 -0.1882657 0.55995154 -0.22067338 0.53787917 -0.13148989 -1.0356495 -0.29746312 -0.3713487 -0.51490945 0.060188923 0.27116352 -0.84870464 -0.35579866 -0.28688672 0.4580608 -0.5382556 0.34180707 -0.70027155 0.70972306 0.43192714 -0.54710895 -0.27054176 -0.019764878 -0.39391384 0.30672264 0.34075177 -0.58643645 -0.4258558 -0.916337 -0.16768827
4119:GLENWOOD -0.30262265 -0.95602 -0.009787147 0.35081413 0.27874118 0.5501126 0.042932585 0.040975936 -0.31235245 0.08431678 -0.69646764 0.63289285 0.2962886 0.43337598 0.64458907 0.48873544 0.43217063 -0.1256101 0.75242954 0.3158779 0.38252243 0.19804935 0.41242173 -0.120140225 -1.2280978 0.45927444 -0.20844893 1.0907387 0.2119147 0.15035312 -0.5656958 -0.018876497 -0.31725416 0.31832284 0.08896843 0.3661447 0.052134387 -0.23984818 -0.056836873 -0.54054284 0.1567843 -0.4236675 0.057243276 -0.34460327 0.00050369295 0.3100424 0.37571743 0.57272387 0.11580789 -0.4795551 -0.16023307 0.03655327 0.30341598 0.011212479 0.28873345 -0.7185273 0.93624526 0.2142828 0.20044824 -0.052121855 0.10113021 -0.5947361 0.2492683 -0.01004764 -0.6441539 0.08594281 0.3234323 -0.45464525 0.6959503 0.86420983 0.4449265 0.3288473 -0.1951653 0.10960132 0.2751084 -0.311956 0.1300473 0.05166466 -0.036915578 0.12417312 -0.08639003 -0.14770433 -0.6314693 0.32816148 0.17598534 -0.13334033 0.13055626 0.115879096 -0.20269461 0.44831467 0.19683594 -0.35539195 0.43531945 0.5645648 0.6733865 -0.41910487 0.30230868 0.6864598 -0.53922725 0.43478167 0.22386591 0.67817867 -0.29760805 -0.7505234 -0.22098088 0.057253543 -0.6254775 0.3562217 -0.073002666 -0.07242965 0.114590965 0.105136655 0.1484801 -0.364577 -0.10232675 0.17337073 0.36481714 0.55842286 -0.1712745 -0.27170253 0.46675533 0.044487007 0.38834378 0.40730667 -0.36941606 -0.555528 -0.5845672 0.48448375
3110:RIVERSIDE -0.020125207 -0.9126073 0.40561733 -0.14171644 0.3982268 1.3480501 -0.90748286 -0.0739791 -0.4155214 0.21516895 0.3015204 0.048191614 -0.7420423 -0.3752396 -0.32168132 0.3395362 0.690887 0.25525975 0.3444468 0.38946345 -0.30759558 -0.036110222 0.91693306 -0.17790055 -0.37629324 -0.05797783 -0.7376191 0.31037232 -0.01495658 -0.108172156 0.18323924 -0.013594806 -0.87713003 0.3739995 0.16946863 0.38400444 0.33591062 -0.5124657 -0.045684416 -0.54526156 -0.0028859586 -0.9084515 0.26233172 -0.23274615 -0.030138403 -0.096947536 0.4805611 0.2832443 0.40348107 -0.93246984 -0.44763806 -0.39706495 0.20302232 -0.25346616 0.31429285 0.6855539 -0.0695009 0.26334044 0.37433025 0.14139307 0.0043292553 -0.91379356 -0.23856421 0.6443822 0.44604748 -0.37855577 0.00081881986 -0.050805014 0.44742945 0.4163005 -0.13431598 -0.1367941 -0.66622674 -0.7169922 0.09202817 -0.6269792 -0.0972054 0.6047434 0.16828638 0.49144086 -0.021467477 -0.2588362 -0.57115775 0.50974566 0.6164273 0.059906337 -0.22484772 0.1983878 -0.0019323782 -0.16465063 0.38040608 -0.2853782 0.22214712 0.21812785 0.94328684 0.098213874 0.61789393 0.7578833 -0.5461919 0.54906046 1.582469 0.5171379 -0.50109595 -0.5242343 -0.048929814 0.31877542 0.1620638 -0.059417877 -0.3090911 -0.6407935 -0.7842778 -0.016343964 0.46530756 -0.06011237 0.39736652 -0.14159647 0.120430976 1.2561746 -0.100660585 -0.42694277 0.061728902 -0.4092946 0.1272614 0.6260181 -0.2187861 0.2909294 -0.23931582 -0.15779877
3312:CHECOTAH 0.41096196 -0.10833345 0.5650041 0.46080986 0.02908714 1.1219054 -0.34534833 0.32996678 -0.20395455 -0.65170616 -0.58671343 0.42569655 -0.13401331 -0.6588182 0.03937028 0.18305534 0.4756888 0.8467313 0.3565882 1.0121387 0.07292492 -0.2660701 -0.19798766 0.38481334 -0.5288079 0.32181254 -0.2697593 0.24559192 0.1895573 -0.24848662 -0.4339708 0.011843197 -0.52987707 -0.21346147 0.80328125 0.57358676 0.07325761 -0.84478515 0.15941483 -0.23515661 0.4837521 -0.6301953 0.20788713 -0.092542656 0.62450534 0.34036028 0.03965653 0.3023518 1.0688252 -0.7790076 -0.25307778 0.35531247 0.043017812 0.26229683 0.44750765 -0.26012814 0.8258704 -0.012924108 -0.3359274 -0.39523312 -0.009209203 -1.249873 0.11948669 0.5567928 0.2693554 0.14046308 -0.26043507 -0.14403993 0.6756838 0.07370676 -0.3640759 -0.4188509 -0.14044854 -0.14600772 0.15991881 -0.15417886 0.87436277 0.8319453 0.257044 0.34087536 -0.3093142 -0.10016637 -0.5120239 0.3879073 0.28258938 -0.085833825 0.22364885 0.47414312 0.8020944 0.04497266 0.13537219 -0.26101667 0.101907924 0.31123418 0.44463786 -0.17568454 0.34971562 0.86189526 0.055873685 0.7275946 0.6268322 0.3156397 -0.44561157 0.053073462 -0.31483743 0.25338718 -0.93254435 0.23131382 0.43078417 -0.76877713 0.15412834 0.020858709 -0.07071435 0.2818041 -0.0819317 0.42577988 0.84566957 -0.051675957 0.40758488 -0.46196747 -0.48447716 0.1517825 0.5915338 0.3937199 -0.39093223 -0.03686276 -0.43572778 0.031781897
3216:BEELINE -0.1019717 -0.89059746 0.7382738 0.21782143 0.8209104 0.7712926 -0.3421092 -0.39407465 0.4547844 0.22422405 -0.9102176 -0.056155264 0.24930689 -0.21094298 0.44734985 0.6861291 0.60706407 0.34715986 0.70250875 0.19668058 0.01587178 0.045855433 0.8668749 0.46470955 -0.32844293 0.008727059 0.3212263 0.38683322 0.03911209 -0.60037136 0.11981337 0.11391358 -0.37327963 -0.16535988 0.07485537 0.61878395 0.56708884 -0.45045167 -0.7078982 -0.077266015 0.3259165 -0.93179184 0.586386 -0.0052742455 -0.47024533 0.7374259 0.925962 0.47727636 0.0981008 -0.9358038 -0.6045981 0.14081152 1.0122217 0.71183914 0.34415418 -0.27322146 0.15334602 0.4501015 0.047562134 -0.21082193 0.34607893 -0.5243273 0.70623374 0.5979905 -0.38900554 0.20847145 -0.6113175 -0.826137 0.19592755 0.9669055 -0.48258215 -0.37912738 -0.7305043 -0.67717415 0.054865208 -0.28182006 -0.061362777 0.5979956 0.4992012 0.072361715 -0.17123131 0.07900948 -0.47650868 -0.53469265 0.47089404 0.36179814 0.5052145 1.2745245 -0.1817866 0.597494 -0.72084117 -0.41867176 1.2328827 0.7430689 0.009192945 -0.09366446 0.38695046 -0.3343602 -0.38397953 0.27934334 1.0107076 0.46163929 0.18027185 -0.60123634 -0.054438468 0.44844982 -0.46554086 0.0853821 0.5952251 -0.3359822 -0.5920184 -0.0885016 0.5686784 -0.66012317 -0.119808294 -0.4250302 0.24973473 0.53396374 -0.28512615 -0.7374174 0.39957407 -0.5293571 0.3312834 0.86025923 -0.6723734 -0.2614771 -0.6812468 -0.17116153
4107:CLEVELAND_AVE -0.2471709 -0.7697127 0.09208227 0.44170272 0.116706125 0.49921304 -0.11766019 -0.06534834 -0.05515842 0.20248443 -0.5809971 0.57098836 0.25778535 0.17490913 0.43022802 0.4580639 0.48562005 0.0019077981 0.74642986 0.20678131 0.30458468 0.03741457 0.22711064 0.13158052 -1.0225741 0.3062525 -0.05910458 0.9313565 0.121156916 0.044895694 -0.33536825 0.0117841475 -0.43608132 0.21529731 0.22224872 0.5242994 0.21267578 -0.35795972 -0.20401327 -0.36609864 0.02717335 -0.6187445 0.09866351 -0.4327358 0.12360012 0.35596588 0.2774011 0.6507343 0.08153033 -0.7279341 -0.43891805 0.075700805 0.48509267 0.10871432 0.6420556 -0.63471913 0.9919035 0.27471274 0.34897766 -0.14719503 0.27468225 -0.8288021 0.4908104 0.114910424 -0.5764042 0.08761402 0.10455341 -0.5665865 0.43995273 0.811794 0.15857151 0.19028877 -0.28906858 0.101588234 0.20077421 -0.45877653 0.349537 0.1464993 0.01327103 0.206356 -0.22948506 -0.17731589 -0.58351004 0.25535884 0.25421512 -0.10218328 0.07879467 0.3178159 -0.09586617 0.43579984 0.14368458 -0.15551779 0.6548496 0.66238594 0.7384685 -0.6093084 0.2001664 0.77380705 -0.32163867 0.4814444 0.23883381 0.6034495 -0.14312558 -0.7506711 -0.31561175 -0.05378515 -0.65871155 0.29106942 -0.28331354 -0.059782103 0.08478873 0.007498518 0.18594998 -0.26816395 -0.1034959 0.12097862 0.37498236 0.459868 -0.3122292 -0.24479516 0.28111508 -0.16557351 0.46491116 0.36224064 -0.44439936 -0.53678685 -0.4881353 0.37982804
3213:BOWDEN -0.33332604 -0.7579798 0.06758905 0.13771175 0.78906435 0.4930589 0.22136585 -0.27221972 0.7639249 0.11373677 -0.31105825 -0.095623985 0.20990732 -0.39478555 0.23846553 0.6336923 0.8136043 0.06835007 0.6400205 0.2529792 0.1850053 0.56276417 -0.17631194 0.4223391 -0.41515306 0.2050877 0.14122319 0.16818494 -0.55614877 -0.118282154 -0.09309736 -0.18941891 -0.02438442 -0.08438076 0.15583703 0.7447472 0.61478895 -0.4188155 -0.9513907 -0.8567299 0.600238 -0.67421544 0.36191112 0.1410838 -0.5465083 -0.037420627 0.77416044 0.25418797 0.5805342 -1.4286557 -0.76418287 -0.34465563 0.43909797 0.07059042 0.4427953 -0.68317324 0.9428773 0.02085038 0.6370468 -0.58207357 0.65843606 -0.5668133 0.85961473 0.6812827 -0.31104922 -0.0702959 -0.5178414 -0.621718 0.04158445 0.49490842 -0.0016425088 -0.33446136 -0.6942521 -0.47521916 0.3394081 -0.6098488 0.5211543 0.3078936 0.034355126 0.3719205 -0.22265187 -0.3890083 -0.38064113 0.20659289 0.17278121 0.07917085 0.17402966 0.25500548 0.15242468 0.55070394 -0.1044668 -0.5543545 0.35446984 0.72411263 0.562383 -0.049832664 1.1141953 -0.17211066 -0.07028452 0.8879794 1.1990575 0.49715382 0.4615879 -1.319249 -0.25088978 -0.058410566 -0.7890304 0.20544115 0.10718629 -0.7027215 -0.26243594 -0.41941547 0.39621207 -0.013218492 -0.2959589 -0.3048865 0.0719115 0.9141398 -0.25446695 -0.6032149 0.19900836 -0.15662345 0.81841075 0.17266399 -0.70935124 -0.64081806 -0.5367911 0.63586414
3218:BEGGS -0.21079756 -0.9186573 0.62211114 0.5225724 0.42960662 0.41287172 -0.40878183 -0.87683356 0.7159315 0.18357718 -0.15658376 -0.044068094 -0.30179104 -0.36448243 0.33240753 0.75285083 0.35809532 -0.3868704 0.7886278 0.052560616 0.43512183 0.16085579 -0.37625524 0.40066272 -1.2605381 0.39043188 -0.16885053 0.6410305 -0.20139267 -0.4606489 -0.14007774 -0.19104242 0.14476873 -0.0075471066 -0.026661154 0.2605922 0.41295508 -0.72060907 -0.0672701 -0.26873016 0.2006874 -0.7867217 0.35523748 -0.32108054 0.025773754 0.48531094 0.801291 0.052256946 0.03629678 -0.7539635 -0.6137292 -0.32981673 0.4144633 0.09472564 0.91664463 -0.3837241 0.34897506 -0.11630752 -0.019887937 0.15264712 0.68262583 -0.74115145 0.3597066 0.23345768 -0.30369285 -0.4071846 -0.678661 -0.9534384 0.20633546 0.80863756 -0.30718532 0.2528623 -0.77725494 -0.34176728 -0.03560542 -0.70153475 0.26959047 0.8629468 0.29730102 -0.16741577 -0.44937184 -0.22437134 -0.036738925 -0.24944967 0.540533 -0.045328267 -0.14181753 0.6744936 -0.19446814 0.0060544014 -0.47992942 -0.37810794 -0.12284254 0.29623228 0.4033199 -0.5097103 1.1478102 0.338916 -0.4568682 0.6078935 0.29596224 0.47895175 -0.009969748 -0.9666623 -0.36018813 -0.009990258 -0.66986793 0.47342294 0.6694407 -0.8930473 -0.11796668 0.19907275 0.051471297 -0.37436834 0.3001403 -0.09383742 -0.04163649 0.464789 -0.799678 -0.37042964 0.08701082 -0.0857084 0.5471428 0.5560947 -0.7649491 -0.10841796 -0.36100626 -0.4895681
7605:DRUMRIGHT 0.3946125 -0.8017005 0.42754355 0.37490827 0.4430351 0.4097753 -0.58561057 -0.051775586 0.375015 -0.1936111 -0.87866956 0.57397217 0.13097697 -0.91950464 0.33194712 0.6640235 1.1311295 -0.17807618 0.9822468 0.6177016 0.039899215 -0.37015215 0.3364923 0.3968196 -0.8240819 0.76777494 -0.09043854 1.0397675 -0.1525476 -0.4086691 -0.52645415 -0.5272392 -0.043214742 0.0145034725 0.18504788 0.6564178 0.3976712 -0.6921176 -0.39400145 -0.3742785 -0.19470207 -0.7365557 0.3086699 0.23439184 -0.37012365 0.459535 0.39253095 0.80026954 -0.034765486 -0.13324739 -0.5998813 0.1862414 0.4028549 0.3411112 0.42165175 -0.7259243 0.40353036 -0.64431137 0.6475108 -0.116936035 0.1744323 -0.9190286 0.6349816 0.08522381 -0.50738096 -0.2012206 -0.00064542197 -0.47755453 -0.09445793 0.42705002 -0.20985675 -0.16958183 -0.5944244 -0.0592215 -0.23944809 -0.2605213 -0.026546573 -0.038446493 0.14640394 -0.279894 -0.5903041 0.011088921 -0.11498743 0.27841806 0.27939412 0.3114948 0.53785455 -0.18390483 0.58444643 0.34154373 -0.32746273 -0.096211955 0.019574465 0.40604487 0.44213608 0.2755429 0.63614756 0.3850551 -0.41659442 0.8260328 0.16363594 0.449535 0.5891983 -0.59560114 -0.18685885 -0.40375978 -0.23268121 0.31082106 -0.07572818 -1.1683233 -0.6786479 -0.10624015 0.0024656805 -0.42767453 -0.3039688 -0.019608693 0.5597033 1.0445305 -0.4547719 -1.313972 0.49009058 -0.439873 0.7154236 0.6467069 -0.85198027 -0.5702249 -1.4037871 0.4310907
3114:TENNYSON -0.20879783 0.05438154 -0.26757842 0.61715394 0.2929104 1.076186 -0.16052961 0.50465816 0.1797529 -0.5108977 -0.81883556 0.521411 0.28408644 -0.6240172 0.0925078 -0.18941161 0.899302 0.13166869 0.38942295 0.77415764 0.36381534 -0.40083516 0.3870845 0.0168389 -0.7866846 0.20959257 -0.3179972 0.5793945 0.25329536 0.35583353 0.18765645 -0.011697484 -0.5912026 -0.7491763 0.13822487 0.31826028 0.1700237 0.043000754 0.21396942 0.21868724 0.028929763 -0.059287716 0.3615737 0.22401336 1.058561 1.1535798 0.9573298 0.56540436 -0.16621935 -0.6575436 -0.15763265 0.30502388 0.47094125 0.7801318 0.76015306 -0.36391523 0.9057516 0.37374616 0.45176554 0.019924317 -0.5178992 -0.75574934 -0.20931178 0.082514696 -0.2173239 -0.45697424 -0.6165841 -1.1994206 -0.26613963 0.49088177 -0.6440255 -0.67020845 -0.6146286 0.05828509 -0.1644798 -0.4793939 0.3277161 0.46747968 0.5277731 0.07007538 -0.25648895 0.5757758 0.25270316 -0.32091472 0.64245766 0.33644798 -0.06102786 0.9045787 0.91022694 0.6430066 0.45320958 -0.33913776 0.8096505 0.00676326 -0.42936277 -0.3481346 0.11400749 0.28782782 -0.3286595 -0.092017904 0.003930594 0.43839806 -0.5703957 -0.5311659 -0.323792 0.23516338 -1.0341067 -0.058402114 -0.19523641 -0.7195621 -0.14266326 0.55179304 0.54933935 -0.1430564 -0.12950733 -0.43487868 0.19594482 0.0381235 -0.4115719 -0.38333443 -0.29525852 -0.34239602 -0.06856685 0.76547724 -0.522125 0.3420316 0.5382715 -0.11901828
7407:REMINGTON -0.030925248 -0.36937836 0.28612238 0.27374402 0.044346444 0.3380058 -0.27760968 -0.23022175 0.19568723 0.004950497 -0.21606983 0.20927098 -0.11082918 -0.12999062 0.16691858 0.42149773 0.31878084 0.03457832 0.5282953 0.15180533 0.17875877 -0.0385498 0.06403378 0.17140494 -0.58417916 0.2259355 0.000103229555 0.48817328 0.0011125864 -0.13714151 -0.061483167 -0.041545328 -0.12079355 -0.26141477 0.23665753 0.5431622 0.045092836 -0.47614017 -0.24592228 -0.26533604 0.12519385 -0.50546724 0.14143974 0.028768636 0.17388013 0.31225398 0.32329506 0.4118705 0.28627795 -0.6856238 -0.47269928 0.07662276 0.322605 0.16821292 0.58212394 -0.23355839 0.62585163 -0.0013684011 0.1792419 -0.28781173 0.31708366 -0.63829863 0.18464495 0.29500026 -0.2163735 0.0060848156 -0.13549064 -0.5026282 0.07180037 0.40600505 -0.12943752 -0.037472077 -0.34107593 -0.04181731 -0.011119231 -0.312366 0.21921493 0.42974633 0.20956267 0.24654792 -0.23881872 -0.056172084 -0.25414866 0.09536536 0.027215457 0.0753037 0.122216925 0.27273238 0.07235531 0.24108486 -0.023302265 -0.21538629 0.42684174 0.3719207 0.43422636 -0.1951131 0.28389633 0.40719485 -0.13739458 0.4776446 0.27133468 0.2882474 -0.12650119 -0.45627022 -0.15973568 -0.026030626 -0.37939465 0.15438959 0.095587306 -0.28171536 0.03882389 -0.09576046 0.16615629 -0.066925436 -0.0033075558 -0.0345846 0.3344414 0.21244901 -0.29793358 -0.19335634 0.12269561 -0.062272128 0.31266803 0.14808281 -0.29591426 -0.37276873 -0.22246669 -0.023083733
8662:SE_15TH_ST -0.111804016 -0.42725977 0.54834807 0.47365785 0.063907444 0.036244713 -0.24428298 -0.5329185 0.28196365 -0.055076126 -0.012835338 0.0602688 -0.20410258 -0.037513036 0.114201605 0.49522594 0.1150419 0.33077425 0.81819206 0.34573084 0.2494165 -0.035545673 -0.18877093 0.30115575 -1.2255924 -0.16108589 -0.030481327 0.8838126 -0.048860084 -0.07294972 -0.2708196 -0.37299865 0.25249204 -0.6848965 0.24761869 0.49949843 -0.22103696 -0.8234769 -0.32133704 0.049927715 0.085991696 -0.7401116 0.26230884 0.32405326 -0.095602706 0.57343835 0.3973614 0.45272574 0.63694674 -0.7574814 -0.8896204 0.037961498 0.20802532 0.17922921 0.7503021 -0.12421035 0.86803013 0.071693726 0.28065345 -0.29957616 0.56910866 -0.46394467 0.27146372 0.66256636 0.012170326 -0.2752522 -0.23522724 -0.5173628 0.088976264 0.3478755 -0.32423928 0.06889174 -0.62537026 0.064811945 0.14850849 -0.6755714 -0.002921511 0.8311521 0.13511667 0.3590711 -0.5027462 0.058016665 -0.24156974 0.21139386 0.12640873 0.1402361 0.28661326 0.23926978 -0.0115507925 0.0030940901 0.089900285 -0.47872916 0.6367607 0.41104096 0.30776417 -0.07897523 0.43744174 0.27943265 -0.07185431 0.590935 0.36573467 0.21192583 -0.13609523 -0.83111703 -0.44696215 0.39130786 -0.31556505 0.120964326 0.41512552 -0.6581963 -0.10303857 -0.4158237 0.11737106 0.008132816 0.14242457 0.078993276 0.17835395 0.35562667 -0.4592323 -0.54562736 0.4925508 0.009837363 0.32099932 0.08527456 -0.28424466 -0.44707805 -0.14109856 0.017242592
8617:SUNNYLANE -0.03537416 -0.5437731 0.76696867 0.48327395 -0.0041135447 -0.015095763 -0.47881258 -0.553483 0.46730995 0.06354512 -0.07184249 0.052166454 -0.081371516 -0.14755033 0.04520762 0.36897233 0.3746426 0.21884076 0.9734423 0.17198427 0.18578313 0.014861002 0.04657882 0.33216023 -1.291005 0.06770771 0.2574281 0.65467215 -0.06683925 -0.26931426 -0.21400055 -0.17525698 0.16437358 -0.2628357 0.28939232 0.7334558 -0.36290517 -0.6385001 -0.55950195 -0.17336266 0.17657779 -0.88983417 0.33824357 0.4576719 -0.04579663 0.25560305 0.4415887 0.267583 0.28350887 -1.264579 -0.94416714 -0.03691427 0.3421479 0.06586305 0.8808205 -0.49996084 0.84155124 0.046527658 0.27914235 -0.76461303 0.72954345 -0.60829526 0.37389612 0.87337714 -0.24331215 -0.24470723 -0.3130743 -0.6752383 -0.18088347 0.09256935 -0.24375018 0.16127804 -0.7142832 0.00047031872 0.07320968 -0.69681996 0.037919488 1.05426 0.0948822 0.5030759 -0.37336487 0.13670348 0.22504893 0.037027556 0.02541627 0.10216753 0.12057203 0.12223967 0.1278396 0.028004333 0.12610567 -0.43560612 0.67991465 0.39912966 0.2265822 0.07178992 0.9347745 0.54578686 -0.061549563 0.74935347 0.2526331 0.051663596 -0.04210448 -0.9049495 -0.16946223 0.08996207 -0.21451576 0.18712899 0.47516328 -0.5067746 0.02733841 -0.6310109 0.16733828 0.16236673 0.22948982 -0.16012365 0.30737588 0.3547354 -0.5747301 -0.6270917 0.20977885 -0.040777344 0.5499739 0.11836835 -0.7045238 -0.78596807 -0.043898843 -0.101421334
4105:ENID -0.11284418 -0.59178376 0.17366591 0.27630052 0.19603488 0.41471252 -0.17476983 -0.18241632 -0.06909518 0.042619165 -0.65485305 0.4626829 0.023773158 0.077651314 0.38359475 0.44532683 0.34601203 -0.047994733 0.72259337 0.16714229 0.33747488 0.081004046 -0.008212099 0.018478274 -0.89543635 0.19789916 -0.08832501 0.87715334 0.1607248 0.010728697 -0.092790924 -0.026521822 -0.4172041 -0.053375177 0.14670998 0.49099275 0.2846234 -0.5121686 -0.28304875 -0.38754457 0.1770696 -0.5689015 0.26161683 -0.16706719 -0.006463568 0.500053 0.31321716 0.56159633 0.20510611 -0.7648931 -0.47369567 0.077176094 0.5821807 0.15544519 0.707173 -0.5204737 0.6750515 0.14976886 0.19041821 -0.16579112 0.19847062 -0.8551361 0.4244007 0.2687878 -0.48277605 0.101528585 -0.056334563 -0.5825153 0.19538803 0.80110687 -0.011971888 0.07101629 -0.37982106 0.08550778 0.15092868 -0.66011816 0.4218663 0.2019433 -0.021191794 0.21685398 -0.28538877 -0.032893747 -0.34979945 0.22916406 0.41140485 -0.058909122 0.1544772 0.41074947 0.119860314 0.4919821 -0.12716942 -0.082552195 0.59984374 0.67748225 0.46614003 -0.48118582 0.18897498 0.7273816 -0.20722914 0.45842326 0.1434515 0.7447667 0.09584864 -0.69226575 -0.47843125 -0.15273373 -0.7688731 0.2887398 -0.42497438 -0.13341556 0.111949466 0.07771338 0.18868388 -0.07443284 -0.03625405 0.0407627 0.38519597 0.19416349 -0.07368819 -0.27748513 0.14472345 -0.20396543 0.33479333 0.19896609 -0.3062009 -0.42354435 -0.4431552 0.2499168
3326:JAMESVILLE 0.53748417 -0.88523674 0.16501772 0.57252043 0.67612046 0.44779328 -0.56952935 -0.41104752 -0.05907133 -0.5182842 -0.8356727 0.39317238 0.039751902 -0.9905101 0.525304 0.355932 0.89723635 0.17709073 0.8811265 0.7894819 0.7022317 -0.113412686 -0.28158617 0.3341339 -1.2181658 0.8588996 -0.38976023 0.5935203 -0.23319876 -0.44679838 -0.36850068 0.055723093 -0.2665443 -0.2984869 -0.0025017567 0.4604181 -0.08165442 -1.1757984 -0.24466737 -0.5351557 0.18769382 -1.0474854 0.31471103 0.12586255 -0.33647266 0.6036852 0.8489533 0.22246821 0.2844157 -0.66146994 -0.45202556 -0.09687918 0.7340269 0.12309057 -0.11668395 -0.42335898 1.110654 0.2891004 0.122942485 -0.6640645 0.16213773 -0.68075246 0.2224316 0.34636965 -0.31310758 0.15827692 -0.15601668 -0.5363758 0.31204087 0.026828036 -0.33532992 0.00035311413 -0.4352085 0.06947109 -0.18083775 -0.8390704 -0.05396785 0.843216 0.09750567 0.05619552 -0.5401384 0.038058132 0.069683954 -0.09872098 0.15104482 0.30539072 0.03360406 0.029881118 0.28310433 0.46794805 0.48212305 -0.6288654 0.45665506 0.4293554 0.47478014 -0.0854824 0.23727983 -0.06983335 -0.10775167 0.54277927 0.2880803 0.33617592 0.3624093 -0.17290983 -0.25347292 -0.1731951 -0.98877853 0.30115402 0.341781 -0.79685086 -0.78101224 -0.19232686 -0.21236075 0.06220899 -0.3978982 0.036416776 0.2947686 0.5799992 -0.32541794 -0.69247943 -0.063095234 -0.45094854 0.4018392 0.46591052 -0.47125152 -0.37307954 -0.60812813 0.79803604
3321:ROSS_LAKE 0.10198136 -0.6789719 -0.3568172 0.26355273 0.3277511 -0.03586647 -0.14269583 -0.074636675 0.6576434 -0.025558122 -0.24400814 0.3001731 -0.6585103 -0.16919993 0.5927573 0.6018609 0.51683044 -0.09980281 0.6596731 0.742103 0.32291493 0.037045762 0.03141318 0.488989 -0.7098664 0.1722794 -0.3278549 0.2880855 0.6370046 -0.4418796 -0.7374057 -0.11660963 0.69932646 -0.009642351 0.12668926 0.5434105 -0.030237533 -0.44062498 0.0929485 -0.32755885 0.38267863 -0.046552062 0.75345975 -0.07252102 -0.44500408 0.20397967 0.7098524 1.1211529 -0.0064875283 -0.20587526 -0.33249465 -0.12809826 0.15300858 0.9855539 1.6450359 -0.3307249 0.53342456 -0.62403023 0.41102177 -0.058875162 0.13900071 -0.28124294 0.97157425 0.45427787 0.4135757 0.28720197 -0.0445037 0.034258366 0.14027177 0.18352145 -0.4783985 0.25119364 -0.70961887 -0.091749705 -0.27406603 -0.56918365 0.12199534 -0.34827945 -0.5339446 0.0047427677 -1.0235857 0.27566078 -0.39825624 -0.06930375 0.78003675 -0.045538925 0.029034 0.1680182 0.41314548 -0.3827328 -0.32230157 -0.12933168 -0.31643763 0.64782554 0.2834412 -0.14105421 0.41297865 1.1380509 -0.44239968 0.5569114 -0.093289256 0.2954254 -0.22695455 -0.17321865 -1.0317591 -0.023679836 -0.40256563 1.4732853 0.29908806 -1.1073701 0.068346314 -0.02040944 -0.15775347 0.5962881 -0.49799836 -0.3602779 0.9119904 -0.10172734 0.24790633 -0.43130594 -0.34996918 -0.14642015 0.5511221 0.08161688 -0.25820836 -0.59165907 -0.41853124 -0.29846004
3128:HANCOCK -0.37133157 -0.41847 0.39356044 0.7496479 0.1468771 0.72487247 -0.46884388 -0.22826025 -0.009715889 -0.019580303 0.10997462 0.33812 -0.27974892 -0.072020724 0.0023872186 0.8512849 0.2863214 -0.21801439 0.3608728 0.27783203 -0.12965344 -0.46757215 0.39736044 0.05401378 -0.44405207 0.20692869 -0.14592339 0.82602036 0.25472385 0.010591076 -0.021429785 0.2643464 -0.22775014 -0.36304587 0.0053376216 0.6588756 0.6025479 -0.055625178 -0.6125231 -0.09556555 0.033264015 -1.0129298 0.6188202 0.12431654 0.6878389 0.5715151 0.20006067 0.14968823 0.36229125 -0.5133614 -0.6665426 -0.11243866 0.6403688 0.49364 0.7327201 -0.76823705 -0.10270277 -0.2862621 -0.107548974 0.47448057 0.12092024 -1.3612025 0.27000743 0.15604939 -0.8603194 -0.47837222 -0.9359299 -0.79167926 -0.8347807 0.7460294 -0.4825531 0.026504626 -0.69514704 -0.5522718 0.16974705 -0.75689214 0.45542994 0.76022196 0.80236125 0.286467 -0.19997244 -0.04613637 0.01911891 0.16808443 1.0094881 -0.13292268 0.6250277 0.87315613 0.16818184 0.6640725 -0.6479727 0.31532466 0.5560255 0.056372233 0.3768446 -0.63664263 1.4346714 0.90493697 -0.21058819 1.0142736 0.2726037 0.3761404 -0.20451921 -1.2399011 -0.5854838 0.43956286 -0.69115865 0.86237353 0.5270427 -0.5456213 -0.1309225 -0.4338036 0.5999529 -0.28481978 -0.25948212 -0.45515382 0.35497308 0.5752379 -0.37733865 -0.4928881 0.1997084 -0.25356054 0.74603474 0.61202425 -0.88591766 -0.6104961 -0.5940599 -0.5556939
7430:INGLEWOOD 0.043616433 -0.34289226 0.272666 0.28901702 0.05444634 0.3045847 -0.20203117 -0.21300265 0.1980995 -0.054326095 -0.26282156 0.23890877 -0.12596536 -0.2031343 0.12420513 0.34813383 0.3618591 0.06367012 0.4620403 0.15537967 0.13897474 -0.059074223 0.1273996 0.17335671 -0.51225275 0.20576367 0.012903069 0.3699523 -0.008595711 -0.20367149 -0.10245884 -0.06950136 -0.04349027 -0.33760834 0.15803663 0.49120784 0.09020749 -0.5233152 -0.22441876 -0.2154137 0.103003666 -0.59114635 0.19554342 -0.088427074 0.1441294 0.38905263 0.34521508 0.31475642 0.3604121 -0.64121664 -0.47184023 0.00093460217 0.31692848 0.24136299 0.5476477 -0.26789656 0.5111092 0.0035150747 0.2073224 -0.23542713 0.2951454 -0.6239971 0.1439804 0.26408663 -0.13273089 -0.035476893 -0.15098919 -0.59821516 0.082059905 0.4265098 -0.12124573 -0.056679618 -0.337018 -0.05801542 0.022408642 -0.28575957 0.27409214 0.47560942 0.21984963 0.20888966 -0.28163463 0.026477223 -0.2569393 0.14816515 -0.010731744 0.021302182 0.1381074 0.21121173 0.0328619 0.17178541 -0.053874176 -0.20081037 0.37322196 0.3089823 0.28972372 -0.20211641 0.33533272 0.38762918 -0.2233105 0.5144293 0.2747796 0.29920176 -0.10755054 -0.5504397 -0.094474 -0.054240603 -0.41525814 0.23920685 0.14528479 -0.4189308 -0.090967186 -0.13734186 0.16859342 -0.018067753 0.051503718 -0.12486388 0.2785343 0.2621759 -0.37635857 -0.16295505 0.14585453 -0.04896611 0.2565673 0.15302469 -0.27934942 -0.4083282 -0.117083326 -0.020275306
8542:RENO 0.03873996 -0.42313606 0.71577394 0.32228497 -0.012098126 -0.025886476 -0.22970784 -0.37204903 0.28415054 -0.35895863 0.15257072 -0.093388654 -0.21197204 0.04245301 -0.26247945 0.19980092 0.4505491 0.33200958 0.99447453 0.23978063 0.26872838 -0.111892484 -0.22777347 0.44816446 -1.2834642 -0.26902932 0.147937 0.72926587 0.04514487 0.107359275 -0.3237839 -0.42958477 0.29049978 -0.6419738 0.4838466 0.3602289 -0.4001135 -0.6552861 -0.7100252 0.08445586 0.20092754 -0.6164955 0.5627647 0.42347586 -0.07048526 0.4480675 0.451879 0.40678987 0.6693967 -1.0005896 -0.83010393 6.339531e-05 0.24861163 -0.021435454 0.6883951 -0.36273792 0.66573846 0.075781345 0.397572 -0.45914653 0.63838506 -0.6162162 0.25121132 0.7417766 -0.123826645 -0.11236183 -0.275825 -0.8672413 -0.17212503 0.33063406 0.00847421 0.05556207 -0.48033765 -0.006887559 0.14200346 -0.9153316 0.1526557 0.8783531 -0.004113651 0.21466132 -0.41455284 0.13274835 0.11371875 0.24335709 0.25337934 0.034846507 0.03453022 -0.11547739 -0.04637376 -0.050121866 -0.12386901 -0.4318967 0.4305363 0.55450815 0.2616469 0.17806262 1.1045316 0.29415455 -0.037074693 0.35259652 0.20967628 0.30282164 0.03981537 -0.89729476 -0.23377505 0.18472575 -0.2375516 0.17012823 0.29287308 -0.52457327 -0.1512869 -0.52643764 -0.26231062 0.01631017 0.43010616 0.12571193 0.38453913 0.38813937 -0.6399773 -0.6103119 0.33196637 -0.05267109 0.67123514 -0.13442549 -0.31539384 -0.4011782 0.18824488 -0.13862845
3111:FIVE_TRIBES 0.5349149 -0.7963652 0.2993716 0.7575759 0.014152435 0.8830195 -0.69628143 -0.42038155 -0.39475846 -0.38559565 0.1348561 0.594178 -0.6539078 0.15836698 0.5713952 -0.2676573 0.32715985 1.0927145 0.44186395 -0.3629529 0.75066525 0.88051605 -0.3308208 0.20752941 -1.4903505 0.22880553 -0.3481655 0.33143 0.07810255 0.087585114 -0.766182 0.074930325 0.07234627 -0.25218847 0.072715364 0.78832144 -0.025845684 -1.1745446 0.21625055 -0.37148023 0.531115 -0.5522503 0.69512844 -0.5490399 -0.37149376 0.27195948 -0.1441912 0.5235355 0.3210885 -0.34566745 0.28329772 0.11354762 0.8211316 0.15416975 0.93903965 -0.54166037 0.04353232 0.08984168 0.20800112 -0.5676576 0.26170328 -0.8398332 -0.6760671 0.0067877956 0.038299244 -0.31107026 -0.076944314 -0.05867594 -0.080591284 0.2772875 -0.5728869 -0.1877678 -0.6024052 -0.0688945 0.45260823 0.048333596 0.63180435 0.320278 0.51119226 -0.50827664 -0.42234114 -0.058105547 0.079809465 0.13569738 -0.18855727 -0.4053443 0.69055194 0.24613212 -0.11708722 0.5758602 0.97851026 -0.36183086 0.5172225 0.3229229 0.82388526 0.41397285 -0.11852695 0.3685101 -0.2795505 -0.0698459 0.060454495 0.105582945 -0.47105727 -0.015111272 -0.046719104 0.45438263 -0.5564769 0.4617032 0.31206927 -0.69197893 0.7893763 0.37809902 0.0044322014 0.16235311 0.25158155 0.09029289 0.26611683 0.40241927 -0.3257895 -0.2717743 0.7180695 0.17221943 0.6489982 0.85952437 -0.58503413 0.15675226 -0.47531742 0.2992397
8650:GLENDALE 0.20984642 -0.47130567 0.6749312 0.7019658 0.080000445 0.2738551 -0.3429923 -0.5112575 0.22524092 -0.14530367 -0.29539883 -0.1002864 -0.24362084 -0.021920413 0.047115624 0.37970442 0.34638903 0.2299737 0.6839749 0.12646152 0.25411257 -0.27227604 -0.13824797 0.38743016 -1.0795023 0.09264203 0.12346358 0.7671283 -0.09730883 -0.11159637 -0.4057329 -0.3878912 0.20827976 -0.5325531 0.32956785 0.36329892 -0.14516832 -0.6029315 -0.61602265 -0.064118035 0.12703723 -0.8010399 0.34959602 0.39356518 0.047735162 0.43344846 0.43601933 0.36421433 0.4950978 -1.0055285 -0.65079564 0.0922963 0.42504567 0.3463622 0.7678218 -0.3643651 0.7346353 0.23903105 0.20534676 -0.5685721 0.5199279 -0.52769184 0.389789 0.59519356 0.030131523 -0.4167105 -0.3031028 -0.75842524 0.10813208 0.31109312 -0.26511863 0.0677629 -0.62277484 0.07236308 0.19561332 -0.5630969 0.3039318 0.9804073 0.1149151 0.32290652 -0.52427286 0.045687094 -0.036889926 0.19808863 0.11067689 0.06810877 0.098642394 0.08985112 -0.02276752 0.023067737 -0.12058188 -0.40880296 0.5225507 0.37419546 0.20472653 -0.05461334 0.6602307 0.4189205 -0.03792024 0.5151624 0.20695487 0.23884498 0.07257324 -0.7998354 -0.35995564 0.25246495 -0.26233995 0.20339032 0.26644844 -0.6542773 -0.12460203 -0.44641262 -0.043821182 0.102921054 0.3699875 -0.08070944 0.37922707 0.35606182 -0.5276965 -0.52175957 0.32424515 -0.03714217 0.42856565 0.19024852 -0.24949631 -0.38599288 0.18356626 -0.016484145
5111:DRIPPING_SPRINGS 0.019542865 -0.8201671 0.41157466 0.47949377 -0.047771532 0.8315178 -0.4721622 -0.25622994 0.38236585 -0.44547474 -0.5925176 0.48316485 0.09590829 -0.5142564 0.18825944 0.35893148 0.85828704 0.107154205 0.51063854 -0.0682092 0.0076551703 0.27248135 -0.006688324 0.339355 -0.15620813 0.4440629 0.24054961 0.2617617 -0.023081444 -0.18097043 -0.06751577 -0.02603549 -0.3932407 -0.12227615 0.20987704 0.8402497 0.55230755 -0.2180474 -0.44827062 -0.4214119 0.12946987 -0.5843488 0.47082475 -0.01641302 -0.37724617 0.59093153 0.32503754 0.081370935 0.6296734 -0.38313332 -0.54827833 -0.1774547 0.5885386 0.3799616 0.63994694 -0.33726722 0.52403945 -0.44337064 0.10033442 -0.5572315 0.25275707 -0.94578385 0.24817711 0.25296983 -0.60084504 -0.28526828 -0.2423595 -0.33984038 0.08762296 0.2807964 -0.44900453 -0.081679255 -0.20392469 -0.13491705 -0.0006283055 -0.32526216 0.36117962 0.88500917 0.42107284 0.41155663 -0.4087241 -0.0057009803 -0.055244926 0.103061005 0.37747985 0.2043136 0.26081744 0.12028514 0.29141432 0.4457656 -0.1930227 -0.21726403 0.5993009 0.72960985 0.3869038 -0.42542815 0.58688235 0.3901778 -0.14360555 0.54004556 0.32356498 0.32438034 -0.034966793 -0.37093478 0.16120298 -0.5737016 -0.3215814 0.14959486 0.40636334 -0.29464504 0.08460522 -0.0067745037 0.6750179 -0.03703127 0.2588586 -0.259127 0.46100062 -0.08471906 -0.10729904 -0.048530556 -0.5438397 -0.21173199 -0.02664418 0.35976353 -0.34741968 -0.29325178 -0.30349046 -0.15500125
5305:HEALDTON 0.16875266 -0.42028415 0.53665197 0.38419995 0.41451874 0.62891346 -0.26610577 -0.37404677 0.07082064 -0.039826244 -0.23974225 0.0825091 -0.30617592 -0.17608586 0.09735397 0.31726187 0.24381985 0.16466218 0.45196995 0.48807624 0.31492546 0.04019955 0.47340637 -0.10121992 -0.57811815 0.3239307 -0.12256481 0.5415765 0.12967144 -0.076382145 -0.33982402 -0.14617327 -0.24436942 -0.65268755 -0.28708926 1.0834353 0.29625088 -0.6828652 0.06490631 -0.5951164 0.29069915 -0.26654965 0.7064061 -0.21533993 -0.047158085 0.46820626 0.5648792 0.3361621 0.6572464 -0.5642428 -1.035506 -0.28196275 0.508603 0.06083767 0.71875614 -0.46539003 0.28549585 -0.4672937 0.15554327 -0.040100843 0.20746124 -1.043016 0.35330728 0.051623575 -0.17446294 -0.07862658 -0.23411307 -0.04016131 -0.17059669 -0.39397496 -0.08747971 -0.06687948 -0.52691317 -0.09630866 -0.33359915 -0.9338564 0.3724175 0.5024554 0.1800782 0.2636964 -0.16859375 -0.018351465 -0.4389433 0.23557977 0.31370318 0.1989354 0.3825739 0.028192854 0.2951315 0.38001218 -0.24065806 -0.125875 0.43742025 0.754445 -0.07160813 -0.17336607 0.4178729 -0.51691294 0.11388333 0.35603228 0.5882036 0.36690345 0.121781975 -0.1897743 -0.10257939 -0.41523084 -0.050316427 0.26171628 0.5462321 -0.54553694 -0.31115288 0.21567526 0.604768 -0.20521335 0.17762981 0.07111589 -0.040990397 0.19889055 -0.33825034 -0.584948 0.20738657 0.22690043 0.35868403 -0.23673779 -0.48055634 -0.16993555 -0.85815024 0.10992315
8220:MAY_AVE 0.16866004 -0.16495664 0.23186868 0.18666929 0.5141705 0.9322974 -0.18858662 -0.06252027 0.094579056 -0.08553704 -0.5191832 -0.0017411282 -0.11788215 -0.10537574 0.3953256 0.24528985 0.3842687 -0.13861978 -0.006969517 0.06481585 -0.022468444 -0.21352409 -0.21343558 0.33075908 -0.33164048 0.13626108 0.081545405 0.21114136 0.0068707457 0.009417629 -0.1690489 -0.08860587 -0.20507313 -0.0903925 -0.11109872 0.26102293 0.58097535 -0.29633352 -0.30090472 -0.28175047 0.1287943 -0.3138306 0.08251864 -0.10362325 -0.055624954 0.62131274 0.24063781 0.3868703 0.5013167 -0.2793804 -0.54577607 0.12960388 0.3557785 0.104800306 0.61738104 -0.23583415 0.14522973 0.162348 0.09885685 -0.02054051 0.33363008 -0.38313612 0.41963786 0.16638935 -0.17264335 0.19974762 -0.84155315 -0.27784857 -0.3261663 0.1741439 -0.09662196 -0.15871876 -0.48818195 -0.3687005 0.02181213 -0.95432013 0.06464115 0.2686847 0.39278704 0.078626335 -0.11115508 -0.24740088 -0.2716419 0.34594858 0.20124626 0.15771723 0.6115074 0.8363556 0.21217608 0.39550975 -0.32110366 -0.4891468 0.4647664 0.7691498 0.16944349 -0.42337307 0.49480453 0.33700484 -0.4898408 0.48430422 0.04965373 0.4379499 -0.091436125 -0.5739749 -0.20270677 0.22604088 -0.7198483 0.6910487 0.624999 -0.5101292 -0.15721461 0.13334836 -0.24423127 -0.39401257 0.12382508 0.057065748 0.4628774 0.56008434 -0.3039305 -0.28380656 0.16208981 -0.34552553 0.49282053 -0.0065725916 -0.55188715 -0.117037006 -0.44199407 -0.12331392
7432:ST_GREGORY 0.033079926 -0.27738923 0.23483406 0.30383837 0.072153695 0.24876143 -0.18409614 -0.22798336 0.13954777 -0.025872607 -0.18020946 0.20846884 -0.089308 -0.10148898 0.16516876 0.32386526 0.36436638 0.05535322 0.46150434 0.24238373 0.2056087 -0.032834135 0.10710741 0.18595354 -0.52723294 0.15101166 0.009121129 0.47411126 0.07888144 -0.14350186 -0.18492328 -0.039693803 -0.01061113 -0.27039745 0.13638082 0.48077324 0.08765473 -0.41648075 -0.23807892 -0.17451972 0.10399834 -0.54209113 0.21941057 -0.08869955 0.05976123 0.41697854 0.2773782 0.3709486 0.3223998 -0.6481292 -0.54975015 0.053855054 0.35673803 0.20713006 0.5338219 -0.27319315 0.49929896 0.00017908707 0.24708337 -0.21257028 0.30415973 -0.6229615 0.22274323 0.24681444 -0.16877428 0.00464758 -0.14054328 -0.6341386 0.14883395 0.4141775 -0.22551364 -0.0007486822 -0.3110257 -0.09235134 0.027950034 -0.30751204 0.23841292 0.44726703 0.16357388 0.22397242 -0.18108761 -0.060864817 -0.28550512 0.1408119 -0.0003826615 -0.02090708 0.14261486 0.1900468 0.03931443 0.18532819 -0.015191778 -0.20085096 0.44999075 0.34726727 0.3163245 -0.25389007 0.3644944 0.40904844 -0.14877667 0.4162834 0.22850364 0.23931065 -0.12814108 -0.5082896 -0.17055835 0.01864171 -0.3787375 0.23233934 0.058121186 -0.38665476 -0.014814309 -0.10287319 0.20413977 -0.076450236 0.05531083 -0.0781472 0.27736506 0.22107938 -0.33557168 -0.19748878 0.08861183 -0.07766312 0.26802453 0.17659992 -0.30722195 -0.37640384 -0.18964683 0.007967949
8536:WASHINGTON_PAR -0.04148901 -0.6754492 0.45233744 0.208512 0.3336507 0.73042035 -0.31325275 0.3753629 -0.035785023 -0.39627975 -0.43209755 0.21153857 -0.33481476 0.03817396 0.24556088 0.119003735 0.34057412 -0.10181065 0.27579 0.35868692 0.090792485 -0.25501645 0.0769475 0.13893665 -0.5309885 -0.15941004 -0.12782961 0.6174611 0.15895176 -0.20227061 -0.2924337 -0.16350392 0.055451103 0.015027969 0.18572022 0.3856187 0.46239012 -0.40902403 -0.19074917 -0.1331276 0.15038127 -0.42848545 0.23740934 -0.09440003 0.14406736 0.54126316 0.16732772 0.4005794 0.51266503 -0.47169018 -0.78598404 -0.19164455 0.4045531 0.027055176 0.6590804 -0.11831275 0.27596828 0.053463418 0.11711319 -0.12625074 0.039119847 -0.51074755 0.011306621 0.036176197 -0.30996174 0.37256235 -0.90424937 -0.27938738 -0.4217223 0.57934743 -0.08405739 -0.07839226 -0.55204505 -0.35445958 0.0351124 -0.5683875 -0.1131661 0.45506263 0.5124351 0.25509527 -0.0050042975 -0.44263804 -0.017622214 0.61694497 0.3605699 0.26266912 0.43779758 0.49355128 0.19924892 0.6572428 -0.05078038 -0.33698606 0.82986516 0.87884146 0.3207473 -0.19428506 0.771842 0.52679765 -0.17903432 0.567008 0.123140566 0.4916051 -0.19544968 -0.44399163 -0.22415222 0.29164708 -0.4019077 0.43198937 0.16928154 -0.52062887 -0.14486866 -0.35466975 -0.4157055 -0.32594705 0.095871314 -0.10077717 0.38322532 0.5909463 -0.4801512 -0.31971666 -0.030576585 -0.33232674 0.4146763 -0.2035271 -0.25482216 -0.11786392 -0.4092363 0.07950517
4123:KREMLIN_TAP -0.38610736 -0.585683 0.021850234 0.25280154 0.14943229 0.36368918 -0.09868094 0.026758747 0.07425988 0.18542837 -0.5386401 0.34714407 0.3147083 0.17692745 0.4140385 0.15244447 0.4162887 -0.07169293 0.71042633 0.03597393 0.3632855 0.19302972 0.04750443 -0.019909892 -0.6690162 0.116400674 0.026109299 0.46004444 -0.02147815 0.120230824 -0.16555192 0.075807095 -0.24670506 -0.15871394 0.12173428 0.4040471 0.32341704 -0.4693528 -0.5687217 -0.08154386 0.04646309 -0.66487765 0.15457983 -0.22208117 0.02116464 0.47196272 0.17637105 0.5056611 -0.02312677 -0.54084164 -0.46135426 -0.024658356 0.38463262 0.06636279 0.6425647 -0.46899968 0.531881 0.15669225 0.11701195 -0.1149675 0.27245978 -0.6588112 0.43290696 -0.069639765 -0.4690551 0.12944108 0.15246011 -0.2863517 0.41813037 0.78945076 0.1948686 0.19937977 -0.047443163 0.12859878 0.36881837 -0.41253254 0.46310288 -0.12144323 -0.18854465 0.3034237 -0.23953205 -0.13566203 -0.7824885 0.26405975 0.2160794 -0.22928482 -0.08684729 0.2932366 0.070192665 0.33632347 0.07666142 -0.12877266 0.45772702 0.769362 0.4317562 -0.49012852 -0.019948037 0.77451193 -0.1466829 0.21304175 0.0725448 0.6110521 -0.028893884 -0.7505258 -0.46336442 -0.21614948 -0.604406 0.23516569 -0.27872548 0.07077367 0.18052882 -0.00057005 0.08108034 -0.033197045 -0.13659605 0.02702319 0.17241804 0.35852948 -0.22931679 -0.04509988 0.24750197 -0.007891433 0.4923569 0.2901226 -0.15500762 -0.27570537 -0.35227835 0.23399018
8474:STONEWALL -0.05345832 -0.62727934 0.43963158 0.39493403 0.49497893 1.246739 -0.2554785 -0.03338305 -0.032207005 -0.5016977 -0.7883585 0.22894396 -0.40850902 -0.365374 0.33983472 0.46591923 0.18307927 0.16057608 0.04168092 0.42617 0.19122344 0.04987872 -0.18087758 0.20474643 -0.08300907 -0.23098183 -0.13130383 0.6501103 -0.0124312155 -0.35221648 -0.24170624 0.12975664 0.0063286982 -0.29495996 0.09172951 0.765146 0.28569064 -0.1301695 -0.33417434 -0.113809444 0.16741149 -0.2661344 0.08058078 -0.30342016 0.05405059 0.8532408 0.28515056 0.4844608 0.5297701 -0.6680153 -0.44105992 0.21947648 0.39647135 0.26809844 0.329423 -0.08406927 0.10374297 -0.10816547 -0.048729863 0.07729786 0.16086365 -1.1203816 0.638123 0.07389924 -0.39118895 0.043409802 -0.60065806 -0.53426445 -0.15826808 0.58121896 -0.038110394 -0.20637745 -0.5853405 -0.36332315 -0.038289472 -0.5636656 0.23695102 0.3103716 0.48733497 0.13858317 0.10793949 -0.3486949 -0.61625916 0.1754291 0.6690684 0.25379577 0.31663546 0.4354298 0.20329855 0.42583013 -0.06385317 -0.23504348 0.5935285 0.9521015 0.5389049 -0.37194845 0.5133896 0.38910833 -0.26913756 0.36784974 0.12156277 0.5294032 -0.32429802 -0.32389477 -0.34665358 0.083810605 -0.016188476 0.27434254 0.37860256 -0.39251804 -0.11372495 0.11062168 0.3572771 -0.53770596 0.2613529 0.0712031 0.15873998 0.5947546 -0.06595994 -0.3338077 -0.07703641 0.18840206 0.5396832 0.042606052 -0.5277106 -0.108865686 -0.44601214 0.014705036
8458:GREEN_PASTURES 0.26368633 -0.5336398 0.5660531 0.5472863 0.055532306 0.09919995 -0.22952104 -0.36139536 0.24013706 -0.22243074 0.014384171 -0.13327037 -0.19089144 0.012754361 0.09380835 0.3647295 0.44713634 0.23946233 0.77999717 0.17631593 0.16446011 -0.270893 -0.027529338 0.27210134 -1.0339812 0.03360703 0.14441985 0.8882821 -0.00042205848 -0.10871101 -0.4079633 -0.39296874 0.19689053 -0.4602616 0.2336152 0.3184692 -0.18565094 -0.5809739 -0.38190842 0.13640596 0.06899162 -0.68719196 0.22487214 0.4136362 -0.01320981 0.35762474 0.20181382 0.3109133 0.5374762 -0.89109445 -0.6903493 0.104891814 0.5299454 0.18201752 0.6862557 -0.3824651 0.8795521 0.23600589 0.18677272 -0.44409057 0.58413863 -0.4871124 0.4933191 0.58955246 0.21129575 -0.22180378 -0.23389278 -0.6392804 -0.12212175 0.048757736 -0.055386122 0.09496372 -0.48333177 0.11774278 0.29994088 -0.62863433 0.015235752 0.8151262 -0.013362152 0.18002845 -0.38071126 0.07839952 -0.02899451 0.20191228 0.20173468 0.051627554 0.1465836 0.058720425 -0.06421371 0.046517808 0.04886365 -0.338803 0.38291904 0.19756624 -0.029289663 0.067106776 0.6244207 0.30234268 -0.15819189 0.42834145 0.1737467 0.030272821 0.04078941 -0.8822899 -0.27028733 0.25558755 -0.33029383 0.33982888 0.35856262 -0.76884884 -0.31538528 -0.5456859 -0.003365647 0.09106723 0.25417006 -0.055652324 0.3958485 0.3771771 -0.56073743 -0.617108 0.43614417 -0.026191773 0.59621 -0.030827612 -0.3598046 -0.4931157 0.13102062 -0.036388785
8416:DUNJEE 0.06782422 -0.4835544 0.4424077 0.42046222 0.12600459 0.14109604 -0.058354307 -0.2672181 0.14852135 -0.20777702 -0.19169341 0.048931327 -0.22080584 0.031440604 0.0193054 0.31194657 0.5297082 0.09818919 0.7521792 0.12642516 0.2561397 -0.39801568 0.11437086 0.22228362 -1.1332674 -0.0014141807 0.17463717 0.4176709 -0.034047257 -0.2041619 -0.22933911 -0.1876263 0.35198614 -0.35103747 0.22395049 0.34069127 -0.10393562 -0.6398714 -0.41855973 -0.012174534 0.21589553 -0.52251196 0.4244665 0.4698542 0.011456264 0.23271006 0.3828072 0.35323343 0.2616215 -0.9429165 -0.5057963 -0.09369901 0.18238826 0.13478507 0.86842877 -0.29294014 0.44507408 0.25314212 0.27740955 -0.44091558 0.44220924 -0.3458866 0.43897134 0.32870066 -0.24231425 -0.09263473 -0.46314067 -0.49606547 -0.16604997 -0.03353217 -0.1897964 0.14797659 -0.665995 -0.042809594 0.06781297 -0.5497698 0.08629994 0.94268334 0.13539284 0.18789996 -0.3750644 0.0959546 0.07281947 0.19446063 0.066397764 0.058907937 0.09584506 0.19286883 0.11465643 -0.09275536 -0.2168348 -0.298656 0.6210918 0.60894656 0.38154358 0.21924762 0.6368559 0.64443463 -0.2069212 0.37923625 0.008507823 0.3399418 0.32734644 -0.6568256 -0.38507837 0.19956474 -0.2718765 0.17796418 0.3476981 -0.54470783 -0.008753711 -0.33226696 -0.18281628 -0.03967734 0.4625213 0.19984323 0.54399437 0.464481 -0.479805 -0.6067169 0.32578754 0.0149347605 0.55679274 0.07485668 -0.38510603 -0.36231977 -0.17830482 -0.30434814
5605:PAULS_VALLEY 0.020644696 -0.450566 -0.26015332 0.037770912 0.10215861 0.29308417 -0.6272426 -0.05602698 0.47657064 0.16713345 -0.53569037 0.43762437 0.10894142 -0.22911084 0.32699323 0.123027526 0.6059658 -0.036095038 0.45852673 -0.004083294 -0.1744696 0.28676933 -0.23830765 -0.16066034 -0.10699825 0.4155818 -0.030069668 0.92035484 0.25104344 -0.03917947 -0.14674155 0.16356117 -0.6591573 -0.2321259 0.4087255 0.9132982 0.70405567 -0.14383079 -0.18795174 -0.3301903 0.18930203 -0.8500023 0.09939694 -0.0974553 0.37922293 0.2210255 0.4680188 0.29721528 0.073345594 -0.68764806 -0.55489516 0.1272327 0.351522 0.3571032 0.7903039 -0.45888284 0.8017842 -0.417521 0.310222 0.19008648 0.29658714 -0.43810052 -0.1702069 0.3648763 -0.43382043 0.40718645 -0.15304133 -0.8532992 0.69880027 1.1891915 -0.22839454 0.2474608 -0.5500825 -0.22927895 -0.251039 -0.30868027 0.5374741 0.4221258 -0.019882098 0.24019884 -0.7754834 -0.33903143 -0.6414871 0.38712323 0.20746928 0.2972671 0.39824775 0.35072568 0.14416915 0.34477326 0.53300256 -0.7423443 0.79148793 0.6373585 0.52138495 -0.77430415 0.5486636 1.0942717 -0.13133702 1.1156431 0.71893114 0.20434453 -0.63273406 -1.1465192 -0.11786899 -0.10463308 -0.94365543 0.3642533 0.05683026 -0.80999976 0.15592845 -0.04632686 0.4428044 0.30047518 0.1366619 -0.7125527 0.32085812 0.11195121 -0.61144465 -0.35964957 -0.010620583 -0.28471842 0.5551398 0.44855398 -0.4158901 -0.65771794 -0.2926838 0.18155485
8317:SKYLINE -0.26265982 -0.5137498 0.32694197 -0.046048876 0.41097122 0.4639374 -0.7495814 -0.09878985 0.13538961 -0.031824116 -0.4936171 0.0121464245 -0.34278882 -0.39447427 0.37018153 -0.04226152 0.615544 -0.2241459 0.05684415 0.06575322 0.18414801 -0.2400664 -0.1261733 0.23621628 -0.037408456 0.17803839 0.1348632 0.6153777 0.29371554 -0.12509291 -0.007677294 -0.0790684 0.09095895 -0.19097655 0.18850045 0.029572662 0.49603236 -0.18054247 -0.13589115 -0.054220524 0.19185649 -0.42745316 0.05217369 -0.27771163 0.11598815 0.3549761 -0.011627438 0.48353726 0.3443182 -0.3755047 -0.38330397 -0.05147713 0.25515088 0.041618027 0.3009887 0.16063535 0.7444578 0.15676387 0.1348082 -0.025770433 -0.14380196 -0.5935484 -0.24073997 0.214856 -0.52992886 0.15115243 -0.8085875 -0.26221237 -0.46754512 0.83121306 -0.3236857 -0.04672741 -0.44802713 -0.21435188 0.11356128 -0.69168454 0.6491787 0.654072 0.22786942 -3.550755e-05 0.019960245 -0.65463746 -0.28468835 0.2638017 0.52084905 0.24312757 0.3091015 0.23677118 -0.17166361 0.7147225 -0.11570245 -0.41803023 0.68138343 0.5210714 0.14408161 -0.41174933 0.7776717 0.41111463 -0.5588658 0.6162144 0.3890741 0.26621693 -0.38037667 -0.66978854 -0.42198592 0.47361046 -0.8532448 0.36797386 0.51403415 -1.078335 -0.44555184 -0.06727419 -0.2871257 -0.6142574 0.32569304 -0.12740473 0.7267178 0.5609966 -0.26393944 0.27955315 -0.07485253 -0.109482944 0.19391507 0.03362416 -0.241233 -0.24449597 -0.059325352 0.034796532
