281 128
8522:MIDWAY 0.3233623 0.43996495 0.010263625 0.17578532 0.09822189 -0.21329534 -0.87415576 0.31744552 0.5383803 -0.14642897 -0.27840343 -0.25910836 0.5550207 -0.56246185 0.78195876 -0.03787552 -0.5370644 -0.17006794 -0.1608205 0.023422046 0.113658026 0.3232818 0.66230804 -0.2455107 0.44938636 -0.18467642 -0.18928765 0.2833536 -0.17529415 0.36754134 -0.6631034 -0.43201026 0.15792754 -0.21841085 0.04709438 0.077746905 -0.34542328 -0.562761 0.75621927 0.32158247 -0.07812947 -0.035151366 0.26234078 -0.5180438 0.31887004 -0.10376351 0.2954454 -0.56797284 -0.7677708 -0.22450362 0.3532431 -0.39015213 -0.7565939 -0.31901994 -0.04795198 -1.1034536 -0.5040584 0.17629401 0.1658682 -0.51212895 0.6815004 -0.04252452 0.15633568 -0.12761658 -0.40199938 0.323764 -0.09776929 0.5040435 0.32098663 -0.44664687 -0.40315357 -0.1697098 -0.07536242 -0.29399046 0.052996278 -0.91683334 -0.035397157 0.23488328 -0.33699277 -0.058289804 -0.21094279 0.4022991 0.27605188 0.2212758 -0.083738744 -0.5027329 0.74347764 0.21455753 0.72584444 0.36434036 -0.73760504 -0.20122574 0.29951495 -0.4496855 1.1102432 -0.48754796 -0.27148288 0.056294356 0.019247664 -0.20844772 -0.010238432 0.19331835 -0.48935226 -0.084760025 -0.35665742 0.5441771 -0.106744945 0.44579133 0.27913252 0.066418156 -0.36672768 0.058897644 0.06116703 -0.2555941 -0.54305595 -0.35416597 0.7553535 0.032760184 -0.3501231 -0.61123514 -0.26796752 0.97008187 -0.39917928 0.5199415 -0.2826378 -0.1922608 -0.714622 0.122979455
8434:DEEP_FORK 0.06523265 0.05521747 0.10158687 -0.29210004 0.2916631 -0.3128822 -0.814322 0.22675166 0.3388181 -0.20411222 -0.26528487 0.044745218 0.3081851 -0.5047706 0.8934573 -0.03635548 -0.78938 -0.12063753 -0.12055704 0.38888803 0.46600887 0.7417321 0.7401435 0.14558747 0.4496363 -0.35437515 -0.21347138 0.46292418 0.21832794 0.40065327 -0.6859965 0.0083324965 -0.0766493 -0.17000009 0.016024722 0.32996136 -0.39728814 -0.74538016 0.7375474 -0.17142822 -0.47507712 0.46791357 -0.111150995 -0.6971809 -0.026541252 -0.36322853 0.18009792 -0.69591427 -0.41428274 -0.24391197 0.4756376 -0.5027752 -0.08265812 -0.19060344 0.05819203 -0.99567866 -0.12770072 -0.17605014 0.4760444 -0.54879814 0.49547884 -0.12846868 0.7744911 -0.47382912 -0.51032305 0.25908718 0.051001582 0.4751364 0.69000566 -0.48833305 -0.22644077 -0.30849394 -0.017650258 -0.11988171 -0.081959985 -0.7430257 -0.24633448 0.76206064 -0.39960474 0.24700008 -0.41441184 0.81000346 -0.1595801 -0.21653952 -0.015099055 -0.5454262 0.9775692 0.1722901 0.78907204 0.2478741 -0.9496039 -0.07016996 0.15473107 -0.21627834 0.74876493 -0.33464256 -0.6978425 0.21773587 -0.011487002 -0.8408365 0.3866623 0.299198 -0.5052608 -0.20196864 -0.095281154 0.26587197 -0.03669971 0.9501467 0.009391445 -0.34186205 -0.21274887 0.17896235 0.09727548 -0.3507144 -0.10222682 0.36690554 0.8564214 0.20574157 -0.22706982 -0.32218814 -0.80084074 -0.0107129915 -0.87849915 -0.100033626 0.06693471 -0.21983425 -0.49233472 0.7857884
9125:CARNALL -0.28011447 0.054677777 0.035392426 0.06742582 -0.257063 0.1837852 -0.047615185 0.12969314 0.77983767 -0.2899893 -0.46492743 0.0773859 -0.17181276 0.22291483 0.8363834 -0.44892544 -0.47936764 -0.11842856 -0.101532124 -0.057980526 0.49335608 0.27781424 0.6716696 0.029887311 0.69377136 0.37471724 -0.059376203 0.26397142 -0.15818544 0.5751183 -0.5105248 -0.8130924 -0.2160762 0.14941935 -0.47619423 -0.052505065 -0.19346225 -0.25177783 0.35349554 -0.39891297 0.019618401 0.044166543 -0.44733474 -0.24455228 -0.13519967 -0.47319362 0.48865804 -0.43656418 0.13960509 -0.07407871 0.1480953 0.31422833 -0.12154662 -0.79966396 0.37047464 -0.98341155 -0.15256044 0.1278423 0.37452215 -0.48378825 0.5254571 -0.27509278 0.26217526 -0.047674008 -0.18622859 0.37316784 -0.25011653 0.3403013 0.689325 -0.57743496 -0.1354465 0.15334518 -0.10457855 0.5436991 0.117691435 -0.5889367 -0.118289925 0.120657995 -0.20481959 0.56087834 -0.17441799 0.6371297 0.09224976 0.010967713 0.0043048603 -0.80586934 0.37183118 -0.5594306 0.56215626 -0.3602249 -0.38069955 0.1982775 0.15340348 -0.25389498 0.11396601 0.041587137 -0.3189859 0.2673515 -0.27479988 -0.24607797 -0.59535086 0.47682703 -0.09993122 -0.27225083 -0.7420183 0.21524298 -0.13540323 0.07316644 0.06003373 0.06892776 0.030768083 0.824912 -0.58066654 -0.23774803 -0.21745747 -0.4361526 0.55276054 0.43921158 0.04145078 -0.28032076 -0.23675446 -0.047733106 -0.36432886 0.03522572 0.3203413 -0.16954572 -0.16247372 0.049943086
8352:QUAIL_CREEK 0.01340341 0.071316 0.15021296 0.026245892 0.17360365 -0.08071518 -0.7194944 0.2729174 0.8335035 -0.22846852 -0.2758894 0.036116596 0.50824887 0.010292285 0.9303944 -0.21094821 -1.0467159 -0.36301473 -0.25789863 0.29149362 0.44086725 0.11074727 0.6540119 -0.080354005 0.32165456 -0.1768059 -0.029331826 0.5336289 0.14084849 0.4188628 -0.35631365 -0.92423517 0.0973802 -0.2540843 -0.069153525 -0.44118133 -0.091051914 -0.35036862 0.60308856 -0.15990387 -0.60587674 0.15964027 -0.07914951 -0.23701173 -0.10940835 -0.21643771 0.87751853 -0.4836642 -0.49783415 -0.057461474 0.13583726 -0.39096794 -0.4457172 -0.3855577 0.17793722 -0.778473 -0.5214596 0.056657694 0.26617268 -0.10198755 0.8949108 0.21495263 0.3090931 -0.7537437 -0.6546745 0.32772592 0.09512706 0.63179874 0.39277524 -0.3414733 0.013322086 0.081158236 -0.5664112 0.060836896 -0.062642336 -0.85880923 0.18994571 0.62272304 -0.50574046 0.46109372 -0.19064666 0.20194338 0.26239917 0.43493187 -0.282307 -0.5030404 0.7331723 -0.2176853 0.2912645 0.115378775 -0.5278035 0.006464361 0.35636237 -0.5107675 0.72351784 -0.3101003 -0.22128944 0.14677532 -0.28913683 -0.5527402 0.4736736 0.47654074 -0.7889564 -0.16885768 -0.5917192 0.74181336 -0.29089814 0.6431719 0.004701412 0.23141763 -0.007028553 0.6867482 0.25952923 -0.18171099 -0.121414684 0.19574487 0.37401855 0.43800285 -0.32610762 -0.23797105 -0.3199892 -0.08453078 -0.62150615 -0.16936804 0.27315766 0.07201349 -0.48862827 0.07599676
9330:SIMMONS -0.07172849 -0.04935746 0.0509782 -0.4399184 -0.26819426 -0.18638365 -0.48453736 -0.09554413 0.06641735 -0.13886566 -0.11103367 -0.30461147 0.4251795 -0.23565666 0.46975514 -0.4120159 -0.6639841 -0.3367491 -0.36124802 0.35648236 0.2483992 0.1990427 0.52070874 0.12680309 0.47743613 0.06211387 -0.2655128 0.32999757 -0.24485932 0.2108666 -0.45057788 -0.81106186 -0.2219694 -0.24933153 0.19168861 -0.07981158 -0.11497579 -0.5541745 0.48534626 -0.436436 -0.015289414 -0.12288017 -0.11239176 -0.57942104 -0.1755202 0.029271789 0.5677304 -0.5914225 -0.31945488 0.16072242 0.12129312 -0.06594249 -0.3244152 -0.64893943 0.16938704 -0.52056754 -0.2131434 -0.13283199 0.451344 -0.5859207 0.45878384 0.012716019 0.1050226 -0.48943084 -0.411106 0.1448436 0.2621294 0.23266895 0.49308398 -0.6000786 0.04852253 0.14350893 0.01052524 0.3174674 0.08359752 -0.6250633 0.16521686 0.16485995 -0.57494915 0.3807359 -0.33056185 0.44918227 -0.07108784 -0.048986446 -0.25979763 -0.57621807 0.61030245 -0.094849035 0.60112697 0.107924774 -0.1970209 0.21860799 0.0893791 -0.1281534 0.7514775 -0.2939604 -0.42628706 0.18809527 -0.3755666 -0.5078615 0.028001392 0.40139496 -0.19958957 -0.27879524 -0.27747408 -0.3003256 0.08197879 0.3653968 -0.16753559 0.29612386 -0.2368693 0.81789166 -0.23604193 -0.54795104 -0.33627948 0.124879636 0.06539988 0.5470656 -0.16116056 -0.21426171 -0.535832 0.20485604 -0.98364955 0.040391803 0.30103323 0.053448472 -0.261836 0.25702354
8245:COUNCIL 0.33624524 -0.10043697 0.23027875 -0.49488425 0.22485824 -0.0821693 -0.9955158 -0.51781976 0.47049275 -0.25048384 -0.22547387 -0.06771589 -0.07156477 -0.2947824 0.34965324 -0.24903092 -0.35466814 -0.54161453 0.09878756 0.11097325 0.13127959 0.20564796 0.41958243 0.0386348 0.4380271 0.6364827 0.22918978 0.41108036 -0.329638 0.41857088 -0.73896366 -0.8437148 -0.3188811 -0.32204205 -0.3745004 0.14879625 -0.6339418 -0.51754946 0.33537883 -0.64138454 0.19686602 -0.43391672 -0.49515995 -0.7278766 -0.24896948 0.37670028 0.34112906 -0.57083595 -0.17556165 -0.26579794 0.44969806 -0.098150246 -0.07685867 -0.6738232 0.20763634 -0.4478477 0.06408183 -0.18195224 0.27234918 -0.91812545 -0.09624791 -0.18140753 0.2419567 -0.13632281 -0.40511417 0.031791467 0.19341755 -0.0009224767 0.058318954 -0.52854794 -0.44931784 -0.10247748 0.42302164 0.47148845 0.15388986 -0.3367765 -0.6171873 0.153702 -0.23995106 0.014969863 -0.38855946 0.72413653 0.38796526 -0.01579385 0.14905632 -0.52035755 0.20119359 -0.36817217 0.4326651 0.0067088623 -0.11971337 -0.0259082 -0.076808035 -0.19478238 0.25574556 -0.13046157 -0.7801839 0.094959125 -0.46943274 -0.3159836 -0.20192328 0.2259429 -0.005267919 -0.32855642 -0.46125504 -0.13220632 -0.2928092 0.122980274 0.031134576 -0.3000221 -0.24216834 0.62616706 -0.7492373 -0.4958675 -0.95318484 -0.32643235 -0.26480365 0.09718364 -0.14577575 -0.7199743 -0.7943256 -0.10373265 -0.8103224 0.37854177 0.34663868 -0.36877745 -0.39865583 0.049027763
8398:CHISHOLM_CREEK 0.07158537 0.09996591 0.19071177 0.23037797 -0.017489307 0.2420556 -0.3796146 -0.3119804 0.6190083 -0.081092045 -0.3139206 0.19520558 0.7272607 0.09947328 0.6457416 -0.11076429 -0.8630739 -0.85973567 0.27173436 0.046964083 0.28235903 0.19926594 -0.2696371 0.36245626 0.35925445 0.13283971 0.1901342 0.8905411 0.050047558 0.5408655 -0.47596833 -0.27733085 -0.45502397 -0.02147613 -0.36995235 -0.6433211 -0.9599893 -0.22573034 0.14785114 0.33949456 0.17084491 0.13223617 -0.39620253 -0.4150383 0.08346349 0.22473107 0.24616128 -0.65698034 -0.09676433 -0.041855115 0.15846889 -0.21139894 -0.05688309 -0.5153895 0.8579252 -0.43074474 -0.19031979 -0.1219198 -0.16925178 -0.041665796 0.31734997 -0.30858862 0.35223496 -0.488063 -0.28048185 0.16331263 0.029837808 -0.1027853 0.18249054 -0.089279376 -0.33055723 -0.110055536 0.08374332 0.72817427 0.07554045 -0.16796902 -0.3005748 0.56041014 -0.32527173 -0.41288388 -0.07060789 0.57096404 0.28098142 0.13047169 0.21270402 -1.0522982 0.615343 0.18315877 0.67993855 0.25511643 -0.39742342 0.10381815 -0.09033278 -0.33487102 0.6938399 0.19834764 -0.5951751 0.3400129 0.049737405 0.25137675 0.10617339 0.24593917 -0.7034601 -0.5142954 -0.23684159 0.35421896 -0.38914916 0.4753691 -0.057057902 0.098998286 -0.1389205 0.4903714 -0.5251524 -0.69174474 -0.85104287 0.22463018 -0.41962525 0.3401963 0.1350273 -0.48943967 -0.79703504 -0.15810746 -0.8356185 -0.0010802937 0.17459568 -0.14171304 -0.48094842 0.12567268
9117:BARLING -0.023835843 0.06672879 -0.23276444 0.05409154 -0.22077894 -0.29792544 -0.6944784 -0.16954556 0.30613223 -0.10741382 -0.40184072 -0.25482583 0.2560556 0.11232207 0.35940447 -0.40003607 -0.6729032 -0.25719723 -0.17258267 0.2413438 0.274003 0.032399263 0.44705516 0.11483426 0.302454 0.06487786 0.22475287 0.35885704 -0.10989431 0.038455047 -0.5848891 -0.66420144 0.025718588 -0.2248526 0.010881231 0.011016038 -0.16302338 -0.3823644 0.78936905 0.1604212 -0.08624203 -0.076988295 -0.2671144 -0.42214298 -0.058865264 -0.021542285 0.6235728 -0.6114087 -0.34917474 0.117106505 0.063749604 -0.18085116 -0.31551766 -0.37086037 0.060486082 -0.5429412 -0.47890335 -0.23207091 0.30951598 -0.3437636 0.5883525 -0.111414 0.231993 -0.19891202 -0.29079866 0.05464404 0.20522305 0.14515217 0.57036203 -0.77385193 0.11803653 -0.07954294 0.08684989 0.3795362 0.08155335 -0.5853692 0.19661881 0.29582712 -0.46789673 0.11777869 0.08760477 0.41308513 0.121119194 0.4667948 -0.44659412 -0.6476809 0.6542815 0.10541822 0.7483987 0.031744733 -0.22626464 0.20333076 -0.27003086 0.009574424 0.6809694 -0.6217865 -0.33016625 0.25179595 -0.48678884 -0.39479572 0.065745644 0.50863403 -0.35726425 -0.26640412 -0.64121115 0.16497716 -0.10141068 0.6137143 0.08872956 0.3364944 -0.24625328 0.5889347 -0.07363905 -0.5687519 -0.4273619 -0.09652253 0.14886506 0.26456872 -0.38102704 -0.4128979 -0.4083671 -0.040440604 -0.39030293 0.13088566 0.1552587 0.06722704 -0.42660186 0.11832412
8312:BELLE_ISLE_STA 0.22197141 0.08181185 -0.28463253 0.6120673 0.45908824 0.09262131 -0.7271483 0.012923667 1.041518 -0.18779631 -0.396262 0.29608315 0.39974707 -0.09910667 0.3223451 -0.34131217 -0.92358947 -0.1637945 -0.42549038 -0.33680418 0.20488581 -0.16449739 0.8111967 -0.092901684 0.47033927 -0.32454786 -0.14720449 0.47851458 0.060325548 0.44569567 -0.48247337 -0.41442323 -0.465993 -0.24906357 -0.35061383 -0.48689377 -0.31007656 -0.1752995 0.50606245 -0.06336197 -0.4487694 -0.15172414 0.2950513 -0.7767674 -0.16321392 0.14759739 0.18954873 -0.3029678 -0.29267693 -0.027401447 0.17741202 0.19719414 -0.16213019 -0.37152603 0.6215801 -0.6869452 -0.4346499 -0.27823275 0.25598675 -0.390044 0.8859954 0.26035044 0.19944605 -0.63339067 -0.6364366 0.008081375 -0.13099512 0.28076407 0.22494276 -0.28460908 -0.45273867 0.08744948 -0.026694296 0.06412179 0.3881805 -0.5108427 0.14513905 0.3046236 -0.68757015 0.16053078 -0.15683503 0.49086294 0.56810063 0.39666265 0.032475542 -0.44029856 0.88523483 0.1495333 0.082876824 0.442619 -0.50636655 0.06134883 0.8350434 -0.16065106 0.47222695 -0.074775554 -0.54630065 0.18108128 -0.16890545 -0.5195352 0.019412192 0.2964868 -0.43877336 -0.7354879 -0.62273306 0.39025897 -0.3468048 0.546183 -0.14100394 -0.0007216009 0.097371206 0.2843665 -0.041622702 -0.018828182 -0.87902397 0.16986279 0.65330404 0.18679522 -0.069256365 -0.4843973 -0.5933382 0.39817116 -0.5116954 -0.35050315 0.44811434 -0.07471169 -0.6923973 -0.40374628
8621:DRAPER_LAKE -0.083469115 0.13091448 -0.07062647 0.11613357 0.43478122 -0.1050021 -0.60019296 0.13623075 0.30067486 0.07018072 -0.034954336 -0.3669972 0.26457873 -0.22645493 0.7637717 -0.19304657 -0.2182131 -0.4484838 -0.32961217 -0.20483762 0.20246875 -0.16927417 0.8367156 -0.02976955 0.40094987 0.26169252 -0.36835793 0.34673214 0.5291079 0.19483195 -0.67295516 -0.2992477 0.25396538 -0.23794119 -0.7399459 0.052229173 0.13464426 -0.44365302 0.23156843 -0.22734609 0.026450152 -0.043873344 -0.19782488 -0.5255233 -0.35275772 -0.20833346 0.34461448 -0.84264195 -0.19477667 -0.112101234 0.26716843 -0.10145364 -0.07501209 -0.4985291 0.059238307 -0.559538 -0.47987247 0.15072286 0.13642085 -0.44415677 0.48044625 -0.014102922 0.30980134 -0.41089725 -0.54924023 0.21111982 0.41698265 0.22817673 0.63356495 -0.22928044 0.16584933 -0.24045755 -0.45420954 0.12894371 -0.12518847 -0.71657723 0.17145166 0.3320954 -0.24828675 0.31975695 -0.28878233 0.6914783 0.089028776 0.35209763 -0.055194516 -0.4871946 0.6368954 -0.44539368 1.0156869 -0.017017813 -0.801628 -0.2983505 0.4091275 -0.0048213196 0.41221082 -0.42117596 -0.1466193 0.22154999 -0.023441786 -0.115877144 -0.14529578 0.20972045 -0.11041134 -0.47690603 -0.1481489 0.39668825 0.016684277 0.7447338 0.049840126 -0.05980956 -0.23157535 0.16813202 0.18235332 -0.27796847 -0.15948945 -0.47835523 0.390195 -0.006339258 -0.46784 -0.018354591 -0.011592016 -0.03684469 -0.2956597 0.114136465 -0.13781191 -0.60597503 -0.6833536 0.5569753
8708:CEDAR_LANE -0.110943414 0.1980867 0.2967924 0.1513204 0.4493388 0.064209506 -0.5524605 -0.09810113 0.49243554 0.10823997 0.24459144 -0.057888076 0.22515087 -0.065929286 0.5116001 -0.108298264 -0.3646403 -0.47826937 -0.27664468 -0.007705125 0.43525916 0.27857104 0.55448586 -0.15864399 0.4219568 0.30844948 0.056601178 0.51142544 0.21871912 0.42622495 -0.84024805 -0.6040429 -0.017541938 -0.32555023 -0.23132087 -0.045716856 -0.20491807 -0.47823355 0.31096327 -0.24803595 0.14455892 -0.15853699 -0.10408441 -0.67011213 -0.4289136 -0.06316011 0.17683373 -1.0420169 0.010925543 0.07912822 0.16350903 -0.32447964 -0.08955361 -0.61979145 0.040108602 -0.76574105 -0.16287468 -0.07283037 0.30954713 -0.2688259 0.18948232 -0.118543245 0.26307783 -0.5691708 -0.5575873 0.39949533 0.38586992 0.121427596 0.20353192 -0.2856552 -0.051744748 -0.015335875 -0.13826343 -0.10197236 -0.070620544 -0.63745916 -0.052058727 0.6693135 -0.44404405 0.23915978 -0.6644083 0.9431171 0.19653475 0.2570977 -0.20727804 -0.46022165 0.31455624 -0.41560078 0.6777665 0.12507807 -0.5378596 -0.06450849 0.27191877 0.1437406 0.65442306 -0.0038161182 -0.5022057 0.18817157 -0.2960674 -0.27971807 0.12663676 0.02528621 -0.28360638 -0.3896087 0.1903564 0.09130527 0.11270478 0.50454044 -0.16210374 -0.28046924 0.16541807 0.22999644 -0.00834006 -0.5117558 -0.0073676305 0.24304761 0.03670066 -0.023238966 -0.36614633 -0.12199603 -0.4741271 -0.11834987 -0.8303289 -0.3120522 0.072285324 -0.18029536 -0.53782415 0.52143425
9215:CHARLESTON 0.06709508 -0.05947233 0.09958501 -0.18977539 0.19080842 -0.4791483 -0.2102382 0.1446145 -0.15910369 -0.17401245 -0.09544729 -0.29257402 -0.18625861 -0.25163338 0.27881768 -0.22349085 -0.3489537 -0.5140796 -0.47987914 0.22084384 0.23286793 0.4769786 0.6859302 0.26759043 0.33563933 -0.12240339 -0.39514908 0.3303588 0.3630277 0.15125221 -0.32425696 -0.39534155 0.06994743 -0.2316084 0.17416723 0.015328593 0.16469231 -0.45098147 0.44633675 -0.09227718 0.052771512 -0.25485197 -0.10491029 -0.38268414 -0.24775527 -0.0032471346 0.23210771 -0.33334827 -0.39625973 0.10649202 0.25914288 0.15853286 -0.13460512 -0.25331286 0.15551682 -0.41054124 -0.4116797 -0.26557317 0.08550794 -0.7257274 0.3565983 -0.0098757595 0.35512653 -0.3964455 -0.3914154 0.27202898 0.04407734 0.29654634 0.4447869 -0.5659452 -0.008060836 0.122959055 -0.30740777 -0.04998839 0.20854422 -0.7006506 0.23701324 0.32439667 -0.54857486 0.40202546 -0.2604018 0.56273943 -0.04749174 -0.13313334 -0.29383808 -0.59384596 0.7150748 -0.068983704 0.8873163 0.027796818 -0.18022032 0.07472016 0.0013195894 -0.2568132 0.69573313 -0.33212048 -0.43342316 0.2275905 -0.2828153 -0.57917386 0.11742731 0.19997539 0.06537199 -0.33258668 -0.027077861 -0.18439807 -0.345824 0.33917746 0.040534616 -0.14182916 -0.034155928 0.48897344 -0.051964946 -0.7312465 -0.33166516 0.034313064 0.53100747 0.035606753 0.050287906 -0.12377262 -0.65020806 -0.2911644 -0.6807073 0.28275022 0.18453003 0.14713918 -0.5128793 0.14308554
5309:POOLEVILLE -0.07920426 0.3497764 -0.04474821 -0.24360068 0.3042319 0.13242209 -0.35247433 0.13565937 0.1101417 -0.6728933 -0.07898801 -0.12745781 0.4599041 0.16111067 0.25768328 -0.3667184 -0.66030335 -0.558236 -0.34634092 -0.014049914 0.33120674 0.008154896 0.77011704 0.15274869 0.34199652 0.14548163 -0.35503247 0.53220147 0.3840074 0.64840436 -0.34766665 -0.76763546 0.063163094 -0.21997869 0.382464 0.30664262 -0.13326655 -0.3878802 0.51006216 -0.27668148 -0.19477858 -0.26273713 -0.1395999 -0.7589267 -0.32551596 -0.15891777 0.8964529 -0.73835456 -0.37586716 0.04378138 -0.044458766 -0.03357067 -0.31074935 -0.2944987 0.2750352 -0.71820337 -0.45666927 0.059457004 0.07216066 -0.9574888 0.76603043 -0.11655056 -0.09366624 -0.35697263 -0.32863963 0.03391943 0.1888525 0.50665003 0.22483934 -0.6797498 0.40045866 -0.24243614 -0.31255412 0.46258718 -0.18856926 -0.57850885 0.2007173 0.2767046 -0.6522089 0.4416556 -0.08581374 0.5427082 0.15312724 -0.35689467 -0.16323805 -0.24891897 0.42802784 -0.11471834 0.780488 0.3127726 -0.6470721 0.0295432 0.40270746 -0.07952432 0.75531065 -0.6692308 -0.21970542 0.17026556 -0.39995676 -0.53388983 0.19265066 0.23241389 -0.4022599 -0.45365375 -0.8400439 -0.54991055 -0.6465737 0.5116246 -0.14872119 0.21244308 0.1671277 0.36322922 0.10887797 -0.5110661 -0.5719523 -0.31288752 0.70781887 0.4003835 -0.18590707 -0.111312896 -0.4898708 0.40848982 -0.7693081 0.7293377 0.39677626 -0.02554248 -0.49604836 0.2509265
5410:GLASSES 0.33488324 -0.015674574 -0.17677215 0.12578037 0.13699919 0.30238315 -0.62100244 -0.28552994 0.3950163 -0.08995164 -0.22055441 0.005161648 0.31320447 -0.13507834 0.43259865 0.16050659 -0.7555132 -0.35311776 0.21616642 -0.13735506 0.13358699 0.20279926 0.25649646 -0.21158285 0.43797356 0.32954678 0.11860589 0.35801762 0.015367229 0.36167854 -0.63684565 -0.7266788 -0.26670834 -0.41625997 -0.1168782 -0.07165504 -0.36704198 -0.61323786 0.55407643 -0.19301566 0.27763054 -0.23161046 0.07798561 -0.5260314 -0.3836151 0.112072445 0.38832903 -0.4946605 0.059882328 -0.091278054 0.35236102 -0.3414541 -0.5464016 -0.9528764 0.28494075 -0.8237168 -0.47911575 -0.14176056 0.3296994 -0.3301483 0.672068 -0.21928202 0.31108847 -0.48713595 -0.5956382 0.48762566 0.18227817 0.18820673 0.12773298 -0.50394005 -0.2878259 0.13546602 0.069734186 0.13497452 0.14385858 -0.3824411 -0.046327487 0.22870179 -0.14394669 0.32806906 -0.65612894 0.44033587 0.61707145 0.4537429 -0.52721965 -0.16777436 0.37663138 -0.36710548 0.25430176 0.16833505 -0.30511838 -0.10662672 0.20618898 -0.41179192 0.47057438 -0.06550244 -0.32942277 -0.26545864 -0.27277645 -0.08234637 -0.022450518 0.4835433 -0.67712826 -0.21149603 -0.5603489 0.13440414 0.038607206 0.27562255 -0.015964758 0.102601536 -0.04991751 0.70109725 -0.28443453 0.28264055 -0.46283734 0.00072119717 0.14345618 0.085056946 -0.11066254 -0.11824656 -0.40883914 0.09378592 -1.0136548 0.141004 0.20276932 -0.34310406 -0.48925704 -0.23691206
5508:BROWN_OG_AND_E 0.5248243 0.3449106 -0.18720421 -0.20997079 0.50794184 -0.26749724 -0.5637141 -0.043062896 0.36989582 -0.034194596 -0.069731906 -0.08432708 0.008034161 -0.46139482 0.2487026 -0.35984358 -0.5687278 -0.27374798 -0.0023499334 0.3344963 0.1764643 -0.29514787 0.64034843 0.2158734 0.11060781 -0.005667421 0.12138271 0.085230015 0.09517896 0.33647648 -0.4011742 -0.49803588 0.046477713 -0.38663122 -0.21915795 -0.31634775 0.05551121 -0.2097296 0.758695 0.20342666 -0.47857788 0.02897153 -0.07329337 -0.32764333 -0.120351605 0.05145995 0.10373881 -0.5300945 -0.16907503 -0.2693216 0.39619604 0.19122364 -0.20121367 -0.0003825965 0.40373164 -0.34529617 -0.43497175 -0.23850454 0.2704483 -0.692526 0.6119823 -0.0059017334 0.6840547 -0.5479132 -0.46127713 0.045048207 -0.040161625 0.40188342 0.62341994 -0.30177408 -0.0034162963 -0.21708994 -0.046744376 -0.06406564 0.03594897 -0.30302832 0.14571178 0.43846762 -0.20539148 0.14784805 -0.062326856 0.47408494 0.36703214 -0.33692715 -0.14682606 -0.5423943 0.9422517 0.38265315 0.31160253 0.33743435 -0.31204602 0.08406219 -0.055596665 -0.31108773 0.61512125 -0.3276621 -0.5581222 -0.0218661 0.0170006 -0.81548905 0.2106517 0.33942184 -0.5563861 -0.14558262 -0.81255805 0.62915057 -0.558588 0.6040558 0.033824738 -0.33581024 -0.3600031 0.37480727 -0.12958552 -0.33836547 -0.95944434 0.060052462 0.48008287 -0.100319155 -0.28669685 -0.05139423 -0.53045756 0.4879658 -0.6543256 0.082142144 0.17092156 -0.38852113 -0.3384202 0.20821376
4106:HEMLOCK -0.07913653 -0.026517613 -0.108523704 0.12782139 0.010278438 -0.10782673 -1.1477166 -0.13469356 0.70629585 -0.28360447 -0.5106384 0.02600184 0.7627937 -0.5505796 0.6162556 -0.20022549 -0.862662 -0.6452887 -0.46334344 0.0028240755 0.60133475 0.4489167 0.58265555 0.47460985 0.13303857 -0.37412384 -0.48945305 0.66053045 -0.24822898 0.63281405 -0.7941563 -0.55694896 -0.7184168 -0.13853545 0.24968919 0.103291236 -0.9889209 -0.6976671 0.21031371 -0.33170006 -0.4943807 -0.2736234 -0.17473568 -0.76854813 -0.06355992 0.001235455 0.4048965 -0.77037627 -0.58517164 -0.2760517 0.36483404 0.105778895 -0.5331646 -0.3628978 0.42890564 -0.84402084 0.17161985 0.38793293 0.004411997 -0.42849973 0.55805945 0.21325268 -0.38561282 -0.6334606 -0.29128975 0.26730648 0.20715068 0.3371659 0.13628186 -0.4910709 -0.2254152 -0.26094556 0.32718077 0.4531612 -0.0034794717 -0.24616008 -0.074244276 -0.15035497 -0.061425857 -0.030210959 -0.2294362 0.3570166 0.17884415 -0.24903744 0.36254087 -0.53311014 0.41844705 -0.05820666 -0.14351316 0.041004375 -0.3083209 -0.058543716 0.5228522 -0.64398646 0.46162307 -0.5978123 -0.3835693 0.5720919 0.101127565 -0.117676646 0.2630547 0.43019432 -0.1941725 0.0005096829 -0.7186783 -0.15885408 -0.2003761 0.2299379 -0.049219307 0.06238982 -0.37172157 -0.036809802 -0.28264442 -0.4052929 -0.5830917 -0.097845726 0.4523827 0.88123566 -0.30646548 -1.2900062 -0.62115395 0.2582837 -0.096845396 0.3153146 0.42584184 -0.15256566 -0.4361437 -0.012954064
4135:SO_4TH_ST 0.086915895 -0.3308139 0.12941729 -0.42377585 0.16450606 -0.63342357 -1.2341965 -0.07166493 0.61262035 -0.3063392 -0.46286312 0.07041551 0.8550773 -0.67978215 0.7243863 -0.33293504 -0.672665 -0.6448595 -0.4731902 0.026850745 0.3584559 0.1303465 0.4061391 0.09212311 0.13545536 0.19118 -0.16338235 0.91686076 0.092212126 0.6283312 -0.63973945 -0.4330241 0.07346952 -0.055728808 0.0127950385 0.5565358 -0.7783776 0.0024438857 0.4955227 0.015238146 -0.33666012 -0.1379643 0.19230264 -0.6306494 -0.030675545 -0.12425429 0.43454167 -0.59664774 -0.08609856 0.04301994 -0.23795922 -0.07988857 -0.19052958 -0.03432406 0.4169809 -0.8956494 -0.20533842 0.038282424 -0.06124069 0.047533095 0.35368115 0.27428383 0.2433882 -0.67762727 -0.452724 0.46725547 0.6457054 0.4766903 0.26542774 -0.15700981 -0.030965813 0.009513993 0.37211356 -0.11110602 0.20265618 -0.043932695 0.097115055 -0.23193783 -0.08649965 -0.069372706 -0.2567759 0.3446519 0.5916051 -0.45549646 0.58611995 -0.6842545 0.17255332 -0.30854398 -0.3053651 0.22156812 -0.15404846 -0.048657347 0.5424248 -0.7853649 0.6151754 -0.5594277 0.061591744 0.4004279 0.12183233 -0.14877035 0.1587654 0.35572585 -0.3358055 0.36891177 -0.06824869 -0.08822561 -0.044485494 -0.058499437 -0.089215524 0.06787667 -0.55968374 0.12534517 -0.06641034 -0.56398046 -0.460656 -0.22716771 0.13852848 0.7789684 -0.11106555 -0.9538864 -0.46605745 0.26448882 -0.13895477 0.45764688 0.50707775 0.029552165 -0.61655194 -0.24979846
5816:PARK_LANE 0.26995295 -0.25602227 0.6101776 -0.16723032 0.15237719 0.25446996 -1.0251449 -0.14504811 0.92048836 0.0021659296 -0.10743948 0.38266653 0.49958146 -0.278904 0.680206 -0.11642313 -0.6705619 -0.02941628 -0.0468733 0.07155853 0.687169 0.54871047 0.22272983 0.26258984 0.18861106 -0.029989684 0.116471864 0.77305305 -0.27085704 0.7886415 -0.34838754 -0.77446705 -0.27008653 -0.41568464 0.099043235 0.29607135 -0.38573077 -0.078136936 0.44301435 2.0149693e-05 0.057799216 -0.11918749 -0.2863075 -0.6631698 -0.06812261 0.12327631 0.5696552 -0.19725534 -0.51067245 -0.17715316 0.17759278 -0.13534792 -0.31625727 0.2776311 0.20902294 -0.9895957 -0.09346375 0.13698752 -0.018485712 -0.54315984 0.50440925 0.4108979 0.08526167 -0.069717884 -0.64374155 0.27443606 -0.20808151 -0.00956466 -0.034570225 -0.87547284 -0.1366557 -0.11681208 0.014474153 -0.01771343 0.048054736 -0.91215533 0.21480037 0.34215227 0.0053017857 0.33682516 -0.034864195 0.8304747 0.51900107 0.37177205 -0.34499282 -0.6478272 0.08520557 0.101976424 0.61250305 0.2723451 -0.34540713 -0.089954264 0.17213684 -0.3006743 0.5843456 -0.6246342 -0.053436868 -0.3631756 -0.22686136 0.4587508 0.38602123 0.34585312 -0.33793908 0.19294888 -0.15544312 0.61580855 -0.17990422 0.13375016 -0.37241992 0.33709013 -0.07308877 0.14893705 -0.054894257 -0.788697 -0.6918197 -0.009702992 0.3371086 -0.1130471 -0.12402145 -0.18820383 -0.5364732 0.15195644 -0.89108044 0.06908335 0.32401085 -0.38537332 -0.57168484 0.20432666
5806:VALLEY_VIEW 0.3267146 0.8141485 0.18816988 0.1312417 -0.017290603 0.013953908 -0.5929155 0.20225032 0.72255266 -0.4620759 -0.23876722 -0.32646856 0.39963457 -0.33277318 0.061438583 -0.5915907 -0.1465301 -0.27998778 -0.40594944 -0.10972668 -0.085497074 -0.29022676 0.24999796 -0.26439577 0.24830899 0.42408216 0.5299738 0.44514194 0.08697838 0.6365023 -0.8065433 -0.6271079 -0.12611158 0.009929611 0.4443677 -0.47187862 -0.8676361 -0.21547692 0.43261975 0.29614967 -0.05987727 0.23542698 -0.27175525 -0.40309462 -0.49070695 -0.07916307 0.6588155 -1.0007858 0.0061765146 0.29948997 0.019380167 -0.10631954 -0.2181047 -0.6183093 -0.063028425 -0.710685 -0.47421923 -0.24930535 0.35686484 -0.37304348 0.5212946 -0.055038583 -0.04911899 -0.103211574 -0.36365995 0.09210022 0.15976171 0.06916094 0.06404863 -0.5043049 -0.19724841 0.0061266157 -0.12317221 0.1895952 -0.39819038 -0.66361123 -0.14978136 0.69911546 -0.7450256 0.17581974 -0.23608603 0.1874181 0.57045496 0.31281704 -0.18791938 -0.08309399 0.18783373 -0.06843714 0.08424657 -0.04864042 -0.45306945 -0.3689681 0.037328027 0.22145808 0.32327315 -0.51520586 -0.35132527 0.21362576 -0.56315786 -0.37386826 -0.038174544 0.31424353 0.038389444 -0.40727863 -0.35002884 -0.11171688 -0.11533809 0.51995987 -0.06749598 0.20006132 -0.062716365 0.6233447 -0.26351786 -0.2669585 -0.78257346 -0.5658294 0.6637986 0.10366713 -0.30070114 -0.73563683 -0.20957643 0.69074863 -0.32902864 0.24056467 0.42625463 -0.06507863 -0.76304126 0.16800697
3514:HEAVENER -0.40805027 0.12075264 -0.17878225 -0.5015346 -0.4744956 0.11045658 -0.5931458 -0.30022976 0.17753237 0.1964665 -0.2822914 -0.11115027 0.12090499 -0.37259662 0.9098554 -0.4335167 -0.48157987 -0.14287089 -0.2102016 0.35215905 0.48903903 0.30369538 0.25604993 0.3330687 0.7697764 0.12686212 -0.23606667 0.45056394 -0.27797067 0.8025214 -0.6622832 -0.7737288 -0.1650685 -0.50366575 -0.3447262 0.14227866 -0.22927372 -0.5092115 1.0855658 -0.32874405 -0.0656575 0.28519523 -0.11453705 -0.5576217 0.15129921 -0.054659426 0.1417583 -0.58527035 -0.02693953 0.03915476 0.2891602 0.10550522 -0.2623214 -0.5800094 0.5602352 -0.6878417 -0.12298445 0.53935057 0.2670598 -0.191677 0.73838603 0.10016299 0.42527926 -0.09508011 -0.3552957 0.6267172 0.42576918 0.26177093 0.74883676 -1.1199641 -0.2635639 -0.18810338 0.26311165 0.2558486 0.2013983 -0.5923639 0.025874997 0.49691194 0.01860753 0.54324317 -0.2502737 0.7689574 0.33032012 -0.34018695 -0.5051232 -0.16392113 0.23205517 0.34897047 -0.097648494 0.068674475 0.14542389 -0.0542658 0.20650361 0.0015663754 0.6741468 -0.43072903 -0.2295525 -0.09651453 -0.4396188 -0.7118004 -0.09367865 0.18793961 -0.3959168 -0.14490564 -0.85062337 -0.0042534694 -0.070126735 0.57287836 0.094303034 -0.21502414 -0.13218145 0.1779727 -0.21610542 0.15729761 -0.19232856 -0.25444868 0.4204245 0.4407064 -0.7349294 -0.40275517 -0.7387917 0.43220544 -0.89368796 -0.2069212 0.25318566 -0.3759226 -0.5365066 0.2835773
8921:JENSEN_RD 0.25796363 -0.023822611 0.36685422 0.05143586 -0.1621121 0.16145903 -0.449636 -0.032784984 0.26686653 -0.18172882 -0.092658624 -0.347599 0.45281103 0.030237054 0.5099128 -0.36084884 -0.7140651 -0.34905794 0.028907677 0.22469595 0.46238294 0.36818826 0.33654422 0.29808402 0.23243739 -0.20739755 0.33013323 0.58378845 -0.2878042 0.6539769 -0.567783 -0.5755309 -0.19875616 -0.15700045 -0.15436949 -0.12012525 -0.86430556 -0.5898597 -0.014581618 -0.122923106 -0.00488578 0.099479534 -0.6298905 -0.6658701 -0.38536206 -0.04640912 0.2902105 -0.39121032 0.03453366 0.0778123 0.27838475 -0.21711269 -0.27366847 -0.5426899 0.31852424 -0.67982954 -0.30437014 0.037435148 0.23330706 -0.62952816 0.5728173 -0.15598243 0.37071803 -0.568342 -0.5172896 0.39975452 -0.26009768 0.06309573 0.42043254 -0.60933405 -0.19863972 -0.45394978 -0.2926117 0.37952024 0.23435093 -0.86184347 0.26849753 0.3986572 -0.3754872 0.34373793 -0.1915998 0.8407028 0.2337399 -0.23562628 0.09358706 -0.9356851 0.5265458 -0.15567724 0.5841449 -0.20286399 -0.7703579 -0.051999774 0.14051268 -0.12733488 0.5917923 -0.15665868 -0.44140154 0.38190094 -0.023654465 -0.40306565 0.23099022 0.45828983 -0.2130548 0.13735615 -0.3059758 0.048047066 -0.44798437 0.19158532 -0.28122985 -0.049244218 -0.15992278 0.59685403 -0.29583701 -0.7405308 -0.66741204 0.056655698 0.58818 -0.02458966 0.04785074 -0.6519574 -0.5170157 -0.12782109 -1.1014806 -0.034419917 0.45518398 -0.1126522 -0.44834954 0.40051427
4606:CEDAR_AVE -0.0018265842 -0.006662095 0.19250035 0.00029521386 0.011726941 -0.15731055 -0.9417646 -0.0007934657 0.5778402 -0.18346627 -0.30968323 0.034611657 0.83125764 -0.4954331 0.6400612 -0.082785755 -0.5742386 -0.50616944 -0.3305817 0.06430387 0.4016771 0.23511049 0.57972735 0.07007478 0.22665437 -0.12604034 -0.37895966 0.5467685 -0.052933212 0.46883154 -0.60682505 -0.43644807 -0.43406263 0.031194612 -0.10145871 0.009432347 -0.75679904 -0.7204235 0.18780589 -0.19670175 -0.25507733 -0.1920682 -0.0540189 -0.68773365 -0.10896372 -0.052802723 0.3762325 -0.6995554 -0.3230614 -0.01635016 0.3597463 -0.13765436 -0.5506949 -0.39753246 0.34487844 -0.79120374 -0.038373563 0.14430436 0.09762765 -0.3416885 0.5471389 0.22934008 -0.011698538 -0.6563015 -0.31141508 0.25760123 0.29570574 0.28952807 0.3146051 -0.31623632 -0.4184785 -0.22524562 0.04892088 0.43024865 0.1235321 -0.29794738 0.014638041 0.055568416 -0.22626226 -0.025605187 -0.38293576 0.4372226 0.21448798 -0.031683825 0.36589703 -0.5207214 0.4083771 -0.20056435 0.06182517 0.14723915 -0.43126145 -0.14195128 0.27200407 -0.6472172 0.4487411 -0.38318872 -0.3826475 0.18848209 -0.025475182 -0.29261127 0.35604623 0.32393837 -0.2805154 -0.09046207 -0.4818104 -0.1506702 -0.15989634 0.36876374 0.13135356 0.20309922 -0.3918131 0.0679104 -0.29234117 -0.42147276 -0.7291932 -0.1332097 0.45422983 0.5822379 -0.1674773 -0.9120809 -0.5963019 0.37867406 -0.54953694 0.270874 0.2549094 -0.0890056 -0.65936005 0.23551871
8822:WATERLOO -0.5656802 -0.08885707 -0.40743226 -0.09577757 0.22694448 -0.35234234 -0.65894175 -0.08534165 -0.014311606 -0.24816377 -0.162564 -0.27306306 0.34473965 0.10020237 0.9082802 -0.3039869 -0.67187214 -0.6701449 -0.5656817 0.16438752 0.55985373 0.1651938 0.92523086 0.514954 0.7523735 0.21873471 -0.06017439 0.81625485 0.36913696 0.12091335 -0.14425778 -0.7843849 0.17460626 -0.4958419 -0.12091761 -0.08342693 -0.42270833 -0.60696083 0.31841198 -0.44697103 -0.009907188 -0.08828062 -0.23315077 -0.35979304 -0.100995846 -0.19267407 0.78407943 -0.42624193 -0.46826908 -0.21595846 0.5116896 -0.4163315 -0.25884226 -0.2487793 0.27047423 -0.860061 -0.4014594 -0.12924315 0.03488071 -0.4128764 0.55744976 -0.019511206 0.09331897 -0.40240481 -0.6056646 0.23909357 0.45242253 0.50524837 0.08758097 -0.5439151 0.34574172 -0.32553372 -0.34053764 0.68150556 0.32430613 -0.31761128 0.30904344 0.2724891 -0.41081965 -0.018427597 0.19155096 0.31930313 -0.12404967 0.11828729 -0.29880917 -0.11134034 0.464331 -0.13149863 0.593293 0.14794594 -0.3734816 0.29300278 0.23601063 0.087486245 0.5380149 -0.8521084 -0.080808476 0.03920676 -0.23177922 -0.21102007 -0.03458983 0.16217627 -0.2633913 -0.22610527 -0.96952003 -0.44185117 -0.17584069 0.6405611 0.2860391 0.44180116 0.051711705 0.52173334 -0.10413645 -0.5920137 -0.37467575 -0.21235174 0.1304266 0.12785088 -0.13399386 -0.34664193 -0.33752525 -0.10596466 -0.6260366 0.3749168 0.1428091 0.004739748 -0.3003571 -0.0033017253
3209:BIXBY -0.13094161 0.24001071 -0.09368129 -0.4905516 0.018306535 -0.18973784 -0.5215992 0.35875252 0.49491265 0.18097448 -0.2517111 -0.36036697 1.2432437 -0.13591982 0.52425027 -0.21851574 -0.61605793 -0.8925025 -0.1422193 0.3847843 -0.30571002 -0.06607417 0.68820024 -0.16568765 0.33726048 -0.17304717 -0.2875329 0.29692158 -0.32330665 0.46886018 -0.6434861 -0.53525877 -0.33522728 0.11501347 -0.3177723 -0.3685356 -0.13802786 -0.62801754 0.10878905 -0.12739988 -0.0024535072 0.18464169 -0.2970357 -0.5670078 -0.44445884 0.00026111442 0.15698633 -0.5957643 -0.30572486 0.3535991 0.5938628 0.070157 -0.6802863 -0.40066168 -0.026176509 -0.8529775 -0.30644873 0.19741936 0.10884753 -0.65141773 0.2514537 0.102470785 0.38131735 -0.6765772 0.27097368 0.36385527 -0.048595674 0.39378333 0.26628467 -0.49219668 -0.8234974 -0.9445077 -0.1413525 0.025956836 -0.25292256 -0.16203976 0.17868437 -0.12074874 -0.23789245 0.13959576 -0.6256891 0.42256892 -0.028577434 -0.21153514 0.08652797 -0.6338202 -0.37468773 -0.22153544 0.2650381 -0.39544407 -0.7827115 -0.2779179 0.25897855 -0.63532436 -0.1744026 -0.239141 -0.21044292 -0.15680696 0.05643887 -0.3628647 -0.10101133 -0.14926949 -0.05046265 0.0027989058 -0.2884593 -0.01591663 -0.34965998 0.09604903 0.45227864 0.042240985 -0.17503251 -0.3221526 -0.22885878 -0.60480225 -0.06388296 -0.054397356 0.017982846 -0.22952378 0.46268436 -0.1780823 -0.6310569 0.02878092 -0.4313413 0.4630149 0.19399142 -0.3897394 -0.16105747 0.15960446
4353:OTTER -0.3150275 -0.014227991 0.07345252 0.6804751 0.18905774 -0.19092922 -0.29008564 -0.21520786 0.2733514 0.10116719 -0.30443987 -0.058811095 0.36654523 -0.062635176 0.2917972 -0.09260996 -0.15107793 -0.098089814 -0.022222122 0.0074754185 0.41829908 0.28767005 0.10822227 0.45908502 0.5259845 -0.4247358 -0.3307634 -0.08016689 -0.08509556 0.41898814 -0.060421903 0.020161614 -0.6092858 -0.48156267 -0.13539256 -0.27512622 -0.93505776 -0.75704426 0.5301618 -0.73539335 -0.43710637 -0.12737857 -0.38972962 -0.56801903 -0.0041112467 0.5222102 0.62981856 -0.79697126 -0.6107961 -0.1327231 0.8441367 0.26862356 -0.06861647 -0.5982149 0.37909418 -0.65629596 0.47124255 0.6332519 0.24357344 -0.4512633 0.642488 0.6068504 -1.1706785 -0.017185211 -0.014955287 -0.052269496 -0.33304045 0.24913485 0.26945877 -0.35492408 -0.26844153 -0.42994907 0.4142238 0.5277568 -0.0029771999 -0.41182882 -0.013865214 -0.0893385 -0.65231013 0.39433575 -0.2974657 0.18504763 -0.08204859 -0.21247044 0.08469788 -0.30958214 0.60635424 -0.18779473 0.00913828 -0.34667027 -0.47593805 -0.2535144 0.15074518 0.15528558 -0.032503985 0.03451192 -0.43684182 0.073452234 -0.044108704 -0.3759385 0.7118365 0.017630417 -0.16659863 -0.46758094 -0.8015296 -0.37866196 -0.3242742 0.4591805 0.17368884 0.062234446 -0.09164493 0.13849446 -0.2360191 -0.67258847 -0.39769265 -0.02996986 0.26098067 0.38792524 -0.38426828 -0.5787884 -0.4137171 0.22263068 -0.19262108 0.0129890945 0.64210606 -0.090754345 -0.48762935 0.36055422
7706:BRISTOW 0.07414957 0.12910345 0.16271076 -0.4079163 -0.22951227 0.12793066 -0.7676114 0.49678314 0.78069985 -0.12821464 -0.1580305 -0.19518694 0.9156836 -0.23564366 0.5251928 0.089997455 -0.56856 -0.589119 -0.24571782 0.15896298 -0.44333744 0.30408713 0.5738484 -0.41601646 0.2728196 -0.3039588 -0.1264867 0.81264657 0.05075153 0.41281098 -0.7234361 -0.64115953 -0.3074202 -0.2413959 -0.06587965 -0.16202022 -0.049034376 -0.3369291 0.2074637 0.2329245 0.15296829 -0.4401083 -0.33893007 -0.7970662 -0.20928322 -0.18660766 0.13461025 -0.4937636 -0.24865465 0.18009843 -0.1264821 -0.17289563 0.06399956 0.02958762 0.40355018 -0.7252661 -0.35984245 -0.29467738 0.2633954 -0.43609032 0.5444014 0.22224618 0.4516867 -0.3494648 -0.45311978 0.30161652 -0.29464123 0.568441 -0.38518995 -0.28378877 -0.7988772 -1.1764785 -0.090666965 0.48717496 -0.014585087 -0.21657535 0.6413241 0.07125644 -0.4392528 0.30397668 -0.38069025 0.1938691 0.039560743 0.054237373 0.548385 -0.19673671 -0.02434724 -0.32394737 0.25010008 0.257423 -0.41541898 -0.14230537 0.054128848 -0.35668987 0.27044266 -0.54917234 -0.034346107 -0.30145356 0.010134528 -0.14084585 0.34922975 0.07345089 -0.17945096 -0.34044656 -0.20427519 -0.37123588 -0.1276999 0.6073725 0.15849128 -0.32992086 -0.25682047 -0.43878755 -0.4415908 -0.42459887 0.041097615 -0.27915707 -0.2779334 0.32109654 -0.20253839 -0.7989065 -0.59290725 0.6779411 -0.6246873 0.36430442 0.3808766 -0.23210585 -0.20686723 -0.021244816
3214:LONE_STAR 0.06749494 0.27002862 -0.016184067 -0.5639696 -0.22857389 0.097867556 -0.5425746 0.6178674 0.2585565 -0.16741444 -0.16128106 -0.2905463 0.97070676 -0.10587634 0.6039425 -0.1753174 -0.33294374 -0.58421946 -0.281287 0.59066266 -0.110884406 0.1873884 0.35594285 0.06803756 0.53885853 -0.45054135 0.17121205 0.54417 0.35171103 0.7401478 -0.2766727 -0.669372 -0.43920505 -0.2174959 -0.3273883 -0.41230714 -0.07162001 -0.11741559 0.118327364 0.07236199 -0.0031559216 -0.13839576 0.17754684 -0.27122763 0.012591482 0.43057168 0.54018116 -0.8183753 -0.30932394 -0.0026755256 0.7364092 -0.26771745 -0.23502274 -0.45159572 0.9076458 -0.9782266 0.34679997 -0.0695588 0.5809311 -0.96891963 0.702419 0.033585116 -0.0056269914 -0.7855555 -0.17348099 -0.094026044 -0.37023064 0.8302851 -0.2310625 -0.8176169 -0.14877498 -0.79089326 -0.24378844 0.24835671 -0.2996994 -0.25052446 0.49318284 0.23724145 -0.6925388 0.65535897 -0.43522552 0.23158298 -0.0863471 -0.35560665 0.6721988 -0.27651483 0.20672528 -0.18671982 0.0022040256 0.38039196 -0.4942048 -0.1300325 0.027821567 -0.16177543 0.45369804 -0.57682776 -0.38633102 -0.21227212 -0.186595 -0.77931744 0.5186385 0.0034454665 -0.31058207 -0.19495535 -0.41982153 -0.08269228 -0.3269547 0.5139916 -0.041827902 0.01585537 -0.45116997 0.17863642 -0.15872179 -0.44328597 -0.40271407 -0.604011 0.13898516 -0.034957062 -0.2611637 -0.8097693 -0.5073677 0.650152 -0.60726315 0.58606565 0.34671494 -0.56202686 -0.17314701 0.1751813
4112:CHESTNUT 0.047067367 -0.040803168 0.15000238 -0.012680632 -0.10980132 -0.18128482 -0.7785079 -0.21619162 0.5346683 -0.26962468 -0.316695 0.12604077 0.6645492 -0.457425 0.6430253 -0.13705602 -0.6992343 -0.47083768 -0.33036533 -0.042655643 0.4318178 0.33861816 0.4417444 0.2340658 0.113061115 -0.43518826 -0.3845965 0.53887784 -0.20395456 0.58328795 -0.60679907 -0.39034337 -0.4529929 -0.08040517 0.036047406 -0.14293993 -0.5303547 -0.77657396 0.22336513 -0.19262907 -0.42315155 -0.30632916 -0.2560599 -0.7553073 -0.035966843 -0.25486872 0.43101764 -0.6972207 -0.39605916 -0.19866836 0.19725809 -0.09925911 -0.54206157 -0.19971865 0.3950702 -0.43804026 -0.030068481 0.3858827 -0.10536448 -0.353183 0.4570779 0.108096465 -0.15166998 -0.5764927 -0.15645032 0.23871514 0.25649202 0.20211843 0.033820007 -0.4830963 -0.28353965 -0.19138496 0.18766409 0.36807376 0.16548188 -0.22990957 -0.012455017 0.057013795 -0.09610274 -0.0015100653 -0.307906 0.25836587 0.1564078 -0.11742692 0.2149241 -0.32501498 0.49065977 -0.09650108 -0.045686748 -0.044249613 -0.08439605 -0.1250925 0.349498 -0.63787895 0.56600547 -0.41166547 -0.5155264 0.3712197 0.1767968 -0.20068362 0.052938655 0.2988666 -0.14809492 -0.013594053 -0.73221534 -0.027964793 -0.32489836 0.46077794 0.06571273 0.23942883 -0.47184354 -0.11537835 -0.3924557 -0.21384859 -0.5159676 -0.16873732 0.36932173 0.9385662 -0.23684905 -1.2199868 -0.5562783 0.39520985 -0.31246126 0.21191753 0.4027451 -0.10658653 -0.31767085 0.13598295
4109:WAUKOMIS -0.22394767 -0.14963324 0.19991513 0.6099959 -0.33547065 -0.11767283 -0.658341 -0.05528982 0.41024846 -0.25230306 -0.6566301 0.3421544 0.6304476 -0.41531757 0.20433486 0.07229251 -0.75403714 -0.43009284 -0.34418696 -0.019275567 0.6744336 0.52745116 0.74188346 0.2688953 0.09138346 -0.45004413 -0.45486712 0.30643854 -0.41369054 0.23320994 -0.6487681 -0.1343542 -0.5730191 -0.008505575 0.024239596 -0.2837885 -0.68865234 -0.5751933 -0.10607107 -0.44560808 -0.14704306 0.074352495 -0.11053318 -0.5937064 -0.12296046 0.06419468 0.4693731 -0.7827234 -0.3835223 -0.18462954 0.5877194 0.07309462 -0.460357 -0.2731187 0.44184116 -0.5303503 0.03386962 0.42240378 0.13131471 -0.26392657 0.59350824 0.20724331 -0.40343967 -0.4257571 -0.16004406 0.4212589 0.09131512 0.33581033 0.021962699 -0.22958396 -0.17290343 -0.21555439 0.2743917 0.54958665 -0.011298472 -0.24756844 -0.4271427 -0.109381825 0.034728672 -0.19772702 -0.032553308 0.5346234 -0.017003184 -0.23328319 0.46531847 -0.82013404 0.30431637 0.07020462 0.053264692 -0.021916334 -0.3355407 0.08600662 0.5897745 -0.8901214 0.44902158 -0.39574218 -0.20624146 0.42600107 0.28077483 -0.18487331 0.09445484 0.3450156 0.04621055 -0.10248694 -0.35530296 -0.102982596 -0.16255073 0.35177103 0.18519643 0.19601771 -0.056515716 -0.07598013 -0.35761628 -0.3234997 -0.7962432 -0.25867116 0.47224194 0.4583386 -0.29328334 -0.96222967 -0.5822278 0.3383079 -0.19553408 0.06549144 0.3701938 -0.06951185 -0.53889513 0.1455034
7306:FIXICO -0.15672857 -0.00096115016 0.23349877 -0.15345107 -0.053737387 0.10548948 -0.67307764 -0.03150259 0.5621314 -0.111142665 -0.272022 -0.07410732 0.86620224 -0.5139144 0.38039526 -0.05421567 -0.5429831 -0.54641163 -0.3409263 0.3565295 0.2137024 -0.2141415 0.5019635 0.14203657 0.20195177 -0.07377276 -0.23838484 0.4229564 -0.03304518 0.6736298 -0.7131368 -0.49680212 -0.32303163 -0.10508521 -0.19162463 -0.449546 -0.48695365 -0.47146496 0.45358363 -0.054872714 0.034044404 -0.18115254 -0.19012634 -0.5914408 -0.27143216 0.022006571 0.4101334 -0.9072148 -0.074654214 -0.045744155 0.19896476 -0.20573002 -0.35890052 -0.43352357 0.3575864 -0.70016104 -0.07228271 0.036955494 0.2077992 -0.32559934 0.4776827 0.29233623 0.28911912 -0.46863332 -0.34947366 0.3387195 0.07101335 0.34748667 0.2961465 -0.5581077 -0.40181372 -0.18090498 0.12595233 0.42039168 -0.035834916 -0.45531273 0.123707004 0.29204208 -0.1949739 0.3629011 -0.20352674 0.5866752 0.19432534 -0.021196349 0.27594483 -0.3068172 0.17475604 -0.09540302 0.027455473 -0.042769555 -0.19879791 0.074296474 0.22545053 -0.46673188 0.024740262 -0.3575931 -0.1340984 0.13037881 -0.014070933 -0.28239992 0.36744374 0.2383211 -0.22899196 0.025885614 -0.48739058 -0.066863954 -0.10719974 0.3608745 0.14027822 0.395411 -0.3287165 0.10936652 -0.20178272 -0.19743972 -0.425691 -0.22978327 0.2246758 0.058057968 -0.0020256136 -0.60970336 -0.59153014 0.22381748 -0.39538345 0.14109233 0.09052007 -0.15085204 -0.39712188 0.19647323
5619:RUSH_CREEK 0.14541374 0.031493623 0.2824334 -0.22558324 -0.04456541 -0.5243188 -0.39122626 -0.4125713 0.7641861 0.10110164 -0.88330466 -0.13322116 0.34895325 -0.20274664 0.12190704 -0.6823418 -0.0062857955 -0.82558036 -0.45431843 0.28164104 0.5216451 0.19212267 0.14215294 0.047901228 0.14803061 -0.45468965 0.08012015 0.9068899 -0.62400675 0.9366865 -0.7458188 -0.16018194 -0.35089898 -0.21808705 0.01821067 -0.603574 -0.56824917 -1.0104921 0.41395122 0.035025354 -0.51209474 -0.536574 0.3482133 -0.5253677 -0.51159984 -0.16488592 0.024876088 -1.2870587 0.21583967 -0.31266224 0.45531645 -0.058958903 -0.29415777 -0.13985677 0.16602327 -0.8131385 -0.16637269 -0.57014084 0.11745921 -0.42357427 0.56593806 0.30021876 -0.07689205 -0.49891013 -0.83997077 0.40156335 0.12947398 0.30042502 0.40303952 -0.8616241 -0.5590439 -0.04002017 -0.08511185 0.35646236 -0.24460983 -0.47169578 -0.015653277 -0.3292036 -0.18187112 0.20953912 -0.2696314 0.87368673 0.12692562 -0.065325364 0.21956216 -0.374155 0.57028717 0.03615316 0.24111816 -0.19023742 -0.27111718 0.27338323 0.20902489 -0.8380083 0.44396845 -0.10718056 -0.12965715 -0.0419844 0.40831575 -0.6584592 0.97606635 0.55708045 -0.16210552 -0.2489004 -0.54127866 0.34575477 -0.04471097 0.9955398 0.57218903 0.87726563 -0.63424283 0.17078814 -0.55945426 0.16346194 -1.0828214 -0.17679363 0.5758935 0.3938427 -0.24554485 -0.51451397 -0.64951986 0.8621859 -0.6271212 0.24747531 0.033267435 -0.5004914 -0.80733114 0.033658676
7312:JUMPER_CREEK -0.12788378 0.01055329 0.3515521 -0.06288049 -0.019191373 0.055127513 -0.66075915 0.044817936 0.45074055 -0.021038583 -0.2618319 -0.10057408 0.8130159 -0.54268014 0.3117957 0.07097217 -0.51464707 -0.49053442 -0.35354352 0.28384224 0.321079 -0.2598534 0.41277307 0.23805164 0.27060056 -0.056952763 -0.27657396 0.35495737 -0.16552041 0.6833672 -0.77636486 -0.52574223 -0.2577534 -0.041762687 -0.30726102 -0.5520885 -0.42763045 -0.52790785 0.44365978 -0.07770704 0.103417285 -0.22302474 -0.101061985 -0.40247867 -0.3099742 -0.10439846 0.35975438 -0.7802382 -0.18947615 -0.022584196 0.2182848 -0.1240687 -0.2599711 -0.2555504 0.30017415 -0.6164789 0.008843354 0.079376884 0.271386 -0.28890482 0.48813185 0.25958794 0.42111427 -0.47516736 -0.46394876 0.4643787 0.10296181 0.50727534 0.2557421 -0.5614124 -0.26478687 -0.118481085 0.24744374 0.47864288 0.019663945 -0.42504486 -0.034762193 0.2606295 -0.15578075 0.43652636 -0.092833966 0.509828 0.07658032 -0.015170642 0.17222998 -0.23957391 0.26662585 -0.21481907 0.023528224 0.02313384 -0.2593049 0.20746394 0.2292153 -0.50274545 0.05389626 -0.38802707 -0.18472579 0.06621787 -0.09487992 -0.22451521 0.4065914 0.24339426 -0.2303895 -0.07841179 -0.40950707 -0.006980832 -0.081341766 0.33782074 0.0024119765 0.5164197 -0.3628692 0.19219208 -0.23671369 -0.21376413 -0.5392555 -0.12572038 0.28922266 0.1392725 -0.023106262 -0.47070602 -0.58529454 0.16118546 -0.48598015 0.17218308 0.21011084 -0.17662556 -0.49620026 0.13045669
3205:SAPULPA -0.07587283 0.14993776 0.120385945 -0.21205181 -0.14461714 0.2786009 -0.6093842 0.08789677 0.6931995 -0.3604842 -0.3215234 -0.35867307 1.1474807 -0.18061109 0.5814889 -0.35823396 -0.48908225 0.050601523 0.15762024 -0.040465456 0.055365704 0.12449043 0.42181516 -0.16320796 0.19472899 -0.16345736 -0.23960988 0.4983321 0.28025162 0.6324457 -0.3205884 -0.5700408 -0.47973764 -0.12482499 -0.29877818 -0.2688926 -0.38368177 -0.60600376 0.24651572 -0.009603266 -0.07478115 0.23909722 -0.11945945 -0.85740507 -0.29083923 0.15576251 0.64508057 -1.3662934 -0.31123704 0.09807417 0.46334362 -0.3371075 -0.28800407 -0.5002614 0.54617375 -0.76103973 -0.128998 0.17467736 -0.034187008 -0.68777466 0.58814096 0.0833113 -0.2218742 -0.37875685 0.32131115 0.2876474 0.23578689 0.34511173 0.40324295 -0.57498723 -0.95719373 -0.9321603 -0.39867648 0.4142992 0.10810406 -0.14418095 0.4000281 0.75968003 -0.17302875 -0.11531064 -0.3564068 0.4624467 -0.16420487 -0.007525327 0.70751816 0.0151870875 -0.24738282 -0.510283 0.22874342 -0.1295973 -0.43602028 0.16029419 -0.102510415 -0.3100797 0.08264764 -0.37752864 -0.19693469 0.04862551 -0.4422321 -0.4669689 0.31634238 -0.015809486 -0.28890955 -0.6361676 -0.10215304 -0.4154127 -0.25442308 0.22478895 0.7132547 0.043157205 -0.1450377 0.0042513087 -0.1347335 -0.28945056 -0.31508657 0.021692777 0.07139213 0.032914344 -0.14829236 -0.4195699 -0.68827397 0.47871315 -0.77125674 0.379171 0.03866366 -0.30364048 -0.10307382 0.095653914
3220:KELLYVILLE -0.46263763 -0.16255774 0.15446112 -0.54890287 0.2370259 -0.1284872 0.09577675 0.14136273 0.24986202 -0.22569683 -0.1643101 -0.39642975 0.9415747 -0.13827059 0.6089595 -0.4964857 -0.6424948 -0.82583815 -0.30009413 0.260908 -0.16235776 -0.060591295 0.26741835 0.09402858 0.18581858 -0.28630123 -0.44453418 0.45801845 0.07275814 1.0250713 -0.70582867 -0.28308278 0.17973007 -0.21993378 -0.20127572 -0.39128843 -0.521441 -0.62941927 0.23772945 -0.38097778 0.20162168 0.37549824 -0.42726743 -0.6738902 -0.049360763 0.11115531 0.37935904 -0.7451114 -0.025525942 -0.28422385 0.9532055 -0.09081819 -0.4948959 -0.5940692 0.4167627 -0.9857008 -0.428549 -0.11180463 0.22745912 -0.37323222 0.42787784 0.26030123 0.33873338 -0.60643345 -0.45456842 0.29024112 -0.26651606 0.394154 0.0076299994 -0.5770896 -0.47219777 -0.5173753 -0.101559915 0.48743415 -0.16035347 -0.08839411 0.2887797 -0.28676468 -0.45574674 0.33208656 -0.25908276 0.4168311 -0.0137697775 -0.323162 0.35523647 -0.45376953 -0.17857473 -0.38102219 0.047291245 0.20137261 -0.38331544 0.5806918 0.122939415 -0.42663062 0.27328095 -0.79084074 -0.4734597 -0.023753565 -0.17947885 -0.82353514 0.37262496 0.20559783 -0.3818302 -0.41634858 -0.37568712 -0.30074108 -0.27935508 0.29946244 0.39312184 0.3674633 -0.0029923972 -0.21989569 -0.26765886 -0.48093137 -0.37921384 -0.72092795 -0.009918654 0.16843203 -0.0037898489 -0.47753328 -0.5116461 0.24830626 -0.38421634 0.5765881 -0.19559038 0.015063686 -0.0041312547 0.20977312
8519:NE_10TH_ST 0.26867884 0.5196458 0.6120522 0.022926897 0.15472327 0.1655979 -0.923171 0.43560153 0.23708636 -0.40890968 0.1367401 -0.3679545 0.7511304 -0.45201734 0.27823007 0.24349299 -0.43461928 -0.3684888 -0.09075127 0.20077257 0.18023372 0.7901127 0.4440749 -0.19502397 0.45671588 0.0425624 -0.23432632 0.23946501 -0.40629476 0.15001948 -0.6360904 -0.3540718 0.15497352 -0.31949332 0.5371026 0.23681135 0.0150148785 -0.79836607 0.4277702 -0.31146982 0.23476383 -0.31324765 0.25211462 -0.4921458 -0.02330517 -0.27759174 0.5948722 -0.7770802 -0.5410109 0.11447988 -0.002977726 -0.46430865 -0.860556 -0.45372182 -0.27150872 -0.6756743 -0.035623554 0.31957057 0.17885685 -0.4620517 0.42082617 -0.28782147 -0.0040860744 -0.2539898 -0.44023338 0.4474982 0.117466874 0.28736848 0.41345996 -0.4702109 0.14183186 -0.40216717 -0.3323616 -0.073762 -0.10498683 -1.0457187 0.36130038 0.19334516 -0.16715106 0.20037147 -0.081040196 0.15735632 -0.0054160696 0.12915197 -0.38317162 -0.5738396 0.66724324 -0.19567016 1.0298539 0.12935527 -0.769851 -0.11833608 -0.050972357 -0.49136627 0.8522382 -0.5751113 -0.35161242 0.13692135 -0.056932658 -0.36256278 0.0075991116 0.26031736 -0.5168937 0.3783416 -0.284143 0.21878485 0.1804911 0.5281098 0.2555141 0.402927 -0.59150267 0.044301014 -0.097168155 -0.5416945 -0.59334546 -0.2828506 0.6763189 0.13749751 -0.24625506 -0.54485786 -0.46403614 0.285034 -0.32196322 0.52126455 -0.26661736 -0.35973108 -0.8775607 0.6392584
3210:HICKORY_HILL -0.2485103 -0.11067848 0.13523081 -0.10821139 -0.39216092 -0.32843405 -0.59336925 0.06745897 0.69262236 -0.47222406 -0.2570297 0.0834605 1.1883452 0.2062129 0.6240678 -0.105469674 -0.41452262 -0.5472717 -0.42373544 0.4004565 -0.24485421 0.13653675 0.20915705 -0.5100652 0.32214087 -0.34101585 -0.41906613 0.56302094 0.008822922 0.6049239 -0.26028776 -0.19875571 -0.18050146 0.07544144 0.16071086 -0.12445633 -0.15791544 -0.6321797 0.5328371 0.15696876 0.36674735 0.010144417 0.16918965 -0.48998773 -0.2624538 -0.07709717 0.32482237 -0.6643248 0.034230504 0.096882656 0.15898198 -0.564798 -0.06708508 -0.45347068 0.31756145 -0.86114407 -0.5780812 0.007860784 0.18858846 -0.22194473 0.40449896 0.3022697 -0.081475705 -0.4931175 -0.30219766 0.61196965 -0.23971385 0.7518212 0.15958583 -0.4357386 -0.40614972 -0.80403465 -0.04541912 -0.04032085 0.32790104 -0.36848137 0.6001746 0.16592525 -0.5210026 0.18015763 -0.27504006 0.1617058 0.32805634 0.07762086 0.088498786 -0.20820385 -0.39414027 -0.3279076 0.0746853 0.10831365 -0.6555706 0.0057935356 0.08134136 -0.5087877 0.27214244 -0.64408726 -0.21258755 -0.29104924 0.3199464 -0.6969448 0.032160543 0.22774068 -0.616364 -0.30812496 -0.35651875 0.10534044 -0.43628106 0.16650943 0.36365348 0.14422894 0.006512603 -0.114192344 -0.27234292 -0.38577285 -0.17467394 -0.4120627 -0.20691183 -0.0059689707 0.28459293 -0.96179724 -0.60280657 0.6103092 -0.91593915 0.0900191 -0.08947175 0.07457513 -0.5632935 -0.0824767
3110:RIVERSIDE 0.29041162 0.3220543 0.0066145947 -0.5782535 0.14824452 -0.15967786 -0.48475724 -0.23318563 0.4906091 -0.06634571 -0.14471476 -0.29117697 0.74452347 -0.1261287 0.703899 0.031718627 -0.5293167 -0.6079027 -0.46356538 0.09034445 0.030215481 0.28986445 0.6140307 0.37194645 -0.33528292 -0.24171229 -0.06145499 -0.28515407 0.14575967 1.0150863 -0.6705099 -0.8856111 -0.41586843 0.1498148 -0.6104407 0.023851397 -0.7003971 -0.36997205 1.2775856 -0.02410817 0.2182075 -0.024753124 0.13365906 -0.7462603 -0.40806684 -0.16807605 0.6431031 -0.57908857 -0.07612653 0.04403247 0.2804457 -0.9149434 -0.90298927 -0.3880944 0.20718344 -0.53071964 -0.09925023 0.039438464 0.18243794 -0.39627427 0.08659906 0.08655807 -0.008402195 -0.72962457 -0.27938136 0.5470569 0.033427354 0.21752092 0.44245794 -0.721797 0.26632404 0.22227024 -0.07076992 0.36192605 0.34525558 -1.0156565 -0.05438827 0.26137564 -0.44322738 0.4265438 -0.5359937 1.1710304 0.503788 0.03742441 -0.10562463 -0.4606358 -0.056765 0.02930829 0.3421949 0.42741546 -0.8560365 -0.14231735 0.4306196 -0.34444684 0.98875207 -0.1902477 -0.70784044 0.5577363 -0.2377624 -0.65325093 -0.114156045 0.5125018 -0.36139238 -0.29754663 -0.33781546 -0.1354618 -0.27642566 0.47750047 -0.011907726 -0.22887953 -0.510134 0.5589361 -0.43669155 -0.16750601 -0.33741555 -0.052046426 0.4972064 -0.32590422 0.004762666 -0.45431468 -0.6713846 0.23528457 -0.9250721 0.67928076 0.48184222 -0.63565946 -1.0454084 0.64303476
4119:GLENWOOD -0.07723418 -0.04070343 -0.050678726 -0.11182278 -0.5457594 0.07674294 -0.26196367 -0.029950868 0.5896386 -0.73954755 -0.48602632 0.16752358 0.46251625 -0.39638698 0.4848024 0.3390221 -0.96128935 -0.57567436 -0.49355495 -0.063299 0.57046044 0.57863325 0.76555306 0.18975075 -0.086533085 -0.5799499 -0.44474158 0.5969081 -0.45422807 0.4204893 -0.7635457 -0.40561968 -0.6855203 0.26692885 0.020318894 -0.30501765 -0.44449896 -0.7202842 -0.24729037 -0.08479376 -0.0052878773 0.06942781 -0.21622087 -0.5554874 -0.13442288 -0.5858453 -0.019095413 -0.55284214 -0.14949201 -0.31521493 0.6081429 -0.029457156 -0.64572614 -0.25666013 0.18021859 0.040911824 -0.29109177 0.36983997 -0.5050253 -0.08306571 0.030561456 -0.16813827 0.3755259 -1.0170298 -0.31796604 0.11189865 0.27322948 0.28763616 0.25507575 -0.40535292 -0.34674808 -0.17478809 -0.10097549 0.33792537 -0.101700686 -0.26307225 -0.0926182 0.08120544 0.21669857 -0.27115798 0.18393312 0.25039545 -0.14417495 0.14444691 -0.07285654 -0.19905928 0.47672814 0.2904487 0.024155108 0.16193981 -0.04564327 0.020430913 0.30654383 -0.9706752 0.44160864 -0.5369297 -0.31839067 0.415886 0.031634487 -0.5260298 -0.23206952 0.43832567 -0.29127738 -0.309152 -0.69519943 0.3258793 -0.024342159 0.5191607 -0.1413023 0.045240026 -0.05383873 -0.14279793 -0.61734545 0.16842076 -0.7226998 -0.25852612 0.4545398 0.5620125 -0.1967777 -1.2480667 -0.6253987 0.45257744 -0.67026055 0.36748537 -0.17110658 -0.022072352 -0.23556422 0.21600266
7505:WEWOKA -0.116902545 -0.046217088 0.28538337 -0.17330548 -0.023561632 0.15203315 -0.51997876 -0.034518905 0.49998653 -0.0410999 -0.28735587 -0.0010305686 0.7752581 -0.42000145 0.40048108 -0.03394668 -0.4934928 -0.5462004 -0.37647435 0.31296906 0.29998577 -0.1500032 0.43726838 0.25852758 0.31892306 -0.053439695 -0.2510068 0.42295307 -0.09142781 0.6782275 -0.63911885 -0.49853873 -0.23905171 0.00070048193 -0.14336908 -0.48100245 -0.42663708 -0.54410946 0.39825624 0.0045756213 0.12658201 -0.20830306 -0.21751043 -0.29241082 -0.38867941 -0.021269903 0.3694695 -0.73415416 -0.067286894 0.0011299237 0.12248549 -0.15250573 -0.2997085 -0.28492114 0.30933127 -0.5515023 0.16942243 0.17062663 0.2198857 -0.31665394 0.38968834 0.28775018 0.2938445 -0.3726656 -0.34102213 0.39168087 0.10921615 0.36737448 0.22121945 -0.5320815 -0.36508772 -0.20751724 0.11974922 0.34113055 -0.035340022 -0.32604754 0.07943917 0.19506744 -0.2133747 0.2819851 -0.2584207 0.56948376 0.18995151 -0.06292144 0.2860756 -0.24544466 0.20087433 -0.1679264 0.030034373 0.031400483 -0.2358746 -0.05920592 0.22765195 -0.5364169 0.09224034 -0.32537684 -0.26517984 0.025661344 -0.028522773 -0.27225804 0.4277509 0.17134006 -0.20179491 -0.04614617 -0.45383447 -0.063321754 -0.19049262 0.2447507 0.09119925 0.29959944 -0.36076027 0.16461158 -0.27474463 -0.2881236 -0.48835304 -0.09382071 0.23168282 0.1533084 -0.036456533 -0.5395031 -0.5543939 0.25103867 -0.4823374 0.1389792 0.27492675 -0.09440576 -0.5071833 0.1084601
3216:BEELINE 0.16566625 -0.098314695 0.00444434 -0.28000274 -0.26331538 0.19613567 -0.82893795 0.10673668 0.7735138 -0.39762655 -0.31115434 -0.33634174 1.0154322 -0.43525946 0.1710782 0.0030407594 -0.56267226 -0.046032894 -0.008636056 0.39873546 -0.1410694 0.377462 0.32619676 -0.40029436 0.44347924 -0.49106523 -0.119795084 0.3505439 0.36732426 0.21195522 -0.38722393 -0.1719933 -0.4753587 -0.17809606 -0.5992416 0.013477232 -0.016452316 -0.011763174 0.10934369 0.39295298 0.4814781 0.107983604 -0.4201359 -0.58558935 -0.38520747 0.16402791 0.08311854 -0.90631217 -0.21359524 -0.000656285 0.3319237 -0.4841751 -0.39924473 0.09005629 0.4244619 -0.5617753 -0.1789309 -0.39230955 -0.014788169 -0.8879809 0.68181807 0.19034782 0.31773293 -0.21708529 -0.3193864 0.26082325 0.15725361 0.56158936 0.2710844 -0.60025156 -0.6975854 -0.8087505 -0.2653614 0.25695243 0.073207 0.11989881 0.39081955 0.19617753 -0.40565968 -0.08572588 -0.4283691 -0.10755914 0.21730493 -0.43660954 0.29778346 -0.51507854 0.15839477 -0.10460939 0.22532482 0.30526677 -0.63089776 -0.422741 -0.29157934 -0.46553203 0.50480616 -0.4573483 0.198948 0.12709652 -0.03753721 -0.28258437 0.9862424 0.032456536 -0.28226256 -0.74758834 -0.4156906 -0.043836232 -0.20032068 0.24018265 0.29781464 0.28789935 -0.25330737 -0.21409716 0.26179305 -0.81965756 -0.29609892 -0.36284733 -0.14821365 -0.1723326 -0.27754816 -0.84900564 -0.46071497 0.3264819 -0.58507794 0.80380577 0.4795434 0.04255667 -0.42099395 0.34964067
3312:CHECOTAH 0.31101793 0.74647933 0.54225373 -0.24852689 0.20885333 -1.003361 -0.34341848 -0.50882506 0.36342338 0.3498699 -0.07776745 -0.61933094 0.9745002 -0.08962937 0.89549065 0.30490172 -0.63822263 0.013515134 0.07627797 0.1554115 0.10717299 -0.20621641 0.52014995 0.6254548 0.7158085 -0.11748266 -0.11568241 0.2368761 -0.30791932 1.4124352 -0.12917335 -0.43025482 -0.35503137 -0.11499521 -0.3383036 -0.6282434 -0.43775278 -0.23622924 0.6169681 -0.17087364 0.15659884 -0.13700768 0.069470756 -0.6118961 -0.3775462 0.16270126 0.6163799 -0.5399671 0.51702875 -0.419417 0.38547042 -0.5613333 0.06578473 -0.8257967 0.3219674 -0.52202106 -0.22922905 0.98464864 0.33972907 -0.49881294 0.22557724 0.22629264 -0.43437272 -0.8298533 0.46034616 -0.14607757 -0.0023192144 -0.5234763 0.011520677 -0.8931636 -0.30236033 -0.31801546 -0.3646516 0.4141439 0.45212454 -0.87184656 0.2585081 0.17836878 -0.75238234 0.618464 -0.8152761 0.29910523 0.0033291907 0.6264117 -0.25877467 -0.098879635 0.82958555 0.16439337 -0.18268386 0.62276435 -0.30363315 -0.42407188 0.22597262 -0.16074754 0.15357329 -0.7386401 -0.48372516 0.5417696 -0.8245839 0.015652737 0.42768914 -0.5596008 0.37604636 0.25156537 -0.18783101 0.09684291 -0.289837 0.32810774 0.11484383 0.4290376 -0.10893293 -0.47648573 -0.14312015 -0.06526339 -0.6402096 -0.23731504 -0.73541737 -0.21119158 -0.05592718 -0.6504892 -0.92906594 0.27335334 -0.29865608 0.17583781 0.07509508 -0.32338262 -0.13518646 0.4732467
4107:CLEVELAND_AVE -0.06417098 -0.21226862 0.23407593 0.074243516 -0.3108487 -0.26324055 -0.812826 -0.08760329 0.56438005 -0.5023929 -0.5985641 0.13407585 0.7092143 -0.5536415 0.41344693 0.056321748 -0.73717296 -0.5989052 -0.50647956 0.04034006 0.6025945 0.4432418 0.5908206 0.25150788 1.6526956e-06 -0.42333174 -0.54017043 0.69099253 -0.4649597 0.47029883 -0.745925 -0.30929428 -0.6228667 0.10691365 0.0140142925 -0.05161642 -0.87677234 -0.6049099 -0.056999646 -0.18503167 -0.32662868 -0.0940074 -0.15585881 -0.74546957 -0.03861868 -0.27764133 0.39400768 -0.74151975 -0.37027457 -0.18807702 0.36569136 0.042632192 -0.4408044 -0.32547867 0.5198706 -0.51367205 0.010420756 0.3483083 -0.08458952 -0.23092484 0.47398344 0.2837241 -0.1024752 -0.7318325 -0.2548311 0.336965 0.25921822 0.43681806 0.049203373 -0.33115116 -0.22957237 -0.25168467 0.4011895 0.36109236 0.012763509 -0.11862368 -0.1012388 -0.23857716 0.10269516 -0.2130356 -0.12777673 0.34676236 0.09624764 -0.1654923 0.36035448 -0.49989894 0.40836474 0.0062562143 -0.1458307 0.046070196 -0.23310769 -0.009495938 0.47554842 -0.9048839 0.51148635 -0.42459312 -0.18433538 0.45336378 0.14047493 -0.20594038 0.17646483 0.3886192 -0.027495231 -0.111755475 -0.52842253 0.054755565 -0.19634636 0.29826382 0.012226919 0.17437351 -0.3049287 -0.21428086 -0.37102485 -0.2899545 -0.6640571 -0.23159434 0.40844175 0.68391836 -0.3876468 -1.1547348 -0.838214 0.42214185 -0.48621878 0.30708644 0.35710067 0.011757292 -0.5307085 0.0838996
7407:REMINGTON -0.13621551 0.3186792 0.6463071 -0.051101934 0.25162864 0.3223313 -0.81533164 -0.01675693 0.30659562 0.010056042 -0.02705499 -0.10259538 1.0283291 -0.8926379 0.50258476 0.31156915 -0.29778704 -0.29577053 -0.6137401 0.14152102 0.45728794 -0.29855615 0.5316702 0.36796367 0.23446904 -0.044297993 -0.43291512 0.28814107 -0.056597434 0.7226729 -0.81177056 -0.51268965 -0.13718131 -0.2275658 -0.3018013 -0.38272175 -0.5527749 -0.93868065 0.56938434 -0.08813961 0.40170974 -0.39267996 -0.0009086836 -0.29792187 -0.3278072 -0.12352415 0.46958554 -1.0964695 -0.21331452 -0.10599453 0.12922882 -0.3117415 -0.39571187 -0.18683012 0.17686906 -0.7452613 0.22997138 0.44370005 0.20394823 0.03309219 0.59598273 0.20662178 0.48824203 -0.35652378 -0.60075074 0.6520615 0.14393505 0.4131075 0.45165566 -0.54910547 -0.34965375 -0.15695116 0.2572618 0.33246735 0.104727566 -0.5362994 0.11021035 0.52691615 -0.09331854 0.149161 0.08536574 0.47147197 -0.012003028 0.027255828 0.16891281 -0.035966303 0.44076633 -0.24754718 -0.04062926 0.02126921 -0.33701804 0.043646686 0.10898705 -0.7148639 -0.040297568 -0.35027066 -0.22905862 0.13332295 0.01416542 -0.2369721 0.47042578 0.17363887 -0.29840773 0.27283803 -0.5946717 0.0793494 -0.19609101 0.563989 0.39206964 0.64365435 -0.65349495 0.012880891 0.009216175 -0.18604366 -0.62319475 -0.40989226 0.39185977 -0.20344672 -0.06442653 -0.81343085 -0.6430793 0.3047057 -0.07310158 0.27477053 -0.171797 -0.34311798 -0.67386454 0.4911377
4105:ENID -0.2743922 -0.18494913 -0.041746177 0.08332513 -0.39059773 -0.05277785 -0.7577537 -0.30524644 0.44828466 -0.3259728 -0.37499008 0.2788672 0.8196766 -0.59074455 0.17224617 -0.06059443 -0.68929446 -0.5606211 -0.251945 0.051110066 0.18925528 0.35801274 0.600256 0.29170436 -0.15654546 -0.44988945 -0.46293417 0.5073177 -0.4524168 0.3502265 -0.545654 -0.33686212 -0.6343165 0.1513757 0.2741026 -0.18901257 -0.7718667 -0.97370875 -0.39336088 -0.049289208 -0.6249928 -0.28309014 -0.35197562 -0.7490253 -0.08770662 -0.4185227 0.16418542 -0.49531287 -0.44675097 -0.22829716 0.25001293 0.008607829 -0.506706 -0.18834755 0.19782999 -0.6342056 -0.0677149 0.2090445 -0.06621085 -0.541356 0.50197464 0.118268825 -0.108537674 -0.630833 -0.19799405 0.18259677 0.2764011 0.4687281 -0.08202517 -0.50638205 -0.051708095 -0.2855348 0.36338964 0.34346366 0.0453114 -0.034539733 -0.22544646 -0.10367475 -0.00992675 -0.13415176 -0.48331296 0.2538752 -0.04292924 -0.06950201 0.32367012 -0.27481395 0.43143776 -0.14873223 0.01910184 0.033973895 -0.57114035 0.118385725 0.49662226 -0.6258762 0.6674269 -0.6964234 -0.44716793 0.4015098 -0.033546895 -0.25155455 0.25925225 0.3951085 -0.01040721 -0.44047645 -0.7412252 -0.06016577 -0.2630998 0.2559705 -0.027677009 0.19604859 -0.12691543 -0.059681177 -0.28156158 -0.27346802 -0.40038797 -0.20479819 0.5396414 0.4435673 -0.10142603 -1.0546774 -0.8357991 0.1038689 -0.32268268 0.045310635 -0.018711362 -0.36165145 -0.56247413 0.05353307
3114:TENNYSON 0.12664688 -0.10348369 0.60528666 0.07834372 0.8032256 0.22959997 -0.9502357 0.038940948 0.006623269 -0.7220738 -0.7216732 0.1105213 0.66842276 -0.8331315 0.22916432 -0.48721132 -0.65239954 -0.75379527 -0.32240576 0.47467527 -0.37460986 -0.42147046 0.6946271 -0.73002696 0.113866724 -0.2835807 0.15039767 0.49172628 -0.39801878 0.35182548 -0.14584917 -0.05853602 -0.01851032 0.13750051 -0.41800284 -0.39955965 -1.0629992 -1.0461361 -1.0808598 -0.16935168 -0.482238 -0.46670964 0.3336623 -0.269805 0.13946435 0.23431605 0.46846965 -0.2422227 -0.5609565 0.265048 0.25567502 0.18728796 -0.5213391 -0.4650024 -0.37305802 -0.61996704 -0.31985524 -0.18478613 0.79207456 -0.9406652 0.6790187 -0.0644979 -0.6813499 -0.89224416 -0.7837122 0.07859467 0.3517429 0.72912985 -0.08920944 -0.1639915 0.043125805 -0.48979467 0.0448186 0.003614583 -0.20533381 0.04384603 0.22314738 0.10915708 -0.38071153 -0.13081357 -0.030341476 -0.041160576 -0.0606908 0.08318685 -0.0924904 -0.4603316 0.7676962 0.23379491 -0.14094673 -0.23292753 -0.8959169 0.36461633 -0.06420578 -0.47650695 -0.14397755 0.11071285 -0.26886794 -0.33421773 -0.31976575 -1.2456794 0.46267292 0.42316708 0.42323634 -0.32810867 -0.065380596 -0.32915917 -0.3193337 0.5804852 0.12749046 0.55895877 -0.14834876 0.5481607 0.18593131 -1.0239199 -1.0248666 -0.45262298 0.22852899 0.2903059 -0.40410793 -1.1082678 -1.0740404 0.6624738 -0.41626358 0.2655122 0.016570982 -0.039257713 -0.36002576 0.4549164
3218:BEGGS -0.28437448 -0.041875985 -0.43970636 -0.42647284 -0.15526512 0.026763385 -0.8327765 0.33794153 0.6757065 -0.21537794 -0.5154815 0.13170381 1.1591489 -0.06815148 0.6702496 0.18541342 -0.6902046 -0.5938167 -0.5471096 0.7682157 -0.12962084 0.022843268 0.5193797 -0.07126522 0.3911551 -0.17192732 -0.25704575 0.45835084 -0.38628748 0.54087013 -0.4835628 -0.31212822 -0.46935886 -0.21775268 -0.0034019058 -0.10792627 -0.19490764 -0.34076914 0.67631316 0.102104485 0.3776287 -0.060668856 -0.3639959 -0.50595653 -0.26108333 0.11705296 0.49236104 -0.66856194 -0.5252376 0.2709406 0.4312604 0.050868962 -0.56543815 -0.47474667 0.019335514 -1.1683179 -0.122684814 -0.49218446 0.27956575 -0.34039006 0.33246422 -0.22825573 0.25727856 -0.6773943 -0.311526 -0.2048946 -0.31816036 0.4060905 0.37848866 -0.3402038 -0.545237 -0.5558261 -0.17770365 0.35901374 -0.22023092 -0.41665938 0.029794091 0.25843593 -0.29359618 0.37020522 -0.20843375 0.4807592 0.14837326 -0.07052575 0.29415673 -0.42926034 -0.08575246 0.1753571 0.31128356 -0.086131334 -0.32442504 -0.14425926 0.40432566 -0.4943684 0.14811186 -0.47968993 -0.11844644 0.05630683 0.0670058 -0.6969277 0.3526338 0.19176081 -0.38858372 -0.568372 -0.18948933 -0.3177796 -0.46575215 0.09146113 -0.044500202 -0.13570154 -0.41369644 -0.2727885 0.021626733 -0.16807136 -0.31733686 -0.14691462 -0.34401765 0.1744239 0.43039015 -0.3831387 -0.18316202 0.58149296 -0.40009114 0.75731283 0.21546668 0.15300606 -0.41173387 0.06167761
3213:BOWDEN 0.24086525 0.05401254 0.24948788 -0.06831861 -0.31066626 0.17612235 -0.84732896 0.055783156 0.52308565 -0.44022608 -0.5313459 -0.032193024 1.5614773 -0.8401876 0.9215688 -0.14135249 -0.52794415 -0.48626316 -0.3635999 0.33966514 -0.47655386 0.28565732 0.7053059 -0.29497206 0.45581236 -0.48156592 -0.19086349 0.6008869 0.04262855 0.68827516 -0.30214676 -0.85684013 -0.07109452 -0.107980646 -0.37994665 -0.0047469777 -0.2579654 -0.7678524 0.55840975 0.069673926 0.088238254 -0.77542496 0.16658919 -0.77175766 0.11256532 0.29139295 0.42946836 -0.53860575 -0.65350074 0.29437232 0.111007996 -0.18688029 0.1345216 -0.5235711 0.8486534 -1.0712378 0.061909765 0.12186735 0.22975339 -1.0093187 0.3620775 0.3635433 -0.5891287 -0.556946 -0.24273804 -0.25187564 0.44627774 0.47229293 -0.25918582 -0.41698086 -0.61328185 -0.474635 -0.19744617 0.49022764 -0.46292162 -0.46844652 0.52365696 0.42827675 -0.5107438 0.37888446 -0.44251984 0.70663065 -0.107036486 0.00347301 0.43676442 -0.29717964 0.46444854 -0.15094742 0.2302349 0.18909879 -0.13318501 -0.3366353 0.25648403 0.008086118 0.19486152 -0.7847023 -0.39447957 -0.08655721 0.08166013 -0.333557 0.63356763 -0.053845063 -0.23770626 -0.109929055 -0.25435576 -0.029980373 -0.86749196 0.08562095 -0.21075183 0.44701362 -0.26122814 -0.28717428 -0.06259475 -0.23692468 -0.22929592 -0.1169953 -0.1603003 0.15748353 0.10954289 -0.67012125 -0.5095554 0.706822 -0.7250531 0.24571529 -0.2252046 0.2912987 -0.051495936 -0.027490716
7605:DRUMRIGHT -0.6167968 -0.36982423 0.28458208 -0.4935921 -0.19888178 0.0057265526 -0.6309447 0.5796868 0.29891333 -0.060612727 -0.32183677 -0.044169836 0.9129691 0.62041277 0.4141566 -0.015679924 -0.53443927 -0.20259391 -0.17407277 0.02763156 0.34392026 -0.16430897 0.5544632 0.19277209 0.18372883 -0.32225636 -0.35406142 0.47237772 0.07169158 0.8285787 -0.6245789 -0.34422156 -0.2641341 -0.014046263 -0.13498664 -0.112498134 -0.55980635 -0.46919432 0.6589564 -0.31650987 0.18722118 0.4945691 0.055487014 -1.0633779 -0.6783427 0.1497399 0.37282526 -0.9581243 -0.09205432 0.2440204 0.7518903 -0.34011078 -0.82237846 -0.30439574 0.27043623 -1.0742348 -0.3645076 0.14876688 0.3585932 -0.26987335 0.20253146 0.54436666 0.25258592 -0.9146414 -0.0201547 0.33495855 -0.20559259 0.62903506 1.0124633 -0.22474368 -0.30031016 -0.43872738 -0.055612113 -0.113176644 0.2940835 -0.25993907 -0.054404363 0.241589 -0.55703604 -0.022832384 -0.3464375 0.6862985 0.019173138 -0.037288297 0.542421 -0.31364965 -0.66833884 -0.32053217 -0.10397904 -0.036054134 -0.2212123 0.11980346 0.2711087 -0.44689482 0.24627478 -0.48329785 -0.33949205 0.2651223 0.119143344 -0.9023123 0.00084632094 0.30561423 -0.4580583 -0.64203966 -0.23388292 0.04534684 -0.19766992 0.037920035 0.40921524 0.16066818 -0.3372525 0.0052321567 -0.2951695 -0.55180985 -0.32748994 0.039702136 0.086525045 -0.24109589 0.23306198 -0.39698178 -0.5364348 0.16973275 -0.7412984 0.55569315 0.11940657 0.27537468 -0.71317995 0.40270048
8662:SE_15TH_ST 0.24482071 0.2692781 -0.06344211 0.14582282 0.3041099 0.20327635 -1.055962 0.20769092 0.33176512 -0.325813 -0.3288869 -0.09098046 0.8922829 -0.51281285 0.48970047 0.2612158 -0.72071743 -0.27477643 0.13224795 0.017483557 0.23375964 0.11158593 0.49773496 0.1710266 0.16117688 -0.18033029 -0.24641857 0.37134162 -0.05516648 0.25672886 -0.61553425 -0.29036438 -0.018522771 -0.1917307 0.1712807 0.05076579 -0.43058434 -0.5621838 0.63119495 0.01083323 0.112919845 -0.24563688 0.30658892 -0.4891481 0.15072857 0.117858544 0.6443608 -0.9737203 -0.77666724 -0.14286375 0.17148912 -0.43009484 -0.833288 -0.43672612 -0.11456817 -0.8077361 -0.19338311 0.34043628 0.2360061 -0.4824255 0.5246683 -0.023233518 0.041653708 -0.30246603 -0.36604074 0.31074613 -0.2799703 0.38674277 0.2902971 -0.41128412 -0.3780986 -0.30200988 -0.17424192 0.15820126 0.1850773 -0.6735955 -0.26965442 0.15565689 -0.18171518 0.19499305 -0.022497663 0.37955633 0.27180174 0.28003135 0.041544188 -0.28466073 0.5513775 0.26188222 0.7732375 0.5930019 -0.93420315 -0.074489444 0.43696725 -0.3644365 0.40116197 -0.59713584 -0.21817067 0.25049093 -0.0015732516 -0.079630926 0.08648388 0.35336697 -0.59891576 -0.01951799 -0.42545992 0.13006054 -0.1689868 0.6236573 0.19421841 0.16260235 -0.4805132 0.0005284866 0.01824862 -0.3972102 -0.6079639 -0.4616655 0.8108923 0.056650143 0.03631963 -0.4557807 -0.11778735 0.52697 -0.2632717 0.671051 -0.24806696 -0.37349653 -0.6160331 0.067231886
8617:SUNNYLANE 0.2861417 0.5916099 -0.097927675 0.18585025 0.60354143 0.20776781 -1.1378812 0.41863918 0.3252653 -0.22972432 -0.0044568395 -0.22079937 0.7371185 -0.60164267 0.63859296 0.23521067 -0.55965984 0.07985555 0.0093722865 0.014113362 0.06706768 0.17216203 0.48626292 -0.093328305 0.30489984 -0.10759949 -0.11544685 0.093904205 0.008324558 -0.2161833 -0.37113526 -0.32079038 0.23784226 -0.21596843 0.16540319 0.3422891 -0.13947369 -0.45926097 0.79668534 0.11137518 0.21466736 -0.19806142 0.51783097 -0.37255853 0.5831325 0.17896922 0.45414823 -0.52745914 -0.93890494 -0.25011724 0.15539256 -0.5533443 -0.7603323 -0.11136651 -0.10878606 -0.5417438 -0.0734122 0.60558105 0.19690445 -0.14026311 0.24259278 -0.1411956 0.004812496 0.2772186 -0.32547134 0.06560216 -0.18805884 0.5546715 0.098030925 -0.23780116 -0.3165929 -0.30726326 -0.09626997 -0.066209316 0.1123804 -0.93106204 -0.08685794 0.5082606 -0.12086367 -0.16832113 0.12320867 -0.05390984 0.32175213 0.6709419 -0.053601556 -0.25050327 0.42836022 0.24659197 0.9163433 0.7147301 -1.0050306 -0.21061632 0.20762688 -0.39523467 0.7418361 -0.71891564 -0.19795053 0.2898873 -0.21176332 -0.09080747 -0.30171978 0.20755197 -0.5846141 0.05758589 -0.5656077 0.3212138 -0.18636802 0.6291749 0.40691987 0.1422599 -0.334208 -0.18864591 0.23132573 -0.27474216 -0.6093221 -0.6600125 0.7219785 -0.19278492 -0.19059087 -0.57559985 -0.41803077 0.545996 0.1615721 0.63000596 -0.65687925 -0.53996986 -0.8887487 0.26603067
3326:JAMESVILLE -0.5482076 -0.4737001 0.30076432 -0.48763207 0.4574903 -1.0276407 -1.060647 -0.27346766 0.41959095 -0.29409128 -0.10592331 0.013454777 0.36152813 -0.42589194 0.49406973 0.084709585 -0.6348826 0.06321603 0.11752942 0.311698 0.9310175 0.42153776 0.04022761 0.22719699 0.5271188 0.3755848 0.0010733661 0.37221545 -0.18647927 0.514991 -0.31190112 -0.53502 -0.32661498 -0.5475135 -0.18648475 -0.60626435 -1.1805165 -0.71177536 0.11560589 -0.20306945 -0.000945273 -0.15606506 0.3814676 -0.5243873 -0.013407794 0.2841845 0.3179776 -1.0594039 -0.21698664 -0.23010728 0.4362748 -0.37711442 -0.19970848 0.1766788 -0.18113382 -1.3418088 -0.6583907 -0.41049865 0.43362802 0.06912422 0.9888971 0.115200244 0.40583453 -0.9363785 -0.32533363 0.37761724 -0.32025948 0.95122594 0.8558229 -0.4195341 -0.39142138 0.32123664 -0.10518188 -0.36384445 0.16512369 -1.1886417 -0.32105228 -0.15267086 -0.45882043 -0.34406924 -0.19390626 0.5066607 0.4372629 -0.12417734 0.45417085 -0.21702725 1.0352211 0.28983638 0.29673865 -0.4061055 -0.33924133 -0.43234122 0.055908997 -1.0057297 0.28946418 0.119116575 0.16173422 -0.4492007 -0.43904424 -0.55349714 0.34741715 -0.33940402 0.1906515 0.15542889 -0.2017105 -0.24552622 0.17629986 0.21238211 -0.025363442 0.041080233 -0.023596412 0.08576574 -0.2090106 -0.15969653 -0.61227775 -0.8265143 0.48889232 -0.20796129 -0.43205133 -0.34176496 -0.085381754 0.16321178 -0.26108608 0.15491731 0.49239182 -0.41741294 -0.7198197 -0.19643873
3321:ROSS_LAKE 0.35351798 -0.12265983 -0.58270234 -0.14255683 -0.39844412 0.2775871 -0.8062436 0.17262615 0.5541506 -0.3169075 -0.30282265 -0.37234014 0.35953262 -0.171317 0.4610581 0.100667804 -0.6022104 -0.7120272 -0.035343647 0.12779897 0.5051915 0.47222772 0.5341024 0.14338523 0.5183248 -0.15543951 0.0927686 -0.01087886 0.04227752 0.5473425 -0.86177 -0.87308544 -0.042505357 -0.012663234 -0.15671283 -0.31781518 -0.19205603 -0.27651477 0.740451 0.027062757 0.43142715 0.043726977 0.09337555 -0.5434064 -0.08458268 -0.046192244 1.180207 -1.0906888 -0.93971777 -0.038696636 0.6118051 -0.71009284 -0.6234299 -0.5214238 1.1233666 -0.76708287 -0.023810688 -0.28224587 -0.14001882 -0.2815806 0.3945611 0.14631295 0.4192219 -0.273341 -0.59107155 -0.072898075 0.30027282 0.7299958 -0.1216373 -0.4862987 -0.80850387 -0.07377647 0.24239363 0.8214391 -0.13452867 -0.31068134 -0.02613849 0.23469865 -0.25204864 0.25674576 -0.28955355 0.65540427 0.36825454 -0.09881837 0.41174147 -1.2066637 0.16275443 -0.05108719 0.9868052 0.05553803 -0.38492706 -0.14619261 0.26293898 -0.64859635 0.45389488 -0.11726356 -0.3471963 0.35191292 -0.23338085 -0.59535646 0.17314906 0.35029948 -0.48984274 -0.35538253 -0.60154104 -0.6228501 -0.05104151 1.1736507 -0.3259071 0.2541264 -0.6672682 0.32789826 0.015927633 0.101884484 -1.0155823 0.14746687 1.0740145 0.07807157 -0.117909655 -0.4305936 -0.79280126 0.31943753 -0.5937304 0.3614856 0.5780604 0.10363121 -0.30900607 0.5483327
3128:HANCOCK -0.22960019 -0.0700544 -0.29123473 0.0956147 0.31613183 -0.15414514 -0.6043 -0.1851827 0.26888588 -0.5159328 -0.023147237 0.47686967 1.1210784 -0.36807317 0.38440514 -0.14788614 -0.7979571 -0.7701201 -0.7929065 0.7042751 -0.14432353 0.077256985 0.9109582 -0.18518922 0.55576444 0.37461936 -0.5984453 1.1239579 0.3097591 0.9542052 -0.35492408 0.10156787 0.16849658 0.16749735 -0.5229647 -0.42259663 0.30339393 -0.21343675 0.6068903 -0.45904228 0.15868494 0.12131535 0.5135688 -0.75726056 0.1359806 -0.02400957 0.40617478 -0.60587955 -0.06785888 -0.3257928 0.5132258 -0.74201053 -0.65224105 -0.068915434 0.6584618 -0.84354365 -0.017260931 -0.10541495 0.45294362 -0.5326394 0.61738646 -0.4265224 0.045694668 -0.6445306 -0.8378363 0.80772746 0.07299641 0.26885378 0.30278793 -0.33188996 0.19923776 -0.42709813 -0.01624214 0.16267575 0.3443424 -0.564975 0.7525985 0.25968432 -0.18939199 0.39335746 -0.17016855 0.4880411 -0.17678 -0.41900358 0.17099097 -0.83011824 0.030065391 0.48999822 0.21185882 0.3622108 -0.7022617 0.5172774 -0.027099935 -0.8306094 0.7397652 -1.0371805 -0.25681162 0.3633722 -0.30602816 -0.5046632 0.22520916 0.7752087 -0.53900963 -0.24541466 -0.9333443 0.3689692 -0.59178555 0.79837966 0.1986758 1.046392 -0.23748367 0.6244816 -0.21695954 -0.41245577 -1.1457497 -0.64890736 0.307179 0.26044357 -0.11160173 -1.0222149 -0.7322536 0.33734375 -0.41964337 0.44148153 -0.18855338 -0.21287659 -0.8232242 0.18813862
7430:INGLEWOOD -0.15964293 0.21979918 0.56159055 -0.14584665 0.21032313 0.54803854 -0.7712122 0.1276962 0.27292892 -0.0273011 -0.0627818 -0.026534164 0.96915436 -0.9590739 0.44687837 0.23419176 -0.321872 -0.40858617 -0.43432203 0.39625883 0.46110523 -0.47059798 0.35216796 0.55408365 0.26275676 0.10426845 -0.27210194 0.28368473 0.25480425 0.64611036 -0.7817759 -0.34656036 -0.10040213 0.011478893 -0.18939212 -0.5967551 -0.5836989 -0.843476 0.63657075 0.10085079 0.3025911 -0.35146466 -0.04118224 -0.08297993 -0.32740444 -0.083026916 0.31398445 -0.96252954 -0.28427306 0.16787867 -0.057965066 -0.25893703 -0.33183947 -0.19541875 0.27094436 -0.5406854 0.35428268 0.55095285 0.20268047 -0.14176823 0.20021208 0.39480633 0.6066417 -0.2104711 -0.5824002 0.5268732 0.004494423 0.46921134 0.49202615 -0.4827081 -0.4922845 -0.19173954 0.35311714 0.53057355 0.11891025 -0.5372298 0.058214623 0.67539936 -0.05979726 0.41504872 0.11986419 0.5266895 0.2731508 0.27983442 0.2792332 -0.05425014 0.46350247 -0.023768049 0.048031785 0.07750456 -0.1394981 0.22859786 0.073051676 -0.47655407 -0.4028501 -0.39399606 -0.19802615 -0.1642431 -0.13632381 -0.16090684 0.50044495 0.35006952 -0.14903873 0.30224 -0.4782899 0.1297893 0.065779895 0.4122126 0.2726298 0.40863082 -0.5300859 -0.0004448836 -0.19156808 -0.3224658 -0.63727844 -0.35159427 0.5148099 -0.27678648 0.07224849 -0.82711774 -0.7500204 0.023407668 -0.037360735 0.1797592 -0.22664589 -0.21439946 -0.63574713 0.4517328
8650:GLENDALE 0.42023295 0.31524846 0.009489575 0.18306008 0.30531448 0.14393756 -1.0502344 0.07950814 0.44999263 -0.1297075 -0.4091775 -0.37466878 0.9106983 -0.65180016 0.78180254 0.054570872 -0.5203967 -0.11971971 -0.08261562 -0.011420007 0.3371385 0.061607204 0.594444 0.2184608 0.37710142 -0.19346762 -0.24012436 0.24581066 -0.03010934 0.15578943 -0.5949398 -0.29734948 0.034322005 -0.2122363 0.013203694 0.06365641 -0.50067455 -0.69728017 0.8267724 0.12897047 0.12676199 -0.36461878 0.032693684 -0.49838945 0.14811489 0.07171162 0.5420642 -0.92641604 -0.49347022 -0.19297768 0.2020051 -0.21663988 -0.5902233 -0.58711344 -0.22646353 -0.7737449 -0.1864542 0.26080364 0.31978133 -0.42524782 0.44571647 -0.09725274 0.1285696 -0.23092732 -0.53047794 0.37113264 -0.02822578 0.23141249 0.54901564 -0.5688734 -0.39669964 -0.17904194 -0.09686787 0.15843302 0.17734602 -0.753389 -0.24403763 0.43313 -0.30419242 0.22109309 -0.12141778 0.524354 0.3187804 0.41384938 0.06849303 -0.3452988 0.60994047 0.2993084 0.75573885 0.41523373 -0.9291316 -0.039157115 0.263115 -0.17518608 0.42498544 -0.53489614 -0.34107712 0.47743106 -0.1305614 0.014265965 -0.0039750305 0.27382317 -0.4762565 -0.026788887 -0.39384928 0.28857958 -0.03354635 0.72036237 0.16937172 0.1502866 -0.568961 0.08781291 0.12743486 -0.39681277 -0.7920902 -0.58141875 0.7767043 0.008379727 -0.057652965 -0.66763407 -0.3965648 0.41253716 -0.25111666 0.45368865 -0.3573904 -0.451337 -0.8501197 0.36257362
5605:PAULS_VALLEY 0.09100512 -0.16001992 0.33244264 -0.22022353 -0.015720857 -0.5836319 -0.31930375 -0.51250225 0.65148646 0.0059268186 -1.0073758 -0.097877 0.11190928 -0.15901636 0.16972198 -0.6703705 0.059328683 -0.8319682 -0.23098736 0.356648 0.5731096 0.2502597 0.0688625 0.029779365 0.23400788 -0.42900816 0.03166921 0.8132538 -0.8014484 0.7331661 -0.8088601 -0.168752 -0.45915538 -0.16177504 0.0076285037 -0.7223577 -0.42392805 -1.0071439 0.39487836 -0.020088067 -0.46247405 -0.70119345 0.5424705 -0.37728807 -0.5904466 -0.081379265 -0.075657725 -1.182837 0.29074895 -0.38863027 0.60129446 0.12678872 -0.04663261 -0.08075255 0.3889186 -0.791405 -0.11491376 -0.79525906 0.15749334 -0.46573612 0.5740334 0.31263775 -0.22300604 -0.515771 -0.7379837 0.5136616 0.0400556 0.29692638 0.27574724 -0.8735936 -0.48640436 -0.029420454 -0.10092757 0.4192652 -0.1322413 -0.3988214 -0.13658382 -0.4247377 -0.24141634 0.24025504 -0.2110818 0.91596615 0.04582761 -0.024498029 0.16508141 -0.35066065 0.6128143 0.09375987 0.046408635 -0.33261025 -0.058459263 0.21983068 0.079962954 -0.9358824 0.25102508 -0.06813229 0.022939302 -0.22332151 0.57047105 -0.44542345 1.0020909 0.55579424 -0.2318027 -0.19397415 -0.48215082 0.35150072 0.047240242 0.92691356 0.54558086 0.62897426 -0.5595062 0.23720002 -0.73829395 0.09643117 -1.1675193 -0.29832992 0.5485646 0.27940074 0.011983626 -0.5366292 -0.6066269 0.77932096 -0.6731893 0.31460556 -0.07741185 -0.4641201 -0.74538594 0.033216953
8542:RENO 0.35959592 0.2706021 -0.012983228 0.1140178 0.43111485 0.14313559 -1.1836736 0.08515443 0.36704051 -0.2937513 -0.41829282 -0.11707886 1.0214479 -0.66270673 0.6960225 0.19615905 -0.61788046 0.062209398 -0.017765665 0.02491812 0.23279345 0.2032155 0.41868442 -0.084757075 0.22400042 -0.06727243 -0.36211556 0.21912982 -0.11126272 0.17092334 -0.51541847 -0.35453093 -0.06271928 0.0042481204 0.21062826 0.28286964 -0.40006587 -0.5459414 0.8663212 0.012158018 0.38745525 -0.54496056 0.42371437 -0.5604777 0.4571801 0.39442456 0.5813498 -0.76232404 -0.78817046 -0.17589016 0.038985107 -0.5663019 -0.68513393 -0.42681444 -0.11376773 -0.7315662 0.13924734 0.40237668 0.38745475 -0.31346285 0.40894786 -0.1999627 0.003925277 0.08150635 -0.4472705 0.16060174 -0.17123775 0.3275462 0.19583406 -0.48380634 -0.42640406 -0.108111925 0.09279274 0.14987275 0.14029858 -0.85510135 -0.1354434 0.33185175 -0.20691642 -0.0043338216 0.04823546 0.23203386 0.38030666 0.7884814 -0.01471287 0.009279508 0.4095536 0.39947668 0.7835807 0.7484139 -0.86043763 -0.15659231 -0.12785362 -0.18004183 0.41517407 -0.63033205 -0.3055567 0.20610633 -0.45460957 0.07033996 0.07071052 0.23399098 -0.5974827 -0.0679605 -0.25512436 0.060265113 0.042539626 0.803644 0.24755941 0.31468698 -0.49099076 -0.00046572892 0.14493804 -0.30038714 -0.68183553 -0.6235524 0.64312637 0.018935824 -0.16596851 -0.51201475 -0.58251715 0.48164803 -0.22429916 0.8130901 -0.57048965 -0.36291504 -0.9837553 0.1686159
3111:FIVE_TRIBES 0.13536443 -0.9011694 0.5353706 -0.6246935 0.21831623 0.04971406 -0.5901746 0.025883496 -0.23048761 0.08819264 0.07748731 -0.8328931 0.68499607 0.013930124 0.40687716 0.108996816 -0.44844976 -0.8553393 -0.06585006 0.22180296 0.86536103 0.12696913 -0.115257725 0.41902608 0.4110968 0.17476305 0.76543415 0.9523631 0.24108522 1.1429355 -0.54226387 -0.5898216 -0.23903775 0.1431697 0.34534588 -0.79911476 -1.0063504 -0.8656416 0.09395948 0.29368812 -0.1143408 -0.039579917 -0.35019168 -0.3834536 0.22335206 0.4942842 0.4314472 -0.6275217 -0.31849122 -0.28431928 0.26572153 -0.41891935 -0.3817694 -0.09376884 0.8047395 -0.86887515 0.092424706 -0.04316122 -0.0011585564 -0.5599072 0.85432136 -0.3410521 0.7296024 -0.12321125 -0.35676682 0.44598606 0.12909146 0.6584285 0.096341245 -0.55341697 0.24771816 -0.07147614 0.5725889 -0.06591658 -0.14578715 -0.6985708 -0.95507044 0.90910953 -0.629438 0.14560314 -0.39266837 0.45264784 0.32918903 -0.10637016 0.46321326 0.37595832 0.34909847 -0.13479662 -0.7703902 -0.096542016 -0.22493972 0.016188852 0.06776573 0.19038443 0.771158 0.15735766 -0.6894907 0.116534084 0.38010547 -1.3049023 0.90267146 0.029191868 -0.33092377 -0.17395647 0.044661023 -0.36135352 -0.056438755 0.47325158 -0.050677735 0.06166593 -0.6117973 0.7059247 0.05857983 -0.16956265 -0.3226572 0.41726136 0.41271698 -0.17363039 -0.45825636 -0.22003798 -0.4347423 0.2127823 -0.21588951 0.6515023 0.29198512 -0.13930137 -0.97441304 -0.10292663
7432:ST_GREGORY -0.102349475 0.09442101 0.48090672 -0.06464189 0.20984976 0.36907825 -0.67618257 -0.074996285 0.09933691 0.0772886 -0.07143401 -0.054189973 0.919641 -0.7227878 0.45645085 0.18903793 -0.11845847 -0.40000728 -0.58158267 0.19336127 0.42799518 -0.4261903 0.30152673 0.539839 0.1294072 0.082317434 -0.26822492 0.32811874 0.10762488 0.64990646 -0.7002727 -0.2761768 -0.07310045 -0.014119127 -0.13054171 -0.4555105 -0.5352494 -0.87602854 0.5156421 0.26158193 0.2960952 -0.4351158 -0.014649742 -0.10767607 -0.4356219 -0.111941144 0.3665375 -0.9383749 -0.17098871 -0.027045218 0.043690268 -0.21136239 -0.32989013 -0.22329037 0.14477518 -0.6793259 0.18755533 0.44711322 0.17206529 -0.24508491 0.47357175 0.26942724 0.47484004 -0.4049231 -0.5953605 0.46974966 0.08666356 0.32062533 0.3919549 -0.55707794 -0.3858711 -0.07010511 0.23942617 0.4657569 0.106934726 -0.4335443 -0.03349443 0.41306964 -0.10416743 0.44354966 0.029164897 0.5642807 0.14247821 -0.002699152 0.22074987 -0.17342035 0.34702012 -0.13983218 -0.13844335 -0.035999775 -0.36848527 0.12536784 0.19228403 -0.5944196 -0.20579156 -0.41908905 -0.19114451 0.011195793 0.080363855 -0.19173966 0.37066987 0.1634813 -0.08472361 0.16748382 -0.62064207 0.056905765 -0.17264132 0.33697906 0.3434517 0.5309814 -0.61748874 -0.055769127 -0.053804774 -0.20697676 -0.6220735 -0.30444846 0.43711925 -0.31627643 0.08729802 -0.7907046 -0.6847498 0.32662696 -0.02380318 0.14199042 -0.13408273 -0.10374797 -0.446727 0.31778768
4123:KREMLIN_TAP -0.10889614 -0.2295815 0.1163291 0.08793511 -0.24725524 -0.15151997 -1.0013554 -0.15549454 0.50299466 -0.41351596 -0.27236474 0.15953366 0.7367435 -0.6780631 0.2894163 0.034300953 -0.55623573 -0.43725702 -0.41574702 0.02252554 0.59286565 0.4596704 0.4754356 0.2066269 -0.20219846 -0.5136032 -0.50894296 0.6783241 -0.5857214 0.39620918 -0.65943205 -0.26864964 -0.6582548 0.068303816 0.16257009 0.10842211 -0.7229839 -0.69627005 -0.15382986 -0.04548593 -0.18274264 -0.2989579 -0.045615986 -0.65024966 -0.020393405 -0.3253237 0.110191986 -0.5761025 -0.5083472 -0.100434765 0.1950816 -0.016750332 -0.524689 -0.058118857 0.24920407 -0.55056036 0.030873355 0.17562105 -0.08306841 -0.21391028 0.28115186 0.31543556 -0.12556268 -0.56146365 -0.24729572 0.18523511 0.32411584 0.25405926 0.026194228 -0.14174561 -0.18299606 -0.213051 0.28955334 0.19627269 0.13977948 -0.12542175 0.016485011 -0.09680992 0.12152825 -0.09997333 -0.28096032 0.36183327 0.09180386 -0.2627963 0.53070295 -0.30853423 0.29830667 0.089408815 -0.36721185 0.047061767 -0.3606285 0.04127437 0.3718559 -0.54723805 0.32057506 -0.43662345 -0.13223965 0.36860767 -0.04126414 -0.13712691 0.21419054 0.35499415 -0.12157703 -0.2485041 -0.3425215 -0.013275887 -0.1101906 0.05855564 -0.11182525 0.0966932 -0.27901077 -0.01536906 -0.2473269 -0.30867463 -0.41606635 -0.1343393 0.4450179 0.7229706 -0.26869217 -1.0836606 -0.6018056 0.16296622 -0.2593175 0.22685523 0.2849847 0.020471143 -0.3573296 -0.022396546
8536:WASHINGTON_PAR -0.11786592 0.27594393 -0.0735993 -0.47003576 0.65321916 -0.30311212 -0.85652703 0.2764308 0.9411427 -0.71975 0.0063685332 0.40448812 0.6137486 -0.62582976 0.7500749 -0.16817631 -1.065899 -0.06760305 -0.28339484 0.5060144 0.155928 0.009600964 0.91423184 -0.14994581 0.107947506 -0.101339296 -0.49348405 0.3101948 0.04724475 0.5323424 -0.5112641 -0.6935102 -0.2326886 -0.004607975 -0.5500742 -0.07374795 -0.47154832 -0.45763868 0.32620162 -0.6046472 -0.18713863 0.14953482 0.0285783 -0.45179468 0.27020538 0.26459962 0.33805504 -0.70840925 -0.5746598 -0.36571345 0.36598086 -0.42467555 -0.36409172 -0.07799294 0.5591219 -0.37193686 0.26683557 0.37921762 -0.25056902 -0.4066796 -0.100816704 0.25055093 0.12373803 -0.32312083 -0.09664627 0.09923016 0.18240339 0.6102814 0.26180708 0.02145194 -0.23293312 -0.5561404 0.0036540285 -0.33437887 0.4351599 -0.34660336 -0.19029222 0.48322 -0.4246914 -0.04057993 -0.20758714 0.40158945 0.39580816 0.112479955 0.606459 0.094931476 0.14026824 -0.2263485 0.33729047 0.02518839 -0.59266996 -0.26242554 0.35101163 -0.73989725 0.3789066 0.0020496377 -0.39410144 0.20959593 -0.32519042 -0.6375761 0.12853241 0.28781712 -0.19982976 -0.22321671 -0.2676117 0.05086474 -0.38917372 0.66641825 -0.109995835 -0.6433119 -0.13017096 -0.2143258 0.08995571 -0.57217544 -0.007930672 -0.034852054 0.14996932 -0.09204294 -0.0681687 -0.88100404 -0.50724 0.11449833 -0.18599597 -0.25437835 -0.16979988 -0.3835524 -0.40425667 0.20445527
5305:HEALDTON 0.069730505 -0.11271184 0.064933404 0.1966398 0.20918885 0.22773103 -0.06776938 -0.090005785 -0.035404123 -0.5554135 -0.18084976 -0.19077766 0.6007917 -0.1344603 0.36090642 0.018699527 -0.7267485 -0.5428831 -0.28718272 -0.37366307 0.07670607 -0.0811204 0.65876323 -0.13842332 0.2055167 0.1880545 -0.5670831 0.3798766 0.542715 0.8714182 -0.42471716 -0.59588856 -0.19310564 -0.1873163 0.13422199 0.11071965 -0.38756043 -0.50456446 0.10993815 -0.16231781 0.10444257 -0.27270856 0.33525297 -0.78495663 -0.4564154 -0.07828647 0.6091046 -0.7428357 -0.06594908 0.09773593 0.12427165 -0.108596146 -0.54331875 -0.4464401 0.26595554 -0.8879773 -0.34866646 0.063833304 -0.12551835 -0.80996186 0.7693474 -0.01969442 0.012355173 -0.76641107 -0.32499388 0.3573906 -0.11361641 0.08968203 0.10314004 -0.4330399 -0.18648738 -0.21152918 -0.20018819 0.43771803 0.1750041 -0.16892956 0.28641188 -0.03448018 -0.4595065 0.4140109 -0.63671786 0.9465799 0.1508336 -0.42422646 0.024578387 -0.003897339 0.3920351 0.0016610811 0.39711058 0.3225379 -0.5599616 0.0021802166 0.7995439 -0.11295494 0.57221484 -0.24051668 -0.24854411 -0.18260588 -0.30109262 -0.27073726 -0.032578457 0.18818732 -0.1998285 -0.50457686 -0.32380968 -0.73771685 -0.41153848 0.29441917 -0.03605679 0.098769516 0.040527917 0.24731466 -0.076431595 -0.19903158 -0.42508602 -0.11211592 0.62758815 0.059540324 -0.016951816 0.11905002 -0.38501668 0.58172417 -1.237215 0.60420865 0.34621602 -0.010555271 -0.35076094 0.15341714
5104:FOUNDATION 0.32111523 0.022444611 -0.08312197 0.6535057 0.124783985 -0.047666352 -0.69896144 -0.08370969 0.46169338 -0.31299096 -0.6833123 -0.6060386 0.78935814 -0.092262566 0.3713306 -0.24836491 -0.74989706 -0.6253821 -0.16547774 -0.1624718 0.5119767 0.16281198 0.43688357 0.064812176 -0.21133843 -0.45987567 -0.14387096 0.30461472 -0.08590689 0.44869986 -0.61066866 -0.5069746 -0.19173351 0.00036203145 -0.023731755 -0.46893796 -0.69454694 -0.1534097 0.27230752 0.67962754 -0.6020466 -0.5072495 0.0032419513 -0.7583488 -0.37009785 0.05411268 0.6049048 -0.9205734 -0.2595826 0.1632498 0.09183924 0.031340387 -0.81383646 -0.7617085 -0.051745906 -0.81895614 -0.13256721 -0.116379365 0.2743578 -0.22686797 1.0576112 -0.1677439 0.26072288 -0.9396644 0.11976317 0.877766 -0.08513483 0.13808425 0.27053505 -0.43171263 -0.46294487 0.1123643 0.17095259 0.09272334 -0.17932476 0.036646098 -0.11906625 -0.17515424 -0.19019239 0.04502974 -0.47569162 0.6677068 0.3552555 -0.32429823 0.42954102 -0.3489168 0.4844258 0.20205194 -0.39736047 0.09678682 -0.54947454 0.048073154 0.48375207 -0.6495052 0.22232044 -0.44047973 -0.52076834 0.07238184 -0.07521479 -0.13908459 0.14279506 -0.10709392 -0.7463418 -0.20783876 -0.67351055 0.06612482 -0.41756147 -0.0040877033 0.11776196 0.38201022 -0.2113326 0.2506972 -0.3131583 -0.04101395 -0.6924922 -0.23580894 0.6613528 0.26951766 0.16516377 -0.0042357217 -0.03886087 0.6220328 -0.35783535 0.1979789 0.66329587 0.0010206995 -0.64548707 -0.13727061
8221:MERIDIAN -0.22039615 -0.2196272 0.11165183 0.19293284 0.65816724 0.14948866 -0.8823296 0.057368044 0.7386328 -0.3839319 0.07782978 0.3524278 0.7702982 -0.13046089 1.1943992 0.06608387 -0.5895873 -0.74812514 -0.26412046 0.29534492 0.5151789 -0.020132735 0.65743214 -0.22120485 0.702403 -0.18843947 -0.4464585 0.83974165 -0.26790518 -0.13695802 -0.50117743 -0.941302 0.051460203 -0.58070934 -0.65104616 -0.34903792 -0.07262148 -0.073981084 0.28036126 -0.34926382 0.14464782 -0.106642485 0.4736642 -0.54256296 -0.016275633 0.48113617 0.74204195 -1.2799405 -0.22331114 -0.51962143 0.036579203 0.17062575 -0.77607435 -0.39539644 0.59056115 -0.5614302 0.38461018 0.08071896 -0.32912812 -0.044714995 0.6537802 0.25762233 0.27051634 -0.6145686 -0.09052324 0.22998174 0.17322646 0.11837476 0.06182817 -0.25102252 -0.19631639 -0.31844202 -0.19862986 0.40349296 0.55014414 -0.19086713 0.17539501 0.21130815 -0.44142908 0.33350796 -0.10962175 0.5731527 -0.27446055 0.003973012 0.4632094 -0.16667356 0.062811404 -0.2760834 -0.14694892 0.46525836 -0.6654391 0.37251878 0.8464956 -0.4257565 0.4117772 -0.70068747 -0.23663244 0.3216918 -0.44078237 -0.13401222 0.00020108325 -0.09337284 -0.5276954 -0.49510682 -0.9091242 0.12479244 -0.12697697 0.7351069 0.44464827 0.20646727 -0.21904606 -0.15081729 0.15427585 -0.3071335 -0.36124387 -0.12697405 0.13766786 -0.23460256 -0.4398898 -0.83468246 0.08188206 -0.02367366 0.3669202 -0.23942384 -0.4714078 -0.2590585 -0.45072156 -0.24951123
5111:DRIPPING_SPRINGS 0.35492092 0.09619542 -0.042987444 0.58558124 0.012899078 -0.1318897 -0.65123963 -0.20884237 0.50183254 -0.13539554 -0.4745131 -0.45553052 0.7477088 -0.1721296 0.21784012 -0.062611446 -0.73078746 -0.5745639 -0.13959585 -0.43159664 0.3993668 0.10422973 0.24090393 0.03947835 -0.23130883 -0.4287167 0.13867342 0.18489781 -0.16587113 0.5099512 -0.61966 -0.39505044 -0.25325823 -0.022822445 0.03436006 -0.5773923 -0.56109464 -0.09768008 0.45556492 0.69365287 -0.52995265 -0.43756682 0.03790146 -0.6488969 -0.4798162 0.093515456 0.49661022 -0.92157793 -0.31532198 0.3497656 0.035813548 -0.107421234 -0.6339188 -0.7287485 0.01365108 -0.94722575 -0.31504068 -0.30308744 0.36243576 -0.26060626 1.1445247 -0.070111655 0.2574472 -0.8928923 -0.087029174 0.7859889 -0.18668851 0.05375787 0.19078352 -0.3996292 -0.3748771 0.17771642 0.08006875 -0.0026762052 -0.13799714 -0.058529478 0.03259118 -0.22619608 -0.29176897 0.13575354 -0.42830363 0.5552659 0.4170096 -0.2987574 0.17834693 -0.23862457 0.548427 0.34990883 -0.43043903 0.024584198 -0.3522244 0.01656472 0.43221465 -0.59367436 0.12020409 -0.3685527 -0.530931 -0.038155522 -0.050534036 -0.20765959 0.27680716 -0.039477948 -0.5990714 -0.27682075 -0.6141572 -0.06524108 -0.24119611 0.2326854 0.02454865 0.53012264 -0.28988236 0.2411469 -0.14875586 0.043248072 -0.5968239 -0.14107613 0.4756828 0.38201222 0.14005874 0.04462992 0.09830828 0.6629947 -0.44763258 0.08495471 0.5560157 0.21368149 -0.5385625 -0.19974922
8339:TULSA_AVE 0.4675171 -0.6874622 0.34499842 0.11802649 -0.23810792 -0.36315414 -0.26470447 0.13796158 0.7513859 -0.6938922 -0.47968253 0.32759395 0.5668705 -0.2275917 0.04171817 -0.16228296 -0.98061293 -0.1358821 -0.5262488 0.016830958 -0.18447316 -0.084477276 0.6826794 -0.36958566 0.20654938 -0.27355707 -0.17893451 0.11276855 0.4617068 0.3673351 -0.22003812 -0.54501194 -0.7604024 -0.031840894 -0.28045887 -0.19170344 -0.44212532 -0.23295346 0.08564526 -0.6980234 -0.23600407 -0.20974004 -0.00353625 -0.61144847 -0.47122708 -0.1921764 0.7401528 -0.5296724 -0.20842016 0.14575413 -0.054183435 -0.10086141 -0.6088893 -0.57271004 0.38414794 -0.5741409 -0.22563761 -0.55783105 0.346733 -7.379282e-06 0.44375172 0.3922783 0.040150587 -0.73761237 -0.25971794 -0.23141396 0.037787024 0.49518663 -0.07473385 -0.0907312 -0.38319233 0.54917634 0.2545262 0.27596864 -0.3143282 -0.31278944 0.22325747 -0.006817134 -0.3294023 0.017962033 -0.74500084 0.32709154 0.026500793 0.57893693 0.29407492 -0.6675638 0.45657626 -0.6064286 0.036828775 -0.04625566 -0.24580383 -0.05240728 0.40237466 -0.5748912 0.21084294 -0.31771815 -0.22177695 -0.08629258 -0.043355767 -0.34298816 0.08158754 0.52180874 -0.39132816 -0.077342816 -0.10522529 0.108796485 -0.5379521 -0.06593967 -0.079951 0.62638724 -0.18534121 0.61211187 -0.5383006 0.44137868 -0.31051952 0.17002289 0.62148744 0.6967474 0.14938208 -0.42692333 -0.6203029 -0.35758522 -0.39458522 0.13216117 0.63967204 0.10246488 -0.46944544 -0.32819447
8474:STONEWALL -0.22089742 -0.16630818 0.16395237 -0.11869132 -0.121952206 -0.058861002 -0.645663 -0.29894304 0.91434294 -0.2423014 -0.2993993 0.15363155 0.4219268 -0.38632402 0.5369485 0.0008809589 -1.2453092 -0.34963965 -0.38094112 0.41493526 -0.0734696 0.29964387 0.43280005 -0.10631596 0.37319246 -0.09967187 -0.39499205 0.42581064 0.026114222 0.3706912 -0.494872 -0.66285396 -0.41437986 -0.20662425 -0.2849444 -0.4158207 -0.2532234 -0.44432557 0.65458 -0.03203517 -0.21765904 0.30221123 0.103195146 -0.4286502 0.04744946 -0.24383348 0.31502908 -0.8552265 -0.44331363 0.12262692 0.4723319 -0.42576948 -0.3263991 -0.82868475 0.41464606 -0.6034149 -0.17201172 0.08792689 0.06926128 0.084877916 0.30336833 0.175457 -0.044137135 -0.55372393 -0.339969 0.63551617 0.19623697 0.5091651 0.38264966 -0.63438183 -0.5763061 0.036706965 0.19581881 0.13236932 -0.1573117 -0.5674425 0.09686966 0.3370458 -0.40013662 0.16776177 -0.7668789 0.20031351 0.26276612 0.3857929 0.09329444 -0.5285918 0.7254753 -0.1092897 -0.10865753 -0.08788763 -0.22620031 -0.21458995 0.3122137 -0.73902375 0.67748785 -0.0074902344 -0.27533033 -0.12188221 -0.14196813 -0.4473237 -0.17900491 0.6444106 -0.4957364 -0.28744772 -0.23738208 0.4705847 -0.12967564 0.5098189 0.030207215 0.25456282 -0.2671453 0.43249664 -0.29405335 -0.015846748 -0.0059962193 0.5322345 -0.23256902 0.54362273 -0.113713935 -0.836776 -0.786986 -0.013532111 -0.6956885 -0.55872625 -0.10615801 -0.17022583 -0.5480599 0.34186983
