281 129
9125:CARNALL 0.19272822 -0.10084663 0.022526026 0.0045475597 -0.028392784 0.13075586 0.016388109 0.032449875 -0.0043299366 -0.07535944 -0.01776528 -0.07082386 -0.010630569 0.055443138 -0.034977615 0.066718094 0.034084965 -0.08812061 0.018868279 -0.104670025 -0.04544055 0.0006045746 0.016832907 -0.120759584 0.092361964 -0.098083325 -0.013728005 -0.002830737 0.07686234 -0.019903976 0.20884946 0.05503363 0.06356849 -0.08153876 -0.071681224 0.00062033423 -0.11944074 0.09230979 0.014881716 -0.10044411 0.070642844 -0.08059461 0.031933352 -0.0048346296 -0.1436028 -0.08849296 0.031791527 0.03410405 -0.07427455 -0.0004195079 -0.095488176 -0.016091045 0.050100997 -0.026773915 -0.065169424 -0.08925176 0.02962766 0.024302622 0.083730936 -0.0074614505 -0.13260035 0.022443246 0.045245152 -0.12411803 -0.03780926 0.045365468 0.1002172 -0.091811396 -0.0034685275 -0.042039517 -0.08261504 -0.08339226 -0.04188446 0.077714026 0.023138039 -0.08680388 0.058020078 -0.10150238 0.03046762 -0.03442495 -0.09012721 -0.018745793 0.117864616 -0.052305147 0.1454044 0.071283124 0.06138361 -0.065933555 -0.02197419 -0.09993613 0.024194242 -0.0039657997 0.0015801083 -0.0810004 -0.10567826 -0.056305207 -0.023650128 0.0363796 -0.13807076 0.001758896 -0.054308712 0.04816947 -0.080412604 -0.101125404 0.012611658 -0.019880567 0.058046684 -0.047140326 0.011437876 -0.030296693 -0.04613076 -0.04442721 -0.05818738 -0.0027723345 0.0056919116 -0.011861025 -0.05290763 -0.005514574 0.2049592 -0.0030856305 -0.033592854 -0.027369576 -0.0023718625 0.006375786 -0.017964385 -0.03339871 0.07424758 0.024223609 -0.11880216
9138:ARKOMA 0.0734565 -0.17007758 0.079162635 -0.029897518 -0.049008727 0.10773165 0.1707935 -0.11076027 -0.03625784 0.02416509 -0.07176153 -0.049960226 0.070969775 0.008858774 0.025826687 0.059234675 0.055347513 -0.11283229 0.07282889 -0.039475765 0.08385086 0.003460549 0.054304775 -0.13854669 0.08129839 -0.025698882 -0.02386728 -0.09329778 0.12651265 0.048451237 0.22503759 0.07395616 0.0338979 -0.15261501 -0.05072588 -0.031474765 -0.05499855 0.09429334 0.057541717 -0.122379586 0.11815282 0.023546236 0.10468859 0.0062420247 -0.09967467 -0.04072606 -0.023757547 -0.081399225 -0.08663879 0.029936599 -0.07833154 -0.045378756 0.06030683 -0.06527479 -0.03330495 -0.12604754 -0.039540347 -0.03335894 0.054760784 -0.058737136 -0.18286607 -0.005497791 0.063633054 -0.1198368 -0.022966148 0.07151319 0.12105865 -0.02978981 -0.043731045 -0.061433583 -0.051807627 -0.02402689 -0.017312078 0.028421093 0.008869445 -0.088498995 0.09196715 -0.05324139 0.052525487 -0.09048245 -0.056083124 0.013013671 0.0490975 -0.033896025 0.086566225 0.089088075 -0.008438169 -0.14335833 -0.00015914674 -0.09091535 0.08155676 -0.013799753 0.031977933 -0.0038995503 -0.15797588 -0.08864262 -0.007769519 0.07119636 -0.04198603 -0.034261428 -0.15997171 0.07628132 -0.021480788 -0.07648923 -0.011979017 -0.006727892 0.110303074 -0.045580592 -0.092384174 -0.04160985 -0.086445704 -0.095039345 -0.017243318 -0.028433818 0.048466206 -0.030984996 0.025994942 0.07606442 0.09831858 0.059688665 -0.04870514 0.060452074 -0.10160361 -0.06032527 -0.06801796 -0.044888653 0.05160419 -0.10830478 -0.095046036
8221:MERIDIAN 0.12155814 -0.11112272 0.008149755 8.06976e-05 0.042369176 0.13668746 0.039437123 -0.03144728 -0.02807161 -0.114635736 -0.04601279 -0.035420187 0.07622826 0.027595598 -0.06752448 -0.07406422 0.009249024 -0.11854072 0.09545701 -0.06006261 0.049743626 0.060808916 -0.01644442 -0.10298115 0.11759634 0.03825873 -0.055696376 0.01921297 0.11577089 0.020553125 0.13934769 0.08781108 0.087884255 -0.14475816 -0.0061019086 -0.028515957 -0.08283616 0.07777992 0.025620507 -0.121472195 0.08128177 -0.017231116 -0.0050251186 -0.06820755 -0.14259672 -0.024943374 -0.0037659022 -0.062443797 -0.05324681 -0.033628166 -0.055269953 -0.008048104 0.060005855 -0.025059711 -0.06126922 -0.07776536 -0.005371639 0.027509782 0.032345507 0.028971056 -0.19849329 -0.0063135554 0.04899556 -0.08538392 0.06796549 -0.0029482988 0.12296763 -0.04260856 0.05418958 -0.014996949 -0.16777198 -0.090163596 -0.18055235 0.0820589 0.010521419 -0.05559653 0.06481372 -0.12781811 0.041718982 -0.04091295 -0.07048882 0.067218386 0.09227692 -0.08938805 0.19575782 0.081843436 0.022094062 -0.040879518 0.012764538 -0.073349506 0.042289287 0.018420093 0.07620647 -0.06571712 -0.013502072 -0.07175786 0.0021045748 0.051065832 -0.17817165 -0.023610728 -0.034725443 -0.0064010257 0.039445084 -0.105311364 0.0057158563 0.11448443 0.045854256 -0.044126138 -0.004275614 0.003345574 -0.019676737 -0.0127851805 -0.02199691 -0.00974534 0.04388933 0.07515317 -0.055471677 0.05888767 0.07720896 0.028072262 0.04043209 0.030283641 0.010601067 -0.020514334 0.02846416 0.00076813606 0.090172775 0.003323388 -0.14051336
9330:SIMMONS 0.18330999 -0.18586208 -0.08375871 0.034318585 -0.03280496 0.1424177 0.08768988 -0.017087692 -0.07255558 -0.09388087 -0.080953084 -0.09511232 0.015050099 0.071126 -0.004531284 0.006449842 -0.066508226 -0.15620536 -0.0016663135 -0.06431024 -0.018841531 0.048366304 0.060168836 -0.12756246 -0.024637973 -0.11712206 -0.014658626 -0.16702886 0.082446806 -0.07222632 0.2706795 0.09495245 0.06531851 -0.06675136 -0.09094126 -0.05124785 -0.025012342 0.16271242 0.15864775 -0.15859695 0.00037686338 0.040519502 0.088523954 -0.06885617 -0.0021249936 -0.04309773 0.039370093 0.044923358 -0.061513107 0.0040725414 0.087805785 -0.026036868 -0.044710387 -0.028642533 -0.11123553 -0.051427 0.07407539 -0.0032426235 0.030538104 0.05401674 -0.10188215 0.018682413 0.0020224582 -0.14394574 0.102496 0.07005242 0.19308354 -0.06419518 0.005567711 -0.12520297 -0.15044893 -0.11497798 -0.025189444 0.092133835 0.015684245 -0.07775938 0.0821386 -0.07983835 0.08664853 -0.09359131 -0.043886267 -0.058265813 0.04447822 -0.13015094 0.21376404 0.053469643 -0.0053699436 -0.0276351 0.0788407 0.0022906305 0.03274941 -0.031119341 0.0012177894 0.07157762 0.08054851 -0.08352264 0.0599524 0.149912 -0.09789105 -0.017190086 -0.042362813 0.027982406 0.029757893 -0.030354315 0.002347307 0.050424192 0.027403442 0.06493399 -0.054348644 -0.031463277 0.016742151 -0.12985626 0.060838096 0.008671585 0.010372085 -0.019479474 -0.061342843 0.07517136 0.06635228 0.029693384 -0.059073992 0.04544821 -0.043501332 -0.0528506 -0.12213529 0.04692826 0.020743769 0.163131 -0.081464075
4606:CEDAR_AVE 0.076221436 -0.1235666 -0.10558772 -0.0622073 0.0005162104 0.0550259 -0.015645178 -0.0166728 0.005904873 -0.05851965 -0.0023342017 -0.01912698 0.07599334 0.085658126 -0.011555653 0.019963553 0.08783399 -0.114624545 -0.010276602 0.014154461 -0.015599104 -0.020145057 0.02531249 -0.17750353 0.021230381 -0.01367315 0.037080508 -0.04559187 0.13443403 0.02113154 0.22976549 0.08773431 0.10681008 -0.049662482 0.02179989 -0.02941361 -0.070756376 0.052496433 0.050660733 -0.10819 0.07956378 0.009151324 0.037358508 0.008612672 -0.18885107 -0.116335586 -0.010393211 0.010525965 -0.08838701 0.016754178 -0.073831424 0.009495634 0.0068511073 -0.080756016 -0.074749485 -0.11267762 -0.009387198 0.03181852 0.08006051 0.027984712 -0.11396644 0.019153886 0.03443791 -0.06904 0.07017038 0.04066824 0.11157435 -0.04653855 -0.071631856 -0.022996765 -0.16990985 -0.11584384 0.009914297 0.07006994 -0.060154874 -0.0879742 0.046581116 -0.112179175 0.12910043 -0.19583099 -0.07843366 -0.07073282 0.05656106 0.00036437061 0.10904379 0.035707694 0.044524495 -0.073403016 0.035111338 -0.017713359 0.022590047 0.04022218 0.054119825 -0.05200208 0.012552082 -0.01168926 0.029907364 0.06222104 -0.060125034 -0.002241028 0.018401122 0.033644613 -0.016979713 -0.06770374 -0.018451579 -0.05834739 0.12203973 -0.07573996 -0.017512243 -0.036181152 0.050050147 -0.09919741 0.007969736 0.058011547 0.07623429 0.048610955 0.033228938 0.052519605 0.121302865 0.0048973197 0.0136832185 0.056972068 0.025109265 -0.046021406 -0.08650964 0.09516084 0.090391025 0.044610158 -0.13910827
8650:GLENDALE 0.11788653 -0.081753425 0.027163625 0.0114954505 -0.010810565 0.18654431 0.0066385805 -0.09169736 -0.03246251 -0.017235158 0.013900519 -0.057355903 0.037567448 0.0650608 -0.028973855 -0.07021948 0.037439436 -0.053191856 -0.005364327 -0.08597989 -0.009480915 0.0025398359 -0.0134748975 -0.12668225 0.071723826 0.009470429 0.0015685883 -0.012098035 0.12713636 -0.018156173 0.18739597 0.051628206 0.09781717 -0.05612251 -0.00628392 -0.15590757 -0.091561936 0.10237692 0.00045152966 -0.08328216 0.020426659 -0.0005968532 0.025034703 0.05548586 -0.11341497 -0.09288696 -0.011743844 -0.01041672 -0.01937668 0.04617882 0.029942915 0.055825043 0.056958627 0.008238921 -0.04910621 -0.06670998 0.01252794 -0.018679773 -0.03539242 0.015272768 -0.16558053 0.04479809 0.018553883 -0.08611247 0.03637095 0.058955815 0.04344984 -0.028612193 -0.0105004115 -0.013436652 -0.10466551 -0.12009264 -0.057170577 0.022045176 -0.037382875 -0.15575571 0.013649301 -0.15281335 0.09090171 -0.126457 -0.033747204 0.053636193 0.09478848 -0.0310536 0.14894657 0.016044876 0.017330572 -0.055977922 0.08286633 -0.11425558 0.020274792 0.014201347 0.081722654 -0.026469052 -0.06806165 -0.10216984 0.012933282 0.018654658 -0.025563175 0.01699467 -0.07584267 0.08571108 -0.010210167 -0.04011446 -0.05615687 0.011702922 0.016883684 -0.13740526 -0.05778066 -0.124564596 -0.052724365 -0.08595204 0.018996587 -0.0043770433 -0.08936835 0.07624553 -0.0061101285 0.099178605 0.1071867 -0.037055843 0.014738014 0.028560828 0.034832086 -0.043823607 -0.028011918 -0.012966032 0.058092143 0.02041914 -0.119839974
8519:NE_10TH_ST 0.09986558 -0.1442735 -0.070788525 0.04949838 -0.057706043 0.11944139 0.038064588 0.0025220176 0.0032525803 -0.076490745 0.039394192 -0.06966423 0.023162985 0.079918526 -0.059432402 -0.032018263 0.054152552 -0.06693214 0.1280864 -0.117280476 -0.06391701 -0.025324253 0.031452093 -0.22945295 0.062584385 -0.029089311 -0.065335706 -0.017739426 0.049826138 -0.0152988555 0.129805 0.124563694 0.062335093 -0.037072323 -0.061835986 -0.053161677 -0.12215906 0.108407766 -0.030381596 -0.14577942 0.034829367 0.0061576986 -0.03705777 0.13716197 -0.14238831 -0.066355966 0.02505244 -0.019645102 -0.029202882 -0.0057867276 -0.09631088 -0.07129578 0.007335178 -0.0017677781 0.014144141 -0.039989494 0.022472182 0.0035641615 0.023546694 -0.016212547 -0.11135767 0.079622775 0.07344462 -0.07013461 -0.010833982 0.05359674 0.13241625 -0.036008306 0.036384724 -0.102576695 -0.07171286 -0.05387978 -0.09936934 0.12191818 0.019538373 -0.10840779 0.021456318 -0.11647314 0.14122577 -0.05376516 -0.054297533 -0.031694613 0.034231603 -0.05058894 0.10513744 0.06858828 0.07873943 -0.072199695 0.0196936 -0.054042775 0.024546197 0.064334154 0.04230098 -0.053656787 -0.049667507 -0.09180238 0.07039947 0.018123053 -0.11530159 0.07618446 -0.10371162 0.09076287 0.013326154 -0.0966855 -0.07555422 -0.041016653 0.0780049 -0.073751874 -0.04727291 -0.10930812 -0.007633538 -0.08180476 -0.0018228815 -0.024873864 0.087387905 0.024337512 -0.03254318 0.041366767 0.12122236 -0.002852948 0.005793379 -0.00923752 -0.11204253 -0.07473897 -0.021597587 0.00049665023 0.036395345 0.031026354 -0.13166845
8474:STONEWALL 0.12009863 -0.06096528 -0.005101566 -0.0069607086 0.03505237 0.16612129 0.07813781 -0.14526789 0.009194201 -0.04284151 -0.05954915 -0.024419101 -0.026740396 -0.002085337 -0.0073488434 -0.0076175984 0.035052318 -0.0075732563 0.079748526 -0.027655575 0.021614121 -0.0012406014 0.021235788 -0.12561147 0.108587466 -0.045214593 -0.047862988 -0.06264335 0.11665378 -0.0040638517 0.19155304 -0.06703701 -0.0050604003 -0.12307223 -0.0855143 -0.116964355 -0.15103407 0.056322172 0.026899805 -0.035534564 0.117805295 0.042329207 0.029651584 0.04152124 -0.10904339 -0.081959456 0.060361486 -0.024279304 -0.06589964 -0.011294017 -0.078953065 -0.01236934 0.016338235 0.03576998 -0.04653572 -0.044131204 0.027043212 0.0008682483 0.049839266 -0.033481505 -0.14186935 -0.032490112 -0.017635508 -0.13588388 -0.0048064813 0.0498747 0.039300088 0.0350556 -0.024568267 -0.017318299 -0.077498585 -0.06803858 -0.10155402 0.03922185 -0.009171125 -0.21339434 0.07700388 -0.026485333 0.044580612 -0.17965744 -0.08276354 -0.036254305 0.07182301 -0.066591516 0.14672495 0.012728129 -0.020413933 -0.11722645 0.008813015 -0.092447974 0.01670246 -0.01219955 0.032959666 -0.048208345 -0.043837126 -0.15136892 0.05299592 0.052710023 -0.084816776 -0.02590033 0.05039303 0.07793653 -0.086871766 -0.090837665 -0.018273158 0.031719066 0.04553971 -0.052229702 -0.06433421 -0.06122072 -0.034373924 -0.13482292 0.019698849 -0.010723869 0.0002169251 -0.013249072 -0.0016483631 0.049893316 0.024458213 0.033954125 -0.095635384 -0.054543603 0.07399071 -0.09789998 -0.15768938 0.01183284 0.13111913 0.010026772 -0.07586963
8707:WILKINSON 0.054234274 -0.11173343 -0.038426176 0.078778446 0.028945642 0.096299395 0.07207422 -0.06533876 0.017648796 -0.061325274 -0.038006134 -0.14626928 -0.029662192 0.059916943 -0.017890794 0.020799356 0.06163041 -0.054832615 -0.00023338245 -0.017406926 -0.028968548 0.015230975 0.013354654 -0.10745635 -0.0057587866 -0.07005512 -0.007477567 0.08380094 0.1460114 -0.009665887 0.13848907 0.019486718 0.07902511 -0.08150456 -0.05845648 -0.063212305 -0.026313799 0.033739764 -0.01597332 -0.15956594 -0.0032108005 -0.03537436 0.08991472 -0.021033805 -0.14013317 -0.12180601 0.026309067 0.017478356 -0.022600306 -0.015238956 -0.06502234 -0.07791191 -0.073644914 -0.07524902 -0.045337953 -0.015796423 0.06307764 0.00037115897 0.036254514 0.056467187 -0.17018865 0.022211928 0.025049388 -0.11295004 0.01640623 0.07799531 0.10216043 -0.054812487 0.06918171 0.026063995 -0.14859867 -0.1466627 -0.041092683 0.06734158 -0.0005444618 -0.1187608 -0.026120529 -0.20193668 0.12385062 -0.098899044 -0.09929487 -0.05300602 0.04486301 -0.18529072 0.113295525 0.047195055 0.033615023 0.029318064 0.021466095 -0.11477113 0.09573921 -0.059190445 0.110677235 -0.02165319 -0.06460047 -0.0638167 -0.0017517841 0.17644596 -0.08683137 -0.018922422 -0.0560524 0.04684254 -0.015729157 -0.067906216 0.03269155 -0.065386355 0.03477321 0.02568974 -0.054239366 0.003821454 -0.05873738 -0.14824738 -0.06394621 0.073012225 0.023511907 0.029460765 -0.038161293 -0.029716846 0.016397122 0.04882897 0.08586836 0.042522892 -0.012877882 -0.09430315 -0.116578475 0.032697286 0.071450904 0.037064835 -0.13950023
5619:RUSH_CREEK 0.13416046 -0.12516513 -0.030754521 0.077697456 -0.033080578 0.16605291 0.03651924 0.0047690794 -0.033202976 -0.09726049 -0.05278039 -0.04182244 0.071889885 0.06923761 -0.0930571 -0.021320708 0.03111545 -0.037047885 0.003881864 -0.015196495 0.030956857 0.059776507 0.081285596 -0.08656187 -0.028562412 -0.018566921 -0.05371873 -0.02603705 0.10356478 0.043015245 0.1222676 -0.019366572 0.0663234 -0.04554624 -0.0839114 -0.045750294 -0.010682407 0.059887152 0.02823291 -0.060145635 0.06713623 0.0069909333 0.0776576 0.033333007 -0.08841039 -0.1215442 0.051883474 0.03998015 -0.09142482 0.067471035 -0.00999033 -0.048967745 0.056114648 0.018221617 -0.06001596 -0.07951047 0.06979207 0.03032114 0.042475995 0.03238553 -0.16418353 0.06477289 0.008450118 -0.11039341 0.048616298 0.09579487 0.11116673 -0.10543355 0.0266659 -0.06306673 -0.06518282 -0.12284549 -0.14152573 -0.021602558 -0.0668616 -0.10041167 0.04623769 -0.12165107 0.055060938 -0.10546382 -0.028791675 -0.12724937 0.08985702 -0.05260812 0.15256234 0.03355574 -0.013718357 -0.006668907 0.045465466 -0.041952964 -0.033904094 -0.015230273 0.04345497 -0.007854729 -0.031746723 -0.11422129 0.0035567787 0.018105047 -0.026973026 0.03977335 0.055575985 0.080099314 -0.08799094 -0.06257822 -0.026462283 -0.031368736 0.093291424 -0.021195328 -0.043564767 -0.015197123 -0.04763059 -0.04183365 0.046915352 0.058468904 0.006651938 0.053390957 -0.045877762 0.020675983 0.032759715 -0.005484274 -0.025472518 0.09746429 -0.036018554 -0.17671648 -0.026071904 0.03795928 0.15721737 -0.012555088 -0.11480113
8141:SAGE 0.11069221 -0.09645662 0.0015717183 0.007970781 0.03790501 0.13080879 0.0036188855 -0.036090583 -0.03112566 -0.03255298 0.03917587 -0.048183322 0.0668054 0.018850014 -0.013650024 -0.079766154 0.038656455 0.0067751226 0.07636748 -0.008462149 -0.062021397 0.04700724 0.018949434 -0.20103532 0.05955739 -0.019598594 -0.07994687 -0.07174792 0.08003454 -0.056019537 0.21020177 0.0902948 0.016466914 -0.09556529 -0.0994806 -0.064091675 -0.08550307 0.024687648 -0.0031093596 -0.041198723 0.0764932 -0.07384706 0.08462693 -0.030302376 -0.05426572 -0.117963016 0.018905634 0.0561369 -0.077257864 0.08493817 -0.055710997 -0.03714956 0.10373105 0.029216077 -0.13159299 -0.028626662 -0.026713958 -0.053691737 0.042372975 -0.11165509 -0.19331071 0.061538257 -0.0141402725 -0.08270057 -0.06443392 0.1470046 0.07368742 -0.075635 0.056225844 -0.15021342 -0.12306482 -0.11025362 -0.07510126 0.061614174 -0.03435154 -0.11935827 0.005627385 -0.09505627 0.03777047 -0.09037807 -0.100559436 -0.018238613 0.055577014 -0.07018511 0.099205576 0.041399475 0.039385643 -0.07226356 -0.023436515 -0.046820544 0.11989658 -0.005514355 0.09221892 -0.03307247 -0.116738394 -0.039374523 -0.056325644 -0.04277616 -0.03667732 -0.013685002 0.0074347765 0.042428706 0.05409715 -0.007295352 0.03224558 0.07032081 0.013302073 -0.016246583 -0.007574152 -0.073750526 0.0052901264 -0.107879415 0.02415047 -0.047981698 0.06766106 0.054608066 -0.033099458 0.105453104 0.059394136 0.032662053 0.08852798 0.039168876 -0.041429892 -0.13895422 -0.08367249 0.015424557 0.046825055 0.025490906 -0.12262983
8536:WASHINGTON_PAR 0.12629965 -0.09527338 -0.021423653 0.080906756 -0.043339867 0.106999315 0.025007688 0.013203297 -0.029925806 -0.0346672 -0.07184846 -0.05194966 0.048324805 0.044671983 0.00470236 -0.024764402 0.058252145 -0.18057701 0.023245476 -0.007536727 0.02511304 0.08162155 -0.012098926 -0.113062315 0.020291239 -0.01990433 -0.095851205 0.0070216367 0.06444909 -0.022810442 0.2716274 0.0906247 0.1712526 -0.07788606 -0.033374924 -0.030675804 0.066272795 0.005824259 -0.050931927 -0.1159853 0.07306729 0.05043279 0.06300251 0.0024822734 -0.11698673 -0.06104062 0.003212588 -0.023122737 -0.009232172 -0.06592128 -0.012126179 0.014433511 0.038306933 0.058251992 0.0119383065 -0.11578599 -0.027113227 -0.005438035 0.0050347373 0.035212148 -0.1314677 0.010029235 0.02559007 -0.13497066 0.04317246 0.014209026 0.0264058 -0.08562593 0.049885336 -0.06528164 -0.104879305 -0.09704049 -0.15888217 -0.051415212 -0.003087818 -0.102436155 0.051102724 -0.06367089 0.08011586 -0.14592421 -0.07004486 -0.03645257 0.007978465 -0.0382346 0.099247515 0.019446021 0.007662439 -0.04299996 -0.03356173 -0.07899857 0.0521183 -0.07229617 0.062841035 -0.017421618 -0.045118432 -0.11217303 -0.035723194 0.07110055 -0.099507004 0.012031799 -0.038593795 0.12521107 0.013601536 -0.018845072 -0.018252904 0.02011944 0.08598894 0.0035639931 -0.08765562 -0.03964807 0.020792559 -0.05801006 0.033625923 0.05071702 0.038832046 -0.016831182 0.03223337 0.07822279 0.10221329 0.031692423 0.0192608 -0.063456945 0.020752368 -0.07695897 -0.088642225 -0.09713458 0.100084856 -0.018193843 -0.16514699
8626:TROSPER 0.15893358 -0.07491149 -0.05229563 -0.025532054 -0.08186327 0.22257751 0.06436173 0.03371828 -0.046764594 -0.10040924 -0.08751287 -0.12528953 0.04998535 0.061494697 0.008367519 -0.008045846 0.041702606 -0.01363611 0.11093171 -0.031524196 -0.019518584 0.086288765 0.052388676 -0.102805726 0.17096214 -0.021016503 -0.017368546 -0.0183831 0.1304484 -0.07476854 0.17305902 0.08056474 0.054597907 -0.05188797 0.046255503 -0.072099455 -0.0015604278 0.111120656 -0.026921347 -0.10464373 0.036636718 -0.02637317 0.11580078 0.008566024 -0.022636462 -0.109537035 -0.062664196 0.0585164 -0.057998277 -0.112630785 -0.03592302 -0.013587372 0.032550007 0.008137846 -0.118218064 -0.059255917 -0.0024396733 0.062544 -0.009394933 -0.0689303 -0.14413476 -0.009592331 0.031196384 -0.13674863 0.11836696 0.020108677 0.09353457 -0.05947935 0.06388905 -0.055126607 -0.0740086 -0.103592545 -0.075903475 0.045905966 -0.053033262 -0.055375256 0.077777095 -0.08180915 0.114606425 -0.06856232 -0.012811684 0.008229076 0.046128605 -0.04704331 0.13228047 0.01164852 0.056782417 -0.09343757 0.0121861575 -0.1171166 0.076284915 0.056121245 0.11021349 -0.037373796 -0.031955477 -0.044835884 -0.023404535 0.05879066 -0.030080736 -0.039295983 -0.034738574 0.083615646 -0.034337915 -0.06554049 0.04049717 -0.110563144 0.06563643 -0.04697566 -0.030800818 -0.0008338459 -0.038742132 -0.10806928 0.013200695 -0.07147101 0.074510776 0.04131402 0.035311684 0.066839024 0.021463983 -0.00072442216 0.010442696 -0.029912602 -0.0010730337 -0.10491136 -0.049275815 0.024687205 0.1434492 -0.017347177 -0.043262977
8361:WESTERN_AVE 0.0078273555 -0.05661041 0.009602234 0.04850076 -0.027324287 0.23330411 -0.01816288 -0.027240427 -0.019120008 0.02912959 -0.05192479 -0.033233088 0.007029351 0.034982197 0.008332437 -0.0879891 0.0881259 -0.085819386 0.08265747 -0.013116505 -0.019876719 0.031798456 -0.013853839 -0.15702368 0.1376692 -0.07947598 -0.10957486 0.013246736 0.090381555 -0.025224468 0.22223774 0.0038253139 -0.005284105 -0.09919731 -0.023414347 -0.102507874 -0.09801558 0.07371396 0.07959752 -0.024301842 0.026995443 -0.024740286 -0.0021680421 -0.07192117 -0.06468392 -0.0095038805 -0.05445118 0.02542471 -0.099039435 0.04944677 0.07274186 -0.01725949 -0.05576859 -0.014751382 -0.065945454 -0.10277854 0.05038605 -0.09482044 -0.047248244 -0.058123674 -0.17127223 0.01762171 0.05148612 -0.14333373 0.030062163 0.048647556 0.074103594 -0.03844799 0.11357239 -0.114788696 -0.13663563 0.0130646005 -0.09398964 0.032140072 -0.13542452 -0.08734482 0.053974614 -0.16551338 0.116511196 -0.09220095 -0.046218675 -0.0041591027 -0.0002207459 -0.07664427 0.17991418 0.0602958 0.012978884 -0.101580195 0.04859195 -0.07328631 0.106542654 -0.029089212 0.018102746 -0.05877888 -0.08342424 -0.1288885 -0.04642634 0.011111157 -0.06893589 0.045046944 -0.085892156 0.102307044 -0.035662945 -0.034414575 -0.01706238 0.014760658 0.08077517 -0.04477705 -0.08788779 0.021761578 -0.030013716 -0.102283806 -0.03956118 -0.002086243 0.049529318 0.036751598 -0.063974224 0.06593245 0.11696745 0.019063368 -0.015437866 -0.007091663 -0.06837013 0.011645247 0.005438088 -0.023729503 0.06932911 0.00025871288 -0.16397178
5105:ARDMORE 0.10399989 -0.09894148 -0.05029058 0.051912207 0.03497976 0.22255984 -0.009634098 0.01305581 -0.09579653 -0.05183622 -0.030822134 -0.036323074 -0.02295715 -0.04281222 0.04802001 -0.041369807 0.12416694 0.037916936 0.03542996 -0.0573765 -0.059565138 0.0134136025 0.051423773 -0.14047539 0.04690547 -0.04992394 -0.07249566 -0.005878283 0.1338385 0.058564562 0.11244932 0.0028608735 0.14998809 -0.011903091 -0.07781076 -0.15623794 -0.10894655 0.10901482 0.055216495 -0.13282828 0.019018784 -0.022675795 0.024053128 0.06745938 -0.06662439 -0.17809513 -0.0035455523 0.022998296 0.0077257585 0.0030300284 0.0012237155 -0.01890743 0.036946043 -0.0012224019 -0.13133594 -0.047768377 0.047806043 0.02992078 0.024560997 0.0008052999 -0.12888536 0.04584299 0.074124485 -0.10805528 -0.04225951 0.07828099 0.08304343 -0.08046125 -0.012819018 -0.027746646 -0.0974788 -0.089419216 -0.15608762 0.06926501 -0.017580237 -0.09307663 0.075332284 -0.0035287766 0.07555589 -0.06816708 -0.085295625 -0.057139866 0.11012474 -0.066337846 0.11238033 0.05503016 0.017197883 -0.14833945 0.062721096 -0.047877155 0.060089447 0.07366645 -0.017566085 0.02545387 0.034249555 -0.11802401 -0.03726791 0.10554724 -0.075090684 -0.019434905 -0.043948177 0.06121481 -0.07761751 -0.073125966 0.0030924687 0.05010285 0.10360203 -0.09685534 -0.039668616 -0.014381195 -0.13352975 -0.031862374 0.01903946 0.08486784 0.0012913044 0.009938991 -0.035589535 0.015346337 0.08790343 -0.006787842 0.004831798 0.002378798 0.016815932 -0.1149545 -0.10378049 0.028487328 0.14627664 -0.036429994 -0.101061635
5816:PARK_LANE 0.11832217 0.008406738 -0.009841987 -0.008190279 0.026377933 0.1604804 0.03165544 0.05626406 -0.010401217 -0.040771406 -0.056486394 -0.113555506 0.04494688 0.059879776 -0.06760692 0.0032957902 0.0145585565 -0.0811546 0.08298926 -0.039118502 0.013507409 0.05363257 0.01885234 -0.09465064 0.07702819 -0.026512338 -0.0529127 -0.034169562 0.17178503 0.082160704 0.1988822 0.061710034 0.07012758 -0.07370907 -0.034573648 -0.08979583 -0.11379618 0.011734342 0.04281966 -0.014079722 0.09747412 -0.0043723728 -0.00029699775 0.01663232 -0.099783055 -0.047997907 0.051940016 0.0023644408 -0.039570753 0.048487026 -0.058878627 -0.01637803 0.0012477085 0.042254966 -0.07199552 -0.027433725 0.01661294 -0.03206747 -0.020745685 -0.08620989 -0.18991315 0.010211616 0.09269538 -0.06488298 0.03954068 0.08255741 0.08486103 -0.11722592 -0.0053770584 -0.006191634 -0.12875016 -0.109225616 -0.06457521 -0.08209532 -0.05566817 -0.11803117 0.012389057 -0.11287712 0.05003601 -0.15056516 -0.030706417 -0.044295717 0.049352005 -0.018552376 0.12345475 0.07629612 0.038007867 0.023022102 -0.00961994 -0.058530685 0.05814817 0.06066335 0.02851788 -0.09424366 -0.06387238 -0.06762621 0.011545349 0.054912057 -0.068699636 -0.0121262735 -0.10936908 0.09675023 0.009886079 -0.103430994 -0.058193598 -0.014734965 0.08603977 0.019028502 -0.12349949 -0.0011134011 -0.06826212 -0.053049378 -0.015556721 0.072603524 -0.024763554 -0.029599685 -0.09293516 -0.0070530428 0.05535892 -0.02225423 0.07013522 0.018070608 0.027518118 -0.10037002 -0.053630445 -0.017141871 0.077674404 0.057485595 -0.061405107
4106:HEMLOCK 0.064811416 -0.06501389 -0.05652341 -0.015127707 0.042375263 0.10075571 0.023297288 -0.0113721015 -0.05112046 -0.040179417 -0.058762625 -0.06315623 -0.03700233 0.07347458 -0.0498713 0.024200086 0.042913273 -0.112162836 0.07166281 -0.032308932 -0.06011341 -0.0010536058 -0.03871144 -0.087660946 0.050362695 -0.05612236 -0.06260952 -0.020859584 0.11358911 0.01356584 0.24495083 0.024470367 0.06930414 -0.03951832 -0.0024950556 -0.061434835 -0.051082753 0.09220047 0.0467425 -0.08089452 0.12794319 -0.032025468 0.0431273 -0.007971611 -0.19444121 -0.03938558 -0.020280123 0.009193705 -0.063450396 -0.035307962 -0.06712001 -0.06704636 0.07057392 0.042415425 -0.06729154 0.03947967 0.009135324 -0.10523841 0.07267754 -0.05483683 -0.14980994 0.04862009 0.08777254 -0.04981393 0.034419574 0.008616883 0.058416255 -0.06308693 0.08813753 0.014788119 -0.20103951 -0.06422659 -0.00030970664 -0.034713943 -0.03903733 -0.09844664 0.14570482 -0.09047329 0.11382923 -0.11751502 -0.047680806 -0.10822713 0.019400388 -0.05994136 0.122983396 -0.020950343 -0.022998676 -0.09779522 -0.05170285 -0.13464725 0.01764149 0.041194182 0.07004315 0.0019099845 -0.034625605 -0.16176535 -0.062916294 0.010541077 -0.0036582728 0.042448465 -0.0075133275 0.11832433 -0.029105343 -0.07553587 -0.07447985 -0.041131813 0.057349954 -0.11549653 -0.019390814 -0.1041257 0.0023694679 -0.094423085 -0.059613217 0.004598354 0.07899259 -0.012983489 0.01225985 0.038819354 0.10601567 -0.0033196632 -0.05742354 0.03343181 -0.032072082 -0.0579482 -0.06860912 0.012089159 0.17006946 -0.018647764 -0.14437366
9117:BARLING 0.092708185 -0.09517903 -0.044416834 0.055057123 -0.04288356 0.17948633 0.01502764 0.0018094141 -0.013075261 -0.085346065 -0.068931974 -0.029917011 0.052808486 0.03529993 -0.043840796 -0.074420445 0.018555827 -0.17012607 -0.011978894 -0.021599244 -0.03930109 0.020854196 0.16703147 -0.17084272 0.13010943 0.019946717 -0.08010442 -0.04698596 0.09605355 -0.028750207 0.15010184 0.103993244 0.07830585 -0.07111724 -0.028364073 -0.008610802 -0.10162023 0.048663557 0.09937276 -0.078618646 0.12719859 0.03690097 0.058007915 -0.00025339547 -0.22860868 -0.0059649227 0.06762268 0.07638721 -0.025634198 0.013728506 -0.10266261 -0.06730313 0.002008295 -0.018233817 -0.027682887 -0.14649211 0.048503622 -0.062560715 -0.016086083 -0.037099924 -0.12996833 -0.030661222 0.049107406 -0.039239958 -0.013847348 -0.007494023 0.07649856 -0.084254995 -0.09244758 -0.0059961993 -0.12832317 -0.039751794 -0.07528524 -0.016084315 -0.009529345 -0.060576696 0.09462954 -0.036560822 0.06103208 -0.08921223 -0.09583883 -0.030453429 0.06418468 0.031955786 0.017577505 0.072893456 0.034309592 -0.048438434 0.039997295 -0.051698547 0.011781978 -0.007440934 -0.007669771 -0.03509742 -0.064445354 -0.1350195 0.016603353 0.14987932 -0.088696174 -0.015718907 -0.0067037623 0.13925147 -0.041832354 -0.06971686 -0.029858913 -0.038779363 0.05676677 -0.10769143 -0.054387987 -0.032412898 -0.08631503 -0.10939513 0.049446817 -0.013803303 -0.007639618 0.03805196 0.022370355 -0.06743477 0.13289191 0.039395727 0.017659307 0.06606159 -0.008564494 -0.013578869 0.03409756 0.055104632 0.11837917 0.023293113 -0.12977365
3321:ROSS_LAKE 0.099516496 -0.12787238 -0.012892634 0.016741453 -0.054303046 0.20245196 -0.0186201 0.012039803 0.034469128 -0.06739495 -0.059720676 -0.1392938 0.04301862 0.06363194 -0.070029706 -0.102305114 -0.020612085 -0.0327084 0.059583344 -0.11047253 -0.05242286 0.016579507 0.0051419693 -0.104527816 0.06982032 0.02512648 0.008903987 -0.050318293 0.05838724 0.004755202 0.20170459 0.023195958 0.083477765 -0.06370628 -0.024256472 -0.08717251 -0.029547062 0.045593772 0.05112313 -0.086193085 0.032108072 0.0038994101 0.049789444 0.029317359 -0.10764144 0.06449933 -0.034075517 -0.027036006 -0.06695036 0.056800283 -0.06743389 0.016624 0.030330084 -0.04161478 -0.049685087 -0.005512973 0.025442064 -0.03652936 -0.03227372 0.008673958 -0.09494897 -0.016093291 0.14111464 -0.13165772 0.031018116 -0.0030437482 0.12449131 -0.054117527 -0.005881094 -0.07710126 -0.12644729 -0.10384545 -0.07937226 -0.042282067 0.022626974 -0.11537177 0.046378106 -0.10124332 0.15561855 -0.04664287 -0.12350157 -0.013792005 0.17520982 -0.10098586 0.14958128 0.0896372 -0.017994659 -0.07853571 0.009830885 -0.08605587 0.049958073 0.027185012 0.07065013 -0.025626533 -0.022008818 0.0007936192 -0.029222814 -0.05291205 -0.087230064 0.08154037 -0.031341746 0.06922859 -0.04317537 -0.014512303 -0.021845194 0.009286477 0.10927478 -0.07382883 -0.026895046 -0.04067043 -0.015166882 -0.09516728 0.03663627 0.027430346 0.06771675 0.118786156 -0.036935173 0.049453888 0.13265222 -0.0069923173 0.006599454 -0.01275269 -0.00014812716 -0.021907892 -0.059160534 -0.06433883 0.1303159 -0.04487977 -0.079648435
8621:DRAPER_LAKE 0.12501948 -0.08397764 -0.0537937 0.02733659 0.06742097 0.16258493 0.020538852 -0.08991483 0.039422333 -0.008028171 -0.05471456 -0.10478659 -0.024857495 0.121846065 -0.037658986 0.033856686 -0.029713474 -0.07060004 0.08982606 -0.07085294 -0.05389816 -0.008039711 0.00652197 -0.13169345 0.07305122 -0.032157958 -0.0025557543 0.03277986 0.0778496 -0.005492628 0.22346886 0.017165693 0.09310047 -0.10885578 -0.050626226 -0.0657165 -0.08728122 0.018826043 0.0356592 -0.122268066 0.045972213 0.010247712 0.026091654 0.03360371 -0.17084108 -0.045652553 0.043755706 -0.051083382 -0.087030575 -0.007894284 -0.053046852 -0.017689466 0.118306 -0.003423135 -0.10132365 -0.07549012 0.04949582 -0.08108775 0.053144112 0.0054084416 -0.15322345 -0.057401594 0.072460346 -0.08288255 0.07541366 0.07016488 0.080244616 -0.10433845 0.06725165 -0.03297092 -0.10980008 -0.101229176 -0.03813472 0.02046484 0.019202892 -0.08360255 0.04379684 -0.07338834 0.012803918 -0.18623675 -0.056065314 -0.044483438 0.049556315 -0.010778253 0.09808484 0.104950905 0.03429096 0.036384962 -0.015501673 -0.11583105 0.0002965401 0.00068108476 0.005350438 -0.10842839 -0.056018066 -0.05611577 -0.0021326302 0.06578679 -0.07239373 0.054070994 -0.08611488 0.03364046 -0.06551796 -0.06398314 0.038788173 0.06529687 0.06881536 -0.030958975 -0.107751474 -0.054497104 0.03477295 -0.0944342 -0.0434519 -0.0064411056 0.058344375 0.07610991 -0.05873102 0.08280739 0.09442161 0.02696487 0.013427089 0.0116026 -0.050117236 -0.06599641 -0.06902056 -0.03385373 0.0005672998 0.0044556987 -0.067435056
3608:MULDROW 0.10981861 -0.18349065 -0.003877951 -0.0223007 -0.036742553 0.10983521 -0.05464057 0.0049905283 0.021426482 0.012464848 -0.04756336 -0.10493904 0.087094605 0.08085787 0.058983143 -0.030054243 0.038317166 -0.01939806 0.016525524 -0.052939825 0.015734117 -0.031316884 0.016669227 -0.18707027 -0.04919035 -0.060116224 0.022473749 -0.009231817 0.10945018 -0.017292274 0.25704738 0.08043005 0.14103666 -0.061637066 -0.04627159 -0.038146127 -0.06563243 0.044427108 0.015617083 -0.11265273 0.048522744 0.014001975 0.043808565 0.0739646 -0.12629348 0.015514723 0.058662508 0.013737986 0.0022540889 0.074224435 -0.05769495 -0.005382438 0.032692645 -0.04798928 0.03686332 -0.054750253 -0.010515026 -0.064120054 -0.030358654 0.0075288173 -0.17775759 -0.040234666 0.051436555 -0.10523774 0.1114435 0.010374788 0.09075445 -0.07919033 -0.025125464 0.007112835 -0.21482697 -0.12609182 -0.10791161 0.051002078 -0.0094877845 -0.12884167 -0.035269838 -0.044325028 0.13087244 -0.059992053 -0.03711858 -0.053095527 0.030415427 -0.14127989 0.15658301 0.014004527 0.041687455 -0.018522324 0.043319542 -0.08346363 0.042879295 -0.053934168 0.06419118 -0.018552212 -0.031010529 0.029855303 0.0038748223 0.18558338 -0.06464071 -0.11628828 0.02098666 -0.011598893 -0.044718556 -0.012053853 -0.074214876 0.029582813 0.086730935 -0.03499744 -0.04504077 -0.031010475 -0.03274534 -0.11967658 0.0335885 -0.009378633 0.044678934 0.027001003 -0.017542494 0.035373624 0.15298577 0.063275725 0.046022702 0.012620232 0.10592407 -0.041424565 -0.07729794 -0.048061118 0.03482397 -0.010466515 -0.130153
9112:BELLE_AVE 0.18219872 -0.19593348 0.042005654 0.122508824 -0.040725883 0.18237677 0.03581389 -0.017959675 -0.058015496 -0.020558922 -0.043624472 -0.06989081 -0.045266878 0.12160252 -0.039501265 0.013580718 0.024657656 -0.118757635 -0.038340148 0.017623775 0.032990422 -0.020699339 0.057270516 -0.13268897 -0.01743906 -0.14303812 -0.06605593 -0.022663416 0.10967515 -0.09314931 0.26265174 0.12500176 0.07181959 -0.13480102 -0.0313823 -0.029528724 0.0020786643 0.05549835 0.051038057 -0.10240269 0.06259092 0.010302269 -0.00985462 0.009020871 -0.06834556 -0.095534116 -0.008078624 0.0036032407 -0.059500605 -0.027137483 0.008901885 -0.034088027 -0.078551315 0.0053442325 -0.053154115 -0.02024086 0.071203485 0.0510685 0.02745809 0.01776116 0.003822666 0.004574679 0.013575687 -0.1206139 -0.006994627 0.07339018 0.08986565 -0.12877315 0.032510906 -0.0041661467 -0.20362759 -0.15676907 -0.07974848 0.08648725 -0.02873089 -0.11515092 0.047777824 -0.10638063 0.053670134 -0.15781853 -0.07251806 -0.003228604 0.0042655915 -0.096454285 0.116727225 0.070771284 0.023198228 -0.03525134 -0.054811522 -0.103484884 0.020392451 -0.04214129 0.025299102 -0.100587994 -0.028896645 -0.1199639 0.009979932 0.09130134 -0.078039676 -0.008882869 -0.028577631 0.08030218 0.043887414 -0.04488619 -0.012620962 -0.022227276 -0.013228126 -0.008149366 -0.10053045 0.05111832 -0.008867626 -0.12457907 0.0025722024 -0.027704064 0.030062381 -0.07493625 -0.042917438 0.03562995 0.018200805 0.09788593 -0.02840867 -0.05032027 0.014156554 0.011805769 -0.080533 -0.04486049 0.0821027 0.0690371 -0.12261071
8308:LONE_OAK 0.04380632 -0.062689476 -0.015759705 0.0027359587 0.04534784 0.17587343 0.0395206 -0.09030811 0.021050641 0.03930948 -0.0334444 -0.11130874 -0.036530633 0.08562577 0.056240346 -0.0676417 0.04353719 -0.10145767 0.07355593 -0.026130386 0.011009936 0.019870182 0.029476518 -0.19732639 0.057738796 -0.051036663 -0.03705569 -0.04643058 0.11517786 0.0063135927 0.13674088 0.06687793 0.1815691 -0.06035747 -0.025667747 -0.039841793 -0.10537817 0.085856445 -0.018659797 -0.06313343 0.117801495 0.005326071 0.062294446 0.08925362 -0.091905385 -0.12554815 0.07307503 0.04557386 -0.09634043 -0.041194543 -0.01810424 -0.013125187 0.12810269 0.003450842 -0.028424304 -0.098330304 0.012883659 -0.07046482 0.025313385 -0.01656658 -0.20708291 -0.014604521 0.029015385 -0.106614985 0.019295279 0.08281193 0.018929837 -0.0452557 0.064522654 -0.12338304 -0.10427993 -0.14408018 -0.11009606 -0.017632373 -0.07081907 -0.13920584 0.035992973 -0.12293924 0.05259876 -0.09769682 -0.08156837 -0.026855623 0.017547123 -0.08152256 0.100844435 0.044162743 0.03777967 -0.05516306 -0.0069671585 0.0016783632 0.08089341 -0.040708005 0.048816666 0.021313164 -0.054369073 -0.101472855 0.038785033 0.085607156 -0.03392586 -0.06349872 -0.051241145 0.0746891 0.03864436 -0.023803953 -0.004700967 0.06356141 0.029921591 -0.025547938 -0.044565197 -0.084106624 -0.0038484407 -0.09337957 -0.01616712 0.0147954365 0.01922293 -0.0061823297 -0.048228282 0.09572585 0.12253285 0.1140212 -0.041855562 -0.014481868 -0.040616717 -0.11740214 -0.052029133 0.024754321 0.010399179 0.006535692 -0.119831406
7706:BRISTOW 0.122724384 -0.20034014 -0.13799663 0.110624656 -0.04988697 0.17186628 0.047808576 -0.09209105 -0.07509128 0.03949261 -0.07024686 -0.051615864 0.037222657 0.11016072 -0.06163971 -0.014868292 0.02541364 -0.061399687 0.037152667 -0.06391369 -0.070319146 0.0058860737 0.00052629225 -0.11727074 0.118859686 -0.06149151 -0.0029294225 -0.039954875 0.09682814 -0.05273046 0.19161241 0.038567882 0.044097137 -0.09739932 -0.043169156 -0.11380063 -0.050387394 0.021615399 0.047763545 -0.1453267 0.089692704 0.020420698 0.07198397 -0.027384806 -0.14972965 -0.12335562 0.03770594 -0.029756894 -0.0433523 0.028129054 -0.0369902 -0.039147496 0.08881028 0.013086809 -0.041669723 -0.035375495 0.034446143 -0.030712254 0.09490239 0.023314707 -0.115432695 0.045465317 -0.019946503 -0.07675648 0.045362525 0.033593535 0.10197359 0.008904507 0.015502287 -0.043762695 -0.10404176 -0.06301099 -0.1483456 0.039202962 -0.013762421 -0.08940764 0.07252952 -0.01821274 0.119326465 -0.019121053 -0.12044732 -0.011930752 0.081238165 -0.0066629397 0.10795944 0.009215681 0.07518823 0.0009515222 0.032189682 0.006715576 0.020877931 0.064522855 0.037896328 -0.0931129 -0.04467555 -0.09907616 -0.005848484 0.03146076 -0.074851565 0.026139816 -0.030523011 0.052855015 0.02639344 -0.16768584 0.0068556545 0.06281099 0.10115452 0.019112337 -0.07945396 -0.007023517 -0.004682343 -0.14929107 -0.050420683 0.022901252 0.07797142 0.016409738 -0.056065723 0.05510749 0.01710928 0.017574871 0.07049168 0.021167547 -0.012818694 -0.12303022 -0.077458315 -0.012079678 0.08383999 0.057424583 -0.0503958
7119:WARWICK 0.06838324 -0.11165487 -0.0035737453 0.054568812 -0.010334184 0.18780215 0.06372804 -0.038411744 -0.013912976 0.018791053 -0.12145919 -0.12648474 0.045155376 0.03687149 -0.03353592 0.040572632 -0.014696508 -0.06609161 -0.025528044 0.038851477 -0.013717943 0.070605576 0.048547123 -0.14945829 0.09784776 0.023509333 0.06600607 0.004456829 0.10111741 0.029812466 0.22168793 0.051261436 0.1080854 -0.07734675 -0.09672434 -0.049678903 -0.003444002 0.09493863 0.049459603 -0.011773557 0.13525966 -0.029445698 0.080914676 -0.06129403 -0.14144258 -0.07700777 0.0022122783 0.00014430893 0.08801442 -0.011062706 -0.012782565 -0.049615435 -0.022939399 0.04871544 0.038212035 -0.08841381 -0.021686025 0.0029361707 0.007900444 0.019237347 -0.08094747 -0.019953264 0.09682515 -0.112106256 -0.0067155794 0.040411294 0.16491905 -0.077287994 0.01597987 -0.013471833 -0.1745773 -0.114733376 -0.19418588 0.064950444 -0.084659874 -0.13901745 -0.030581187 -0.07319444 0.012961623 -0.104282714 0.0102933785 -0.045507725 0.07899736 -0.041596893 0.16176727 0.058833502 0.007438949 -0.06689447 -0.015385484 -0.13157076 0.124649584 -0.018471371 0.054946847 -0.0012968192 -0.018334651 -0.05014754 0.022931641 0.09061848 -0.0611287 -0.051676556 -0.03677836 0.079579726 -0.031444717 -0.0037752697 0.04260673 -0.0008797251 0.025431788 -0.10842134 -0.073963 -0.087777235 -0.05270453 -0.052607026 -0.045655 -0.014761013 0.018432016 0.07591135 0.0005252303 0.076015845 0.04838342 -0.018612731 0.022697164 -0.039233882 0.040587693 -0.002155588 -0.032174315 0.034227595 0.02840533 -0.0202079 -0.14163725
8522:MIDWAY 0.07428856 -0.09908116 0.0735881 -0.007879017 0.012411402 0.09316457 -0.005451433 -0.109157465 0.045468945 -0.032860357 -0.028572537 -0.059809543 -0.0047554034 0.15166433 -0.07829405 -0.03330518 0.027980598 -0.10465428 0.03560685 -0.032029465 0.013897488 0.018352836 0.051921032 -0.11121638 0.018641716 -0.021714317 -0.10060479 -0.0018824534 0.08312508 -0.0030983093 0.24310143 0.10333228 0.13303271 -0.04224254 -0.047745768 -0.12196919 -0.10164675 0.018139863 0.09008168 -0.08179704 0.081089646 -0.07526557 0.08186598 0.07239233 -0.12225723 -0.10154088 0.07286177 -0.032395214 -0.06558193 0.07567881 0.0043657864 -0.053677652 0.12834246 -0.01871921 -0.10017519 -0.07285945 0.029162508 -0.015104445 0.030591562 0.012279724 -0.04142857 0.062381666 0.053507317 -0.07007901 0.02578904 0.08770526 0.14973862 0.0014224125 0.0926101 -0.08697533 -0.109835 -0.062479116 -0.09845154 0.066820234 0.026968159 -0.15346691 -0.00071199116 -0.06234543 0.01546876 -0.1099061 0.011185221 0.009353858 -0.021026548 -0.06695431 0.21982986 0.011005329 0.007837808 -0.10271074 -0.029776422 -0.10490423 0.07486984 0.023446806 -0.030240087 -0.047497936 -0.03933692 -0.093201265 -0.016408943 0.08682015 -0.048360143 0.04634972 -0.016524427 0.0034871628 -0.099424005 -0.08336323 -0.022003789 0.03192019 0.07271549 -0.040852785 -0.058675084 -0.09091791 -0.04346434 -0.07196498 -0.0067666946 -0.01750587 0.0326027 -0.020421678 -0.004984555 0.10198244 0.061062336 0.010988871 -0.016599633 0.021066595 -0.065042935 -0.09515745 -0.050392427 0.012740799 0.107341036 0.0018763074 -0.14952943
3114:TENNYSON 0.15007415 -0.09958998 -0.05479586 0.016575942 -0.024451192 0.14005372 0.0350046 -0.07742751 -0.036850456 -0.04881131 0.02231733 -0.034758266 0.037621643 -0.024366409 -0.06338132 0.008301136 0.034525506 -0.11151619 0.065034896 -0.060305804 -0.049355995 -0.01396056 -0.04154192 -0.16784663 0.039918642 -0.07915659 0.014710985 0.014302794 0.1385591 0.10143005 0.15567505 0.041447476 -0.0009817723 -0.052036006 -0.07626818 0.003082556 -0.060280997 0.12636827 0.042754248 -0.02940885 0.08515951 -0.02689083 0.011314393 0.047413964 -0.1958941 -0.091281526 -0.03320961 -0.06432364 -0.086097956 0.0014593876 -0.047105372 -0.089993164 0.011908855 -0.030331435 -0.073591985 -0.041388933 0.06425769 0.008261149 0.037449855 -0.006269961 -0.16054308 -0.040317353 0.083692536 -0.18901546 -0.013708549 0.104169585 0.09211575 -0.04029378 -0.03930982 0.00037372002 -0.12253282 -0.07932208 -0.07244811 0.027959567 -0.022728892 -0.12788774 0.069083475 -0.14815767 0.0864189 -0.103791535 0.01378542 -0.030222466 0.043834597 -0.07866486 0.18010552 0.02080572 0.043507528 -0.010236757 0.034759562 -0.033519775 0.096561596 0.020748617 0.073367275 -0.04705823 -0.029482847 -0.15041241 -0.030822972 0.01126976 -0.12172696 0.09161125 -0.08057482 0.05753154 0.008315898 -0.05161812 0.00074532774 0.016368473 -0.008895791 0.003912583 -0.003870608 -0.03979225 -0.053254433 -0.082039855 0.015771491 -0.062923834 0.022130495 0.040807232 -0.018939503 0.11699801 0.073550895 0.006260307 -0.052330725 -0.020041984 -0.011671772 -0.012263136 -0.08479622 0.001585423 0.027398292 0.009011138 -0.2122629
5111:DRIPPING_SPRINGS 0.07708538 -0.13559783 -0.03184923 0.061312035 0.020427551 0.13415295 0.066728085 -0.0543189 0.019030452 -0.034978963 0.00047032608 -0.079034865 0.024854166 0.066651784 -0.03257715 -0.010565488 0.030938368 -0.076468065 0.04268746 -0.053089295 -0.011011949 0.062606215 0.031841993 -0.10972578 0.1470769 -0.057361197 0.0024952178 -0.04913771 0.11724265 -0.010271874 0.19041911 0.07114878 0.043272134 -0.008498939 0.010377348 -0.081485495 -0.04159965 0.030877803 -0.008340091 -0.09821761 0.12230007 -0.04617342 0.10447956 -0.0063307285 -0.124308914 -0.12149076 0.012008835 -0.029405216 -0.07168139 -0.014120587 -0.027041584 -0.05040719 -0.015331361 0.057576854 -0.0038252731 -0.04707014 0.03746762 -0.00061266794 0.027338825 0.072328135 -0.20316525 0.020715961 -0.013227453 -0.05774909 -0.053164646 0.040116478 0.07985542 -0.09483386 -0.0014122467 -0.038301818 -0.16826761 -0.074002765 -0.12576604 0.016381381 -0.048910517 -0.13235271 0.07264343 -0.074803494 0.057206184 -0.077141516 -0.014934065 -0.014064258 0.09741812 -0.06590396 0.15878431 0.040687993 0.057750393 -0.08493191 0.011275454 -0.060314287 0.063819446 0.039670255 0.045498565 0.037283212 -0.051727742 -0.14930321 -0.05030104 0.050559368 -0.07446802 -0.066335306 -0.08383324 0.034204356 -0.044890806 -0.05919272 -0.08771256 0.029704759 0.11898358 -0.040212993 -0.066632934 0.035832334 -0.05681689 -0.024277091 0.048561174 -0.0030993882 0.012749481 0.0054606134 -0.043871418 0.063883975 0.07680973 -0.05155004 -0.0092913 -0.037042253 -0.09026347 -0.1185847 -0.048593163 -0.053988107 0.03401762 0.011501705 -0.09882543
7505:WEWOKA 0.046505123 -0.046454735 0.007561056 0.080635756 -0.07712502 0.13073106 0.032975815 -0.005529187 -0.07777303 -0.027640233 -0.060334295 -0.062143706 0.025634577 0.063830696 -0.04194178 0.024522167 -0.0023764346 -0.012519827 0.006164825 -0.044172212 0.056867223 0.10139608 0.0499094 -0.15007569 0.084317 0.007620706 -0.03600453 0.08780547 0.18520081 0.06372513 0.18501084 0.15971245 0.1418771 -0.02482792 -0.054187257 -0.08061273 -0.050596748 0.09231682 -0.015184081 -0.106193416 0.078217 -0.046424385 0.05870958 0.013968343 -0.1001094 -0.021061247 0.011000755 0.021935815 -0.10051361 -0.015139437 -0.022009635 -0.0339397 0.01966007 0.08824069 -0.025804099 -0.05688241 0.009670109 -0.053490426 0.018237643 -0.0626641 -0.112528816 -0.036545288 0.04136636 -0.06335442 0.059062887 0.038393017 0.0689427 -0.04103224 0.0028083695 -0.0895449 -0.11180576 -0.14992048 -0.12786682 0.021539364 -0.12524486 -0.09140747 0.12941197 -0.124064595 0.103078164 -0.0629063 -0.033868596 -0.06719468 0.012388508 -0.03757654 0.098931596 0.09761037 0.081738256 -0.039836712 0.024066353 -0.11503331 0.018164324 0.0059749796 0.14272234 -0.069283575 -0.09775161 -0.09265397 0.06941538 -0.034138113 -0.06646952 -0.03318442 0.008503888 0.07061884 -0.022183297 -0.01978697 0.052614015 0.0004295789 0.10228939 -0.055699233 -0.08701317 0.05045541 0.016889948 -0.058253005 0.03737617 -0.012716099 0.07179835 0.068950586 -0.003090269 0.035953797 0.11745416 0.1194353 0.08962433 -0.021057816 0.015234576 -0.04645973 0.025918746 -0.07746146 -0.0028977795 -0.07093203 -0.07954124
8312:BELLE_ISLE_STA 0.14805903 -0.087524496 0.024787337 0.031975117 -0.044018105 0.14278875 -0.024293039 -0.037395716 0.02689891 -0.066979215 6.9118374e-05 -0.1212132 -0.07423437 0.06960813 -0.059347183 0.066529475 0.08065596 -0.07864577 0.062421754 -0.049284972 -0.06289 -0.023596313 0.045775972 -0.21714368 0.120302506 -0.024012672 -0.04097824 -0.06790227 0.076529056 -0.021877734 0.2121762 0.07461946 0.076231726 -0.037370387 -0.059612077 -0.10647911 -0.1856225 0.050623205 -0.04779467 -0.09393215 0.07437286 0.03398368 0.046931095 0.019659974 -0.08498319 -0.1526541 -0.016911872 0.04530153 -0.12009283 0.0054501607 -0.09368972 0.016411968 0.0581411 -0.029534364 0.018422704 -0.029605255 0.06433317 0.031729903 0.059147052 -0.0038741962 -0.12460458 -0.0071469992 0.098417625 -0.15257366 0.038641103 -0.02195298 0.08626587 -0.11941144 0.061066825 -0.08631105 -0.11861473 -0.08312585 -0.120163485 0.05381176 -0.071113974 -0.07864881 0.109342486 -0.095977254 -0.025505573 -0.05249222 -0.10452892 -0.019877851 0.015127428 -0.028514698 0.1616556 -0.01095415 -0.0039021184 -0.06327908 0.080486074 -0.049603637 0.028820792 0.009521314 0.02192151 0.008867501 -0.13509919 -0.08525606 0.035498176 -0.0015293842 -0.12172382 -0.010850202 -0.03942588 0.10871018 0.108836256 0.025370512 -0.07085587 0.0001892235 0.12279516 -0.06818148 -0.009717833 -0.008928725 -0.0027928627 -0.038917184 -0.025421413 -0.008400062 0.076795414 -0.03735837 -0.03758636 -0.0138667915 0.025596436 0.123747885 -0.029760785 0.0023290399 -0.09417642 -0.11522263 0.03451042 -0.032221444 0.07784455 0.0036158857 -0.07966874
8115:SW_22ND_ST 0.0807649 -0.0661319 -0.032408234 0.032026935 0.01766774 0.17191505 -0.014264846 0.020534713 0.03842862 0.002581619 -0.018472925 -0.015559741 -0.013694998 0.06830558 -0.019551506 -0.08928036 0.0630126 -0.106932215 0.078398965 0.055372264 -0.036564246 0.027308837 -0.04469723 -0.15736209 0.11586864 -0.035661276 -0.048299294 -0.0560988 0.102695994 0.061687544 0.17238545 0.09184822 0.12569003 -0.06691934 -0.035485134 -0.062662914 -0.0325939 0.11683391 0.052501787 -0.024545925 0.11062196 -0.072680846 0.023964943 0.021821357 -0.11664604 -0.13829666 0.015958238 -0.08898805 -0.097993016 0.014760209 0.034097914 0.022545183 0.026612638 -0.039662223 0.02269962 -0.075715795 0.03624388 0.04321632 0.06335512 -0.051265955 -0.15144263 0.023303336 0.07274491 -0.089701 0.060398404 0.12303483 0.06158759 -0.11533955 0.009341495 -0.05404654 -0.13126354 -0.10029253 -0.09713586 0.015044086 -0.0278574 -0.11250436 0.094288 -0.08462724 0.1119541 -0.10806076 -0.033650007 0.0065128286 -0.0014390106 0.017686915 0.1315961 0.12359768 0.009216198 -0.055965833 0.049737345 -0.037428804 0.05732641 0.05960426 0.10774402 -0.03926396 -0.045577947 -0.14848466 -0.03290506 0.0065314146 -0.12273043 0.004098978 -0.037337445 0.024790492 -0.007815994 -0.03230695 0.010519353 -0.011650581 0.12334788 -0.0536425 -0.09524727 -0.06015126 -0.08143048 -0.077470295 -0.015669534 -0.028017227 0.050557457 -0.002517631 -0.072734445 -0.009856037 0.017587489 -0.016914785 -0.009177823 -0.039842583 0.069924116 -0.057075422 -0.049917284 -0.05995689 0.10437025 0.031724397 -0.08408261
8336:TENNESSEE 0.12689441 -0.050040312 0.012363153 0.0513538 -0.010794517 0.054848332 0.078437135 -0.003111991 -0.05865026 -0.08362752 -0.012080056 -0.055599675 -0.019261394 0.081935145 -0.048656415 -0.045390874 0.05052895 -0.057722196 0.10015112 -0.13596264 -0.0027002548 0.04918179 0.050802335 -0.19962665 0.07091589 -0.041916218 0.034815405 -0.023773512 0.092720464 0.025341824 0.24693699 0.02100979 0.048041586 -0.046723057 -0.09803477 -0.06755283 -0.050435383 0.04263153 0.04540535 -0.06459419 0.076737575 0.01235207 0.11571198 -0.051332474 -0.029452061 -0.06447316 0.043559898 -0.033196032 -0.05932208 -0.05076381 -0.039601065 0.020978192 0.042622074 0.015034867 -0.02780874 -0.08518147 0.03201622 -0.0010522451 0.027664626 -0.09018852 -0.22009706 -0.074135445 0.025950385 -0.14097735 -0.014046175 0.080344364 0.105465725 0.029203696 0.014329586 -0.1070936 -0.101684526 -0.07931879 -0.110642314 0.00684771 0.0005836304 -0.118069485 0.026354466 -0.08548482 0.045967173 -0.0998685 -0.051310502 -0.024296358 0.07618212 -0.0251964 0.19846053 0.09511379 0.08443721 -0.057499185 0.04210599 -0.15796116 0.070337914 -0.00814081 0.09857887 0.038785353 -0.06427599 -0.10491777 0.012587522 -0.017429937 -0.03824839 -0.03999101 -0.022873996 0.08057678 0.017063722 -0.0108848475 -0.06830041 0.08579778 0.0714228 -0.079540834 -0.10034955 -0.039799456 -0.028800935 -0.09470132 -0.018229565 -0.024085507 -0.049729194 -0.015095825 0.029674228 0.031170798 0.07069686 -0.0031565214 0.06350749 -0.11895346 -0.0071070152 -0.014982956 -0.06707461 0.002157164 0.08747896 -0.0034139978 -0.0797106
3326:JAMESVILLE 0.1323532 -0.031210605 -0.056762323 0.08121652 0.030016849 0.14018524 -0.065456316 -0.041411918 0.04064316 -0.043538388 -0.108121805 -0.07038488 0.04201512 0.071007706 -0.027507965 0.011148815 -0.0030634245 -0.031995002 0.07401643 -0.058510456 0.014714621 -0.0006706531 -0.014088843 -0.16824196 0.12077181 -0.063529804 0.013958766 -0.035904046 0.09214411 -0.056848533 0.14254373 0.08919444 0.08038935 -0.060180444 -0.013398559 0.0010470998 -0.06571895 0.0058619548 0.026286002 -0.06267178 0.09869827 -0.012784455 -0.01453771 0.049893793 -0.20509993 -0.14159925 0.025212545 -0.0064663077 0.028064437 0.018625911 -0.09546631 0.021745544 -0.07789099 -0.007347503 0.020971032 -0.040108293 0.083903894 0.01056017 -0.04880135 0.040523805 -0.18247297 0.011963029 0.03527919 -0.0591299 0.041221738 -0.021594277 0.07313744 -0.09229959 0.09147334 -0.05247701 -0.11616278 -0.10576939 -0.09279115 0.019121993 -0.05108781 -0.0843434 -0.011869742 -0.029676473 0.03967274 -0.14950092 -0.105637364 0.019143937 0.104409896 -0.011293875 0.015770912 0.1067406 -0.023694184 -0.070790835 0.02694524 -0.13137907 0.024132367 0.00016580042 0.05017118 -0.10656888 0.018869039 -0.066470884 -0.067532934 0.104783766 -0.16446224 -0.042308792 0.0017502734 0.03903742 -0.0014744462 -0.055588968 0.01805092 0.012060183 0.09587573 -0.08209755 -0.07636547 -0.060868856 -0.07416244 -0.112234384 0.034968622 0.016943427 0.032393977 -0.0023433242 0.04230366 0.046321783 0.117340155 0.05785233 0.06707128 -0.07293827 -0.017499832 -0.033075616 -0.047505565 -0.06836264 0.06510637 0.0043699364 -0.15818167
8340:SILVER_LAKE 0.108530305 -0.10987329 -0.07905252 0.033139028 -0.044855483 0.15504137 0.04206119 -0.060774654 -0.072355494 -0.061946444 0.00954332 -0.104428925 0.14054297 0.010685664 -0.094337046 -0.051056057 0.04298836 -0.056704454 0.04148262 -0.12063765 -0.040902212 -0.032229297 0.02623228 -0.15073076 0.14245223 -0.05031267 -0.045634016 -0.01694227 0.066700354 -0.017620213 0.17160614 0.026631305 0.09957121 -0.12423841 0.056582015 -0.08239845 -0.05802566 0.04534617 0.027110418 -0.13496643 0.059436034 -0.078637406 0.02124522 0.028702395 -0.08643964 -0.07486753 -0.051021572 -0.013275353 0.008675071 -0.029377807 0.008703275 -0.02101243 0.018018425 0.02421033 -0.038729828 -0.08544223 0.034640808 -0.0036155512 0.010538777 -0.0474775 -0.26949146 0.021255419 0.068302676 -0.08355296 0.030262573 0.033457495 0.14164655 -0.04436105 0.028690843 -0.14030321 -0.068548344 -0.13495637 -0.07023259 0.090269215 -0.0180177 -0.06380018 0.06439573 -0.07897592 0.08719528 -0.053796303 -0.043492224 -0.051972035 0.00214492 -0.071086586 0.10604489 0.04155736 0.06554727 -0.06306777 -0.03147581 -0.05676902 0.05942444 0.000627583 0.060762353 -0.03164014 -0.071247995 -0.053844467 0.06498212 0.03662085 -0.032402694 0.019874483 -0.06140086 0.062212836 0.0032491395 -0.16501884 -0.05704749 0.024922496 0.026039757 -0.054550678 -0.025408672 -0.09004723 -0.041293237 -0.039953213 0.0033769985 -0.045532223 -0.013523785 0.051801275 -0.07186451 0.04001609 0.08068772 -0.02915774 0.014857877 -0.014715414 0.06668836 -0.040863648 -0.021282967 -0.05996873 0.08861738 0.050050534 -0.12481513
8656:FOSTER 0.110840574 -0.06745801 -0.012403282 0.060712364 -0.0069253114 0.15544343 0.019954454 -0.0061994516 -0.018871099 -0.06625834 -0.056211993 -0.074215606 0.0062551233 0.06018982 -0.08371643 -0.1301723 0.112967044 -0.020044517 0.049835727 -0.045097742 -0.005223446 0.025747558 0.055278007 -0.15023637 0.12594153 -0.022341555 -0.0344937 -0.04622481 0.15101735 -0.026640661 0.14813161 0.058045205 0.05041789 0.031470936 -0.11508694 -0.011370622 -0.07420186 0.10354604 0.021104056 -0.053958908 0.124644004 -0.059838474 0.085433245 -0.046253722 -0.096665375 -0.055954557 0.043071486 0.027212087 -0.059713606 -0.0219967 -0.1126868 -0.03094386 0.008547144 0.08997252 0.019170417 -0.09162489 -0.018575143 -0.04923705 0.016665708 -0.025991898 -0.05327688 -0.05434331 0.10471207 -0.081477724 -0.020124462 0.04342681 0.1402278 -0.040490795 -0.019644931 -0.10599208 -0.14899158 -0.13391328 -0.14701279 -0.043774262 -0.08183921 -0.036122188 0.11079555 -0.07637191 0.06535847 -0.11027856 -0.070857525 -0.073690936 0.046738856 -0.053481817 0.105898514 0.03867979 0.049952857 -0.091367595 0.07535656 -0.043327462 0.076732844 0.07010458 0.089713946 -0.029445302 0.01965152 -0.15390056 0.068536185 -0.009886682 -0.14982176 0.07703423 -0.027941026 0.1425373 -0.02429988 0.004865188 -0.118075036 0.0045131035 0.07862385 -0.07721182 0.018522596 -0.034428466 -0.019199107 -0.06881317 -0.03560517 -0.042409234 -0.0022416115 0.05594464 0.0017981298 0.006571114 0.14190386 0.060361624 0.003471711 -0.067923985 -0.02073888 -0.051986687 -0.07145734 0.07953241 0.013772535 0.011675726 -0.12808399
8542:RENO 0.13341703 -0.05076731 -0.12417159 -0.042155903 -0.02152999 0.18526283 0.038827773 -0.04969593 0.043836422 -0.08023111 -0.0297993 -0.08722556 0.08554181 0.044797238 -0.046067134 -0.031124998 0.04222701 -0.07653316 0.15257804 0.006759199 0.024995575 -0.010849351 -0.01912297 -0.17060757 0.075887874 -0.028527986 -0.026449192 -0.07946433 0.13339064 -0.023038043 0.13996464 0.05410028 0.04267325 -0.089865044 -0.013779416 -0.06070232 -0.014338148 -0.011351921 0.0071157576 -0.1449605 0.06849945 -0.06542542 0.05332392 0.095865056 -0.16135252 -0.108475976 0.06318862 -0.113159075 -0.07906352 0.026839921 -0.03195038 -0.0011084513 0.100372046 -0.038524777 0.021725783 -0.03769151 0.0069695427 -0.076760754 -0.005484019 -0.097510636 -0.1223329 -0.029610647 -0.086419195 -0.13823007 0.1247028 0.04381874 0.083925135 -0.046242137 -0.054875642 -0.074484125 -0.08204406 -0.100153506 -0.094287634 -0.003453665 -0.005793744 -0.10825895 0.091054246 -0.064218886 0.031885754 -0.13863052 -0.034836777 -0.01869226 0.06040241 -0.025538463 0.07828852 0.036178052 0.035690997 -0.042526737 0.07344365 -0.11978187 0.094952516 -0.030114517 -0.016248439 -0.07820028 -0.09832097 -0.058110103 0.036529314 0.12125328 -0.0982039 -0.024479799 -0.11186537 0.029935876 0.057209253 -0.022197567 -0.020149734 0.0036851815 0.055351216 -0.0067501743 -0.06525242 -0.09584713 0.0462918 -0.05852072 -0.040390827 0.025992842 -0.014245301 -0.0077985553 -0.0015430946 0.10841814 0.07273692 0.0037635367 -0.026508221 0.08958251 0.00036044625 -0.13863298 -0.08110962 -0.033229608 0.03571899 0.06497712 -0.10678536
9215:CHARLESTON 0.027227856 -0.06296896 0.0063482495 0.09590175 -0.024746923 0.14682376 0.03468618 -0.042810526 -0.080272034 -0.11440392 -0.0031922148 0.060324177 0.0067887274 0.039743047 -0.06908644 -0.047406454 0.02554125 -0.037978612 0.030873042 -0.103849225 0.07125158 0.04395644 0.08136016 -0.09657339 0.029658075 0.019179912 -0.030911228 -0.0409704 0.13352118 0.01314883 0.23194118 -0.020044727 0.076941006 -0.012533831 -0.037628435 -0.10510899 -0.05411656 0.10579694 -0.022890383 -0.07820631 0.09687283 0.05796494 0.08146021 -0.014408703 -0.13360393 -0.121804096 -0.028404715 0.033322114 -0.08212106 0.05697188 -0.048121214 0.060939852 -0.045557592 0.0010046874 -0.034092035 -0.06770196 -0.016431874 0.008300105 0.078086354 -0.08069796 -0.10456355 0.079569586 -0.033704277 -0.16459526 -0.055725522 0.07970696 0.06125377 -0.13448676 -0.03551516 -0.07610475 -0.14688851 -0.12628399 -0.03427261 -0.05286906 -0.039896782 -0.12732725 -0.017138023 -0.12225275 0.073740594 -0.12011672 -0.073960245 -0.02409419 0.047264554 0.026346087 0.104511574 0.055391774 0.012412394 -0.052401662 0.0089990385 -0.039582822 0.032583583 -0.005890666 0.07300938 0.00032059292 -0.05169676 -0.07975855 -0.010533175 0.0069787786 -0.06395362 0.03899841 -0.008115929 0.03773926 -0.08279226 -0.07277282 -0.095969774 -0.01593262 -0.002296374 -0.08087644 -0.062607996 -0.008304023 -0.12920304 -0.07275043 -0.0022179256 0.059116773 0.046641078 0.06105975 0.0077300356 0.07807222 0.1359071 0.042274196 0.039660137 -0.04166152 0.036969636 -0.09960603 0.0033948193 -0.009039729 0.032715842 0.101318024 -0.14850889
8337:EIGHTY_FOURTH 0.14484708 -0.07050495 -0.04859714 0.019500108 -0.0014851025 0.16360591 -0.03431414 -0.07133897 0.038041037 -0.07640367 -0.032230955 -0.06224914 -0.008380626 0.033781327 -0.04121115 -0.05017471 0.037524786 -0.1368556 0.059229884 -0.03622692 0.01370921 0.10689994 0.055192985 -0.1911277 0.08042813 -0.027134547 0.026474765 -0.03144176 0.10548212 0.029554807 0.20269834 0.12409925 0.11231477 -0.034489688 -0.09480235 -0.027180562 -0.074280985 0.089542076 -0.055635884 -0.07991545 0.061974023 -0.04286442 0.10022716 0.041926038 -0.018528257 -0.051797375 0.064466335 0.013919062 0.019413115 -0.010816742 -0.031528015 -0.034499045 -0.0014452949 -0.12223541 0.034361918 -0.059605855 0.012917888 -0.024378467 0.0527378 -0.025387637 -0.15331559 0.014702645 0.045465 -0.05679511 0.04296183 0.047784086 0.094301604 -0.03214239 0.048123777 -0.015124406 -0.14075461 -0.06366665 -0.10271552 -0.012234315 -0.063365184 -0.0833237 0.035133682 -0.10859913 0.14990501 -0.19579044 -0.048947565 0.037407007 0.05483251 -0.10998947 0.20762575 0.070995465 0.028276235 -0.049149938 0.0015101277 -0.07839244 -0.0018464766 -0.019774226 0.040869717 -0.018543009 -0.07039841 -0.013953795 0.021734403 0.03264646 -0.0881059 -0.044164076 -0.059077345 0.023745455 -0.0012576242 -0.08148684 -0.029054547 0.0046298085 0.03394119 -0.032601625 -0.01993663 -0.05914677 -0.042553324 -0.055128515 -0.027920194 -0.02610231 0.007495284 0.031713463 -0.021978613 0.042967673 0.071657114 0.09223249 -0.025730714 0.051493786 -0.051791713 -0.06815327 -0.091509886 0.0062047835 0.06692193 -0.06892902 -0.09029382
5907:RUSSETT 0.009498512 -0.14034729 -0.03352057 0.043780092 -0.03594844 0.16313711 0.03986801 -0.046542402 0.04196764 -0.044613753 -0.061045438 -0.033930097 0.06080219 -0.019295923 -0.0364957 -0.04993445 0.0629719 -0.057164248 0.08045151 0.0023256128 -0.04092683 0.042761333 0.0020670479 -0.1297105 0.10034861 -0.028764836 -0.05510448 -0.08446098 0.04482203 0.011078413 0.23475227 0.07415576 0.04106967 -0.025833257 -0.06808924 -0.036716107 -0.04976731 0.0047970163 -0.014145559 -0.13092059 0.06445138 -0.031137642 0.027624527 0.09630169 -0.14401117 -0.051064134 -0.018149832 0.16331328 -0.10093854 0.020158632 -0.05699558 -0.012316297 0.06263672 -0.03958447 -0.037385218 -0.05466087 0.0125401765 -0.1117564 0.021620046 0.023025423 -0.10177805 0.005117091 -0.0002226446 -0.15399167 0.045866165 0.06071027 0.21157956 -0.058536183 0.09261784 -0.07862173 -0.15563878 -0.07395369 -0.16706069 0.049783744 0.0061129793 -0.06434606 0.05167848 -0.06786978 0.088491395 -0.099340625 -0.044442985 -0.03160265 0.10195373 0.021980895 0.11230013 0.034900595 0.063770495 -0.07587015 -0.020841463 -0.07171612 0.07196129 -0.014426817 0.03236306 -0.041147776 -0.109507404 -0.05985066 -0.032221023 0.04884736 -0.021968976 -0.037601266 -0.057413034 0.021952285 0.012371678 -0.13843629 -0.096860625 0.015386601 0.048867613 -0.107212365 -0.063854486 -0.049464103 -0.06101781 -0.116883 0.05142559 0.069907166 0.06030637 0.032872178 -0.020405307 0.03130124 0.0746574 0.05094199 0.06315055 0.030237082 0.0052135973 -0.113609105 -0.013142105 0.0043393807 0.06633857 0.034423098 -0.03187269
8339:TULSA_AVE 0.11773938 -0.08839855 -0.06089 0.010868147 0.019009456 0.15875392 0.036936928 -0.06814915 0.040835906 -0.052444723 -0.016325485 -0.008063268 0.034495484 0.05293852 -0.04022896 -0.059311755 0.021829288 -0.068191 0.08474639 -0.076839134 0.037150096 0.079498075 -0.020346703 -0.10111956 0.045846563 -0.019753264 -0.059890278 0.06273342 0.1432117 0.012390126 0.19263797 0.01598856 0.124931864 -0.13268542 -0.06962547 -0.10626463 -0.029796524 0.062796116 0.04733661 -0.11137969 0.058744572 -0.034344554 0.068060696 -0.093366615 -0.17450292 -0.08217205 0.09056469 0.03326691 -0.03534811 0.024028968 -0.11485523 -0.019329447 0.094929114 0.05407831 -0.019320525 -0.055682942 0.07600718 0.016588211 -0.05220982 -0.04245502 -0.11481158 -0.073866576 0.0036761512 -0.08264015 -0.026252775 0.0093666185 0.1343925 -0.06841134 0.042960003 -0.031248072 -0.08793932 -0.06319931 -0.10573865 -0.011037674 -0.06568502 -0.07049239 -0.008028681 -0.08009092 0.10223168 -0.095081106 -0.078388914 -0.05318658 0.024943665 -0.06760704 0.18201482 0.039522827 0.1301541 0.06476665 -0.0031564978 -0.12591389 0.059884302 -0.038992845 0.0086872615 0.017399518 -0.026444938 -0.11937733 -0.030870033 -0.0111254705 -0.014061825 0.009222197 -0.08702038 0.0038636052 -0.05863024 -0.025279991 -0.07791609 0.013952922 0.07024117 -0.03269578 -0.03560099 -0.12580974 -0.00014850714 -0.032494217 0.039804265 0.010778869 0.10728756 0.02211618 -0.034078248 0.08294839 0.14686328 0.004590882 0.052104034 7.910034e-06 -0.08625327 -0.084787115 -0.05571305 -0.009974313 0.07852572 0.012059722 -0.09718245
5410:GLASSES 0.09189042 -0.1724645 0.026151946 0.036478434 0.00600634 0.09383785 0.07695045 0.009281609 -0.116467595 -0.049856886 -0.07664072 -0.010828296 0.02792027 0.03354768 -0.11215303 -0.001384492 0.05971548 -0.123047486 0.04150003 -0.03252184 -0.04558433 -0.07862673 0.08090208 -0.12376075 0.08828371 -0.09790599 -0.0079919845 0.035430647 0.15978937 0.009054943 0.23749545 0.040160865 0.06745469 -0.087735616 -0.082222216 0.013288784 -0.1082932 -0.031523958 -0.0102616 -0.11370651 0.11049561 0.00085204333 0.09316476 0.02693676 -0.13715367 -0.0756893 0.10577526 0.00960185 -0.03555325 -0.05021349 -0.017790334 -0.06390061 0.04659671 0.019078847 -0.07881607 -0.033428896 -0.0047572106 0.034706805 0.023074424 -0.054300394 -0.18766835 -0.018323155 0.056447487 -0.1300656 0.050149232 0.011388015 0.15201147 -0.03242232 0.021084541 -0.025277203 -0.14037138 -0.0903259 -0.09008775 -0.0022876093 -0.022460828 -0.09971236 0.04039698 -0.1121756 -0.019789841 -0.14617091 -0.059929322 0.06667143 0.023385119 -0.09659754 0.11140295 0.08895605 0.031805255 -0.03293738 0.09452483 -0.037896704 0.12489783 0.005737651 0.054705605 -0.06344693 0.04713674 -0.052868918 0.072458886 0.08184506 -0.1066312 0.048350696 -0.034635205 0.09320455 -0.05192903 -0.06599501 -0.084078014 -0.063369885 -0.017853383 -0.045980427 -0.045061503 0.022604091 -0.044877835 -0.18788518 0.06730683 -0.032267425 -0.03747977 -0.036627147 0.030005423 0.04854126 0.029826071 0.037830904 0.042076558 0.12248366 -0.02086188 -0.07401333 -0.09546505 0.08264438 -0.022385249 -0.0050398833 -0.09183612
5605:PAULS_VALLEY 0.078448735 -0.03859601 0.0034634734 0.12571046 0.05309611 0.1157889 0.048704438 -0.047130555 -0.021202583 -0.06390217 -0.07177568 -0.0024039156 0.057568163 0.11075187 -0.03565874 -0.046459194 0.043195583 -0.05246675 0.0927337 0.043008674 -0.016261376 0.08144631 0.053957213 -0.15690137 0.055844087 -0.110207565 -0.07215431 0.003579926 0.19236057 0.0061341194 0.2388571 0.10834362 0.08916261 -0.10185588 -0.035895236 -0.07179981 0.004493469 -0.006509589 0.026119309 -0.14122798 0.07435036 0.020996034 0.09106117 0.03922525 -0.12446966 -0.039259136 0.072805114 -0.025262112 -0.003827499 0.009948098 -0.11652999 -0.081953995 -0.00560295 -0.015915127 -0.091833584 -0.060192306 -0.033481777 -0.025059009 0.037044182 -0.0138132 -0.07504784 -0.14561167 0.06885774 -0.13744831 0.017047761 0.02572485 0.11464264 -0.04796881 0.020625873 -0.017780298 -0.10430315 -0.13671702 0.05815632 0.06932557 -0.07095296 -0.1002763 0.049286142 -0.06955614 0.07811729 -0.0837598 -0.106986985 0.036477648 -0.009285866 -0.027534451 0.06200897 0.08529253 0.036081634 -0.081132196 -0.04710031 -0.06449681 0.042616367 -0.0065479195 0.110561796 -0.078728616 -0.09479032 -0.1085662 0.07046407 0.07491553 -0.014735094 0.032241482 -0.009692533 0.08833209 -0.019806247 -0.073441446 -0.011702475 -0.035800867 0.06917389 -0.076002546 -0.0005323951 0.0027961833 0.051475015 -0.07986702 -0.004460294 0.07863212 0.0026092422 0.038284373 -0.004775511 0.021227928 0.13836694 0.04615273 -0.044720467 0.020808082 0.022585832 -0.092591494 -0.015616575 -0.052918874 0.101866595 0.038687054 -0.18267313
5107:TOWER_HEIGHTS 0.137381 -0.11738174 -0.042162742 0.019433608 -0.01848326 0.11670042 0.08895267 0.0832746 0.02559258 -0.054938808 -0.020629166 -0.026696345 -0.029136028 0.06963462 0.02436232 0.020020137 0.10177518 0.017227601 0.060236856 -0.050832536 -0.0690726 0.03545502 -0.049539823 -0.15862747 0.020008389 -0.03603751 -0.04163672 0.016049154 0.12612726 -0.007971174 0.19501211 0.040597234 0.16489202 -0.03283732 -0.05282716 -0.08873546 -0.07921789 0.101088464 0.014001633 -0.16913569 0.06617748 -0.030577619 -0.026827691 -0.01579038 -0.109420374 -0.12910128 -0.035157155 -0.02329923 0.0142475525 0.030720757 -0.031949706 -0.04481149 -0.013879564 0.029516678 -0.050866384 -0.077784814 0.052914463 -0.0022382336 0.045042347 0.04005217 -0.15071741 -0.053170096 0.033329513 -0.10262938 0.08199043 0.10113767 0.12655538 -0.091984555 0.0039194627 -0.11433142 -0.11317065 -0.07429442 -0.0011819685 0.031903524 -0.03702247 -0.023981057 0.06648931 -0.12719552 0.09987608 -0.16293947 -0.0552431 -0.014394896 0.060909066 -0.05956585 0.14128181 0.050815754 0.093490675 -0.016892554 0.018333722 -0.04535931 0.069496125 0.004367249 0.0776492 -0.075221814 -0.0101376185 -0.037381303 0.05704673 0.0841802 -0.051458567 0.012745122 -0.042189583 0.10922544 0.016062975 0.009665381 0.05677112 0.04165686 0.07206525 0.027168903 -0.036513146 0.0033060275 -0.018584564 -0.09656428 0.008980798 0.031851668 0.0014912002 -0.006979966 -0.079051025 0.0011900367 0.1412159 0.05115253 -0.014032966 -0.043378666 -0.093144454 -0.14761713 -0.111677654 0.012646807 0.09043093 -0.059889972 -0.13338816
8248:SW_5TH_ST 0.06725731 -0.010980206 -0.03260286 -0.019818116 -0.045959074 0.1278703 0.016433978 -0.055253476 -0.031914182 -0.013089859 -0.09177303 -0.0042032264 0.09068793 0.04948077 -0.062419135 0.0077090086 -0.024351744 0.021304425 0.08667031 0.049989875 -0.008338164 0.05653196 -0.012471894 -0.08028089 0.09946388 -0.008912507 0.02385226 0.055676464 0.15286925 -0.021384962 0.17033964 0.084299326 0.16408642 -0.054413702 -0.058596943 -0.07055886 -0.014602281 0.10350062 0.07095091 -0.09643527 0.091695316 -0.088103674 0.070808314 -0.0473228 -0.16147672 0.004888971 0.054134827 0.005387196 -0.12173452 0.05265022 -0.109050035 -0.018046113 0.089610845 0.021267196 -0.071969084 0.0014410343 -0.0007250403 0.014169493 -0.048549525 0.0092162015 -0.19308658 -0.12805569 0.042849362 -0.09301899 -0.026408615 0.08219685 0.064251855 -0.1136824 0.036808137 -0.032062232 -0.21947856 -0.11600885 -0.077298485 -0.01373898 0.007780256 -0.0792783 0.021233631 -0.06016082 0.056665774 -0.07629126 -0.0534651 -0.05922259 0.06744333 -0.029440502 0.1312043 0.09077591 -0.00927249 -0.004018438 0.063294984 -0.14953484 0.029802216 -0.008262535 -0.0036421758 -0.09307804 -0.12215507 -0.1399083 0.064881094 0.074008815 -0.012961314 -0.03909899 -0.028789124 0.059040606 -0.028051091 -0.05397746 -0.006217837 -0.05203406 -0.03418481 0.0014370274 0.050275598 0.005902222 -0.08504092 -0.13509983 -0.07287507 -0.013390262 0.01097374 0.10986322 0.06280392 0.029923828 0.057142127 0.021116994 -0.06454847 -0.097782776 -0.03357422 -0.045290887 -0.043933008 -0.018403394 0.116899565 0.021788126 -0.11826757
5506:BODLE 0.060888063 -0.07880868 -0.01757277 0.050146796 -0.028730348 0.17266682 0.0674008 -0.027451051 0.0060637663 -0.036271848 -0.052473664 -0.041812867 0.043445814 0.07467649 -0.07120274 -0.035708774 0.14969213 -0.13259679 0.015789917 0.0028923822 -0.013289021 0.06972686 0.015701734 -0.074387535 0.07199396 0.0315484 -0.053283006 0.021572186 0.11008406 -0.0019946506 0.16713604 0.05991935 0.06585889 -0.07725724 -0.019828351 -0.096789666 -0.09664569 0.09597894 -0.041791733 -0.06142325 0.080595315 -0.0014763041 0.056883104 0.032667223 -0.15548533 -0.09416626 0.03238694 0.024219677 -0.09360186 -0.000989265 -0.16587916 -0.07017716 -0.059621546 0.03259122 -0.06376407 -0.0646697 0.052152973 0.0014683533 0.025411388 0.015555162 -0.14480282 0.09686933 -0.0055300454 -0.12103168 0.01697595 0.036023393 0.07189084 -0.085318506 0.13039994 -0.113733694 -0.045324802 -0.052544598 -0.10239303 0.07176591 -0.060886275 -0.067081325 0.1164532 -0.119774714 0.049501415 -0.1653853 -0.026787397 0.081432104 0.06639903 -0.035741765 0.12658463 0.065110974 0.01610949 -0.026406074 0.021395765 -0.032206997 0.06714472 0.020983042 -0.024652418 -0.008899449 -0.13569233 -0.11283712 -0.07059024 0.05479647 -0.09658964 -0.0716582 -0.045359965 0.09415422 -0.0077194893 0.0021306265 -0.06650425 -0.0007735171 0.071684115 -0.06802959 -0.06632699 -0.07905996 -0.07448215 -0.04857786 -0.07344784 0.040228497 0.07494499 -0.0022563403 -0.015347539 0.047102902 0.09682021 0.04418372 -0.04686718 -0.017041486 -0.018931134 0.027052058 -0.117528826 -0.036013905 0.13970122 0.048494004 -0.09757827
8132:KENTUCKY 0.10671854 -0.20408316 -0.012360618 -0.037171215 -0.013612909 0.082727894 -0.048716486 -0.011529602 -0.04954662 -0.039120406 -0.07467861 0.055818103 0.010067125 0.07747153 -0.0086091515 0.040350363 0.022404522 -0.087630786 0.14198655 -0.11113732 -0.054087408 0.05563662 0.0714938 -0.08068265 0.03913326 -0.03209686 -0.06489204 -0.051945582 0.07757959 -0.03589244 0.19961455 0.059694078 0.16663602 -0.014063535 -0.046484474 -0.093457766 -0.13059832 0.07296705 0.018199176 -0.08340207 0.050440624 -0.005696994 0.057559166 -0.009567643 -0.18709017 -0.07499531 0.0006885158 -0.07511789 -0.062292445 -0.0057427203 -0.07878731 0.0089757005 0.07849514 0.08911095 -0.093535356 -0.12628889 0.05158503 0.039559703 0.07409763 -0.011640019 -0.1965107 0.047465418 0.036761235 -0.06487733 0.008869293 0.0524289 0.030103512 -0.06460496 -0.008116123 -0.04549218 -0.19062032 -0.13892502 -0.06577845 0.044992886 0.0005965603 -0.1249728 0.08711047 -0.024000831 0.07471729 -0.1712405 -0.071460426 -0.05618793 0.038929794 -0.0317626 0.10827314 -0.006821473 0.086642765 -0.058558118 0.002081309 -0.025142392 0.068985134 -0.015024531 0.05771737 -0.0047058184 -0.046331815 -0.012958211 0.0026500002 -0.013216925 -0.06008699 -0.044985335 -0.037627183 0.025458539 -0.032476883 -0.050668053 0.07552201 -0.049931467 0.0012515789 -0.1008887 -0.090294935 -0.037372123 -0.05013553 -0.11557789 -0.012189572 0.025350083 0.017188806 -0.014618828 -0.04066846 0.027041728 0.07888202 0.032444283 0.014967416 0.011557381 -0.043390248 -0.010113646 -0.12946196 -0.029018432 0.10062198 -0.035248157 -0.0422428
8365:LAKESIDE 0.09842995 -0.08277541 0.008836905 0.049724013 0.038744435 0.12008719 0.002655669 -0.0034432325 0.028250754 0.006699108 -0.039288126 -0.09211697 0.07451477 -0.0031772465 -0.0074193277 -0.03786875 -0.053125627 -0.0479612 0.031482045 -0.0033886987 0.075158745 0.045845717 -0.021807147 -0.11934698 0.030363103 -0.011714468 0.048392892 -0.06133453 0.094099715 -0.02662883 0.17384106 0.032883536 0.060486767 -0.08854017 -0.059181392 -0.1271909 -0.03133613 0.032365274 0.048456654 -0.1202992 0.06066395 -0.09133863 0.09357539 -0.08143416 -0.16226234 -0.053651992 0.088176705 -0.040766638 -0.099879414 -0.0073360438 -0.035049845 0.04355396 0.06913909 -0.02509094 -0.020818315 -0.09317142 -0.06880338 -0.012409008 -0.02681432 -0.045476828 -0.15900731 -0.028933117 0.020535296 -0.08157883 0.05907693 0.024438795 0.08801257 0.043739453 0.049812187 -0.102299236 -0.08305861 -0.10737156 -0.041036543 0.01779852 -0.06321372 -0.052914187 -0.02133003 -0.08118026 0.049347863 -0.18319544 -0.13844186 -0.05869146 0.101134755 -0.02687586 0.10415282 -0.02920766 0.018909575 -0.050040822 -0.028832901 -0.17560168 0.001277539 0.015166263 0.012218493 -0.0395442 -0.03185002 -0.049638312 -0.034632713 0.030029422 -0.12174485 -0.026503492 0.03641232 0.11331651 -0.04321272 -0.012474387 0.016994588 -0.059340518 0.0913146 0.009169541 -0.039315466 -0.019519793 -0.03588565 -0.06376157 -0.010967541 0.03747805 0.059419557 0.057369813 -0.0670206 0.05796033 0.13918507 -0.002846216 0.057734106 -0.018178374 0.015846262 -0.07402586 -0.09791425 -0.084152155 0.08769885 0.058658157 -0.11137639
4153:IMO 0.016693281 -0.025473021 -0.102929704 -0.0078530535 0.019787792 0.15789263 0.033313435 -0.05360873 -0.052588753 -0.076911315 -0.047608875 -0.018152827 0.062160414 0.08205614 -0.04335711 -0.0056585837 0.051864877 0.01012531 -0.014424161 -0.0022437763 0.0052999184 0.08170835 0.0060074427 -0.18534282 0.09953204 -0.099439636 -0.0095943725 -0.02761245 0.15454869 -0.0019642152 0.124507144 0.004503659 0.15394105 -0.109176226 -0.09814619 -0.019703843 -0.07402363 -0.009814461 0.015280087 -0.06226506 0.027421063 -0.028946746 0.053557575 0.02039646 -0.16426657 -0.063149795 0.06981323 0.015020137 -0.08483395 0.088994786 -0.11809964 -0.009730009 -0.016941814 -0.01788956 -0.12897116 -0.041321777 0.02967097 -0.03293149 0.0030125184 -0.036999766 -0.1727904 0.018689008 -0.029298332 -0.15668827 0.066131674 0.08352607 0.07471265 0.025011243 0.0058971504 -0.034166455 -0.08533502 -0.09102442 -0.047006994 0.014020999 -0.08571784 -0.09868241 0.04977388 -0.038248666 0.11905213 -0.114344776 -0.08450774 -0.036382955 0.09308847 -0.012515036 0.110215746 0.077458255 0.06842572 -0.04325925 -0.021713978 -0.115344726 0.10076419 0.058584444 0.031015633 -0.08772303 -0.002651112 -0.06584515 -0.039690822 0.04948426 -0.048954803 -0.08434097 -0.07052972 0.040441275 -0.0035899465 -0.031469982 0.007531621 0.00034938747 0.037948404 0.0015609995 -0.050045643 -0.0053393 -0.12755378 -0.05447184 -0.011729328 0.020915553 0.04071591 0.044940855 0.012230196 0.042529594 0.064875185 -0.039376643 0.03418729 -0.070933774 0.02566382 -0.14816831 -0.055674728 0.019790685 0.13758168 0.011153713 -0.050011717
8158:SARA 0.14941345 -0.14041404 0.0024365357 0.020586837 -0.024888696 0.14417523 0.050635625 0.003096359 -0.015873816 -0.020490667 -0.014562085 -0.067569464 0.04400213 0.03361022 0.05283227 0.025714843 0.11886325 -0.09633713 0.01585431 -0.11039379 0.027989477 0.06407238 0.08436179 -0.110737026 0.09393974 -0.0152543355 -0.0757578 -0.0050753597 0.10260175 0.0807351 0.20669313 0.028806861 0.124266155 -0.05386522 -0.022964258 -0.075804986 -0.08261992 0.091937296 -0.0043058493 -0.14519347 0.084716395 -0.08929782 0.0276982 0.08697853 -0.06596883 -0.113081 -0.022666024 -0.06491779 -0.0908072 0.01018191 -0.0012272667 -0.062090352 0.114371985 0.06470123 -0.052603755 -0.12420863 -0.021489179 0.0062747174 0.076080404 -0.056452453 -0.16095872 0.06469154 0.047867708 -0.1261101 0.078938864 0.0199577 0.049096774 0.007046706 0.010431693 -0.038011827 -0.1323743 -0.15011127 -0.08761662 0.0013554709 -0.02181381 -0.16048834 0.036557 -0.056982696 0.025218938 -0.090656385 -0.029419892 -0.010751315 0.09640927 0.020088362 0.1405146 0.016042423 0.03121006 -0.088475004 0.047042962 -0.06524546 0.02081969 -0.046312504 -0.015138137 -0.160137 -0.085782304 -0.02606239 -0.038646374 -0.014193264 -0.060975693 0.008527291 -0.021408513 -0.042810354 -0.015956936 -0.03179064 -0.060928337 -0.028929526 0.040921185 0.006383587 -0.11781815 -0.017388465 -0.053448536 -0.06483792 -0.0865 -0.043368585 0.10031545 0.036542166 0.007883252 0.009067879 0.06153296 -0.016475061 -0.018985813 -0.052075267 -0.036935505 -0.11779776 -0.110608436 -0.04107104 0.02801748 0.026477149 -0.045449484
9410:IGO 0.16338842 -0.04202088 -0.07958004 0.084155954 -0.05090111 0.1886389 -0.075337425 0.057849646 -0.044410273 0.013775651 -0.063847624 -0.104211524 0.014815188 0.05024114 0.01179568 0.004511547 0.016585715 -0.052845754 0.033629548 -0.08495743 -0.013176574 0.055840027 0.006505791 -0.079593 0.0734557 -0.028418412 -0.005072542 -0.029635172 0.08514327 -0.032942586 0.1853306 -0.030612348 0.1128599 -0.06416706 -0.03518297 -0.04557422 -0.0012562241 0.0715549 -0.0446491 -0.09008165 0.06901122 -0.11122742 0.074147284 -0.028424915 -0.084654205 -0.004666123 0.018922247 -0.1278019 -0.095862955 -0.009874085 -0.021231554 -0.023936342 0.12599848 0.05167574 -0.042347036 0.0142931305 -0.04123574 -0.02983969 0.03121784 0.036182635 -0.15216178 0.013547655 0.04606893 -0.123259455 0.059134953 0.009091221 0.1120651 -0.016617345 -0.002621438 -0.02770376 -0.042755026 -0.0663051 -0.08387461 0.048805654 0.00638785 -0.20161512 0.10898126 -0.023124117 0.11506 -0.105389714 -0.06873812 -0.07484002 0.022967828 -0.023526289 0.15643504 0.034882985 -0.012155841 -0.09414024 -0.046579584 -0.115775354 0.03990036 -0.0440694 -0.017828342 -0.053100742 -0.0055511766 -0.065137275 0.013525142 0.10183523 -0.11045005 -0.029708348 -0.06998566 0.09789901 -0.008554777 -0.007589228 -0.07685239 -0.02490659 0.0774067 -0.11694563 -0.06155951 -0.1275711 0.015060441 -0.05675376 -0.015135915 0.039998893 0.070450395 0.090905525 0.05820878 0.08160512 0.1415995 0.0055172383 -0.015241693 0.0036439481 -0.03814316 -0.088353 -0.067395575 -0.042993117 0.10661915 -0.0020616096 -0.11661814
8905:EL_RENO 0.05755975 -0.08288234 -0.05036114 0.109073706 0.012521236 0.16487868 0.056933 -0.0050495733 0.007370239 -0.052279457 -0.018637802 -0.08592567 0.0419615 0.03661463 0.026188701 0.025710497 0.05547622 -0.06269197 0.19053105 -0.039032154 -0.06513847 -0.014826672 0.05708332 -0.10205971 0.033118915 0.022496125 -0.12251781 -0.005431044 0.112730145 0.07360191 0.18841606 0.015301461 0.13475448 -0.06764383 -0.08022023 -0.119557336 -0.022735631 0.101377524 0.034159478 -0.1601544 0.033271458 0.00084133324 0.069391936 0.0043716594 -0.08451698 -0.040125262 0.027539143 0.009172177 -0.032633368 -0.013497802 -0.04565339 -0.029801102 0.044308744 -0.015117376 -0.034515187 -0.034205124 0.006711789 -0.057167675 -0.01902338 -0.0065695737 -0.14595817 0.0010059376 0.014263371 -0.079167664 0.023999292 -0.02110001 0.14777032 -0.074171856 0.02377662 -0.04624529 -0.14973103 -0.060605627 -0.046855602 0.006394064 -0.051003963 -0.064366795 0.12447103 -0.15037759 0.14546861 -0.1653216 -0.037571426 -0.17981243 0.0469822 -0.015069037 0.17098968 -0.017422419 -0.07081087 -0.06796601 0.008989343 -0.15905088 -0.01426974 0.044701356 0.0008603801 0.0012162386 -0.09790892 -0.17102206 -0.029075237 0.04254013 -0.04620784 0.007382715 -0.10254203 0.08708731 -0.04537192 -0.02802731 -0.08956601 0.060727563 0.08816008 0.002854649 -0.019868625 0.018145787 -0.05163096 0.05887076 0.0014064104 0.011086855 0.11203126 0.033481102 -0.010799052 0.028071476 0.04309042 0.02225055 0.036592588 -0.0594724 -0.04768617 -0.04568413 -0.0184257 -0.064664364 0.006780923 0.021694575 -0.09148526
5504:BUTTERFIELD 0.1548095 -0.10137449 -0.06969868 0.06561646 0.035638608 0.19704627 0.068635486 -0.045315646 -0.029213717 -0.0435019 -0.0053830873 -0.013665724 0.0601222 0.024311498 -0.046014328 -0.08811647 0.07236842 -0.05429779 0.048237983 -0.004619366 0.058935422 0.077847764 -0.0058464166 -0.08249174 0.11854956 -0.038805418 -0.06346968 0.042449683 0.07862028 -0.04446781 0.246728 0.040416144 0.04275228 -0.05118733 0.018203605 -0.04498194 -0.017402925 0.03505657 0.047746707 -0.1231905 0.07883308 -0.033715736 0.07492205 0.03629336 -0.13734789 -0.08908723 -0.0346345 -0.111225344 -0.10713586 0.052963033 0.044196103 -0.02118229 0.04060497 0.010234723 -0.04580112 -0.0020996486 0.015475669 0.046257593 0.07220871 -0.14242624 -0.10206878 0.011467171 0.03341077 -0.07095384 0.014545825 0.01525672 0.042530484 -0.00985115 0.03738538 -0.05302115 -0.1343986 -0.078315906 -0.15247835 0.040231433 -0.085929565 -0.13403551 0.12865336 -0.20608237 0.12196953 -0.082374096 -0.0736846 -0.05367739 0.045307633 -0.028775409 0.130296 0.032846052 0.050611794 -0.06690091 0.02687912 -0.06353024 0.048628345 -0.012782728 0.023194613 -0.04463559 -0.024617897 -0.05072055 -0.0058330037 0.035519112 0.02407687 0.019596655 -0.069824375 0.028214017 -0.0262016 -0.03211808 -0.12561941 0.028547294 0.041322086 -0.093937166 -0.032776874 -0.03282532 -0.08930086 -0.040179 -0.09490339 0.038939632 -0.07640536 0.040607158 -0.010722497 -0.011224656 0.07697597 0.035486992 -0.00315608 -0.023499481 0.019648187 -0.07407693 -0.06885712 0.027242064 0.08071154 0.034695666 -0.12740192
9109:SOUTHSIDE 0.058727592 -0.08541936 -0.12682982 0.00024005046 -0.033027574 0.13790843 0.042972073 -0.026283521 -0.0033559718 -0.021559734 -0.12701139 -0.040722787 -0.056537826 0.044496063 0.036819253 -0.07317126 -0.015393278 -0.03790778 0.083172046 -0.024374444 -0.032121208 -0.05443625 0.06116079 -0.14052701 0.058142994 -0.034511745 -0.04413923 -0.088548414 0.12044943 0.01794234 0.23054786 0.0641938 0.049928963 -0.052462276 -0.057338692 -0.13554114 -0.0081920065 0.060756896 0.056382544 -0.10902001 0.020287659 -0.06476778 0.06502872 0.029746983 -0.12185052 -0.051234458 0.035503473 0.053039774 -0.06454061 0.036964905 -0.025655402 -0.036124766 0.031966157 -0.09141558 -0.017070822 -0.06096374 0.061201677 0.008866504 -9.260623e-05 0.017220952 -0.13051063 0.06067802 0.045354433 -0.11379473 0.07465167 -0.005799128 0.09753711 -0.018837038 0.057882078 -0.022137353 -0.09811797 -0.10204648 -0.033103015 0.08788075 0.005085356 -0.07219822 0.09932745 -0.11731387 0.08210025 -0.19136468 -0.08673192 -0.051080264 0.08104544 -0.042876996 0.13439237 0.050853018 -0.00887982 0.0072247474 0.021120047 -0.09108879 0.040333766 -0.0066437754 0.042886205 -0.03991794 0.017142786 -0.101721816 0.02211374 0.029136734 -0.10239718 -0.07957787 -0.033912767 0.11900812 0.06020198 -0.032593034 -0.0049140155 -0.011640139 0.06821981 -0.08650744 -0.051917482 -0.030446194 -0.01549651 -0.021193726 0.028034069 -0.0071529974 0.059767906 0.020089203 -0.041240573 0.10170247 0.17259657 0.06504789 0.053117976 0.04245205 0.08543951 -0.15316172 -0.05987608 -0.007212642 0.023147207 -0.020668233 -0.02719796
3110:RIVERSIDE 0.09033993 -0.13766456 -0.01632539 0.028052853 0.036922887 0.15576147 -0.03661063 -0.009438885 0.052704934 -0.14117832 0.038483992 -0.080186285 0.05162173 0.13501103 0.051216453 -0.03115973 0.11465032 -0.08091224 0.059148625 -0.056196578 0.037147734 0.02344537 0.07714541 -0.101376355 0.073330745 -0.074958906 -0.11985324 -0.00012620079 0.13145766 -0.0046535064 0.17318262 0.074811004 0.09753481 -0.1274839 -0.0661599 -0.10252638 -0.0662933 0.037225693 -0.048172593 -0.042909503 0.026384098 0.030703064 -0.02188225 0.005945919 -0.11099292 -0.08761545 0.059395164 -0.00066649495 -0.030120164 0.0554056 -0.095124215 -0.0061534806 0.0564317 0.038903084 0.04392614 -0.08746291 -0.06311785 -0.02309182 0.03854459 -0.046747442 -0.15144524 0.021825194 0.04803937 -0.18078715 -0.017592061 0.057689637 0.19168915 -0.099522255 0.0028696544 -0.031357702 -0.08182486 -0.115470454 -0.05943929 0.041161854 -0.01820081 -0.010982186 0.1218873 -0.055272877 0.045480814 -0.17224814 -0.0060143936 -0.028455501 0.07867711 -0.056543283 0.10502863 0.042224284 0.06340675 -0.021248572 0.0915237 -0.12418602 0.0981123 -0.0087798415 -0.01179244 -0.08086648 0.049215976 -0.10261652 0.0012641628 0.019136606 -0.10376088 0.0044499817 -0.0848774 0.055874653 -0.05308389 -0.036793157 -0.016876541 -0.015789725 0.109571055 -0.1102261 -0.038382906 -0.047988277 -0.03718598 0.026161972 0.055952508 0.018006882 -0.013632508 -0.00018904137 0.017512737 0.009057468 0.093561545 -0.016503412 0.053685326 -0.00021023866 -0.026027443 -0.045652647 -0.15692125 -0.05840195 0.06739719 -0.06051519 -0.09518845
3128:HANCOCK 0.008153613 0.005573163 -0.054619133 0.03321188 -0.023764612 0.15462919 0.02824161 0.006218088 -0.03905155 -0.047042407 -0.09161971 -0.042607937 0.1003257 0.07846203 0.009542906 -0.031247525 0.07518408 -0.11055867 0.11969528 -0.077641614 -0.06423019 0.06364053 -0.05091156 -0.14646697 0.08437625 -0.016594151 -0.028029632 -0.015441564 0.13135798 -0.033540867 0.17801364 0.015845153 0.053069144 -0.12383118 -0.00822803 -0.034537613 -0.11649063 0.11340184 0.042764965 -0.12934642 0.13951154 -0.1152996 0.035181504 0.023047399 -0.14539498 -0.046143323 0.014571649 -0.05242514 -0.11374276 0.050754342 -0.158261 -0.026772445 -0.019280829 0.011291032 0.06533246 -0.06605895 -0.047179073 0.03014736 0.03163687 0.013030193 -0.10907918 -0.017316887 0.048340917 -0.14155684 0.032286648 0.033647206 0.20256884 -0.10743039 0.060998432 -0.025728032 -0.070275694 -0.09222943 -0.035646945 0.022828545 -0.04214405 -0.017220708 0.035956312 -0.031736914 0.031375296 -0.1816694 -0.064857006 0.03192001 0.08925684 -0.052057374 0.10922674 0.057544064 -0.046238955 -0.11747389 0.018814258 -0.10415864 -0.014200768 0.009472156 0.027716646 -0.047701247 -0.031321447 -0.03017789 0.05173881 0.02754651 -0.1146324 0.022094889 -0.044862192 0.09079369 0.041210424 -0.060422745 -0.034537826 0.035900615 0.081299074 0.025091643 -0.0036653834 -0.053759534 -0.062465046 -0.076813415 0.061949648 -0.07443509 -0.01598677 0.011736502 0.047666453 0.079660796 0.12971087 -0.032174174 -0.021285137 -0.053841513 -0.07633007 -0.03487717 -0.057353225 -0.08702512 0.10195876 -0.014866791 -0.13054422
8921:JENSEN_RD 0.054652996 -0.11358071 -0.027888978 -0.0154123455 -0.033653516 0.12465617 -0.050921597 0.06854749 -0.03358153 -0.14909005 -0.03209486 -0.1011543 -0.011483043 0.05535669 0.0003143957 -0.018524231 0.10175543 0.006384473 -0.008332473 -0.061326396 -0.064943075 0.054059505 0.09667428 -0.046160854 0.111844584 -0.04144859 -0.08584179 -0.021558568 0.07527758 -0.011256552 0.21759385 0.06414407 0.12854433 -0.121939674 -0.026856903 -0.028499674 -0.04150655 0.09324463 0.017027866 -0.0669597 0.06121488 -0.015450888 0.10405786 -0.02743337 -0.117148526 -0.101277076 0.008490695 0.039979845 0.030380443 -0.013610458 -0.14065805 0.006211136 0.061402246 0.0022166807 -0.09097949 -0.06459297 0.060288657 -0.04975369 0.014776795 0.025520362 -0.18773898 -0.0059464197 0.039632853 -0.075131916 0.050805677 0.07970258 0.187521 -0.10527355 0.023655584 -0.071029894 -0.13439922 -0.043648623 -0.14424382 0.011165125 -0.07559319 -0.08039623 0.017970318 -0.046032414 0.12145673 -0.110987164 0.00080251624 -0.008965414 0.12506464 0.03398601 0.10811459 0.05555523 0.10560582 -0.052349802 0.11193953 -0.06004334 0.026181953 0.029737934 -0.0054496564 -0.019916777 -0.054193765 -0.035939038 -0.033941846 0.049646493 -0.08338547 -0.057531208 -0.017003007 0.10228967 0.01558842 -0.06543168 -0.041674934 -0.04806779 0.05713452 -0.056391276 -0.012730378 -0.08773702 -0.020899387 -0.015543632 0.021543248 -0.03356652 0.031284556 0.0542294 -0.0480125 0.027118284 0.084151685 0.01993127 0.011760626 0.0031749452 -0.049685203 -0.11049127 -0.033636674 0.00028788386 0.102948315 -0.017934198 -0.12676996
8163:SOUTHGATE 0.1745228 -0.10264831 -0.07313234 0.117079645 0.02505244 0.18937196 0.010133774 -0.016302787 -0.034880526 -0.03939641 -0.08331283 -0.011776957 0.023350487 0.019928612 -0.034341518 -0.016865492 0.077734314 -0.06722709 0.057009835 -0.037037805 -0.060782004 0.017777001 0.01907852 -0.1591388 0.023272926 -0.070616506 -0.031853903 0.010997165 0.123410895 -0.055523045 0.2195254 0.031400457 0.05694405 -0.081880935 -0.044253565 -0.059727836 -0.06467646 0.028316556 -0.010123905 -0.12203446 0.1407704 0.0034056664 -0.0008394316 -0.03619194 -0.0831576 -0.090000175 0.029582208 0.043465696 -0.076254375 -0.02979475 -0.08553289 0.0064643347 0.06217856 -0.017548136 0.020748205 -0.043914538 0.11221635 -0.024105903 0.019591061 -0.08574026 -0.11026747 0.041737445 0.03385142 -0.07395067 0.057475097 -0.0040783645 0.06920802 -0.01184616 0.021829372 -0.019121569 -0.16598082 -0.0689268 -0.077314995 -0.007709217 -0.020390507 -0.06566064 0.041604947 -0.061642904 0.13306233 -0.061256222 -0.06128647 0.08090313 0.12033609 -0.0152459275 0.18165706 0.09873209 0.05260395 -0.11328679 0.088056765 -0.16061598 0.017872846 0.039848913 0.002162623 -0.039932266 -0.07256902 -0.13149585 -0.058547985 0.02877866 -0.13378161 0.103860036 -0.03629573 0.044474177 -0.02712096 -0.0124487635 -0.091491096 0.0039443234 0.08154668 -0.043587912 -0.05757793 0.01234042 -0.026437672 -0.059866093 0.0005676609 0.05815981 -0.027067333 -0.011978735 -0.04652946 0.047034953 0.070714965 -0.0067530856 -0.07185807 -0.0054232413 -0.03081041 -0.06977881 0.0012763496 -0.040211692 0.015852677 -0.004124091 -0.12580152
8220:MAY_AVE 0.012009918 -0.056031436 -0.07485314 0.06917139 0.077378996 0.20148401 0.004732821 -0.04517601 -0.047016952 -0.0793481 -0.040396515 -0.055555493 0.111673 0.040743027 0.021456989 -0.050324284 0.044941604 -0.06507399 0.113027126 -0.09783842 -0.070849136 0.04939914 0.09190575 -0.07267978 0.12552074 -0.052199837 -0.013150266 -0.06243922 0.045428373 0.033010207 0.20774512 0.062291604 0.10541345 -0.005169258 -0.021970537 -0.052643266 0.00841024 0.014626913 0.096702114 -0.14709401 0.058986273 0.042937245 0.002633376 0.030519666 -0.10357756 -0.080330126 0.005032082 -0.03168428 -0.134909 0.041416112 -0.050209425 -0.018086579 0.06448405 -0.024132278 -0.052193988 -0.07800114 -0.009174802 -0.0015453929 -0.0029307578 -0.07103484 -0.17748621 -0.0286324 -0.0053488254 -0.106675506 0.013281316 0.041055 0.11392667 -0.06686485 0.049746215 -0.053166743 -0.13548726 -0.11343889 -0.10381114 0.07711857 -0.017145723 -0.055745978 0.12785979 -0.027424129 0.10329102 -0.104726985 -0.085644625 -0.06251467 0.04073107 -0.07180698 0.100208886 0.09093945 -0.036963444 -0.045367215 0.09291803 -0.07842261 0.067472145 -0.02812046 0.08574825 0.008772539 -0.013860255 -0.0639712 0.006145576 -0.026694005 -0.025347395 0.010574769 -0.061511938 0.0022394408 0.005471889 -0.10798943 0.0023603016 -0.013748127 0.1451647 -0.08577398 -0.023439592 0.004602798 -0.052638575 -0.13411021 0.058960896 0.055116728 0.07482311 0.04587537 -0.0466582 0.007561453 0.014906655 -0.02931266 0.070240244 -0.028773779 -0.065770954 -0.06853156 -0.1383941 -0.03225102 0.091852054 0.033895668 -0.054392
8617:SUNNYLANE 0.13511245 -0.098287106 -0.01516477 0.010709971 -0.04123868 0.17890017 -0.038713023 -0.044707898 -0.026279861 -0.0060902378 -0.086463064 -0.06802935 0.014965212 0.06339427 -0.03086123 -0.03942904 0.031537186 -0.04295419 0.041394968 -0.0028132393 0.008013567 0.033001352 0.0029228153 -0.15005583 0.0434213 -0.06620724 0.08192573 -0.02112271 0.09470015 -0.077101566 0.1433974 0.061801024 0.13021165 -0.09000343 -0.0077095316 -0.03494792 -0.063635714 0.03827014 0.048587706 -0.11402356 0.049587637 -0.01814311 0.0295098 -0.04350085 -0.12932616 -0.07902015 0.009474257 0.019431565 -0.053882174 0.023011824 -0.14550008 0.028454259 0.04943905 0.012408524 -0.038827386 -0.041185822 0.007049152 -0.015959686 0.0578136 -0.05629003 -0.19762588 -0.03881162 -0.025071409 -0.12073447 0.031535517 0.018661216 0.12677851 -0.08149508 0.026680676 -0.013959786 -0.08670002 -0.093528956 -0.12007063 -0.0008509698 -0.16335347 -0.05115366 0.08273662 -0.13903254 -0.026936842 -0.14480996 -0.13535452 0.040964972 0.04777805 -0.023799334 0.15520956 0.033965033 0.0046855863 -0.06828344 0.019732978 -0.038326398 0.025334312 -0.019983206 -0.018710949 -0.07543777 -0.0819729 -0.05258317 -0.018943496 -0.018629432 -0.0732992 -0.05879224 -0.041545127 0.029141163 0.065045446 -0.071712784 -0.13120155 0.007553391 0.073147394 -0.027037168 -0.061427746 -0.10646526 -0.1078083 -0.08894565 0.010688489 0.08203213 0.034585267 -0.036885705 -0.02897743 -0.030881269 0.13072737 0.016503569 0.0034199506 -0.03764518 -0.07669798 -0.06338081 -0.051394816 -0.08501516 0.1102701 0.014543113 -0.06668165
7306:FIXICO 0.15367757 -0.11387779 0.016247993 0.05450614 -0.021707198 0.18741478 -0.004121637 -0.02446572 0.05196297 -0.058071293 -0.02355288 -0.030284235 0.006328769 0.040492576 -0.03547249 0.06506843 0.11107419 -0.13947488 0.04551924 0.0072858375 -0.06893973 0.049151573 0.024364363 -0.07227193 0.036138266 -0.06672256 0.0012790146 0.02156273 0.09157469 -0.07875575 0.2416098 0.09834922 0.095146686 -0.055577327 -0.076369055 -0.08574382 -0.068082206 3.7235684e-05 0.045886785 -0.12635568 0.08848493 -0.009250935 -0.06719484 0.049447715 -0.12570187 -0.13120419 0.048620146 0.0023560675 0.006965656 0.08258332 -0.010581232 -0.029333415 -0.010243934 -0.05701196 -0.02376464 -0.08612442 0.032106116 0.0019498051 0.013788361 0.016578263 -0.097921655 -0.006121705 0.10129411 -0.08631375 0.028419644 0.07339197 0.13410778 0.018041668 0.022998124 -0.08471302 -0.09801453 -0.14993124 -0.14182994 0.013326222 -0.047879968 -0.08900154 0.076206245 -0.1304838 0.12772118 -0.063609846 -0.032365203 -0.027385104 -0.0046481574 -0.049454797 0.12752634 0.034235936 -0.014446957 -0.09923956 -0.007135917 -0.10266887 -0.015906459 0.036454238 0.075806156 -0.040832844 -0.025868326 -0.116665214 0.011616875 0.04777066 -0.06370304 -0.0013580201 -0.0036373977 0.04449128 -0.04951201 -0.074409425 -0.0034626587 -0.05940581 0.07873122 -0.048447628 -0.10078233 -0.0692469 -0.032575138 -0.085178114 -0.014513596 0.029780101 0.013873669 0.039509352 -0.04523563 0.014495323 0.06777293 0.032254957 -0.09549779 -0.036609694 -0.019702408 -0.025927698 -0.01869327 0.014489507 0.079746395 0.07346603 -0.13493194
9412:ALTUS 0.12299106 -0.14391674 -0.007515882 0.027426096 0.01452629 0.19533777 -0.008248114 0.005841239 -0.07434651 -0.10077 -0.04421142 0.015335258 0.09309984 0.1058266 -0.032808244 -0.047894746 0.020580394 -0.011168955 0.02498749 -0.052572336 -0.011769763 -0.031787585 -0.031115534 -0.09938091 0.1600798 -0.03965077 -0.018437251 -0.0057565314 0.051146008 -0.09208665 0.17461973 0.033736326 0.028169567 -0.01719153 -0.01547612 -0.16982424 -0.13550563 0.052242532 0.066490725 -0.13660175 0.053261116 -0.018981474 0.05829589 0.01175764 -0.08327434 -0.047107987 0.082371764 -0.019831477 -0.024197781 0.060862105 -0.0329695 -0.10429647 -0.019984651 -0.029185185 -0.052946616 -0.04454445 -0.020028653 0.0224898 0.057370916 -0.05485524 -0.16346556 0.016096734 0.059078798 -0.070318736 -0.006419777 -0.00044631463 0.106880315 -0.004008189 0.052487463 -0.14971863 -0.115218274 -0.10559814 -0.13352157 0.020578347 0.012366727 -0.033050537 0.124426104 -0.05124476 0.03846931 -0.10563358 -0.004240398 -0.054020442 0.064614415 0.0069746585 0.096881464 -0.039985396 0.047530062 -0.019862944 0.018591097 -0.07791092 0.107177444 0.06326933 0.08037149 -0.051929098 -0.100579426 -0.18790914 -0.03201248 -0.008445179 -0.037054002 0.03096616 -0.05416225 0.089151844 -0.006585596 -0.09675357 -0.08576405 0.015866892 0.0859786 -0.043930177 -0.043432094 -0.049150843 -0.087641165 -0.15045428 -0.00079634646 -0.03529987 0.07399396 0.03176689 0.011358752 -0.052642252 0.17288251 0.06772269 0.016683105 0.03348106 -0.024437144 -0.09109753 -0.13365345 -0.0020571116 0.06464844 0.048858095 -0.015163595
3209:BIXBY 0.11230696 -0.11026351 -0.02193977 0.014426093 0.008775624 0.2046935 0.08611285 0.0041551706 -0.035451885 -0.06659891 -0.051302787 -0.08536576 0.029315444 -0.015490971 -0.081772216 -0.0028414284 0.10505843 -0.09340832 0.12782967 -0.060755897 -0.003497513 0.12253518 0.06929747 -0.16561133 0.07241214 -0.059710488 -0.017188864 0.0076296967 0.10293477 -0.044391457 0.17395344 0.103351586 0.13685013 -0.11820375 -0.08455651 -0.15305279 -0.06418753 0.077909365 0.028679237 -0.11600639 0.11406327 0.06817039 -0.0016934394 0.006255931 -0.08543988 -0.05946031 0.008372759 -0.010588647 0.0103015425 -0.0064403513 -0.00043682393 -0.010050354 -0.00068778655 -0.010730897 -0.0063099926 -0.029784553 -0.013614021 -0.06746246 -0.0077620554 -0.038490675 -0.1675411 0.034582037 0.09742088 -0.06286664 -0.013842835 0.1129927 0.04832201 -0.079798326 0.039137032 -0.111985885 -0.14402631 -0.040087435 -0.10809994 0.008577019 -0.018594205 -0.11769207 0.029319625 -0.094040684 0.04213198 -0.059303716 0.017985543 -0.051963277 0.056222428 0.0043237205 0.050284605 -0.011208747 -0.0055748937 -0.017009282 -0.004282596 -0.1569826 0.035916414 0.010984496 -0.021859571 -0.057599075 -0.0419371 -0.07711262 -0.023876328 0.14223559 -0.031888418 0.0069195298 -0.072548315 0.075050406 -0.0028143513 0.05180262 -0.00074105273 -0.006132128 -0.024257306 -0.07847349 -0.12223711 0.028923735 -0.05032729 -0.06031355 -0.06984713 -0.033381566 -0.062240485 0.039884016 0.014142813 0.016093442 0.12557471 0.03293744 -0.031364206 0.0077630123 -0.022017686 -0.1218883 0.007287062 0.024688112 0.032617703 0.025721591 -0.15057991
8806:COTTONWOOD_CR 0.13632932 -0.029421765 0.017929718 0.07149768 -0.06025732 0.16183291 0.031178482 -0.06691034 -0.053106114 -0.05328915 -0.016330736 -0.074153066 -0.048394904 0.068832256 -0.024783418 -0.025123024 0.07774485 -0.093913764 0.036297295 -0.00031295442 -0.030691719 0.09688815 -0.00017502265 -0.1651171 0.069490924 -0.008099612 -0.059748586 -0.018159185 0.061422974 -0.0127244005 0.17356719 0.07211666 0.05853673 -0.16445264 -0.077197455 -0.08093916 -0.05199184 0.04712983 0.041593943 -0.027895305 0.0354682 -0.07464049 0.11081551 -0.039589003 -0.15183449 -0.06316342 0.0018987792 0.004995488 -0.037336767 -0.0068660504 0.016882153 -0.011344082 0.0062936973 -0.032698285 0.048259474 -0.08894338 -0.026538886 -0.03529243 0.03306055 -0.027493484 -0.13186471 0.029106544 0.063139744 -0.09011014 0.039475184 0.0863301 0.1140012 -0.082255274 0.0036715239 -0.056372706 -0.09403997 -0.12569296 -0.0747705 0.021385105 -0.08460995 -0.112185106 0.0013610214 -0.112856835 0.033879507 -0.07956068 -0.09435411 -0.030193193 0.03343396 -0.07642433 0.17673512 -0.013329992 0.08175344 -0.063917965 0.018512726 -0.13822456 0.099977136 -0.020509023 -0.014469643 -0.11060558 -0.09817369 -0.14101112 -0.0041673193 0.0703832 -0.05482354 0.0009146131 -0.052611586 0.011021975 -0.030609714 0.0035437332 -0.003191757 -0.023567684 0.047146305 -0.12621559 -0.1514772 -0.023351355 -0.03418269 0.0010149906 0.067992136 0.0126006575 0.00735517 0.02565713 -0.002100621 0.055457145 0.02268467 0.009579986 -0.014208455 -0.055614527 0.025829155 -0.019968808 -0.063558765 -0.033930525 0.09605087 0.09731355 -0.11395145
