281 128
8434:DEEP_FORK 0.005327242 -0.037784822 0.0021258476 0.00236444 0.074409306 -0.05798559 0.121074334 -0.037876558 -0.07010791 0.22084537 -0.08728569 0.03437812 -0.038333092 -0.026534315 0.11084781 0.10707338 -0.26949176 -0.072213516 -0.05179489 0.082716465 0.1529003 0.049634654 -0.03284956 -0.1234778 -0.20025185 0.1240196 -0.08340974 -0.024258144 0.042949602 0.043801215 -0.003822002 0.1523315 0.022923615 0.068565585 0.021779897 0.026890831 0.008896399 -0.058837276 -0.09371323 0.0761145 -0.032172505 0.052341927 -0.051977474 -0.062119834 0.07926538 0.065861754 -0.13425833 -0.1741616 -0.032710638 -0.035325814 -0.011846931 0.11377331 -0.010191308 0.0018800301 -0.10404493 -0.09915929 0.10289129 -0.065755874 0.012935316 -0.010192501 -0.05810409 0.013771286 0.13804673 0.08235619 0.015744416 -0.06849939 -0.035657518 0.03266187 0.043983415 -0.10104557 0.00087241794 -0.059831284 -0.08702498 -0.001434575 0.040433947 0.044903636 -0.114917055 -0.04074333 -0.010650217 0.080488846 -0.09385073 -0.09751471 0.07139768 0.18655707 -0.001089602 0.05916231 0.06155873 -0.07356628 0.096786566 -0.06620644 -0.05737029 -0.08939953 0.071692415 -0.09374426 0.09348752 0.16130058 -0.075147696 -0.09781206 -0.032277636 0.05987309 -0.12681414 0.0029119977 -0.12037561 0.03509339 0.028133323 0.06853108 -0.08894151 0.12656884 0.0765128 0.001574057 0.01805262 -0.0021079825 0.0008360791 -0.0054166294 -0.07264793 0.02411226 0.06911227 -0.014604925 -0.018606579 0.049285736 -0.09172196 -0.15294917 -0.057369206 0.03257536 -0.13223232 -0.10034474 0.05293144 -0.07888519
5506:BODLE 0.112383336 0.040210452 -0.029667005 0.033572227 0.10901444 -0.09930803 0.2309637 -0.099740505 0.027586604 0.2229265 -0.030240176 -0.047095273 0.039638415 -0.06451497 0.08581228 0.076563045 -0.16410644 -0.08360248 -0.09687567 0.10331485 0.14618126 -0.01673923 -0.07724103 -0.08606907 -0.03535796 0.111951575 -0.14459227 -0.0048260125 0.0053261016 -0.103934675 0.0061197984 0.050419185 -0.0002728969 0.015351321 -0.0030830896 0.11969567 0.051893033 0.021942506 0.020232994 -0.089027 0.055628538 -0.0824934 -0.14871682 -0.06638959 0.08096202 0.019327387 -0.1371232 -0.08585429 0.007050659 -0.048298255 0.013213336 0.068319045 -0.05607509 0.03108918 -0.22373447 -0.031066202 -0.027997008 -0.07801934 -0.05427568 0.05889791 -0.07573791 -0.066414714 -0.03599051 0.057936385 0.0345475 -0.023112284 0.02672933 0.12150005 -0.049205672 -0.054337997 -0.032335207 0.012457978 -0.07294396 -0.035195183 0.0072839772 0.009843847 -0.062018313 -0.0071375193 -0.01410004 0.011820243 -0.09311103 -0.112425625 -0.021827573 0.17661451 0.012914992 0.041379165 0.013446823 0.12523267 0.048938207 -0.056637406 0.030903334 -0.0618883 0.087958805 -0.031154882 0.19871327 0.18763345 -0.06991405 -0.18876338 0.022505568 0.035183232 -0.12342662 0.034304343 -0.11975052 0.014009865 0.04785975 -0.00963079 -0.038159236 0.06934791 0.10484473 -0.056351524 0.03900046 -0.020965505 -0.083121784 0.060388476 -0.00542687 0.00083867 0.013345338 0.052803677 0.10945595 0.07328638 -0.08156445 -0.13704653 -0.0831318 -0.05778806 -0.098047525 -0.16844766 -0.014016175 -0.04513895
5111:DRIPPING_SPRINGS 0.04116568 0.017137354 -0.046396647 0.03684588 0.04932424 -0.12065437 0.14272779 -0.09984526 -0.011704724 0.16584395 -0.034786444 -0.008226888 -0.06285356 -0.07506582 0.14293495 0.056335703 -0.20661938 0.08710024 -0.034125637 0.19884202 0.14599077 0.027560432 -0.033347897 -0.08109363 -0.07961999 0.18259257 -0.12174344 -0.08381787 0.037959445 -0.024261521 0.00537776 0.06478381 -0.064919755 0.011909473 -0.03265924 0.017350629 -0.054827712 0.05962953 0.020839948 0.057893556 -0.045895267 -0.006252689 -0.050070602 -0.09595765 0.14935164 0.059047934 -0.16696182 -0.08272933 -0.030737303 -0.027185546 1.7499824e-05 0.0051329522 0.034558445 -0.07280294 -0.13226387 -0.06796154 0.054718036 -0.068906195 -0.080604486 0.022908738 0.0077779945 0.041346177 0.067727484 0.11792918 0.077305555 0.025835257 -0.03449914 0.11166562 -0.005106313 -0.037801716 0.04198586 0.05068791 -0.11726838 -0.0800352 -0.014681107 0.11568458 0.010935532 0.0055788197 -0.024909163 0.036880743 -0.13077947 -0.14276265 0.008384029 0.21603033 -0.014141274 0.041125275 -0.023266986 -0.101613395 0.05604501 -0.10237177 -0.039383184 -0.02757227 0.104648605 -0.018641287 0.10960087 0.082039155 -0.102906585 -0.11167599 -0.043995373 -0.026532011 -0.09741643 -0.04185822 -0.082880184 0.07547129 0.0724927 0.10541571 -0.003637081 0.07211257 0.11528263 0.015295622 -0.06461552 0.004161144 -0.08532861 0.0127047375 -0.072798654 0.0067611197 0.05448774 0.013968662 0.09588233 0.16266456 -0.08805483 -0.11501669 -0.058467813 -0.15028144 -0.010876806 -0.117837586 0.029988915 -0.1010661
8493:KELLEY_AVE 0.09940271 -0.0064582713 -0.050827753 0.07222538 0.10385162 -0.029038254 0.0803278 -0.009029998 -0.074802466 0.19604622 -0.02195689 0.046176065 -0.037235625 -0.13336805 0.13089123 0.05711631 -0.07896026 -0.021897739 -0.10817007 0.21251424 0.05162775 0.09092381 -0.07303944 -0.13784938 -0.06553846 0.06571775 -0.07766247 -0.011495965 0.03516841 -0.006488782 0.04596524 0.07357463 -0.01697727 0.02201612 -0.072371475 0.13867736 0.035670545 0.0050905542 0.06796795 -0.081694596 -0.022783462 0.025638737 -0.039781865 0.014329799 0.19361518 0.05375128 -0.09538673 -0.122703835 0.004520585 -0.092624515 0.056454033 0.07760326 0.0058383625 -0.107432425 -0.124181844 -0.07214395 0.116639435 -0.07948032 -0.09475619 0.089261755 -0.04777173 -0.073634 0.07703267 0.081454135 -0.0057782535 -0.08212588 -0.02316074 0.027752275 0.002550675 -0.11260336 0.041128933 -0.046692394 -0.03361771 0.024575507 -0.055885002 0.006097203 -0.04161372 -0.06202958 -0.022414133 0.038133364 -0.004768966 0.008046733 -0.05526317 0.09961501 0.005312383 0.10423308 0.03240177 -0.044938058 0.116607964 0.002075266 -0.097124085 -0.03996904 0.1735299 -0.06514043 0.11507389 0.09248995 -0.059722014 -0.08866032 0.02024892 0.037002437 -0.12439824 -0.03454491 -0.15828896 -0.08283211 0.038608674 -0.017299583 -0.041149903 0.16261847 0.07008708 -0.06012672 0.061954122 -0.041927937 0.024400853 0.0649954 -0.09049022 -0.09678267 0.052890677 0.042757414 0.047095302 0.069347635 -0.1058386 -0.09553923 -0.06972317 -0.066562474 -0.08615834 -0.13948436 -0.03827339 -0.030065674
9125:CARNALL 0.041321978 -0.05689078 0.021069625 0.13827331 0.11216928 -0.16432187 0.094132565 -0.05045606 0.022546323 0.17428604 -0.035276517 0.019554652 0.01097336 -0.097058214 0.17009224 0.041120466 -0.18332794 0.0855932 -0.02566598 0.16138627 0.10246023 0.14209437 -0.0666694 0.0024331412 -0.07209903 0.17098023 -0.044364855 0.04748226 -0.015276132 -0.0041715624 0.03938032 0.080498114 0.006997994 0.006489996 -0.0120028285 0.1384479 -0.03757835 0.012187662 0.0550296 0.054642458 0.04581135 -0.09599804 -0.05495008 -0.0078223245 0.2241906 0.10317762 -0.19116208 -0.067587934 0.03392553 0.037181817 0.056296956 -0.00957219 0.040185846 0.051664837 -0.02835252 -0.026605701 0.095612474 -0.13517186 -0.007868686 0.004525632 0.020968437 -0.0526086 0.10159876 0.13995974 0.017484102 -0.020875335 -0.0012273178 0.047833044 0.02014241 -0.010481229 0.10313387 0.039384544 -0.013713021 -0.030114394 0.029406196 0.034801606 0.024271177 -0.0327602 -0.04152194 0.053762946 -0.15406166 -0.10267061 -0.064512014 0.20177235 -0.00416672 0.034246113 0.08751724 -0.098050736 0.10437596 -0.014960993 -0.1267567 0.0007644766 0.082238205 -0.09345686 0.1469155 0.11545925 -0.040338885 -0.18642299 -0.049988024 0.011790016 -0.17315085 0.019705324 -0.058289398 -0.06128337 -0.0009023451 0.078856766 -0.07935366 0.13593704 0.033439107 0.031610917 -0.0075829257 -0.051719204 -0.021274569 0.07275178 -0.050244853 0.0021308982 0.02876196 0.037136734 0.08365188 0.047803756 -0.10906567 -0.095676206 -0.09788091 -0.060908906 -0.05679796 -0.14391838 0.030499475 -0.07780921
8522:MIDWAY 0.0013196477 0.0825396 -0.047511462 -0.064293414 0.094241455 -0.053579602 0.16829473 -0.0514522 -0.050401203 0.15932018 0.036161315 -0.034502443 -0.12105538 -0.079026446 0.18174647 0.1347966 -0.09698591 0.08118699 0.0033217845 0.14677913 0.11772604 0.014996836 -0.08376036 -0.21521077 -0.09392108 0.1366376 -0.13183105 -0.061769493 0.058942262 -0.05557009 0.044625197 0.122948825 -0.012025769 0.015914181 -0.04323053 0.17113143 -0.0815919 0.010495318 -0.08017731 0.05825443 0.0030286594 0.060869 -0.06843838 -0.04938448 0.14243267 0.013060536 -0.12206181 -0.13744776 -0.04901756 -0.06811487 0.007457784 0.049424246 0.025368962 -0.043628436 -0.015529052 -0.0924193 0.035956062 -0.06757953 -0.10139199 0.036972117 0.0021336302 0.00952402 0.059982795 0.15141894 0.078066334 -0.084546685 -0.075076394 0.0985351 -0.09620062 -0.053754233 0.02127353 0.02579521 -0.0736721 -0.036170747 -0.0060383836 0.10139815 -0.0325428 -0.041335978 0.0038865579 0.03603586 -0.063555196 -0.11570896 -0.022065926 0.16288806 -0.041827943 0.043499324 -0.034241125 -0.033970322 0.1239564 -0.104720876 -0.047328323 0.05497365 0.061352026 -0.017986225 0.111507304 0.15956189 -0.11622889 -0.10994124 -0.049950264 0.06224092 -0.05755706 -0.005476079 -0.13165787 0.007644623 0.10337499 0.067260355 0.019435441 0.08642373 0.06390236 -0.0873596 -0.030297589 -0.04785702 0.023343723 0.010665493 -0.045463443 -0.034872316 0.066713855 -0.16921939 0.038409896 0.10689371 -0.057217333 -0.019714084 -0.057828683 -0.10345732 -0.059752773 -0.08623208 0.13063438 -0.054379173
8822:WATERLOO 0.046367694 -0.02961406 -0.019918522 0.0056600906 0.10496313 -0.048771877 0.20854978 -0.07911296 -0.112181075 0.14168596 -0.10902318 -0.038183898 0.0076864245 -0.031543154 0.16226397 0.15816367 -0.15266235 -0.008966265 -0.053598452 0.08878213 0.11459104 0.098222196 -0.06080389 -0.1022336 -0.08283751 0.18328899 -0.1399659 -0.066138804 0.054609705 -0.10076473 -0.053410843 0.113174096 0.04763881 0.033447783 0.013884099 -0.027176203 -0.01365802 -0.0391106 -0.02236666 0.098468415 0.03505513 -0.06348972 -0.033052437 -0.014402115 0.170058 0.019748677 -0.19338453 -0.075363316 -0.03805445 -0.05144798 -0.03412325 -0.0264978 -0.018531715 0.026321117 -0.027004795 -0.07439964 0.0857455 -0.017467687 -0.04800462 -0.04655023 -0.092282124 0.012144686 0.07115897 0.13289335 0.08516942 -0.058010362 -0.037336748 0.06429017 0.009472526 -0.042977594 0.082891576 0.04766144 -0.021775942 -0.016924968 0.030514544 0.09531879 -0.075771414 -0.019514026 -0.0374188 0.046514366 -0.108114995 -0.19170415 -0.046891276 0.18492863 -0.0634865 0.032760434 -0.010996629 0.04544903 0.08997578 -0.13539164 -0.058474664 0.029490866 0.016317328 -0.017174345 0.1424938 0.08480858 -0.1337541 -0.095415935 -0.0669473 0.023460496 -0.14898884 0.07622524 -0.1523316 -0.011538843 -0.01649156 0.034078926 -0.0020520305 0.009497587 0.04511367 0.056210987 -0.077938385 -0.07816214 0.022606587 0.079372585 -0.0719789 0.028724872 0.07731642 -0.08598396 0.1045807 0.08232229 -0.02508183 -0.12480757 -0.038917698 -0.06836203 -0.10687186 -0.114037365 0.09460636 -0.09217813
8312:BELLE_ISLE_STA 0.098366044 0.021240728 -0.11644014 0.14564608 0.15120609 0.017397 0.16549352 -0.16086668 -0.019163715 0.16252002 -0.038194414 0.0019043013 -0.10293711 -0.09827391 0.02755448 -0.010549784 -0.14977723 -0.029549459 -0.020398736 0.110304154 0.0556348 0.117913604 -0.12227539 -0.017249595 -0.13372815 0.07594348 -0.008182329 -0.0992794 0.011900139 -0.013124426 0.0071862955 0.1403412 -0.10870563 0.012154095 0.012724605 0.14785579 -0.010253132 0.05270691 -0.0313174 0.058922682 -0.022857595 0.001445143 -0.046462886 -0.0058010938 0.10555471 0.11570794 -0.1088641 -0.14474364 -0.09233653 -0.11854589 0.048561983 0.10776444 -0.0064080902 -0.04494201 -0.14441176 -0.010840555 0.001982651 -0.14348885 -0.07586634 0.02777071 -0.038363725 0.011473048 0.084012166 0.08614082 -0.0056331716 -0.082442865 -0.006766689 0.07885505 -0.0045083007 -0.06641569 -0.058268093 -0.008276098 -0.05636618 -0.05060302 0.042947765 0.06014935 -0.0002465998 -0.061327536 -0.033348233 0.03964312 -0.2034942 -0.08632192 -0.07837412 0.11017032 -0.041842252 0.030754255 0.031612273 -0.019418407 0.059045963 -0.009890256 -0.1461782 0.015775004 0.080032736 -0.10435615 0.1023175 0.10953773 -0.07813194 -0.08317233 0.0026230079 -0.037676018 -0.15852399 -0.08325901 -0.07317905 0.07092004 0.048505813 -0.00018036453 -0.0035602113 0.018970337 0.103657 0.046827152 0.080467455 -0.013272357 -0.062262252 0.0881354 -0.07842676 -0.037159815 0.011379702 0.09475568 0.16919234 0.10005544 0.017959598 -0.037425082 -0.057786822 -0.1037075 -0.080376394 -0.18978368 0.0014938995 -0.1613739
8133:WR_AIRPORT -0.017025504 -0.06885687 -0.036824364 0.06558173 0.04804237 -0.02839509 0.11370454 -0.14994688 -0.046090364 0.11918109 -0.04002252 0.026472077 -0.03870932 -0.09804073 0.15404265 0.06789344 -0.2237268 -0.019248916 -0.07542687 0.0668057 0.0463743 0.08401528 -0.07866236 -0.13703997 -0.16696264 0.17307562 -0.10643659 -0.08721729 0.060139183 -0.0229656 -0.024065457 0.08055978 -0.011939717 -0.015703447 0.040763162 0.10943651 -0.06091858 0.024261378 0.03352653 0.0814934 -0.022205247 -0.14540248 -0.03549505 -0.02162336 0.097143434 0.02158545 -0.19754487 0.014664186 0.028662946 -0.097018965 0.0829024 -0.07148094 -4.2628017e-07 -0.021755148 -0.19723243 0.002417052 0.026158582 -0.12172471 -0.030072425 -0.009969835 -0.08362478 0.021550475 0.06418943 0.08456707 0.05747644 -0.0002699209 0.05650679 0.1341846 -0.038223352 -0.1293016 -0.027828405 0.052166857 -0.055824656 -0.10017499 0.0030311178 0.022010831 -0.09412531 -0.038497135 -0.025661435 0.058196202 -0.06201328 -0.047301188 -0.075918645 0.14806281 0.0038147904 0.050479088 -0.029779814 0.045141224 -0.014199982 -0.068543434 0.018478662 -0.007630373 0.056141257 -0.082872875 0.17481083 0.13776006 -0.13896427 -0.091849454 -0.08071931 -0.013964389 -0.12994084 -0.019836526 -0.15796725 -0.02124883 0.16352168 0.018238926 -0.04121025 0.13303788 0.04125813 0.060488485 -0.06065272 -0.14413898 0.008220455 -0.017808525 -0.13695388 -0.025839217 0.017482042 0.009568965 0.13357258 0.1322172 0.11028975 -0.06776758 -0.1690594 -0.00902655 -0.0034883914 -0.15601243 0.022436624 -0.051596325
7430:INGLEWOOD 0.04369394 0.011846577 -0.02286126 0.00875159 0.046775695 -0.015927985 0.08243957 -0.09368601 -0.019548483 0.2051344 -0.05059181 -0.03563969 -0.009831131 -0.0942624 0.11223728 0.08188734 -0.1504559 -0.0045970725 -0.04010955 0.15819682 0.110405475 0.10165766 -0.03720439 -0.17434078 -0.07145212 0.15949892 -0.104083605 0.029197523 0.0076361913 0.012543663 0.0070915543 0.12779279 0.012343126 0.115184024 -0.040154852 0.16749245 0.02987981 0.024464386 0.019461704 -0.062214665 0.058620032 -0.047857694 -0.049088318 -0.036123175 0.17501749 0.09959985 -0.090544716 -0.107359275 -0.070624 -0.08553433 -0.01991641 -0.03210939 -0.039010003 0.060382206 -0.09412697 -0.15654604 0.040471837 -0.034745183 -0.027631884 0.10735556 -0.046768986 0.018954216 0.038907852 0.034437116 -0.05381481 -0.07726866 -0.09740811 0.015319426 -0.019210594 -0.058757335 0.04511831 -0.03715122 -0.075949214 -0.04086058 -0.022592137 -0.006234087 -0.00059436343 0.0021086517 -0.0070654503 -0.012090362 -0.076877266 -0.089366734 -0.11445904 0.06223455 -0.012403083 0.013982377 0.008355987 0.057268083 0.06627962 -0.076831564 -0.17309232 0.048431315 0.13976137 -0.0003953848 0.09002775 0.09946659 -0.14296916 -0.089069724 -0.026348908 0.020931883 -0.12267661 0.044762306 -0.15064031 -0.036627967 0.047335498 -0.0021570462 -0.05597906 0.18246299 0.21578802 -0.062815845 0.050375197 -0.093649745 0.091412716 0.009289822 -0.16868691 0.0091703385 0.07918498 -0.0025008307 0.13329242 0.04642623 -0.041469797 -0.09402782 -0.0777627 -0.0024360209 -0.116014175 -0.10254764 0.076898776 0.07609047
8411:ACORN 0.009856009 -0.037749298 -0.14023742 -0.0024169993 0.046670213 -0.08151153 0.16950116 -0.040945172 -0.03185773 0.19132927 7.2928684e-05 -0.032729864 -0.114194155 -0.05266844 0.035233174 0.07045073 -0.18489523 0.025571426 -0.06779672 0.17393151 0.040182024 0.11042424 -0.017821858 -0.048865292 -0.049303144 0.08908267 -0.0544707 0.002148208 0.025261365 0.005412906 0.0023109734 0.05738508 -0.11556561 0.05947311 -0.033361945 0.21477182 -0.04844167 0.041869156 0.011713167 0.01986333 0.059093025 0.05591894 -0.04981359 0.018044524 0.15929332 0.11147312 -0.18862998 -0.120772436 -0.084485225 -0.052650332 0.11752776 0.0004782817 0.045253925 -0.082473226 -0.058845647 -0.083428904 0.11125043 -0.16636662 -0.0013484545 -0.038870025 -0.059778724 0.0062033175 0.12749708 0.08946764 0.055979963 -0.025852868 -0.0873815 0.13584708 -0.00012861197 -0.094535656 -0.029968385 0.026001358 -0.11758859 -0.15501529 0.0019775843 0.11077281 0.044984695 -0.04689043 -0.025887826 0.10367141 -0.08648959 -0.051260132 -0.015175626 0.13132235 -0.0064590443 0.07203049 0.048947245 -0.07947017 0.005287465 -0.035756446 -0.10084307 0.058137007 0.15499224 -0.057729397 0.18985747 0.096263744 -0.044014536 -0.115713544 -0.015766572 -0.060552172 -0.116215475 -0.02949481 -0.08537904 0.02641234 0.085196935 0.06902256 -0.08953099 0.025285471 0.030845867 0.047214404 -0.03994044 -0.071125105 0.010669141 -0.01859428 -0.066496655 -0.068129316 0.05270152 -0.065214485 0.11887355 0.09475813 0.01037243 -0.08015264 -0.17183962 -0.061282385 -0.04859446 -0.061310314 0.07693271 -0.13314502
5907:RUSSETT 0.10701714 -0.0303816 -0.07320514 0.06771407 0.061744634 -0.048201106 0.18230453 -0.15226641 -0.039876062 0.14760692 -0.08941352 -0.017239014 -0.1314987 -0.193661 0.21527795 0.17729767 -0.18877193 0.0041712583 -0.010210505 0.10289885 0.11149598 0.08514845 0.00533736 -0.098956704 -0.17305213 0.122441664 -0.18456663 -0.050314162 0.017660238 -0.053485386 -0.06948628 0.09587858 0.01045193 0.060027312 -0.021247368 0.022502165 -0.02090255 -0.018817572 0.08594574 0.14814375 -0.00882494 0.028974956 -0.033335667 -0.044725236 0.10661104 0.009935328 -0.08870847 -0.120808505 0.024221163 0.056850463 0.03356325 0.07555377 -0.009383852 -0.07095212 -0.06425389 -0.019104972 0.07783732 -0.026685357 -0.094757676 0.010373131 0.042988323 0.049520884 -0.013370929 0.14235239 0.04927033 -0.009279257 -0.019250821 0.043175068 0.028970277 -0.14362141 -0.003604496 0.04869497 -0.07472473 -0.08968262 0.12033497 0.075503506 -0.016287284 0.028383145 0.029489713 0.1023033 -0.22910987 -0.02967357 -0.072921835 0.16777006 0.025347108 0.10962401 0.12709253 -0.033651315 -0.029168159 -0.041709017 -0.030901376 0.046244916 -0.0024987669 -0.016193384 0.14940533 0.089605995 -0.04196082 -0.13495104 0.0019694713 -0.041921318 -0.056773983 0.0077920672 -0.1424996 -0.007819514 0.043511588 0.043699663 -0.010141639 -0.0007085636 0.09241326 -0.0047848714 -0.047966253 -0.061764766 -0.065038644 -0.06837886 -0.084881425 0.06742607 0.0649696 -0.055277277 0.11590058 0.10433263 -0.015737057 -0.04104954 -0.108904846 -0.043194845 -0.0949789 -0.14883417 0.07445888 -0.09396964
5309:POOLEVILLE 0.034073185 -0.1411593 0.012489348 0.0307258 0.030583546 -0.07480645 0.20889042 -0.10194996 0.058426604 0.12942335 -0.04661662 -0.03879789 -0.042060614 -0.062733434 0.101428844 0.12401311 -0.10650431 0.029406955 -0.03478633 0.17037624 0.11602593 0.019292912 -0.061981186 -0.041063696 -0.13319379 0.13612252 -0.107248306 -0.090709 0.067836925 0.0137705775 0.046010192 0.05153257 0.029535249 0.16685583 -0.017850274 0.07954835 0.011778666 -0.039048035 -0.06042795 0.02528046 0.13641573 0.0329578 -0.08801594 -0.038607065 0.20770602 0.041068215 -0.12155599 -0.15162891 0.053764522 -0.07965672 0.049583647 -0.0020953466 0.038220122 0.01607473 -0.07024363 -0.17545754 0.06367868 -0.09949044 -0.11530524 0.050964735 -0.08073964 0.048875123 0.05967273 0.037970565 0.028158858 -0.015316955 -0.011447892 0.014224056 -0.09614655 -0.0733194 0.07104807 0.07367279 -0.039880633 -0.10313495 0.06555787 0.043792408 -0.0119918985 -0.013479329 -0.074016474 0.04178312 -0.12799042 -0.19621518 -0.04191362 0.14882436 0.006867759 0.022735018 -0.015956413 -0.0076820357 -0.018363897 0.008189222 -0.075181454 0.00282502 0.093034185 0.021547383 0.16034313 0.109719485 -0.020223593 -0.15731217 -0.057383947 -0.023981083 -0.1775205 -0.030851915 -0.16836256 0.0013400865 0.051956695 0.050065037 -0.056584552 -0.006892789 0.1021197 0.0032385348 -0.07352527 -0.077815875 -0.050476994 0.05438015 -0.1352472 -0.0025505759 0.12336736 -0.011610531 0.07511472 0.04018668 -0.060801547 -0.055731967 -0.11967081 -0.08132434 0.005539553 -0.09880889 0.03359335 -0.04098868
8536:WASHINGTON_PAR 0.0062655252 -0.0911199 0.042297676 0.051765274 0.047264274 0.030515851 0.13846068 -0.11240656 -0.013960006 0.19416322 -0.064635806 0.033465467 0.009135917 -0.12652797 0.03002915 0.108611554 -0.12898974 0.033558674 -0.08713543 0.08729854 0.05375931 0.07189913 -0.1081416 -0.05892642 -0.16951022 0.107489206 -0.019895732 -0.03348964 0.01666012 -0.05395823 -0.014580556 0.07256548 -0.08143497 0.06013723 0.016643519 0.0840767 -0.027378215 0.06286001 -0.02762177 0.03511754 0.023792766 0.05913126 -0.041492753 -0.045987245 0.15055913 0.050208632 -0.15934345 -0.1250179 0.008403436 -0.13041624 0.043218054 0.07033903 -0.014634565 0.0021071755 -0.124246486 -0.0033359989 0.11202841 -0.06750079 -0.009711007 -0.06911031 0.0102293305 -0.08879811 0.153386 0.079481944 0.09997903 -0.09913427 0.0797492 0.028760266 0.061413243 -0.10374171 0.06611237 0.0014656436 -0.12107689 -0.054491755 0.00021167875 0.040671445 -0.0792875 0.05844976 0.010980839 0.07795871 -0.24465363 -0.08313319 -0.11863258 0.18192905 0.026299253 0.060122464 0.060847502 -0.059245225 0.07942136 0.07827479 -0.051228393 0.012216063 0.07562623 -0.17184235 0.16447307 0.15917231 -0.019356763 -0.087363034 0.004784501 0.038732518 -0.1326128 -0.03547675 -0.09984018 -0.043415725 0.051220916 -0.030573033 -0.055465817 0.11396821 0.052628152 0.011863787 0.039552357 -0.08327822 0.03248151 0.0106644025 -0.078657426 -0.041433398 0.009256932 0.017269934 0.07230246 0.023457244 -0.011186979 -0.11555875 -0.054063655 -0.11201004 -0.07587427 -0.0943772 0.02475158 -0.13335519
9215:CHARLESTON 0.08876385 -0.019736284 0.005918058 0.05294176 0.04115781 -0.039862927 0.14738119 -0.11312624 0.03726583 0.1678643 -0.02893949 -0.046548687 -0.09936819 -0.18344499 0.06976559 0.083430156 -0.15274276 -0.0065136706 0.045426726 0.044306446 0.048807558 0.07541101 -0.09056897 -0.120695375 -0.104517795 0.066902936 -0.10717367 -0.05648449 0.087497085 -0.021602372 -0.010714143 -0.054217715 -0.10571463 0.01736708 -0.028112201 0.17623381 -0.010185937 0.0012002478 0.09583968 -0.015799781 0.031565998 0.00040103102 -0.029178282 -0.08250023 0.24589913 0.03615266 -0.24141294 -0.0327778 0.016995432 -0.118177734 0.12737876 0.009442916 -0.06060027 -0.055462454 -0.15086667 -0.08519803 -0.006057543 -0.15113941 -0.05958447 -0.09272717 -0.030723238 0.047516573 0.08049983 0.13986373 0.0169871 -0.07342609 0.046553124 0.1471464 0.0028464298 -0.07840771 -0.038193095 0.033108056 -0.08749436 -0.06614947 -0.031803742 0.09018858 -0.00781769 0.027067423 -0.030183598 0.082725145 -0.13249259 -0.017685553 -0.036101762 0.111526996 0.07186198 -0.0016079476 0.022865709 0.011310063 -0.0097508645 0.023528613 -0.03490099 -0.07389163 0.051676597 -0.0684608 0.023060706 0.084310554 -0.054467767 -0.074793674 -0.016742349 -0.0678152 -0.03956237 -0.025386626 -0.0300202 0.010786557 0.010311075 0.01725523 -0.04671952 0.07036447 0.06012931 -0.022740932 -0.05652112 -0.06731063 0.06208061 0.029783696 -0.16678786 -0.0105024455 0.037373018 -0.046701472 0.080914676 0.0353722 -0.025290065 -0.06103534 0.007791841 -0.14591987 0.0041808942 -0.18937555 -0.06514571 -0.13562927
3208:TIBBENS_ROAD 0.041247785 -0.042951785 -0.066472046 0.0689527 0.14796172 -0.10905521 0.16826624 -0.10240645 0.006564731 0.17304578 0.0018270714 -0.033610914 -0.03592414 -0.12054275 0.1797861 0.13866279 -0.22364724 -0.022861188 0.016140636 0.15326113 0.107953794 0.115560815 -0.09414068 -0.13213274 -0.13587925 0.13750534 -0.09838367 -0.009601678 0.1455389 -0.08769732 0.0008993155 0.0073242583 -0.038627096 -0.024019394 -0.04443737 0.03718933 0.028096473 -0.042791273 0.025730737 0.07635599 0.12767911 0.020566119 -0.025748692 0.054502293 0.09256672 0.00806408 -0.15217127 -0.03597533 0.08279914 -0.0143743055 0.03489027 0.04935379 -0.054679602 -0.067761704 -0.06770872 -0.02977762 0.03411181 -0.15562642 -0.013856627 -0.012265334 0.0037081055 0.07274677 0.022794817 0.07616645 0.0671355 -0.00578418 0.012357255 0.09479145 -0.026072988 -0.115168326 -0.094140425 0.030556995 -0.093427405 -0.06109436 -0.023094261 0.039447844 0.027097449 -0.08565345 0.0023389002 0.11095062 -0.096927635 -0.11127679 0.014298265 0.13598202 -0.0033411528 0.030810751 0.04037994 0.056896657 0.032904465 -0.020521984 -0.013861009 0.004207796 -0.014398354 -0.06679906 0.073798425 0.09388305 -0.13056663 -0.1615125 -0.039048642 -0.004478985 -0.11957321 -0.031412948 -0.12514709 -0.074423745 0.026578585 0.01912052 -0.029752381 0.07181628 0.13672026 0.041122455 -0.061598092 -0.009013218 -0.0442388 0.07209891 -0.08147067 0.050323647 0.008489631 -0.04456973 0.1074402 0.08141848 -0.00811324 -0.029653594 -0.004712864 -0.047216427 -0.007955619 -0.15017572 0.033139907 -0.10332767
8170:SANTA_FE_AVE 0.07310588 0.024714418 -0.004503865 0.003617629 0.10151902 -0.089086734 0.111289054 -0.07800637 -0.0939115 0.16831289 -0.038706016 0.0042226235 -0.022003831 -0.102151975 0.13169895 0.10754002 -0.11931442 -0.04297531 0.032997873 0.045828536 0.08380502 0.08005294 -0.080095604 -0.15319364 -0.10973524 0.06936908 -0.029114885 0.016303668 0.049757987 -0.047788624 0.06052013 0.020915253 -0.024477173 0.122978054 -0.05442171 0.1369005 0.06966467 0.00969699 0.05369872 -0.030012708 0.03302108 0.01893028 -0.051908955 0.030573726 0.22918297 0.09918926 -0.06696489 -0.049522772 -0.10769572 -0.09219267 0.07678018 0.0545416 -0.04949758 -0.029792894 -0.12048658 -0.049622674 0.064199716 -0.09255888 -0.102199435 0.09089276 -0.013989085 0.06150161 0.04909124 0.04140142 -0.061426304 -0.04664488 -0.07254048 0.016982678 -0.08195225 -0.045842543 0.06408555 -0.10717105 -0.07408479 -0.017818235 -0.025201466 0.011815261 -0.07071911 -0.05536767 -0.074633226 0.09698547 -0.067627676 -0.069623314 -0.048353855 0.1863144 0.06698768 0.028818257 0.009718557 -0.057230536 0.06734582 0.01876598 -0.11513078 0.0009723776 0.15188351 -0.14809248 0.09160037 0.06210419 -0.013140479 -0.12021179 -0.08957877 -0.0065889806 -0.11812389 -0.0015796227 -0.12007797 -0.008511409 -0.017813718 -0.0071990825 -0.08622078 0.089805104 0.086199634 -0.080684006 0.036688138 -0.04012563 0.03466111 -0.0004535563 -0.17466086 0.11718031 0.023350505 -0.065419465 -0.002008496 0.061820347 -0.07588373 -0.060776956 -0.05714932 -0.0020390525 -0.09788074 -0.194761 -0.036945727 0.004912553
5104:FOUNDATION 0.07376006 -0.0104076015 -0.026229069 0.022995045 0.075545505 -0.12526233 0.07477532 -0.082573876 -0.06989704 0.16218793 -0.06801692 0.012721361 -0.10135284 -0.102209 0.10394196 0.07970762 -0.12524572 0.09513177 0.057768986 0.08459222 0.13568565 0.19351634 -0.025881028 -0.12831424 -0.09328485 0.115011774 -0.056189246 -0.019641843 0.102290794 0.026811216 0.0029006454 0.054503486 -0.078476235 -0.036654904 0.02033925 0.116039425 0.021176334 -0.03146536 -0.01334964 0.010274662 -0.0007143505 -0.009602322 0.0074644126 -0.03725269 0.14905854 0.07969003 -0.060299557 -0.04713806 -0.06502555 -0.05461745 0.12501736 -0.0018057633 -0.06739884 0.028199611 -0.07346499 -0.10415156 0.13168018 -0.1422921 0.012960941 0.057464547 0.027084667 0.030511 0.14067405 0.10584322 0.015148856 -0.078701206 -0.04709372 0.056557205 -5.881182e-05 -0.03976352 0.10186324 0.0643475 -0.10878039 -0.00044072897 -0.012686243 0.0063237073 -0.03489031 -0.035575874 -0.085661374 0.080866024 -0.12472801 -0.1308697 -0.07934202 0.13948362 0.039963067 0.050423272 0.020851742 0.0065109036 0.20028907 -0.056005925 -0.17590709 0.056523267 0.06811225 -0.10137202 0.07570176 0.09612558 -0.044588145 -0.16094452 -0.060391754 -0.03876418 -0.110122636 0.06674439 -0.11454978 0.04406771 0.08289415 0.015324943 -0.020665273 0.110499576 0.032210745 -0.044644184 0.00576773 0.056596268 -0.007707588 0.013121221 -0.09765707 0.024174346 0.062089954 -0.07575454 0.14095603 0.13760476 -0.02177593 -0.13721147 -0.10206782 -0.03745834 -0.07848678 -0.114008605 0.048910968 -0.10712947
9138:ARKOMA 0.018728036 0.027091997 -0.009112138 0.03810191 0.06283649 0.0445983 0.046343446 -0.09275222 0.014078171 0.12038049 0.021981211 -0.07836781 -0.078924574 -0.11023969 0.028868362 0.1128108 -0.08249256 0.062917665 -0.013610445 0.15392284 0.03247325 0.048923943 -0.059561193 -0.073446564 -0.13464212 0.16180958 -0.1700347 -0.08611308 0.0075036143 -0.017522164 -0.038743977 0.016075525 0.062032487 0.0041835946 0.005020917 0.12877324 2.88113e-05 -0.053337008 0.041316114 -0.06632558 0.008099029 -0.0036424594 -0.08121696 -0.03990771 0.18299438 0.14525767 -0.1992403 -0.06687335 0.06765154 -0.12495385 0.11913779 0.066773415 -0.023062805 -0.039727736 -0.021134984 -0.098357186 0.074520946 -0.10088693 -0.07302623 -0.034949172 -0.092907034 -0.08735352 -0.007312052 0.030998858 0.09724312 -0.08114339 -0.074131764 0.013027447 -0.017745161 -0.01818135 -0.025006568 -0.0541743 -0.05895218 -0.043726187 0.020093724 -0.020079644 -0.0005292925 -0.057309788 -0.12860721 0.037841924 -0.10840414 -0.015709156 -0.06075993 0.15686297 0.029888166 0.077413686 -0.044034645 -0.01910781 0.07419729 -0.016636865 -0.080314584 0.033499043 0.14852446 -0.10221637 0.122584894 0.11197504 -0.15333368 -0.07722369 -0.087508656 0.024518784 -0.009438138 0.019345315 -0.021938786 -0.09668213 0.004882349 0.0021285666 0.002906409 0.076098695 0.1573529 -0.15659742 -0.0090058 -0.15671858 -0.013732264 0.058432397 -0.07792168 0.102844015 0.034672122 0.032529242 0.11496253 0.04950959 -0.071996145 -0.079021715 -0.104101814 -0.002378471 -0.05590327 -0.13896437 0.02447827 -0.123581484
9330:SIMMONS 0.09685733 -0.037757058 -0.11275222 0.055079136 0.04862328 -0.031819656 0.100675344 -0.15641735 -0.052568268 0.18431695 -0.15330535 -0.0025078577 -0.059697967 -0.07396853 0.043818176 0.09706297 -0.16060267 0.039142407 0.002278187 0.13093928 0.012482347 0.117171675 -0.06381617 -0.066457756 -0.09961185 0.08813667 -0.09713448 0.0029362724 -0.0069144876 0.02775786 -0.033103906 0.06481061 -0.067396246 0.05113721 0.025917603 0.08073083 -0.038140602 0.006291034 0.029395066 0.028883815 0.023020415 -0.08511878 -0.008230995 -0.043374106 0.22150366 0.070297815 -0.13718526 -0.14916249 -0.06001601 -0.09368878 -0.045023307 -0.012311031 0.04500809 -0.027286323 -0.10318685 -0.07858185 -0.004610866 -0.09449639 -0.114502996 -0.04421292 -0.024387497 -0.0037349148 0.0017212657 0.08957777 0.0024091424 -0.03142059 0.038936593 0.070208564 -0.04070622 -0.047910493 -0.04513019 0.052676015 -0.07839793 -0.015407036 0.011375882 0.08057785 -0.057098404 -0.016182706 -0.08194866 0.14518955 -0.08756973 -0.032030597 -0.08902657 0.057270486 0.01913225 0.016827129 0.009453155 -0.044043686 0.007605329 -0.04690782 -0.09440025 -0.0044017113 0.03516258 0.0068940427 0.15212841 0.07617954 -0.12109115 -0.14826083 -0.092323996 -0.014761483 -0.19282116 -0.056107752 -0.112710945 -0.008912644 0.048543986 -0.008911332 -0.08932374 0.014135744 0.074684426 0.09455793 -0.044989564 -0.073916584 -0.016390044 0.021468991 -0.12184543 0.008315195 0.086023584 -0.016969835 0.12065763 0.038050696 -0.0932219 -0.06278748 -0.14674985 -0.21080017 -0.044483654 -0.23178367 0.0372472 -0.17596935
9318:ALMA 0.06888858 0.013949805 -0.04959989 0.085645385 0.06670028 -0.14139593 0.14911006 -0.09089087 -0.050621446 0.103008375 -0.0148089705 0.035674658 0.04740768 -0.077159554 0.055554196 0.062240668 -0.14498691 -0.02753111 -0.06223755 0.16112459 0.0031033007 0.12922335 -0.10368801 -0.14427723 -0.12949274 0.11567508 -0.13282159 -0.020142011 -0.038954664 -0.013509783 -0.024656937 0.049048796 -0.009817669 0.0033645662 0.011460208 0.108261 0.055137776 0.010199141 -0.031643916 0.014160493 0.12808861 0.051610712 -0.011028428 -0.0029520665 0.1784759 0.15760532 -0.09034829 -0.107838385 0.019294925 -0.054040488 0.06450026 0.048309423 0.019909492 -0.062169906 -0.10365091 -0.058641776 0.007727693 -0.049877696 -0.10373478 0.045930903 -0.06575538 0.051181484 0.057954684 0.038079463 -0.03876846 -0.064597495 -0.028600676 -0.025353255 0.025578042 -0.034787744 -0.031500828 -0.117593445 -0.080632925 0.107144915 0.037352983 -0.010337678 -0.045410674 -0.10487009 -0.13202761 0.107965745 -0.025465518 -0.062826805 -0.034493994 0.025544407 0.015691822 0.042051602 0.046803765 -0.019579416 0.047977585 0.01013123 -0.07126633 -0.028279243 0.111091636 -0.013396514 0.04979544 0.14139467 -0.13569959 -0.13333173 -0.067768924 -0.014829106 -0.095893994 0.0053303195 -0.17963028 -0.10296721 0.03335702 0.038779546 -0.061679095 0.05013571 0.16459805 -0.0040085837 0.042994607 -0.05187751 0.01025389 0.054655343 -0.13425125 0.057398055 -0.04794068 0.05080481 0.08991507 0.07392334 -0.08886859 -0.08875843 -0.065395124 0.02218051 -0.1369869 -0.1642356 -0.0028659515 -0.07627744
8221:MERIDIAN 0.009898489 -0.021878872 -0.028898245 0.03340891 0.083865 -0.021257952 0.0954847 -0.107631 0.0032814122 0.17860657 -0.015572289 0.011397886 -0.034618378 -0.11785105 0.044534404 0.13187595 -0.1691113 0.020704025 -0.055008635 0.04406122 0.11695827 0.02470057 -0.121167615 -0.16887198 -0.0719396 0.14815456 -0.16313638 -0.07459083 -0.032389358 0.056997675 -0.06405879 0.055415686 0.024694297 0.041981887 -0.023498017 0.07761964 0.025230503 0.021135611 0.054693077 -0.012245025 0.013017874 0.013339869 -0.057194628 -0.052542 0.16806012 0.09701445 -0.17532425 -0.112265676 -0.015280467 -0.10986927 0.0852715 -0.09680298 0.05170693 -0.06278118 -0.034112297 -0.15032658 0.075820714 -0.11752113 -0.10306834 0.06873891 -0.06264605 0.03919612 0.04558954 0.107019976 -0.038416855 -0.09236095 0.007537047 0.026843669 -0.0073926025 -0.040124793 0.051416945 -0.08559453 -0.12765534 -0.078526765 0.038713347 0.060793284 -0.09478206 -0.025940187 -0.09528644 0.0072302446 -0.07590872 -0.025797548 -0.063794546 0.019486852 0.056424513 0.04943321 0.039139897 -0.008749501 0.045726117 -0.0018085798 -0.070266806 0.10733199 0.15929438 0.033841763 0.09286361 0.03971644 -0.019820614 -0.06817905 -0.039319485 -0.018489381 -0.12586778 0.0047958973 -0.079247124 0.028209178 0.021850884 0.030738907 -0.047416423 0.033382934 0.17521958 -0.05703124 0.09959808 -0.08930524 0.009142872 0.020226633 -0.12071606 0.03472504 0.037820783 0.014841581 0.06692909 0.12888506 -0.09693975 -0.08051948 -0.059164546 -0.06199614 -0.100054175 -0.117352985 0.007653127 -0.035295554
8542:RENO 0.052155316 0.024016498 -0.03241141 -0.02923958 0.08510162 0.009355094 0.18943071 -0.01051703 0.045282744 0.19131382 -0.0017990329 0.03497268 -0.020804485 -0.065459795 0.008199486 0.09400452 -0.19065511 0.011370292 -0.053465206 0.16662996 0.062783286 0.1227916 0.012573191 -0.14103444 -0.04779599 0.07771215 -0.12676756 0.007911652 0.013740738 -0.059981372 -0.015715376 0.04769233 -0.055641163 0.051343594 -0.009276503 0.056133814 0.02455872 -0.0159821 0.037452254 -0.03489528 0.0046752044 0.019665897 -0.081646666 -0.07480666 0.119976595 0.15297475 -0.12957574 -0.12837183 -0.045922272 -0.09239615 0.08534597 0.03406747 -0.062156226 0.0055443533 -0.10042679 -0.014301488 0.03750939 -0.08493463 -0.11269942 0.013491528 -0.09989263 0.018443976 0.009711198 0.021371927 0.049009096 -0.14226326 -0.08520739 0.09244315 0.026961148 0.006826743 0.045870543 -0.0043853335 -0.14530417 -0.01094605 0.014187591 0.0024153534 -0.102951296 -0.013672287 -0.037323803 0.08080524 0.013146614 -0.0030091626 -0.10415747 0.13464247 -7.557749e-05 0.02156307 -0.020666309 -0.01784292 0.090335004 -0.002858851 -0.061522644 -0.009793302 0.11033079 -0.055570066 0.13736695 0.08776609 -0.082547605 -0.18449514 -0.024171382 0.061711315 -0.07852271 -0.004448337 -0.12562561 -0.10592241 -0.021716114 -0.09440567 -0.025005747 0.111796424 0.11731572 -0.049973704 0.03973814 -0.11719272 0.03498995 0.019220272 -0.088917695 0.03227689 0.10530185 0.02997153 0.041750647 0.00962592 -0.114518136 -0.11895771 -0.047150716 -0.027327992 -0.097727925 -0.11286974 -0.024071079 -0.10778442
9140:COLONY 0.104857884 0.025368057 -0.08165297 0.08159046 0.14243044 -0.029428234 0.044535756 -0.0659676 -0.060636308 0.2022224 0.054264806 -0.03147338 -0.05553324 -0.054502193 0.06147312 0.119034104 -0.15743136 0.0042772046 -0.11525938 0.22849439 0.093254045 0.081187874 -0.100001976 -0.15815559 -0.13756235 0.083707936 -0.16026951 -0.060346443 0.083175555 0.07766314 -0.01506311 -0.0058326866 -0.08532369 0.013010313 -0.027773736 0.106364936 0.042438183 -0.08210431 0.05603391 -0.08143904 -0.076938495 0.031154314 0.0047109933 0.010997484 0.13356622 0.078611135 -0.12324432 -0.030609453 -0.042866755 -0.060503967 0.13528873 0.03635338 -0.06828829 -0.03675124 -0.073313504 -0.047621887 0.11025132 -0.14096966 -0.10005577 -0.0618075 -0.078440405 -0.023751311 -0.0012432244 0.074924685 0.0062959497 -0.035304017 0.035157226 -0.057896327 -0.03151716 -0.06762489 -0.02863136 -0.083971426 -0.086350486 0.020588653 0.05125397 0.035536926 0.024525711 -0.00959192 0.018517692 0.086986095 -0.106543876 0.0016026426 0.0177006 0.13701214 0.017539868 0.07968687 0.025591332 -0.07012976 0.12142223 -0.050401937 -0.08282527 0.039994944 0.081008464 -0.03357053 -0.0011326127 0.054659445 -0.06710115 -0.13635032 -0.05726888 -0.0031624069 -0.040385146 -0.020096703 -0.027336955 -0.0003949265 -0.029260505 -0.03344302 -0.03600828 0.11857429 0.030572977 -0.05437421 -0.015410835 -0.14051284 0.0481975 0.11106482 -0.16918689 -0.03796765 -0.0037425614 0.039721742 0.11825947 0.05198908 -0.042585354 -0.114301346 -0.03610399 -0.04460919 -0.1326733 -0.1207813 -0.03131367 -0.0110315215
8621:DRAPER_LAKE 0.0045910026 0.029346634 0.058023278 0.06782333 0.11085223 -0.056872293 0.19411416 -0.13159361 -0.013283873 0.18077423 -0.035698954 0.03918135 -0.044076968 -0.123805426 0.17162137 0.07626537 -0.10170544 0.042594597 -0.057846338 0.071073994 0.12530582 0.08954865 -0.040694006 -0.15796101 -0.13058887 0.081760295 -0.21156295 0.036661964 0.08337818 -0.06880778 0.070663646 0.033787727 0.011977745 0.060658384 0.062642425 0.11458257 -0.108761385 0.024127875 -0.0029888568 0.07107718 0.0052062282 -0.05816262 -0.06837968 -0.029532652 0.13029689 0.072128706 -0.21084814 -0.061553504 -0.060612872 0.010038855 0.04331171 0.06809279 -0.018444281 -0.07629889 -0.06308296 -0.07217871 0.08395092 -0.053995408 -0.060953505 -0.013111693 -0.019318717 -0.022643935 0.003246943 -0.006037676 -0.011195006 -0.06893868 -0.019982621 0.011405502 0.020922154 -0.06270069 0.039254345 0.0729291 -0.12762989 -0.11243541 0.054822724 0.14326908 -0.08356249 -0.08416056 -0.004122739 0.089355625 -0.061414845 -0.07094546 -0.021247854 0.11342861 -0.058296997 0.113713734 0.123340316 0.010955301 0.031714812 -0.026149314 -0.09147992 -0.021890149 0.08707678 -0.068234086 0.14580998 0.11360263 -0.049434602 -0.12430903 -0.09207824 -0.05941517 -0.037897255 -0.028585019 -0.07706793 -0.026537703 0.022049462 0.03525366 -0.06865567 0.056927856 0.012631309 -0.019213296 0.0044709193 -0.059497517 -0.032846157 0.008344803 -0.1895431 -0.028646095 0.073569186 -0.0108114835 0.11983563 0.07064987 -0.024693258 -0.12795812 -0.061336048 -0.04013864 -0.06481282 -0.1276009 0.027175263 -0.023085339
5816:PARK_LANE 0.009783001 0.004815368 0.02179794 -0.016785257 0.14274599 0.06554696 0.09076749 -0.08682777 0.067473724 0.14694874 -0.017066063 -0.0049605765 -0.09401047 -0.1072558 0.1250559 0.15880847 -0.15724124 -0.030502224 0.077108026 0.095053464 -0.012995924 -0.00231745 -0.06984853 -0.07401209 -0.14453192 0.20692094 -0.10444146 -0.070341736 0.10750147 -0.070465885 0.08948227 0.13050956 -0.113785915 0.087198235 0.04443697 0.1606961 0.05781764 -0.08889016 0.05492711 -0.0005525402 0.051797517 0.05259949 -0.1160499 -0.0006223875 0.14823012 0.034953758 -0.17223173 -0.16795847 -0.09595873 -0.058723386 0.07148459 0.15335771 -0.08830408 0.02169456 -0.10939542 0.06827043 0.08548308 -0.07382242 -0.004992202 -0.11622994 -0.06454967 -0.014773254 0.20687424 0.13503937 0.009224703 -0.03099116 0.058560766 0.106408015 0.047174897 -0.09983225 -0.01812037 0.014166665 -0.07654918 0.03591488 -0.016556617 0.05991912 -0.03271724 -0.0899396 -0.09113633 0.04658252 -0.09583619 -0.06942159 -0.032855913 0.18857697 -0.05716946 0.05513492 -0.045680817 0.05266918 0.020894174 0.014469787 0.0046442263 0.04366639 0.040389013 -0.11994596 0.1111584 0.041659962 -0.069114275 -0.17154978 -0.055921234 0.031501878 -0.07304942 0.0020231025 -0.15546727 0.055488363 0.02782709 0.01880888 -0.060964547 0.09279714 0.010049347 -0.035142444 -0.09481852 -0.045065008 -0.03296232 -0.085603476 -0.082285725 0.0018826469 0.037765913 -0.030268403 -0.0054346365 0.041198015 -0.035067983 -0.020959117 0.032451026 -0.058124386 -0.09767715 -0.15044783 0.030097477 -0.061951447
5105:ARDMORE 0.06927676 -0.01999271 0.027974973 0.002625271 0.071195215 0.037227776 0.11295976 -0.10731041 -0.049374588 0.103179425 0.013234414 -0.025837634 -0.09426037 -0.10352568 0.07048984 -0.0046035997 -0.12328987 0.008626201 -0.055021733 0.16007422 0.06860381 0.050483003 -0.11153112 -0.24393663 -0.16757661 0.15112925 -0.08796939 -0.0739356 0.088398434 -0.016156912 -0.07415217 -0.076625034 -0.049489122 0.021276161 -0.025341256 0.20352906 0.04094672 -0.0047289706 -0.028310051 -0.010801834 -0.003182938 0.026216013 -0.08592209 -0.07944876 0.10813822 0.097778074 -0.109152466 -0.026602872 -0.023391891 0.009686831 0.09238204 -0.0015187082 0.06050652 -0.019414688 -0.0191067 -0.051825367 0.08173127 -0.1905252 -0.14826728 0.054677892 0.017149448 0.012608595 0.010188856 0.046905134 0.03867473 -0.07005239 -0.036709517 0.021154907 -0.013423085 -0.039847836 0.08188583 -0.028743077 -0.05208386 -0.052351445 0.07265703 0.03967792 -0.11481974 -0.05371706 -0.08697372 0.028995577 -0.118078664 -0.0027090032 -0.13093919 0.10992754 -0.040169768 0.06982021 0.022971524 -0.00057511276 0.0889225 0.014439323 0.038304944 0.07786691 0.044290453 -0.036413837 0.09407514 0.110308 -0.10104093 -0.08589669 -0.057977412 -0.09343705 -0.056128446 0.03491504 0.012393135 0.118672356 -0.004718488 -0.06270783 0.031609535 0.14039378 0.063102804 -0.13598509 0.040819034 -0.1778015 0.041114606 0.025149371 -0.070778385 0.012320003 -0.05383936 0.062004454 0.108920075 0.051358297 -0.06872487 -0.10068057 -0.08462381 -0.052037824 -0.099075116 -0.20580904 0.026676971 -0.010810052
3114:TENNYSON 0.033331275 -0.050855536 0.058093853 0.09610578 0.17248246 -0.07681445 0.08532429 -0.11128479 -0.0009114498 0.1266038 3.9477018e-06 0.009021847 0.04030694 -0.06067039 0.09444966 0.16307718 -0.07225571 0.00028756628 -0.022741627 0.1482326 0.10514539 0.1061576 -0.06707051 -0.14532343 -0.08284235 0.11518984 -0.11410268 -0.034037605 0.07714982 0.008029869 -0.023953589 0.038303692 0.037396275 0.06419035 0.0041731163 0.14614764 0.036335252 0.037900772 0.006214236 -0.039203063 -0.029222535 0.06214503 -0.021019427 0.0004507375 0.21941665 0.044975713 -0.12175632 -0.12315385 0.041691404 -0.11540004 0.111848354 0.018090805 -0.02170352 -0.0010033714 -0.095856436 0.0036633024 0.054899096 -0.15801035 -0.09397759 0.06731258 0.023794511 0.026936498 0.08148755 0.016052037 0.03166708 -0.11250966 -0.01758334 0.06307477 0.017054817 -0.043310776 -0.00717891 -0.047942255 0.033471223 0.015091731 -0.027264688 -0.009962995 -0.073957875 -0.04010569 -0.08774287 0.024853066 -0.1054337 -0.085124046 -0.19832541 0.15558928 -0.016571602 0.008335714 0.0370358 0.04277538 0.14314578 0.026748145 -0.09000858 0.021378964 0.058905795 -0.10063858 0.11191596 0.065161675 -0.08952036 -0.071041815 -0.015572237 -0.0019481984 -0.099063754 0.014059396 -0.11634266 -0.059766192 0.066481054 0.004088533 -0.042925134 0.09684732 0.08992396 -0.079091065 0.042831562 -0.054755196 0.0297226 0.050647445 -0.10448664 0.0041775065 -0.02502672 0.03897989 0.14344499 0.06537174 -0.062453974 -0.04794777 -0.08812181 0.021269226 -0.09585993 -0.101152845 -0.017715372 -0.012831088
8690:WILD_MARY 0.00012766123 -0.020918429 -0.060528267 0.015301684 -0.02208545 -0.021693364 0.08665196 -0.11553465 -0.041433223 0.10306836 -0.032711662 0.00946981 -0.073695354 -0.07238712 0.12577742 0.08306829 -0.1264787 0.04775621 -0.057796605 0.12671585 0.04867937 0.14902407 -0.051499017 -0.15521 -0.19451348 0.20051987 -0.10224032 -0.03674502 0.090961814 0.030290969 0.022486804 0.04564359 -0.09904825 -0.025847087 -0.0049270107 0.18776008 0.019854905 -0.016680742 0.061203502 -0.0650384 0.020765277 -0.012591562 -0.0880838 -0.0053741033 0.15578252 -0.00024797194 -0.25778142 -0.093448676 0.03721115 -0.059122853 0.05567391 0.0700741 -0.035709865 0.020406503 -0.10135337 -0.07342347 0.061993737 -0.121930644 0.047009513 -0.07556878 -0.029401533 -0.033248805 0.072351925 0.07197089 0.07064057 0.031624533 0.0039153323 0.07959748 0.050215915 -0.056423213 -0.06412293 0.09591567 -0.029135702 0.0036681632 0.07248078 0.104813516 -0.017172154 -0.04148445 -0.054415766 0.1409389 -0.1168694 -0.026502691 0.0016336906 0.10390577 -0.0048802826 0.12516785 0.07032461 0.0068993126 0.0640702 -0.019753803 0.017273055 -0.052970245 0.071772516 -0.14202683 0.11988305 0.12458946 -0.12896802 -0.067557745 -0.08117582 -0.021022016 -0.102359794 -0.010570358 -0.095839 -0.039156716 -0.045619275 -0.030566677 -0.014459966 0.06604195 0.05456831 -0.031597413 -0.09403762 -0.15681109 -0.0199062 0.0088566225 -0.16701911 -0.056694355 -0.052798532 -0.03866542 0.044572387 -0.03583378 0.058835 -0.021209445 -0.045645207 -0.09252329 0.017255556 -0.17966813 0.08626293 -0.11329829
8361:WESTERN_AVE 0.08592835 0.021125183 -0.038840055 0.07278998 0.124669 -0.00018469986 0.046645317 -0.077140786 0.0069704917 0.13362601 -0.055726346 -0.012512705 -0.0065924316 -0.118566886 0.09045773 0.081157856 -0.16873235 -0.06896481 -0.07438747 0.14757127 0.04150689 0.0786366 -0.042364545 -0.2006293 -0.122185566 0.1643961 -0.078460515 -0.0042708227 0.031089162 0.06379412 -0.098413624 -0.021685079 0.030397419 0.057321306 -0.04064786 0.120672256 0.03954658 -0.05974658 0.03513675 -0.008688271 0.005694517 0.017625468 -0.006341837 -0.05335658 0.04802734 0.02693706 -0.13138904 -0.086719714 -0.012125091 -0.11067396 0.08493828 0.015313337 -0.05554934 -0.039192285 -0.08834277 -0.07942205 -0.015501802 -0.08051999 0.003713103 -0.011015724 -0.056163557 0.03708374 0.03751992 -0.038099196 -0.016390413 -0.044838928 -0.0212781 0.04271762 -0.07667359 -0.037492223 -0.027696757 -0.0524864 -0.077692665 0.008350622 0.060602203 0.05609196 -0.04627537 0.0047171325 -0.093589604 0.0909931 -0.08979842 -0.01545582 -0.119979985 0.15676053 0.045523696 0.07486435 0.060458705 -0.03149873 0.14352746 0.031554416 -0.07975819 -0.0028800315 0.10708982 -0.095865935 0.20715071 0.105765104 -0.048342817 -0.11301109 -0.0049150605 -0.086727306 -0.105481006 -0.011716935 -0.098757885 0.027293745 0.05185968 -0.014878972 -0.015853686 0.09580804 0.00021580856 -0.085361876 0.0032043357 -0.03640005 0.019368112 -0.006206985 -0.13559936 -0.015052403 0.01681376 -0.03023136 0.047445968 0.040881373 -0.13119122 -0.10103685 -0.12586443 -0.019204898 -0.09790717 -0.12069898 0.026396105 -0.14939809
8308:LONE_OAK 0.052659165 -0.022628147 -0.035757665 0.027955014 0.12748367 -0.08170499 0.14850162 -0.019293414 0.029823234 0.18725397 -0.09365447 -0.018892115 0.017546078 -0.070181146 0.049884092 0.10950334 -0.07067953 -0.047314193 -0.15856591 0.22612704 0.071613714 0.058802404 -0.019613877 -0.012159378 -0.06349414 0.1281612 -0.051986784 -0.103857346 0.06973303 -0.038453303 -0.008099029 0.11833082 -0.026862519 0.027440995 -0.013739744 0.04395157 -0.051791437 -0.03469773 0.04241875 -0.016929924 0.015825864 0.06339229 -0.066631325 -0.01981661 0.10190264 0.08900088 -0.12801184 -0.07511124 -0.012996356 -0.0419109 0.0118432455 0.06848196 -0.04462681 -0.035105985 -0.19611505 -0.13596989 0.0802808 -0.10231311 -0.09495901 -0.12478279 -0.08770375 -0.031247409 0.17834684 0.18095234 0.056715347 -0.041490175 -0.03660482 0.099569686 0.0734347 -0.040457696 -0.015911577 0.06701675 -0.049992245 -0.048545964 -0.044560466 0.044066213 -0.009655914 -0.02484588 -0.06879869 0.052328646 -0.081980936 -0.11293221 -0.021643624 0.15413332 0.019155724 0.014966417 -0.046008103 -0.019165767 0.035037253 -0.04711654 -0.051666997 -0.08277123 0.07704976 -0.050014064 0.13086063 0.16583958 -0.12861136 -0.19263656 -0.07038507 0.04211123 -0.13439722 -0.0028866634 -0.11371803 -0.045309313 0.07232092 0.016804136 -0.0386069 0.11776969 0.051773485 0.03986075 -0.039591 -0.01596805 0.07249886 0.078035675 -0.07074606 -0.029069742 0.044408 -0.016457217 0.11869295 0.077224895 -0.09047405 -0.17354317 0.016014416 -0.08754733 -0.08135264 -0.04483493 -0.014524255 -0.1248548
3516:TARBY 0.034040883 -0.07495509 -0.06984754 0.04019023 0.027367387 -0.022984272 0.1788442 -0.1063602 -0.03632453 0.1552169 -0.03243688 -0.029959772 0.011078605 -0.13888316 0.05354898 0.14844514 -0.113075145 0.029812656 -0.067583255 0.22621927 -0.054407064 0.07285331 -0.051914558 -0.15479933 -0.16456714 0.13676442 -0.11335632 -0.092942625 -0.07811143 0.029578796 0.12185185 -0.0050739795 -0.027897974 0.12433981 -0.011322791 0.082703926 0.022631122 -0.00593233 0.04995867 -0.082735665 0.066295564 0.046274316 -0.03819618 -0.060636275 0.19936165 0.029342636 -0.11588174 -0.104455955 0.040375944 -0.084818244 -0.036084875 -0.032504052 -0.030484278 0.011704686 -0.11796643 -0.039413434 -0.002676746 -0.0044742655 0.036120724 0.086357795 -0.030540407 -0.031732008 0.065607056 0.10516416 0.05785874 -0.025670255 -0.014353969 -0.033470538 -0.050055392 -0.08455078 0.09483096 -0.044017468 -0.08259545 -0.039917666 0.12025094 0.14304869 -0.075599484 -0.07223438 0.0021725479 -0.025567116 -0.10390396 -0.05505341 -0.051998165 0.09320122 0.04072195 0.07359671 0.086628236 -0.039904974 0.06510838 0.031651426 -0.0038644713 -0.02376531 0.09763003 -0.008347897 0.11366071 0.13327248 -0.097779036 -0.13107882 -0.017750558 -0.02909294 -0.13633214 -0.03965148 -0.12118273 0.016596606 -0.08171547 -0.06509283 0.026350874 0.10102722 0.10453217 -0.057775278 0.01790542 -0.12073012 0.007830828 0.03244567 -0.12246481 0.039098576 0.023693616 -0.031228928 0.06501663 0.07176288 -0.08187055 -0.024979038 -0.06612223 -0.092578374 -0.048996694 -0.09719799 0.06605227 -0.002270262
5125:LONE_GROVE 0.04013308 -0.013667392 -0.0038996914 0.089214206 0.20056188 -0.0472328 0.1689953 -0.11207177 0.014113918 0.15752967 -0.022804251 -0.034350917 -0.089568235 -0.14271656 0.06096278 0.0017019408 -0.08701002 0.012220462 -0.035409607 0.12685925 0.060863424 0.111294 -0.11009267 -0.08165075 -0.08403286 0.024554405 -0.030147271 -0.16001353 0.044769965 -0.054761566 0.026147446 0.08922144 -0.010703296 -0.021762324 0.017978523 0.07885528 -0.0054972307 -0.06083001 0.0051809615 0.010849324 0.01472408 0.017481457 -0.044749003 -0.028421592 0.10096186 0.0012557395 -0.18116905 -0.09551186 0.000747544 -0.03381198 0.054958045 0.12738459 -0.13160913 -0.02962862 -0.17114125 -0.04447673 0.06668773 -0.050076224 -0.007021623 0.019943144 -0.034027938 -0.09148017 0.07919361 0.09327478 0.15008044 -0.14439441 -0.05147196 0.10137348 0.0112404935 -0.10883144 -0.068289734 0.05366531 -0.017972244 -0.006395028 0.053352527 0.1441069 -0.11007192 -0.038856152 -0.07408396 0.042833798 -0.14036126 -0.14927433 -0.026898805 0.21026668 0.033600092 -0.015116088 0.09844092 0.053580936 0.034263514 0.044317655 0.011692533 -0.0973038 0.09038048 -0.19476217 0.1315576 0.15568683 -0.15154202 -0.16050346 -0.013756594 -0.017717455 -0.033990353 -0.021862743 -0.026642201 0.023144025 0.017870435 0.010297581 -0.017038912 0.13918792 0.046153318 -0.08244906 -0.115885764 -0.07090963 -0.008802687 0.081436396 -0.020578131 0.04497705 -0.02964611 -0.0006354205 0.04505492 -0.05222153 -0.045868713 -0.110323004 0.025751777 -0.04468622 -0.035978533 -0.096887454 0.07213966 -0.16081727
4353:OTTER -0.005706204 -0.0787255 -0.08802069 -0.03143558 -0.038547374 -0.08431423 0.12894507 -0.04986312 -0.00013813714 0.15829585 -0.082560316 0.012390841 -0.12392244 -0.11395512 0.19317271 0.078597195 -0.2334817 -0.010141003 -0.0051574116 0.1857088 0.15929547 0.1131841 -0.12197407 -0.15732569 -0.09456674 0.15255235 -0.05490579 -0.08912868 0.01654007 -0.009000955 -0.0025139954 -0.011441488 -0.034549735 -0.033254024 -0.013553719 0.08510143 -0.011310065 -0.07221741 -0.057261854 0.08000918 0.09326228 0.01955392 -0.04424604 -0.12669185 0.071781754 -0.04039877 -0.121769816 -0.18658952 0.014590021 -0.02261043 0.01218016 0.08302806 0.043572467 -0.06359546 -0.064705014 -0.085076846 0.029194305 -0.05812887 -0.105990455 0.05183502 -0.042281292 0.032067668 0.0671313 0.13006996 0.17925508 0.03226822 -0.04913587 0.04651124 0.013132917 -0.09427779 -0.00960107 0.049663328 -0.10109186 0.0010389218 -0.02694457 0.14199844 -0.06331669 -0.064510025 0.0041914964 0.049624912 -0.11064201 -0.047715247 -0.03724845 0.14602578 0.004144691 0.0044864025 -0.049020946 0.029783092 0.025370395 -0.19148389 -0.05151274 -0.014657893 0.014720398 -0.043594085 0.044160552 0.20113765 -0.057920974 -0.09520607 -0.025604097 0.031053638 -0.15752105 -0.02476009 -0.09131674 -0.044115927 0.09755459 -0.005959659 -0.050726138 -0.050950516 0.15977956 -0.0628078 -0.093275875 -0.06322213 -0.037368335 0.030227818 -0.1432381 0.09691175 -0.074637674 -0.059516266 0.05121437 0.14175415 0.048306048 -0.021261856 -0.029966827 -0.059649695 -0.046427455 -0.12003785 0.116635695 -0.11644454
5410:GLASSES 0.016750833 0.012192531 -0.015536562 0.029004218 0.115903735 -0.13405982 0.21981758 -0.1297634 -0.07084655 0.100447364 -0.03647183 0.029543707 0.0242357 -0.1359853 0.033496957 0.028389273 -0.14152388 0.019384157 -0.06702502 0.14122896 0.09454118 0.06355131 -0.041822378 -0.20259698 -0.1320292 0.13273814 -0.093017146 -0.057078395 0.07092387 0.06369737 0.050511137 0.030482607 -0.0077845845 0.042771246 0.0063139084 0.10012887 -0.040777843 -0.009797435 -0.04598636 0.10861288 0.10110138 -0.012437333 -0.09867278 -0.026484486 0.16215137 0.07166884 -0.15609434 -0.08310785 0.013641969 -0.07465455 0.02259491 -0.021708287 -0.011285049 0.051282667 -0.18519402 -0.025874432 0.092260525 -0.05932492 -0.017889492 -0.06603391 -0.096382506 0.040860515 0.13385557 0.10393056 0.021356327 -0.010725104 0.094983876 0.04677242 0.06545416 0.0192372 0.015490333 0.035007093 -0.11521365 -0.10603727 0.02157098 0.014994583 -0.036490705 -0.10744713 -0.030829936 0.07020971 -0.10020042 -0.14309625 -0.07122366 0.21034904 -0.04104062 0.0014718076 0.01943116 -0.011860578 0.06542976 0.020867435 -0.060820103 -0.015958112 0.031359885 0.010536597 0.19407237 0.04319039 -0.10608824 -0.16125734 -0.09135901 -0.14321996 -0.076394044 -0.030631531 -0.15167996 0.01082879 0.039507836 0.06528007 -0.015594554 -0.0027841472 -0.046863053 0.012032354 -0.011665384 -0.09968933 -0.037245847 -0.0396593 -0.17039864 -0.0032874977 -0.0071833273 -0.06991909 0.15026687 0.053898048 0.0046514524 -0.06931533 -0.09786184 -0.06566646 -0.03867544 -0.09604494 0.04754443 -0.018841105
8245:COUNCIL 0.00516144 -0.008575453 -0.00020199401 -0.0116404705 0.05166158 -0.006879486 0.14684115 -0.062723145 -0.008494202 0.17127602 -0.0343651 -0.06388288 -0.036332473 -0.027216652 0.08944039 0.030874204 -0.16149251 0.030367253 -0.0749015 0.21845524 0.09496917 0.10992598 -0.041384507 -0.09567026 -0.16311899 0.11478543 -0.1092294 -0.059587505 0.043906167 -0.010903993 0.039773986 0.029861165 -0.17059867 0.03612566 0.05568969 0.19119652 -0.039525397 -0.00020868222 -0.050320845 0.02453202 0.008646873 0.075099275 -0.023376683 -0.029667167 0.11780161 0.032037012 -0.079491526 -0.0885383 -0.07420869 0.01681958 0.086802624 -0.011881537 -0.01267629 0.036559764 -0.11260036 -0.0023395626 0.005749363 -0.14086255 -0.022728432 0.08811431 -0.0146892825 -0.03332758 0.010034589 0.053075496 -0.0037396299 -0.07181821 -0.00029541162 0.06060102 -0.045589592 -0.0094305305 0.03170597 0.048803497 -0.05323625 -0.04869748 0.090865344 0.1338172 -0.07830046 -0.081803285 -0.037292033 0.072168306 -0.16004577 -0.13271314 -0.09179414 0.15757191 -0.03440092 0.03449708 0.14281316 0.05387184 -0.012711861 -0.041882772 -0.081291765 -0.0325908 0.04436526 -0.06414459 0.10860131 0.17004421 -0.10582844 -0.14021643 -0.07853189 -0.011467762 -0.120425895 -0.030099578 -0.078331575 0.0476013 -0.002618816 0.0038908806 -0.0009103334 0.04262024 0.08921664 -0.062195186 -0.01580223 -0.05304916 0.007594992 -0.0033888803 -0.08408554 0.06563676 -0.00037045826 0.016758483 0.10643668 0.05571286 -0.0817825 -0.077219695 -0.07743371 -0.056740005 -0.053438958 -0.16974957 0.018994676 -0.12487952
5319:FOX -0.049016286 0.00050920073 -0.06714167 0.058871236 0.10644832 -0.06120774 0.1841702 0.02159181 -0.0077377325 0.104748495 -0.03941797 0.0054046204 -0.067460276 -0.03887016 0.13241805 -0.010321104 -0.156681 -0.113715306 0.08017241 0.14888994 0.16801481 0.08581934 -0.03792296 -0.10307057 -0.11224992 0.12678966 -0.08910036 0.0068373643 0.09413295 -0.060178947 -0.015978232 0.06948661 0.0248676 -0.015085502 -0.012978274 0.12801754 -0.01604689 -0.099230856 0.029730035 0.00777985 0.03803023 -0.069857806 -0.105913214 -0.03036147 0.13216732 0.063781224 -0.14232732 -0.056447793 0.04261309 -0.07118138 0.11857359 0.04589586 -0.08947304 -0.004922127 -0.055562105 -0.078096926 0.008816223 -0.123320706 -0.035294443 -0.028913872 -0.050874908 0.033524074 0.09802137 0.11069251 0.04601853 -0.10631958 6.079748e-05 0.09238587 -0.037794203 -0.1340774 -0.030339831 0.012729899 -0.11422893 0.024331054 0.07321888 0.19956422 0.014193976 -0.055800933 -0.050429214 0.13533944 -0.13158475 -0.086334504 -0.08807829 0.16120562 0.01946838 -0.010646752 -0.050364334 0.0007424364 0.021345425 0.008573822 -0.016062286 -0.019412767 -0.042497527 -0.07647965 0.17616728 0.08495145 -0.027780706 -0.08613556 -0.018607382 -0.053965315 -0.036814842 -0.052466348 -0.09550028 -0.030314462 0.01555012 0.07453014 -0.011458357 0.052649315 -0.009583398 0.011488992 0.013289955 -0.06227839 -0.04901036 -0.013513586 -0.18330128 0.08157578 0.031801086 -0.0070132725 0.061877634 0.16738011 -0.10267853 -0.04608085 -0.04218766 -0.06332672 -0.16934256 -0.038392685 0.0745078 -0.087599896
9512:ADABELL_ROAD 0.013222677 0.0782799 -0.038635608 0.012176931 0.099362895 -0.068370916 0.095417984 -0.10075345 -0.0025734876 0.14898038 -0.07742344 -0.041733313 -0.08458741 -0.050472464 0.06017522 0.15188338 -0.18957312 0.041628085 -0.034434356 0.102783374 0.0959077 0.040569086 -0.14139065 -0.13321997 -0.09933058 0.10168343 -0.050815642 -0.03273013 0.07376625 -0.0013651043 0.005904666 0.04729269 0.041306946 0.008160092 -0.00022740346 0.09578908 0.030273754 0.039099246 -0.038361344 -0.12082742 0.03519012 0.027265016 0.011772127 -0.013181256 0.13167712 0.1403084 -0.14391746 -0.14386448 0.02923314 -0.055454604 0.08247346 0.1051682 -0.06369172 -0.069424115 -0.09816776 -0.12866454 0.12830627 -0.08940845 -0.071178176 0.01767039 -0.09735458 -0.06331534 0.028902875 0.06698445 -3.072904e-05 -0.031663436 -0.045213543 0.024713999 -0.027139688 -0.09442102 -0.035171118 -0.035783242 -0.10838521 -0.06391741 0.013047193 0.052615497 -0.012759355 0.03652575 -0.15231393 -0.039730467 -0.13001038 -0.037194654 -0.048670597 0.18340771 0.087724246 0.08738184 -0.051827546 -0.00950275 0.082790285 -0.049344584 -0.080202535 0.029563513 0.1659975 -0.09279539 0.07665011 0.1185895 -0.053860545 -0.03994543 -0.040261373 0.02402854 -0.09652079 0.04848428 0.0114231305 0.026229465 -0.044771187 -0.07082381 -0.026712988 0.12768488 0.14562099 0.0011498155 -0.079929784 -0.048169166 -0.044878755 0.0014752026 -0.12854508 0.0066997283 -0.04484683 -0.021410596 0.07105543 0.13540415 -0.111737065 -0.05557812 -0.078215025 -0.062108137 -0.025861595 -0.08929356 -0.014597257 -0.019351767
8416:DUNJEE -0.045915026 -0.007851369 -0.042190343 -0.003746516 -0.004771021 -0.06365666 0.1987555 -0.109720156 -0.03984963 0.20737837 -0.01809526 -0.07195696 -0.07035324 -0.17548329 0.1015001 0.14681707 -0.20964818 -0.026859133 0.033687025 0.1557116 0.2107128 0.040978234 -0.14959735 -0.03949712 -0.096996315 0.12829603 -0.10531024 0.05112569 0.04038721 -0.003430629 0.027856536 0.09214643 -0.061568238 -0.05344025 0.004787849 0.103138745 -0.030111816 -0.0013678056 0.03134821 0.012974024 0.1011413 -0.00376436 -0.048124414 -0.0877382 0.2019745 0.09356417 -0.051603172 -0.07970644 0.0027690246 -0.051040124 0.1520365 0.0051790727 -0.035373613 -0.021403907 -0.1347634 -0.098290026 -0.07135277 -0.079642855 -0.060991004 -0.043506023 -0.06409407 -0.03759596 0.04397794 0.11739913 0.03503787 0.01429018 -0.00999797 0.06867755 -0.026324527 -0.09521915 -0.03146745 0.022717232 -0.08343816 0.015400334 -0.027564729 0.10746464 0.05581528 0.056018192 -0.044966947 0.11047977 -0.11077159 -0.13892926 -0.06338283 0.15280157 0.077530645 -0.018369695 -0.041209884 0.016708229 -0.005569811 0.006763208 -0.11302941 -0.08705324 -0.034805384 -0.062459216 -0.01151072 0.07849754 0.007550134 -0.044894088 -0.016717698 -0.0374944 -0.010726029 0.011307395 -0.1429955 0.04197021 0.034394324 0.0048064515 -0.051371805 0.13813213 0.08951411 -0.005579279 -0.08334801 0.0013250627 0.011890889 0.053921457 -0.14323157 0.011246639 0.06685986 -0.017963326 0.091960184 0.0548121 -0.072584994 -0.08906565 -0.099731274 -0.045890156 -0.12443471 -0.17070448 -0.053368542 -0.1315465
3209:BIXBY -0.014969258 -0.05342088 -0.03601812 0.05387043 0.100467294 -0.014004876 0.14886193 -0.08345553 -0.12469788 0.11071381 0.045653585 -0.00930541 -0.077909045 -0.06100372 0.030202882 0.059547298 -0.09630557 0.057141673 -0.061718665 0.216423 0.089805625 0.10079132 -0.15150626 -0.2037315 -0.09757808 0.13221249 -0.17275852 -0.09441044 0.032621127 -0.035493027 -0.036647607 0.055900652 0.011870517 0.0406381 0.03626041 0.11072673 0.009965862 -0.066585496 0.052782 0.023514174 0.050424647 -0.033853367 -0.058925934 -0.057370834 0.13411188 0.059168573 -0.08658794 -0.082653195 -0.0035751374 -0.0560747 0.018587897 -0.022244632 0.10727721 0.018213585 -0.037369598 0.011689749 -0.01664384 0.051126335 -0.066781975 0.05681404 0.011527096 0.071627736 0.043605518 0.16724728 0.07084466 -0.064110875 -0.022711553 0.06083373 0.06218123 -0.00782954 0.06479956 -0.020987801 -0.13105725 -0.06847035 0.051727425 -0.021423182 -0.16740197 0.032426607 -0.025502497 0.086105816 -0.06806214 -0.029215474 -0.09047802 0.14384487 0.10495328 0.09433775 0.06704452 0.014172675 0.06079843 -0.058084305 -0.10693736 0.0044039385 0.12471451 0.004190711 0.022712912 0.083453186 -0.12661432 -0.17196861 0.013919782 0.06531331 -0.18283017 -0.027933687 -0.1580298 -0.10731622 0.04166205 -0.033789244 -0.05896115 0.03942923 0.15246569 -0.059874304 -0.003662622 -0.1571131 0.08304748 0.14325571 -0.06263796 0.062047902 0.15166968 0.008716847 0.13002898 0.15292504 -0.016654246 0.016586492 -0.12815772 0.0019411203 0.009671625 -0.07606232 0.033607922 -0.065378234
8474:STONEWALL 0.049391117 0.018966986 -0.0033408913 -0.026816525 0.10682207 -0.10016339 0.12933141 -0.11607369 0.009049658 0.15491076 0.08505875 -0.078743495 0.0703356 -0.12177911 -0.027648002 0.024653764 -0.26011088 -0.020899631 -0.023912424 0.12319454 0.17836453 0.051119357 -0.10965764 -0.25250122 -0.13608079 0.1921882 -0.14161216 -0.053099684 0.077141844 0.027994802 -0.03396873 0.022452602 0.0006256065 0.0029516562 0.014972581 0.21142949 0.06403836 -0.005804381 -0.013556595 -0.036812082 0.025672121 0.07534034 -0.13797094 -0.01969307 0.11321093 0.062451936 -0.08037491 -0.07538622 0.07445774 -0.08144338 0.11839004 0.07956175 -0.035501532 -0.052194055 -0.090417765 -0.04767477 0.06485438 -0.1729776 -0.045947943 0.019112036 -0.027519707 0.032807652 -0.030119803 -0.04187548 -0.013219037 -0.028728986 0.02162618 0.041960977 -0.006579432 0.014652069 0.057556007 -0.096240185 -0.118884385 -0.07784061 0.015260346 -0.121520676 -0.032087643 -0.1445711 -0.061341655 -0.038930934 -0.1055784 -0.10809605 -0.047570057 0.16313216 -0.033363722 0.059463073 0.013957061 -0.027117323 0.10959164 0.01503914 0.0156145105 0.013938172 0.11828702 0.011185385 0.10856427 0.027903304 -0.055979054 -0.11375894 0.032917593 0.034583285 -0.13577133 0.020026617 -0.11725888 -0.019789994 0.063716285 0.01185416 -0.038500264 0.02799847 0.047664788 -0.16291545 0.070660695 -0.06383086 -0.01104144 0.06061771 -0.04547531 -0.018802509 -0.005834215 0.056756537 0.10042161 0.080848336 -0.08332012 -0.0472516 -0.08568358 -0.03527412 -0.06639134 -0.04411897 0.047354087 -0.0957841
8727:STUBBEMAN 0.03242127 0.005629745 0.07133114 -0.0022301022 0.13344012 -0.054216534 0.13153215 -0.0075050313 0.09647189 0.1841179 -0.040327232 0.02800237 -0.028166657 -0.08847868 0.04081527 0.018249838 -0.09089677 0.038176376 -0.05489948 0.1074294 0.07703403 0.13328145 -0.0779597 -0.15554586 -0.16493875 0.027484775 -0.08146966 0.02520059 -0.0064308154 -0.042515613 0.06121194 0.09268388 0.024519533 0.09320479 -0.009862535 0.059781954 0.01711031 -0.0019394014 0.04481278 -0.023184652 0.043723334 -0.0050191144 -0.062416833 0.011393649 0.14315361 0.08348877 -0.08081355 -0.09086154 -0.039963588 -0.09506365 0.037625756 -0.022988975 -0.08498419 0.0029863063 -0.13637637 -0.028133322 0.04617954 -0.07473063 -0.1170761 -0.032223836 -0.05178412 -0.002282182 0.033641 0.07825136 0.012364468 -0.12119644 -0.010067502 0.02636609 0.03716187 0.011768815 -0.0071374928 -0.109828435 -0.08918043 -0.09454277 0.024053128 -0.014280102 -0.0873888 0.060950372 -0.09232665 -0.019632244 -0.067513674 0.011013603 -0.08843092 0.13734098 -0.043467894 0.080224484 -0.062497523 -0.07324742 0.020106805 -0.04318804 -0.0056690997 0.01698035 0.08825702 -0.1391786 0.13286944 0.10474832 -0.15891036 -0.18281095 -0.063293956 -0.066739775 -0.086051136 0.029128335 -0.22440335 -0.11851836 -0.027004864 0.026240066 -0.03224865 0.14462829 0.1219768 -0.10497064 0.010524427 -0.14172718 0.0030692574 -0.00055564486 -0.08640453 0.04416795 -0.010382414 0.10924228 0.0680608 0.057439066 -0.17524211 -0.062022068 -0.14578187 -0.00076174305 -0.10082457 -0.1207245 0.030365596 -0.05769916
3128:HANCOCK 0.087391056 -0.07250578 0.08256581 0.036209587 0.05105634 0.0885258 0.10486005 -0.036266033 -0.016295053 0.12571983 -0.05086854 -0.0221673 -0.055445787 -0.16296072 0.0885931 0.0271387 -0.10744199 0.03822 -0.026366927 0.12402953 0.05722455 0.08316328 -0.064737715 -0.11649704 -0.07186315 0.15027523 -0.10086432 -0.08541538 0.026976103 0.03616146 0.01944623 0.015288099 -0.04472114 0.05724949 -0.06665184 0.14575799 0.08421014 -0.028280312 0.059883174 -0.09186251 0.068746574 0.055644643 -0.117963806 -0.0056642382 0.09466406 0.053578455 -0.14750877 -0.15375026 0.006140945 -0.053905997 0.1785296 0.048914872 0.003372855 -0.09688976 -0.16870125 0.025465997 0.019090788 -0.042613864 -0.04508305 -0.007411367 0.00073574233 -0.056522924 0.039905384 -0.019246472 0.042428486 -0.103852525 -0.03742183 0.05210337 0.043387767 -0.09611962 0.060906824 -0.08397489 -0.19459808 -0.07027455 -0.056697518 0.116192386 -0.024909511 -0.107458964 -0.020309677 0.012150107 -0.057835616 -0.02615832 -0.09437765 0.20680676 -0.008967048 0.035668746 -0.015095574 -0.026217438 0.10325879 0.028384084 -0.014316556 0.046373155 0.124259844 -0.06932976 0.077109315 0.11301559 -0.026700629 -0.15016137 0.05073765 -0.039633565 -0.14409657 0.02976771 -0.061569646 -0.03440659 0.049247026 0.010042232 0.027568046 0.05026732 0.005559338 -0.06450613 0.07731362 -0.11131316 -0.06449732 0.03233424 -0.1956606 0.008985929 -0.05562895 -0.029072547 0.052193746 0.10481587 -0.062860884 -0.07470028 -0.035157833 -0.05719878 -0.07533155 -0.15990284 0.0015791247 -0.026282582
7321:LETHA 0.051633403 -0.115854226 -0.062916055 -0.035384372 -0.0100736 -0.056011587 0.19507545 -0.11407334 -0.04419717 0.1333991 -0.09417362 -0.012835655 -0.087341376 -0.113881916 0.11965968 0.11375947 -0.15789281 0.012966877 0.012896683 0.14684498 0.12730458 0.060461394 -0.065896936 -0.17655686 -0.108889304 0.13581938 -0.12444055 -0.06330383 0.093962304 -0.09419772 -0.0022352487 0.049289655 0.015581272 0.019093933 -0.04003551 0.13874258 -0.020447722 0.025134882 -0.0029638517 0.049339797 0.07011258 0.0056537553 -0.05233559 0.02267271 0.1764916 0.0019062061 -0.12576918 -0.05325353 0.0268134 -0.0314488 0.014623792 -0.020694068 -0.00016369435 -0.052149855 -0.027039476 -0.016591633 0.04853841 -0.10533097 -0.055414367 0.11482573 -0.06641586 0.047343213 0.040067155 0.14759256 0.1172757 -0.010625991 0.011354811 0.1504135 -0.050771985 -0.21794492 -0.029261032 0.10482594 -0.07813189 -0.099965505 -0.012324491 0.15819333 -0.044900473 0.018083343 -0.013434305 0.06185511 -0.2223285 -0.068645306 -0.10334444 0.14325683 -0.028156104 0.034885712 0.0032252935 0.0038875982 0.030366529 -0.045749918 -0.048630837 0.015844174 -0.020273067 -0.01641957 0.051230203 0.025695879 -0.10910491 -0.09976954 0.0008581384 0.032794192 -0.13213654 0.046726838 -0.17443651 -0.16122808 -0.02041109 -0.02300389 0.023313725 0.005322769 0.088803954 -0.015435645 -0.0883822 -0.031001145 0.025748905 0.008785505 -0.027035695 0.084401324 0.04474594 -0.085585654 0.072050676 0.17305568 0.039743397 -0.10673328 0.0057223365 -0.08927185 -0.10488639 -0.07239308 0.06081915 -0.12770642
8908:ROMAN_NOSE -0.03374853 -0.0027045766 9.017155e-05 0.023078658 0.114323236 -0.043273423 0.14247827 -0.0575929 -0.014602258 0.253804 -0.011335641 -0.0062444345 -0.08432096 -0.0679145 0.1262591 0.14306389 -0.14113608 0.020393047 -0.013891851 0.13475846 0.10000399 0.10608296 -0.08163286 -0.05530752 -0.074022524 0.1539963 -0.109031595 0.021975184 0.08591034 -0.119888835 0.023292566 0.030468443 -0.051247526 -0.050268397 0.01373428 0.14738512 -0.042209856 -0.03800808 -0.05001686 0.03482011 0.013481856 -0.119168214 -0.021813413 -0.04046429 0.10836111 0.06961224 -0.11146499 -0.13618578 -0.07049339 -0.06784897 0.10350947 0.05606138 0.016722072 -0.0784193 -0.066695936 -0.0595219 -0.014028893 -0.17962475 -0.13072948 -0.017745715 -0.071210206 -0.014464725 0.10244605 0.12612301 -0.0012656956 -0.09226738 0.07798464 0.087021865 0.0016404386 -0.047974985 0.040475335 0.036280725 -0.045870002 -0.032160208 -0.0042356164 0.117948815 -0.027856454 0.027983036 -0.015237219 0.15449102 -0.09345985 -0.018112743 -0.0148253925 0.04758863 -0.0029825352 0.056849744 -0.018476654 -0.013176698 0.046546277 -0.03575212 -0.055506166 0.013183086 0.041789863 -0.05970025 0.07729166 0.12257767 -0.042061675 -0.09264051 -0.090340115 -0.031382352 -0.07328869 0.026598008 -0.07303036 0.00057757535 -0.009824076 -0.048644647 0.02259414 0.075015835 0.036186002 -0.008881652 -0.04778183 -0.030579036 -0.0046903947 0.084281385 -0.10147517 -0.021737298 0.031475585 0.03981358 0.09099995 0.108725004 -0.015778914 -0.12591296 -0.057723876 -0.12507726 -0.060019273 -0.16654266 0.004598022 -0.09397658
7433:ROCK_CREEK 0.014296607 -0.05050992 0.05486573 0.07237094 0.058680512 0.02055872 0.057791334 -0.06559473 0.013290433 0.14900625 -0.016060594 0.043247484 -0.018873667 -0.03930256 0.075524256 0.09355068 -0.08042477 0.024773449 0.011153753 0.06764794 0.056394428 0.0536517 -0.11286439 -0.12318299 -0.04725387 0.1381059 -0.101274386 0.0341063 0.061041456 -0.0986611 -0.08683377 -0.10108127 -0.031699594 0.042345934 -0.000100756595 0.07707567 0.044293653 -0.020859785 0.0947593 -0.15337753 0.0051163477 0.033176433 0.009836228 -0.034554698 0.13318098 0.06503553 -0.15260561 -0.037521508 -0.0078011155 -0.15206629 0.16740069 -0.11222679 -0.08434787 -0.112204984 -0.14389755 -0.072638325 0.084621266 -0.10413359 -0.07579698 -0.01514399 -0.1020971 0.0044522714 0.033535406 0.061940223 0.069040224 -0.13839296 -0.041931998 0.043470938 0.07124268 -0.13597658 0.009699755 -0.021499451 -0.122117214 -0.045906037 -0.015673919 0.05933234 -0.059907056 0.058751866 -0.10099707 0.039835192 -0.12628785 -0.08394878 -0.13730037 0.14004804 -0.004824453 0.049938425 0.03528262 0.018796558 0.03655188 0.015650555 -0.10946113 -0.011016714 0.08762673 -0.08581125 0.08189977 0.10497504 -0.022721061 -0.056337923 0.015672322 -0.013553176 -0.13578743 -0.0102262655 -0.07340527 -0.01618575 0.058155574 -0.021717854 0.0027567209 0.1693763 0.09161636 -0.062036287 0.10073168 -0.06302982 0.05142444 0.07479354 -0.16675013 -0.027212445 0.04155916 0.089226715 0.17438024 0.0819802 -0.08175724 -0.14585422 -0.099809974 -0.017409386 -0.09625319 -0.17364979 -0.019072078 -0.05878997
8141:SAGE 0.07689172 -0.020897133 0.011143939 0.014413882 0.06528847 -0.101224735 0.16651472 -0.10587759 -0.0072305687 0.05787778 0.007536992 -0.023273563 -0.016986066 -0.0646336 0.07793411 0.090641335 -0.17312387 0.011354698 -0.081554525 0.18075006 0.10966958 0.16480337 -0.050815094 -0.17413849 -0.11278762 0.12791854 -0.043306116 -0.12713067 0.0044046906 0.054179333 0.0068445224 0.12649502 0.0018758781 0.034048446 0.020507952 0.16963702 0.07537826 -0.027645301 0.082274854 -0.061440777 -0.0110254595 -0.042699337 -0.08600712 0.02376738 0.12697518 0.14505726 -0.09964593 -0.11696096 0.017076323 -0.0014299627 0.063846946 0.0590497 0.016721401 -0.011509202 -0.17377149 -0.06490147 0.06850403 -0.07395274 -0.10400906 -0.015439221 0.028791087 -0.020537937 -0.006389669 0.073040515 0.018117735 -0.13601115 -0.10165477 0.10660671 0.022383146 -0.04744218 0.06220629 -0.0544293 -0.031092595 -0.038312655 0.023700641 0.0921887 -0.050093457 -0.08966897 -0.05712234 0.043110404 -0.06535151 -0.04555269 -0.016753636 0.12854458 0.029427992 0.0076398263 -0.0012650145 -0.0536708 0.080601856 -0.065282226 0.042403504 0.04280317 0.113010444 -0.120079815 0.14824861 0.108683 -0.08729603 -0.16277835 0.045800876 -0.045474824 -0.087508425 0.04401293 0.062695816 0.08317614 0.0055227214 -0.00304669 0.008953289 0.053047664 0.044209857 -0.019195946 0.0054824073 -0.053619538 -0.012339543 0.09616016 -0.13048773 0.03858669 -0.1350201 0.02164726 0.11543301 0.06188959 -0.029246522 -0.049419142 -0.057236716 -0.092287205 -0.10918584 -0.099414356 0.10930195 0.025582558
8151:PENNSYLVANIA 0.076140136 0.06525762 -0.115707606 0.05998912 0.11179975 -0.01638479 0.12422769 -0.11526788 -0.024528265 0.16096464 -0.025991725 -0.022279214 -0.042033054 -0.07192527 0.045939203 0.018228339 -0.08684533 0.052435648 0.020812312 0.093062125 0.010046991 0.11285874 -0.058184326 -0.1786636 -0.1052433 0.14940882 -0.112290315 -0.10500095 0.0053768232 -0.025832396 -0.011035343 0.05741277 0.015708216 0.07229069 0.017139375 0.09215869 -0.045590844 0.04390594 0.07937009 -0.08876563 0.013783339 0.03153312 -0.048744507 -0.061753932 0.18093163 0.15964043 -0.09890549 -0.043507114 -0.024077395 -0.051737975 0.005631067 0.016421543 0.029201366 0.012404239 -0.10570691 -0.042521145 0.05630146 -0.06469136 -0.056069855 -0.01376431 -0.045021202 -0.0073583233 0.046041034 0.110253006 -0.07252522 -0.008830391 -0.0067535727 -0.00095628336 -0.016027533 -0.020819644 0.028381744 -0.051449586 -0.05900769 -0.024858218 0.008399319 -0.045869462 -0.026628114 -0.107498854 -0.09360074 0.0014312485 -0.07004469 -0.06362261 -0.11486546 0.17793831 0.03243951 0.0498948 -0.024623362 -0.03296566 0.07243979 -0.032558687 -0.10075655 0.070983894 0.16338073 -0.05115702 0.11511344 0.119994015 -0.088313125 -0.10135477 -0.03329948 0.0068046157 -0.12001006 -0.016848654 -0.12827367 -0.02285615 0.016475888 0.029511185 -0.037411768 0.11825554 0.038569756 -0.07543941 0.07653146 -0.059596084 0.037146408 -0.0330789 -0.108757846 0.017327826 0.08443188 0.039499905 0.106953144 0.11826309 -0.100829035 -0.0878461 -0.1637987 -0.04217285 -0.14925124 -0.16019219 0.05053561 -0.12987043
8352:QUAIL_CREEK 0.046112012 -0.05477832 -0.06036257 0.0375096 0.10232092 -0.025804622 0.16828564 -0.04449568 0.010462861 0.1892681 -0.02931667 -0.023087064 0.017393751 -0.11836131 0.07807321 0.1363466 -0.0033945448 0.056703053 -0.023843708 0.15623564 0.088433556 0.16525586 -0.14559603 -0.111258455 -0.10235484 0.15800744 -0.10089675 -0.02892537 0.014223154 0.028167805 -0.022674832 0.019183367 -0.112898916 -0.001089049 0.009940122 0.1509722 -0.03288345 0.042320605 0.030100074 -0.0035633226 0.048975233 -0.01735663 -0.011609543 -0.008556299 0.13539582 0.039451823 -0.0974817 -0.10298326 -0.012366961 -0.049541496 0.031800672 0.0733093 -0.04901758 0.053203266 -0.09947239 -0.0017641771 -0.017211713 -0.07368177 -0.01728595 0.03388198 -0.0067592394 -0.05917566 0.10218933 0.11175189 0.10544761 -0.11317738 0.028083382 0.13875571 0.04995134 -0.097873725 0.010240769 0.098308966 -0.061561022 -0.054169085 0.037422553 0.024288464 -0.01533636 0.010721652 -0.1019356 0.09216429 -0.12667626 -0.035721734 -0.09811788 0.12257292 -0.03768651 0.06151925 -0.023575354 0.06352991 0.053080544 -0.054072347 0.01921295 -0.03807758 0.03871452 -0.07910225 0.14399526 0.12190097 -0.15781814 -0.20044217 -0.058639836 0.042411305 -0.12749474 0.03699801 -0.16907635 -0.08440509 0.11473965 0.07834379 -0.07444917 0.047213152 0.119512066 -0.044586193 0.003234049 -0.015993 -0.03201894 0.027322318 -0.08563697 -0.0486973 0.054957487 -0.016312059 0.13016135 -0.056214184 -0.027135067 -0.053366907 -0.076123156 -0.07314947 -0.08888205 -0.11527451 0.029916419 -0.11386907
8656:FOSTER 0.13186137 0.032091033 3.364479e-05 0.10055064 0.15192457 -0.06047813 0.18416312 -0.15689896 -0.05593823 0.12934008 -0.025901742 0.028367264 0.030201225 -0.17084847 0.11968234 0.08264445 -0.15760542 0.02690018 -0.06416406 0.058502093 0.072624 0.086116835 -0.07357116 -0.11333442 -0.07585713 0.13157782 -0.050560877 -0.06985188 0.047990758 -0.074973606 0.012876779 -0.034539897 -0.0062746746 0.06152638 0.016048195 0.09191967 -0.043603677 0.033568878 0.08769334 0.027659306 0.045403667 -0.09416741 -0.040953625 -0.066012 0.21769513 0.1888618 -0.20783976 -0.1094459 -0.07796305 -0.13196494 0.016585885 -0.055405196 -0.016415905 -0.05682982 -0.10775718 -0.014608468 0.008073916 -0.14106297 -0.060909256 -0.09198691 -0.0009530587 0.01105046 0.074839376 0.109767966 -0.0068439106 -0.0039507546 0.040922362 0.10693606 -0.043442838 -0.03514137 -0.00813812 0.007820172 -0.008455428 -0.07564841 -0.009488157 0.015234442 -0.03617617 -0.050197795 -0.075478286 0.002819794 -0.04104615 -0.065680824 -0.00758977 0.12443577 -0.0020006467 0.103483036 -0.08562955 0.016567651 0.050352167 -0.045080606 -0.06617733 -0.014132932 0.16117343 -0.11112455 0.12097042 0.0647293 -0.058962088 -0.20849718 -0.05425354 -0.09004424 -0.16005768 0.03651674 -0.045454282 0.078638926 0.05884115 -0.07728428 -0.010563865 0.09450904 0.012459903 -0.0045859097 0.022872342 -0.015952213 -0.045787305 -0.0007411402 -0.03135995 -0.023151992 0.08223765 0.032558303 0.0636441 -0.007656039 0.034570854 -0.09900641 -0.09035498 -0.03684419 -0.121957496 -0.11476195 -0.064671494 -0.1226233
7306:FIXICO 0.050944224 0.017169178 -0.031706214 0.06728244 0.05495078 0.0015741836 0.1468925 -0.029534966 0.04026901 0.11875906 -0.08408015 -0.011540566 -0.06857306 -0.093822345 0.07670156 0.07577388 -0.1527323 -0.028692117 -0.029189598 0.053958833 0.06164059 0.07633457 0.036775522 -0.0032169567 -0.04390778 0.1408128 0.011848431 0.01418723 0.08213642 -0.044287257 0.015155944 0.031585485 -0.0741291 0.114759974 0.028210595 0.16280316 0.002267447 0.027635077 0.07119204 -0.05058061 0.09797216 0.010436366 -0.109996736 -0.051843252 0.1557351 0.039145775 -0.11923767 -0.16940239 0.022871057 -0.08306836 0.07647953 0.05748377 0.034926962 -0.026778184 -0.10943882 -0.10262412 -0.022200452 -0.13334195 -0.002389454 -0.09792925 -0.10806581 -0.083556905 0.06636351 0.19651528 -0.005990681 -0.09044763 -0.019297535 0.06987026 -0.02847421 -0.08275052 0.06265662 -0.009636878 -0.08407618 -0.11364792 0.05679548 0.10509201 -0.098003395 -0.12026784 0.00824673 0.111092776 -0.120676115 -0.046416774 -0.06008243 0.20152704 -0.03955306 0.0020102647 0.0038630906 -0.043204222 0.032893926 -0.010093193 -0.024557427 -0.10314977 0.0033766523 -0.07886542 0.110509045 0.15664077 -0.07333468 -0.15185122 -0.08423577 -0.037063807 -0.2062033 -0.06709866 -0.11605428 -0.049229097 0.061896425 -0.041250594 0.040026236 0.123735674 0.050791163 -0.00029046976 0.013385009 -0.031528305 0.072004795 0.1378386 -0.08960876 -0.040933553 0.014526637 -0.0290069 0.10102972 0.13854955 -0.07035333 -0.09545667 0.04401869 -0.046033457 -0.08020289 -0.10574225 -0.02299562 -0.09962568
8340:SILVER_LAKE 0.0494492 0.023774454 0.0033987716 0.02917271 0.13829531 -0.052341443 0.1180483 -0.06314599 0.009771786 0.15184346 -0.031751845 0.015661288 -0.004030769 -0.05523586 0.078213036 0.091133855 -0.11627006 -0.022264227 -0.05618014 0.07251912 0.06566756 0.068154216 -0.072897635 -0.17130685 -0.07318071 0.1849714 -0.13636744 -0.033851814 0.0014430049 0.013209157 -0.06935669 0.07137441 0.058569446 0.009163021 0.043497022 0.12327732 0.0466633 0.019765232 0.016920654 -0.075711444 -0.009038549 0.06404337 -0.018814994 -0.08001803 0.12875424 0.024532016 -0.1159955 -0.081504576 0.06873698 -0.0489486 0.0929796 0.018893844 -0.05789603 -0.020858016 -0.17513774 -0.17547628 0.022854844 -0.13740836 -0.091317765 0.04618159 -0.033909425 0.036907822 0.052223455 0.05161208 -0.024029903 -0.087982014 0.065817215 0.03867124 0.042046394 0.029305393 0.0031558003 0.02403004 -0.07234049 0.018297255 0.04020438 -0.0075024255 -0.045294642 0.040297702 -0.1068586 0.088415585 -0.119929165 -0.014051293 -0.08119698 0.089275904 0.047733005 -0.054246545 0.057459 -0.04353519 0.08326239 0.08188744 -0.03398402 0.02224865 0.07050631 -0.07132848 0.13232183 0.04555645 -0.042830247 -0.08002414 -0.01054499 -0.07606814 -0.12730238 0.06384808 -0.10107774 -0.011348494 0.08470403 -0.028849551 -0.03144473 0.09366708 0.115030184 -0.10580371 0.07416939 -0.060699455 0.020657863 0.04850158 -0.1078067 -0.007985553 0.024982344 0.013683541 0.1467146 0.19994356 -0.13687336 -0.04168502 -0.16938165 -0.05977804 -0.10487298 -0.18453835 -0.08173464 -0.005246689
8469:MEMORIAL 0.039349087 -0.05030984 -0.0027638087 -0.005594656 0.14267641 0.026225872 0.13771982 -0.1772237 -0.029313724 0.17766175 0.02948322 0.022563284 -0.01992002 -0.04473632 0.09811279 0.07040736 -0.103236586 0.06529836 0.03141142 0.03060084 0.008080131 0.0934231 -0.053990785 -0.19610657 -0.07898244 0.10566988 -0.100117445 -0.029837785 -0.063450664 -0.04310048 -0.009921752 -0.071864836 -0.0556618 0.11733651 -0.022334702 0.12400903 0.064412914 -0.052815318 0.0008338056 -0.02945863 0.061427627 0.0464318 -0.0062880293 -0.042752665 0.1783199 0.070350766 -0.15033461 -0.13490102 0.0022762883 -0.06416237 0.12826209 0.11963708 -0.05216034 -0.043950662 -0.120078355 -0.06213369 0.041337892 -0.13589168 -0.17362593 0.040137105 -0.042099107 -0.02267014 -0.0015613427 0.0061695725 0.0081745265 -0.047043454 0.06857796 -0.023950327 0.03550598 -0.021447832 0.08359638 -0.048965495 -0.065085515 -0.022173714 0.067115985 -0.09324873 -0.08659878 -0.04762756 -0.06860625 0.029635321 -0.1295535 -0.029591879 -0.11919536 0.07744855 -0.022000961 0.009731399 0.04425375 0.016899921 0.06953878 0.02444823 -0.08633363 0.040052984 0.09098277 -0.13744816 0.058951627 0.15260014 -0.123732 -0.116166286 -0.05821695 0.048035223 -0.042418532 -0.037184533 -0.09226662 0.067408845 0.033921856 -0.035694692 -0.10433079 0.10444034 0.21895726 -0.14540905 0.05904005 -0.06240545 -0.058508374 0.040861685 -0.12888876 -0.007998178 0.106268615 -0.013206981 0.18725324 0.013462194 -0.123257935 -0.03232362 -0.089110434 -0.04114532 -0.062292837 -0.14763598 -0.033131395 -0.044038776
8299:WESTOAKS 0.017755244 0.02835323 0.005749311 0.051408645 0.16203502 -0.01762004 0.16476808 -0.05923236 0.05000509 0.14174403 -0.0067501147 0.04019507 -0.03575288 -0.028963555 0.06233961 0.024648583 -0.104089856 -0.0011791777 -0.055403057 0.20414701 0.055376332 0.09840819 -0.021626487 -0.16118747 0.00056764594 0.09817576 -0.028175289 0.020751134 0.012850543 -0.062168363 0.0441511 0.057282258 -0.031593528 0.051173683 -0.041715987 0.10183537 -0.013370156 -0.016605757 0.06467698 0.055740386 0.026293255 -0.00012991556 -0.08150797 -0.031679537 0.13546681 0.19174609 -0.15355264 -0.096384816 -0.09498666 -0.10053605 0.13234623 -0.025335342 0.00026139777 -0.01316814 -0.075680554 0.078344665 0.0889646 -0.048194267 -0.09050279 -0.03838548 -0.016875396 -0.0327353 0.103722356 0.1222133 0.034922253 -0.09354932 -0.028813409 0.08481954 -0.018279994 0.04228033 0.030635694 -0.07608632 -0.16424066 -0.025572231 0.09182506 0.09086725 -0.13094372 -0.038236007 -0.12491664 0.004564989 -0.06410264 -0.07302634 -0.08687194 0.13736062 -0.016094143 -0.0121302735 0.00709917 -0.020038947 0.035105526 -0.03363291 0.010194701 0.055744227 0.12154959 -0.13268565 0.096355185 0.10497256 -0.07489456 -0.12560043 0.0134272855 -0.010714263 -0.09308751 0.031011205 -0.054753035 -0.03055141 -0.074532844 -0.02439265 -0.011967631 0.09976428 -0.028190434 -0.0838383 0.0045505576 -0.08375572 -0.015892724 0.04632362 -0.0814199 -0.0137695335 -0.06951612 0.0656649 0.0872343 0.12968768 -0.13405363 -0.06891999 -0.09263078 -0.0866772 -0.06424153 -0.17387699 0.054734103 -0.108362876
5117:MARIETTA -0.06281242 0.027862502 -0.07425906 0.013873997 0.2165166 0.018770538 0.12468138 -0.035726443 0.044073544 0.13625708 -0.03553277 0.019222317 -0.028095791 -0.04430831 0.04579568 0.14080474 -0.026706407 -0.009886117 0.02556726 0.102502495 0.072292894 0.12604548 -0.008052829 -0.17694418 -0.09068287 0.10524123 -0.07391188 -0.027994834 0.09891292 0.06225721 0.14327556 0.040182166 -0.067368664 0.084566936 0.0016242993 0.20119375 0.11825581 -0.02512397 0.090033926 -0.062459555 0.0642627 0.012024292 -0.009576102 -0.0370582 0.1532354 0.022951102 -0.18172556 -0.07672837 -0.02674745 -0.067993276 0.062545314 0.0030304508 -0.10159529 0.03489306 -0.11561201 -0.12730256 0.008082244 -0.06342036 -0.022935664 -0.045244582 -0.09259828 0.04371701 0.06660301 0.07107003 0.0067658476 -0.11303589 -0.030664263 0.12996593 0.023798343 -0.09744387 0.057599045 -0.030819384 -0.040209014 -0.027508127 0.053364396 0.15455325 -0.07706899 -0.000447819 -0.13141446 0.044318575 -0.031899273 0.07535455 -0.074230835 0.16085117 0.016072942 0.071960405 -0.03782598 -0.0016629045 0.10131383 -0.05668831 -0.0018390008 0.047194522 0.06543742 -0.045429967 0.06761694 0.024618909 -0.10393848 -0.09869524 -0.09755946 -0.0480118 -0.010395671 0.07142971 -0.06505605 0.0024265847 -0.10756261 -0.02277422 -0.042539284 0.07710449 0.055460073 0.0030451154 -0.009697333 -0.06039379 0.014664233 0.046070356 -0.19253168 0.024184197 -0.0471137 -0.0036470948 0.080415145 0.101435095 -0.1655598 -0.04215992 0.08625842 -0.09628216 -0.05500114 -0.14793798 0.006451913 -0.102852106
8322:THIRTY_EIGHTH 0.038915426 0.035115547 0.0007306605 0.10654165 0.16346449 0.013605453 0.154675 -0.082948506 -0.014057239 0.163223 -0.038485404 0.02665057 0.07517651 -0.16309662 0.10627878 0.11985906 -0.19505112 -0.013245875 -0.08596208 0.113002695 0.04033439 0.0013988465 -0.038451333 -0.11893256 -0.06733648 0.047147356 -0.09398476 -0.05763943 -0.030672692 -0.031483404 0.07312458 0.09265521 0.046756003 0.033695668 0.046672497 0.124993764 0.018635284 0.027152082 0.07133014 -0.018862093 0.005466041 -0.011755699 -0.049768373 -0.05122535 0.25376594 0.025592374 -0.07009083 -0.083946995 -0.02771425 -0.10595916 0.03487249 0.025781343 -0.06631352 0.0011817265 -0.113337286 -0.097672604 -0.011240289 -0.043544643 -0.10720365 0.026144622 -0.0952123 -0.0072698453 0.056665014 0.19916166 -0.03770971 -0.0719531 0.03512703 0.04990343 0.067057736 0.01154938 0.07968679 -0.088447876 -0.019007593 0.010284999 0.028939387 0.023686435 -0.06765893 -0.042406872 -0.06025351 0.014832606 -0.11258844 -0.10569278 -0.05594742 0.14358534 0.0014617818 0.074807905 0.078146674 0.09018966 0.15974697 0.019631406 -0.08207032 0.031424414 0.12701406 -0.08645593 0.08985089 0.059773363 -0.058558825 -0.046629455 -0.0011053885 0.016288659 -0.08013966 0.03356527 -0.15256771 0.05549742 0.00716014 -0.04550834 -0.016766097 0.13474363 0.11130553 -0.1277504 0.05481757 -0.08011945 0.02675074 0.05095635 -0.08302293 -0.01185566 0.13918304 0.08020436 0.13297658 0.058566306 -0.06852461 -0.05262187 -0.06708384 -0.052896526 -0.014380204 -0.11029653 -0.02348 -0.04345397
3214:LONE_STAR 0.079452865 -0.04242561 -0.0153514985 0.04400115 0.072458304 0.067366876 0.09515237 -0.038016707 -0.021342738 0.09390041 -0.00893322 -0.026522823 0.0099884635 -0.114041485 0.022214837 0.12003395 -0.21811855 -0.021465378 -0.08204646 0.1965937 0.057574544 0.08017777 -0.117216334 -0.22471401 -0.13166647 0.04370763 -0.13709427 -0.033340402 -0.07226833 0.04034777 -0.008429436 -0.010330949 0.011848368 0.05212253 -0.0145583805 0.11770855 0.082134925 -0.050314594 0.093694754 -0.14942397 0.087340735 -0.05864207 -0.09166438 -0.04796368 0.123859584 0.021538794 -0.08158818 -0.018532261 0.038564842 -0.08260836 0.041519787 -0.011839265 -0.09339787 -0.010977314 -0.12510817 -0.046039514 -0.012496696 -0.05679644 -0.03210973 -0.018726809 -0.07378151 -0.041438974 -0.013174271 0.06011296 -0.038586713 -0.07266207 0.030299239 0.070843026 -0.045963343 -0.073011346 0.0014349836 -0.022861492 -0.017536456 0.012293728 0.03733923 0.023364913 -0.09104688 -0.06917209 -0.07390984 0.07666307 -0.10138373 0.006037724 -0.034889635 0.14236023 0.07900534 0.07628341 0.00015484774 0.05301887 0.09399059 0.04248891 -0.08072295 -0.016980736 0.08534055 -0.09779464 0.11105642 0.1386794 -0.08609686 -0.1146863 -0.04359123 -0.082010806 -0.078438945 0.053100146 -0.013835713 -0.01040803 -0.035780936 -0.021171374 -0.06918094 0.11241074 0.023308529 -0.033885386 0.055122 -0.11610265 -0.021382397 0.03845833 -0.15105046 -0.0008969145 -0.039708994 0.010633319 0.086767666 0.10061988 -0.13523819 -0.161004 -0.12189363 -0.13986665 -0.09972036 -0.0753224 -0.06962356 -0.07012612
8921:JENSEN_RD 0.038176604 -0.03428388 0.016160013 0.049294036 0.14428395 -0.079633564 0.19222297 -0.16694681 -0.022692991 0.183215 -0.0958858 0.05563887 -0.03467545 -0.097526446 0.13153802 0.13213092 -0.1546563 0.06801561 -0.11096914 0.06961677 0.09984716 0.08611001 -0.0011520601 -0.054731607 -0.09225472 0.1425247 -0.081024736 -0.07171575 0.12633172 -0.08677752 -0.07122224 0.026448218 -0.03313441 0.056665596 0.062210478 0.09857901 -0.059092004 0.07179994 0.055811394 0.03554571 0.04369077 -0.013542244 -0.0688498 0.06682494 0.19132222 0.07076556 -0.13961436 -0.096414 -0.10295508 -0.059747353 0.0043378742 -0.046553615 0.047399204 -0.022284765 -0.11341888 -0.07884945 0.04196039 -0.110902 -0.03864089 0.0052634226 -0.061648615 -0.038674735 0.069684684 0.017854039 -0.010294437 -0.041606613 0.0029213286 0.07585409 -0.07202913 -0.09242637 0.0034442989 0.01016494 -0.012396328 -0.08815809 -0.024446694 0.03267021 -0.12556328 -0.03302434 -0.08250584 0.11315045 -0.090119705 -0.1077201 -0.06328467 0.0660541 -0.044874787 0.029860862 0.077869676 -0.012357512 0.044474196 -0.015295037 -0.09969606 0.013412228 0.10443146 -0.055831004 0.16655248 0.04983468 -0.09074533 -0.12422895 -0.07241024 -0.09427162 -0.19625664 -0.022248894 -0.12935643 0.03560273 0.015671698 0.054523773 -0.05731031 0.08276704 0.028496748 0.022841195 0.012024883 -0.028000452 -0.022938306 -0.0030568046 -0.10202393 -0.07080467 0.089298 0.0501315 0.14354171 0.104957834 -0.07391551 -0.10007145 -0.05980234 -0.09592153 -0.004396791 -0.0997471 -0.029941848 -0.08735689
4707:KNOBHILL 0.06491772 -0.11693989 -0.026199691 0.08153966 0.103500836 -0.043481365 0.11877747 -0.09041892 -0.0020997627 0.19889416 -0.006414298 -0.05444893 -0.066703625 -0.1572131 0.09818523 0.09556166 -0.14951578 -0.015422159 0.04828061 0.13575032 0.016812403 0.14624055 -0.1903551 -0.09036311 -0.030507796 0.07806348 -0.019076565 -0.084702805 0.041115366 -0.102556445 0.03881933 0.083430566 0.016279776 -0.008548564 -0.028581701 0.1591166 0.06927558 -0.06670636 0.0067444555 -0.024518898 0.011843223 0.0016471299 -0.049650792 0.036004033 0.15217283 0.13077724 -0.17594951 -0.06592141 -0.011842324 -0.07632909 0.07301696 0.1280065 -0.025184263 -0.09581111 -0.10140187 0.01942334 -0.01669136 -0.14662346 -0.03198893 -0.005845368 -0.011430942 -0.05283545 0.11370189 0.13326174 0.042962484 -0.10086156 0.012196962 0.08678786 0.047359757 -0.09206496 0.023773964 -0.026284693 -0.040434796 -0.081877634 0.036462225 0.11657226 0.016593354 -0.03497515 -0.0827048 0.007337938 -0.10566163 -0.11890645 -0.059586294 0.11093956 0.04220676 0.01367912 0.026085312 -0.014767785 0.063124076 -0.0060382667 -0.016825173 0.0018769228 -0.051129308 -0.14749384 0.100334816 0.08103276 0.0002656392 -0.16504553 -0.022137815 -0.013149506 -0.12986773 -0.06222259 -0.05814624 -0.0058529573 0.00880966 -0.06288802 0.016895698 0.12804376 0.03557238 0.04033006 -0.12219542 0.029836608 0.059242345 0.058110204 -0.11428114 -0.009666255 -0.051888812 -0.091918916 0.010647653 0.08677369 0.01018558 -0.10301719 -0.056853384 -0.057938423 -0.12348607 -0.086486585 0.044749424 -0.13134648
3110:RIVERSIDE 0.0017182915 -0.03944542 -0.08020014 0.06341292 0.122881845 0.042177524 0.15811959 -0.10423854 -0.0361363 0.121640526 -0.0074822092 -0.027897423 -0.105803005 -0.15708174 0.0710171 0.087432325 -0.15640615 -0.014414379 -0.009957357 0.09599644 0.044611186 0.13278104 -0.1074849 -0.10014079 -0.095497474 0.19888002 -0.08193703 -0.07125461 0.11286746 -0.008351015 0.0495718 0.0051859976 -0.123009875 -0.00855707 0.019000316 0.0974557 -0.02093938 0.08402083 0.014238531 -0.022789612 0.0125247035 -0.021027146 -0.037660554 -0.03657979 0.10087288 -0.0073098433 -0.1399428 -0.011738831 -0.041535363 -0.038225777 0.11008156 0.008222624 -0.08552797 -0.02072825 -0.12473235 -0.008122015 -0.04991804 -0.123127334 -0.02619824 -0.0741225 -0.059428073 0.019214261 0.05961145 0.088868536 -0.02140036 -0.0056335917 -0.028880857 0.12487194 -0.022561776 -0.15448594 -0.0035013831 0.020878565 -0.056753244 -0.027371865 0.051351666 0.10062244 -0.007999288 -0.065561384 -0.048303824 0.114395194 -0.12565015 -0.07560934 -0.11961781 0.22002885 0.015296728 0.026492408 0.017596247 0.017445523 0.038456406 0.0082219485 0.0027280687 -0.009196659 0.16235101 -0.16136612 0.07594734 0.15752673 -0.05833584 -0.09214952 -0.086713396 -0.08195544 -0.10937072 -0.0543734 -0.0275653 0.05845052 -0.008534009 0.056841575 -0.11642964 0.043122496 0.06665918 -0.016224006 -0.00577445 -0.05327044 0.07861772 0.108280465 -0.15336443 0.0017317958 -0.015615986 0.0072862264 0.084659964 0.029605918 0.02054214 -0.03711286 0.06132174 -0.037446752 -0.014413207 -0.122725815 -0.008709635 -0.11166752
7435:MISSION_HILL 0.0055388706 -0.049989484 -0.03321449 0.024927586 0.07589583 -0.016210053 0.11544902 -0.052402798 0.015901318 0.12990606 0.03548827 -0.02331201 -0.021126198 -0.07227498 0.046041194 0.1251705 -0.2211908 0.0012655014 -0.051688135 0.18695605 0.10542793 0.07256715 -0.17571265 -0.20307574 -0.05195526 0.037008453 -0.14338924 -0.0017265241 0.011329251 0.02628357 0.018122675 0.030209335 -8.160215e-05 -0.029281186 0.01780973 0.14999153 0.023766061 -0.010411725 0.04272454 0.08767521 -0.06837861 0.008421978 -0.069382794 -0.0052502933 0.10734138 0.025556175 -0.15873112 -0.01668442 0.008105682 -0.10297139 0.16392596 0.099211454 -0.038706787 -0.057663873 -0.067289025 -0.0136394305 0.0081926845 -0.042134125 -0.14361659 0.10297738 -0.031471886 -0.021240309 0.09698195 0.026458144 -0.013230246 -0.124113776 0.0016704403 0.09264622 0.055148132 -0.039707016 0.04681699 -0.026749345 -0.06238581 -0.09105425 0.08270443 0.047710773 -0.017972238 -0.080162264 -0.032523826 0.03879568 -0.028333025 -0.058727957 -0.09972288 0.0813129 0.010012264 0.010441571 0.08608276 0.046639357 0.07492077 0.04021278 -0.0077098547 0.010330839 0.03808782 -0.06555191 -0.0034311898 0.078678064 -0.12404847 -0.06623327 -0.0005433741 -0.036123555 -0.13991882 0.0010696929 -0.15819833 0.05189923 0.048321307 0.0529125 -0.05183736 0.063440055 0.18662523 -0.124940686 -0.0036698154 -0.058987617 -0.036135998 0.044403322 -0.14234094 -0.022364967 0.03451708 0.0036781253 0.18092725 0.058037885 -0.16389625 -0.110170335 -0.060670234 -0.021416979 -0.027581086 -0.17989206 0.010653541 -0.07179504
8365:LAKESIDE 0.060743548 -0.05024397 0.00019173505 -0.003520935 0.1329805 -0.015970651 0.04000216 -0.13353808 0.01947884 0.24493015 0.015242199 0.043629665 -0.02774435 -0.11078459 0.07555305 0.15136802 -0.021996435 0.022159968 -0.033765163 0.067253165 0.19148171 0.122128084 -0.035875108 -0.15051949 -0.082184546 0.07842184 -0.16669926 -0.09525532 0.033531655 0.012339489 0.12107892 0.105204046 0.07831813 0.083005555 0.01583025 0.106696144 -0.040911246 -0.042292327 0.025873886 -0.004095458 -0.101483785 -0.007063383 -0.010814433 -0.12656799 0.18316977 0.02884017 -0.084255956 -0.053843223 -0.008849458 -0.13788141 -0.010260092 0.026345681 0.034161843 0.06734371 -0.13413951 -0.091452226 0.07752481 -0.101561636 -0.08974729 0.044851623 -0.038517307 0.0449856 0.050798826 0.15027533 0.020111613 -0.05442818 0.036201093 0.00055859314 0.026688416 0.043448567 0.07191418 -0.050511222 0.020601545 -0.014799549 -0.032550633 0.044218145 -0.101248056 -0.00250729 -0.025436854 0.0856813 -0.0955759 -0.08979633 -0.11479418 0.13206343 0.06824056 0.044444717 -0.010789098 0.044669513 0.035157092 -0.053792294 -0.12838285 -0.046951473 0.17504206 -0.08545758 0.031292852 0.1441567 -0.03977921 -0.04424636 -0.028691657 0.033660773 -0.031628672 0.008702187 -0.20102479 -0.030010324 0.027232876 -0.015215333 0.04003559 0.1346671 0.1587939 -0.08154494 0.025876172 -0.061864007 0.014181516 0.07690955 -0.17199934 0.12577233 -0.0033305462 0.044330426 0.07378621 0.1002129 -0.16275275 -0.10700919 -0.09783489 0.017311271 -0.05351007 -0.15129863 0.06876837 -0.014706389
8359:YUKON 0.051335603 -0.010547272 -0.058519736 0.08543653 0.1323357 -0.045073953 0.23059775 -0.11785283 0.023405425 0.11764327 0.008693752 0.0068591866 -0.033870913 -0.07718913 0.12088657 0.038551547 -0.18212709 -0.034492917 -0.059093952 0.091426484 0.12669946 0.1736921 -0.024739325 -0.19004762 -0.20092098 0.11776136 -0.16471395 -0.05283842 0.013895667 0.024778232 0.027179023 0.08090552 0.09269769 0.11222315 -0.031759273 0.09094338 0.11924581 -0.03229971 0.07942054 0.004274941 0.07928367 -0.02283056 0.04811557 -0.028856523 0.11051097 0.010050531 -0.08025664 -0.08189949 0.0034844496 -0.10877855 -0.007488491 -0.029240118 -0.07599886 -0.06085478 -0.03240903 -0.056593705 0.013572331 -0.061844036 -0.040746413 0.0018795601 -0.12904419 0.07829396 -0.026700256 -0.0015257257 0.027069937 -0.07254034 -0.05492937 0.048660528 -0.039400812 -0.043113526 0.025911981 -0.032780927 -0.06348455 -0.02764404 0.08685571 0.11956294 -0.021842068 -0.07204917 -0.079205185 0.020905161 -0.108507976 -0.10989749 -0.031498894 0.109393686 0.04205267 -0.06888761 0.023564808 -0.013941388 0.059536386 0.081829466 -0.09291538 -0.0318926 0.038717218 -0.15924929 0.045780137 0.09272626 -0.10962322 -0.11388148 -0.055628244 -0.005630565 -0.06151546 -0.0063079474 -0.19633053 -0.028246338 -0.06498048 -0.003155636 -0.01017709 0.1522894 0.08662558 -0.026964799 -0.005125213 -0.029896302 0.03695587 0.031997558 -0.043528717 -0.020427657 0.022911845 0.03731307 0.07784949 0.022887446 -0.10868814 -0.11636769 -0.09955967 0.0077883704 -0.01713428 -0.021629144 -0.03246973 -0.08225567
8337:EIGHTY_FOURTH 0.028825242 -0.011072092 -0.018428074 0.04048455 0.069855325 0.048929967 0.075341605 -0.123559 0.005831244 0.18653397 0.014014573 -0.023932626 0.0032074307 -0.07088961 0.00534939 0.10478413 -0.19208552 -0.02056347 -0.121238805 0.14991827 0.055714183 0.13782918 -0.023029711 -0.14841935 -0.12796418 0.07084969 -0.18880466 -0.07070269 0.043203816 -0.09733085 -0.02921563 -0.00011694709 0.064843446 -0.018139224 0.039537698 0.19080617 0.034012437 0.0503908 0.074057005 -0.008593503 -0.061488297 0.07402273 -0.07575798 -0.044667076 0.14119555 0.11587552 -0.0747255 -0.035756346 0.016619472 -0.023607733 -0.018524464 0.10347547 -0.018300239 -0.050596997 -0.0415768 -0.11794343 -0.0039843535 -0.13163146 -0.11027693 0.037389252 -0.03301673 0.068610035 0.043662578 0.08055927 0.01691085 -0.10820183 -0.03398045 0.05524947 -0.08365975 0.0029615567 0.029581847 -0.011824832 -0.08842888 0.012991485 0.07125757 0.07846484 -0.08597336 -0.05877087 -0.012055026 0.06855551 -0.036646258 -0.024457728 -0.063644886 0.11128112 0.023536667 0.08798804 -0.027970763 -0.010436322 -0.022525946 0.036769506 -0.022819722 0.0803729 0.13597232 -0.030133717 0.25612634 0.12239305 -0.10109666 -0.14888132 -0.051350337 0.025139796 -0.10959327 0.08607236 -0.090270154 -0.053994227 -0.076793514 -0.018744906 0.028310403 0.08059157 0.20795818 -0.020210221 0.047175534 -0.15431234 0.039645184 0.046190158 -0.040053695 0.0062046605 -0.08544471 0.04927188 0.06253029 0.024201406 -0.19349644 -0.063296594 -0.098796256 -0.0805669 -0.02566799 -0.072669476 0.0027060802 -0.017047444
