281 129
8621:DRAPER_LAKE 0.032705814 -0.021067068 0.049508475 0.005014231 0.05835669 0.04091938 0.08814355 -0.0283048 -0.053424317 0.03090741 -0.11317686 0.014310219 -0.049075067 0.02153357 -0.07981136 0.053566314 0.039467633 -0.014879835 0.0034979112 -0.093939885 0.0059928442 0.0251725 0.06368248 -0.18523057 0.0076872865 0.033391677 0.07219137 0.033783972 0.005223921 -0.023240069 0.07531988 0.02285479 0.17805606 -0.058271617 0.027073786 -0.06979224 -0.032069363 0.1062554 0.011111949 0.057797033 0.049254548 -0.053256664 -0.07840894 0.041881695 0.04867665 -0.06892974 0.09012738 -0.030214496 -0.13320509 0.1237563 -0.04269766 0.014424957 0.0089284545 0.041417263 -0.049316607 0.07632513 0.052500594 0.065239996 0.06912959 0.03157532 -0.06451619 0.0554505 -0.018339245 -0.025206668 -0.04014701 0.063064605 0.012279585 0.0121234 -0.009381654 -0.06820769 -0.08929824 -0.018104069 -0.14152451 0.06489569 0.118852586 -0.14477962 0.042745866 -0.13190186 0.04356988 -0.17736013 -0.11083137 -0.067148656 0.08705204 -0.114574656 0.06857121 0.019171076 0.022507735 0.012834204 0.009596141 -0.084749326 -0.02596991 -0.0019017984 0.005185449 -0.12906425 -0.06863286 -0.19219536 0.055149358 0.011497907 -0.18478641 -0.027510682 -0.016411688 0.08194119 -0.021186614 0.013286328 -0.07430048 -0.050001003 0.10777885 0.048665978 -0.06069924 0.12201658 -0.13072695 -0.11072046 -0.021353394 0.10931433 0.03300209 0.050712626 -0.049041256 0.04482384 0.078096375 0.08632309 -0.05985586 -0.01861219 0.024943767 -0.06359956 -0.05729152 0.053745024 0.12829995 0.011964022 -0.12900108
8650:GLENDALE 0.10676578 -0.031129695 -0.03166628 -0.015003166 0.027513409 0.06810534 0.050872084 0.024077335 0.040887836 -0.07807808 -0.06757566 -0.095009625 0.1218165 0.0121953 -0.059744682 -0.029767618 -0.06695601 -0.04799655 0.029830309 -0.017550921 -0.040957082 0.0105113005 0.14603655 -0.23298047 0.020981006 -0.021009414 0.11232065 0.014655714 -0.0120686125 0.04017429 0.066486605 0.045917116 0.060078908 -0.010543914 -0.008291633 -0.06586284 -0.037374567 0.1576187 -0.030020501 0.072106756 0.028496293 -0.056386236 -0.007472644 -0.01634302 -0.03799876 -0.050686553 0.034869216 0.042527083 0.01707392 0.12548646 -0.0113387415 0.054334 0.047656793 0.05486509 -0.04455444 0.030104171 -0.10079441 0.01583239 0.08538277 -0.053940006 0.013618741 -0.02649787 -0.04933349 -1.3742996e-05 -0.044197366 0.02957284 0.019430477 -0.034446307 -0.024080275 -0.014012321 -0.09869102 -0.07079901 -0.10572227 -0.03890241 0.09316546 -0.17560168 0.037938535 -0.0468532 0.07307954 -0.12711746 -0.035145212 -0.08301166 0.0703359 -0.038415823 0.1054312 0.061871707 -0.021255063 0.044219933 0.073399164 -0.10446405 0.07900752 0.054796025 -0.050093535 -0.14533 -0.06312441 -0.079419844 0.083263956 -0.03856615 -0.08260483 -0.004024988 -0.025605263 0.011738288 0.014686295 -0.019842047 0.04312133 -0.0084487805 0.021631481 0.00027439458 -0.10021753 0.057712395 -0.08438445 -0.13424976 -0.029360732 0.14690244 0.008377955 0.003365132 -0.098672286 0.073781855 0.16000673 0.09275033 -0.05804155 0.01610985 0.02766248 -0.13955812 -0.027042683 0.030563563 0.048210725 -0.014767075 -0.1740012
8221:MERIDIAN 0.055996727 0.04023946 0.07293199 -0.014394707 0.09613696 0.05326172 0.092562005 0.025984315 0.032750197 0.003194675 -0.08092523 -0.06197933 0.13624802 0.057868004 -0.07179467 0.04253863 -0.010179301 -0.063769884 0.03578529 -0.032484274 -0.0072936197 0.028590843 0.046454187 -0.23405917 -0.024483297 -0.045002252 0.075282045 -0.060451806 -0.003990653 0.0043207523 0.19551997 0.070190296 0.13821612 -0.012179918 -0.05999838 -0.04037574 -0.030664692 0.08595627 0.0037733957 0.044701163 0.042589962 -0.08926882 0.0009809341 0.012436736 -0.11114543 -0.112674706 0.05914592 -0.01014514 0.014594845 0.0133984955 -0.08286657 0.027341139 0.0553691 0.028027976 -0.02349313 -0.03362364 0.048458796 0.02109899 0.0745615 -0.07772966 -0.08103634 -0.050135717 0.017799214 -0.085950784 -0.015156081 0.0465864 -0.007822885 -0.028468877 0.018041937 0.038514167 -0.015888458 -0.0710569 -0.030646594 0.009714687 0.09710071 -0.16995811 -0.048523307 -0.117192164 0.09981316 -0.1358528 -0.057927325 -0.09891697 0.06631663 -0.100546494 0.03927469 -0.037779536 -0.06942086 0.0152178 0.0035142212 -0.10091329 0.0756786 -0.001517214 1.8702325e-05 -0.06688469 -0.04378774 -0.016527964 -0.0193194 -0.0035927081 -0.13163058 -0.0060120733 -0.017461414 0.120328255 0.08500602 -0.008938992 0.023933752 -0.05500167 0.06988727 0.039357796 -0.07604119 0.06317871 -0.007776077 -0.077819176 -0.06473311 0.09192814 0.018284345 -0.013765295 -0.17489345 0.05193839 0.055918984 -0.021791153 -0.032322 0.013518985 0.023583997 -0.092127375 0.0050359997 0.015160702 0.03211544 0.0420087 -0.18369175
8522:MIDWAY 0.14826377 -0.05546806 -0.008600577 -0.008343171 0.03985881 0.07639054 0.08516414 0.07217316 0.01572168 -0.048950832 0.001295314 -0.0688687 0.07477448 0.079021804 -0.11758342 -0.031073406 -0.023159191 -0.05769008 0.07305464 -0.06652526 0.0013191395 0.025396718 0.099663764 -0.22490223 -0.031201493 0.013275716 0.03830423 -0.05540206 0.002434571 0.043613225 0.11732966 -0.051008917 0.17498119 0.027274987 -0.04409644 -0.05212277 -0.07046058 0.0844913 0.014465374 0.0061629405 0.10759088 -0.055886105 -0.02021729 -0.05215269 -0.1084367 -0.06310046 0.051191825 0.08292871 -0.049925253 0.048068814 0.0073379744 -0.05503892 0.086700976 0.05116696 -0.023186075 -0.037690014 -0.063213594 -0.008160959 0.06258941 -0.0136203375 -0.069945686 0.016112333 -0.08697038 -0.11448988 -0.012580495 -0.08189462 -0.04850781 -0.10409595 0.08182406 -0.07086263 0.00043386084 -0.08402106 -0.076623715 0.054787714 0.07013247 -0.20301032 0.03950604 -0.10941558 0.073171526 -0.06418897 -0.04737537 -0.012755236 0.10075743 -0.021333916 0.10907107 -0.046084266 0.022489024 0.072433084 0.08279166 -0.12694985 0.11604142 0.028034804 0.018776016 -0.08736637 -0.14590617 -0.06327487 0.057469156 0.04944041 -0.10889304 0.04275108 -0.055648226 0.05683996 0.010721116 -0.0047292896 0.044932406 0.010408774 0.017726416 0.042919245 0.026238365 0.019596403 -0.05319325 -0.15502691 0.01063184 0.06422376 0.018354857 0.025847709 -0.046668533 0.04056164 0.08045992 0.01767788 0.0060234843 0.009633098 0.056005653 -0.123407684 0.0128786415 0.094560735 0.04450474 0.0018472128 -0.03985475
8245:COUNCIL 0.057042506 -0.022205222 -0.020025268 -0.065279454 0.050085094 -0.060677193 0.13341445 0.0029506152 -0.034745872 0.0007918489 -0.13202599 -0.021941762 0.13590185 0.05806593 -0.03171973 -0.046190426 0.0780769 -0.06834341 0.052919317 -0.035751473 0.040202897 0.057259087 0.10458009 -0.18635474 0.012565902 -0.020521635 0.07249925 0.061704244 -0.007728622 0.007159252 0.18157062 -0.014535927 0.123521484 -0.008391432 -0.08262531 0.05615163 -0.023233984 0.18056828 0.056025673 0.04971054 0.055906888 0.05610419 -0.049673505 0.0025256006 0.045951266 -0.11148761 0.06701098 0.0799258 -0.03616291 0.07971121 -0.03581704 0.0014465345 0.030555535 0.05405165 0.0019198048 0.024021376 0.0067143654 -0.015293365 0.13468239 -0.051676013 -0.07816389 -0.023820864 -0.031060107 -0.07594649 0.008580419 0.06472363 -0.024877802 -0.044582687 0.09081632 -0.02901628 -0.06684944 -0.027844967 -0.117635414 -0.018362585 0.047619015 -0.17710592 0.05571502 -0.09678902 0.113866925 -0.11330278 -0.044096015 -0.042410977 0.09370686 -0.060577903 0.07115644 -0.009691888 -0.015775273 0.020741915 -0.02168249 -0.06899226 0.01475138 0.06803985 -0.06326253 -0.041640498 -0.07873826 -0.0657287 0.114200436 0.015052652 -0.119721495 -0.017478364 -0.03756887 0.024258971 0.033990584 0.050738852 -0.00823649 -0.010581626 0.037805222 -0.02372185 -0.045118913 0.06654996 -0.07892319 -0.1523059 -0.016453726 0.0014252064 0.042887826 0.03967227 -0.047855098 -0.024191039 0.094314024 0.0077493666 -0.057291407 -0.017161688 0.06615319 -0.10815457 -0.05293839 0.08172863 0.043479525 0.063654006 -0.0869505
9125:CARNALL 0.083252236 -0.0050854753 0.038022652 -0.030058526 0.13166495 -0.00500546 0.06308686 0.039510794 -0.10316967 -0.07466752 -0.0096538365 -0.031559985 0.10881066 0.075384304 -0.02182996 0.045103732 -0.0070254933 -0.0026813985 0.064511664 -0.024223499 0.045415964 -0.03739825 0.09236692 -0.22036037 0.0030561036 0.044472937 0.037896056 0.015709905 0.0159726 0.013506601 0.18729095 -0.0024321696 0.00843496 0.0026794234 0.006914459 0.019310085 -0.015119748 0.12697165 -0.0050990954 0.0625482 0.09909764 -0.047214355 0.003203793 0.035798386 -0.1406821 -0.10029328 0.046973143 0.09127853 0.011996386 0.08529905 -0.01209483 -0.007699107 0.069055684 -0.014044839 0.026243256 0.120983295 0.023849068 0.027735304 0.03095151 -0.057085358 0.038819686 0.01912666 -0.11831486 -0.021624291 0.008286454 0.101595566 -0.024407726 -0.023103748 0.0058309427 0.012356414 -0.14771013 -0.059009995 -0.18758348 0.10922554 0.1151169 -0.16320308 0.01720747 -0.09565485 0.08775511 -0.15779477 -0.031016732 -0.111814134 0.1578413 -0.07866259 0.051302537 0.03130767 -0.037002727 -0.0015024558 0.0008667649 -0.124200635 0.06728698 0.047405258 -0.029668994 -0.06525897 -0.103442 -0.015885435 0.10990932 -0.050530013 -0.10077179 -0.10053889 -0.022675002 0.026730333 0.06243494 0.023117188 0.057113335 0.0038296753 0.030292554 0.037841056 -0.047365252 0.013562841 -0.0886147 -0.097861 -0.033226687 0.080560915 0.069659285 0.010912544 -0.08325311 -0.074523695 0.04927663 0.021396102 0.030085701 -0.017474292 0.067343496 -0.10789627 -0.065923795 0.00028932394 0.0764325 0.09894772 -0.09276484
8519:NE_10TH_ST 0.1172604 -0.03712682 -0.022796225 -0.07037711 -0.055521056 0.04737309 0.062061165 -0.018622082 -0.096075945 -0.0005992984 -0.06964897 -0.0025709756 0.09098573 0.060165968 -0.06982254 -0.027818771 0.003159597 0.052501928 0.048086725 -0.11528265 0.008462293 0.0939648 0.092261665 -0.18013903 -0.03523546 0.0055314456 0.022181356 -0.0020685787 0.05108233 0.028449982 0.103247546 -0.06447627 0.15789296 -0.014040314 -0.004462428 0.0009075402 -0.021786856 0.121170714 -0.0006323688 0.010527242 0.1255188 -0.026600497 -0.067832716 0.017855413 0.025570976 0.0037468963 0.047667645 0.047388446 -0.053264618 0.02212106 -0.06372495 -0.08437414 -0.010720268 0.0737148 -0.018948587 0.017732158 -0.040283237 0.050693963 0.049268488 -0.002096062 0.026845666 0.066759855 -0.018887976 0.057256106 0.012856225 0.017387519 -0.014496129 -0.054342832 0.05780216 -0.15915 -0.11120908 -0.10401504 -0.07325023 0.04974695 0.22398025 -0.17401437 -0.013109146 -0.1384956 0.08412787 -0.13010225 -0.107757434 -0.082823455 0.10208379 -0.02543189 0.1700951 0.01076568 0.002766408 0.071078606 0.010670793 -0.1311155 0.09008352 0.074908435 -0.0054850145 -0.075135395 -0.079478525 -0.14511184 0.02099033 0.048726916 -0.12528574 -0.05476497 -0.03011441 0.06745992 -0.013467992 0.02356589 0.04562008 -0.1270615 0.053938948 0.03706589 -0.028490053 0.0834927 -0.019383807 -0.052511748 -0.10403524 0.08426766 0.04449292 -0.014589769 -0.09620887 0.04104428 0.010782701 0.092362866 0.017479606 0.028680246 0.048187554 -0.18055682 -0.015865644 0.031507604 0.065994695 0.01821602 -0.096614115
8361:WESTERN_AVE 0.16067986 0.052126594 0.03909986 -0.021004269 0.07937114 0.06629727 0.110098235 -0.07077131 -0.044985026 -0.0020091021 -0.05037942 -0.03432267 0.03108381 0.014976145 -0.053269885 -0.010279602 0.03244735 0.025962962 0.099298865 -0.045678653 0.00884947 0.03595638 0.060453027 -0.18564008 -0.04527202 0.051865205 0.06534154 -0.10075407 -0.030335242 -0.06843449 0.06350982 0.06570428 0.054270923 -0.029154746 0.08420567 -0.026463658 -0.080900505 0.074963644 0.08183304 0.015707029 0.08342813 0.024464523 -0.01609659 0.08198291 -0.05358898 -0.060724035 0.012196611 0.0058663073 0.10066776 0.09916548 -0.122904204 0.029175188 0.07217114 0.0336439 0.06654234 -0.02772072 0.014085865 0.07685431 0.00872723 0.045966476 -0.07806792 0.058164235 -0.009883593 -0.026912095 -0.07888191 0.07312796 -0.027560847 -0.091423616 0.12267161 0.01227271 -0.15789618 -0.03757848 -0.03856368 0.12708347 0.018041102 -0.19684379 0.01582813 -0.14008556 0.20695812 -0.1514583 -0.021670043 -0.10315781 0.061078083 -0.14123192 0.093619354 0.026353622 -0.06642392 -0.0077182553 -0.04714553 -0.17450888 -0.054194998 -0.0006003173 -0.09060632 -0.10684329 -0.04662188 -0.07212605 -0.030841632 -0.06422382 -0.118421294 -0.0077772825 -0.0206155 0.017877445 0.04393185 0.066462316 0.04073134 0.011391733 0.1024135 -0.041835114 -0.02097906 0.05429079 -0.06445267 -0.061480504 -0.018484468 0.06249556 0.025979506 0.052178532 -0.10903315 0.011423654 0.071516596 -0.016841652 0.03136451 0.009066748 0.057914965 -0.10319546 -0.09313158 0.143124 0.05983011 -0.029060276 -0.10665398
8170:SANTA_FE_AVE 0.06103289 -0.04971498 -0.06737483 0.05567513 -0.011346836 0.06502422 0.047077537 -0.05225668 -0.025262246 0.0793797 -0.13233714 -0.08669461 0.119573995 -0.011309528 -0.10974297 -0.07155166 0.006294631 0.01373612 0.07052874 -0.07320643 0.05589322 -0.09300739 0.08629142 -0.063763745 -0.022862315 0.060432523 0.076470785 0.038235374 0.04442357 0.007914737 0.07598798 -0.008518521 0.06736767 -0.0056225224 0.024805296 -0.020734562 -0.028537478 0.16407228 -0.044164445 -0.0043570874 0.1392133 -0.09553775 -0.037163407 0.009725825 -0.11375766 -0.080568984 0.0710497 0.06362914 -0.10578528 0.04866918 -0.10286284 0.09567689 0.07228653 0.057747014 -0.016535435 0.026487632 0.08877991 0.112919025 0.084843524 -0.038203824 -0.020644842 -0.009497763 -0.067753725 -0.050033957 0.00968813 0.0055981623 -0.06302498 -0.10835532 0.07979257 -0.05611234 -0.0941427 0.00093547144 -0.12349598 0.017894303 0.0957678 -0.22437409 0.044543345 -0.12670606 0.09827397 -0.14378054 -0.02230011 -0.10448668 0.11395805 -0.13098308 0.089851536 -0.010446301 -0.0041817073 -0.004498694 -0.005920064 -0.15164497 0.021865396 -0.046242375 -0.07023227 -0.08846546 -0.08452249 -0.022649035 -0.060754497 -0.06335073 -0.08237004 0.028118955 -0.00441464 0.08661164 0.11839762 0.0021983993 0.066003606 -0.059741117 0.005510732 -0.0369141 -0.07239717 -0.01643312 -0.043867797 -0.055718247 -0.04659214 0.08538442 -0.036215104 0.036563277 -0.10832315 -0.022724435 0.029109418 -0.042835128 -0.027719771 0.068422526 0.04052156 -0.09708825 -0.059670106 0.0019886969 0.042166896 0.0014666491 -0.16866046
9330:SIMMONS 0.10129855 -0.07808085 -0.0082868105 -0.012807391 0.06300424 -0.021589672 0.16465808 -0.1046222 -0.03517553 -0.015087769 -0.03262127 0.022953967 0.038520504 0.031155093 -0.06505543 -0.0200273 -0.08702869 -0.12642422 0.1516162 -0.05893713 -0.009601649 0.16533071 0.06588252 -0.14637724 -0.08526838 -0.0036357776 0.12795657 -0.082322076 0.020226173 0.08339168 0.08920791 0.10355686 0.045551274 0.009067255 -0.053361814 0.034365248 -0.061533436 0.08503288 0.01881995 0.003923222 0.05471826 -0.07425631 -0.064685486 0.007257997 -0.089697376 -0.061960705 -0.027117139 0.1224918 -0.03983584 0.112120494 -0.035256494 0.09451451 0.025953023 0.025394235 0.013485015 0.0076500555 -0.06476958 0.07052249 0.024523776 -0.039597645 0.020013766 -0.073838055 -0.092569314 -0.10579094 0.069958754 0.049773686 -0.18484992 -0.16378419 -0.009891868 0.040732726 -0.13233654 -0.02547349 -0.16965051 -0.03545403 0.1699245 -0.08570293 -0.026100092 -0.18407354 0.1645402 -0.05378719 0.023242237 -0.14212622 0.016157921 -0.13139345 -0.006709376 0.0063673174 -0.03189967 0.07005724 -0.013706 -0.14855699 0.064397365 0.05583595 -0.016465511 -0.10176473 0.007502041 -0.08970786 0.113470316 -0.081576325 -0.09567641 -0.06584709 -0.033219807 0.06644415 -0.011262151 -0.038364172 -0.012132906 -0.02056059 0.068647504 0.069045275 -0.03328389 0.056872126 -0.13480015 -0.13931271 0.059546225 0.1730621 -0.017854296 0.032926463 -0.020757183 0.06159492 0.10541317 0.06952032 -0.06761254 0.023972714 -0.017096445 0.0038249646 -0.06700963 0.13076982 -0.011423104 0.11398661 -0.09346829
4606:CEDAR_AVE 0.1452159 0.020668512 0.065650016 0.033883978 0.094047785 0.054368634 0.12944072 -0.07417366 -0.023867501 -0.07199732 -0.11336502 -0.029478883 0.13423973 0.116682835 -0.09856207 -0.111352704 -0.09870925 -0.13627541 0.12707107 -0.03441266 0.06400672 0.033416092 0.047118723 -0.1189173 -0.06444951 -0.06595772 0.0009493703 -0.07258302 -0.00037114782 -6.0627364e-05 0.14499232 0.046878286 0.06282025 0.007890446 0.0006977129 0.038391426 0.021048332 0.081869565 0.041880295 -0.017080233 0.083712645 -0.08995714 -0.007999003 0.01474404 -0.078535 -0.058526535 0.073026806 0.07548615 -0.06749514 0.060787547 -0.07232173 0.015165279 -0.011335469 0.029692763 0.06300158 0.0033954158 0.006407081 -0.0028763306 0.030517349 -0.100250445 0.060733393 -0.077711165 -0.0022841387 -0.0642844 -0.058979016 0.050127238 -0.03659466 -0.10507018 -0.021802118 -0.04102833 -0.12109341 -0.056689966 -0.01499966 0.1221651 0.09509514 -0.08791993 -0.036817197 -0.073561944 0.10689093 -0.089162566 -0.033241276 -0.10613398 0.040588897 -0.08692013 0.08202431 0.013214334 -0.06036362 0.14665532 0.023636933 -0.08727438 0.06582411 -0.022943497 -0.025783814 -0.17312351 0.012577869 -0.195877 0.049585372 -0.026382025 -0.22253095 -0.12506609 0.004217965 0.096070416 0.10876731 -0.027496941 0.039198995 0.047003236 0.0049829544 -0.058050107 -0.029848538 0.10253873 -0.005851426 -0.0030121373 -0.06734179 0.08596184 -0.020078287 0.004297939 -0.01247007 0.039621465 0.026102433 -0.0073998934 0.04321861 -0.03891426 -0.016225232 -0.058908116 -0.12594807 0.048612382 0.08657328 0.09435453 -0.12317066
8151:PENNSYLVANIA 0.06573208 -0.028813474 -0.017335054 0.026608853 0.14011766 0.033294577 0.10106336 -0.06301996 0.01692111 -0.0031683852 -0.08899541 -0.034268785 0.049580142 0.029268695 -0.1499892 -0.0472433 0.06285274 -0.08501362 -0.0072980085 -0.014775117 0.04723621 0.080152154 0.09401942 -0.112535626 -0.009443966 -0.027926609 0.05050574 -0.061714098 0.032469906 0.037555087 0.18799235 -0.015743412 0.10535229 -0.011068612 0.03979244 -0.0070702094 -0.044087417 0.10321971 0.0046412153 0.054141156 0.1080725 -0.094086856 -0.058980107 -0.019895341 -0.048410226 -0.039845295 0.04306693 0.050129987 -0.016322123 0.07971512 -0.013334294 -0.038111657 0.044594385 0.05921032 0.016638685 -0.02609408 -0.039737746 -0.019220823 0.04927663 -0.08336311 0.0118783545 0.048381347 -0.03826933 0.010359995 -0.016727874 0.022722693 -0.05155241 -0.072484806 0.022304941 0.015597692 -0.09099389 -0.06069123 -0.1392227 0.020435393 0.1267765 -0.19949695 0.018077862 -0.11510668 0.031622406 -0.04136746 -0.09356547 -0.11052926 0.10336128 -0.043647576 0.078126155 0.05022219 0.041802347 0.015892668 -0.013237206 -0.09313248 0.0140146 0.0030122967 -0.019041318 -0.076161735 -0.117174566 -0.035366606 0.06955559 0.051119104 -0.11443145 -0.054187108 -0.01762791 0.14644353 0.061749373 0.027854333 0.026142003 -0.045489237 -0.0003448408 0.0017309587 -0.08716157 0.0147822555 -0.10307695 -0.08567641 0.013254748 0.07903726 -0.013832033 0.06742067 -0.18284456 -0.0023943882 0.06877629 -0.008638133 0.019313674 0.00028281574 0.0035217511 -0.08562539 -0.010017243 -0.016831148 0.058667243 0.0649304 -0.09438748
8308:LONE_OAK 0.13199589 -0.0064931316 -0.03457085 -0.0555854 0.11015645 0.061051466 0.081114985 -0.023651397 0.019077217 -0.029570716 -0.08890522 0.026779829 0.09169585 0.050600898 -0.09729092 -0.053886484 -0.01242733 0.072308995 0.06908902 -0.060803957 -0.0037079484 0.03643979 0.10193382 -0.12722372 -0.0729588 0.0073213447 0.062039178 -0.017799664 0.053485114 -0.033092797 0.14729647 0.021049287 0.08298832 -0.044995464 -0.006583316 0.009305404 -0.0871713 0.106701985 0.029910756 -0.027190814 0.10036165 -0.05383359 0.018481122 -0.039532214 -0.10175453 -0.07487212 0.010617051 -0.057497576 -0.036242805 0.03813153 -0.054853946 0.049139157 0.07259535 0.03575988 -0.020973925 -0.05343326 0.040762268 0.03396118 0.10747026 -0.016574042 -0.078934275 -0.023431296 0.018262913 -0.11045071 -0.12552108 0.05145603 -0.047644883 -0.069569126 0.05560052 0.06651367 -0.14022149 0.0019922478 -0.0903801 0.03793325 0.11278143 -0.09314995 0.077695735 -0.040683128 0.143646 -0.1184416 -0.07406098 -0.03499948 0.09007239 -0.054282766 0.13179418 0.08895729 0.008433744 0.026434602 -0.01382782 -0.06313017 0.086608306 0.011109179 -0.03568656 -0.103372596 -0.05292049 -0.020591682 0.02723877 -0.03065735 -0.11127286 0.008316198 -0.0077027176 0.09113802 0.10669275 0.02925688 0.033489667 -0.0023376753 0.0049877684 -0.019141827 -0.06532582 0.07411744 -0.03370286 -0.12736648 -0.045656487 0.03228766 0.0356112 0.023162529 -0.07620497 0.028395725 0.15351205 0.019072881 0.042024773 -0.004731681 0.031973615 -0.10847756 -0.021214636 0.048872225 0.031632744 0.014046301 -0.13427159
5410:GLASSES 0.12128781 -0.05058544 0.024339493 0.048043914 0.101606764 0.08813744 0.13125522 0.057968013 -0.01934505 -0.027822575 -0.09294147 -0.06434188 -0.047240734 0.058806907 -0.15088858 -0.06574803 -0.04912995 -0.1022551 0.15900953 -0.02851381 0.06099752 0.06716227 0.032717414 -0.19254012 -0.025330333 0.028048655 0.026263688 -0.057473168 0.02909741 0.104524955 0.08639183 0.0123597635 -0.016067453 0.06808799 0.0039097317 -0.024876649 -0.07255177 0.07158294 -0.003969238 -0.012134064 0.082732216 -0.07329085 -0.0058567915 0.0027276825 -0.0631179 -0.090005785 0.0074834917 0.03806938 -0.054897845 0.039908577 0.00082557864 0.014297032 -0.010778184 0.047123533 -0.010396624 0.032857127 -0.04203047 -0.0013679466 0.11654848 -0.009415353 -0.10119663 0.02344264 -0.05174339 -0.16767615 0.04268584 -0.009991737 -0.023587478 -0.13065289 0.02465143 -0.100734934 -0.13099508 -0.048356608 -0.060864486 0.015961304 0.061767865 -0.13594407 0.00017364026 -0.19514102 0.07902058 -0.08032457 -0.028708043 -0.07979534 0.14717826 -0.05092459 0.011849687 -0.07808928 -0.027602747 0.042166635 -0.017205734 -0.1265165 0.122485474 -0.063110344 0.016048409 -0.075521916 -0.0008950452 -0.064994164 0.03150949 0.0019202748 -0.16706654 -0.0518014 -0.019404206 0.11698115 0.08288258 0.027736295 -0.15022248 -0.012184892 0.045111146 0.100335576 -0.044115797 0.045726232 -0.055147175 -0.118498735 0.03690169 0.105867095 0.00856931 0.053698495 -0.052327238 -0.07263855 0.046878625 0.015602682 -0.022050709 0.033472795 -0.036664814 -0.045148715 -0.019560013 0.060583733 0.0020816608 0.071979016 -0.11262027
3114:TENNYSON 0.13987422 0.03225705 -0.016001105 -0.035682246 0.14553246 0.13867648 0.053403452 -0.07095121 -0.06330554 0.060419064 -0.07268786 -0.03949819 0.09559468 0.07633411 -0.19488059 -0.019847836 -0.013805204 -0.06684422 0.08106274 -0.062560625 -0.008933886 -0.008455061 0.031781048 -0.17388512 -0.03032744 0.042096805 0.05019026 0.07196455 0.10404217 0.0003657715 0.0967545 0.020447224 0.07536544 0.0053162742 -0.056777295 0.07996828 -0.045901027 0.1253926 0.01913487 0.009422158 0.07265688 -0.08365551 -0.085098505 -0.08801857 -0.091691665 -0.09974102 0.09277577 0.12013834 -0.059858628 0.06447942 -0.041872345 0.014315505 0.06684818 0.00788083 0.07204831 -0.06613422 -0.0075159725 0.018384501 -0.009145797 -0.07230343 -0.022025296 -0.00908062 -0.07250408 -0.019149046 0.049131464 -0.001104134 0.0049145347 -0.05023049 0.097093485 0.040313676 -0.1100736 -0.05748829 -0.028080674 -0.027021537 0.06348389 -0.1405003 0.008809886 -0.083220385 0.080445975 -0.048879188 -0.059638076 -0.107971005 0.09776128 -0.10786227 0.15552543 0.011618061 -0.01325444 -0.008942584 0.03901306 -0.06710303 0.075291954 -0.019431153 -0.0096167 -0.12028666 -0.07890906 -0.046582974 0.058183163 0.07785345 -0.067902446 -0.023513803 0.055594135 0.020087563 0.056611385 0.067856394 0.030374581 0.017126584 0.048614673 0.040739063 -0.15647241 0.07788713 -0.08408719 -0.121413454 0.026018295 -0.02838719 0.04165602 0.03574731 -0.06524343 0.017657863 0.047254942 0.04090862 -0.058821928 0.07385066 0.0837256 -0.10141608 -0.07163913 0.0073665655 0.050574057 0.04844864 -0.11403677
8312:BELLE_ISLE_STA 0.106214605 -0.08082447 -0.05365158 0.020382714 1.0544674e-05 0.0194452 0.112373084 -0.0154400505 -0.03383253 -0.0038605365 -0.081921205 -0.07814567 0.024137532 0.073030144 -0.10982321 -0.060659148 -0.033566754 -0.05930566 0.09281433 -0.10204572 0.06577651 -0.010242713 0.08131599 -0.19042039 -0.021090029 0.024155457 0.13458742 -0.019181827 0.08344848 0.09796559 0.10322832 0.056352127 0.1348835 0.02204829 0.047159553 -0.09742936 -0.10006126 0.05368847 -0.0101477355 -0.03243276 0.043785624 -0.06582253 0.004575381 0.028342834 -0.07488022 -0.019427031 0.06014095 0.086861916 -0.018786391 0.026195694 -0.052498046 -0.002855581 0.078007445 0.052189853 0.01602672 -0.059493333 0.012783681 0.09322958 0.038468495 -0.02846067 -0.04617498 0.06301356 0.022764025 -0.037231706 0.011944184 0.0558346 0.018075867 -0.052545186 0.08247537 0.08159591 -0.13740696 -0.04417438 -0.041198 0.03939876 0.08728579 -0.18363285 -0.011428892 -0.08636285 0.0941805 -0.07564797 -0.018970866 -0.16600727 0.122811675 -0.088736355 -0.014602849 0.035019338 0.04642069 -0.016871523 0.041098773 -0.20543787 -0.076702006 0.016900202 -0.07456875 -0.026014144 -0.15103766 -0.042118218 0.045693915 0.020038262 -0.106305435 -0.014597225 0.01118522 0.022447532 0.0876884 -0.005008247 -0.05486648 -0.05060824 0.08318298 0.008411378 -0.1101625 0.11178303 -0.109209724 -0.08711955 0.00065343117 0.0051580174 0.0013344197 0.06427059 -0.061324105 -0.015103787 0.067623034 0.09952857 -0.018609943 0.046772394 0.003726171 -0.10872894 -0.06834448 0.07704744 -0.022998257 0.050534677 -0.11445204
8336:TENNESSEE 0.05147425 -0.02209532 -0.06152331 0.020750854 0.05502495 -0.010144148 0.05391728 0.031418886 0.014320359 -0.083068326 -0.075994864 -0.045007315 -0.001865766 0.011149639 -0.15437166 0.04837474 0.013901295 0.013408764 0.011184162 -0.041684084 -0.0021758198 -0.0028319051 0.08427299 -0.18709579 -0.024628725 -0.033309266 0.04549219 -0.070853814 0.0061445516 -0.011767391 0.17890227 -0.025678435 0.12485838 -0.08350513 -0.052082367 -0.010839411 -0.011236335 0.1273925 -0.015215645 -0.012700393 0.055610906 0.010471353 -0.004455304 -0.015970783 -0.026848525 0.0034603537 0.05087732 0.090469025 -0.022698978 0.049102996 -0.045868017 0.0327963 -0.026310597 0.048250284 -0.019202163 -0.023532853 -1.3202128e-05 -0.008697225 0.13107158 -0.050666556 -0.02577375 0.07240846 0.033090413 0.07771666 0.0059374785 -0.03698245 -0.08335226 -0.050970383 0.03651863 -0.01980434 -0.1322609 -0.07591584 -0.071043186 0.07706023 0.11943687 -0.19251631 0.076019034 -0.115415506 0.093199395 -0.076289065 -0.12221637 0.033900507 0.041857723 -0.11091407 0.13585438 -0.04733274 0.007609729 0.009727654 -0.05752755 -0.15072589 0.09007794 -0.047417462 -0.05643226 -0.03674497 -0.11012765 -0.043787822 0.0039373673 -0.03825353 -0.13647376 -0.042767223 -0.07521049 0.1107939 -0.0040813894 0.026155047 0.0147726815 -0.06852936 0.07245654 -0.008193352 -0.05677758 0.09954725 -0.028398326 -0.16868137 -0.09717966 0.05805086 0.086673014 0.033251166 -0.09690593 -0.05017156 0.012219757 0.002418542 -0.013329847 0.020285644 0.029854374 -0.099380165 -0.03742739 0.043929633 0.03782123 0.12639467 -0.1331025
8337:EIGHTY_FOURTH 0.111540675 0.025697334 -0.042094026 0.016185947 0.05990369 0.08054972 0.07704573 -0.06451253 -0.034575246 -0.037960995 -0.07272699 -0.07350818 0.029060723 0.03946384 -0.09103289 0.048511468 0.012243634 -0.062730014 -0.04205808 -0.004732192 0.009918996 0.01948675 0.0057723676 -0.15203512 -0.033418804 0.05375188 0.057065975 -0.06605134 0.019562457 -0.02228364 0.12653585 0.018723093 0.12348643 -0.0653037 -0.045866802 0.015532096 -0.03764926 0.16773157 0.06587621 0.017432118 0.106692135 -0.11556016 0.0167777 -0.028859101 0.008956011 -0.016857315 0.042931724 0.036430188 -0.023183407 0.13015108 -0.120773114 -0.0008689392 0.07244548 0.0874106 0.057365153 -0.06815759 0.014792901 0.007237562 0.088632286 -0.042520333 -0.05138553 0.06685894 -0.04774442 -0.02706601 0.038198106 0.018390523 -0.08728524 -0.10733896 0.035829786 -0.106451176 -0.097195074 0.012474059 -0.080708034 0.08499787 0.09463029 -0.08105988 0.12049431 -0.1355703 0.101021394 -0.07775516 -0.12620753 -0.04976496 0.047030438 -0.10372143 0.050059166 -0.05822145 -0.013964516 0.039538518 0.06504201 -0.12536761 0.022708021 -0.008507043 0.00451862 -0.029326577 -0.12268775 -0.03246437 0.03062365 0.053870533 -0.09340431 -0.0305733 -0.031078503 0.12554663 0.033275623 0.0839221 -0.0106173195 0.02372705 0.056531746 0.036206264 -0.11047506 0.03614383 -0.0024065007 -0.12035791 -0.031963486 0.110677354 0.03985033 0.0933126 -0.100478426 -0.02600602 0.009565178 0.032819513 0.058149327 -0.027410904 0.030552423 -0.1307708 -0.06544768 0.10465383 -0.010447335 0.107925296 -0.06520883
8542:RENO 0.059071194 -0.07566896 -0.06811293 0.039692152 0.14415304 0.017940663 0.10463119 -0.10685185 -0.08806382 -0.00032813128 -0.07770432 -0.11743254 0.062626004 0.066847734 -0.08796385 -0.038996566 0.06797014 0.013343648 0.10811808 -0.050897583 0.038048405 -0.015380231 0.15187988 -0.18668215 0.06916518 0.021707745 0.03693502 0.049419954 0.08512904 -0.008947225 0.17241977 0.027453564 0.1136362 0.014974743 0.014685719 -0.0039234813 -0.022993056 0.036283463 -0.0059463093 0.04829222 0.08118104 -0.14750125 -0.060768776 -0.07248362 -0.0023146044 -0.088257216 0.0314966 -0.026022358 0.0245913 0.03643841 -0.023323637 0.0520772 0.06973837 0.03489439 0.029667666 -0.008138428 -0.010441297 -6.19066e-05 0.06599347 0.09297587 -0.122868195 0.008055415 0.030817514 0.03354385 -0.027645735 0.011920171 -0.03322275 -0.053655684 0.019405618 -0.021823524 -0.112506084 -0.03490344 -0.09100378 0.050101884 0.12758844 -0.16298008 0.0087183155 -0.0679661 0.059154756 -0.1403624 -0.07749912 -0.09011615 0.123903655 0.0044678324 0.113598496 0.02683611 -0.012883793 -0.029922629 0.047627468 -0.1051507 0.09945663 0.058583938 -0.05211753 0.0031087673 -0.036724877 0.019032234 -0.028070182 0.023045177 -0.13990052 0.005796482 -0.04451291 0.043099634 -0.014145187 -0.07473671 0.019661626 -0.05889022 0.10914883 0.0037070594 -0.08029028 -0.0064073866 -0.028670209 -0.1250491 0.019475948 0.077049665 0.028491905 0.040584996 -0.20559022 -0.06900841 0.09728342 0.03839507 0.029995594 -0.036165334 -0.080018476 -0.14194222 -0.032789893 0.012212539 0.046394937 0.042234216 -0.086634114
5506:BODLE 0.16399075 -0.03524031 -0.039868638 0.033482805 0.14274772 0.053285018 0.0518896 0.015660692 0.01897 -0.057856835 -0.13430698 -0.059873365 0.05115547 0.07952391 -0.15517871 -0.012574596 0.0065307617 -0.00835573 0.016811024 -0.07649351 0.06196886 0.06184832 0.099745624 -0.2201926 0.014837229 -0.0037295902 0.025626004 -0.045722865 -0.027098926 -0.0043111923 0.14869793 0.039679933 0.095046066 0.049961407 -0.010180819 0.0053519676 -0.06082747 0.0919594 0.012999621 0.0519492 0.116844505 0.008932193 -0.08845503 0.050767176 -0.07436344 -0.08169539 -0.007981288 0.058852132 0.0075636203 0.04100741 0.009460305 0.0031856163 0.041895773 0.07563968 0.11379044 0.017412245 -0.02354235 0.07623514 0.025272433 0.0062274206 -0.031449165 0.021678893 -0.044733435 -0.019821342 -0.10493973 0.0074823317 -0.06556133 -0.0007757784 0.016306346 -0.023341628 -0.12163145 0.039852817 -0.0599225 0.02064954 0.01907763 -0.15274449 -0.028864926 -0.055436656 0.07885739 -0.13378046 -0.068643175 -0.06827343 0.15833767 -0.05267916 0.058703125 0.015238473 -0.023952492 0.022548685 -0.023276987 -0.06366848 0.049788103 0.011147385 -0.055857107 -0.058386274 -0.049459465 -0.06614684 0.07307192 0.01986378 -0.11833909 -0.06861731 -0.020179255 0.050891493 0.027312627 0.017209396 0.014755478 -0.03400676 0.06510716 -0.04613091 -0.11886021 0.023952998 -0.051107492 -0.08481122 -0.022802524 0.083450355 0.033665523 0.102941595 -0.09658445 0.0073368745 0.17433743 0.10016887 -0.10781705 -0.011916225 -0.069096714 -0.14571889 -0.044227 0.021596069 0.022348363 0.025428526 -0.16064502
5111:DRIPPING_SPRINGS 0.13652249 -0.0056515713 0.029248191 0.0554638 -0.007818265 0.053812157 0.07708727 0.0041727815 -0.09323426 0.021362802 -0.12902127 -0.0125585655 0.055027343 0.06486132 -0.1291198 -0.056842323 0.05050847 -0.06682885 0.05725012 -0.0039027547 -0.025932176 -0.013194039 0.09803013 -0.21324717 0.035077147 0.03657521 0.0031268958 0.003238558 0.013003426 -0.055193834 0.10528582 -0.02219334 0.06342568 0.07675088 -0.027660286 0.028566016 -0.12445356 0.05447686 0.07402529 -0.013497746 0.043195203 -0.06439854 -0.10323483 -0.036127705 -0.021373643 -0.06070477 -0.03322861 0.025081215 -0.037980672 0.0023719848 -0.09303541 -0.0139403595 0.12956089 -0.0007876841 -0.028998367 -0.008926324 0.077648714 0.027370425 0.042034514 -0.0344287 -0.052624118 -0.024918668 0.010254528 0.038975537 -0.094959624 0.03720782 -0.036084916 0.037305918 0.06521644 -0.02674894 -0.080224134 -0.09999621 -0.110528186 0.033956867 0.103685826 -0.16636531 0.015676823 -0.14737263 -0.006566426 -0.123186894 -0.11082985 -0.1031912 0.114632346 -0.033656698 0.0933179 0.021349836 0.032341577 0.03348474 0.0017602047 -0.07220099 0.1229327 0.1325052 -0.02241523 -0.11722811 -0.03276909 -0.00081308285 0.07047814 0.0043718754 -0.034601662 -0.12309627 -0.08451803 0.0053525064 0.015489984 0.016004719 -0.012122625 -0.06961734 0.08021367 -0.014727392 -0.05247441 0.08836305 -0.008300064 -0.15739469 -0.0153541155 -0.0048028757 -0.065400384 0.029924402 -0.14304774 -0.058450915 0.1304716 0.080122165 0.023567023 -0.035303194 -0.00081504404 -0.2074539 -0.062262826 0.059719678 0.05392365 0.05672157 -0.10244179
8656:FOSTER 0.1393112 -0.0718355 -0.032688927 0.007615275 -0.015477509 0.06645537 0.04895967 0.0059697554 -0.03803371 -0.04271806 -0.054797422 -0.048974805 0.073826276 0.0121947285 -0.108479574 -0.043659758 0.012878276 -0.05576764 0.012472481 -0.040105924 0.022748724 0.13471201 0.08037631 -0.14740755 0.058587972 0.06101626 -0.018602366 -0.05135348 0.0652865 0.007269854 0.15093367 0.003933052 0.17579961 -0.04559506 0.008115514 0.017339773 -0.012313375 0.09706785 0.027848767 0.012837877 -0.0056027058 -0.061940305 -0.067354545 -0.04861517 -0.0075449804 -0.018191531 0.025834573 -0.030697405 -0.050945386 0.089958906 -0.001939311 -0.005861089 0.051901814 0.043857373 -0.058333304 0.10215391 -0.0037298736 0.04722594 -0.030080676 -0.011899258 -0.029584276 0.015365031 -0.011359041 -0.016497603 0.013868738 0.013409412 -0.06442488 -0.046553 -0.022105863 -0.011152229 -0.07694645 -0.04409414 -0.091495216 0.010769711 0.05937037 -0.1531714 -0.00492878 -0.15363242 0.16323364 -0.093175955 -0.10505171 -0.011249771 0.13613762 -0.1686551 0.079209596 -0.03644207 0.055438146 0.05854468 -0.0055758646 -0.10290592 -0.050131615 0.08586262 0.012970049 -0.09851273 -0.009051835 0.002643798 0.0018319589 -0.020051181 -0.055739626 -0.0382283 -0.036225095 0.089447916 0.046260316 -0.0022026142 0.04257089 -0.03753035 0.057857297 0.082261905 -0.09031568 0.02049314 -0.06561013 -0.13193671 -0.0011358939 0.069622986 0.028231883 0.019605726 -0.043473557 -0.033390317 0.12910828 0.0013399821 -0.03787867 0.014996931 0.00077314826 -0.12715858 -0.06161835 0.036817316 0.107212864 0.13003641 -0.24509901
8822:WATERLOO 0.13426577 0.011232729 -0.019403514 -0.026861552 0.022123264 0.05257862 0.033766694 -0.030266302 0.0137491245 -0.049430855 -0.11752433 -0.12589145 0.07190629 0.007140959 -0.07615592 -0.02907257 0.0077939346 -0.03194261 0.03668418 -0.019492036 0.0075082807 0.03217322 0.12027508 -0.15055785 -0.022725422 0.059159894 0.042893644 0.03425936 0.066113465 0.027351338 0.09074643 0.020197846 0.09330558 -0.035557017 -0.00070646085 -0.021890359 -0.05538617 0.13579938 -0.01819532 -0.016704354 0.0069355774 -0.06007113 -0.0005251007 0.043497737 0.01860581 -0.06688639 0.06298454 0.026433581 0.103189915 0.007951825 -0.063350394 -0.01852116 0.10287714 0.17249703 0.07787852 0.001233292 0.012781193 0.03396046 0.059655588 -0.03607829 -0.06683074 0.004765771 -0.027654026 -0.0522169 -0.109420225 0.0823395 -0.12026892 -0.06898882 -0.011208739 0.027553326 -0.13506638 0.0054699983 -0.05753555 -0.023563217 0.015572068 -0.24545825 -0.006768498 -0.09375475 0.11581531 -0.104394644 0.024107492 -0.119425304 0.12566693 -0.099037595 0.05977357 0.05148048 -0.019852916 0.056974042 0.017698312 -0.049039256 -0.05298525 0.055986065 -0.10161058 -0.056071073 -0.12055073 -0.04505267 0.00010035836 0.021159695 -0.10168605 0.026943915 -0.026722008 0.03717877 0.055915985 0.056941908 0.03887464 -0.120766334 0.03827884 0.010251939 -0.08986302 0.07290438 -0.083778955 -0.13098055 0.058658086 -0.025383333 0.09533853 -0.022802854 -0.03514542 -0.029839745 0.08206421 0.023897909 0.021584937 -0.007152881 0.106239624 -0.18511412 -0.0004961515 0.064600706 0.021959396 0.08988423 -0.1827836
9138:ARKOMA 0.12576438 -0.033675674 0.039711706 -0.007176245 0.019530825 0.033127766 0.20804602 -0.06388122 -0.020209143 -0.050082047 -0.1654747 -0.10265247 0.08796457 0.0824755 -0.15745795 0.022801785 -0.007620021 -0.004409826 0.0087748645 -0.053719345 0.015459926 -0.0044985423 0.05915102 -0.17430338 0.028266553 -0.026301382 0.0618086 -0.0036183707 0.1267552 0.03255203 0.091742255 0.096533656 0.09079472 -0.02232741 0.0063919844 -0.05744152 -0.022259228 0.14692906 -0.017161757 0.058850046 0.069639154 -0.033269685 -0.084807776 -0.040694 -0.036400232 -0.10124703 0.056054693 -0.03508555 -0.06156998 0.063621335 -0.071480654 0.07455582 0.030320998 0.14886822 0.030115552 0.072372 -0.05146121 0.062736474 -0.0016183871 -0.05861184 0.018957907 0.029629769 -0.030209744 -0.07430789 -0.014487223 0.011179254 -0.057393968 -0.017717758 0.034620285 -0.045779508 -0.14355071 -0.05262643 -0.071704604 0.008451049 0.0034649088 -0.13772959 -0.001568652 -0.1326167 0.09648809 -0.059080455 -0.055718496 -0.12079853 0.14502308 -0.028806608 0.1340148 0.048265863 -0.028227082 0.06618621 0.008356395 -0.09715339 0.10563838 0.042655326 -0.03804642 -0.12070689 -0.12323339 -0.014177165 0.036050357 -0.009421102 -0.063238196 0.07066704 -0.056079667 0.016868345 0.00522521 0.024883633 -0.07091019 -0.06224563 0.0841963 0.05134217 -0.08966235 0.0067981663 -0.018380057 -0.10096057 0.010391914 0.07071344 -0.029969119 0.012862917 -0.07367064 -0.0040427195 0.103741094 0.039847173 0.031966478 -0.0005098292 0.019629575 -0.07526468 -0.019043468 0.059109695 -0.008158845 0.011664462 -0.110624745
8158:SARA 0.088024385 -0.012461823 0.017658936 0.03928575 0.027201885 0.013682979 0.12414949 -0.09349951 -0.020501414 -0.05661261 -0.06830092 -0.16301212 -0.020187626 0.050683767 -0.1400118 -0.08226982 0.10592784 -0.033603694 0.104569666 -0.05538619 0.014133443 0.02384276 0.12252331 -0.067182384 0.0014913182 -0.032646995 0.04554478 0.002490555 -0.021497015 -0.022450307 0.12030137 0.04543278 0.07323795 -0.051406752 0.10681663 -0.022145718 -0.05713236 0.073328465 -0.051112503 0.00929184 0.16902485 -0.054982956 -0.01983598 0.06741374 -0.05494831 -0.06226143 0.09710132 0.042142097 -0.053912126 0.031835027 -0.06227916 0.010970424 0.027448898 0.050665356 -0.09480023 0.0016532994 -0.026833035 0.019082103 0.087508425 -0.089846425 -0.020697888 0.0665391 0.00044982613 -0.06464799 -0.05438269 0.016023012 -0.047491934 -0.03539195 0.08024431 -0.0164637 -0.15226576 0.05503401 -0.08315586 0.035726346 0.11265001 -0.12993258 0.0052165515 0.0033616046 0.040652458 -0.07894771 -0.069477946 -0.108499326 0.06463452 -0.13344105 0.112741485 -0.08197879 -0.010464746 0.041052286 -0.007921277 -0.12843683 0.012018875 0.00897496 -0.008246478 -0.13351001 -0.043754924 0.013507651 0.037343763 0.028747339 -0.18052068 0.018962547 -0.07416439 0.11543961 -0.03286659 0.054780703 0.040865913 0.056521248 0.061152097 0.035803758 -0.043420568 0.045972247 -0.103905484 -0.1800817 0.055096757 0.033018377 0.039693777 0.013747832 -0.08237626 -0.036973868 0.08178653 0.061050575 -0.03435432 0.080071 0.06453702 -0.09592965 -0.033493053 0.0032005254 0.04360112 0.101666085 -0.112586856
8469:MEMORIAL 0.06673269 0.023432208 0.03263437 -0.060895123 0.0294516 0.09326232 0.08872922 -0.021299811 -0.043877315 -0.060523923 -0.05769078 -0.031039203 0.017565923 0.1305986 -0.04139977 -0.062456954 0.006134539 -0.08052031 0.07580455 -0.010835935 -0.0012044959 0.047198035 0.06675508 -0.21730125 0.014543942 0.07599978 0.076057464 0.025831215 0.01053141 0.059989017 0.15308337 0.036960125 0.08908982 -0.040339973 -0.015134278 0.077884614 0.0069727986 0.22787605 0.044024054 0.013744603 0.06398924 -0.11855016 -0.052280713 0.0103323 -0.06482861 0.010180472 0.045312416 0.013841974 -0.01367174 0.03844894 -0.097328395 0.05629179 0.073604606 0.02302391 -0.06112363 -0.031573553 -0.007061311 0.05363867 0.1035125 -0.09866556 -0.0027762686 -0.017938877 -0.020693764 -0.060960963 0.0008980798 0.0477791 -0.038591586 -0.08741327 0.05575489 -0.026795233 -0.09090809 -0.070731506 -0.033643637 0.048655547 0.15644363 -0.15076514 0.08681571 -0.110092804 0.14257835 -0.019783488 -0.046013672 -0.009511091 0.06753462 -0.07564675 0.10816301 -0.05180331 0.026538685 0.06637175 0.0585109 -0.14755248 0.020042896 0.00853674 -0.07444657 -0.05509852 -0.1044028 -0.051482104 0.06891089 -0.0079303 -0.045988612 -0.106332466 -0.04165081 0.06601689 0.02499557 0.091582485 0.0076687387 0.00721579 0.05094142 0.021781472 -0.045778953 0.07447405 0.054131493 -0.11608054 -0.011000252 0.06843802 0.082327746 0.059138454 -0.12507762 0.015683027 0.066788726 0.03768973 -0.0019960452 0.006542618 -0.09117185 -0.1007937 0.047484644 0.06655595 0.05353594 0.101489566 -0.117108144
8322:THIRTY_EIGHTH 0.13959266 -0.061079193 -0.06572888 -0.009752145 0.01808663 -0.046003435 0.07872596 -0.004761318 -0.08101575 -0.124667846 -0.09605648 -0.047689978 0.05580275 0.06474266 -0.10193473 -0.042744 0.023276547 -0.0405926 0.039661855 0.004216823 0.033923727 -0.028818736 0.109413646 -0.20809662 -0.064815134 -0.06452378 0.10765448 -0.020303924 -0.016581645 0.050526198 0.12375632 0.05285518 0.08216126 -0.08129012 -0.017012918 -0.03707442 0.003966712 0.18237092 -0.03170439 0.0032728296 0.13859966 -0.08740285 0.0024590383 -0.012043553 0.033459898 -0.11914892 0.07092078 0.047870122 -0.04848269 -0.014611735 -0.07312875 -0.006949248 0.014665394 0.059448283 0.041065138 -0.04133297 -0.0015528161 0.0858332 0.038251862 -0.040662743 -0.014716012 0.076410644 -0.017618157 -0.06992595 -0.007031427 0.04939853 0.022813644 -0.10241385 0.018415652 -0.062319763 -0.089750946 -0.014593747 -0.02920402 0.04223448 0.06885411 -0.23477943 0.10129803 -0.14063697 0.06589018 -0.10851154 0.013091488 -0.07309053 0.07106876 -0.13294327 0.07573922 -0.018005423 0.056646697 0.0055383705 0.07663007 -0.07899652 0.02402148 0.05752448 -0.054843787 -0.06903802 -0.08332665 -0.100055195 0.008257655 0.028048504 -0.07159708 -0.03384616 -0.09129444 0.037392095 0.0564416 -0.052129067 0.035726592 0.023278937 0.06501416 -0.010213822 -0.007295102 -0.012881389 -0.006349478 -0.10274786 -0.009730365 0.06946476 0.04196022 0.10719866 -0.08951961 -0.00850632 0.04841851 -0.0027085703 0.05678452 0.007658682 0.023206813 -0.08302593 0.006183327 0.018127507 0.03282186 0.068738386 -0.14678279
8163:SOUTHGATE 0.05267595 0.06273077 -0.11855247 0.033878945 0.06497567 0.07215324 0.12801737 -0.06811777 -0.039080914 0.005565195 -0.06909433 -0.03461416 0.03198338 0.04604628 -0.13473865 0.025239438 0.04399201 -0.07851602 0.068113215 -0.045716222 0.078946926 -0.03299104 0.08059457 -0.13437814 -0.0039628423 -0.018626686 0.06443127 0.015198132 -0.015667686 -0.00044609682 0.13884653 0.07576527 0.13647039 -0.05719268 -0.08771589 0.0017054909 0.0072757974 0.07986241 -0.09087693 0.05919866 0.07482742 -0.057366878 0.025476022 -0.01945215 -0.07411871 0.020229263 -0.011756895 0.07439309 -0.015542037 0.11248662 -0.1690055 0.039009552 0.08523262 0.05444334 0.02127006 0.06335361 -0.026612883 0.0010908778 0.13601972 0.017333131 -0.035044547 4.5986642e-05 0.018859088 -0.099741995 -0.09462337 -0.025523355 -0.02910181 -0.03418773 0.021319494 -0.008904499 -0.08095678 -0.015962677 -0.041907795 -0.02101341 0.05058045 -0.17201817 0.064147346 -0.062046435 0.09099905 -0.064417936 -0.04231224 -0.13842423 0.19808018 -0.11601377 0.036391623 0.0030553353 -0.0012360576 0.066545814 0.004088723 -0.083631046 -0.015388155 0.029677255 -0.040653896 -0.10237932 -0.060296576 -0.09353803 0.059463315 0.084224075 -0.1710932 -0.04690685 0.00068319065 0.021190183 0.13180313 -0.055873755 -0.013291742 -0.0638267 0.011792718 0.06343311 -0.07654122 0.047670063 -0.111121744 -0.046362527 0.009672315 0.09604808 0.06377429 0.061033044 -0.011267772 0.0019561804 0.119799435 0.06529477 -0.030032558 0.016088482 -0.024609545 -0.15861188 -0.068717696 0.014254803 0.0041169636 -0.010491649 -0.12071886
5605:PAULS_VALLEY 0.10779293 -0.02403184 -0.012690112 0.0059624347 0.059919048 0.07631277 0.16423109 -0.05771685 -0.0004835286 -0.07573028 -0.07965043 -0.11839851 0.016905177 0.08303256 -0.12328101 0.013712711 0.0342391 -0.02900806 0.033126082 -0.05249245 0.016865183 0.073695295 0.123567335 -0.13948528 -0.038159326 0.017202606 0.047780056 -0.02679252 0.02534337 -0.044395912 0.09198753 0.0012268384 0.08366329 0.055481207 -0.04257784 -0.021412523 -0.012829622 0.14312097 -0.001455402 0.10523348 0.18389948 -0.12778884 -0.033562746 -0.032530133 -0.08446923 -0.047863826 -0.014761386 0.045283154 -0.1199786 0.0936406 -0.14106925 0.058826827 0.046376817 0.033479586 0.011263641 0.088704444 -0.028688507 0.02365736 0.051234677 -0.007905488 -0.035165038 0.081875786 -0.024639633 -0.01323439 -0.024017781 0.09796113 0.003886496 -0.09628433 0.0680879 -0.015737832 -0.04367369 -0.076719336 -0.052273277 0.07307114 0.16315043 -0.12794167 -0.004985718 -0.15350547 0.05036852 -0.14505592 -0.09404174 -0.09861609 0.0886759 -0.052598406 0.09432797 -0.018954042 -0.034999203 0.05336692 0.010411718 -0.12456825 0.018624237 0.0515454 0.052595936 -0.10074408 -0.11574415 -0.020836202 0.08396755 -0.02995241 -0.075338 -0.04989209 -0.026528694 0.076245934 -0.004098019 0.021978451 -0.035375573 -0.07525398 0.0016432081 0.043821283 -0.07128288 0.030140175 -0.06762335 -0.09354836 0.008870056 0.029248727 -0.065220915 0.078609295 -0.055852078 0.02230148 -0.012756218 -0.04828091 -0.0045401254 -0.005191499 0.01945284 -0.046946134 -0.010908163 -0.011831656 0.07235727 0.07525255 -0.1068938
8727:STUBBEMAN 0.12279581 0.007732313 0.05853092 0.06672911 0.087971576 0.02552997 0.042694766 -0.06833652 -0.023691984 -0.019233828 -0.14473738 -0.06631656 0.036278203 0.09050455 -0.09298698 -0.020029897 -0.02276724 -0.10332164 0.14221132 -0.058518764 0.023486579 -0.010900005 0.017297534 -0.12308057 -0.015225383 -0.020246295 0.040256973 -0.08950992 0.043873575 0.073786 0.124211065 0.004728487 0.06526167 -0.0277994 0.021735938 0.010898878 -0.007185574 0.002473421 0.02199224 0.013620107 0.08177713 -0.07105916 0.0063616224 -0.0040719663 -0.063255906 -0.012075149 0.07836808 0.10523175 -0.09423938 0.08112784 -0.10391583 0.032928362 0.06449281 0.02493646 -0.027649576 -0.0019631034 -0.10054802 0.043749273 0.02185536 -0.04034234 -0.019569503 0.011589428 -0.0014115527 -0.055771954 0.036093794 -0.02143608 -0.089107946 -0.041150033 -0.026664771 -0.058364294 -0.1847536 0.011948135 -0.08424455 -0.032085706 -0.048782494 -0.124706306 -0.00394527 -0.21624824 0.07872711 -0.04287165 -0.12048243 -0.06399761 0.05853747 -0.09535065 -0.027712416 0.014624493 0.012706054 0.082358524 -0.0029929744 -0.08364455 -0.00119376 -0.004211642 -0.010902774 -0.13551831 0.019163167 -0.13579819 0.060314927 -0.042414103 -0.2266369 -0.0024985885 -0.027812911 0.030380212 0.0998442 0.020028697 0.005290172 -0.018408496 0.01863268 0.12642832 -0.08668446 0.07324749 -0.10869427 -0.15267664 -0.08310662 0.08875451 -0.00015619099 0.062173463 -0.11818624 -0.023945784 0.12942648 0.006619674 -0.0579069 -0.08310733 0.0028392382 -0.08319731 -0.10406594 -0.009296663 0.09477244 0.12902148 -0.10712339
8474:STONEWALL 0.13647103 -0.05984462 0.009153562 -0.07387954 0.076779604 0.04409817 0.061656598 -0.124927506 -0.032695662 -0.07669427 -0.048792828 -0.016698124 0.1216548 0.045230843 -0.109518 0.03925437 0.044047207 -0.11040414 0.07588992 -0.045977406 -0.0041614035 0.044750344 0.032536235 -0.1515467 -0.023065204 0.05069518 0.05061467 -0.018685138 -0.012595796 0.06752508 0.1353751 0.061056975 0.08298013 -0.057285454 -0.0062462166 0.0044443347 -0.005586636 0.0648185 -0.022277627 -0.042753026 0.06782938 0.008757087 -0.07895876 0.029679222 -0.08594789 0.013918078 0.075916484 0.11899093 -0.02003475 0.056821212 -0.046554103 0.018375417 0.070746735 0.060044978 0.010415254 -0.018045185 -7.093007e-05 -0.006855024 0.10106521 -0.043300346 -0.017721804 -0.018200422 -0.019758958 -0.012776438 -0.019836746 -0.031088563 0.064438455 -0.05548525 -0.02163972 -0.0005992209 -0.13733831 -0.069192424 -0.11344289 0.04564746 0.12916917 -0.12225366 0.106913425 -0.157371 0.028671654 -0.06720721 -0.029969314 -0.034929294 0.11646327 -0.12668939 0.084380485 -0.026995555 0.07174858 -0.011337904 0.0071763587 -0.11814346 0.060657486 0.048186984 -0.029541096 -0.05924783 -0.06841603 0.00043304736 0.039854545 -0.01898041 -0.14603871 -0.031141942 0.022158436 0.08517516 0.037838306 -0.057622164 -0.03917099 0.0054235794 0.023715641 0.071305215 -0.12629151 0.07043243 -0.0051294332 -0.114171945 0.0006348678 0.09553749 0.015402341 0.036213085 -0.13765164 0.035551637 0.023967251 0.06084671 0.025992207 0.11712775 -0.016232489 -0.13708 -0.0041504074 0.053103182 -0.01702796 0.048151296 -0.15480544
8536:WASHINGTON_PAR 0.12161021 -0.027308853 -0.052013326 -0.0046304534 0.0020347484 -0.05218645 0.1953164 0.015223457 0.0522412 -0.08358822 -0.17635097 -0.077746205 0.0773568 0.03273686 -0.0924151 -0.00793573 0.0042648297 -0.06735371 0.059547655 -0.01376613 -0.023498075 0.041406583 0.068650015 -0.100195296 0.032635413 0.0036305494 0.037371684 0.015095267 0.011335051 -0.016152533 0.2011739 0.035233427 0.07986355 -0.058403723 -0.019976275 0.0429872 -0.042822115 0.04758243 0.019222958 0.04789504 0.08846427 -0.041303273 0.03670742 -0.03188235 0.023233082 -0.0359695 0.031409524 0.062965445 0.07357685 0.013477795 -0.016181972 0.029809082 0.090724885 0.018468915 0.019235227 -0.028125597 -0.0024855917 0.028382083 0.13241696 0.036574636 -0.12808558 0.05580254 -0.0007562595 0.01782002 -0.113106646 0.0671457 -0.03872135 -0.14544 0.09705394 -0.055290718 -0.12812737 -0.0364914 -0.048593618 0.046561733 0.115066946 -0.19418266 0.020217532 -0.0611926 0.15446787 -0.13425323 0.017684368 -0.08401834 0.04289774 -0.03589093 0.08992983 0.072104976 0.003062307 -0.0051274635 0.019338097 -0.06280814 -0.0017762521 -0.030178685 -0.047683418 -0.0013677685 -0.07695329 -0.052274536 0.0062696193 0.026676653 -0.10274526 -0.008728883 -0.0017208087 0.034920026 0.096515745 -0.046319768 0.048181087 0.0046684626 0.040292967 0.08112457 -0.0975486 0.04257514 -0.08524828 -0.15371522 -0.021260846 0.078359455 0.06852388 0.088238135 -0.043534912 -0.030950464 0.0902645 -0.021072578 0.03817047 0.04424078 -0.023001993 -0.09038622 -0.062712856 -0.019858344 0.07020338 0.116907805 -0.16099977
8299:WESTOAKS 0.076474115 -0.007762434 -0.017857373 0.00075859565 0.097095 0.049571753 0.11384917 0.00941677 0.0044837124 -0.07424745 -0.1291543 -0.04691469 0.07503739 0.06878281 -0.17112117 0.037205517 0.025712641 -0.020674458 0.0647371 0.011864657 0.021300824 0.0572823 0.11312894 -0.14944737 -0.018322956 0.03341385 0.017311718 0.0029447395 0.05205749 -0.010941573 0.20039897 -0.04560064 0.09856671 -0.0035198175 0.025088433 0.00021474712 -0.06441113 0.11203253 0.012743491 -0.008721853 0.04975322 0.0064413664 0.03575877 0.008049436 -0.03931835 0.009013054 0.006076077 -0.053212345 0.020380836 0.058035184 -0.04445459 0.09223275 0.028815841 0.084846936 0.004304864 0.09595152 0.06727439 0.06359155 0.06418672 -0.0654037 -0.07097787 0.009198097 -0.08027488 -0.075942576 -0.027275462 0.11738689 -0.0480079 -0.036020637 0.06766695 -0.05516529 -0.104377195 0.008343791 -0.060261708 -0.06644199 0.052971505 -0.11917583 0.09976925 -0.14223269 0.0620131 -0.059945796 -0.08897031 -0.10761145 0.13895176 -0.115660325 0.13173123 -0.01310412 -0.02752368 -0.022227215 -0.03562446 -0.11132673 -0.047170885 0.08647737 -0.00873231 -0.07313151 -0.13296004 -0.07758604 -0.044889797 0.041116487 -0.08374563 0.06412761 -0.041652653 0.1065808 0.019014651 0.046917055 0.013362054 -0.0020003913 0.027818078 -0.025372563 -0.15867294 0.045765735 -0.05606655 -0.13225217 0.066643946 0.027403714 0.021387538 0.022831328 -0.0452231 0.034033787 0.0151934745 0.045676954 -0.05400009 0.030437713 0.0051220637 -0.059998974 0.024181303 0.07274537 -0.0018805051 0.07257066 -0.1337395
8905:EL_RENO 0.10967119 -0.019695465 -0.07218383 -0.0022885941 0.011426264 0.004863748 0.13047972 0.0093178265 -0.06467369 0.022332055 -0.0820798 -0.04895382 0.08534068 0.009301402 -0.16780528 0.0035585253 -0.018312221 0.037783984 0.04651035 0.0075084646 -0.0076964884 -0.032084934 0.090048276 -0.13657361 0.07214329 0.053667396 0.03860306 -0.010319074 0.086279504 -0.02564063 0.17442481 -0.09139538 0.11589738 -0.047376484 -0.06618321 0.02060166 -0.06065105 0.105830744 -0.019826744 0.03178935 0.07228281 -0.11389666 -0.03273498 -0.064095914 -0.08378434 -0.09508677 0.022767778 0.038609903 -0.031780407 0.06488826 -0.09568125 0.020884862 0.00861977 0.033056702 0.0074774595 0.014891312 -0.023213971 -0.034435466 0.030679734 -0.014159067 -0.096611746 0.0010095403 0.041276287 -0.08023394 -0.065906584 -0.016054733 -0.06383027 -0.020577176 0.040096644 -0.019736439 -0.024212722 0.06409718 -0.10995293 0.10573626 0.026205683 -0.20068023 0.08623882 -0.07059244 0.0787909 -0.09577936 0.009516646 -0.09012657 0.05773613 -0.110286385 0.08156558 0.0015830876 0.025242677 -0.04261136 -0.034132674 -0.15232758 0.09269731 0.04924905 -0.02557989 -0.105348326 -0.0070877676 -0.03310652 0.007409941 0.00468228 -0.091989875 -0.040139623 -0.017203035 0.027230974 0.013822353 -0.02045085 -0.030746132 -0.002901029 0.04811244 -0.015696546 -0.10943505 0.005424626 -0.043829776 -0.16562383 -0.074200936 0.07357345 0.06440228 0.06648172 -0.04607343 -0.040077135 0.15458488 0.012483643 0.028818678 -0.011712453 -0.009050094 -0.09669483 -0.023282256 0.06625889 0.030219555 0.035549413 -0.14099303
8921:JENSEN_RD 0.14649978 -0.031304684 -0.07687751 0.03901259 0.057096347 0.03935758 0.020996034 -0.033149086 -0.009328072 -0.055505957 -0.025257813 -0.06112292 0.06408729 0.017230881 -0.19382857 0.01284702 -0.05538928 -0.10555235 0.05319749 0.011630826 0.04586434 0.09951958 0.13011767 -0.13706066 -0.007065303 0.025773067 -0.020966874 -0.03145553 0.109146126 0.0438525 0.12565324 0.0037198458 0.070699945 -0.0043338286 -0.028158855 0.03361402 0.022211857 0.13345233 0.031375658 0.03094494 0.053370997 -0.078730285 -0.012083791 0.031956624 -0.07461592 -0.069898896 -0.018871794 -0.023552258 -0.1041967 0.06769015 -0.10063617 -0.045040965 0.056730412 0.007631249 0.03793006 -0.007926269 -0.09006162 0.048441112 0.004518863 -0.1410921 0.03618108 -0.053566795 -0.011057205 -0.06549152 -0.037627965 0.023333758 -0.017775875 0.0057842997 -0.011504837 -0.046613578 -0.10991385 -0.03293832 -0.072862945 0.060175993 0.078908995 -0.12721807 -0.0077930316 -0.049027957 0.09905179 -0.1009262 -0.011675402 -0.07999777 0.0827867 -0.109835014 0.049079306 0.028851528 -0.06176844 -0.0104771 0.08582421 -0.07992173 0.0070260693 0.044814255 -0.015105308 -0.109728545 -0.09690117 -0.08105366 0.013180649 0.0021047085 -0.18291359 0.017495967 -0.117798336 0.035707038 -0.015933322 -0.057220887 -0.019694356 -0.016714832 0.078643896 0.11160416 -0.10206802 0.050750263 -0.056888994 -0.083415695 -0.036470752 0.006407533 -0.057240363 0.029840013 -0.13468936 0.02680855 0.06922327 0.07313748 -0.11056417 -0.0040873135 0.03376871 -0.10994794 -0.080772325 0.06326366 0.005114634 0.03525223 -0.14662531
8340:SILVER_LAKE 0.150187 -0.025313886 -0.06905032 -0.017853621 0.03961811 0.04963282 0.10891699 -0.039752625 0.052930478 -0.115317285 -0.12087376 -0.0028687867 0.0994506 0.033559814 -0.14761001 -0.005331696 0.021135509 -0.0683943 0.03137299 -0.06492645 0.02443586 0.09348139 0.10512845 -0.14922795 -0.06582741 0.092932574 0.16167152 -0.030943867 -0.013201668 -0.026417632 0.15243436 0.07064037 0.07946556 -0.05238411 -0.029054716 0.003834827 -0.03091463 0.13900502 0.022436857 0.022598842 -0.020685168 -0.08422159 -0.017514938 -0.04706775 -0.06350989 -0.009483383 0.00015352409 0.035840433 0.0142226005 -0.039056472 -0.009091678 -0.019402303 0.12052856 0.09547458 0.029745804 -0.08150245 0.0015400858 0.06651676 0.12439471 -0.0055238907 -0.07143014 -0.017487394 0.04163476 -0.035918336 -0.0014932485 0.0022424057 -2.4294673e-05 0.019330852 -0.06457122 -0.090180375 -0.07029876 -0.020617409 0.017863914 0.075013466 0.121829316 -0.1595585 0.0898902 -0.1346766 0.06906208 -0.07840174 -0.06744332 -0.1280339 0.059058513 -0.06742591 0.1348565 0.021301797 -0.018346261 0.048833612 -0.024090724 -0.10250386 0.09092749 -0.0031204033 -0.06595818 -0.13409197 -0.02311775 0.014197808 0.15471804 -0.05138886 -0.11150923 0.0076699806 -0.051834576 0.059113245 0.1285927 0.029048052 0.040518295 -0.023757128 0.045709237 -0.028253797 -0.053829513 -0.0702785 -0.09430455 -0.15791869 -0.037598398 0.021926785 0.049382236 0.05543689 -0.06078866 0.08536093 0.11153977 -0.0031161304 0.014222964 -0.054574553 0.009352645 -0.14844105 -0.025880998 0.065042235 0.04440394 0.018747289 -0.10954779
8132:KENTUCKY 0.06698328 -0.038389463 -0.0033224423 0.043259304 0.056946974 0.08467482 0.12538083 -0.008449404 0.0026553834 0.04052111 -0.0917731 -0.0951429 0.04331019 0.058252696 -0.118241504 -0.10886972 0.08569029 -0.059762813 0.031582132 -0.08984974 0.029835386 0.08946561 0.1272555 -0.16125168 0.015048053 0.024674559 0.07602888 -0.08745193 0.06286 -0.045112614 0.12174293 0.050361216 0.12196627 -0.025300551 -0.013181887 0.03373841 -0.1352889 0.082424656 0.033790357 0.007879608 0.15106004 -0.09389196 -0.08994945 -0.0039772573 -0.015936268 -0.07772166 0.028047876 0.05627074 -0.032366913 0.05261656 -0.10660809 -0.037604023 0.059105817 0.094675526 0.009854858 0.011343395 -0.064284615 0.03573976 0.05574034 -0.043738373 -0.022145128 0.0057867565 -0.09073305 0.030359246 -0.036112744 -0.015385256 -0.007193118 -0.0772144 0.10010247 -0.0633853 -0.114899 -0.022477727 -0.040886093 -0.044842586 0.017572373 -0.06081315 0.036512654 -0.14434454 0.06192258 -0.0936366 -0.010856329 -0.09221009 0.027888292 -0.10748829 0.11331963 0.040391963 -0.07438814 -0.07423936 0.048444025 -0.14475611 0.054904137 0.038242456 0.06602474 -0.07752658 -0.10022535 0.025221758 -0.01840442 0.010742653 -0.11611096 0.0009208409 -0.032212593 0.08681614 0.08815306 0.104542345 -0.046416685 -0.032512188 0.08800798 0.003107511 -0.02978002 0.063527636 0.027359536 -0.09479361 -0.018276066 0.07246244 0.01783331 0.017455436 -0.1377109 -0.006815492 0.04525825 -0.00287214 -0.041976973 -0.03731992 0.055136424 -0.095201224 -0.015205575 0.15509652 -0.03340647 0.112657525 -0.20747846
3128:HANCOCK 0.14156315 -0.021508528 0.06171048 0.005208645 0.030089466 0.01926634 0.08986381 0.011422728 -0.030308053 -0.084260024 -0.064572595 -0.12600182 -0.015043426 0.06582791 -0.09925111 0.002335447 -0.0052454127 0.028632235 0.0010818419 -0.092740566 0.0132138375 0.06763925 0.029337706 -0.24586342 0.015335094 -0.01597075 0.03569976 -0.04318878 0.01819992 -0.060230166 0.12371269 0.0070168856 0.08619648 -0.022154285 -0.042751733 -0.06607585 -0.0774986 0.09698671 -0.00022007409 0.00465373 0.14261244 -0.044114545 -0.004195176 -0.025602886 -0.0668979 -0.05929424 0.044587884 0.10360066 -0.05499391 0.07395717 -0.06507335 0.020523231 0.08815179 0.05902501 -0.00040409568 0.043014828 0.009205343 -0.010382828 0.05000762 0.014306574 -0.04968519 0.014783586 -0.02467186 0.005544649 -0.026180703 0.057264462 -0.033805683 -0.022353875 0.11962051 -0.021737548 -0.17595285 -0.024586877 0.011931806 0.011708892 0.038059153 -0.16094206 0.047013264 -0.020619454 0.077961706 -0.08743523 -0.060590398 -0.085500315 0.13112938 -0.020595543 0.11238683 0.06407984 0.009530843 0.059266042 0.071962394 -0.0715588 0.042318694 0.05271854 -0.054637197 -0.04323744 -0.054133616 -0.0076887044 0.045405563 0.0012263139 -0.028994141 0.024101553 0.042429723 0.11523159 0.05592348 0.02593345 -0.0651505 0.04516648 0.051283527 0.014221837 -0.03692134 0.07553784 -0.13708748 -0.09427634 -0.11686328 -0.0057181795 0.0989068 0.011330247 -0.086334705 -0.0005750703 0.06001722 0.07505799 -0.07758403 -0.045888823 0.08369269 -0.06822577 -0.09748658 -0.018421449 0.045221895 0.15547541 -0.19184636
8707:WILKINSON 0.08015834 -0.003919415 0.0131116845 -0.023141893 0.10674267 0.01924069 0.10023154 -0.048097756 -0.048036158 -0.018027982 -0.073413506 0.054665174 0.012534853 0.05989681 -0.056759946 0.011949819 -0.04845108 -0.13528891 0.14219221 -0.07282747 -0.03130727 0.029363398 0.13478096 -0.21223564 -0.005663535 -0.03238752 0.040099055 -0.06402629 0.047968235 0.018265275 0.13522333 0.01961181 0.0046410887 -0.0050597633 0.06949758 0.058236778 -0.028192857 0.056626763 -0.0047239964 -0.021035878 0.049345154 0.0050563375 -0.085432656 -0.030978044 -0.038057316 -0.082763776 0.09687732 0.09468152 -0.1048696 0.026987432 -0.04904652 0.035824437 0.10395719 0.018865721 0.00076496945 -0.03940776 0.0064724567 0.02729004 0.12491722 -0.0035786643 -0.007743586 -0.045758758 -0.04705641 -0.1374326 -0.051829226 -0.07215572 -0.04140156 0.016348444 -0.013264301 -0.07148516 -0.15274532 0.033743877 -0.11328753 0.092890136 0.09737849 -0.10285125 -0.019109948 -0.04341838 0.121270716 -0.06927676 -0.019075481 -0.10671646 0.13159342 -0.10643541 0.059466027 0.06005463 -0.0384622 -0.12085045 -0.014723534 -0.06517061 -0.023800887 0.018147936 -0.013827672 -0.17522539 -0.024072915 -0.14423451 0.003699584 -0.031529833 -0.16848677 -0.060401507 0.052849974 0.073481485 0.070746176 -0.019512864 -0.008985625 -0.002697025 -0.0015935501 0.047781922 -0.15491386 0.094815746 -0.059959274 -0.079637006 0.044171497 0.09781738 -0.019190243 0.03549409 -0.05391785 -0.077418834 0.09750717 -0.008114668 -0.03472008 -0.029675994 0.028348077 -0.10348337 0.020620942 0.10770595 0.06169125 0.13102604 -0.094471574
8365:LAKESIDE 0.007851425 -0.027853422 0.008400183 0.016784493 0.08157562 -0.02854696 0.113368504 -0.11039502 -0.04050917 -0.032679465 -0.12506664 -0.07680731 0.08522271 0.01289501 -0.11761939 -0.05472429 0.09551211 -0.036122095 0.12858176 -0.022484243 0.0069646263 0.06820585 0.048943605 -0.20812961 0.0017146437 -0.0233002 0.009298723 -0.0057949107 0.05652338 -0.015499188 0.16401981 -0.025296068 0.17050125 -0.012465426 0.053809054 -0.010482844 -0.050895046 0.069305815 0.04209824 0.0006996744 0.024004875 0.0076681944 0.06843331 0.03374131 -0.03583746 -0.053095765 0.09133806 0.03766388 -0.013703824 0.00091378606 -0.12167009 0.073230475 0.11324485 -0.017954567 -0.029657245 -0.055945493 -0.0290247 0.010628146 0.10241108 -0.057223916 -0.060081337 -0.053728346 0.025743881 -0.044674054 -0.07403723 0.042221542 -0.03478036 -0.11212654 0.04764474 -0.04094555 -0.14134589 -0.04803418 0.0086607495 0.06802733 -0.0008954212 -0.07017291 0.003671916 -0.032960285 0.13969128 -0.0883143 -0.084961176 -0.10287635 0.08952998 -0.11378692 0.1231026 -0.010397308 0.014739741 0.0058459044 0.08516867 -0.1519401 0.010085496 0.056067556 0.008156148 -0.058788247 -0.04086314 0.010473842 0.07923931 -0.06995836 -0.098402426 0.040134735 -0.059551075 0.056790605 0.0051702857 0.037972108 0.029202247 0.057571456 0.11412179 0.03506792 -0.08316465 0.090583086 -0.013313961 -0.058081318 -0.03583907 0.07343578 -0.024608957 0.010270843 -0.08419215 0.0063181906 0.13037886 0.074677244 0.023954114 0.008386061 0.06561373 -0.01944473 -0.03458888 0.010015186 0.008194214 0.04405096 -0.06458105
5806:VALLEY_VIEW 0.13491681 0.008730889 -0.00027531668 0.017894128 0.07296614 0.07084764 0.1917393 -0.031421408 -0.008412764 -0.023268199 -0.0888532 -0.024217183 0.047034744 0.016966946 -0.17375922 -0.04202421 0.009807637 -0.07060482 0.056098778 -0.022430183 0.019892804 -0.012858215 0.12100097 -0.16252449 0.026440555 0.018119818 0.067075044 -0.005277316 -0.040818777 0.1220741 0.14632331 -0.0081909 0.082182184 -0.039389987 -0.07155658 -0.050963417 -0.08129734 0.09043645 0.0075313477 -0.065726265 0.079070956 -0.029093763 -0.08081372 -0.040445995 -0.05975109 -0.030770661 0.045750983 0.047007307 -0.04721335 0.097723804 0.010036972 -0.02750964 0.123320505 0.039956715 0.0028303682 0.010041519 0.002271588 -0.008805784 -0.017851211 0.048230834 -0.04006882 0.022397656 -0.117069304 -0.038594175 0.0121312905 0.011356169 -0.055522762 -0.07004676 0.06313232 -0.057172235 -0.124410816 0.008439011 -0.02827767 0.049415983 0.06996823 -0.17077796 0.04473303 -0.124118686 0.14065608 -0.089360364 -0.008358095 -0.14420417 0.10724397 -0.018548684 0.08561561 0.03537353 0.053391162 0.049525227 0.028821964 -0.084503345 0.048971027 -0.014391176 -0.0073194443 -0.101259604 -0.041711885 -0.111816555 0.036549978 0.029052654 -0.105199866 -0.010468647 -0.03885469 0.08221505 0.054126073 0.011670538 0.009897741 -0.02260762 0.054027673 0.050866716 -0.047696874 0.055414587 0.011467146 -0.0697638 -0.014957507 0.04369957 0.056098618 0.08415901 -0.086471334 -0.027657771 0.07610601 0.06095943 -0.05185166 -0.10661353 -0.0049717957 -0.0971298 -0.006653558 0.056414716 0.07143338 0.05435434 -0.11500466
8115:SW_22ND_ST 0.030218415 -0.03717757 -0.0074921916 -0.034870077 -0.05336074 0.03404153 0.12983465 -0.018781094 -0.01600802 -0.010342865 -0.07934595 -0.1231936 0.046060685 0.04313101 -0.106903166 -0.03278406 0.08744412 -0.025010375 0.10000981 -0.045024227 -0.015723487 0.073476866 0.12834279 -0.16894354 -0.038146034 -0.007094882 0.044612046 0.04690213 0.10817645 -0.029798128 0.18183984 0.04398296 0.06961307 -0.11433319 -0.01793267 -0.023040855 -0.029903146 0.14849296 -0.014085912 -0.009093487 0.07589952 -0.03621069 -0.02820477 0.09068026 0.030082952 -0.033073343 0.03138491 0.007891398 0.06957525 0.06572 -0.15123093 0.0861866 0.026344564 0.0019061404 -0.010525673 -0.05860094 -0.048692495 0.112356216 0.018067203 -0.02590797 0.039582003 0.060382504 -0.06875313 -0.054821286 0.0022280766 0.13594113 -0.00373111 -0.09764006 0.0641655 -0.052829195 -0.07186002 -0.048171245 -0.015036457 0.05083889 0.09833542 -0.13295023 0.070596255 -0.10937787 0.12958656 -0.16343252 -0.105231285 -0.04490939 0.12632476 -0.13150944 0.08613999 0.045927513 0.016937692 0.10521901 0.043928146 -0.07888601 -0.024065375 0.053995114 -0.059163984 -0.088304095 0.026927868 -0.0132046975 0.07015611 -0.045683242 -0.15966724 -0.014403049 0.007156416 0.14310235 -0.014991666 0.037081793 0.0038724008 -0.06300728 0.062473588 -0.053101 -0.09148777 0.044903304 -0.10226623 -0.054355774 0.011316203 0.13738944 0.0317824 0.11471375 -0.076907665 0.027062844 -0.025486879 0.08494287 0.06193422 0.018393751 0.037699293 -0.09130287 0.0148362685 -0.061247922 0.077455856 -0.00028887586 -0.115648285
5105:ARDMORE 0.065761775 -0.042877607 -0.014749788 -0.055511713 0.030379184 0.11178054 0.079121076 0.017561337 0.0017003951 0.009015078 -0.07644069 -0.06897019 0.07573248 0.051817067 -0.08197024 -0.051724114 0.03631001 -0.13118744 0.018821709 -0.0026384138 -0.0038204764 -0.058528896 0.076427415 -0.14987168 0.015496254 0.014876501 -0.035400894 -0.09137438 0.0038457506 0.028792622 0.18100922 0.09201312 0.037797224 -0.031028159 0.012840756 -0.04191074 -0.049594164 0.10571367 -0.03479063 0.083879285 0.16598134 -0.0663826 -0.07727753 -0.01759837 -0.1158344 0.003014897 -0.008419795 0.005765776 -0.040583838 0.08571559 -0.028320832 0.08307326 0.019632231 0.08541113 0.024139643 -0.0067322077 0.02035118 0.016835772 0.024495255 -0.020901497 -0.05034723 -0.03604297 -0.013237264 -0.06557205 0.01950234 0.07302547 -0.007986065 -0.11863075 0.028966017 0.010040188 -0.10367958 -0.025818802 -0.08788958 0.047915563 0.02862018 -0.090746514 -0.044603117 -0.12785572 0.057169363 -0.11738962 0.030403014 -0.11536538 0.07826165 -0.038390517 0.12856543 0.0753047 0.018411484 -0.003946632 -0.05525701 -0.10765009 0.096041925 -0.012059957 0.0103640985 -0.094495386 -0.14246157 -0.026832001 0.06258762 0.029610127 -0.12197531 -0.029552925 -0.036886815 0.09960675 -0.038765367 -0.016971039 -0.043052215 -9.898271e-05 0.06619368 0.040677954 -0.08707706 0.0256856 -0.064259365 -0.119152315 -0.02470531 0.11465392 0.048993677 -0.006543278 -0.14746575 0.025727581 0.0038559893 0.05007695 -0.0030744257 0.0058616153 -0.024867719 -0.13832216 -0.050793305 0.007427283 0.059624493 0.122129254 -0.1760159
8339:TULSA_AVE 0.05175141 0.023916291 -0.07572948 -0.0030767992 0.060757853 -0.024265166 0.16083276 -0.017702024 0.026371097 -0.08002752 -0.04978267 -0.025392395 0.048422676 0.119087204 -0.051129285 -0.008454805 0.004004638 -0.024831858 0.0762788 -0.019942578 0.011752116 0.033909984 0.09988007 -0.12745535 0.015941711 0.031960256 0.04742731 -0.05065705 -0.026834039 0.050604217 0.16250673 -0.0111391395 0.050643947 0.024551604 0.03500486 0.023143645 -0.03339936 0.111733355 0.01139842 0.0516116 0.0546289 0.019701932 -0.052570466 0.06058989 0.0026902207 -0.008302935 -0.016292276 0.048476275 -0.055657286 0.04672369 -0.10933642 -0.021044325 0.023039201 0.042282797 -0.06603794 -0.05982085 -0.0018614818 0.068977684 0.0255329 -0.047399793 -0.04009823 -0.01208698 -0.079028055 -0.014920115 -0.063644424 0.068290435 -0.014164469 -0.08531321 0.075820215 -0.0170638 0.011785052 -0.043814447 -0.07693238 0.04109809 0.105358124 -0.2062995 0.018813187 -0.15933481 0.09680685 -0.11516281 -0.06912984 -0.11863009 0.14181224 -0.10405086 0.12981206 0.047672022 -0.010149549 0.06310679 -0.028177826 -0.13436405 0.044781297 0.06334023 -0.015742742 -0.12333789 -0.06131172 -0.04404851 -0.03153582 0.016501283 -0.10318453 -0.014938103 -0.008928087 0.07867457 -0.018543102 -0.03730452 0.028132971 -0.039159663 0.04189644 0.063572764 -0.060408425 0.10774161 -0.045124542 -0.13200672 -0.0141205285 0.022524156 0.019813709 0.09724213 -0.088101216 0.03289966 0.1050125 -0.0038281046 -0.02092574 -0.063419096 -0.026956115 -0.16339359 0.015365022 0.042113204 0.048959382 0.039822225 -0.13045
7430:INGLEWOOD 0.104104154 -0.021271875 -0.037650444 0.0020523767 0.11285378 0.051427893 0.062446218 -0.12867023 -0.009105663 -0.101628385 -0.11254016 -0.03230417 0.1082262 0.071283564 -0.040388584 -0.07549264 -0.06800383 -0.08725914 0.025300995 -0.07304265 0.020193394 0.111631386 0.0076353643 -0.12400238 0.013774696 -0.013833532 0.050672922 0.041811205 0.0059047216 -0.046110902 0.14655805 -0.010288671 0.12604326 0.034533646 -0.0360677 0.0051339837 -0.07107849 0.16284926 0.062173303 -0.05551775 0.1663875 -0.06983533 0.019441525 0.012916716 -0.031775735 -0.05203845 0.03473335 0.049845133 0.004150482 0.08139947 -0.07689555 -0.013606223 0.0040766145 0.03266484 0.019004785 0.008718506 -0.023188515 0.029637098 0.096481994 0.017733505 -0.024750423 -0.08031841 0.042278357 -0.048176493 -0.0031199686 -0.022041842 -0.050107677 -0.038946565 0.012643615 -0.047689557 -0.13774018 -0.04383537 -0.115281835 0.029740568 -0.001892934 -0.19953471 0.078071944 -0.07081205 0.14622888 -0.11954846 -0.07090726 -0.07175777 0.06673124 -0.10380741 0.07949746 0.04527754 -0.0032594113 0.0004382999 0.0033988794 -0.13940552 0.008887357 -0.018874455 -0.08395033 -0.074201226 -0.017593239 -0.0849383 -0.043348778 -0.038917843 -0.1297646 0.0170928 -0.038432524 0.08508493 0.0660902 0.108358495 -0.057557214 -0.023624515 0.020809105 0.01922642 -0.05729972 0.060467232 -0.0415375 -0.050270822 -0.07317409 0.043179374 0.018701844 0.13168536 -0.019842897 -0.03221467 0.03581002 -0.025266346 0.12335215 0.0376051 0.06529359 -0.11204776 -0.07528027 0.006805057 0.05248139 0.07825306 -0.09277789
8654:MOORE 0.14474802 -0.01846789 -0.0011111425 -0.008501208 0.04316214 0.12114441 0.11140073 -0.04294928 -0.022325521 -0.048518103 -0.09777428 -0.022992393 0.014397156 0.10868212 -0.15700969 -0.062409606 7.559109e-05 -0.031099265 0.058559753 -0.023917645 0.007749418 -0.0062965928 0.04569592 -0.2610344 -0.0018755028 0.033117667 0.015978076 -0.011093752 0.04379738 -0.016880782 0.17333153 0.010349234 0.073427744 -0.062567 -0.09028211 0.0479682 -0.016791413 0.123408884 0.092497505 -0.016697222 0.079453126 -0.06726692 -0.0065410845 0.0013315139 -0.0023592128 -0.092855655 0.036298353 0.04376485 0.020310039 0.08642599 -0.049234822 -0.053335402 0.08847102 0.04172685 -0.013429754 0.022794403 -0.02305312 0.017515907 -0.014393232 -0.04554157 -0.042045645 -0.015816811 0.05412519 0.047116492 -0.016845053 0.061845776 -0.11000993 -0.03352341 0.13596794 0.03883442 -0.076801784 0.0843446 -0.046741832 0.06047268 -0.017841354 -0.17127526 0.005433723 -0.15804006 0.09420049 0.014201394 -0.035806257 -0.02854853 0.16410407 -0.13476339 0.06836739 0.107765645 0.039103266 0.044612538 0.025473647 -0.098787814 0.024546558 0.018629262 -0.010358815 -0.090533085 -0.085070446 -0.031592343 0.010263581 -0.055805996 -0.16503565 -0.00811194 -0.06028564 0.051667962 -0.053283945 0.024820037 -0.0067046275 0.09253597 0.0035121427 0.028455773 -0.060137544 0.08478307 -0.09915117 -0.14691457 -0.025372291 0.058506258 0.091433264 0.04354035 -0.05521814 -0.079418875 0.06590775 0.087960996 0.035988126 0.022065798 0.027692238 -0.12451711 -0.03159723 0.09137154 0.054031808 0.07836533 -0.08435505
5107:TOWER_HEIGHTS 0.12362187 -0.09885001 -0.04668202 -0.040529393 0.07037751 0.01913448 0.06292182 -0.03563915 0.0029133845 0.030461792 -0.113358304 -0.021348728 0.063700125 -0.028121546 -0.16837995 -0.01798679 -0.06297844 -0.014645926 0.026147665 -0.046497956 0.01942011 0.024895297 0.12153862 -0.16332461 0.022907805 0.0692746 -0.005086667 -0.007747518 0.005900579 0.09764546 0.12831685 -0.040289965 0.04745565 -0.037041157 -0.0185829 0.05934739 -0.013367057 0.10941746 0.023718508 0.03465055 0.07765558 -0.064960934 -0.05455605 -0.00977708 -0.02082844 0.003024914 0.09255507 0.033148468 -0.024617298 0.09032545 -0.03386974 -0.05048883 0.015466816 0.0354236 -0.04404495 0.020584263 0.006332494 0.013974062 -0.026158579 -0.01896601 0.035999227 -0.08491441 -0.029408023 -0.01413733 -0.080129586 0.10345772 -0.019512296 -0.10709119 0.0073168147 -0.094871506 -0.0725067 -0.042621896 -0.15881953 -0.0027059529 0.059653424 -0.15381624 0.029228788 -0.0901821 0.11062879 -0.12797888 -0.0892703 -0.11338163 0.1676266 -0.10892388 0.08952506 -0.0050802687 -0.00030536845 -0.043493308 0.04365979 -0.06923038 0.0004058157 0.010030925 0.04728519 -0.076622024 -0.03254226 -0.055337068 0.04028235 -0.024131238 -0.10655302 0.023857353 -0.01959312 0.08347867 0.051156573 0.0029943055 -0.04757803 -0.043469794 0.049088668 -0.022191247 -0.11261095 0.024288535 0.015253374 -0.12036525 0.0118806865 0.06649776 0.05643237 0.026221499 -0.13605143 0.034628224 0.131396 0.0052689384 -0.0037781813 0.037117977 -0.03582301 -0.06556648 5.3959873e-05 0.072418325 0.019588571 -0.0153745245 -0.21031593
7706:BRISTOW 0.0751115 -0.11468736 -0.04228661 -0.025757622 0.04306696 -0.02578806 0.04963344 0.0034743743 0.0205652 0.0044834027 -0.054772865 -0.01539967 0.06694534 0.07807625 -0.12440192 0.03441275 -0.0154112205 -0.021723034 0.100546986 0.0071699736 0.024088435 0.011752843 0.098571524 -0.13949937 -0.062316753 0.032884024 0.028308157 0.007697445 0.015208277 -0.035514962 0.13672799 -0.001471142 0.12903161 0.008256575 -0.0108253 -0.019094435 -0.060026955 0.11755688 0.042361096 0.07128605 0.094945334 -0.033688784 -0.057726514 -0.0032276313 -0.02424205 -0.09219219 0.049910735 0.04805002 -0.027379453 0.0481281 -0.053481832 -0.026928252 0.08632942 0.018649427 0.030835748 -0.03831924 0.00907878 -0.048541397 0.16860919 -0.051065583 -0.06505372 0.019099524 -0.055776976 -0.03253576 0.009898382 0.030082906 -0.07161158 0.0055154595 0.060639996 0.025128888 -0.07641884 0.021925826 -0.04690555 -0.016695017 0.10710062 -0.20847045 0.013819119 -0.16028585 0.05449206 -0.041273728 -0.11932086 -0.11878392 0.15268505 -0.13177702 0.088275075 0.0037249087 -0.062088408 0.007163296 0.062124144 -0.064904995 0.046693627 0.039514277 -0.03331764 -0.08215343 -0.027890036 -0.05293752 0.010457234 0.0167918 -0.10434918 0.019488461 -0.026597327 0.05999579 0.15964271 -0.039343126 0.0014431445 -0.041634608 0.063758664 0.025956271 -0.10184839 0.070153244 -0.039910305 -0.063102044 -0.058001466 0.08342038 -0.008365405 -0.011220625 -0.106471896 -0.021388311 0.054902673 0.019472683 0.032514136 0.028223697 -0.04340067 -0.1592176 -0.018938456 0.054543704 0.016942183 0.053842045 -0.11565493
5907:RUSSETT 0.11851626 -0.012799501 0.0022263925 -0.035702556 0.09575287 -0.008336866 0.075842 -0.0145956 0.009495695 -0.09329492 -0.14471295 -0.08248497 0.10277921 0.04643872 -0.055598356 -0.028857624 -0.0004775186 -0.099923104 0.13488643 0.0027408963 0.026479173 0.1012886 0.119454965 -0.18294518 -0.030819323 0.011870665 0.086756065 -0.051009417 0.0014329598 -0.029674605 0.09987171 -0.071436204 0.097727716 -0.01971011 0.052700758 0.025553342 -0.030441917 0.09495933 0.042863283 0.0085001895 0.06773947 -0.053794563 -0.101705424 -0.0074892305 0.018081756 0.036206283 0.09979529 0.04471196 -0.082390666 0.064524375 -0.060060725 0.014453751 0.06413407 0.0012407006 0.008370536 -0.0074866624 0.050934438 0.09923347 0.08708181 -0.0014815024 0.065343626 0.0043476773 -0.019462604 -0.013741505 -0.009112166 0.044019766 -0.041473445 -0.12198322 0.0034648622 -0.054144558 -0.0838782 0.029426396 -0.029321127 0.060115725 0.07299105 -0.14806096 -0.022113366 -0.15435621 0.07746845 -0.1189711 -0.055161126 -0.12585874 0.08301797 -0.09325509 0.1887734 0.05330616 0.07477045 -0.04002918 0.057420146 -0.050584614 0.04848018 0.002025882 0.011602999 -0.050876517 -0.07974542 0.07704483 0.07635564 0.046069674 -0.11131354 -0.018897617 -0.12944691 0.04116298 0.07685067 0.025987554 -0.06568046 -0.10746797 0.07480117 -0.049603723 -0.051489532 -0.002812257 -0.06403421 -0.14977802 -0.08102849 0.061755598 0.014564577 -0.004400282 -0.103287205 -0.026959999 0.009415845 -0.0084603075 -0.02425439 0.01782496 -0.013677783 -0.085479654 -0.06735199 0.13888638 0.12533784 -0.037053265 -0.12776005
8706:BOYD 0.06530906 -0.018622294 0.060214028 -0.02223075 0.0848857 0.0910275 0.0862618 -0.027133526 -0.036321852 -0.12522589 -0.023756796 -0.06616074 0.008407738 0.08332448 -0.1581259 0.018514883 0.031002663 -0.03608708 0.030837314 -0.0077453014 0.002773511 -0.014807765 0.06598721 -0.17784509 0.02379096 0.008343698 0.026524816 -0.08021231 0.028986506 -0.0049162908 0.13305876 0.05552887 0.10074495 0.062356114 -0.020000847 2.1244603e-05 0.025968585 0.09518111 0.053971168 -0.03054095 0.04650036 -0.092396244 0.056087952 -0.06303328 -0.11074042 -0.05575801 0.08014816 0.0035754042 -0.020637728 0.063992985 -0.007435917 -0.015532013 0.043343768 0.06542199 -0.01699484 -0.032999262 -0.05637384 0.010640239 0.0049797664 0.014143914 -0.0560262 -0.0062410175 -0.05067102 -0.014424812 -0.03405291 0.06842323 -0.050231062 -0.02272866 -0.00959265 0.028023304 -0.10217535 -0.0277627 -0.078480594 0.0156223085 0.08853729 -0.07856693 0.037210286 -0.07744618 0.16122457 -0.07359493 -0.13164735 -0.060855452 0.06729367 -0.12942433 0.26365185 0.031592857 0.0028403408 -0.013316199 -0.05319838 -0.10007032 0.08517997 0.0024875195 -0.03263884 -0.07561186 -0.038648803 -0.08543575 0.073637985 -0.0035139825 -0.081815794 -0.048198834 -0.01596632 0.1290949 -0.056101825 0.038652305 -0.028503148 -0.06896182 0.040566582 -0.04658239 -0.12172007 0.059073538 -0.1310415 -0.08206034 0.05391529 0.05266135 0.02687756 -0.03691587 -0.011052269 -0.027519317 0.074953996 0.09039282 0.10964848 -0.048584048 0.0015431287 -0.062351182 -0.037390586 0.04482116 0.07320569 0.10661591 -0.09113054
8359:YUKON 0.07814605 -0.06746888 -0.024550099 -0.0022387533 0.03635931 -0.100060984 0.13747 0.045556482 0.0011643423 -0.028784338 -0.07744585 -0.035893794 0.010063316 0.047972403 -0.109165095 -0.008875788 -0.019529425 -0.04647196 0.0957345 -0.043210596 0.029231217 0.017483883 0.08034094 -0.14177723 0.018226668 0.011749948 0.12305977 -0.03559894 0.037633598 0.025395734 0.14187565 0.05493194 0.1138987 0.037394248 -0.031660102 -0.028325997 0.012930867 0.10650279 -0.009429694 0.016858933 0.15256721 -0.047747113 -0.030112423 0.028358644 -0.11056329 -0.062850714 0.042163834 0.052819487 -0.07498152 0.020429377 -0.04779662 0.03177859 0.056902707 0.04529347 -0.02761492 0.037393395 0.020574845 0.023847142 0.09733893 -0.061536647 -0.07036707 -0.033842888 -0.059446488 0.02265294 -0.01212589 0.048786625 -0.025059542 -0.0010605498 -0.030465672 -0.02916898 -0.115412176 -0.06053018 -0.07703185 -0.020863028 0.1018677 -0.20836784 0.03822687 -0.08904099 0.07000916 -0.013661357 -0.05757436 -0.09650456 0.09834249 -0.05670553 0.14496642 -0.009556236 0.12842722 0.034992624 0.06957865 -0.13037108 0.03544728 0.06942555 -0.08328423 -0.05725917 -0.08302172 -0.019433368 0.020620756 0.016094109 -0.12274611 0.038410287 0.017836101 0.0383811 -0.006988935 0.01112433 0.025712486 -0.04033469 0.14701287 0.08008366 0.023524033 0.002430463 -0.11612827 -0.14875375 -0.081655264 0.09905315 0.07526479 0.0106316265 -0.15194681 -0.060454663 0.07552902 0.033764485 -0.022219835 0.0062214783 0.00084959785 -0.10109545 0.0032888136 0.048056193 0.07731592 0.0395996 -0.08426977
8360:WOODLAWN 0.11702547 -0.055411 -0.04574055 -0.036664132 0.029257655 -0.0030547322 0.08653616 0.0147214485 0.014230803 -0.022055492 -0.10123837 -0.05811169 0.031243237 0.032580145 -0.11683813 -0.06338976 -0.018489081 -0.0052616172 0.090991504 -0.09783399 0.08361863 0.03328475 0.15829271 -0.12874089 -0.04266238 -0.047043856 -0.00066012645 0.07084174 0.02309506 -0.02619208 0.15252376 0.048727117 0.14370501 -0.018228348 -0.0041809385 -0.013760269 0.016116437 0.123339646 -0.017879447 0.10805934 0.06978067 -0.07016276 0.013722829 -0.013162126 -0.0211098 -0.0240079 0.020011649 0.048493005 -0.026329879 0.05050839 -0.04428774 -0.035435252 0.07550561 0.05820645 -0.047881097 0.007119334 -0.047323544 0.0030547846 0.01594701 -0.016932987 0.0092327995 -0.049455624 -0.0143894125 -0.037204627 0.0065896004 0.04460683 -0.035616785 -0.085889734 0.09498913 0.010104442 -0.10038644 -0.021310713 -0.047273558 0.0017981861 0.088692255 -0.20975457 0.068117686 -0.1274098 0.080311626 -0.14554924 0.02075596 -0.06894073 0.0808899 -0.046627443 0.14815211 0.06424675 0.005787755 0.066594705 -0.009115344 -0.10536046 0.004412423 -0.026973499 -0.0041622403 -0.06457995 -0.06723733 -0.11463414 0.092612796 0.017921664 -0.14833924 -0.03644617 0.1126579 0.026845833 0.017077811 0.01738584 -0.09371209 -0.082214825 0.07927409 0.016339201 -0.0044098594 0.051703054 -0.13019608 -0.10654149 0.0012447718 0.017346108 0.10460631 0.021871345 -0.054485522 0.03440897 0.032749206 0.00029013783 0.026650341 0.026019631 -0.031459868 -0.12588954 -0.05438444 -0.04721563 0.052315302 0.097745255 -0.23243424
8352:QUAIL_CREEK 0.07669162 -0.06296708 -0.078882 0.05035112 0.03801701 -0.07782056 0.096242666 -0.009939909 -0.04087261 0.039570715 -0.028914688 -0.10528505 0.07101031 0.10614785 -0.15793692 -0.054173496 0.030487007 -0.02600908 0.053029772 -0.0067202514 -0.01332159 0.008178527 0.07135242 -0.18749346 0.014976851 -0.014482716 0.06653259 -0.019597534 -0.002842795 0.037215315 0.14288037 0.009470111 0.09613548 -0.0073439786 -0.040116876 0.02651059 -0.054253753 0.11461115 -0.03966141 0.030436164 0.14433406 -0.060642388 0.02275089 -0.043510985 0.016268365 0.03740521 0.109424725 -0.048630767 -0.06567982 0.055752292 -0.13145982 0.07826256 0.01996921 0.05875139 0.0010253704 0.031291123 0.024584163 0.020858064 0.05312747 -0.026893212 0.034391534 -0.098822616 -0.00074757315 -0.06316079 -0.043532077 0.015429089 -0.03495158 -0.053024694 0.068676256 0.052683625 -0.061499085 -0.05870284 -0.084938884 0.050442323 0.08341749 -0.18225919 -0.06431443 -0.045225263 0.14049204 -0.07876709 -0.05233147 -0.12941939 0.11452104 -0.14331076 0.13722755 0.01217711 0.12828071 0.021257326 -0.03768818 -0.0991276 0.12305691 0.05138605 -0.07989963 -0.029213129 -0.14574748 0.0139516005 0.0072261477 0.06302105 -0.12955719 -0.011837139 -0.058767457 0.07878583 0.027426124 -0.03467613 -0.033072032 -0.0067664958 0.105958015 0.0106424205 -0.08715127 -0.053823385 -0.0702031 -0.01513928 -0.12668361 0.014252869 0.07040082 -0.02247408 -0.04724706 -0.011665199 0.11749411 0.03235707 0.0039383024 -0.008255862 0.012208112 -0.08732606 0.021836456 -0.024777085 0.07636017 0.123430364 -0.041619413
5305:HEALDTON 0.053740975 -0.043786336 -0.09898909 -0.050609536 0.114914276 0.021767918 0.07321524 0.003045394 -0.035648182 -0.021499354 -0.032687455 -0.031875856 0.059797138 0.01811633 -0.17905124 -0.0044912985 -0.01569232 -0.016856017 0.03985904 -0.066206865 -0.005643469 0.057287946 0.06433547 -0.1292122 0.017729057 0.008739499 -0.00071619323 0.019669488 0.053754315 0.038489345 0.1274677 0.023522086 0.021599844 0.0056994306 0.028478209 0.005831102 -0.094745174 0.10329235 0.011207787 -0.07221671 0.029878026 -0.13129325 0.020720415 -0.046169646 -0.042827357 -0.03725511 0.0501294 0.08856867 -0.012373699 0.018842258 0.021842368 -0.047962993 0.07842347 0.11072191 -0.086136766 -0.096670605 0.061323326 0.027558524 0.056604132 0.04542866 -0.032929096 -0.01687115 -0.054547295 -0.043935876 0.02357123 0.06973819 0.00722385 -0.08050949 -0.011091792 -0.00838292 -0.16054656 -0.042437863 -0.05072794 -0.025921473 0.08604496 -0.2001043 0.05241734 -0.09088817 0.12400015 -0.04083369 0.014422881 -0.12276684 0.11564493 -0.07615312 0.13178863 0.019445091 -0.021494012 0.026654454 0.028489362 -0.13296846 0.0654395 0.027972087 -0.0059277434 -0.045242157 -0.051551312 -0.08614795 -0.01395584 0.0075135455 -0.1989344 -0.0060116877 -0.0038177082 -0.007789055 0.050021518 -0.032071535 0.08667618 -0.06608962 0.07168165 -0.011422808 -0.0055491095 0.07347885 -0.044629242 -0.081770465 -0.07902876 0.013191393 0.04489753 0.02131222 -0.05748586 0.0040879613 0.13971412 0.045307506 0.008661556 0.052183785 0.019297691 -0.19785206 -0.013570237 0.09198723 0.08407105 0.0824954 -0.14961733
4106:HEMLOCK 0.15624309 -0.051212173 -0.046029184 -0.0034286976 0.104256764 0.0396392 0.12008332 -0.013550117 -0.091213726 -0.069932304 -0.07428217 -0.02301284 0.05431163 -0.029205397 -0.10754393 -0.031129071 0.0071067447 -0.07205351 0.18631758 -0.10532776 0.045295604 0.07809789 0.11767774 -0.17038539 -0.086429074 0.0155375255 0.07351571 -0.016171867 0.02695672 -0.025409764 0.096572556 -0.014537539 0.08082155 -0.05639229 0.004364807 -0.0067796395 -0.092178814 0.07751337 0.0076830476 -0.032588 0.11613289 -0.05350765 -0.10145867 -0.056412105 -0.09952037 -0.04321952 0.015655382 0.053219005 0.034606345 0.15562002 -0.11825474 0.0018672696 0.0277536 0.13383444 0.011770482 -0.01045492 0.029881977 -0.062088735 -0.029240072 0.013264698 -0.09775691 -0.037877817 -0.04398297 -0.061888676 -0.026587244 0.018511305 -0.015296197 -0.06800372 -0.04931508 -0.019967774 -0.08468293 -0.039769772 -0.021566512 0.10830567 0.07700512 -0.09735001 0.03248487 -0.060957253 0.094505705 -0.12501182 -0.04930578 -0.08537122 0.105763175 -0.04485063 0.13167556 0.051889148 -0.014621491 0.03067257 0.107701056 -0.091011524 0.07546592 0.06503994 -0.019237917 -0.1082747 -0.03950319 -0.086734526 0.023710566 0.009725285 -0.049638394 -0.08015846 -0.02200965 0.062129166 0.042535603 0.045296628 -0.008970356 -0.032176286 0.04619532 0.13628218 -0.042375293 0.050596576 -0.0943521 -0.08984536 -0.0013422533 0.105999574 0.055878166 0.11282087 -0.013258208 0.06346284 0.06956367 0.017877592 -0.034288578 -0.0043495614 0.045286838 -0.013131218 -0.014237785 0.016165484 0.1503303 0.034738973 -0.08270614
8626:TROSPER 0.06090495 -0.010110889 -0.056843232 0.02669176 0.11606183 -0.009221164 0.114982285 -0.0773465 -0.08683963 -0.047419515 -0.097599775 -0.084237024 0.07817559 -0.04397796 -0.10303375 -0.0014695233 -0.0006190407 0.013424238 0.058449745 0.0010738034 0.08136061 0.10296732 0.042329274 -0.1141807 0.015208352 -0.0141725615 0.10703763 -0.10868861 0.014740126 0.00070663966 0.16993286 0.085130595 0.049331244 -0.014007385 -0.031678922 -0.028535105 -0.031443868 0.041322544 0.009130934 0.027152283 0.03877109 -0.053898312 -0.029076653 0.064046346 -0.032723296 -0.08083582 0.053604364 0.053301916 0.006756355 0.08673494 -0.08063663 0.0047295284 0.05734048 0.06597459 0.027443238 0.021809457 -0.01676143 0.034150466 0.09973991 0.018682059 -0.059438437 -0.035779454 -0.0037386192 -0.0713198 0.009964308 -0.00041086433 -0.013591557 -0.048407275 0.025703581 -0.03537803 -0.11392254 -0.035351034 -0.034963574 0.030438263 0.08034302 -0.143764 0.06129923 -0.18096046 0.10954889 -0.1967321 -0.06085635 -0.11903221 0.022268752 -0.12148515 0.08818618 0.0071820687 -0.03787317 -0.040213957 -0.045812014 -0.17927489 0.11158764 0.05649593 -0.08655573 -0.044694822 -0.05037728 -0.031737477 0.006052761 0.041765254 -0.08755168 -0.016421683 -0.06919379 0.11813282 0.035268728 -0.010680241 0.008189268 0.024235314 0.059220448 0.010232019 0.017943675 -0.019072955 -0.007168696 -0.071507104 -0.030455928 0.028390506 0.032598164 0.05315734 -0.065318465 0.033344083 0.13017781 0.04287777 -0.100631036 -0.022514455 0.06106334 -0.14644279 -0.10285706 -0.010868148 0.029342948 0.04927113 -0.11197372
5125:LONE_GROVE 0.03186437 -0.03290682 -0.026455076 0.13922015 0.07427946 0.0180546 0.053259455 -0.039207254 -0.003323137 -0.10204095 -0.054819826 -0.04227385 0.052336115 0.061556634 -0.12931581 -0.024746764 0.06549151 -0.024234436 0.056499496 -0.005320806 0.04717039 0.060639437 0.07649511 -0.18189599 -0.067569114 -0.018184753 0.053194053 -0.07459279 0.0023815492 0.07053851 0.10571379 0.032840256 0.10960002 -0.028756157 -0.028305426 -0.069859974 -0.036357284 0.083465025 -0.07608035 0.002927233 0.0934529 -0.021656383 -0.016587887 -0.001529254 -0.032600276 0.010692069 0.016832422 -0.019693546 -0.13695876 0.0810304 -0.028795905 -0.003531786 0.052747265 0.07338205 -0.07644464 -0.02327005 -0.013130249 0.066381015 0.15970382 -0.016113464 0.005210456 0.033418234 -0.08590199 -0.032747995 0.017322946 0.10457311 -0.050128 -0.040778637 0.08211848 -0.063527144 -0.13409191 -0.018919233 -0.10146886 -0.013297466 0.14924303 -0.16878504 0.05692368 -0.10469581 0.027923929 -0.12694782 -0.09018055 -0.11080747 0.13538377 -0.024968535 0.09254862 0.0062039657 0.02579536 0.051091775 -0.052247033 -0.11266945 0.04323506 0.01717593 0.038346328 -0.065297976 -0.070655406 -0.11030303 0.024874281 -0.029261097 -0.13625945 -0.0322006 -0.007822645 0.09218119 0.024046797 0.02577341 0.06317297 -0.08054732 0.07472693 0.0045228344 -0.010705084 -0.00062374887 -0.07241342 -0.056473196 -0.048346933 0.030006213 0.027164139 0.02962364 -0.063097976 0.022882884 0.052493144 0.010643215 -0.05332643 -0.0036263722 -0.024618553 -0.19204423 -0.072516955 -0.0019641274 0.14480354 0.024279157 -0.08958288
8398:CHISHOLM_CREEK 0.13952011 -0.060300447 -0.042158253 0.00652212 0.08001072 0.050050665 0.09695692 0.06898491 -0.0350065 -0.0092025595 -0.14341913 -0.03254803 0.03497178 0.058141727 -0.14264281 -0.043957908 0.034489438 0.08123204 0.06933473 -0.065850146 -0.01430444 0.07270107 0.04305319 -0.11311518 0.04141974 0.00543949 0.043404456 -0.08897638 0.03599377 0.0589385 0.17587197 -0.009761441 0.05950459 -0.011753954 0.014907614 0.017174706 -0.09888984 0.07703812 0.09700916 0.005787946 0.09777063 -0.04312911 -0.054942265 0.012756544 -0.06515619 -0.055559315 0.0050159013 0.090539604 -0.02540288 0.0303685 -0.06895672 0.0027694497 0.061805762 0.04438461 0.014190416 -0.0005362492 -0.06336402 -0.010642048 0.0088779945 -0.039378475 -0.08176613 0.011998867 -0.018594628 0.01065285 0.0076703257 0.011676979 -0.054655433 -0.038667362 0.10680513 0.025959859 -0.08919511 -0.011497108 -0.024190864 0.064773895 0.13767298 -0.15207563 0.06231605 -0.0063426364 0.08865587 -0.1301771 -0.044803157 -0.13565537 0.16761804 -0.1817103 0.10330448 -0.016888069 -0.020933673 0.021234378 0.025661068 -0.069307685 -0.022323528 0.029018873 0.026287386 -0.09027409 -0.08158053 -0.0453892 0.10609271 0.059764575 -0.114674814 -0.015832 -0.011645496 0.04273824 0.12042957 -0.008118189 0.023342755 -0.058070876 -0.0025795586 0.026818171 -0.05699284 0.019645197 0.0017243735 -0.013318174 0.022579601 0.12815283 0.070528865 0.014121494 -0.123258874 -0.012807516 0.11783521 -0.0046361582 0.067576855 -0.022304159 -0.009062868 -0.080885835 -0.15895498 0.15861696 0.054496817 0.07406712 -0.118875675
8620:LIGHTNING_CR 0.050435424 -0.054226134 0.0055094957 0.051881354 0.06777302 -0.0016345372 0.066854775 -0.023842638 0.016520489 -0.0335644 -0.093104884 -0.05836295 0.08434495 -0.034214456 -0.10921221 -0.0013457566 0.009302737 -0.024280045 0.08738607 -0.028107049 0.021783845 0.06333437 0.08429999 -0.12240716 -0.04877831 0.060519625 0.024808438 -0.023027353 -0.051695477 0.0012163678 0.21192603 0.012110812 0.06687412 -0.020779008 0.08893534 -0.027906865 -0.02128179 0.075197525 -0.008047928 -0.0434823 0.14649639 -0.037858807 0.034395996 -0.010037272 -0.017477548 -0.035685077 -0.013703228 0.00080190995 -0.045738477 -0.007273525 -0.10790534 0.033404224 0.11203809 0.08192456 0.015872661 -0.0030543783 0.026111284 0.030399956 0.11152659 -0.017923348 -0.025765797 0.09159547 0.07573075 -0.0485468 -0.033076525 -0.0056932257 -0.077096924 -0.033698685 0.04134619 -0.013054386 -0.09117901 -0.020012364 -0.105008446 0.02400134 0.006758765 -0.09093296 0.032845516 -0.11384132 0.058824636 -0.11318345 -0.0821792 -0.014064273 0.084898114 -0.1317051 0.106923744 0.07037278 -0.014389384 -0.02217023 0.05495022 -0.1229723 0.11734749 0.015208841 -0.039995603 -0.1690932 0.010068456 -0.043377265 0.12548116 -0.035414908 -0.10916414 0.0020646367 0.035377968 0.09101832 0.029940518 -0.0036574486 -0.012431757 -0.014026638 -0.012782365 -0.06463331 -0.07727899 0.015640879 -0.055758696 -0.101848446 -0.01064924 -0.017286444 -0.011343982 0.05988262 -0.124446526 0.08785721 0.1683296 0.068894304 0.020153496 0.00012585538 -0.010486768 -0.17656177 -0.034309987 0.070255354 0.01694158 0.025974557 -0.13066688
8141:SAGE 0.06485864 -0.037259884 0.0045846514 -0.044113453 0.03526882 -0.0014354833 0.060291756 -0.04080543 0.036030896 0.006700596 -0.13528998 -0.13075298 0.09624029 0.115544274 -0.096252576 -0.06976708 -0.03119686 -0.09514923 0.091353476 -0.0127855465 0.09034403 0.04685308 0.09052307 -0.18942545 -0.022390528 -0.07399859 0.010852878 -0.025021253 0.030432802 -0.07693124 0.16200523 -0.04578051 0.14074048 -0.0208243 -0.04809116 -0.053463075 -0.021418046 0.13877594 0.016402027 -0.067652166 0.06865821 0.012579572 -0.03410874 -0.015299794 -0.0031553975 0.062481947 -0.009650131 -0.010150685 -0.078753375 0.15418822 -0.0749906 0.016389877 0.028690275 -0.0044202143 -0.017231733 -0.028700193 0.030883284 0.0918925 0.0473307 -0.021575317 -0.045714512 -0.02617419 -0.05043452 -0.017492952 -0.051969655 0.03804927 -0.06550971 -0.0081030335 0.0063684406 -0.041151617 -0.10178835 -0.093391955 -0.020784637 0.016144272 0.086936966 -0.17339489 -0.02030592 -0.08385494 0.059584737 -0.10920981 -0.023163777 -0.09446662 0.14398792 -0.065301664 0.1013133 0.002196217 0.057651456 0.008471405 0.0042177914 -0.060341265 0.07272371 0.104464605 -0.036787476 -0.09480299 -0.035551254 0.030261455 -0.0028505048 -0.08529737 -0.062023364 -0.03116037 0.005119386 0.08311341 0.0067644278 0.03247102 0.0040146513 -0.0022249054 0.073545806 0.022270044 -0.11018491 0.14502169 -0.004813746 -0.067604594 -0.04876866 0.025671484 0.026575942 0.035902046 -0.12560165 0.057493642 0.21007869 0.012449723 -0.026088277 -0.07137452 0.025426503 -0.16782197 -0.038274165 -0.029108379 0.086520165 0.021312416 -0.09627005
5816:PARK_LANE -0.0008653407 -0.057160538 -0.101815164 0.029476091 0.058596987 -0.009418471 0.0888571 -0.05456866 -0.017721314 -0.027714008 -0.08184617 -0.009518192 0.1351847 0.022742309 -0.10869071 -0.10819797 0.011262478 -0.028975312 0.021827124 -0.008346654 -0.06499374 0.059425738 0.006391329 -0.1694404 -0.03295394 -0.046836738 0.092590995 -0.08400506 0.014622952 0.025061458 0.14792396 0.0075065615 0.052969743 -0.06522206 0.02128309 0.07816212 -0.03487787 0.10443829 0.083057985 -0.009481517 0.07726557 -0.015707562 0.001074049 0.04919441 -0.02458438 -0.027318064 0.07867684 0.039286476 -0.013442064 0.026545836 -0.13020945 0.07565797 0.07393847 0.066854306 0.027266515 -0.021957034 0.04702256 0.11473846 0.12024708 -0.012810864 -0.09124388 -0.0072395103 -0.026292788 -0.07839861 0.003859752 0.010545297 -0.09660709 -0.08621492 0.085426845 -0.054493565 -0.11327995 -0.026718613 -0.03752615 0.011435829 0.013964737 -0.067589074 0.007429929 -0.11013369 0.18604015 -0.09018808 -0.124925405 -0.073655084 0.09827487 -0.023458745 0.13569975 0.032587975 0.057768192 -0.10771705 -0.009533855 -0.10106797 -0.053537447 -0.0070043975 -0.05256483 -0.023376036 -0.059522595 -0.069940954 0.11615214 -0.07525463 -0.08548648 0.0005271675 -0.058210626 0.016323738 0.055855766 -0.020997047 0.09722623 -0.07452463 0.07854742 0.04678179 -0.13706377 0.11026329 -0.088059425 -0.101585135 -0.044931144 0.04235018 0.043809887 0.011469366 -0.05748998 -0.022073584 0.12476031 0.04312634 0.06131212 0.038805123 0.046502758 -0.0996165 -0.060900472 0.028672397 0.054089677 0.07736622 -0.054382667
5104:FOUNDATION 0.12738338 -0.09057378 -0.04729378 0.004949279 0.062853396 0.0086204205 0.14808518 0.00068734156 -0.020209415 -0.07462489 -0.121405184 -0.04098898 0.040406443 0.053207085 -0.15716782 -0.029465945 0.039058268 -0.038796805 0.041982695 0.037645873 -0.033052254 0.016401196 0.090172894 -0.17079167 0.026089855 0.03792249 0.027319923 -0.04619372 -0.041532405 0.026274027 0.14127754 0.05082423 0.091867924 0.005443578 -0.066256456 -0.0144653525 -0.07131114 0.12947944 0.05028105 0.050760362 0.087274574 -0.08911346 -0.06967098 -0.017284863 -0.10013667 0.011793687 0.05264742 0.058050327 -0.0046348367 0.0738444 -0.09070954 0.05476319 0.07223064 -0.0058651133 -0.046727635 -0.030258112 0.00040895434 0.01115935 -0.018644387 -0.08827576 -0.07627127 0.018878661 -0.07219785 0.026013533 -0.055638567 0.07039924 -0.08156497 -0.08419686 0.047400378 0.0013507354 -0.047032993 -0.13062997 -0.14433795 0.042320125 0.0104640415 -0.18201731 0.04003155 -0.0760395 0.13479906 -0.0077713286 0.004357615 -0.13852057 0.08083856 -0.042606086 0.056676876 -0.06707242 -0.046363134 0.058037266 0.02503769 -0.053762317 0.008125697 0.024592558 -0.04714095 -0.037577458 -0.13168998 -0.06423863 -0.017706843 -0.015514541 -0.09887952 0.032379065 -0.03950538 0.07467166 -0.0077592162 0.018357769 -0.022955291 -0.01448877 0.03980269 0.09188311 -0.112025246 0.0634296 -0.06509104 -0.12787613 -0.031012446 0.034203254 -0.05796622 0.05069326 -0.05606235 0.0036787125 0.113144174 -0.018080529 -0.015389668 0.04797014 -0.011464351 -0.10551688 -0.051312 0.102590285 0.048030566 0.069443524 -0.08858089
8209:CLASSEN 0.14829922 -0.0360415 -0.018702852 -0.0021373394 0.059599727 0.020954276 0.09978257 -0.1022171 -0.03187302 -0.08980465 -0.05649469 -0.12390604 0.18569554 0.08478288 -0.05000537 -0.08110335 -0.01651168 -0.06200005 0.12294882 -0.072355404 0.12513287 0.09785064 0.07904889 -0.12510312 -0.017257202 0.072147585 0.0025533508 -0.009764245 0.057505786 0.010827388 0.24200605 -0.036921095 0.088190734 0.06791754 -0.04007879 0.011804067 -0.010513486 0.08118821 0.0042294273 -0.026722418 0.08650048 -0.09981262 -0.025431752 -0.03872568 -0.0131187085 -0.09006076 0.0058728633 0.027249817 -0.011891695 0.05745342 -0.012859222 0.06468693 0.081095494 0.03228093 0.04031681 0.028079549 0.0011738318 0.034982853 -0.025017144 -0.06460428 -0.025741903 0.0023223164 -0.003532748 -0.016469056 0.008209425 0.09394065 -0.12390346 -0.057264887 0.09525687 0.086181745 -0.08840474 0.012598333 -0.042122904 -0.032560527 0.06606273 -0.117295325 0.0077209813 -0.10162989 0.14143799 -0.09955602 -0.09188496 -0.068248965 0.050842907 -0.054709267 0.049764168 0.08967775 -0.050756846 0.087931596 -0.040737677 -0.11262389 -0.007807554 0.0033945902 -0.0958376 -0.14009425 -0.10383297 -0.08759668 -0.022706611 0.04270856 -0.06528989 0.034573954 0.0047400505 0.062091623 -0.0063550044 -0.021884924 0.021763029 -0.0197731 0.009699967 0.031948168 -0.00018629129 0.02771519 -0.07238758 -0.1601937 -0.0069235596 0.04941203 0.003504304 0.01519581 -0.103638425 0.018861776 0.10410552 -0.01871489 0.0934315 -0.0700472 0.038784035 -0.100467235 -0.07401327 0.06289044 0.05374261 0.05648234 -0.1525519
