3109:HONOR_HEIGHTS,-0.14005096,-0.12818879,-0.1517854,0.51469606,-0.016850011,-0.16030198,0.03732726,0.31847018,-0.10156484,0.12581502,0.08199173,0.002623583,0.2331259,0.15506911,0.021711156,-0.053474344,-0.0875387,-0.07558682,-0.26493096,0.03783436,0.1654399,-0.025774496,-0.17054209,-0.4582863,0.11720353,0.020028818,0.12123368,0.3292845,-0.18088773,0.02679761,-0.28077292,0.07616624,0.4566589,-0.3079349,-0.112846516,-0.023503376,-0.33814013,-0.66254693,0.5562465,-0.07365919,-0.40245342,0.06907325,-0.4908509,-0.313223,-0.17044894,-0.06294581,-0.035458006,0.02259294,-0.46365714,-0.7276752,-0.22767888,-0.80293,-0.17242426,-0.105799325,0.36257276,-0.15714929,-0.13567245,0.08245421,-0.21924894,-0.46447873,0.6070189,-0.21992214,0.39847398,-0.23118754,-0.24729297,0.4610452,-0.6517314,-0.117948204,0.4828861,0.37632173,-0.3881692,-0.0967662,0.5606071,0.7298119,0.5330065,-0.5238871,-0.16793923,0.18940732,0.2024695,-0.5736407,0.26514655,-0.19260508,0.2305264,0.06577771,0.61018616,0.5540474,-0.5302007,-0.08230278,0.091468446,-0.16411461,0.1510911,-0.026333062,-0.09191106,0.6134012,0.17921266,0.41600057,-0.041009713,0.055274114,-0.43087378,-0.007366828,0.26208493,-0.2260803,0.08132723,0.07714438,0.33511215,0.108330056,-0.20937505,0.20466168,0.4183109,-0.01684325,0.13917924,-0.026250223,-0.13721178,0.15641187,-0.093349844,0.028993953,-0.12765369,0.1557245,0.024663461,-0.07414649,-0.23225288,-0.107892506,-0.14306788,0.2394049,0.1415181,-0.23017697,-0.019577254,0.21810032
3110:RIVERSIDE,-0.16147453,-0.1525513,-0.20098366,0.55813754,0.015578173,-0.21873873,0.053160336,0.38353744,-0.07538624,0.16817278,0.067307435,0.009555217,0.26164696,0.15507865,0.12632644,0.022723757,-0.056322552,-0.15109092,-0.16919231,0.036493037,0.11640484,0.024095573,-0.0945845,-0.4273075,0.10816168,0.008770504,0.30202484,0.2778973,-0.21386349,0.0109768715,-0.24656518,-0.046762213,0.43383598,-0.3548641,-0.111657634,-0.06939769,-0.28277764,-0.666352,0.4119426,-0.10152419,-0.3652977,-0.003909893,-0.4359906,-0.32761952,-0.23866433,0.0103326,0.009562714,-0.014755603,-0.5123537,-0.7095604,-0.15864249,-0.76545477,-0.20247677,-0.114902265,0.33773994,-0.13281417,-0.08081042,0.079918034,-0.1725953,-0.4468043,0.46530896,-0.19641995,0.478208,-0.22590443,-0.26434684,0.50591093,-0.6978914,-0.0693215,0.48747098,0.50535,-0.50845635,-0.079009585,0.61968464,0.82789433,0.50437635,-0.5757309,-0.113934875,0.2328188,0.2464199,-0.6042329,0.18437931,-0.18560736,0.22031191,0.09239632,0.60114187,0.41905245,-0.410354,-0.04061393,0.026522776,-0.17150483,0.096277036,-0.0323301,-0.056487508,0.6125699,0.21467344,0.46343336,-0.07177128,0.09090201,-0.49820265,0.039957892,0.36444548,-0.16791981,0.011214285,0.08276712,0.36079934,0.1548732,-0.24000162,0.22820549,0.37548727,-0.053164233,0.11369483,-0.035810668,-0.11687359,0.041154027,-0.17701991,0.051470637,-0.17945176,0.16783427,-0.040610243,-0.119917095,-0.22470163,-0.1519619,-0.20452769,0.208368,0.18348362,-0.19525068,0.09925434,0.18326718
3111:FIVE_TRIBES,-0.14516698,-0.20598646,-0.18308169,0.5620175,-0.026624598,-0.21026646,0.06704646,0.3650181,-0.07552969,0.20277843,0.06910531,0.05251772,0.24369541,0.15522279,0.10830922,0.052190047,-0.053744595,-0.14191788,-0.16039677,0.03990634,0.13638297,0.014327697,-0.07430644,-0.36788267,0.08876885,0.059795678,0.2812509,0.2884916,-0.17373313,-0.014561324,-0.24129473,-0.058791317,0.44703686,-0.31884053,-0.15797012,-0.07343783,-0.27653265,-0.69994813,0.36529118,-0.060610477,-0.34489584,0.073039204,-0.42871243,-0.29140726,-0.19997557,0.008603662,-0.04574872,0.0367413,-0.5580236,-0.77023464,-0.23239662,-0.8438457,-0.1395657,-0.09276924,0.40623736,-0.18838121,-0.097040735,0.08832691,-0.19938761,-0.5078387,0.5156868,-0.24256268,0.5288549,-0.2712112,-0.26985782,0.5126363,-0.6980674,-0.110367075,0.4874855,0.45996544,-0.42221218,-0.12773225,0.53582877,0.79304224,0.43449318,-0.51841867,-0.14812599,0.26591662,0.23874162,-0.6150618,0.20289806,-0.21127479,0.2750128,0.0708216,0.66821635,0.45820725,-0.44345427,-0.027546303,0.028969511,-0.10945609,0.13077928,-0.075845115,-0.030530429,0.57264477,0.14647305,0.5367085,-0.08710698,0.056250803,-0.39677936,0.05064451,0.39904037,-0.16006641,0.10820897,0.07495508,0.35556218,0.13181205,-0.20224492,0.18940713,0.31720096,-0.03434698,0.084108405,-0.04671976,-0.09381238,0.06030765,-0.13676031,0.085697316,-0.13241607,0.20950912,-0.04996096,-0.1439738,-0.24211107,-0.046048485,-0.13455234,0.14935301,0.16919638,-0.1811337,0.05307189,0.19054772
3114:TENNYSON,-0.16535726,-0.093263514,-0.20383686,0.4761212,0.07164324,-0.17063595,0.12088883,0.3223077,-0.18261081,0.20421897,0.1087334,0.01748813,0.29603878,0.1512319,0.078938626,-0.011890214,-0.05110968,-0.12548411,-0.17447485,0.07736544,0.14184573,-0.036797814,-0.13679145,-0.47717613,0.060309596,0.010539267,0.22838202,0.2702235,-0.19773908,0.091730975,-0.22657783,0.032899458,0.46171916,-0.28075725,-0.16928512,-0.04146479,-0.33688888,-0.68187946,0.5661726,-0.12432179,-0.39667773,-0.011639268,-0.4084572,-0.32153285,-0.20346363,-0.03860082,0.061040025,0.054973267,-0.46380612,-0.6411977,-0.21457802,-0.82254386,-0.22493577,-0.08750495,0.347891,-0.13794777,-0.08370562,0.06717542,-0.18724097,-0.47340378,0.5703165,-0.17144324,0.48815164,-0.2724225,-0.27676773,0.49038914,-0.6182766,-0.155663,0.44832116,0.41339138,-0.4029473,-0.1024567,0.42930034,0.6844727,0.504499,-0.5316266,-0.06262524,0.17823856,0.20194227,-0.6009635,0.29032025,-0.24111979,0.25887185,0.07107609,0.6578316,0.4955603,-0.5971247,-0.018065268,0.027184865,-0.21233864,0.15221667,-0.10415783,-0.14139478,0.5755155,0.15161169,0.37458047,-0.08300563,0.09124917,-0.49284908,0.043192238,0.2590862,-0.20788756,-0.019315785,0.11312335,0.34477216,0.08569136,-0.2090068,0.22387584,0.3731481,-0.009392538,0.14488061,-0.107670635,-0.11016947,0.041679744,-0.14035718,0.048768755,-0.12965044,0.17369278,-0.029388051,-0.21521355,-0.22584368,-0.0740222,-0.16925442,0.30201212,0.13948013,-0.15396306,-0.011377877,0.19240572
3117:THREE_RIVERS,-0.17028143,-0.18297693,-0.2709404,0.54322946,-0.006576872,-0.1701726,0.04005334,0.27632248,-0.10365051,0.1700292,0.13423832,0.076716214,0.21425478,0.18121663,0.0866071,0.021147676,-0.048630387,-0.11362538,-0.20895973,0.02701911,0.16306324,-0.029267592,-0.112425454,-0.4271551,0.14840542,-0.005727195,0.16912206,0.30669504,-0.16504791,0.095902234,-0.34676003,0.044224903,0.44681355,-0.24311891,-0.12306125,-0.069724016,-0.30966127,-0.5862724,0.43356755,-0.10608734,-0.32223526,0.051754195,-0.38359353,-0.26326632,-0.19079475,-0.072564326,0.07096401,0.031129163,-0.4683692,-0.6162789,-0.1350561,-0.82804626,-0.17075594,-0.09980018,0.37194708,-0.16242932,-0.16166362,0.060358074,-0.19559325,-0.5028175,0.6198768,-0.21669918,0.47681215,-0.2806611,-0.22939247,0.463841,-0.60800886,-0.063207276,0.41426855,0.3859532,-0.48572376,-0.1888979,0.4903481,0.8052998,0.53523844,-0.5004348,-0.13928393,0.18911487,0.18666819,-0.5736742,0.23627639,-0.2331518,0.29351744,0.08899661,0.6078141,0.5356985,-0.5428576,-0.03337633,0.03369909,-0.22879025,0.17373334,-0.11928483,-0.14736682,0.5695783,0.1394387,0.42863202,-0.12311,0.055472016,-0.50082165,0.09508481,0.35028094,-0.19249147,0.053145822,0.15536049,0.3665976,0.13510081,-0.2896497,0.26116836,0.36191225,-0.11531219,0.11404686,-0.050990764,-0.10966351,0.12963198,-0.052559376,-0.05203828,-0.10376005,0.27055663,-0.0025399874,-0.1479145,-0.19427821,0.06656927,-0.1354359,0.1971868,0.17159349,-0.22261702,-0.051649578,0.20125723
3128:HANCOCK,-0.17147088,-0.1726858,-0.19904375,0.5642724,-0.014217377,-0.18606775,0.05351681,0.3445159,-0.088611566,0.14042117,0.089130275,0.04684068,0.19424802,0.1921906,0.049939148,-0.0057591842,-0.101122975,-0.14949635,-0.23408148,0.061924383,0.1913505,-0.0012176813,-0.15769999,-0.43635735,0.18545029,-0.039368074,0.17185235,0.31638473,-0.19522992,0.06875317,-0.28880665,0.055243727,0.45838946,-0.28327033,-0.14962249,-0.017783476,-0.3512724,-0.64190185,0.4836219,-0.10302193,-0.40190312,0.0166487,-0.43014112,-0.30195647,-0.2819825,-0.047536556,0.1034238,-0.006752319,-0.48309603,-0.68779105,-0.15578307,-0.8040928,-0.20725527,-0.1303824,0.37289196,-0.11387028,-0.118173845,0.087684914,-0.21283095,-0.4761535,0.56449836,-0.20884281,0.3954138,-0.23534805,-0.26374218,0.46435794,-0.61133265,-0.06901045,0.37367687,0.40266603,-0.4430105,-0.14454213,0.48223963,0.6986543,0.48553205,-0.54353905,-0.14923657,0.1716273,0.16021368,-0.54223365,0.26175177,-0.23452678,0.21334946,0.051137466,0.637824,0.4918927,-0.5814167,-0.07774556,0.04391532,-0.21662527,0.13451435,-0.06876161,-0.17286234,0.59327024,0.19457127,0.3573576,-0.050351225,0.058721054,-0.48908412,0.051340573,0.26454997,-0.2318878,0.019310538,0.09952254,0.3251638,0.09780764,-0.24168442,0.27750129,0.38502297,-0.084239215,0.09920144,-0.089323536,-0.13869676,0.05980775,-0.12897678,-0.046385624,-0.1277987,0.20886195,-0.011630384,-0.12958708,-0.17509899,-0.061208542,-0.20397754,0.23651782,0.15681438,-0.21688712,0.005231724,0.18961157
3136:EUCLID,-0.11332214,-0.14938313,-0.2565793,0.51991534,0.031585768,-0.16446966,0.062639646,0.3496313,-0.11378868,0.16786231,0.098234475,0.03205391,0.23994246,0.20702295,0.0912946,-0.00026858834,-0.012137341,-0.11972767,-0.13866945,0.07594374,0.12770945,-0.028304102,-0.09970521,-0.37372702,0.13068356,0.02839957,0.25695932,0.3207658,-0.19326226,0.09195052,-0.36798567,0.008487486,0.421563,-0.26321554,-0.093416564,-0.059800155,-0.2519848,-0.5622922,0.42631158,-0.12102906,-0.362927,0.0044483943,-0.35270044,-0.30464733,-0.19576208,-0.042652022,0.096957214,-0.07057255,-0.5182689,-0.67100835,-0.107988,-0.8588373,-0.16078755,-0.11855069,0.3570886,-0.1271028,-0.14578882,0.04516204,-0.2106715,-0.48037168,0.5549254,-0.23234032,0.48613757,-0.23967145,-0.25739473,0.42669308,-0.6543,-0.057942208,0.40244782,0.39936233,-0.43424353,-0.1489525,0.58596164,0.7360906,0.4708831,-0.44851324,-0.19680335,0.16437128,0.21706125,-0.5293809,0.30643442,-0.22955568,0.2557097,-0.015520622,0.6499499,0.53961545,-0.5719996,-0.035143167,0.051532507,-0.20650837,0.17762272,-0.04728825,-0.20523532,0.6307906,0.16464795,0.39347392,-0.17534259,0.05581578,-0.5334319,0.08820078,0.2801996,-0.20464897,-0.021640431,0.18574055,0.40526307,0.1229389,-0.2793434,0.29823953,0.32426113,-0.07298255,0.1012748,-0.011115215,-0.11593142,0.12823069,-0.044218622,0.019903714,-0.13528268,0.20833561,-0.09138478,-0.20148063,-0.22383532,-0.123335935,-0.17253815,0.32098678,0.06446726,-0.20080605,-0.020818397,0.20972976
3137:AGENCY,-0.11505084,-0.065438345,-0.12344745,0.52066714,-0.011303687,-0.11044361,0.028527007,0.2529642,-0.1011607,0.15640697,0.14475703,0.08263892,0.261848,0.21402568,0.09282874,-0.036095545,-0.066324756,-0.037962973,-0.23928624,0.06415837,0.2099713,-0.052037284,-0.14072819,-0.42151403,0.04234055,0.03468125,0.18009841,0.24996035,-0.21670268,0.038445145,-0.29771167,0.0521005,0.4362983,-0.26635966,-0.060199704,-0.048814137,-0.23118258,-0.56918204,0.49987644,-0.061845392,-0.34920835,0.002443175,-0.36407536,-0.323171,-0.14722669,-0.061573178,-0.059267778,0.011160236,-0.5336505,-0.7500073,-0.16621962,-0.89534724,-0.14868781,-0.062320028,0.44032723,-0.13604204,-0.1483775,0.03926869,-0.24420892,-0.4881915,0.5872885,-0.18814047,0.50106645,-0.18004058,-0.17589922,0.33232185,-0.5898394,-0.070737205,0.4285664,0.37589192,-0.46685806,-0.16009562,0.5350952,0.6759055,0.523632,-0.45070878,-0.16835748,0.18593773,0.18223399,-0.5560642,0.312233,-0.21568379,0.28038883,0.058705542,0.7139164,0.5720673,-0.59836304,0.027936619,0.04534472,-0.18248321,0.13503909,-0.091271706,-0.13845946,0.70184714,0.14256953,0.38590175,-0.04761852,0.06849234,-0.4735595,0.008323889,0.37607574,-0.2095437,0.109302394,0.10101768,0.4050409,0.16368113,-0.20948347,0.261817,0.37968042,0.016637458,0.14566387,0.031788375,-0.08380915,0.18207365,0.027965907,0.0495253,-0.09375159,0.12759967,0.007553815,-0.075530596,-0.20358577,-0.16974667,-0.067520685,0.18994097,0.115028,-0.19831055,0.037551668,0.21810237
3205:SAPULPA,0.40413874,0.007401379,-0.26468664,0.37127033,-0.06549251,-0.023909664,0.6562505,-0.006701678,0.0296939,0.12472291,-0.40916774,-0.3807178,0.25221568,-0.7898461,0.99331176,0.6427691,-0.43046585,-0.15903108,-0.54385525,0.03460331,0.55536336,0.11087375,-0.12906642,-0.18296184,-0.01758111,0.06766736,-0.62820965,-0.058353662,0.11668653,-0.06948057,-0.27010432,0.18545169,-0.10100275,0.13684767,-0.116199456,0.19954264,-0.26618212,-0.22950278,0.5749713,0.13784403,-0.2296893,0.069438346,-0.21992457,-0.2167933,-0.16180982,-0.16507782,-0.3249738,0.3375083,-0.25464243,-0.34387723,-0.038588386,-0.33547482,-0.13976929,0.118353754,0.16339646,0.017680597,0.07640535,0.09815797,-0.1452912,-0.23777138,0.06612324,-0.36395895,0.36045158,-0.26553994,-0.3228298,0.46938592,-0.32416794,-0.11197769,0.3105301,0.3130309,-0.23089606,0.24518785,0.6833643,0.3988721,-0.10910723,-0.2193681,0.061595798,-0.060539395,0.17950137,-0.12498053,0.40835536,-0.42215037,-0.043028034,0.044020366,0.45618787,0.16679916,-0.35474312,0.12257693,0.36645263,0.20823929,-0.18718126,0.27629176,0.1699989,0.20900932,0.034714863,-0.18358868,-0.36956778,0.06767598,-0.34621826,-0.046095867,0.81177354,0.033935294,0.29544324,-0.24374916,-0.07002067,-0.058885954,-0.31817862,-0.15493636,0.025717601,-0.62701356,-0.13297208,0.23212181,-0.09733392,0.18749261,0.18580131,-0.1782586,0.59972423,-0.11617239,-0.615439,-0.3120816,-0.23558839,0.0067951377,-0.082428746,0.39919028,-0.066223964,0.25090945,-0.31196532,-0.14248413
3207:HILL_TOP,0.3812389,0.19538835,-0.30911064,0.26434785,-0.04965469,-0.0175252,0.7009592,-0.023956193,0.12007383,0.1595494,-0.4572838,-0.371824,0.38637146,-0.7939564,0.9259715,0.5775872,-0.41008326,-0.25938752,-0.54170966,0.14553942,0.60018766,0.040242575,-0.024415532,-0.15732946,-0.080751896,-0.05270079,-0.3275476,-0.18089457,0.11498648,-0.11836919,-0.14022006,0.099713326,-0.04569952,0.18083222,-0.16790327,0.1408821,-0.2933626,-0.24134721,0.4590614,0.12698503,-0.25425726,0.10822777,-0.30464846,-0.33672732,-0.33704993,-0.1347918,-0.3347874,0.27023208,-0.24241863,-0.58640033,0.016474433,-0.47091296,-0.25650555,0.09173838,0.13431333,-0.08576846,-0.0026018743,0.13356753,-0.12759358,-0.2559996,0.11821443,-0.35218015,0.40301645,-0.28026485,-0.19773276,0.33299315,-0.2203335,-0.10039156,0.09903588,0.32968497,-0.4562178,0.093728505,0.5204424,0.2672446,-0.06662147,-0.15700369,0.06279103,0.06542096,-0.047882106,-0.072418734,0.23475957,-0.35635486,-0.011052951,0.13530882,0.3973817,0.018576458,-0.3434845,0.09348888,0.22835097,0.09541986,-0.19571446,0.16765428,0.029687162,0.27874267,0.11953224,-0.38885537,-0.43157014,0.117399596,-0.407988,-0.033712268,0.9480604,0.080834374,0.26752308,-0.3753719,-0.120440885,0.09444601,-0.41609648,-0.07837412,0.17045116,-0.7429558,-0.0945579,0.19109406,-0.15611479,0.13060014,0.07976373,-0.1477752,0.57636476,-0.23620553,-0.720111,-0.28297448,-0.19894846,-0.048807334,-0.10069384,0.34249762,0.027393043,0.26260555,-0.1509862,-0.17360051
3208:TIBBENS_ROAD,0.36750647,-0.0023170589,-0.40339398,0.26550773,0.06391491,0.056367908,0.70447147,-0.019777521,-0.0013533263,0.16472338,-0.45941368,-0.45345926,0.295684,-0.7998882,0.9820662,0.6146065,-0.3870157,-0.22912262,-0.46792006,0.04983417,0.59663254,0.06794153,-0.0921793,-0.17004202,0.01800205,0.11953175,-0.54810566,-0.18709436,0.1767772,-0.026127217,-0.35540298,0.16480371,-0.06300407,0.20704821,-0.108481035,0.20971653,-0.25398988,-0.26861706,0.57604086,0.11325435,-0.17867477,0.08382829,-0.19401133,-0.22854109,-0.2025233,-0.110636845,-0.3019769,0.34491238,-0.3585248,-0.49969092,-0.0867529,-0.30829212,-0.13270584,0.123645045,0.22627157,0.042555626,-0.008535829,0.10564588,-0.065104224,-0.3294719,0.099342756,-0.3643487,0.3562309,-0.3113608,-0.25642744,0.429138,-0.23123012,-0.04016986,0.3838389,0.33964565,-0.32092068,0.1976849,0.5808217,0.47905546,-0.11249383,-0.11280229,0.11647673,-0.08269551,0.13666885,-0.16544355,0.3134152,-0.40205872,-0.030443806,0.030135745,0.43658006,0.123231985,-0.36593467,0.1325503,0.2867481,0.14077653,-0.14464511,0.17773463,0.16225635,0.14211997,-0.00076216087,-0.123307556,-0.42602235,0.042087935,-0.31435215,0.041384928,0.73143536,0.08847706,0.22781959,-0.23240401,-0.03144482,0.008876245,-0.37708706,-0.1490056,-0.012778073,-0.675615,-0.096145414,0.2074631,-0.044393577,0.17377818,0.2022854,-0.11363031,0.5777664,-0.1184682,-0.63990986,-0.42425093,-0.2728261,-0.030070087,-0.12819265,0.50639653,-0.058846116,0.2570625,-0.33379015,-0.082492284
3209:BIXBY,0.3630825,0.017378487,-0.26233086,0.34912553,-0.059268545,0.051572807,0.63646907,-0.031058861,0.029205495,0.11065349,-0.4554065,-0.35232705,0.19922027,-0.7428471,0.9537435,0.60134184,-0.45578372,-0.21878041,-0.48400488,0.04820894,0.5810393,0.13422865,-0.1095903,-0.16398525,0.010665758,0.08135626,-0.61685306,-0.10369864,0.07486148,-0.17799954,-0.2984867,0.20936602,-0.021192033,0.016759014,-0.12589665,0.21632488,-0.28169,-0.3377944,0.5282384,0.18081614,-0.24707903,0.051185083,-0.28291714,-0.2861917,-0.22922108,-0.13987577,-0.3444551,0.3618967,-0.23972666,-0.28838265,-0.0676571,-0.21139345,-0.123469606,0.050464988,0.19984522,0.120308235,0.050679542,0.18254964,-0.10330794,-0.21130025,0.025567815,-0.39321446,0.2636642,-0.18452697,-0.30341893,0.45054734,-0.24020326,-0.049459685,0.29278684,0.36880553,-0.3170257,0.24969533,0.61150426,0.43322515,-0.123785146,-0.26712143,0.09346235,-0.08132175,0.2054577,-0.17105052,0.32434165,-0.3659187,-0.110237986,0.063192725,0.44790053,0.06543799,-0.2677078,0.1927801,0.33515945,0.20046832,-0.27613303,0.2638941,0.2255255,0.14948428,0.07504656,-0.16616985,-0.31826046,0.09864268,-0.32949612,-0.063001834,0.92524123,0.081917696,0.2892424,-0.3324993,-0.027568422,-0.025219494,-0.30089495,-0.099937014,0.10960803,-0.7109192,-0.16457504,0.18686077,-0.109796725,0.07204103,0.10758059,-0.19024117,0.613528,-0.099536076,-0.6022634,-0.21478336,-0.23737074,-0.05242109,-0.09907585,0.36496606,-0.018428402,0.3166191,-0.2821206,-0.18817998
3210:HICKORY_HILL,0.41640303,0.09648639,-0.2409544,0.30847165,0.031413745,0.013742456,0.6335683,0.0071325824,0.018448869,0.15965703,-0.43403226,-0.40111658,0.30153668,-0.75800693,0.99791217,0.6137976,-0.39252362,-0.18462434,-0.4926963,-0.015771888,0.601976,0.1422344,-0.1226461,-0.16979161,0.10084633,0.021978075,-0.61403316,-0.04515778,0.10064713,-0.04009364,-0.30630884,0.20402339,-0.06906128,0.16391048,-0.019190606,0.23130117,-0.15550932,-0.21890047,0.53452045,0.15623188,-0.34954396,0.23126085,-0.3636818,-0.3171442,-0.26146758,-0.1915627,-0.37225065,0.43125048,-0.269731,-0.36621222,-0.07268996,-0.22357793,-0.14432059,0.09010251,0.22798286,0.040275104,0.014999856,0.15527755,-0.13911404,-0.23622885,0.046314985,-0.38665736,0.30688426,-0.20361729,-0.30997187,0.4315862,-0.26213178,-0.008696569,0.31010494,0.37442344,-0.26954597,0.25874034,0.63493127,0.3793981,-0.076408125,-0.18096066,0.066040345,-0.057472825,0.14523365,-0.14725704,0.3233947,-0.4330649,-0.09147766,0.033960752,0.44554046,0.12364566,-0.2983723,0.10804124,0.28653136,0.14421844,-0.20843415,0.24804558,0.14562762,0.20153311,0.061759327,-0.19221067,-0.29409045,0.06585825,-0.3450084,-0.05254213,0.72769517,0.03718421,0.28026572,-0.241924,-0.045131385,-0.066703826,-0.2947522,-0.06105413,0.07608314,-0.65257025,-0.13702919,0.24731435,-0.14114293,0.13441278,0.15594651,-0.18474057,0.75421566,-0.0983445,-0.6801515,-0.22077645,-0.24156505,0.016939027,-0.076633684,0.3854452,-0.0071152914,0.2886275,-0.33666053,-0.16173558
3213:BOWDEN,0.41124892,0.049292136,-0.24830619,0.35375577,-0.011381092,-0.010013043,0.69174147,0.022829939,0.023456443,0.19880879,-0.40350345,-0.4072325,0.34244925,-0.7967597,1.0864173,0.7159754,-0.35708246,-0.22854666,-0.4464349,0.016784918,0.5321011,0.15651189,-0.121246316,-0.22183597,0.006907009,0.09131288,-0.5263198,-0.09137267,0.13218246,-0.105915055,-0.27709213,0.13586633,-0.07475217,0.15452743,-0.069897726,0.17126442,-0.2380353,-0.289717,0.51046145,0.18375172,-0.29011306,0.11854438,-0.25901207,-0.30011028,-0.23124586,-0.15630959,-0.30040893,0.42011133,-0.27232856,-0.33155197,-0.09050728,-0.18447246,-0.13578969,0.12081387,0.2722711,0.011106554,0.07659218,0.103457525,-0.14012936,-0.26283503,0.038518947,-0.3349766,0.38538104,-0.29635572,-0.3239975,0.46152756,-0.24532528,-0.044996995,0.3211565,0.34019113,-0.29281956,0.23471624,0.57168806,0.41877815,-0.09743214,-0.19246298,0.119521536,0.029306678,0.19373387,-0.2199992,0.40804234,-0.46875688,-0.015678274,0.042560987,0.5164101,0.07356397,-0.33462512,0.15408999,0.18378375,0.1880345,-0.20894426,0.14862174,0.14932607,0.23159437,0.05751496,-0.19439355,-0.26823995,0.06861877,-0.2660419,-0.044661343,0.7626882,0.09914185,0.30174482,-0.22546434,-0.045354106,-0.019434778,-0.29794234,-0.09338282,0.07513212,-0.6075972,-0.09411012,0.2192428,-0.096093304,0.05993057,0.0762938,-0.13685869,0.6641326,-0.036227748,-0.6870283,-0.28256345,-0.2300513,0.08331396,-0.055967163,0.30911362,0.087595716,0.26908955,-0.24336845,-0.1744039
3214:LONE_STAR,0.37836784,0.074390225,-0.2241475,0.31058267,-0.030341422,0.022992808,0.6827779,-0.016314622,-0.015243804,0.086988635,-0.41089326,-0.41250026,0.28625393,-0.7759031,0.99897116,0.6127031,-0.4116462,-0.21456051,-0.46010053,-0.022973973,0.5644365,0.13262244,-0.12715824,-0.16576843,0.00027573237,0.07352666,-0.6069192,-0.050215278,0.099854566,-0.11791716,-0.26691884,0.18667707,-0.05019018,0.09319233,-0.06784196,0.20080444,-0.2579882,-0.25615352,0.4867756,0.15216534,-0.32346955,0.14573929,-0.28058946,-0.28589156,-0.16737139,-0.19790462,-0.3614178,0.3964754,-0.27318275,-0.33752722,-0.1353657,-0.11346285,-0.11346945,0.12151141,0.263599,0.119795494,0.04128646,0.15553755,-0.17848612,-0.28224584,0.05839634,-0.36377028,0.27360085,-0.17011116,-0.30777174,0.46956784,-0.23835194,-0.050482657,0.298119,0.34857392,-0.27838826,0.23547766,0.5941956,0.46361595,-0.07464182,-0.22645655,0.12741402,-0.099263534,0.24493757,-0.25859642,0.3763411,-0.38268405,-0.09829333,0.046117913,0.45153388,0.082448594,-0.3462503,0.17806788,0.3065007,0.1627732,-0.17947748,0.2187657,0.2498991,0.20204686,0.044286177,-0.0940454,-0.28342274,0.06310861,-0.3557622,-0.050283663,0.8289682,0.0865837,0.33958519,-0.24916548,-0.029381733,-0.016405059,-0.33171138,-0.13286409,0.06311882,-0.68740946,-0.1339509,0.21768925,-0.1306428,0.07450124,0.063257806,-0.13564284,0.62175316,-0.10181898,-0.6849191,-0.2560136,-0.24278645,-0.05074091,-0.078981064,0.4253948,-0.05575021,0.31937176,-0.29860908,-0.13938195
3216:BEELINE,0.3694124,0.052585855,-0.21620353,0.35431874,-0.03136792,0.021477845,0.68653154,0.049252365,0.044694833,0.12037365,-0.46871927,-0.39947778,0.22762993,-0.8044558,0.9076467,0.538048,-0.47391546,-0.23492092,-0.4906285,0.05676363,0.5880341,0.10651182,-0.110042,-0.12512185,-0.044931445,0.095075235,-0.58082384,-0.15043063,0.11718239,-0.18209757,-0.20642713,0.15500407,-0.052575685,0.014016698,-0.1395551,0.21973854,-0.33553034,-0.36569804,0.62728375,0.14981261,-0.26950395,-0.04664572,-0.2556247,-0.28774428,-0.25599214,-0.04986889,-0.30706382,0.30293018,-0.28839236,-0.44562566,-0.14673221,-0.3131566,-0.15973072,0.063168496,0.15558375,0.07044127,0.060438216,0.20744318,-0.06189746,-0.20478015,0.023270585,-0.40226808,0.2608197,-0.19882806,-0.30660173,0.42316127,-0.20775086,-0.080934435,0.3067026,0.36659947,-0.31152675,0.2479498,0.56495583,0.37207404,-0.14714138,-0.22087416,0.08547915,-0.12334801,0.17384158,-0.16450271,0.29655692,-0.35257056,-0.12970866,0.031392165,0.44731462,0.038352836,-0.27461764,0.1675948,0.3466601,0.18781425,-0.2243485,0.2345954,0.16668686,0.17274146,0.08011661,-0.23482251,-0.3803319,0.12780224,-0.375279,-0.07184511,0.8941357,0.088313535,0.24258864,-0.34983903,-0.016854059,0.018887496,-0.34062845,-0.15509515,0.13818127,-0.7157333,-0.094776034,0.15298286,-0.09724454,0.09388226,0.10728741,-0.12918077,0.55319434,-0.21403643,-0.6012999,-0.22975752,-0.252747,-0.18096507,-0.11009808,0.43794006,-0.098865,0.32077405,-0.27535513,-0.13950647
3218:BEGGS,0.4302355,-0.013324977,-0.22044526,0.41849023,-0.061473686,-0.028884424,0.69563013,0.07296234,-5.1471332e-05,0.1990993,-0.41596505,-0.3756652,0.2908567,-0.79604346,1.0709872,0.68215203,-0.32105088,-0.26366633,-0.4573359,0.0231551,0.49127313,0.16520411,-0.09431043,-0.1752609,0.0027393145,0.1294242,-0.4805427,-0.04703346,0.07975236,-0.14305584,-0.27657643,0.11738698,-0.094362274,0.1199584,-0.070719294,0.20567364,-0.18698403,-0.29054675,0.47183445,0.15383808,-0.2889525,0.16338779,-0.24496791,-0.26235008,-0.1817303,-0.13519968,-0.3565242,0.3769448,-0.2554979,-0.30368233,-0.06876105,-0.24966347,-0.09852816,0.11579087,0.23569341,-0.030108323,0.122253865,0.08517423,-0.17421196,-0.20840777,0.011955424,-0.3841477,0.44129962,-0.25953043,-0.3521881,0.44976234,-0.22616892,-0.04824047,0.31363332,0.34340397,-0.25393313,0.20954266,0.5388863,0.3967259,-0.12308523,-0.19350818,0.121935025,-0.0133760255,0.20141943,-0.22354664,0.3835265,-0.41490373,-0.06813155,-0.008023995,0.48989514,0.08402851,-0.36666283,0.11626547,0.25673324,0.19545789,-0.18194117,0.19073944,0.11884745,0.21366924,0.031094082,-0.19904423,-0.3328625,0.05797907,-0.31250617,-0.062758446,0.787345,0.077977814,0.29531506,-0.19972385,-0.007081193,-0.08662135,-0.31018168,-0.088795245,0.07047801,-0.6459391,-0.12171236,0.17483987,-0.11914722,0.090274915,0.14142722,-0.14382319,0.747251,-0.012851966,-0.6955879,-0.2931442,-0.2611111,0.10557108,-0.020507528,0.32494345,0.024962135,0.27795285,-0.3241822,-0.14920868
3220:KELLYVILLE,0.42152667,0.05089235,-0.32166287,0.4257195,-0.038803786,-0.048686255,0.73108983,0.019089075,0.035982292,0.16083406,-0.42636147,-0.3747895,0.2827789,-0.8058897,1.0233546,0.64916193,-0.41378525,-0.21314046,-0.42841494,0.07104815,0.5046227,0.091564655,-0.070645384,-0.16065101,-0.0060526924,0.010308443,-0.5273857,-0.097787574,0.11968841,-0.09980934,-0.21520571,0.14897963,-0.07332097,0.10537507,-0.12654935,0.15636584,-0.29867673,-0.28722027,0.55111605,0.11531769,-0.28214344,0.13499747,-0.29846457,-0.27428263,-0.25324383,-0.14072363,-0.3222769,0.4178215,-0.27505273,-0.34779355,-0.027768996,-0.31856027,-0.16430107,0.123557776,0.18910775,0.029000415,0.0685038,0.10208363,-0.12882587,-0.24506529,0.04239081,-0.35744745,0.32987037,-0.2509583,-0.31708667,0.46035457,-0.2893725,-0.10413336,0.2281909,0.36404556,-0.33787656,0.1763504,0.5282608,0.37286958,-0.09094758,-0.2008115,0.09686645,-0.07480135,0.15054415,-0.17309314,0.35043204,-0.37284586,-0.0164074,0.057882443,0.4382632,0.077025756,-0.28654003,0.17655176,0.2834744,0.18661393,-0.17856008,0.19930641,0.1204888,0.19134401,0.057425734,-0.2274608,-0.2500338,0.08016365,-0.31162933,-0.020748299,0.8113157,0.055022426,0.27588257,-0.2767076,-0.07769876,-0.044203073,-0.3354578,-0.1589473,0.05751776,-0.6663342,-0.1411458,0.20695324,-0.104436874,0.109276645,0.125813,-0.16824228,0.5641933,-0.0889033,-0.6667038,-0.29097444,-0.17271546,0.05563154,-0.064581946,0.36796647,-0.045599945,0.3189037,-0.2737181,-0.17823157
3312:CHECOTAH,-0.18439989,-0.1597176,-0.1748846,0.5184962,-0.006050484,-0.15809515,0.09183204,0.3511725,-0.11336127,0.2106556,0.045846846,-0.010539399,0.3069472,0.14128429,0.10799671,0.048528176,-0.023213265,-0.1469449,-0.1835663,0.1091349,0.12989353,-0.022383763,-0.091589734,-0.4574992,0.03930343,0.072094485,0.30237752,0.24075587,-0.1960295,-0.0018260648,-0.23988117,-0.04681544,0.42674103,-0.30745658,-0.15559618,-0.06060473,-0.32264987,-0.67891955,0.41358957,-0.084197484,-0.34090877,-0.047609378,-0.36387396,-0.3069034,-0.16826509,0.0322513,0.025163827,-0.010987647,-0.55034876,-0.77614635,-0.25438273,-0.7346251,-0.18662232,-0.10597799,0.39335665,-0.069222294,-0.10410678,0.08281466,-0.14938983,-0.50301886,0.5539623,-0.18822142,0.45773056,-0.25323856,-0.26309946,0.45878738,-0.58490556,-0.09409506,0.47351405,0.4745396,-0.5017788,-0.17560154,0.3494315,0.7560479,0.5133004,-0.4953907,-0.056497287,0.25660944,0.20363761,-0.6328026,0.20681787,-0.19604732,0.28133157,0.07904785,0.6804043,0.42905584,-0.5007453,-0.008131194,-0.038323607,-0.16899475,0.1111782,-0.10883974,-0.04268198,0.62689215,0.17280851,0.49245086,-0.086358115,0.08398475,-0.4208627,0.041248005,0.39078197,-0.11921398,0.05861815,0.08628494,0.3816353,0.20378582,-0.20943043,0.19359936,0.3275158,-0.0031130486,0.1380856,-0.0752357,-0.06356602,0.02516323,-0.15698951,0.09080138,-0.09961451,0.18741633,-0.021439908,-0.17944011,-0.27667037,-0.1607834,-0.1852139,0.28354275,0.17295422,-0.18690643,0.07555607,0.21268013
3313:ILLINOIS_RIVER,-0.07374644,-0.052836373,-0.081991464,0.49310863,-0.027306864,-0.16583234,-0.010054677,0.2895829,-0.09845828,0.14109321,0.113076314,0.036645226,0.24065799,0.1504552,0.021335443,-0.08073865,0.00026559262,-0.10063557,-0.23648141,0.024003822,0.09485462,0.012413753,-0.13470887,-0.39554384,0.072129354,-0.00440034,0.21337552,0.39502165,-0.23974547,-0.0029538868,-0.18909553,0.026668545,0.37903082,-0.2924297,-0.080876075,-0.046202794,-0.25677666,-0.60177183,0.5039573,-0.06920795,-0.43644905,0.11139959,-0.42355728,-0.32997414,-0.1298985,-0.0758161,-0.116601184,0.022657674,-0.42281497,-0.6332056,-0.18064861,-0.956478,-0.15071672,-0.09940536,0.3352683,-0.2582539,-0.077937976,0.07504839,-0.25378028,-0.3640261,0.5602305,-0.2419086,0.54876995,-0.28018957,-0.35730362,0.49502507,-0.7255969,-0.16039822,0.4555905,0.48071682,-0.4915156,-0.09355768,0.6310732,0.7181448,0.5285459,-0.5584504,-0.19216111,0.1948477,0.18111195,-0.55258876,0.28685534,-0.16658825,0.2200219,0.017970966,0.6078878,0.5078101,-0.56258297,-0.09350465,0.11174828,-0.14445685,0.1430373,-0.018574234,-0.19871436,0.6618806,0.18607703,0.2918079,-0.17118785,0.064397365,-0.51968825,-0.03429742,0.4078667,-0.21879385,0.1531105,0.11352206,0.4029103,0.09639832,-0.2293849,0.25462383,0.40723726,-0.012725324,0.12710643,-0.0064936695,-0.20489316,0.18201075,-0.08266913,0.024572497,-0.07246378,0.12799382,-0.046622604,-0.054591127,-0.19582494,-0.14219597,-0.039905127,0.103767976,0.10991079,-0.19550562,-0.03955363,0.20389262
3314:PORUM,-0.16687809,-0.098508425,-0.16371728,0.44710833,0.033033412,-0.12832691,0.08156845,0.28139615,-0.14341576,0.15969482,0.053223267,-0.01957806,0.28013834,0.112810574,0.08690812,-0.013274179,-0.04594228,-0.13399735,-0.21279795,0.072409526,0.1515009,-0.064765364,-0.12576455,-0.4527857,0.08577263,0.021594215,0.25628445,0.27405396,-0.2267768,0.01655838,-0.23848926,0.05907161,0.45166686,-0.26752505,-0.15914942,-0.0054686735,-0.30113843,-0.68284065,0.516805,-0.07595677,-0.3872109,0.047120553,-0.46715444,-0.31070882,-0.18353267,-0.044252884,-0.056520924,0.03131065,-0.46776524,-0.7183837,-0.20078553,-0.92474675,-0.22668907,-0.13228679,0.31438503,-0.20372312,-0.08065196,0.060362272,-0.20932755,-0.46236455,0.56472623,-0.22052564,0.52894115,-0.24091914,-0.25045097,0.46404666,-0.62139255,-0.15115038,0.47312492,0.3994967,-0.42735997,-0.15567197,0.4138657,0.68966514,0.5351754,-0.4761379,-0.10126318,0.20476817,0.17520165,-0.5400586,0.21056712,-0.17428802,0.2158851,0.034514505,0.6508983,0.49489424,-0.5841489,-0.035874814,0.0744927,-0.20742948,0.13579829,-0.04380368,-0.11212962,0.58557254,0.17043152,0.4588843,-0.09593637,0.06968747,-0.4128916,0.0025724731,0.31401536,-0.22584683,0.07273512,0.066015095,0.3305788,0.13418126,-0.17677766,0.22581369,0.3786228,0.062245917,0.1453447,-0.10938812,-0.10965102,0.1273148,-0.0727606,0.025061248,-0.11387425,0.16611148,0.08189524,-0.07745039,-0.21668462,-0.0035069492,-0.08904435,0.13436557,0.1639292,-0.21891941,-0.0037906398,0.20394816
3316:WARNER,-0.09799722,-0.14874575,-0.19851018,0.55137587,0.06578091,-0.20954897,0.032959193,0.3073766,-0.11339149,0.19139369,0.17049794,0.102963164,0.1684055,0.22745833,0.04471097,-0.06615588,-0.038293835,-0.093357034,-0.085035324,0.03289243,0.06294225,0.00859464,-0.09189707,-0.33346972,0.1212995,0.054868136,0.27305686,0.24906228,-0.14971234,0.061539114,-0.22139183,-0.03858568,0.38524187,-0.2152799,-0.07610016,-0.011637888,-0.19955924,-0.5996244,0.5337245,-0.087023064,-0.35691005,0.13671896,-0.42562547,-0.32756132,-0.21800026,-0.040539205,-0.08134369,0.052766588,-0.5266789,-0.78036666,-0.15353824,-0.9114137,-0.12259621,-0.0776554,0.36900276,-0.1604961,-0.14011711,0.06155635,-0.17234766,-0.4658212,0.5248046,-0.2442141,0.4935339,-0.22658542,-0.2679329,0.4551584,-0.6947478,-0.09861901,0.5029275,0.45270807,-0.41090202,-0.10538314,0.5599909,0.70222646,0.41798505,-0.457283,-0.1349612,0.12383891,0.1918884,-0.50121915,0.30126166,-0.2554761,0.19289699,-0.012755699,0.6819228,0.5279148,-0.5726563,-0.039955553,0.08887837,-0.18174659,0.16712955,-0.04572864,-0.1986472,0.57897925,0.14057404,0.33400056,-0.1485459,0.037602186,-0.5351472,0.06067337,0.2860841,-0.23636383,-0.04359126,0.16673256,0.38447052,0.051727246,-0.20489281,0.2921039,0.34728903,-0.04761083,0.11916725,-0.03716023,-0.10217618,0.19057153,-0.002420465,0.01739886,-0.04522297,0.14820853,-0.053272426,-0.15623315,-0.23102437,-0.10782152,-0.14598596,0.23739688,0.1209446,-0.17596146,-0.016718064,0.1838408
3321:ROSS_LAKE,-0.18142879,-0.17667173,-0.16854769,0.56221044,-0.01895538,-0.18595749,0.035399217,0.3410338,-0.07787388,0.16283838,0.1003815,0.07273453,0.22607581,0.19296011,0.08447001,-0.018229704,-0.075840846,-0.15286787,-0.23157932,0.08447598,0.19186205,-0.023117183,-0.14047056,-0.43149832,0.09586813,0.027524896,0.23445317,0.31508124,-0.20293649,0.061041314,-0.29381266,0.019822381,0.41505152,-0.24430361,-0.13936825,-0.00457999,-0.30719575,-0.59764457,0.5074075,-0.10173127,-0.3720348,0.08482563,-0.41251895,-0.29427812,-0.20767827,-0.059686225,0.0071607525,0.055793434,-0.48991078,-0.72957593,-0.18260044,-0.88013583,-0.18628865,-0.106920764,0.39172155,-0.17358197,-0.11734732,0.10627585,-0.21230748,-0.46970603,0.58052063,-0.20624521,0.47344637,-0.23035285,-0.26247036,0.45528576,-0.63670146,-0.07228636,0.4164171,0.38476035,-0.44449311,-0.14258096,0.5668821,0.72357625,0.47435805,-0.5431063,-0.16008666,0.20690514,0.17452301,-0.53434414,0.27615544,-0.25093028,0.21041988,0.04112906,0.63482976,0.5214745,-0.5686672,-0.08022918,0.05363666,-0.19654979,0.16265744,-0.052894462,-0.16700381,0.60466206,0.14982553,0.36524093,-0.13794091,0.06595374,-0.49852955,0.04249254,0.25099567,-0.2421383,0.002247416,0.10952065,0.34229982,0.11312868,-0.22717239,0.31386745,0.37720305,-0.024888588,0.11312854,-0.12346645,-0.11168992,0.13632071,-0.03366633,-0.033611044,-0.052692473,0.17541574,-0.0042684553,-0.10407048,-0.20613098,-0.029071204,-0.15435803,0.23376298,0.13866685,-0.20038006,-0.016794544,0.17911315
3325:WELLS,-0.14015678,-0.19144607,-0.21086974,0.5307004,0.012818041,-0.18096365,0.029451484,0.33665803,-0.112954155,0.17267178,0.09058284,0.046936378,0.22485995,0.18956053,0.07468416,-0.023066366,-0.094245106,-0.097358726,-0.20104188,0.05466513,0.16290882,-0.006404807,-0.10746955,-0.3871398,0.10246368,0.049776237,0.19382541,0.29313853,-0.16579178,0.059387106,-0.31012738,0.019050963,0.43269902,-0.28795198,-0.12298451,-0.030850073,-0.24570644,-0.60889083,0.44257152,-0.1065492,-0.35274383,0.096136436,-0.42242205,-0.27579167,-0.20714527,-0.038424805,-0.0189373,0.032022767,-0.535024,-0.69430465,-0.14950958,-0.8941483,-0.17452128,-0.07662781,0.372471,-0.20493361,-0.1137144,0.047928825,-0.20595878,-0.47537494,0.51380855,-0.21737313,0.5405199,-0.25046372,-0.24000256,0.460533,-0.66619825,-0.08261327,0.46597925,0.3936699,-0.3959899,-0.120230734,0.65565944,0.7728188,0.44312504,-0.526119,-0.15916683,0.21145158,0.21423085,-0.54775655,0.2396487,-0.18766889,0.21626873,0.024120545,0.58875084,0.4745026,-0.5575487,-0.08422443,0.07616045,-0.19662578,0.18229562,-0.051257126,-0.16569561,0.5888066,0.12901492,0.40368617,-0.09113142,0.061109148,-0.47634372,0.0601799,0.26317605,-0.20340572,0.050835535,0.1120037,0.35849637,0.088993944,-0.25228015,0.23721436,0.352765,-0.055959836,0.10676429,-0.058614638,-0.121542685,0.11880001,-0.065713175,0.037408635,-0.11120284,0.17830701,-0.05958377,-0.20461883,-0.27187777,-0.062258326,-0.16867267,0.26069364,0.15447459,-0.19899562,-0.005677575,0.18775257
3326:JAMESVILLE,-0.19309956,-0.044062648,-0.17233981,0.5145821,0.01990186,-0.17784198,0.11525728,0.30527243,-0.18779589,0.18970525,0.16378984,0.077171035,0.25737005,0.23633294,0.045436725,-0.0033083553,-0.051893927,-0.09209137,-0.14438213,0.08760587,0.11666065,-0.08235708,-0.10066721,-0.44244024,0.049301103,0.0036657564,0.1895111,0.29410395,-0.20188639,0.09360429,-0.17273375,0.017709415,0.42670044,-0.24123837,-0.16501257,-0.0094994875,-0.3252914,-0.61752224,0.5607708,-0.10356678,-0.44102985,0.058087215,-0.4138836,-0.37889904,-0.19505627,-0.08132883,-0.01981013,0.061719775,-0.49933463,-0.65422124,-0.19117753,-0.82664216,-0.23008342,-0.0774037,0.3542646,-0.06019261,-0.05191578,0.10530012,-0.23310229,-0.50497544,0.5600601,-0.15061505,0.405693,-0.26955038,-0.28811666,0.43322212,-0.58985555,-0.17843255,0.40259582,0.46107844,-0.4583673,-0.14293973,0.5219857,0.7538352,0.55481786,-0.55396205,-0.051989824,0.13307297,0.24750966,-0.592895,0.27996287,-0.16233766,0.22112754,0.04717961,0.62263227,0.47391167,-0.57619375,0.029135792,-6.38619e-05,-0.22560695,0.17021249,-0.09333636,-0.13497,0.61106265,0.14032318,0.38582516,-0.08600228,0.08787135,-0.51196516,0.04965664,0.31469297,-0.16089343,0.01822155,0.068939395,0.37366158,0.12735967,-0.25667664,0.23116164,0.37632075,-0.039478652,0.14598624,-0.11032783,-0.10341604,0.07812947,-0.06545692,0.0076523884,-0.15590839,0.1965316,0.007788128,-0.1915721,-0.20185693,-0.15356483,-0.15504934,0.2732576,0.08417432,-0.16943617,-0.019847486,0.19835578
3327:VIAN,-0.15215614,-0.05802231,-0.17486648,0.42834318,0.017573928,-0.12971178,0.072940215,0.32200179,-0.10891528,0.15228719,0.096997716,-0.051447563,0.32904834,0.14327036,0.11802352,0.023343707,-0.009531829,-0.15215275,-0.21767005,0.05086583,0.13469368,-0.0313054,-0.1636332,-0.4373729,0.14846195,-0.00190202,0.21299672,0.28226814,-0.20209096,0.058546506,-0.26777327,0.064039715,0.46564296,-0.25525385,-0.14295517,-0.011410892,-0.3190875,-0.66805375,0.4924856,-0.074245185,-0.40498963,0.0154069085,-0.40000632,-0.36214077,-0.18598844,-0.06127268,0.032567646,-0.048514035,-0.4336855,-0.66689837,-0.15037514,-0.8401978,-0.2304168,-0.14312138,0.35915253,-0.18695796,-0.07359673,0.03988442,-0.2441305,-0.44604802,0.5879925,-0.17516136,0.52628607,-0.28164268,-0.268706,0.42841518,-0.60525244,-0.1380046,0.44755918,0.43200457,-0.47669157,-0.13902484,0.45795318,0.67594796,0.5271497,-0.51548356,-0.100310005,0.22531575,0.19113284,-0.55927044,0.32235768,-0.22226787,0.2088693,0.00062028895,0.73696786,0.53567636,-0.6666475,-0.033880442,-0.02441694,-0.24554649,0.13084015,-0.09084938,-0.15667531,0.6871671,0.20374839,0.3876139,0.016919114,0.04878966,-0.3995804,-0.0051446403,0.24455933,-0.20952842,0.07784672,0.067624815,0.32831523,0.15017414,-0.23420273,0.22041363,0.35047972,0.0687122,0.15090218,-0.04543218,-0.124113336,0.08118726,-0.12928928,0.013108365,-0.101451024,0.18347266,-0.012621927,-0.14445536,-0.2371913,-0.18187451,-0.164774,0.22899911,0.17890158,-0.2543578,0.07266614,0.24497896
3332:EUFAULA_SPA,-0.22668432,-0.12887532,-0.10972778,0.3367566,-0.027159076,-0.20281708,0.08917848,0.40146956,-0.09584485,0.14162235,0.08744657,-0.0355157,0.2373871,0.069301605,0.064544514,0.043784775,-0.031851277,-0.2425729,-0.25420818,-0.03577067,0.30256742,-0.09605892,-0.067154974,-0.33568227,0.06635686,-0.03315767,0.24761496,0.28335682,-0.11983242,0.15725502,-0.1014884,-0.11663158,0.32855743,-0.13312799,-0.21505225,0.0022588638,-0.3812846,-0.48931593,0.43926358,-0.16086473,-0.4104748,0.031841062,-0.36971328,-0.26432022,-0.16684724,-0.028336689,0.0363726,-0.02163607,-0.5958684,-0.9363661,-0.3190235,-0.93425846,-0.25400344,-0.050983246,0.33896837,-0.23489058,-0.08830201,0.22264418,-0.28374308,-0.6056532,0.62933844,-0.2264964,0.53906894,-0.3332899,-0.21469879,0.37020785,-0.50148356,-0.123578526,0.37913552,0.3273112,-0.269006,-0.059284486,0.5319327,0.7740151,0.40720147,-0.4744161,-0.12363992,0.14266236,0.2081017,-0.56732434,0.20201877,-0.31184724,0.23393363,0.14340778,0.55959487,0.45745635,-0.62895715,-0.13591348,0.024168074,-0.24738938,0.2839818,-0.19261374,-0.056794878,0.65822774,0.06677673,0.4533028,-0.17425938,0.06897019,-0.48512995,0.07973723,0.19463454,-0.11542656,0.081993766,0.110610455,0.2400002,0.18695726,-0.2822972,0.09240687,0.23223862,-0.071972296,0.17123395,-0.18291283,-0.08543401,0.06839112,-0.10090557,0.018970985,-0.09808331,0.1841405,-0.014970135,-0.1776737,-0.22881125,-0.06587676,-0.16414726,0.3372191,0.022439139,-0.1535223,-0.1094273,0.29441383
3505:POTEAU,0.07406833,-0.25551003,-0.020196563,0.37860075,-0.35824424,-0.28805485,0.12913783,0.23759985,0.24870577,0.0904046,0.15909538,0.21951371,-0.16825165,-0.078180864,0.3538398,0.5192279,-0.23199853,0.18252335,-0.031583875,0.011278042,-0.0055439863,0.048440818,-0.13423342,-0.09766786,0.09898139,0.1204638,-0.4420783,-0.1750785,0.07713543,0.3703188,-0.26084384,0.23944226,-0.1718974,0.3231537,0.12118489,0.3546201,0.042606913,0.22724362,0.023662811,0.100708544,-0.38404268,0.92202866,-0.80966604,-0.12970872,-0.038152453,-0.1316755,-0.14778224,0.60789084,-0.15949364,0.38372248,0.47762662,-0.38677147,-0.10461349,0.13868247,0.07609514,-0.2174046,-0.11035466,-0.3254772,0.057675194,0.27572525,-0.241018,0.27889034,0.74965745,-0.24956165,-0.10926386,0.12570685,0.04413144,0.103799574,0.15223224,0.300113,-0.37167153,-0.25019354,-0.6110702,0.06677462,-0.04675576,-0.20605192,0.08404354,0.1598539,0.23972823,-0.3676014,0.16462891,-0.22164558,0.07055955,-0.0415286,0.114726655,0.04742107,0.054025132,0.013391275,-0.15316845,-0.14646474,0.07095436,-0.06911672,0.44269714,0.2339073,-0.17484136,0.56113946,-0.37566802,0.049095698,0.0657384,-0.06237833,-0.15319797,-0.13022785,-0.38656816,0.13353343,0.1946293,0.09879383,0.13404217,0.0705954,0.20747419,-0.233611,0.035813782,-0.49039108,0.09543395,0.02668791,0.17452441,0.23330776,-0.1932903,-0.22281484,0.10125698,0.16873376,-0.12325319,-0.6496578,-0.29478586,0.27233642,-0.2678835,-0.14212331,0.23248412,-0.17741361
3506:CAVANAL_MTN,0.09169604,-0.3817644,-0.08928123,0.3255928,-0.35995206,-0.23566127,0.14998852,0.28564608,0.29671037,-0.096293114,0.15425988,0.10087375,-0.25966436,-0.023749696,0.31493327,0.4582531,-0.20925817,0.26924488,-0.028036278,-0.02061689,0.01193761,0.13216043,-0.10069712,0.057812467,-0.07603935,0.074975014,-0.5357706,-0.14000699,0.18359247,0.3658536,-0.3172741,0.22198263,-0.09073276,0.14359678,0.058600504,0.24983384,0.111933984,0.18660052,-0.0447101,0.031663883,-0.43362215,0.78006,-0.7675917,-0.13129106,-0.15076771,-0.1878581,-0.13858192,0.6739341,-0.12682468,0.35048664,0.40310872,-0.3721574,-0.03347992,0.074477315,0.011860946,-0.2658384,-0.011045114,-0.41510826,-0.009958988,0.3573527,-0.3295569,0.29628718,0.9208469,-0.18414585,-0.11976793,0.2202643,0.08020224,0.18550165,0.19339785,0.37005895,-0.27292845,-0.16563062,-0.4347896,0.16371858,-0.07867118,-0.23744953,0.033084575,0.26358762,0.2963362,-0.4379756,0.276685,-0.20170549,0.11399063,-0.086172774,0.16086853,0.022474824,0.108183555,-0.027787667,-0.05737973,-0.08421171,0.10185779,0.14564006,0.47911826,0.22898802,-0.25123468,0.60713375,-0.3622091,-0.017958866,0.1927745,-0.022327058,-0.19931519,-0.19464985,-0.28837717,0.13013935,0.26614144,0.18857455,0.1707331,0.18010892,0.25165355,-0.16960065,0.0049284804,-0.6061659,0.13632938,0.0020822256,0.21071632,0.16713716,-0.21191536,-0.28099918,0.057051104,0.23142867,-0.03648646,-0.6735287,-0.11357651,0.19539173,-0.22972083,-0.19621702,0.3294929,-0.2086825
3507:HOWE,-0.10295464,-0.2560967,0.05832332,0.38531902,-0.1857702,-0.19815466,-0.017313845,0.39520842,0.43907037,-0.12562416,-0.22241476,-0.28538206,0.13746077,-0.16906618,0.033643156,0.282513,-0.40401146,-0.14102283,-0.47717524,0.1359232,0.3464884,0.16389573,-0.10606866,-0.06234022,0.11206068,-0.12504229,-0.32561052,0.31224453,0.06856002,0.043703523,0.011306597,0.117710575,-0.059879836,0.2905285,-0.03397289,0.21237524,-0.19504607,0.1568548,0.1162732,0.2792212,-0.13056487,0.44983315,-0.33729586,0.07004704,0.3958022,-0.120190494,0.1166529,0.6230176,-0.12951392,0.13726676,0.052021395,-0.47842836,-0.31831864,-0.32308578,-0.19976977,-0.45840898,0.5685165,0.030255716,-0.1319828,-0.032742728,-0.03497028,0.113879986,0.5133279,0.09972536,-0.07135803,-0.102240935,0.32891023,0.07047959,-0.113228366,0.037746582,-0.18668444,-0.12803133,-0.22501777,-0.10581626,0.09976391,-0.42097473,-0.12666592,0.17694187,-0.09146274,-0.2685943,0.04454122,-0.2688812,0.20586169,0.18650274,0.24237557,0.39257005,0.12302552,-0.05031826,-0.101476304,0.06690336,0.09393655,0.022151921,0.09511016,-0.014680957,0.04273076,0.18989067,0.09692959,-0.120372355,-0.09934618,0.009374872,-0.17774463,-0.296345,-0.078317486,0.1524484,-0.028211635,0.051548544,0.078100435,0.25551596,-0.07302405,0.13860366,-0.13787611,0.026636057,0.015989697,0.018643172,-0.13633095,-0.21675666,-0.12002306,-0.20752105,0.18740305,0.22969185,-0.0055936496,-0.23095015,-0.19299944,0.21421911,-0.25832742,-0.09227706,0.13138837,-0.09252678
3508:SPIRO_COAL,0.21668512,-0.3358098,-0.009103791,0.36714453,-0.358629,-0.23316021,0.096837215,0.2264923,0.2894255,-0.039410174,0.24886358,0.22885619,-0.14546499,-0.1065032,0.28151247,0.5322618,-0.2680744,0.2563628,-0.15929332,-0.05907734,-0.10953657,0.1840774,-0.026940923,0.027920816,0.016675882,0.12499478,-0.54393363,-0.18543279,0.26791888,0.26591378,-0.43115598,0.11700505,-0.20049997,0.25677654,0.035674985,0.38692924,0.14690405,0.21388091,-0.032606296,0.0033375032,-0.2986744,0.7394981,-0.779505,-0.1574695,-0.1449762,-0.13444197,-0.20062764,0.6397791,-0.10909897,0.30997238,0.37563953,-0.2978577,0.0060975486,0.111790895,0.0452289,-0.22848247,-0.012886749,-0.3259943,0.01773805,0.3167992,-0.27232864,0.20527452,0.9251953,-0.24924731,-0.15074955,0.2167862,0.0958911,0.110717155,0.24887477,0.22029084,-0.34963658,-0.11805535,-0.43208513,0.015741127,-0.0016575652,-0.10435164,0.13411538,0.29206774,0.32413608,-0.4147821,0.20328748,-0.22902767,0.017560886,-0.015797017,0.17583857,0.00703428,0.043703243,0.010078999,0.030817598,-0.060912147,-0.0454697,0.13318563,0.42087063,0.38056508,-0.24740008,0.55967236,-0.43310475,0.13792156,0.03121796,0.031142138,-0.22581546,-0.25010636,-0.35485893,0.0012282875,0.18195623,0.0390735,0.19611862,0.10569097,0.17616954,-0.07913369,0.059750825,-0.52810085,0.13955659,-0.04791941,0.21031035,0.29065716,-0.22417077,-0.27997214,0.132942,0.22489817,-0.08542587,-0.6074619,-0.19500205,0.15336229,-0.24714433,-0.18116769,0.3296351,-0.19900735
3509:PANAMA,0.06927854,-0.23828991,-0.042326223,0.35463792,-0.3523675,-0.22033662,0.067742705,0.1503582,0.22866972,0.031983025,0.15912192,0.23694056,-0.175533,-0.054152694,0.28917688,0.4123184,-0.20715897,0.14517835,-0.03555667,-0.07113231,-0.10331852,0.070329,-0.028997544,-0.007552457,0.10097814,0.08234972,-0.51828945,-0.07436726,0.0917246,0.38514724,-0.3245757,0.17211382,-0.16445677,0.14937559,0.089838505,0.2328971,0.09785016,0.1517883,-0.02032074,0.088336535,-0.37830532,0.8976747,-0.8206568,-0.10780112,-0.116912186,-0.06014776,-0.12162847,0.6925781,-0.15889622,0.4481192,0.41836882,-0.5106151,-0.08224237,0.10075343,0.07519368,-0.33241913,-0.077827364,-0.34941536,0.021628411,0.25907904,-0.33827406,0.24414761,0.79212695,-0.20350647,-0.08927004,0.16681486,0.11439991,0.071608745,0.17612863,0.30237466,-0.4212369,-0.27192292,-0.5243593,-0.0015296612,-0.06892985,-0.21789233,0.07826144,0.29248872,0.24919483,-0.3398079,0.18126558,-0.19192573,0.11155894,-0.09092625,0.12388106,0.026042458,0.07069214,-0.10426869,-0.13858055,-0.08136722,0.062281914,-0.009895028,0.46491566,0.2528029,-0.24173409,0.56162107,-0.32376176,0.030308578,0.15324429,-0.054916196,-0.13603407,-0.173552,-0.37165576,0.10534541,0.21757247,0.15098473,0.14893363,0.11074959,0.21810713,-0.20336747,0.057119817,-0.54460335,0.12722597,-0.025606103,0.11171847,0.14768925,-0.061011862,-0.20188183,0.07938955,0.08588175,-0.17478909,-0.75425357,-0.2749589,0.25422245,-0.23311488,-0.23273003,0.2220589,-0.15356392
3514:HEAVENER,-0.037483905,-0.23041627,-0.06675611,0.36320776,-0.23236434,-0.1496358,0.16472827,0.2897457,0.11438915,0.21708922,0.18287914,0.2829426,0.02722002,-0.06786822,0.16859998,0.28076506,-0.17242777,0.18611346,-0.2844063,-0.014847481,0.18206209,0.008414028,-0.03446188,-0.008250276,0.035142858,0.078851365,-0.38160303,-0.21077101,0.07490691,0.34377193,-0.29692367,0.1069337,-0.19964883,0.26456916,0.18331803,0.12736033,0.06336565,0.13375632,0.12074432,-0.09675037,-0.23097531,0.6671294,-0.4641278,-0.18953186,-0.025978057,-0.070148304,-0.123230085,0.4501149,-0.09526744,0.27846628,0.29227543,-0.09982032,-0.2586248,0.1352574,0.10046677,-0.21578446,-0.0109208645,-0.21345294,-0.0058028493,0.16521373,-0.39448416,0.17156129,0.6926315,-0.20543334,-0.10324261,0.022990245,0.16268915,0.14063148,0.1424614,0.22205241,-0.21898194,-0.13022369,-0.48783275,0.06507798,-0.004558433,-0.010722549,0.16823797,0.16028443,0.119191386,-0.105103455,0.082207635,-0.15082085,0.15273209,0.14386217,0.16128217,0.18111083,0.162393,0.118343785,-0.0225586,0.18897252,0.051530648,-0.016373679,0.40867838,0.008764405,-0.23922195,0.26372635,-0.27699426,0.01880155,-0.04396379,0.105277225,-0.10505233,-0.0884104,-0.07988139,0.15827039,0.2169482,0.07508709,0.07451947,0.101602495,0.27185994,-0.25758404,0.07901795,-0.45252517,0.08528874,-0.12669139,-0.006519614,0.078959055,-0.2061169,-0.23271756,0.12765321,0.03787587,-0.15590242,-0.5937701,-0.041205987,0.03216679,-0.10160652,-0.087611035,0.060844995,0.0700434
3516:TARBY,0.15092817,-0.31159708,-0.09307895,0.34741816,-0.4180018,-0.26250085,0.15613078,0.19959809,0.21888644,0.0868889,0.15383963,0.17094062,-0.18235573,-0.034921292,0.4196974,0.46764266,-0.18721434,0.22016959,0.039051812,0.039802734,-0.047032494,0.040581625,-0.027154125,-0.09921442,0.07737753,0.07281282,-0.53009385,-0.19179533,0.13392341,0.40352517,-0.32127997,0.24026702,-0.10850718,0.28804874,0.07556967,0.3578121,0.10029278,0.14318667,0.08663343,0.11515017,-0.40702105,0.8033868,-0.74973726,-0.17475489,-0.09662884,-0.14988337,-0.14084063,0.62740487,-0.1724831,0.3784706,0.42610085,-0.35128424,-0.08132866,0.11419525,0.073368676,-0.24096374,-0.042693563,-0.32034835,-0.009126299,0.33669922,-0.32061103,0.360636,0.7988698,-0.16491894,-0.14402309,0.15651926,0.114783294,0.17372662,0.15109508,0.3743882,-0.3562059,-0.21949603,-0.4977007,0.07267138,-0.0716924,-0.14140487,0.08025958,0.23347035,0.23871598,-0.23759532,0.18390691,-0.2313516,0.15720105,0.0194741,0.16833729,0.0331494,0.157561,0.029242437,-0.17659082,-0.059476476,-0.0009854502,-0.023627715,0.54030865,0.16960998,-0.24798493,0.57054436,-0.40551913,0.02015258,0.17125098,-0.008125945,-0.13746455,-0.19784325,-0.2968635,0.11482059,0.26841927,0.22255504,0.17051317,0.13834436,0.22304706,-0.21594693,0.01063469,-0.5456924,0.14772892,0.001429989,0.2207746,0.22527413,-0.21751176,-0.22283271,0.0772137,0.140186,-0.047041558,-0.64173347,-0.29302302,0.24272741,-0.316667,-0.11523671,0.27947408,-0.15044107
3607:ROLAND_ROAD,0.11712213,-0.23131365,-0.08726556,0.42059976,-0.32435542,-0.30337298,0.1780242,0.1820325,0.22981854,0.021437105,0.16192195,0.30795503,-0.26215473,-0.003778577,0.29117155,0.42901644,-0.15549007,0.2135513,-0.03781105,-0.048070967,-0.06808342,0.019720754,-0.020139923,0.060495675,0.11232058,0.12532894,-0.6064127,-0.23020425,0.14053972,0.3782439,-0.34496,0.16008608,-0.14692982,0.24728411,0.064860485,0.2109725,0.16783558,0.15289868,-0.10168711,0.07280193,-0.35797697,0.7964516,-0.69193107,-0.114765346,-0.18645327,-0.114165336,-0.05796777,0.5195598,-0.10659219,0.41093996,0.4249268,-0.44258988,-0.04407813,0.09702897,0.0012953989,-0.2681591,-0.06730098,-0.3287509,-0.049288258,0.2527969,-0.39998585,0.21000424,0.8610758,-0.35238162,-0.014656912,0.05449238,0.11618228,0.026581068,0.23711032,0.19873615,-0.33042407,-0.2422984,-0.43622345,0.02291658,-0.10226647,-0.16683164,0.071014374,0.24005745,0.27913654,-0.4111465,0.23955595,-0.24371108,0.15286049,-0.046635702,0.16910778,-0.035944227,-0.027780931,-0.055581007,0.002116182,-0.2147296,0.03809612,0.11817585,0.38922027,0.17828497,-0.21271172,0.49725556,-0.4287075,0.13883056,0.16157506,-0.01034759,-0.18578501,-0.19797368,-0.3859193,0.11295057,0.22455712,0.12505057,0.1281225,0.083497,0.29264838,-0.21463583,0.06798714,-0.5754771,0.086598836,-0.042740423,0.08990478,0.27892554,-0.09806796,-0.22064151,-4.289334e-05,0.0055003874,-0.16476935,-0.6276729,-0.16620311,0.17552233,-0.25765035,-0.23089328,0.3005061,-0.09818358
3608:MULDROW,0.06901864,-0.2692184,-0.04387333,0.3573098,-0.33543903,-0.188926,0.06244017,0.22861658,0.23831916,-0.03039047,0.12871628,0.21175425,-0.1926324,-0.008098383,0.2610134,0.4598761,-0.20446932,0.22989403,-0.0054041073,-0.056969397,-0.06682049,0.0067401016,-0.09707866,-0.06275355,0.1345365,0.09256336,-0.43626425,-0.15692452,0.09662676,0.4017886,-0.25929824,0.30775672,-0.1871929,0.2462931,0.0670903,0.43565795,0.16009629,0.17805094,0.06595798,0.005524377,-0.3212412,0.7876142,-0.7483752,-0.099671066,-0.02507337,-0.12315738,-0.26442456,0.60875297,-0.13739921,0.4247782,0.39295065,-0.39287308,-0.099734895,0.10490011,0.014299328,-0.23953326,0.003116493,-0.3453714,-0.086551204,0.20990644,-0.35809207,0.24526884,0.7951373,-0.29070303,-0.05104566,0.14440657,0.09742992,0.050402924,0.14154144,0.16573921,-0.30389893,-0.19835316,-0.48068798,0.048166856,-0.06762648,-0.20283896,0.071551934,0.093217514,0.2633761,-0.30217353,0.144573,-0.11112264,0.042246487,-0.0278151,0.12804589,0.046049166,0.04768238,0.041557334,-0.064975485,-0.15917566,-0.0045696227,-0.015834691,0.5288267,0.23105809,-0.18636459,0.60049284,-0.28046304,0.045816716,0.1521371,-0.04300346,-0.14519832,-0.122125685,-0.26052675,0.11229099,0.23214108,0.029594218,0.16745748,0.11583007,0.24544144,-0.10949113,0.14508976,-0.520062,0.17166701,-0.028947178,0.097439006,0.38976654,-0.25575918,-0.15971512,0.06994366,0.107552335,-0.09876203,-0.6401145,-0.16325401,0.261055,-0.30144835,-0.118032716,0.25985292,-0.10856699
4105:ENID,-0.34083024,-0.45002392,-0.14671053,-0.4099257,-0.29156998,0.4349572,-0.44132766,0.1779544,0.3756865,-0.29749307,-0.43012646,-0.5569476,0.0814214,-0.19775675,0.117714554,0.35208336,0.2527328,0.15259801,-0.023267107,-0.5200816,0.17790896,-0.19705598,-0.015177332,0.45508164,0.6059615,-0.600116,0.044875078,-0.13759294,0.046083752,0.33890715,0.124609046,0.13111053,-0.0026042853,-0.1766977,-0.15368599,0.07312803,-0.38471803,-0.17528717,0.42968893,-0.18092382,-0.14047295,0.15018252,-0.43699157,-0.42134532,-0.07216554,-0.118819535,-0.32734728,0.27412096,-0.33486277,-0.33710715,-0.019586701,-0.57215554,-0.031973325,0.0123509,0.08178888,-0.27036378,-0.04548782,0.10056906,0.12762766,-0.040751617,0.26168254,-0.23306602,0.4567434,-0.23785971,-0.17482086,0.3689558,-0.21057232,-0.25956458,0.19730827,0.19239175,-0.32102764,0.22019692,0.58857656,0.19009355,-0.033697564,-0.3894992,-0.073363416,0.26729208,0.1722926,-0.36852908,0.48385322,-0.25914338,0.3664613,0.2008026,0.727743,0.4341037,-0.24078102,0.29012913,0.009554033,0.03952704,-0.044137836,0.030415395,0.402171,0.22856228,-0.09178241,0.33377412,-0.1333587,0.08712689,-0.26169142,-0.028353253,0.33182493,0.086445786,-0.13763352,-0.19857028,0.11164426,0.043356057,-0.30529425,-0.11007458,0.06890341,-0.27046072,-0.05846926,-0.10670381,-0.062414937,0.15403989,0.1793377,-0.020063609,0.14985564,-0.04272157,-0.23305376,-0.170755,-0.32048807,-0.29594436,-0.16681875,0.64225113,0.19008873,0.17597838,-0.17835855,-0.14023657
4106:HEMLOCK,-0.37309077,-0.5329179,-0.08205602,-0.5807568,-0.25687033,0.49730143,-0.59136724,0.102760345,0.4044984,-0.3373143,-0.43600693,-0.5729534,0.105054714,-0.12530462,0.12822343,0.49326962,0.17128271,0.20032662,-0.1190665,-0.49582064,0.24329554,-0.14240906,-0.06852099,0.35701677,0.6323388,-0.60075754,0.05998436,-0.09277713,0.05485669,0.4054057,0.018622281,0.16578618,0.007427401,-0.1305704,-0.1122594,0.027639743,-0.30442584,-0.103621714,0.40423602,-0.18276235,-0.16722421,0.20575069,-0.38813174,-0.3924681,-0.06457512,-0.103564784,-0.12199898,0.22244102,-0.32499588,-0.5291357,-0.033531316,-0.7125919,0.0035636048,0.021215692,0.1274518,-0.25003764,0.023904374,0.113656335,0.003084566,-0.06955477,0.2932936,-0.27030548,0.60927445,-0.19815066,-0.2569756,0.3908006,-0.19513008,-0.17511356,0.07644352,0.15709448,-0.3332321,0.10426834,0.3736984,0.23063578,0.07404307,-0.32281673,0.0116886785,0.19425708,0.09137953,-0.45022753,0.45185044,-0.36531684,0.38537598,0.19380647,0.6819888,0.45364386,-0.2949902,0.27064145,-0.038955133,0.0006259218,-0.116249636,0.010042997,0.22767656,0.4299243,0.036700185,0.18714345,-0.12435698,0.1494154,-0.28038195,-0.09546291,0.4542624,0.08489691,-0.16609229,-0.10441926,0.10557353,0.055657886,-0.2832862,-0.038711146,0.072211124,-0.1658822,-0.048748493,0.045205064,-0.10250169,0.104678236,0.09956535,-0.026469033,0.04488959,-0.04610597,-0.18348263,-0.13590062,-0.17631084,-0.26826054,-0.1067436,0.51548,0.17156124,0.1308978,-0.047418233,-0.12185576
4107:CLEVELAND_AVE,-0.37239677,-0.5659255,-0.07260573,-0.41981813,-0.329031,0.48679698,-0.5400368,0.17575638,0.41513795,-0.3378276,-0.4866963,-0.56229085,0.10394044,-0.113746636,0.11281111,0.36108443,0.16337529,0.17143126,-0.047648687,-0.46222475,0.15417044,-0.16684805,-0.065194,0.4491829,0.69394606,-0.60028607,0.19639239,-0.13393275,0.0011646189,0.39026865,0.09404047,0.15719591,-0.081927754,-0.14574496,-0.13538589,0.08684302,-0.35376823,-0.16096166,0.58729845,-0.19474787,-0.18269506,0.11126371,-0.31181157,-0.35317943,-0.14416234,-0.094288245,-0.2472283,0.33294022,-0.35584226,-0.55747837,-0.15955617,-0.7190388,-0.022228586,0.07702868,0.1687277,-0.17309897,0.029209001,0.11393426,0.04955381,0.0033739365,0.2964176,-0.25098243,0.47790584,-0.2174511,-0.28341296,0.33633548,-0.20532462,-0.1286825,0.05853302,0.2678225,-0.37878567,0.05482405,0.21121155,0.22750627,0.0058165602,-0.36153686,0.04582539,0.09917798,0.10372638,-0.36810476,0.52685696,-0.34134963,0.41659066,0.24387053,0.7148502,0.47322473,-0.19366005,0.39696047,-0.010483956,0.088737026,-0.18053643,0.08172188,0.2768003,0.25376526,-0.019945282,0.22877727,-0.1586509,0.1617801,-0.28288105,-0.05992473,0.540635,0.104372576,-0.058509547,-0.04993376,0.21250926,-0.00036093203,-0.2655385,-0.024750294,0.10919894,-0.22596815,-0.01757407,-0.063657045,-0.052914966,0.10689223,0.28115374,-0.08130715,0.1980233,-0.04657053,-0.11568195,-0.073425226,-0.22505236,-0.15717706,0.03824428,0.47056666,0.23058549,0.17543834,-0.094257474,-0.15558428
4109:WAUKOMIS,-0.35143685,-0.48277658,-0.01356268,-0.49903214,-0.28894687,0.5071119,-0.541662,0.12835565,0.3886391,-0.3544509,-0.4632155,-0.5688668,0.062294066,-0.14268945,0.12416028,0.44401485,0.22984411,0.1565509,-0.048505887,-0.4932519,0.22091538,-0.11712395,-0.09512063,0.35277653,0.6132168,-0.55747944,0.04333196,-0.07705547,0.002993386,0.326611,0.034991544,0.18265451,0.061491236,-0.18712814,-0.15257484,0.035883673,-0.35503232,-0.23541552,0.4513211,-0.15271021,-0.26594976,0.20441999,-0.49695295,-0.5189281,-0.12427497,-0.1767511,-0.17711474,0.32197657,-0.28674182,-0.45484734,-0.06296459,-0.6073105,0.012655163,0.01929046,0.12271573,-0.21954359,-0.037595704,0.030283462,0.041211586,0.01417633,0.29024866,-0.30356377,0.6321298,-0.18485993,-0.2646537,0.41645032,-0.19756255,-0.13005897,0.080169946,0.15156926,-0.28814223,0.11158737,0.32884568,0.23626055,0.11187182,-0.3190663,0.041848015,0.2370511,0.12849697,-0.49626082,0.5002052,-0.3429851,0.37670186,0.106701106,0.6663424,0.45386755,-0.31560892,0.31263328,-0.02063694,-0.027571002,-0.048707925,0.048835665,0.21221794,0.3509428,0.03986539,0.25002468,-0.10980296,0.11684448,-0.25315276,-0.13212056,0.41553703,0.08660446,-0.11493297,-0.19780476,0.10885549,0.016139649,-0.31234533,-0.033774234,0.0504553,-0.18047051,-0.0346394,-0.006073573,-0.021161554,0.23855254,0.31300807,-0.07693556,0.16130473,-0.043826737,-0.19785443,-0.066889755,-0.22109084,-0.29743078,-0.07361632,0.5710935,0.17416844,0.1471292,-0.09266665,-0.18303233
4112:CHESTNUT,-0.3707928,-0.45457438,-0.070821606,-0.48293722,-0.24403727,0.42468023,-0.5266722,0.08407749,0.38794833,-0.32046133,-0.41140822,-0.4615457,0.028316656,-0.112376645,0.052660193,0.34148142,0.24550566,0.21466938,0.006871238,-0.46780378,0.10236432,-0.14293243,-0.07065235,0.34340635,0.6619201,-0.5996536,0.13123986,-0.14433227,0.0033496465,0.3465827,0.16003351,0.16005002,0.03030116,-0.15254626,-0.10415169,0.029166047,-0.26346287,-0.15040098,0.36087576,-0.14740627,-0.21078834,0.24252531,-0.49357367,-0.44176057,-0.08543063,-0.13502124,-0.34378317,0.3584372,-0.29781938,-0.4521066,-0.11794538,-0.67839384,-0.0054824054,0.013487713,0.16107343,-0.22398794,-0.026146373,0.12361603,0.05565996,-0.048439875,0.36728415,-0.3599111,0.57584995,-0.24756432,-0.31122944,0.40714484,-0.315657,-0.18840033,0.11758685,0.20638767,-0.3632795,0.13062492,0.29242417,0.25808454,0.09378673,-0.34634197,0.06607136,0.12355357,0.14737009,-0.42494658,0.45106772,-0.276806,0.37548187,0.10825981,0.6776104,0.3922257,-0.23863253,0.35757664,-0.0571927,0.005363465,-0.1298869,-0.006474164,0.28418684,0.3525604,0.035395823,0.2541677,-0.13474046,0.08809562,-0.305488,-0.07452872,0.48039544,0.1119283,-0.10351029,-0.1304283,0.17635623,0.05892736,-0.20443846,-0.06568787,0.08062781,-0.23771267,-0.072473,-0.014728905,0.009266956,0.12462065,0.30219504,-0.04807657,0.16625586,-0.07861055,-0.13497469,-0.010805035,-0.2332471,-0.35803396,-0.06813602,0.5739687,0.21215309,0.20682012,-0.13447352,-0.1498945
4119:GLENWOOD,-0.37159324,-0.55422276,-0.04832523,-0.33496523,-0.289773,0.53390884,-0.58943486,0.20271733,0.37038016,-0.3387917,-0.475409,-0.60878503,0.10350392,-0.12587371,0.22040845,0.43374658,0.21162924,0.20239271,-0.08138764,-0.49286607,0.2587211,-0.19301297,-0.08673993,0.46795574,0.63664985,-0.63982975,0.15958491,-0.040593784,-0.06975842,0.37232804,0.037347887,0.16245465,-0.014790519,-0.081764914,-0.03134493,0.069356,-0.31543666,-0.17245993,0.55150646,-0.17500986,-0.22817619,0.17518556,-0.40873817,-0.40402487,-0.120661736,-0.105332114,-0.1484823,0.29705703,-0.338268,-0.46145007,-0.11307347,-0.5892389,0.016828688,0.054692887,0.06678632,-0.12255073,-0.07279956,0.098112494,0.0821467,0.0108768055,0.28461155,-0.23763783,0.4764061,-0.14721449,-0.22288474,0.35438767,-0.14851315,-0.1689469,0.06394958,0.15703812,-0.23165579,0.10063906,0.3341205,0.1711553,0.042771854,-0.35843888,-0.035293695,0.1803911,0.03877373,-0.421341,0.5171955,-0.32810557,0.37812656,0.13337514,0.67128056,0.498549,-0.2864748,0.26759067,0.0056747734,-0.012115328,-0.037904922,0.1101617,0.24625614,0.2943519,0.042511124,0.22718526,-0.16637845,0.13425921,-0.27229643,-0.09874306,0.437758,-0.012099126,-0.09419285,-0.11569159,0.16975097,0.011006163,-0.32762676,0.061814956,0.07501808,-0.12879655,-0.061099358,-0.010495936,-0.077846505,0.19277748,0.21002072,-0.116842575,0.27158588,-0.022845704,-0.29964572,-0.22667268,-0.28078315,-0.26615366,-0.11820175,0.6126136,0.18741205,0.119817816,-0.107425466,-0.12712865
4123:KREMLIN_TAP,-0.39283004,-0.49554577,-0.114066765,-0.3451332,-0.3186735,0.42038327,-0.47590098,0.2844206,0.37482524,-0.29094648,-0.4535402,-0.603156,0.10193284,-0.22586659,0.20148234,0.524128,0.33012056,0.09650864,0.004920289,-0.61595273,0.16702649,-0.21874104,0.04622355,0.5250408,0.6516627,-0.607862,0.1652661,-0.13105819,0.051238544,0.3026831,0.21968123,-0.02936917,0.005607208,-0.09617141,-0.16982615,0.081933364,-0.299134,-0.17996165,0.2884058,-0.19565463,-0.18827976,0.25004554,-0.47212175,-0.4545896,-0.041586522,-0.07296212,-0.12675902,0.2525463,-0.25548148,-0.3888282,-0.042625,-0.47290444,0.04734867,-0.01522978,0.11303553,-0.25363755,0.05398908,0.08148708,0.040573698,-0.0406679,0.1999753,-0.19162554,0.5146598,-0.2485397,-0.25641865,0.36378777,-0.14873856,-0.2979012,0.08749615,0.12912509,-0.25424737,0.13533121,0.4160192,0.21387081,-0.0008788874,-0.41302094,-0.010418212,0.24050489,0.056375723,-0.44999754,0.47704795,-0.32831007,0.42563635,0.2046316,0.6857258,0.38351813,-0.26940888,0.2878074,0.016195307,-0.0020569763,-0.038683314,-0.03335912,0.37254164,0.34595916,0.0039848853,0.3489382,-0.29324996,0.113146424,-0.36652502,-0.034113195,0.44382447,0.07983618,-0.14798082,-0.21074247,0.14409891,0.12865686,-0.38075468,-0.040453136,0.05254969,-0.3519317,-0.03840988,-0.11018546,-0.15972336,0.2076567,0.21063598,-0.09529079,0.1697312,-0.02017581,-0.37061715,-0.17999461,-0.2694235,-0.093344636,-0.1452214,0.54028594,0.27158508,0.21425414,-0.18565014,-0.17048286
4135:SO_4TH_ST,-0.33248252,-0.540165,-0.0063693207,-0.2925685,-0.32751927,0.39231062,-0.50768954,0.30494303,0.38708177,-0.27621898,-0.33080015,-0.51824045,0.0597772,-0.16191271,0.24171244,0.5898906,0.26547766,0.21241352,0.039872706,-0.60009295,0.1981769,-0.19771992,0.0067550237,0.4999904,0.5859135,-0.6030708,0.11428383,-0.0935841,0.055863306,0.400442,0.14164652,0.041365694,-0.004307147,-0.089607395,-0.12954922,0.0584539,-0.24225906,-0.013816602,0.4043518,-0.23006715,-0.12121022,0.1858242,-0.41285357,-0.4302228,-0.055396657,-0.085207716,-0.25850788,0.1815981,-0.35492498,-0.5024544,-0.08281723,-0.5573514,0.075815,0.05238768,0.106369376,-0.21216886,-0.069861285,0.26745036,0.10078961,-0.0034468488,0.3061925,-0.24940905,0.44921052,-0.13492307,-0.25008634,0.3239009,-0.15497155,-0.28197193,0.0844764,0.14991055,-0.31359884,0.19068727,0.47336835,0.13253602,-0.0464317,-0.35442045,0.0005516914,0.19256936,0.112558134,-0.44582903,0.58021736,-0.30952236,0.447424,0.19536427,0.7661559,0.47877428,-0.29652297,0.3501117,-0.111872554,0.010402439,-0.06410361,-0.04107739,0.26981795,0.39288315,0.0112883635,0.09907361,-0.30982134,0.14479752,-0.505248,-0.05741516,0.65576524,0.10199137,-0.18951233,-0.0780455,0.2119129,0.059272896,-0.360519,-0.03848157,0.10279108,-0.30846,-0.112513684,0.040436376,-0.12942442,0.062410876,0.106798716,-0.023203123,0.10437137,-0.030772652,-0.1849103,-0.1488054,-0.20141317,-0.16230366,-0.039460674,0.4383342,0.2172454,0.18338601,-0.090412706,-0.12222031
4151:VANCE_AFB,-0.34643862,-0.43435222,-0.06299207,-0.5631349,-0.2896392,0.5010489,-0.4921321,0.030166494,0.36840397,-0.35418636,-0.4853871,-0.4551776,0.106395654,-0.11213372,0.11123007,0.34181058,0.26546916,0.1479429,-0.006104553,-0.47532362,0.161411,-0.23242465,-0.026406154,0.43808785,0.51892483,-0.5112027,0.089166164,-0.09318358,-0.09956949,0.1994957,0.12139515,0.22489436,0.10921812,-0.07305055,-0.027069453,0.11353882,-0.16845419,-0.102687135,0.39101607,-0.14898175,-0.19068061,0.16322172,-0.45460668,-0.38995284,0.0028469847,-0.12903611,-0.22978845,0.36901495,-0.20535608,-0.40638193,-0.012142677,-0.6233334,-0.020559141,-0.022391226,0.147385,-0.22325893,-0.029047547,0.0339798,0.036418784,0.047820173,0.16956078,-0.28526166,0.5243756,-0.12643304,-0.25165793,0.3329077,-0.24259533,-0.14404686,0.029334025,0.20919427,-0.3284027,0.16884208,0.35573116,0.24450143,0.13015535,-0.31464234,0.055444214,0.16905417,0.11967828,-0.3400787,0.46398178,-0.34899652,0.32955286,0.05452626,0.83543026,0.57583946,-0.44631287,0.446931,-0.11611325,-0.1344925,-0.048140343,-0.049859192,0.3375469,0.3691472,0.07952098,0.2681971,-0.15475152,0.15422264,-0.4366394,-0.089776695,0.56408256,0.10302792,-0.24661963,-0.19562398,0.21391791,0.09223461,-0.26192755,0.08496424,0.08659385,-0.113783136,0.0041644517,-0.06656509,0.046283204,0.22000594,0.44568598,-0.15021288,0.4143786,-0.089635246,-0.39433655,-0.034267507,-0.24070211,-0.31876844,-0.13198346,0.5899578,0.1326215,0.29250905,-0.19532073,-0.1708844
4153:IMO,-0.40061012,-0.508315,-0.18928099,-0.35721764,-0.24087144,0.2683364,-0.4878598,0.13132817,0.4295627,-0.21463682,-0.3133874,-0.39785865,-0.029309668,-0.06724784,0.024860794,0.47506523,0.38611475,0.20832044,-0.000110599394,-0.6097367,0.0120915435,-0.20375973,0.026344562,0.27509472,0.7202671,-0.6698496,0.25358307,-0.13603526,0.10120618,0.32510692,0.2755792,7.2397444e-05,0.028097713,-0.118985355,-0.19844739,0.042808875,-0.40172753,-0.24169777,0.37445694,-0.13250767,-0.22614034,0.315095,-0.70133716,-0.6039414,-0.0555888,-0.08815325,-0.07621586,0.27544668,-0.2570015,-0.62461233,-0.13431269,-0.56818223,0.13711573,-0.079846695,0.07480746,-0.08802752,0.05378145,0.1219383,0.099628404,-0.13053697,0.32395843,-0.2106084,0.4521052,-0.2920308,-0.3975845,0.36718637,-0.3484917,-0.4016743,0.065256216,0.08718203,-0.29750177,0.16147661,0.35272598,0.29999775,0.12906405,-0.3785485,0.05910465,0.126635,0.05383201,-0.4990644,0.29833543,-0.38286746,0.33061203,0.23201212,0.7938998,0.36611786,-0.28665954,0.31375203,-0.068568915,0.049836535,-0.19194914,-0.20393933,0.43517035,0.6155839,0.11850559,0.48603866,-0.09564885,0.07442362,-0.20654094,-0.0651863,0.5640594,0.13553536,-0.11366221,-0.18775377,0.1281185,0.26442254,-0.2228235,-0.16617975,-0.095955595,-0.27226767,-0.06538223,-0.024321962,-0.21737838,0.18488939,0.009224972,-0.003434968,-0.010210991,0.007351684,-0.28075328,-0.2587964,-0.23461325,-0.27728793,-0.2979057,0.4979614,0.31892335,0.098921165,-0.21197322,0.03936671
4157:NE_ENID,-0.32189536,-0.6249092,-0.12790833,-0.45607838,-0.36438328,0.4621297,-0.4354825,0.15492281,0.43890983,-0.31951517,-0.5031088,-0.6016531,0.10532149,-0.15691386,0.17182869,0.50394493,0.2674393,0.14343314,-0.07559101,-0.5823971,0.20601806,-0.08168719,-0.081902914,0.38303187,0.5811058,-0.5441937,0.10905601,-0.038468663,0.035264768,0.3240717,-0.008645134,0.16592574,0.027677529,-0.1777536,-0.08024698,-0.075799234,-0.26732513,-0.21524638,0.26651263,-0.17528133,-0.21369092,0.24126199,-0.3928969,-0.4307703,-0.105444945,-0.107365526,0.01691632,0.24474283,-0.2748439,-0.56809396,-0.0018770348,-0.69079757,0.02017048,-0.001691568,0.12858362,-0.28022984,0.031485833,-0.020628378,-0.046778426,0.049137283,0.257165,-0.28784943,0.67087656,-0.2123983,-0.30093515,0.4324109,-0.2086708,-0.20520797,0.015293466,0.08700068,-0.20245987,0.10344196,0.31555644,0.21281399,0.109161064,-0.25761744,-0.06264683,0.23632923,0.049245283,-0.39371783,0.45471135,-0.3344846,0.3319379,0.059615295,0.69949096,0.49912864,-0.2580794,0.28955972,-0.06564033,0.009823808,-0.027548246,0.038443424,0.22107768,0.27117467,0.120613664,0.2490294,-0.100559756,0.1720647,-0.23149212,-0.12131079,0.43779278,0.026848877,-0.060745973,-0.18023,0.15054598,0.052052855,-0.34407842,0.02784264,0.027112463,-0.15510984,0.012841731,-0.045105804,-0.06444717,0.29629418,0.3364027,-0.21077159,0.3520827,0.02367972,-0.39876792,-0.19023034,-0.255974,-0.22459897,-0.1871775,0.64141446,0.22370923,0.12272002,-0.062222548,-0.17496663
4158:FAIRMONT,-0.3172588,-0.529536,-0.1588475,-0.36787823,-0.29929176,0.38857856,-0.38766873,0.12010357,0.37503058,-0.32423604,-0.43957007,-0.53324693,0.14554133,-0.17954665,0.13538851,0.38296872,0.30204257,0.11398067,0.07075074,-0.56244904,0.1085919,-0.23536645,-0.09606546,0.44880217,0.63629174,-0.713049,0.18506007,-0.18604173,0.0144305,0.38316795,0.14301173,0.19756445,-0.03539545,-0.13492781,-0.15342316,0.17752899,-0.40084127,-0.18382718,0.5094288,-0.22327968,-0.1821323,0.2736501,-0.5155528,-0.44084108,-0.028779479,-0.12104329,-0.33540517,0.3929784,-0.27150908,-0.47391495,-0.14122726,-0.6284446,0.0672414,0.0014971499,0.098474026,-0.21059227,-0.043677833,0.18859994,0.09914173,-0.011476754,0.23986603,-0.107392356,0.19278046,-0.08352452,-0.30408388,0.4322919,-0.25238538,-0.23689492,0.18816625,0.26029927,-0.42924157,0.18610755,0.5445573,0.286576,0.03446761,-0.43333775,-0.029362759,0.239024,0.14298953,-0.44170317,0.43867236,-0.31926104,0.35256273,0.24670884,0.75859475,0.47650748,-0.37016502,0.28424016,-0.036866553,-0.042459268,-0.15641333,-0.055948947,0.31897953,0.31932855,-0.036102634,0.3095545,-0.006738467,0.11119342,-0.18721089,-0.10575323,0.30388233,0.041494858,-0.18258949,-0.15018658,0.12214384,0.07330159,-0.3080429,0.01954493,0.046968948,-0.1304147,0.02869065,-0.11748736,-0.18983251,0.09803249,0.11393227,-0.057508152,0.084098145,-0.05636127,-0.32539678,-0.22509234,-0.22016703,-0.33494538,-0.24426123,0.59811264,0.1616804,0.11964318,-0.10803855,-0.13807002
4210:MEDFORD,-0.2653964,-0.44475755,-0.27589393,-0.47013032,-0.13745591,0.4038992,-0.4198192,0.08019429,0.3286798,-0.20514685,-0.40968993,-0.5938928,0.10250087,-0.20083754,0.24038795,0.5139712,0.39072138,0.19146961,-0.065900154,-0.6316764,0.064844824,-0.25769308,0.04606813,0.469121,0.7460368,-0.7403299,0.17736532,-0.09343532,0.059570793,0.4087994,0.11903833,0.08863906,0.07832545,-0.05296925,-0.053773113,0.058417786,-0.31210893,-0.112419225,0.40097636,-0.16799171,-0.1212733,0.2575842,-0.5630024,-0.44917607,0.025087116,-0.083999775,-0.18265964,0.17124589,-0.35459715,-0.36823705,0.067551866,-0.82342833,-0.056794986,-0.058421426,0.07218795,-0.39262772,-0.01288093,0.17062607,0.056424383,-0.12093913,0.26412776,-0.27681115,0.6472604,-0.24875239,-0.24356376,0.40684313,-0.28771412,-0.29440627,0.171183,0.07932494,-0.31624818,0.21587148,0.50013036,0.21323837,0.1043164,-0.24894257,-0.04365179,0.13944748,0.06435247,-0.4460849,0.31695938,-0.23309597,0.29645172,0.07649395,0.6482383,0.34740818,-0.31193948,0.1954623,-0.12476175,-0.056990966,-0.020167127,-0.10185644,0.21045427,0.3258298,0.07407014,0.13151546,-0.15009506,0.107279055,-0.3970389,-0.027166765,0.44953677,0.030128844,-0.30061257,-0.13649881,0.17081223,0.13399632,-0.30645522,0.045119874,0.14628631,-0.1811108,-0.102603294,0.011354365,-0.15953197,0.06059029,-0.017823877,0.0045220023,-0.009976524,-0.042240426,-0.24226822,-0.1230173,-0.19360465,-0.21287443,-0.23526911,0.5815482,0.25739774,0.14154899,-0.12656628,-0.15179181
4219:BUNCH_CREEK,-0.24061628,-0.3781265,0.0398474,-0.41518816,-0.22077172,0.4110435,-0.52491516,0.13783722,0.38238907,-0.22426498,-0.46118775,-0.60322726,0.10604416,-0.32957986,0.2976283,0.6098595,0.15521602,0.32147557,-0.10419034,-0.62771434,0.25831455,-0.22000991,-0.07659773,0.45891088,0.83219475,-0.6492056,0.0070079034,0.02258537,0.027934017,0.39210147,0.031459928,0.25359696,0.036421537,-0.06641293,-0.04528398,0.029069506,-0.2266695,-0.06224648,0.4755796,-0.10227045,-0.32534376,0.24173896,-0.49933782,-0.49463058,-0.15383147,-0.24476771,-0.28272814,0.3757853,-0.38924593,-0.6936631,-0.10767272,-0.56441927,0.031590454,0.036197543,0.1792166,-0.12105172,-0.15010224,0.23477584,0.06454202,-0.063461706,0.41497272,-0.4387418,0.4596263,-0.08724854,-0.20523973,0.4138151,-0.18903102,-0.2333631,0.053171664,0.13215892,-0.14957346,0.20601052,0.50161004,0.11530248,-0.009427702,-0.28075957,0.015959788,0.2000133,0.09249591,-0.40342158,0.5163667,-0.37888685,0.3277908,0.03813161,0.74810296,0.46746203,-0.2473048,0.35609174,-0.07866829,0.0076502543,-0.073019646,0.11009428,0.33112678,0.500587,0.084813066,0.15244547,-0.08571189,0.05838728,-0.21848239,-0.1418231,0.25682414,0.10403485,-0.21409295,-0.013910794,0.22690117,-0.030644579,-0.2422326,0.08589012,0.1662801,-0.19936824,-0.040506955,0.013159706,-0.085221834,0.08038271,0.21279325,0.024205714,0.06894586,-0.030867139,-0.16215679,0.042205382,-0.08783009,-0.12175263,-0.070991434,0.35278866,0.12129244,0.13489182,-0.09766144,-0.24943668
4220:CLYDE,-0.37946296,-0.51840705,-0.09863969,-0.43957263,-0.2898613,0.5299807,-0.5168345,0.054653313,0.3318991,-0.345437,-0.5281489,-0.57091665,0.16539344,-0.14979188,0.1659837,0.35188797,0.1720133,0.16494678,-0.097318836,-0.5238011,0.27444148,-0.22712642,-0.10291802,0.4951504,0.6608765,-0.6755277,0.19151622,-0.14879325,-0.12789077,0.32571927,0.064778484,0.22813289,-0.019290349,-0.08602203,-0.0073658186,0.14281924,-0.2558054,-0.060362432,0.53033406,-0.19406246,-0.17464152,0.14816126,-0.30711433,-0.30777326,-0.022003282,-0.09458468,-0.19648203,0.35743403,-0.27075246,-0.41473392,-0.099490255,-0.60958785,-0.02160461,0.077356935,0.06407443,-0.11457696,-0.030096699,0.07664331,0.052918795,-0.034134205,0.23432137,-0.2033162,0.42633718,-0.09239171,-0.27455145,0.41603607,-0.20967323,-0.13195924,0.049714126,0.2939233,-0.36769253,0.13791947,0.42350224,0.31751388,0.07901666,-0.4416004,0.039889973,0.21641444,0.10569504,-0.4608384,0.50069314,-0.4122135,0.36214304,0.18461044,0.74137855,0.57989657,-0.38205397,0.3374822,0.025016991,-0.079561345,-0.11155791,0.15589632,0.2924923,0.27113375,0.007855628,0.28318408,-0.16046141,0.1494287,-0.2802072,-0.058112986,0.36060444,0.03907153,-0.16347103,-0.069846556,0.17409185,-0.02255936,-0.24746747,0.04520096,0.05067583,-0.067451015,-0.021502836,-0.010156267,-0.041614562,0.084984064,0.22665715,-0.09695499,0.26246044,-0.072430305,-0.2527157,-0.1797937,-0.22271867,-0.2797772,-0.06716911,0.53013474,0.09554513,0.18738973,-0.1121285,-0.21028769
4230:THREE_SANDS,-0.2215958,-0.38814738,-0.24775803,-0.541023,-0.22160602,0.33057413,-0.3259718,0.16239062,0.4541031,-0.26161095,-0.4640661,-0.58495116,0.08762555,-0.28018486,0.17191562,0.5267013,0.3265844,0.20046768,0.06066528,-0.56351966,0.14986147,-0.20257272,-0.0017265803,0.31137866,0.9134073,-0.71219754,0.05331371,-0.11272931,0.1679266,0.41854694,0.2951468,0.15108852,0.033336166,-0.16649431,-0.23070785,0.031982876,-0.37369516,-0.26223913,0.36636674,-0.15212454,-0.18308774,0.044905595,-0.50339526,-0.49258772,-0.2016471,-0.13365899,-0.19086353,0.10066594,-0.28981373,-0.4410056,-0.13333285,-0.42394596,0.07673728,0.021673132,0.1169786,-0.17674509,-0.040317617,0.15006386,0.15768601,-0.019860312,0.2588415,-0.13449103,0.02113395,-0.2870569,-0.22211298,0.24369358,-0.18135801,-0.32986927,0.09043259,0.12615062,-0.33755398,0.19000648,0.4011436,0.19231042,0.013511307,-0.3560639,0.056017548,0.120295785,0.22628656,-0.5091848,0.41177252,-0.28630084,0.30248365,0.16669476,0.73728937,0.31847754,-0.2417062,0.31832018,-0.06578473,0.18368563,-0.24760711,-0.09376331,0.32787895,0.47792056,-0.001598772,0.24945854,-0.09543559,0.1008467,-0.28769082,-0.055382784,0.5419944,0.18225121,-0.107969165,-0.27295083,0.19702469,0.100633554,-0.31834918,-0.13479713,0.1795391,-0.48539713,0.05748929,-0.1547994,-0.19115274,0.07550189,0.11677599,0.120404854,0.03245648,-0.025734315,-0.43104273,-0.25922468,-0.40918213,-0.5836815,-0.3508246,0.8003836,0.2990005,0.22068428,-0.1496797,0.099190585
4239:OTOE,0.45224884,0.08481383,-0.45149562,0.39323035,0.103908315,0.01959669,0.7291173,0.04782046,0.07610973,0.16713898,-0.47229257,-0.45351166,0.3296403,-0.8420331,1.0165361,0.63543195,-0.38865617,-0.2921842,-0.2592863,-0.035019778,0.51364523,0.10915859,-0.07145542,-0.05603779,0.13806638,0.061185963,-0.40883768,-0.12820493,0.21143779,-0.11133258,-0.27743492,0.09618618,-0.025867742,0.13472916,-0.084887505,0.14418645,-0.2714936,-0.33427253,0.6213973,0.14584291,-0.24167356,0.24870802,-0.3167082,-0.33572853,-0.25206482,-0.09597497,-0.38235372,0.4166311,-0.2616156,-0.49445352,-0.050997302,-0.361899,-0.08225067,0.043540485,0.2628644,-0.08599385,0.0073670526,0.17885849,-0.064729676,-0.28316242,0.07113248,-0.39489368,0.35746995,-0.32048833,-0.305413,0.3881731,-0.31977302,-0.042350624,0.33675617,0.3640577,-0.3664208,0.24166447,0.51846695,0.3767001,-0.14511952,-0.04930303,0.045765303,-0.15247044,0.15622754,-0.033553127,0.28643197,-0.38958314,-0.09716024,-0.016448485,0.3968288,0.107438594,-0.1777775,0.1296233,0.23571761,0.19007283,-0.14106698,0.15947497,0.16127838,0.1199216,0.07520967,-0.15583836,-0.39220053,0.04871037,-0.34728998,0.036421034,0.72134453,0.022478724,0.15988779,-0.22300917,0.0018852546,0.03409669,-0.39278385,-0.10083152,0.08927981,-0.6321263,-0.117027566,0.28154254,-0.096145965,0.26188606,0.19239253,-0.17417157,0.5695259,-0.13089892,-0.68466926,-0.19942835,-0.18219581,-0.0059204353,-0.04925622,0.36112207,-0.01534079,0.28297082,-0.36535177,-0.14382467
4240:DEER_CREEK,-0.43218076,-0.50419134,-0.08277866,-0.49162942,-0.2817507,0.5524962,-0.52771425,0.13108432,0.34020913,-0.3171824,-0.5014143,-0.5606694,0.14650084,-0.123466164,0.13620652,0.3850829,0.17684168,0.14107148,-0.092032894,-0.5085994,0.21152179,-0.1955073,-0.041799422,0.49864498,0.72671956,-0.62587434,0.076335296,-0.11806897,-0.08027768,0.36360952,0.101461895,0.16396374,0.013427401,-0.12932047,-0.079047196,0.08438274,-0.30534515,-0.14030544,0.4604154,-0.20571686,-0.1298824,0.011452045,-0.2733693,-0.32874796,-0.064175926,-0.05196991,-0.09335231,0.19380309,-0.2778525,-0.35461527,-0.04308025,-0.5928333,-0.027934037,0.041614406,0.09542145,-0.18975872,0.029953992,0.06856961,0.054065887,-0.0015275446,0.17921537,-0.13343833,0.43575522,-0.19467147,-0.26765516,0.3434733,-0.18294232,-0.17313522,0.06667125,0.24027179,-0.32432812,0.17602032,0.33479536,0.2296556,0.064336285,-0.4609568,0.008629999,0.19418932,0.12701552,-0.47953945,0.5156252,-0.3297203,0.3902649,0.15087275,0.7140372,0.46469232,-0.30120102,0.32837185,-0.017318109,0.0040064473,-0.098088354,0.053112376,0.31850752,0.29413438,0.011183994,0.2930753,-0.25558257,0.1745893,-0.39056212,-0.022055555,0.6057514,0.06069581,-0.113495894,-0.12529448,0.23673458,0.08845078,-0.35414302,0.04963858,0.12069594,-0.23744643,-0.042942207,-0.06464888,-0.054169513,0.15180823,0.24933325,-0.11383924,0.26152667,-0.06425265,-0.26810133,-0.2023263,-0.25998238,-0.25689867,-0.11483632,0.56497055,0.18577316,0.22159511,-0.07642963,-0.10615426
4256:SINCL_BLKWELL,-0.35003468,-0.46420515,-0.1609239,-0.5130476,-0.2941722,0.50943995,-0.51210296,0.11735066,0.3604641,-0.37321258,-0.6210288,-0.6702197,0.17830774,-0.20007382,0.21135552,0.38624963,0.21650979,0.09142698,-0.12080924,-0.4293499,0.31147692,-0.17959176,-0.018503202,0.43775183,0.6863732,-0.5849527,0.100285366,-0.04221782,-0.05137697,0.3033774,0.09558173,0.11590651,-0.029286353,-0.03277005,0.0042974018,0.1111249,-0.145285,-0.10156011,0.39336166,-0.1998777,-0.17257182,0.21169233,-0.40898916,-0.385144,-0.06587306,-0.051908616,-0.16863342,0.27354646,-0.25373587,-0.44896024,-0.059394713,-0.53131723,0.017296007,0.01217709,0.16398428,-0.14101268,0.08419939,0.028356917,0.10280298,-0.021534959,0.15211275,-0.23920019,0.48634565,-0.2812483,-0.24717416,0.3531296,-0.21725142,-0.26173317,-0.033907536,0.2052286,-0.24689393,0.17701732,0.4387914,0.24998803,-0.026347358,-0.4881404,-0.021745905,0.19228835,0.049511306,-0.39457,0.48439202,-0.33751073,0.42361692,0.17940624,0.71178675,0.4899028,-0.20216706,0.42025796,0.052906297,0.0418814,-0.19978134,0.034852862,0.3427579,0.31684014,0.038653012,0.24348353,-0.17908451,0.20725703,-0.2982345,-0.055392854,0.5311864,0.0996938,-0.09868402,-0.13425653,0.1513766,0.030812617,-0.2892973,-0.07304424,-0.019219702,-0.1989138,-0.08757796,-0.024019813,-0.1054086,0.082333654,0.24713944,-0.06079234,0.19681244,-0.077725664,-0.4108191,-0.16098751,-0.2386211,-0.24573618,-0.12302876,0.52692896,0.25782645,0.28489646,-0.15259124,-0.1523648
4261:WHITE_EAGLE,-0.34157044,-0.5032872,-0.15671961,-0.49564883,-0.17517535,0.51821154,-0.53909993,0.032241505,0.3782364,-0.25136685,-0.5885843,-0.60743654,0.11720387,-0.1967073,0.20672646,0.3578442,0.25735456,0.21523026,0.018841896,-0.4902623,0.0040806103,-0.20435986,-0.06877703,0.45783105,0.76529485,-0.6206719,0.17102723,-0.17033313,-0.077382594,0.27302286,0.07196887,0.20078138,0.0071029444,-0.1164106,0.012768428,-0.00095074414,-0.09206292,-0.05074193,0.1852729,-0.14939068,-0.16123603,0.15670124,-0.32884654,-0.3742594,-0.05429387,-0.040712055,-0.34715506,0.21647528,-0.42009765,-0.45500985,-0.061943255,-0.9442171,-0.05791774,0.15888417,0.08445635,-0.33696228,0.049564824,0.06187983,-0.004851418,0.00442651,0.36683786,-0.38535464,0.75183046,-0.28625742,-0.22730358,0.44987002,-0.22476572,-0.19959189,0.07062001,0.15666743,-0.2883889,0.07330893,0.37083852,0.3201191,0.071110606,-0.3308122,0.02036578,0.03195321,-0.011076901,-0.45448127,0.52713794,-0.34322214,0.21933775,0.07281945,0.80358905,0.49063116,-0.40395945,0.31469178,-0.02448921,-0.06641845,-0.03804768,0.08755172,0.27837595,0.48222384,0.10857022,0.099163175,-0.10578786,0.025851792,-0.30509573,0.077502914,0.28024197,0.06119563,-0.08157537,-0.063938975,0.24782757,-0.08289965,-0.23953144,0.028130002,0.07218378,-0.14910729,0.05226131,-0.021181913,-0.07870619,0.031193743,0.14243595,-0.04786484,0.3625952,0.0071437075,-0.14527616,-0.13752879,-0.37574828,-0.26821184,-0.025292423,0.56111056,0.15456167,0.088715196,-0.13501213,-0.13150518
4353:OTTER,-0.32020196,-0.42475373,-0.041589666,-0.3614719,-0.23480372,0.35686105,-0.49957585,0.12312978,0.3581,-0.29097438,-0.40731996,-0.48185897,0.09073275,-0.09444022,0.1321727,0.35569617,0.3264465,0.26280296,0.021433286,-0.48423433,0.115703255,-0.20855121,-0.03864015,0.5116486,0.69466984,-0.6606851,0.22739512,-0.0322376,0.008167724,0.40878224,0.15140316,0.17009546,-0.013690437,-0.1518087,-0.07873985,0.023713341,-0.31217963,-0.18998952,0.45599455,-0.14082243,-0.2401505,0.2249263,-0.41064018,-0.42112502,-0.10794778,-0.13572298,-0.07700823,0.27946877,-0.32733417,-0.49924016,-0.01799066,-0.65104514,-0.05644203,0.010567422,0.09994071,-0.17081505,0.025696851,0.007325222,0.06263498,-0.037339278,0.31638694,-0.32503402,0.639481,-0.21008362,-0.2279992,0.40062374,-0.17500217,-0.13630246,0.023411814,0.14032511,-0.23342587,0.05617889,0.36513868,0.28439352,0.057445012,-0.38149905,-0.006385919,0.22012857,0.09554791,-0.4221676,0.53240776,-0.3893843,0.37676603,0.14704053,0.6482692,0.4824183,-0.30496332,0.27222762,0.0559696,0.020940274,-0.079258405,0.117074765,0.23983477,0.4934232,0.02298541,0.20587146,-0.20606785,0.16697504,-0.29789078,-0.086967036,0.4200745,0.0443532,-0.098495744,-0.06448809,0.12928504,0.011556963,-0.28486478,0.005557833,0.0904396,-0.1607137,-0.005187038,-0.042890217,-0.01945104,0.2108721,0.24938881,-0.047934283,0.16676365,-0.0060406653,-0.17230886,-0.078402795,-0.2983175,-0.27637127,-0.101989016,0.67832464,0.26456347,0.09901377,-0.11181603,-0.18016395
4354:BRONCO_ROAD,-0.09269317,-0.37525433,-0.10026027,-0.4126871,-0.19425373,0.37159878,-0.42789766,-0.0356079,0.51793104,-0.3804957,-0.4644232,-0.5151027,0.20566066,-0.22370176,0.2830271,0.490872,0.18498018,0.46114284,-0.18716627,-0.5481269,0.30598038,-0.21664476,0.010738879,0.49464768,1.042859,-0.73728496,0.23537675,0.060459834,0.17205639,0.2813634,0.25365555,0.16178162,0.09578936,-0.02527611,-0.15033543,-0.11998239,-0.38007623,-0.28290057,0.58930963,-0.14677636,-0.29964197,0.33680022,-0.48226,-0.31595266,-0.30213484,-0.20578173,-0.3673874,0.26250228,-0.17566793,-0.73512465,-0.15402938,-0.66449046,0.17679477,0.07255547,0.35578948,-0.2806322,-0.061114848,0.20126225,-0.1424825,0.043967392,0.2111211,-0.42033687,0.35669577,-0.24590494,-0.2817092,0.63420266,-0.39174214,-0.111404926,0.0070453137,0.20192416,-0.3683416,0.17091437,0.5273972,0.28689525,0.09084424,-0.33073807,-0.08516094,0.081235945,0.07008112,-0.33292007,0.4106161,-0.2871606,0.3670778,-0.018343134,0.643187,0.43496862,-0.03997922,0.3414403,-0.18399322,0.082733184,-0.35717207,-0.02287883,0.20595461,0.31061575,0.27546185,-0.054520536,-0.1245586,0.082894735,-0.28013578,-0.22691596,0.60803497,-0.016591886,-0.11554385,0.0018159014,0.15044273,0.10221519,-0.36058477,0.106075,0.4709497,-0.32280874,0.004218491,-0.02030892,-0.049702924,0.1067754,0.23706229,-0.1488332,0.2179648,-0.13594134,-0.3266637,-0.011430658,-0.010686507,-0.12780988,-0.09862168,0.41144392,0.1412207,0.2841686,-0.05647619,-0.15181908
4414:HENNESSEY,-0.33515504,-0.4175347,-0.00062709063,-0.4537663,-0.2521812,0.39751586,-0.5591477,0.06905934,0.35592395,-0.37444267,-0.41468155,-0.44001377,0.15569651,-0.06033705,0.15560864,0.23743637,0.2693593,0.18835896,-0.062495086,-0.37800467,0.26737607,-0.26317552,-0.010433893,0.5733965,0.5970156,-0.6554944,0.10611944,0.039434288,-0.04168683,0.39807966,0.06981425,0.22147289,-0.025373157,-0.036274325,0.028348718,0.13383892,-0.24813809,-0.116423175,0.53730536,-0.22568841,-0.15461868,0.3081747,-0.4845059,-0.40003562,-0.029063396,-0.10635164,-0.2819513,0.32508662,-0.3751663,-0.6422655,0.02875202,-0.7342447,-0.07413635,-0.057162292,0.18971835,-0.16050911,-0.057882477,0.15964302,0.15187724,-0.016067205,0.19000421,-0.27584687,0.46101618,-0.14185715,-0.19872145,0.37394094,-0.26167035,-0.21203515,0.080994144,0.28348845,-0.28344098,0.27253795,0.57070005,0.20741369,-0.044010174,-0.45112762,-0.19185941,0.2718226,0.078458935,-0.19998717,0.5538924,-0.31680623,0.47134316,0.2056535,0.7218832,0.6240948,-0.19794025,0.33362195,0.01133879,0.037883192,-0.15495797,0.06650772,0.40584928,0.3133993,-0.008385856,0.1978105,-0.095241286,0.21106394,-0.23943406,-0.14070676,0.34863687,0.027831255,-0.2252178,-0.045407154,0.07227125,0.04050059,-0.35586095,0.00010835362,-0.013313669,-0.060343474,-0.08404165,-0.013969111,-0.06844887,0.17789148,0.2665724,-0.08453048,0.13771646,-0.11697249,-0.36685437,-0.121379174,-0.19559048,-0.3171231,-0.20832726,0.62907976,0.20155853,0.21428838,-0.10565084,-0.17294554
4461:TURKEY_CREEK,-0.32700142,-0.44281086,-0.08762508,-0.42110357,-0.25111806,0.40109092,-0.41965544,0.112377144,0.41059545,-0.30255762,-0.4770948,-0.5214224,0.07197825,-0.1633468,0.20913118,0.4636926,0.29412088,0.16290548,-0.0655622,-0.5632841,0.22342546,-0.17025727,0.004392831,0.4735597,0.80152386,-0.6582992,0.111803815,-0.03812588,-0.004930377,0.37183282,0.17553471,0.107032046,0.03306276,-0.08382697,-0.032009475,0.023982503,-0.26206616,-0.21788596,0.41680688,-0.15686257,-0.2549613,0.25644103,-0.4607874,-0.46236,-0.13537976,-0.13149908,-0.08795071,0.21140024,-0.35081923,-0.567463,0.010160782,-0.6808166,-0.020241177,-0.007911819,0.14652433,-0.20071635,0.010180528,0.0049425797,0.039917883,-0.010297595,0.22629638,-0.27169847,0.61676836,-0.30855626,-0.30121312,0.33603626,-0.1996359,-0.191815,0.017149525,0.16498475,-0.27123788,0.121374615,0.25138688,0.22749062,0.100847594,-0.33664072,0.042686578,0.16393232,0.11174783,-0.4784944,0.5088006,-0.29786697,0.37409776,0.06608522,0.5935997,0.37124825,-0.24822846,0.27872556,-0.013019047,0.068225525,-0.0765124,0.048109006,0.234339,0.29945624,0.04735314,0.23978686,-0.1588976,0.14612295,-0.2232323,-0.06290854,0.3726563,0.06257166,-0.06289225,-0.13965853,0.14978004,0.017262284,-0.29489264,-0.03355107,0.04802233,-0.2540123,-0.050243795,-0.046806313,-0.043897286,0.20954858,0.31066704,-0.086652465,0.16626862,-0.0048254444,-0.3049001,-0.12331287,-0.23016933,-0.23246247,-0.1114933,0.58206767,0.2817077,0.20338096,-0.044591516,-0.11837044
4518:MENO_TAP,-0.21525727,-0.480383,-0.20358108,-0.52959883,-0.19557525,0.46253774,-0.4849491,0.08907789,0.3872031,-0.2755883,-0.46683493,-0.66076654,0.13698493,-0.19126385,0.20770024,0.5259222,0.2938389,0.28357533,-0.15372118,-0.5894666,0.21146761,-0.17778178,-0.046171196,0.4352177,0.8619071,-0.6966898,0.061951097,-0.047027458,0.17736124,0.43472546,0.008459157,0.18209447,0.0316223,-0.11430921,-0.16816431,0.035507843,-0.36972594,-0.21492857,0.52208143,-0.107448176,-0.25309873,0.26658612,-0.49313185,-0.47076458,-0.13879034,-0.17000194,-0.1632114,0.22059715,-0.3301662,-0.51104754,0.0008766918,-0.7722868,0.011173295,0.06180601,0.10475155,-0.32812944,0.058734346,0.0077670575,-0.002645713,-0.028004557,0.3189545,-0.35675353,0.7126032,-0.27844244,-0.15856637,0.38668916,-0.13718054,-0.15021025,0.073250644,0.04076416,-0.2981437,-0.0021470324,0.31524512,0.27511975,0.13792567,-0.19481763,0.058592755,0.13405505,0.04873355,-0.45655987,0.40877768,-0.31418133,0.28072307,0.072104216,0.67357963,0.4058399,-0.30490676,0.2570523,-0.07371946,0.022209598,-0.11112445,-0.040178116,0.08255473,0.44827685,0.10665899,0.03359836,-0.056676093,0.13281663,-0.28234982,-0.08318982,0.56910425,0.08145019,-0.11367989,-0.17340712,0.07769361,0.061827965,-0.31379044,0.01629455,0.17666247,-0.16928478,0.019690527,0.0061196648,-0.14260668,0.18726456,0.10963533,-0.045637634,0.09751728,0.04095194,-0.20129243,-0.034761753,-0.18633373,-0.034000237,-0.05234816,0.48559293,0.31272888,0.07236148,-0.12428838,-0.17766753
4528:SALINE,-0.11577334,-0.3197973,-0.10018782,-0.124393895,-0.19842353,0.28490385,-0.116066225,0.08827388,0.2558848,-0.14827943,-0.42469954,-0.44934067,0.20715538,-0.30607226,0.42525592,0.4611596,-0.06254042,0.0044342102,-0.2615597,-0.34755355,0.35240886,-0.13399598,-0.10171978,0.24908428,0.43763673,-0.3728681,-0.07291825,0.0020851365,-0.08138308,0.19864865,-0.119729064,0.25095072,0.04342415,-0.054043096,-0.043883607,0.17050907,-0.31410348,-0.22810817,0.6564151,-0.0973438,-0.3232119,0.20611337,-0.40230054,-0.37519807,-0.08359251,-0.18427786,-0.22376843,0.39959055,-0.35233182,-0.53902465,-0.044794254,-0.7120838,-0.11036087,0.010072155,0.15212977,-0.14350015,-0.06671763,0.111486875,-0.08293716,-0.1006066,0.2905355,-0.29123086,0.4765209,-0.09667884,-0.37170848,0.47181204,-0.25828582,-0.059400477,0.17695327,0.3759147,-0.49406153,0.059374567,0.32614446,0.41885373,0.16943288,-0.35545066,0.114653364,0.15501036,0.19200747,-0.4608211,0.4887618,-0.4813551,0.31493163,0.19053413,0.75098646,0.6521559,-0.33856443,0.27536827,0.034882903,0.010758404,-0.06638145,0.23116726,0.284925,0.26048574,0.035939522,0.26457915,-0.41812724,0.14830485,-0.53704846,-0.055245243,0.52265525,-0.028779069,-0.11324685,-0.0009193058,0.28843153,0.019738786,-0.28813335,0.29136735,0.40712342,-0.27909362,0.08121374,-0.15759212,-0.0042195977,0.107173026,0.1712355,-0.11119479,0.4358637,-0.02355145,-0.40596935,-0.24717176,-0.27958858,-0.29742932,-0.1231361,0.6039464,0.014585581,0.15500325,-0.09347473,-0.11339324
4606:CEDAR_AVE,-0.37115365,-0.645976,-0.061490305,-0.4188385,-0.42674887,0.46045178,-0.6896594,0.1803415,0.6424773,-0.40958506,-0.4513372,-0.61881304,0.007592599,-0.15651739,0.19912013,0.7266487,0.19291548,0.5129855,-0.25097767,-0.8075095,0.5218663,-0.18761352,-0.11111761,0.5773084,0.95623994,-0.84304506,-0.106884725,0.07032322,0.14470394,0.55782443,0.065078735,0.27652726,-0.04356588,-0.12849763,-0.09776406,0.03140626,-0.39025533,-0.13777289,0.6673621,-0.18028913,-0.31245106,0.39410332,-0.64444816,-0.5809486,-0.069665186,-0.27585605,-0.28045252,0.37856597,-0.3156421,-0.6196368,0.033263437,-0.8254822,0.09940019,-0.06747566,0.08110023,-0.383201,0.06613369,0.020660445,-0.062427633,0.030969977,0.35089046,-0.4101355,0.74430394,-0.18323664,-0.34296244,0.46381965,-0.17777342,-0.1862289,0.019697692,0.057617437,-0.4204432,0.009128504,0.27576983,0.25572407,0.17058952,-0.24191199,0.16767445,0.18277602,0.14862418,-0.52305824,0.5378645,-0.49885276,0.47908366,0.18357062,0.8780747,0.78862643,-0.19329126,0.40663835,-0.12593433,0.023751687,-0.13495561,0.11801287,0.4201812,0.44253042,0.11340898,0.27571282,-0.48442465,0.14667158,-0.539962,-0.13529,0.47803992,0.028280145,-0.3381166,0.050619792,0.3376166,0.087168045,-0.22701672,0.32896596,0.5519043,-0.3155015,0.13342158,-0.30217928,-0.05810358,0.026331717,-0.0021062903,0.0455366,0.042895738,0.00765335,-0.17991751,-0.2187414,-0.24583684,-0.5625054,-0.26360944,0.74743396,0.1194737,0.075370565,-0.052141037,-0.06591817
4608:WOODWARD_DISTR,-0.38243696,-0.5421018,-0.08626326,-0.38592586,-0.36093143,0.4782774,-0.72248375,0.058880724,0.5767843,-0.4095919,-0.59852535,-0.6623294,0.02950089,-0.1995116,0.16913013,0.58535856,0.21549769,0.4911941,-0.25997666,-0.7592407,0.48855624,-0.199491,-0.15243095,0.5550241,1.1103585,-0.8679463,-0.09790713,0.13723183,0.06017985,0.46933222,0.058504295,0.30199707,-0.020999437,-0.018360045,0.032384213,0.12515594,-0.24187429,-0.1539593,0.6200894,-0.13257854,-0.41094494,0.56887716,-0.82156,-0.68484336,-0.0851913,-0.3116384,-0.4917255,0.5371038,-0.29498842,-0.68095785,-0.014970859,-0.86826164,0.080704845,-0.10623002,0.17722957,-0.36390713,0.1348347,-0.017771728,-0.061372645,0.017974623,0.34643817,-0.5152154,0.80899775,-0.2085709,-0.3402761,0.51565456,-0.28898337,-0.2644789,-0.030582415,0.008311233,-0.27098048,0.038929503,0.32780054,0.19781636,0.119476385,-0.26806793,0.10305717,0.10390518,0.026621424,-0.38670778,0.52116346,-0.50700957,0.43238524,0.13435835,0.9299116,0.7451705,-0.22698043,0.4782315,-0.07015062,-0.023551079,-0.20037095,0.07647314,0.58636594,0.6134453,0.18922286,0.31937182,-0.24898063,0.084175356,-0.39909387,-0.17294946,0.36338645,0.06705138,-0.3066758,0.06622234,0.33518,0.050000347,-0.19758913,0.28765842,0.4089549,-0.25645444,0.077654704,-0.24103619,-0.14017741,-0.027287744,-0.0013642986,0.060816966,0.0012120807,-0.016028624,-0.19333673,-0.14670724,-0.1874546,-0.53033805,-0.2953215,0.65058255,0.19189659,0.071832955,-0.14684354,-0.1689175
4611:DEWEY,-0.36681294,-0.6049565,-0.051957108,-0.37514678,-0.41910353,0.41653684,-0.695261,0.20673953,0.6293844,-0.3489145,-0.46444628,-0.535887,0.022388408,-0.1528048,0.25096044,0.6315193,0.2881298,0.5186258,-0.2399898,-0.79167885,0.51449215,-0.24059744,-0.012160352,0.7197994,1.07634,-0.8893474,-0.09872237,0.19694784,0.13390307,0.49481386,0.0805464,0.25891384,-0.03774377,-0.036988717,0.037629157,0.054068364,-0.24334285,-0.16510804,0.594663,-0.21541151,-0.33073515,0.56356776,-0.7388699,-0.6507643,-0.0900424,-0.24483943,-0.45822728,0.39255065,-0.40095246,-0.8021169,0.05875787,-0.91140705,0.082316324,-0.08926396,0.1737728,-0.38058254,0.075919844,0.003575038,-0.0070235175,0.107292816,0.32857338,-0.49159354,0.8380304,-0.30282384,-0.3694128,0.42446575,-0.277382,-0.27668816,-0.024573997,0.08939911,-0.29567766,0.11763922,0.36671588,0.19604352,0.08755962,-0.31190374,-0.011243715,0.1508952,0.07379934,-0.280064,0.64417243,-0.42301288,0.52857196,0.14420523,1.0107465,0.87856656,-0.091015786,0.49527106,-0.144858,0.08115247,-0.11562087,0.062119614,0.5607985,0.35943282,0.15153894,0.26128185,-0.25394484,0.14273387,-0.37613016,-0.120030165,0.3454692,0.046381198,-0.34234783,0.026197068,0.3277935,0.057332013,-0.24894166,0.33153778,0.36794537,-0.22068879,0.09528086,-0.351731,-0.09711891,0.015054354,0.033447083,0.015073818,0.11187466,0.050829038,-0.32127324,-0.18995321,-0.23498575,-0.40794477,-0.28638813,0.6092422,0.22132605,0.07810887,-0.10233952,-0.039873436
4616:NEWMAN_AVE,-0.36924642,-0.55434054,-0.17431618,-0.44122872,-0.41957808,0.5037745,-0.633502,0.11912195,0.66099364,-0.40696704,-0.6299024,-0.731299,0.09328949,-0.29015917,0.29933646,0.6432826,0.28420466,0.48151562,-0.1594735,-0.74318117,0.3961955,-0.29768842,-0.03498023,0.6118985,1.0046418,-0.84365886,-0.019903746,-0.041262757,0.11209996,0.48041016,0.19587556,0.24701208,-0.054486666,-0.10186344,-0.11366551,0.05034365,-0.36357707,-0.07709288,0.5939148,-0.16912293,-0.30171317,0.367678,-0.7119044,-0.6109094,-0.079047404,-0.26033494,-0.5161723,0.4544574,-0.39518273,-0.66760695,0.057957627,-0.9803798,0.0067003523,-0.040793244,0.17589831,-0.4422297,0.120561495,0.024940465,0.002536092,-0.07723811,0.30711102,-0.49566388,0.8561947,-0.3392563,-0.2026584,0.40255502,-0.15037692,-0.2189436,0.049385566,0.1458565,-0.4649254,0.04503041,0.33068025,0.24224277,0.08080998,-0.32035333,0.17065321,0.20593184,0.09213014,-0.5208201,0.49511713,-0.4660911,0.51491565,0.29891935,0.9194939,0.70755386,-0.09142331,0.5012567,-0.013032484,0.081470825,-0.27651218,0.10002773,0.6296223,0.5134533,0.03636801,0.36535993,-0.45512664,0.10402354,-0.4370929,-0.11709895,0.304711,0.14295594,-0.4343093,0.03230067,0.29031914,0.036408044,-0.19513494,0.16524014,0.46666723,-0.33381376,0.09538792,-0.3060538,-0.109869055,-0.019673007,0.061778102,0.15390405,-0.09017329,-0.08160273,-0.16870664,-0.09809809,-0.19636129,-0.47472274,-0.15762024,0.64901835,0.1778822,0.20355736,-0.13414225,-0.19697483
4705:ALVA,0.045942627,-0.17302161,-0.009464733,-0.020092111,-0.11123055,0.10814555,-0.023903709,0.10007423,0.2828362,-0.115002975,-0.3424929,-0.38249463,0.19905707,-0.37204143,0.54114926,0.5616909,-0.0001597186,0.11325135,-0.20087884,-0.35535038,0.39123103,-0.11550793,-0.03958983,0.25849643,0.5773387,-0.38208744,-0.11116597,0.13960879,0.0448175,0.20112488,-0.005682645,0.17552848,0.11882826,0.016157366,-0.05486014,0.07904096,-0.23272085,-0.28036794,0.57439446,-0.06462414,-0.3950626,0.33272305,-0.5157762,-0.4567348,-0.21890311,-0.24123733,-0.25299633,0.2394215,-0.41488364,-0.782477,0.021519018,-0.757681,-0.05935428,-0.012023861,0.28905037,-0.22997223,-0.038213212,0.14583935,-0.16832376,-0.105305955,0.22017117,-0.38868657,0.5780716,-0.166183,-0.31722024,0.50195223,-0.25840652,-0.14697361,0.10851564,0.24157366,-0.31266925,0.17145908,0.5605339,0.35278082,0.086146995,-0.30594185,0.032122325,0.14112096,0.14708841,-0.43961325,0.64237154,-0.5475563,0.30388233,0.09370538,0.8001818,0.6264164,-0.41599825,0.25692523,0.01269838,0.055762384,-0.10467324,0.18877478,0.36513817,0.61922914,0.15331027,0.09674326,-0.39342007,0.09306753,-0.48640734,-0.09154573,0.4062823,-0.027087096,-0.11197508,0.017225698,0.23975198,-0.02530818,-0.3535334,0.22713968,0.43612742,-0.41273245,0.07031196,-0.06583886,-0.11472781,0.0631117,0.077119105,-0.007235293,0.19797154,-0.018603876,-0.43711582,-0.18144618,-0.17354605,-0.21348627,-0.13860573,0.4546743,0.038868275,0.14330883,-0.005843421,-0.10775079
